DiseaseID,feature_1,feature_2,feature_3,feature_4,feature_5,feature_6,feature_7,feature_8,feature_9,feature_10,feature_11,feature_12,feature_13,feature_14,feature_15,feature_16,feature_17,feature_18,feature_19,feature_20,feature_21,feature_22,feature_23,feature_24,feature_25,feature_26,feature_27,feature_28,feature_29,feature_30,feature_31,feature_32,feature_33,feature_34,feature_35,feature_36,feature_37,feature_38,feature_39,feature_40,feature_41,feature_42,feature_43,feature_44,feature_45,feature_46,feature_47,feature_48,feature_49,feature_50,feature_51,feature_52,feature_53,feature_54,feature_55,feature_56,feature_57,feature_58,feature_59,feature_60,feature_61,feature_62,feature_63,feature_64,feature_65,feature_66,feature_67,feature_68,feature_69,feature_70,feature_71,feature_72,feature_73,feature_74,feature_75,feature_76,feature_77,feature_78,feature_79,feature_80,feature_81,feature_82,feature_83,feature_84,feature_85,feature_86,feature_87,feature_88,feature_89,feature_90,feature_91,feature_92,feature_93,feature_94,feature_95,feature_96,feature_97,feature_98,feature_99,feature_100,feature_101,feature_102,feature_103,feature_104,feature_105,feature_106,feature_107,feature_108,feature_109,feature_110,feature_111,feature_112,feature_113,feature_114,feature_115,feature_116,feature_117,feature_118,feature_119,feature_120,feature_121,feature_122,feature_123,feature_124,feature_125,feature_126,feature_127,feature_128,feature_129,feature_130,feature_131,feature_132,feature_133,feature_134,feature_135,feature_136,feature_137,feature_138,feature_139,feature_140,feature_141,feature_142,feature_143,feature_144,feature_145,feature_146,feature_147,feature_148,feature_149,feature_150,feature_151,feature_152,feature_153,feature_154,feature_155,feature_156,feature_157,feature_158,feature_159,feature_160,feature_161,feature_162,feature_163,feature_164,feature_165,feature_166,feature_167,feature_168,feature_169,feature_170,feature_171,feature_172,feature_173,feature_174,feature_175,feature_176,feature_177,feature_178,feature_179,feature_180,feature_181,feature_182,feature_183,feature_184,feature_185,feature_186,feature_187,feature_188,feature_189,feature_190,feature_191,feature_192,feature_193,feature_194,feature_195,feature_196,feature_197,feature_198,feature_199,feature_200,feature_201,feature_202,feature_203,feature_204,feature_205,feature_206,feature_207,feature_208,feature_209,feature_210,feature_211,feature_212,feature_213,feature_214,feature_215,feature_216,feature_217,feature_218,feature_219,feature_220,feature_221,feature_222,feature_223,feature_224,feature_225,feature_226,feature_227,feature_228,feature_229,feature_230,feature_231,feature_232,feature_233,feature_234,feature_235,feature_236,feature_237,feature_238,feature_239,feature_240,feature_241,feature_242,feature_243,feature_244,feature_245,feature_246,feature_247,feature_248,feature_249,feature_250,feature_251,feature_252,feature_253,feature_254,feature_255,feature_256,feature_257,feature_258,feature_259,feature_260,feature_261,feature_262,feature_263,feature_264,feature_265,feature_266,feature_267,feature_268,feature_269,feature_270,feature_271,feature_272,feature_273,feature_274,feature_275,feature_276,feature_277,feature_278,feature_279,feature_280,feature_281,feature_282,feature_283,feature_284,feature_285,feature_286,feature_287,feature_288,feature_289,feature_290,feature_291,feature_292,feature_293,feature_294,feature_295,feature_296,feature_297,feature_298,feature_299,feature_300,feature_301,feature_302,feature_303,feature_304,feature_305,feature_306,feature_307,feature_308,feature_309,feature_310,feature_311,feature_312,feature_313,feature_314,feature_315,feature_316,feature_317,feature_318,feature_319,feature_320,feature_321,feature_322,feature_323,feature_324,feature_325,feature_326,feature_327,feature_328,feature_329,feature_330,feature_331,feature_332,feature_333,feature_334,feature_335,feature_336,feature_337,feature_338,feature_339,feature_340,feature_341,feature_342,feature_343,feature_344,feature_345,feature_346,feature_347,feature_348,feature_349,feature_350,feature_351,feature_352,feature_353,feature_354,feature_355,feature_356,feature_357,feature_358,feature_359,feature_360,feature_361,feature_362,feature_363,feature_364,feature_365,feature_366,feature_367,feature_368,feature_369,feature_370,feature_371,feature_372,feature_373,feature_374,feature_375,feature_376,feature_377,feature_378,feature_379,feature_380,feature_381,feature_382,feature_383,feature_384,feature_385,feature_386,feature_387,feature_388,feature_389,feature_390,feature_391,feature_392,feature_393,feature_394,feature_395,feature_396,feature_397,feature_398,feature_399,feature_400,feature_401,feature_402,feature_403,feature_404,feature_405,feature_406,feature_407,feature_408,feature_409,feature_410,feature_411,feature_412,feature_413,feature_414,feature_415,feature_416,feature_417,feature_418,feature_419,feature_420,feature_421,feature_422,feature_423,feature_424,feature_425,feature_426,feature_427,feature_428,feature_429,feature_430,feature_431,feature_432,feature_433,feature_434,feature_435,feature_436,feature_437,feature_438,feature_439,feature_440,feature_441,feature_442,feature_443,feature_444,feature_445,feature_446,feature_447,feature_448,feature_449,feature_450,feature_451,feature_452,feature_453,feature_454,feature_455,feature_456,feature_457,feature_458,feature_459,feature_460,feature_461,feature_462,feature_463,feature_464,feature_465,feature_466,feature_467,feature_468,feature_469,feature_470,feature_471,feature_472,feature_473,feature_474,feature_475,feature_476,feature_477,feature_478,feature_479,feature_480,feature_481,feature_482,feature_483,feature_484,feature_485,feature_486,feature_487,feature_488,feature_489,feature_490,feature_491,feature_492,feature_493,feature_494,feature_495,feature_496,feature_497,feature_498,feature_499,feature_500,feature_501,feature_502,feature_503,feature_504,feature_505,feature_506,feature_507,feature_508,feature_509,feature_510,feature_511,feature_512
C1,0.46849394,-0.041019835,-0.21052766,-0.17234749,0.2887694,0.048778087,-0.07466013,-0.45468992,-0.123948,-0.016186006,-0.17809317,-0.16903146,0.19668812,0.15043831,0.02668044,0.16175187,0.13830365,-0.23455384,-0.16139583,-0.31012204,-0.15644743,0.011501402,0.19087651,-0.2453345,0.15184134,0.55617464,-0.022275493,0.09797897,0.07879361,-0.5332203,0.21361688,-0.55436254,0.01654055,-0.27811474,-0.025986735,-0.20397094,-0.14616641,-0.053179868,-0.41957754,-0.05568544,-0.08315758,-0.04021874,0.35679382,-0.22741511,0.23306778,-0.03700292,-0.020334518,0.107346304,0.10635604,-0.06398489,-0.191296,0.12959316,0.23939618,-0.0074534863,-0.27800742,0.09494557,-0.1197884,0.27066597,-0.13922498,-0.09236718,0.33178228,-0.43265435,0.2645135,-0.3202193,-0.056707084,-0.1008024,0.2171244,0.17376786,-0.25005913,0.11498408,0.15551516,-0.24893144,-0.15717304,0.19897981,0.111723155,-0.3478088,-0.14202872,0.16213402,-0.29740053,-0.12872152,0.025895119,0.48643315,0.021642447,0.110256486,-0.23808093,-0.1303406,0.24342406,-0.16266641,0.26229057,0.07241337,-0.12156531,-0.6918802,0.3224356,0.108453825,0.0071744025,0.3299685,0.49700686,-0.02644382,0.03380239,0.36277887,-0.00160864,-0.17415875,-0.123100065,0.08663033,-0.044200413,-0.07359728,-0.017130315,0.022291817,-0.18397301,-0.28049102,-0.26808745,0.29092628,-0.062079288,-0.06318165,0.54650027,0.2185068,-0.039445728,-0.23428887,-0.082147114,-0.13047805,0.31902248,0.2194624,0.10884075,-0.034428276,0.04813607,0.5084324,0.1304043,-0.27913272,-0.3110295,0.14122173,-0.41638786,-0.09357248,-0.30357027,-0.15729703,-0.22440875,0.09698103,0.08750382,-0.12428431,-0.16905442,-0.08005596,0.16187774,-0.3882024,-0.02116492,-0.08465082,-0.10995246,0.13619596,0.010550521,0.21400094,-0.16714591,-0.005729016,-0.12947337,-0.20105605,0.14647657,0.09930655,-0.28822917,-0.20485982,0.09675238,0.13315429,-0.014192376,0.21600047,-0.10591398,-0.12213112,0.21954684,-0.06686853,0.040544704,-0.16304904,-0.05236826,0.02600843,-0.07332789,0.12333658,0.026692633,0.14424522,-0.0476788,-0.054831225,0.2896597,0.12659326,0.30700207,0.015002288,-0.12482314,-0.23325107,0.29419962,-0.13637912,-0.1365144,0.1603213,0.12106611,0.41378117,0.39787993,-0.40939963,0.46850386,0.009233367,0.061026342,-0.15475968,0.11374848,0.032583177,-0.082038745,0.3274414,-0.123881996,0.12924582,0.23592514,0.022245452,-0.0023750216,-0.027280513,-0.13265719,0.00832054,-0.16432126,0.09340245,-0.037683032,0.5077542,-0.050171725,0.05733207,0.21074998,-0.2359738,-0.2781986,0.23476121,-0.1303654,0.18064892,0.15207803,-0.14612678,0.07180266,0.1841135,-0.20117152,-0.3357994,0.28985214,-0.2769343,0.20851856,-0.3587341,-0.1128934,-0.18226135,0.12954873,0.18049072,-0.022282474,-0.16206025,0.46159285,-0.28927258,0.088079214,-0.026761271,-0.45275116,0.0822247,-0.35213965,-0.44922453,0.12247643,0.062130354,0.0061132945,0.024760325,-0.039010957,-0.22015868,-0.42250344,-0.069177896,0.33892894,0.2004391,0.0013992712,-0.11183757,-0.27946487,-0.4816582,0.111229934,0.6223549,0.1522212,-0.09551439,0.09050556,0.12548204,0.3836038,0.25465614,-0.19115336,0.20945269,0.12818724,0.20183931,-0.28460655,0.05473876,0.18105203,-0.46922642,0.4442583,-0.06393417,0.006155435,0.5922744,0.017027386,0.18386614,0.2404902,-0.32120866,0.018643152,0.19760782,-0.17920797,0.3219021,-0.14800969,0.051012505,0.093037836,-0.12116872,-0.00949714,0.12160718,-0.2743498,0.021723762,-0.11815933,0.35523465,-0.27635637,-0.07385601,0.058461763,-0.10174507,-0.048418503,-0.45151642,-0.25186318,0.051537015,-0.037040774,-0.09257813,-0.13773133,-0.26323122,-0.20734426,-0.22783783,-0.09943829,0.009260252,0.0044975877,0.2770874,-0.1291587,0.51260304,-0.27054042,-0.18944338,-0.42532992,0.082757816,0.28863764,-0.13657883,0.077735946,-0.21940729,0.18833199,0.42503077,-0.29723275,-0.26881114,0.15575285,0.05509498,-0.363349,-0.00080951303,-0.15029389,-0.06950318,-0.042984612,0.1392739,-0.23859644,0.3655557,-0.09130684,-0.07986467,0.2725894,-0.18880013,-0.12460663,-0.41721556,-0.22830248,-0.04395554,0.40935177,0.09868627,0.2712548,0.10940595,0.04933604,0.4077149,0.13628414,0.15553054,0.39422318,0.21064675,0.31131783,-0.116260335,0.5274849,-0.14895433,0.107282735,0.27062237,0.19540653,-0.31660745,0.20532355,-0.022493012,-0.17924836,0.030629616,-0.20868,-0.019417226,0.09197338,-0.10475805,-0.40829557,0.043310538,0.19806924,0.12172464,-0.23241377,-0.3467219,0.08193864,0.4063017,-0.1637472,0.22765931,-0.026946332,0.021464374,-0.13870817,-0.273416,-0.118442506,-0.122723944,-0.069503345,0.091971196,0.1557734,0.38260984,0.59602606,0.19085656,-0.03828249,-0.16465908,-0.5539212,-0.25981355,-0.024928436,-0.13042165,0.19338304,0.28158715,0.34136498,0.10166265,-0.041236676,0.25580922,0.42000788,-0.031836778,-0.1242847,0.40555817,0.34712052,0.027067728,-0.3522412,0.3782657,0.06885205,-0.02231919,-0.09528338,0.34660175,-0.20418486,-0.30586123,0.17626953,0.024921156,0.29892057,-0.17275694,-0.13018218,0.27397266,0.23314962,-0.46548724,0.31892136,-0.24253589,-0.061449967,-0.021326505,0.019348912,-0.16343951,0.07006592,-0.06156765,0.1412215,0.29347533,0.07957052,0.049219944,-0.10273617,-0.18192488,-0.06834604,0.057941094,-0.10987408,0.18795002,-0.17781621,0.00927899,0.3066577,-0.022214908,-0.13728817,0.064906895,-0.24294725,-0.028468782,0.041422576,-0.11911352,0.043248236,0.07402739,0.11424437,-0.43029156,-0.26522335,-0.2709711,0.29177788,-0.028574683,-0.21084629,0.21343039,-0.056365214,-0.2691878,-0.71029955,0.07029346,0.10310506,-0.049189687,0.23375182,-0.09171975,0.09046019,0.12930387,-0.30229244,-0.082358815,-0.06531089,0.14930794,-0.065464646,0.037093658,0.33848265,0.30319375,-0.10482928,0.19216117,0.090346545,-0.36875385,0.044781476,-0.24446332,0.21348178,-0.13068554,0.06694976,0.14325312,-0.026189476,-0.09414852,-0.07935171,0.23695162,0.38720408,0.2849367,0.23564667,-0.087548286,0.10469562,-0.035977095,-0.0043475702,0.18872169,0.21855226,0.3221647,-0.008481478,0.15726236,-0.027740687,-0.115374334,-0.12628372,-0.005123373,-0.34930205,0.084902935
C2,-0.015790544,0.1532878,-0.09335749,-0.15835416,-0.051074788,-0.04478289,0.22921878,0.35026717,0.08346895,0.3122581,-0.35600352,-0.2633468,0.3097586,-0.44290298,0.07716922,0.1273273,0.0023420341,0.22902587,0.08089148,0.16233386,0.17501591,-0.11472563,-0.10034131,0.10735142,-0.2652819,-0.23654824,-0.33141688,0.08891805,-0.05941444,-0.43400156,0.3455498,0.09706804,-0.042177215,-0.06921229,0.27631506,0.06250401,0.10273541,0.08562279,0.4029011,0.02951584,-0.036406398,-0.32516393,-0.14253053,-0.3416605,0.17058998,-0.059018455,-0.05996362,-0.072825134,-0.15170816,0.14025682,0.35602584,0.20603818,0.2376503,0.10682535,0.048779674,-0.34003988,-0.053822026,-0.2452122,-0.11290896,0.07299467,-0.06457564,0.008334428,0.20700914,-0.4545104,-0.26162258,0.08729093,0.0424655,0.040706225,-0.2932565,0.06205819,-0.03729362,0.07302594,-0.39584124,0.13797066,-0.0533092,-0.3824422,-0.32628787,-0.106799416,0.33528757,0.2123797,0.03477405,0.388674,0.35246292,0.0038709715,-0.23208848,-0.19382404,0.1636531,0.12958217,0.13178185,-0.085394435,-0.36688548,0.38728392,0.057643726,0.035415333,-0.35293734,-0.28306517,-0.1585983,0.32060337,-0.0076941624,-0.101825185,-0.6228228,0.06650081,0.1701878,0.2882254,-0.111666456,0.15626468,-0.0037395805,0.2770185,0.29549822,-0.20947495,0.22583157,-0.19269994,-0.37828657,-0.54447365,-0.075312115,0.04524385,0.17799538,0.13561366,0.18293169,-0.0722006,0.052469514,-0.24067575,0.14971834,0.5630561,-0.119164556,-0.017564036,0.058390614,0.24051028,-0.4405037,-0.22992623,0.11167702,-0.20568952,-0.08214925,0.22767544,0.014807016,-0.33353907,-0.13986608,0.0073696524,0.4513244,0.18506566,0.03279511,-0.23424956,0.23427822,-0.15246183,0.095658764,0.30863208,-0.14150396,-0.111627065,0.44761252,-0.25888157,0.052842285,0.26504222,0.31747,-0.3565015,0.21499097,0.04702262,0.25878185,0.19572021,0.26967797,0.0025444925,0.65393835,-0.36217618,0.2889165,0.06883456,-0.3248843,-0.021165974,0.27184194,-0.017788462,-0.049067676,0.16612041,0.010629591,0.37089685,0.2263938,0.02959045,-0.30977094,-0.0542987,-0.59627235,0.080758944,0.10645121,0.44678628,-0.35823086,0.299102,0.23128292,-0.122469604,-0.18991141,-0.19390759,0.39674646,0.29951236,-0.13797808,-0.0034028478,-0.0692624,0.08959944,-0.12651265,-0.36030555,-0.15469426,0.011594988,-0.06470889,0.03420371,-0.061669856,-0.054480173,0.39392638,0.22218613,0.027610932,0.09875992,-0.25768805,-4.9464405e-05,-0.0076799877,-0.2998023,-0.0500694,-0.08569977,0.45822358,-0.26379326,0.13749188,0.027991604,0.17023483,-0.06866978,0.19056678,0.048135266,-0.25454438,0.27374122,-0.50081396,-0.28952673,0.2030637,0.20038396,0.025833301,-0.07916117,-0.13520584,-0.13248739,0.35147816,0.32701278,-0.20281959,-0.28859657,0.027247764,0.34270278,-0.09889999,-0.13689393,0.20740332,0.006864816,-0.2993483,-0.12163327,0.061050773,0.08917041,-0.22285715,-0.004719816,-0.26433027,0.22828509,-0.35663888,-0.47063723,0.12933601,0.29835922,0.19113469,-0.09268149,0.3448201,0.02800718,-0.37027222,-0.0035496578,-0.090469696,-0.36454487,0.42992803,0.105290346,-0.008361734,0.23011285,-0.20349206,-0.10949788,0.2464445,-0.27090773,-0.15808639,-0.2682758,-0.24390176,-0.016100861,-0.3095382,0.41401872,0.00026560947,0.34969777,-0.12427383,0.0725128,-0.25803703,0.4918432,-0.088140644,0.10885722,0.11968169,0.1692903,0.11005213,0.055131435,-0.16890451,-0.13314015,0.2169086,0.010583378,-0.083225474,-0.12671861,0.21211672,-0.44140288,-0.6417774,0.002918452,-0.17181808,0.3637769,-0.1690553,0.23809037,0.17234394,-0.020130537,0.015238106,-0.290478,0.056359924,-0.40113664,0.44857052,-0.21010098,0.04658179,0.2022152,-0.13928062,0.07242991,-0.011632234,0.1994406,0.2290476,0.014806808,0.46468914,0.16996086,0.36927888,-0.0053578317,0.4567354,0.3779074,0.26369655,-0.21333611,-0.29623628,0.6923736,-0.1073386,0.47424543,0.163739,-0.19878915,0.3030438,-0.0150447115,0.1265924,0.04142946,0.036922522,-0.032514416,0.14275376,-0.0895463,-0.14609675,0.0729543,-0.05212751,0.0056252684,0.72778153,0.19437838,0.14722237,0.07493905,-0.11902621,0.0049992576,0.03330832,-0.53153986,-0.030501053,0.008576363,-0.35962555,0.1194067,-0.14112297,0.24974543,-0.1873252,0.22487989,0.13739128,-0.068199284,-0.24637204,0.004430175,-0.17842984,0.1944165,-0.24354249,0.15950383,0.06319998,-0.122484714,-0.07929047,-0.0713525,0.4605832,0.2857787,-0.2406182,-0.2352098,0.13771689,-0.26851583,-0.5346215,-0.12051154,-0.28834942,0.14351396,-0.38276792,0.19097629,-0.17231141,0.040646985,0.042671345,0.14031872,0.16072965,0.13627174,0.01693461,-0.084743,0.02285869,0.4185224,-0.6007045,-0.117941864,0.35525894,-0.14291027,0.07214137,-0.21774547,-0.19130778,-0.15748444,-0.100820005,0.055167865,-0.24420008,0.28088152,-0.18211123,0.06475272,0.16240197,0.029452972,-0.32940254,-0.21565604,0.060432963,0.13434404,-0.05110673,0.2336156,0.22422063,0.043379433,0.0808592,-0.06349299,-0.18090442,0.23170531,0.22484966,-0.033382393,0.07374382,0.18032762,-0.12501052,0.37995476,-0.15494916,-0.25017253,0.1738604,-0.025140867,-0.25636503,-0.43072146,0.16521963,0.07584408,0.44480154,-0.12561765,-0.2150913,0.047387533,0.11759705,-0.24381843,0.08242916,0.22003867,0.16283756,-0.56051815,-0.026447758,-0.0015466586,-0.17387979,-0.06468853,0.19693206,0.32069033,0.11500471,0.07387018,0.045334104,-0.2668548,0.14941484,-0.111209005,0.017796202,0.06240548,0.04428714,0.5785381,-0.4488331,0.17643076,-0.2874381,-0.518923,-0.2252374,-0.00828445,0.30925605,0.16982313,-0.36794218,-0.41312152,0.26860267,0.006359458,-0.21142998,0.1137909,0.17223698,-0.00063823164,-0.48637968,-0.2734269,-0.20644324,0.0056877397,0.046020277,0.21817884,0.37057197,0.36139822,0.18327206,-0.1799595,-0.060235992,0.2512638,0.08223165,0.09281846,-0.11547377,0.012535691,0.10585137,-0.30054677,0.059741057,-0.17993346,0.13898093,-0.16211477,-0.13876936,0.35385275,-0.13382325,-0.19138074,-0.08072531,0.19149667,-0.21504462,-0.040863827,-0.098294966,0.23488218,-0.08489488,0.036223114,-0.31951714,-0.2343351,0.07528924,0.113775395
C3,0.11887961,0.32925886,0.20839497,0.029919133,-0.028896503,-0.10682862,0.30091497,-0.30078423,0.40511903,0.35804024,0.47995803,0.16748777,-0.16068959,-0.09547618,-0.38005665,0.49803656,0.1904161,0.2448493,0.4248612,0.068143696,0.14921409,-0.18056852,-0.04577572,0.09462428,-0.028324708,0.14884791,0.5263713,-0.11992014,-0.083874665,-0.07229662,-0.022930808,-0.5208081,0.048453595,0.01044501,0.109538965,0.03255032,-0.32959625,-0.17348832,0.015411694,0.306584,0.044147946,-0.22227156,-0.01630234,-0.15571883,0.08405992,0.27414548,-0.16592188,0.6948567,-0.25064027,-0.1346513,-0.16455866,-0.01762342,0.045724362,0.059714437,-0.039367314,0.044610374,0.012127832,-0.033103194,0.3490293,-0.16289803,-0.25182864,0.21904239,0.14663887,-0.4985901,-0.1398519,0.24047488,-0.53425235,0.37656885,-0.5111538,0.17597285,0.36877814,-0.16629872,0.037676975,0.39162087,-0.2869864,-0.30959886,-0.026229478,-0.3845952,0.3895228,-0.047494624,-0.011640333,0.07302671,0.18383673,0.091694176,-0.47267532,0.008792728,-0.18492693,-0.2639784,-0.023493454,-0.07106275,-0.15559918,-0.16214927,0.46186656,0.15791261,-0.5124062,0.30999544,0.13623935,-0.44858897,0.108404025,0.14558792,0.118301734,-0.42680535,0.509505,0.47188455,-0.28232637,-0.107892804,0.22626677,0.572479,-0.15766099,0.23564228,0.61571497,0.16406286,-0.23142043,-0.20681651,-0.5855631,-0.020456776,0.40055722,-0.11472063,-0.15182109,-0.02890832,0.06311933,-0.13962336,0.16838866,0.22695068,0.32661414,0.008344397,0.28913832,-0.03145149,0.23673463,-0.47139522,0.2457832,-0.6097162,0.03811819,0.0469824,-0.14329001,-0.13893676,-0.13041782,0.102527976,-0.11108359,0.51108843,0.05775951,-0.19058374,0.07842793,-0.118737586,-0.11254292,-0.40884334,-0.18963853,-0.3700999,0.21884379,-0.56660134,0.001780929,0.07154518,0.3043702,0.011235222,-0.024779543,0.3477025,0.47917965,-0.02367162,0.02252974,-0.1421976,0.6593243,-0.034619343,-0.51086825,0.31135854,-0.1381211,0.23784274,0.2867858,0.21443501,-0.19266865,-0.44490016,0.1839252,-0.22313988,0.01910793,0.017408684,0.20710307,-0.094035916,-0.3728097,-0.23403029,-0.113619305,-0.31529534,-0.1822978,-0.2207442,0.042964615,-0.14380415,0.05894013,-0.036875412,-0.1712015,0.21491376,-0.19159356,0.082772344,-0.013448108,-0.049277026,0.2899911,0.036223255,-0.08850487,0.017148683,-0.52117807,0.08688633,0.18023098,0.13452914,0.054631874,0.26439786,0.18666756,0.07342349,-0.027639229,-0.28788823,-0.5262304,-0.26837468,0.023944274,0.19159418,-0.1348533,-0.3837147,-0.025368229,-0.26741657,-0.137779,0.013498159,-0.069466,0.7472124,0.3222995,0.20441847,-0.66270274,0.1759311,0.30119184,-0.09582795,-0.25795358,-0.4624573,0.51810056,0.46966216,0.38835996,0.22983573,0.1369882,-0.45168325,0.03572969,0.073427744,0.13670193,-0.25081295,-0.09661016,0.032623768,-0.39863205,0.19603884,0.34872428,0.14783178,-0.7310871,0.1318624,0.27225417,0.1562293,0.008143917,-0.04066322,0.27225167,0.08838978,0.5534435,0.12025096,0.12076389,0.04053045,-0.09705811,-0.17816153,0.2049815,0.015584979,0.24915233,0.15929878,0.0006028004,0.21501392,0.05633142,-0.33130118,-0.0500152,-0.41222435,-0.50776565,0.018966097,0.10577087,0.3972254,-0.11438659,-0.10380392,-0.2794552,0.13209973,-0.7046779,-0.04353541,-0.33823577,0.2223923,-0.31571478,-0.18518937,0.23986375,-0.100642465,-0.1779607,-0.13276649,0.16791248,0.33590427,-0.30897003,0.23882869,-0.12058072,0.50063944,-0.34633708,0.094534546,-0.081468835,-0.3558665,0.16512704,-0.20568503,0.17210482,0.0005432889,-0.27606282,-0.032658357,0.35046864,0.07254672,-0.1679065,-0.10937108,0.14394635,0.0064252242,0.07427085,0.18888278,-0.0767253,-0.24349861,0.24634758,0.12437341,-0.23169494,0.21533543,0.28290725,-0.35750973,0.16209504,-0.08971183,0.10567414,0.29136568,0.00073230267,-0.33193478,-0.13179101,0.12752104,0.1580278,0.42613938,-0.5291836,-0.03128203,0.07284422,-0.07477338,-0.054914974,0.38083473,-0.099243045,-0.16590875,0.58205825,-0.06837739,0.4014116,0.27728963,0.09626068,-0.03183587,0.40944788,0.24537921,0.082237236,-0.36048824,-0.33591104,-0.37861738,0.19565287,-0.4697787,0.15236753,0.06041665,-0.13325387,-0.041444443,-0.5558982,0.48130837,0.028134089,0.07793003,0.047587357,-0.32225823,0.55746907,-0.33168605,0.07630362,0.42107895,-0.4028315,0.16152878,-0.21311434,-0.13819957,0.04923284,0.060540922,0.34893414,-0.4476913,-0.32025576,-0.018729571,0.33466482,-0.040139645,-0.24640605,-0.23434117,-0.035502754,0.1748227,-0.4454171,0.16236174,-0.34109533,0.3282237,0.082325794,0.04954917,0.3245718,0.81181824,-0.55165577,-0.17949665,-0.13934624,0.050579894,0.11304248,-0.14581424,-0.08748217,-0.018798687,-0.022240952,0.04713729,0.046837363,-0.23359893,-0.07539207,-0.42408133,0.35664755,-0.015055902,0.19761997,-0.2648032,-0.24792548,0.21649629,0.020242427,0.122268796,0.112583674,0.09245409,0.15683198,-0.104419716,-0.030521698,0.095645025,0.40681317,-0.16854157,-0.26314154,0.28246042,0.13875851,-0.15621448,-0.31824526,-0.07816646,-0.56804514,0.017019652,-0.00017008185,0.05664614,0.19631606,0.25075433,-0.4589658,0.27397704,0.14791898,-0.06964859,-0.107357495,-0.19300485,-0.3388368,-0.16280192,-0.20628047,0.20784745,0.2132915,-0.16104113,-0.23935741,0.4795332,0.072533846,0.010729447,-0.20981982,0.02710114,-0.007997543,0.09748261,0.33196345,-0.02508149,-0.50138855,0.34525022,0.33457506,-0.5116435,0.23137876,0.035426117,-0.317842,0.52295464,-0.17980263,-0.12982775,-0.30276948,-0.29224324,-0.017888032,-0.45200938,0.1593447,0.38341254,-0.12387059,-0.25447357,0.17523788,-0.14034456,-0.35817286,-0.022653453,-0.102209054,-0.2783456,-0.4473638,0.14564708,0.14498977,0.075914815,0.621959,0.24099654,-0.016202379,0.022137418,0.6146899,-0.52964056,-0.13073742,0.3609063,-0.36754102,-0.18307479,-0.055960126,-0.3893281,-0.13342945,-0.02883906,-0.0137979165,-0.31761473,0.2867995,0.089687504,-0.32405612,0.295358,-0.7586835,-0.38110623,-0.09943201,0.084252626,-0.40412438,-0.2988614,0.32235962,0.28238168,0.34041366,-0.1357978,-0.3096604,-0.22423378,0.36836344,0.0862302
C4,0.34850028,0.15135936,-0.2767704,-0.07648999,-0.25732055,0.4637314,-0.0154149085,-0.15156719,-0.19447462,-0.16989365,0.0022283345,0.40362138,0.39360166,0.14096373,0.2511846,0.6175521,0.13126478,-0.32425615,0.16872719,0.23562321,-0.42141956,0.013387393,0.14939892,-0.03667765,-0.06738316,-0.16483223,-0.004081201,0.1518772,0.23076406,0.12293692,-0.29051054,0.062406674,-0.09139947,0.26781285,-0.073691465,-0.27189273,0.106343396,-0.13400838,0.2690668,0.15246359,-0.027684666,0.23481889,0.093359716,0.15311614,-0.11604738,-0.21263102,-0.07719533,-0.17680621,0.052657686,0.33620092,-0.005934,0.2607979,0.07028919,0.25399607,0.25885534,-0.2071481,0.13878676,0.11606062,-0.2344581,0.38790926,-0.14287528,-0.10508722,0.063173614,-0.018067837,-0.43224007,0.43459958,-0.15429336,-0.04622723,0.05960104,-0.01593123,-0.10802639,-0.44075364,-0.22902408,-0.17121321,0.101854816,-0.19373798,0.043830834,0.26296046,-0.23051855,0.13741286,-0.06732436,-0.035397716,-0.3149538,-0.09106474,0.26597202,0.16393232,-0.042298324,-0.14497489,0.008853318,-0.13147345,0.29243022,0.25074372,0.39562201,-0.16285537,-0.20875452,-0.03680315,-0.0227583,0.020947803,0.04870574,0.11918141,-0.08462551,0.69540906,0.06783028,-0.07175997,0.010933839,-0.2977271,-0.48616517,-0.23830082,-0.19904062,-0.05076062,-0.06606613,0.1582677,0.26516306,0.213775,0.5595488,0.041080683,0.012040973,0.18887016,0.17353871,-0.033070862,0.19937068,-0.031171463,0.28671312,0.68114454,0.09244588,-0.032007094,0.3189894,0.29884726,0.039035212,0.28571972,0.10542852,-0.43158743,0.08368788,-0.037244495,-0.28922167,0.0060845725,0.41956398,-0.0039047673,0.16352648,-0.07502048,0.08419867,0.1140691,0.25497591,-0.24395236,0.07482542,-0.25253946,0.3125254,-0.12650901,-0.1582199,-0.0070140213,-0.07445893,-0.28770095,0.03246032,0.0954938,-0.24028993,-0.15339398,0.16591665,0.10452495,-0.2193351,0.30914143,0.10224782,0.14793605,0.20439802,-0.20553632,0.0022295415,-0.13282815,-0.24138191,-0.08984368,-0.06987071,0.27280617,-0.39316913,-0.14439365,0.36415637,-0.2864054,0.17340347,-0.1742667,-0.11234327,0.20004061,-0.08679578,0.29236162,0.040805824,-0.052728165,0.27734685,-0.05281315,-0.076284185,-0.32941318,-0.56096995,-0.066721454,-0.16683155,-0.43338603,-0.25499147,0.31141615,-0.020989217,0.011871606,0.19376639,0.07003841,0.48182088,-0.6447517,-0.56152457,0.23124379,0.1948358,-0.41571337,-0.29557315,0.45160913,0.09191206,-0.075405784,0.37652665,-0.17280851,-0.25152895,0.03218949,0.2115522,-0.14671437,-0.30860013,-0.14874482,-0.20640418,-0.2685774,0.095141396,-0.40375027,0.12099236,0.08747812,0.506196,-0.3931268,0.013657503,-0.48900634,0.19329956,0.17840254,-0.19377746,-0.08399015,-0.020086408,-0.13337608,0.25726694,0.24387774,0.19336113,0.07876023,0.1333097,0.16382447,-0.16794312,-0.1445162,0.14181912,-0.2385847,-0.10233219,-0.007780254,0.067410864,-0.08840893,-0.21357933,-0.08849135,0.16651008,-0.2025494,-0.09487746,-0.2707224,0.04575968,-0.11495601,-0.11414659,0.07815961,-0.33087295,0.24055666,0.18809381,-0.04560744,-0.1037753,0.20254296,-0.07417815,-0.19797519,-0.20296651,-0.26937616,0.15586677,0.21554846,0.11246407,-0.15538241,-0.11590057,-0.023880236,-0.01533494,0.45800367,-0.052484322,0.02268159,0.03994951,-0.12439041,0.073026344,-0.07990933,-0.025510272,0.021691736,-0.3574274,-0.3631721,-0.2118518,0.21901557,-0.1963065,-0.2646775,-0.15498316,-0.10698369,0.2846027,0.28342816,-0.2982693,0.16412854,-0.23550762,-0.18576357,-0.06759009,0.10092501,0.19174118,-0.15914369,-0.3083162,0.15421858,-0.46732643,0.300758,0.04084579,0.026563704,-0.09878604,0.038413867,0.38164487,-0.19712684,0.16180435,-0.10845962,-0.21737757,-0.21572566,-0.016012803,0.16616648,-0.006710455,0.18869218,0.29840752,0.10076935,0.08945136,0.18157125,0.28423458,0.027119163,-0.06331235,-0.07439086,0.17502548,-0.3105624,-0.0763344,-0.0007369593,0.30127746,0.19283062,0.23206374,-0.2112127,-0.17361213,0.18836807,0.20917863,0.14495027,0.154966,-0.41976655,0.025601737,-0.05374666,-0.37572816,-0.15392464,-0.19997737,-0.027914505,-0.03561672,0.09460906,0.10329451,0.09112861,-0.38174513,-0.4772149,-0.059865676,-0.0585559,0.34829858,-0.52197677,-0.025280196,0.04286399,-0.1756635,-0.21970871,-0.070437215,0.43770337,0.16648166,-0.5692426,-0.49066478,-0.3252861,-0.51825637,-0.21950357,0.6228311,-0.26398575,-0.21805878,0.21781576,0.2978707,0.1455729,0.38313666,-0.10768772,0.0026994087,0.36922446,-0.109559074,0.027450845,-0.07040096,-0.242497,0.04336998,0.16598086,-0.15017863,-0.120918594,0.5131355,-0.23768693,0.3362692,-0.14118296,0.13013873,-0.24698716,0.3840352,0.2575579,0.30271003,0.18140602,0.31303886,0.03915003,-0.194657,0.28191975,-0.13738275,-0.31831148,-0.21016532,0.22388116,0.21454898,0.4223585,-0.041541316,-0.1037879,-0.3060196,0.14988914,-0.15414506,0.053766586,-0.35023987,0.0890042,0.309726,0.03242535,0.025633734,0.1982166,0.21522707,0.41630274,-0.22968677,0.23973739,-0.31547,0.21132284,0.27748603,0.38777375,-0.1975578,-0.11985461,0.19680181,-0.14773475,0.12734577,-0.19687545,0.22476509,-0.03395448,0.013319142,0.23929673,0.20915239,-0.12839021,-0.13095948,0.12989825,0.060298786,-0.20463987,-0.31200263,-0.18414241,-0.55643827,0.30318978,0.40605444,-0.14896208,-0.034080863,-0.12890382,0.2566425,-0.20978163,0.4787758,-0.47947735,0.118988305,-0.2124418,0.06647414,0.4289773,0.10969484,0.4315495,0.08132385,-0.062444083,0.15387048,-0.12044521,-0.11105258,0.04050014,-0.008523561,-0.3621784,-0.17112681,0.06386688,-0.14295901,-0.51436895,0.13532995,-0.030280981,-0.2136701,0.2516708,0.37241137,0.015422035,-0.4044097,-0.3215088,-0.11350273,0.24046236,-0.736373,-0.14859846,-0.061460413,0.020025004,0.13207275,0.34412444,-0.4081188,-0.007149279,0.3976762,-0.047330257,0.29142928,-0.12179788,0.010002196,-0.24012673,-0.016965311,0.08298186,-0.013652824,-0.39890957,0.13191961,-0.12963176,0.4774381,0.40823168,0.45053935,-0.17419489,-0.004576944,0.11180639,0.060197074,-0.21592161,0.26936567,0.12162798,-0.2040632,0.14630495
C5,0.1911931,0.22034228,0.31735224,-0.30287167,-0.009573612,0.0775488,0.17088917,0.01204114,0.14451116,-0.019310165,0.339794,0.12602828,-0.1500018,0.111784026,0.12341895,0.07386694,0.07938291,0.5811466,-0.15787478,0.0025706328,-0.047222175,0.22770572,0.3286082,0.5206366,-0.022467824,-0.12989625,0.1789074,-0.16042957,0.17545688,0.52335286,-0.00010982901,-0.048906505,0.12657742,0.1290087,-0.6174848,0.1628329,0.50375,0.040138077,0.44887346,0.0586596,0.052494936,-0.47137278,0.0917259,0.56463146,-0.45431823,-0.12800792,-0.442293,0.63723046,-0.12897012,0.28980872,-0.3658416,0.46036822,0.33700103,0.4785282,-0.26442996,-0.09973761,-0.050077684,-0.008916378,0.24436389,-0.22269389,-0.17125419,0.15004835,0.09781172,0.18192708,-0.22155488,0.44532534,-0.10707604,-0.04127588,0.12815289,-0.013304058,0.1717608,-0.17955017,-0.14323278,0.25846708,-0.27737087,-0.108541,-0.18689212,-0.051962905,-0.21618512,0.42960295,-0.21150285,-0.2687924,0.041654184,0.56579024,0.21163036,0.055783644,0.052730538,-0.19695005,0.14871103,0.09473647,-0.39541703,0.5939341,-0.2396245,-0.054667808,0.22075737,0.386535,-0.20189375,0.23956013,0.2001174,-0.22181207,-0.16145763,0.24182937,-0.15882543,-0.12785111,0.06975048,-0.018672753,0.13529596,0.058000088,0.33948228,0.31029722,0.3510381,-0.20269448,-0.07729522,0.06524868,0.045029618,-0.4373691,-0.40762487,0.4088337,0.0982414,0.23652747,-0.10378838,-0.26635927,-0.2626201,0.008098755,0.1379519,0.15745905,-0.37098002,-0.020359408,0.3874494,0.080776304,-0.088930726,-0.04990394,-0.60967267,-0.5876143,0.047416665,-0.19562823,-0.104630314,-0.23646055,-0.17608136,0.56865394,0.11641953,0.20183101,-0.38541895,-0.39920732,0.2749493,-0.4384787,0.42125902,-0.4038086,-0.008295767,0.2872194,0.27333677,0.038340345,0.17739722,-0.4747243,-0.22954339,0.2558971,0.21892455,-0.06350436,-0.5480442,-0.42240176,0.42703718,0.06651517,-0.33188358,-0.35841632,0.10584259,0.09186622,0.09289883,-0.06425881,0.06545789,-0.104005165,-0.22030962,0.22575217,-0.16096783,-0.26355597,-0.11236959,0.1520904,-0.4623664,0.13039428,-0.2061902,-0.18451422,0.23019472,-0.35788435,-0.17247376,0.22651075,0.024846222,-0.0023960248,-0.20463632,-0.015970252,0.022696882,-0.22017905,0.2889598,-0.069376186,0.20726356,-0.026274826,0.33367887,0.16589355,0.16572557,-0.18537465,0.043890674,0.19646436,0.4418013,-0.08383897,0.29037902,0.55250984,0.07508214,-0.40568992,0.57023734,-0.45030743,0.10721843,0.20290095,-0.20395774,0.12947787,0.14929822,-0.40409756,-0.06860862,0.05758009,-0.31615788,-0.39237753,0.1257464,0.22044602,0.3057697,0.3300524,-0.38534144,-0.121306166,-0.1722585,-0.34760022,0.31945184,0.5138494,0.5517605,-0.35418049,0.5068029,-0.068342,-0.16002053,0.15588059,-0.61968297,0.004745923,-0.41680133,0.01911957,0.20537461,0.13127255,0.013765357,-0.40604213,-0.061753552,-0.053432263,-0.1517049,0.1359127,-0.18057683,0.25858027,-0.074995555,-0.17891157,-0.07566314,-0.47621503,0.05149679,-0.0991944,0.1998756,-0.20016894,-0.26196602,-0.19656451,-0.30663887,0.12485728,-0.66998965,-0.108001076,0.23638485,-0.18843082,0.014348261,-0.1597968,0.16040687,-0.21346812,0.017658375,0.20232253,-0.18942353,-0.36411154,0.15729874,-0.6929332,-0.31842986,-0.017907664,-0.36912295,0.10275592,-0.21910375,-0.15121737,-0.19752634,-0.22075671,0.090205155,0.4133563,-0.10383216,-0.4074133,-0.14299801,-0.18613921,-0.3634749,0.6281819,-0.20605707,-0.18440112,0.23906599,-0.29009777,0.3514121,0.49330428,-0.3719862,-0.01592626,-0.13130641,0.26953512,-0.05293915,0.1906488,-0.20089948,0.07399144,0.1229454,0.10078741,0.3149861,-0.11621549,0.038607977,-0.31510538,0.31090057,-0.3031979,-0.118782006,0.110252105,0.46528533,-0.4031071,0.06099453,-0.25241795,0.095412314,0.37206793,0.008397803,-0.027006183,-0.06831404,-0.042133972,0.56884545,0.25990608,-0.1161881,0.13202798,0.08774549,-0.18129706,0.25112665,0.17315236,-0.0740232,-0.0794215,0.2621821,0.1813297,0.26369697,-0.2974388,-0.007970866,0.24249735,0.45606533,-0.13290602,-0.15979832,0.43872318,0.06079472,0.3011083,-0.12255206,-0.40015253,0.52308375,-0.44330648,-0.10225779,-0.3269237,-0.48585424,-0.07559416,-0.27802512,-0.21816641,0.19027257,0.15880567,0.006750427,0.5030034,0.019987386,0.2298924,-0.19908331,-0.40708813,0.2632854,-0.5236668,0.20722488,0.635107,0.58496773,-0.013399363,-0.0312935,0.020090979,0.2242221,0.21000914,-0.15960927,-0.3215123,-0.24053384,-0.26471037,-0.21262614,-0.21022445,0.16631585,0.43911242,-0.3765728,-0.13264695,0.63378984,-0.31252867,-0.28248775,-0.4266563,0.0551515,0.12607577,0.30029696,0.3162964,0.19693625,0.38958108,-0.5269643,-0.4459235,0.31872058,-0.18996708,0.09003314,-0.00013370067,-0.1381259,-0.3947661,0.38394597,-0.2973994,-0.3025799,0.048279107,-0.19569069,-0.010104559,0.047709152,0.09821069,0.021762773,-0.041475073,0.50651824,0.010710474,-0.22497115,0.18625101,-0.47732395,0.59459853,-0.081172206,0.44268984,-0.18970656,0.064878695,0.09279378,0.25997424,-0.15261737,0.1411581,0.19525966,0.49471313,-0.012191169,0.44356,0.27872434,0.048151225,-0.3269863,0.058578126,-0.14988028,0.16321322,0.13030821,0.12006517,0.025712967,0.15205888,0.05770982,0.34156746,-0.18292797,0.3496532,0.13032372,0.504485,-0.090336345,-0.03266457,-0.18212795,-0.7206557,-0.2347726,0.0051746033,0.21540082,-0.15582302,-0.10546357,0.4938324,0.029101003,-0.023390822,-0.20405892,-0.009011999,0.2216493,0.04833379,0.25442398,0.0142462775,0.42190805,0.048871443,0.1846742,-0.23142119,-0.09763302,0.280623,-0.055230685,0.42361224,-0.057165097,-0.04832468,-0.4625535,-0.36875418,-0.18482655,-0.10958719,0.0866532,-0.2190353,-0.27622908,0.15549773,0.36435527,0.066065475,-0.20066433,-0.12189501,-0.74091965,0.15184745,0.17939314,-0.02745638,-0.14099316,-0.54345727,-0.4253157,0.2833181,0.026820417,-0.13904828,0.1532361,-0.42992157,-0.6706269,-0.28161925,0.6829446,0.5521158,-0.2734542,0.21477275,0.07774317,-0.11521634,0.51678306,0.29961345,0.57178795,-0.01217518,0.054124203,-0.21485597
C6,-0.07075181,-0.1412787,-0.3161199,0.31138763,0.3343862,0.07209827,-0.05938103,0.12716985,-0.37364724,0.155628,-0.67279744,0.0925266,-0.0031500198,-0.16054922,0.21094382,-0.23925504,-0.2790315,-0.5758427,-0.31574535,0.01294532,-0.1517431,0.07332635,0.27749345,-0.45464128,0.27666682,-0.31495276,0.21308076,-0.038034715,-0.049570523,-0.07502957,0.036352873,0.105235025,-0.03070958,-0.23198196,0.1140894,-0.2196176,0.22666508,-0.2133693,-0.28587803,-0.1755178,-0.1609708,-0.009732798,0.40877953,0.014888123,0.37112126,-0.34606344,0.0378832,-0.12952214,-0.07908534,0.12190164,-0.16356751,-0.0912123,-0.018542264,-0.48496684,-0.18730052,0.37885776,-0.0021262541,0.15471488,-0.13134709,-0.104638055,-0.056155104,0.14766729,0.053593136,0.0698632,0.11598951,-0.30825612,-0.17182043,0.15596706,-0.024943933,-0.09903394,0.2314375,-0.0063912943,-0.32514066,0.028603215,-0.48983973,-0.0822661,-0.15472454,0.042720135,-0.3529696,-0.06686437,0.20671752,0.004618261,0.021519184,0.0037411973,0.42984104,0.1251832,0.12279475,-0.0074697956,-0.19360627,-0.07659096,0.14357041,-0.061431944,0.0025789663,-0.036684286,-0.07561232,0.0036706403,-0.30245975,-0.017392974,-0.0046937913,-0.03812615,-0.37221235,-0.1504516,-0.41319615,-0.092303395,0.033289164,0.047057137,-0.16771674,0.16851528,-0.28194422,0.122823074,-0.01649563,-0.064008474,0.14171618,-0.20295982,-0.22882643,0.059931993,0.14660415,-0.20200524,-0.23617367,0.07632506,-0.4033631,-0.32543895,0.10183023,0.13016626,-0.23235734,0.38085696,0.3104841,-0.2282077,0.1388575,0.7076776,-0.38887924,0.10746214,-0.2409181,-0.0482566,-0.23553503,-0.08820221,0.12318279,-0.43023318,0.03685431,-0.13793266,0.0944679,-0.07407644,-0.1226636,-0.24385577,0.32310992,0.100248285,-0.21353278,-0.08950282,-0.5237096,-0.2288627,-0.43040717,0.09144504,0.045528956,0.3607924,0.16434982,-0.16512924,-0.080680795,0.43173805,-0.4721452,-0.3077427,-0.40261984,0.22099996,0.08162117,0.21219271,0.13197784,0.096602835,0.012769498,0.13040137,-0.45743284,0.16475397,-0.046428356,0.32211778,-0.17078698,-0.18396634,-0.16734439,-0.115191944,-0.12386773,0.062334616,-0.25512767,0.06569132,-0.25898653,-0.106604055,-0.013600849,0.0056419596,-0.049102604,-0.10461024,0.046107482,-0.044128742,0.03233137,-0.26418963,-0.5121908,0.056164168,0.24010798,-0.8707682,-0.22181661,0.21729308,0.5716684,-0.007844411,0.22330883,-0.28494656,-0.08238578,0.09547101,-0.11303635,-0.040511005,0.7342489,0.0077026933,-0.1619129,-0.03498192,-0.30179298,-0.17853856,0.11039707,-0.019360881,0.07817922,0.30656323,-0.24822667,0.30992985,-0.27523324,-0.030193202,-0.13857222,0.46215388,0.21162799,0.16825163,0.1789844,0.31166142,0.12276693,0.16898629,0.08930774,-0.28360003,-0.23661548,-0.23326145,0.0076435506,0.3359201,0.29723278,-0.054452337,-0.12571013,-0.048778683,-0.2023074,0.25504878,0.45769322,0.1649636,-0.4000584,0.4079971,0.15991381,0.07312329,-0.11336945,0.13937445,-0.04771117,-0.065428376,0.11602138,0.20976466,0.33161154,-0.04529786,0.2084092,0.254276,0.17867687,-0.11205315,0.036116764,0.34621736,0.23907307,-0.0026999414,-0.14008152,0.13929105,-0.29124042,0.05079312,0.07075352,0.5652067,0.02790998,-0.21896188,-0.031842865,0.13434605,-0.457273,0.23346534,-0.27822742,0.2905157,0.0838272,0.127417,0.028629903,0.23580612,-0.2373155,0.26915702,0.2544891,0.5394904,-0.06862232,0.02572193,0.4502669,0.13708952,0.4851852,0.17649326,0.23790076,-0.22945815,0.5121092,-0.08966489,-0.18796463,-0.012817722,-0.44998044,-0.4248332,-0.1769325,0.019964352,0.03307838,-0.21117213,-0.4214953,0.22102313,-0.50780946,-0.5133882,0.08678049,-0.2291852,0.00758446,-0.25539625,0.31484848,0.20398118,0.07595718,0.08184418,-0.17251211,0.18710381,-0.36407742,-0.09232383,-0.3143716,-0.10077397,0.17471525,0.016173586,-0.6783535,-0.48373547,-0.6432339,-0.06657439,0.04217595,0.43674147,-0.003746055,-0.22876662,-0.47587204,-0.1619792,0.18273473,0.09979763,-0.0037330613,0.047092423,-0.20686212,0.16418281,-0.24475263,-0.21548733,-0.026131712,-0.3480322,-0.27908942,0.049808048,0.031126076,-0.1753124,-0.057299413,0.10675227,-0.009140614,0.33203134,-0.17086868,-0.13657787,0.07558353,-0.40360513,-0.10205919,0.037553657,-0.19295996,-0.10278267,0.028994493,0.2352843,-0.12739292,0.18355314,-0.012358598,-0.17102745,-0.09057847,-0.3519706,-0.17513548,-0.16101083,-0.46923363,0.33575004,0.017575782,0.36216435,-0.15349784,0.23752972,-0.55575746,-0.31387693,-0.11435242,0.031491123,-0.44682974,0.27718857,-0.3462911,0.05205977,-0.5807054,-0.01926253,-0.13908553,0.017074682,0.0953779,-0.48654675,0.424938,0.36516306,0.015291799,0.04242542,0.05194889,0.0076035354,0.0055524185,-0.3117211,-0.04585108,-0.18872038,-0.16728207,-0.31294298,0.019260213,0.1554348,-0.07452626,0.3473656,-0.11792547,0.06393944,-0.15545861,0.08881286,0.34033465,-0.2298612,-0.42281058,-0.42159495,0.23922494,0.018844053,0.13940421,0.5107035,-0.20631982,0.32373866,0.5947018,-0.12562227,0.100651115,-0.26051995,-0.4190951,-0.084505536,0.26237896,0.39008254,0.13584158,0.40706968,0.029451631,-0.30179912,0.32626104,-0.059346154,-0.059334375,0.15813917,0.18722105,-0.35684055,-0.05396951,-0.3813635,0.086367995,0.23705035,0.06897072,0.013784803,0.5481684,-0.062004857,-0.23798485,0.39235476,0.23895301,-0.39124635,-0.6788414,0.17032732,-0.53420335,0.2610103,0.42750338,-0.26639825,0.1305531,0.05523293,0.07433303,-0.035693854,-0.33637843,-0.037228256,0.20864463,-0.21049365,-0.09626461,-0.057054013,-0.32157034,0.3397777,0.019904725,-0.05740305,-0.1350444,0.019904844,0.030804679,-0.11909175,-0.12933713,0.063021064,0.28615597,0.07657011,-0.22744392,-0.019143056,0.08747476,0.23512322,0.20918721,0.08378966,0.14264068,0.2416457,-0.029553492,0.31805682,0.5065415,-0.05057413,-0.0068254992,-0.030914716,0.12910894,0.08028812,0.25714996,-0.12494453,0.07201586,0.49150616,-0.22266735,0.36511332,-0.1852049,0.2616226,-0.4412353,0.29576078,-0.3094923,-0.24306908,0.34676844,0.15191145,-0.083766855,-0.26291946,0.047334984,-0.014772452,0.23304433,0.11329883,0.24404876,-0.22468695
