DiseaseID,feature_1,feature_2,feature_3,feature_4,feature_5,feature_6,feature_7,feature_8,feature_9,feature_10,feature_11,feature_12,feature_13,feature_14,feature_15,feature_16,feature_17,feature_18,feature_19,feature_20,feature_21,feature_22,feature_23,feature_24,feature_25,feature_26,feature_27,feature_28,feature_29,feature_30,feature_31,feature_32,feature_33,feature_34,feature_35,feature_36,feature_37,feature_38,feature_39,feature_40,feature_41,feature_42,feature_43,feature_44,feature_45,feature_46,feature_47,feature_48,feature_49,feature_50,feature_51,feature_52,feature_53,feature_54,feature_55,feature_56,feature_57,feature_58,feature_59,feature_60,feature_61,feature_62,feature_63,feature_64,feature_65,feature_66,feature_67,feature_68,feature_69,feature_70,feature_71,feature_72,feature_73,feature_74,feature_75,feature_76,feature_77,feature_78,feature_79,feature_80,feature_81,feature_82,feature_83,feature_84,feature_85,feature_86,feature_87,feature_88,feature_89,feature_90,feature_91,feature_92,feature_93,feature_94,feature_95,feature_96,feature_97,feature_98,feature_99,feature_100,feature_101,feature_102,feature_103,feature_104,feature_105,feature_106,feature_107,feature_108,feature_109,feature_110,feature_111,feature_112,feature_113,feature_114,feature_115,feature_116,feature_117,feature_118,feature_119,feature_120,feature_121,feature_122,feature_123,feature_124,feature_125,feature_126,feature_127,feature_128,feature_129,feature_130,feature_131,feature_132,feature_133,feature_134,feature_135,feature_136,feature_137,feature_138,feature_139,feature_140,feature_141,feature_142,feature_143,feature_144,feature_145,feature_146,feature_147,feature_148,feature_149,feature_150,feature_151,feature_152,feature_153,feature_154,feature_155,feature_156,feature_157,feature_158,feature_159,feature_160,feature_161,feature_162,feature_163,feature_164,feature_165,feature_166,feature_167,feature_168,feature_169,feature_170,feature_171,feature_172,feature_173,feature_174,feature_175,feature_176,feature_177,feature_178,feature_179,feature_180,feature_181,feature_182,feature_183,feature_184,feature_185,feature_186,feature_187,feature_188,feature_189,feature_190,feature_191,feature_192,feature_193,feature_194,feature_195,feature_196,feature_197,feature_198,feature_199,feature_200,feature_201,feature_202,feature_203,feature_204,feature_205,feature_206,feature_207,feature_208,feature_209,feature_210,feature_211,feature_212,feature_213,feature_214,feature_215,feature_216,feature_217,feature_218,feature_219,feature_220,feature_221,feature_222,feature_223,feature_224,feature_225,feature_226,feature_227,feature_228,feature_229,feature_230,feature_231,feature_232,feature_233,feature_234,feature_235,feature_236,feature_237,feature_238,feature_239,feature_240,feature_241,feature_242,feature_243,feature_244,feature_245,feature_246,feature_247,feature_248,feature_249,feature_250,feature_251,feature_252,feature_253,feature_254,feature_255,feature_256,feature_257,feature_258,feature_259,feature_260,feature_261,feature_262,feature_263,feature_264,feature_265,feature_266,feature_267,feature_268,feature_269,feature_270,feature_271,feature_272,feature_273,feature_274,feature_275,feature_276,feature_277,feature_278,feature_279,feature_280,feature_281,feature_282,feature_283,feature_284,feature_285,feature_286,feature_287,feature_288,feature_289,feature_290,feature_291,feature_292,feature_293,feature_294,feature_295,feature_296,feature_297,feature_298,feature_299,feature_300,feature_301,feature_302,feature_303,feature_304,feature_305,feature_306,feature_307,feature_308,feature_309,feature_310,feature_311,feature_312,feature_313,feature_314,feature_315,feature_316,feature_317,feature_318,feature_319,feature_320,feature_321,feature_322,feature_323,feature_324,feature_325,feature_326,feature_327,feature_328,feature_329,feature_330,feature_331,feature_332,feature_333,feature_334,feature_335,feature_336,feature_337,feature_338,feature_339,feature_340,feature_341,feature_342,feature_343,feature_344,feature_345,feature_346,feature_347,feature_348,feature_349,feature_350,feature_351,feature_352,feature_353,feature_354,feature_355,feature_356,feature_357,feature_358,feature_359,feature_360,feature_361,feature_362,feature_363,feature_364,feature_365,feature_366,feature_367,feature_368,feature_369,feature_370,feature_371,feature_372,feature_373,feature_374,feature_375,feature_376,feature_377,feature_378,feature_379,feature_380,feature_381,feature_382,feature_383,feature_384,feature_385,feature_386,feature_387,feature_388,feature_389,feature_390,feature_391,feature_392,feature_393,feature_394,feature_395,feature_396,feature_397,feature_398,feature_399,feature_400,feature_401,feature_402,feature_403,feature_404,feature_405,feature_406,feature_407,feature_408,feature_409,feature_410,feature_411,feature_412,feature_413,feature_414,feature_415,feature_416,feature_417,feature_418,feature_419,feature_420,feature_421,feature_422,feature_423,feature_424,feature_425,feature_426,feature_427,feature_428,feature_429,feature_430,feature_431,feature_432,feature_433,feature_434,feature_435,feature_436,feature_437,feature_438,feature_439,feature_440,feature_441,feature_442,feature_443,feature_444,feature_445,feature_446,feature_447,feature_448,feature_449,feature_450,feature_451,feature_452,feature_453,feature_454,feature_455,feature_456,feature_457,feature_458,feature_459,feature_460,feature_461,feature_462,feature_463,feature_464,feature_465,feature_466,feature_467,feature_468,feature_469,feature_470,feature_471,feature_472,feature_473,feature_474,feature_475,feature_476,feature_477,feature_478,feature_479,feature_480,feature_481,feature_482,feature_483,feature_484,feature_485,feature_486,feature_487,feature_488,feature_489,feature_490,feature_491,feature_492,feature_493,feature_494,feature_495,feature_496,feature_497,feature_498,feature_499,feature_500,feature_501,feature_502,feature_503,feature_504,feature_505,feature_506,feature_507,feature_508,feature_509,feature_510,feature_511,feature_512
C1,-0.40759158,0.013996616,-0.25286543,0.1223136,0.083639376,-0.35486132,0.28506628,0.38969222,0.023410361,-0.35335374,-0.2162043,0.23333782,0.20352846,-0.14698052,0.6618068,0.28196615,0.1761132,-0.15721467,-0.011686157,-0.03720271,-0.08872747,0.1758975,0.12142882,0.11317907,0.025605146,-0.28440922,-0.27256814,0.14867747,0.022203721,-0.5079473,-0.26643345,0.09398774,-0.38247672,0.041458998,-0.11101324,0.44453627,-0.017942578,0.019551732,-0.2092851,0.03814125,0.15846643,0.05810273,0.42235065,-0.00688114,0.39424583,0.12377798,0.5698293,0.16259286,-0.021720994,-0.098740876,0.02057932,-0.11226676,0.12455234,-0.12915386,0.14150488,-0.3325841,0.15596515,0.24963808,-0.008673519,-0.1669132,0.4490071,0.2534209,-0.26887313,-0.20847085,-0.02558852,-0.029144136,0.2197397,-0.29461938,0.07363108,0.34603074,-0.30250925,-0.03127882,-0.35307175,0.2095792,-0.08267036,-0.08706738,-0.5267073,-0.09538025,-0.28748477,0.0051937923,0.22254735,-0.04598193,-0.22317263,-0.53617704,-0.24150434,-0.20270655,0.20170498,0.5507772,-0.09029967,0.032403313,-0.013767324,0.14719772,-0.054413315,0.1054906,0.22168346,0.09382493,0.18644726,0.2557699,-0.2486903,-0.22543606,0.45670196,0.3127254,0.2514063,0.5023666,0.14534967,0.20423701,-0.196399,-0.13789956,-0.20768258,-0.112836696,0.33214456,0.19397911,0.31396866,0.17747268,-0.04078505,0.0637459,0.39214295,-0.31286725,-0.05078038,0.23025593,-0.015307333,-0.18323785,-0.17645779,0.08554512,-0.2955705,0.2842906,0.44782656,-0.2412298,-0.07544475,0.17079741,-0.18719606,-0.1739319,-0.4022257,0.07629232,-0.07527161,0.26997226,0.22835651,0.17293099,-0.44924992,0.16136341,-0.3594138,-0.06711333,-0.028903596,0.26439673,0.14251411,-0.36721316,-0.16592076,-0.06681524,-0.15323985,-0.07288651,-0.058404554,-0.27173397,0.01768455,0.26159826,-0.01852817,-0.25649,-0.16707876,-0.26626006,-0.44671854,-0.018637005,0.008254528,0.08743178,0.49587554,0.25871897,0.32802027,0.005911395,-0.0018792525,-0.3698118,0.19897869,-0.21224451,-0.10705827,0.21279502,-0.2834283,-0.11171397,0.014987282,-0.26541936,0.31544787,-0.09903524,0.07069134,-0.20003575,0.28111652,0.20086282,0.040767506,-0.09444574,0.017342903,-0.3614922,0.1050001,-0.2694873,0.2591411,-0.16009036,-0.19941768,0.17674008,0.061225586,0.03249655,0.19281104,-0.286261,-0.08038758,-0.19236323,-0.04181806,-0.30599022,0.1067632,0.055680133,0.10555506,0.26418933,-0.06460894,0.260538,-0.42066318,-0.24801537,-0.41112864,0.03055863,0.11498179,-0.12868944,-0.153823,-0.27246663,0.21873888,0.07983374,0.24831624,0.20167238,0.10714294,-0.2127757,-0.011021234,-0.41971937,-0.46325433,-0.186588,-0.6815671,0.41235453,0.044723988,-0.04579606,-0.020882659,-0.3868346,-0.08507941,-0.10997363,-0.03630443,-0.069209345,0.078787096,-0.066781014,-0.20991111,0.010719836,-0.10693615,0.0023611188,0.074282736,-0.014212605,0.043800145,-0.06092241,0.57640946,-0.08296811,0.06055373,-0.08192844,-0.2804884,-0.071877815,-0.43070334,-0.29531696,-0.5207032,0.168363,-0.18221048,0.00935654,0.13493372,-0.7290031,0.2453082,0.46255004,-0.1346786,-0.30599102,0.2983909,0.05524558,0.026091136,-0.18429449,0.09893027,0.4938118,-0.07290496,0.123672634,0.025905572,0.32097366,-0.001314722,0.06638338,-0.041910555,0.0585609,0.1563832,0.053774547,-0.5199779,0.007973466,-0.062220357,0.23952544,0.0618554,0.014976554,-0.43163013,0.29072297,0.022587426,-0.020018697,0.064951025,0.120910734,0.30167115,-0.4859072,-0.40857887,0.53435117,-0.16425851,-0.23754624,0.05629006,-0.14777789,0.34156188,0.37377697,0.21896116,0.035509534,-0.07106219,0.036990255,0.014040042,0.13383111,0.4271838,0.085923925,-0.04379808,-0.080640525,-0.24296173,-0.44077668,-0.12369556,0.1910002,-0.0567936,0.20343587,-0.12924787,-0.18622649,-0.042222932,0.01574716,-0.009880282,0.093854845,0.45523378,-0.28993315,0.19718847,0.22910982,-0.1661606,-0.30738026,0.5352903,-0.4711308,0.37259105,-0.18494302,-0.14113247,0.039119437,0.34467173,-0.3734206,0.24936661,-0.057495266,-0.47974744,-0.2823118,-0.05533338,-0.23833263,0.0070144795,0.38694018,-0.06593246,-0.29953545,0.26849362,-0.22388053,0.3821147,0.10102268,0.6448993,-0.07351984,-0.40115994,-0.34044823,-0.40177032,0.71760654,0.23245814,0.02610135,0.2847755,0.2535417,-0.08546768,0.2458435,0.4326496,0.16101173,-0.24631032,-0.22199512,0.2580773,-0.018238358,-0.14140111,-0.120379426,0.28979564,0.4842654,-0.18808636,-0.1870338,0.080214866,0.0045717508,-0.18521921,-0.18858503,0.049579013,-0.42142457,0.10970501,0.060526833,0.2045849,-0.32351497,0.09187369,-0.11775421,-0.15415129,-0.1172168,0.05286827,-0.048146047,0.24522449,-0.23438522,-0.14933613,-0.19142303,-0.2579441,-0.25529215,-0.032868754,0.119577184,-0.15475982,-0.24791384,0.1096746,-0.19943124,-0.25220042,-0.07233127,-0.086600654,0.0044703633,0.42433146,0.32359076,-0.46672583,0.18064745,-0.53956074,0.27681637,0.49439088,-0.2693758,-0.060615104,-0.31399566,0.12295906,0.045351718,0.45748028,-0.016896762,-0.088607,-0.040570572,-0.2272437,-0.16693363,0.1043171,-0.4742543,0.12341929,0.36028782,-0.17281732,-0.25438434,-0.074838884,-0.28446636,0.36881927,0.1843653,0.232456,-0.5405599,-0.2106596,-0.3395668,-0.032434113,0.053237997,0.23562166,0.09799947,-0.1565113,-0.10170885,0.008336879,0.15346755,-0.028297119,0.004181236,0.16529194,0.5609027,-0.31200343,0.180621,0.16590884,-0.3129711,0.24882038,-0.06851673,-0.3053923,0.10965569,-0.0619829,-0.07130524,0.02125375,0.031235397,-0.1390411,-0.05875639,-0.024108335,-0.11108627,0.28013852,-0.18462366,0.29045835,0.7112602,0.1602731,0.20397653,0.24898696,0.14679503,-0.054204278,-0.5958462,-0.162263,-0.09906692,-0.045243632,-0.34372228,0.064169,0.08328204,-0.32086432,0.06552522,-0.45637426,0.19458884,-0.1631315,-0.042833857,-0.10336926,-0.13304305,-0.25900978,0.05308178,-0.24756435,-0.38875622,-0.039149135,0.20115653,0.10817561,-0.3218831,-0.047789358,-0.22428337,-0.27934238,0.13205048,-0.17425218,0.41989452,0.24950111,0.022815235,-0.13188647,-0.42986038,0.14791684,0.3722459,-0.12283967,-0.2390094
C2,-0.43162635,0.17652668,0.030983984,0.21702307,-0.16131264,0.2730325,-0.0891952,-0.1501376,0.5373152,-0.30471382,0.032127388,-0.011166252,-0.21410644,-0.09251671,0.2394568,-0.576745,-0.013340317,0.139,0.05395789,0.28188488,0.27254587,0.12753144,0.46689692,0.39186403,-0.10242281,-0.22959122,-0.47872758,0.031737335,-0.15888347,-0.3469789,-0.25329,0.37793583,-0.07981426,0.41624448,0.09727907,0.3013237,-0.27133524,0.32567874,-0.08099725,0.13583358,-0.039298907,-0.2014228,-0.21549922,-0.44048667,-0.11305364,0.34928215,-0.15864295,0.14665428,-0.6339546,0.10089086,-0.38206205,-0.29114187,-0.09346058,0.26496792,0.16513957,-0.31781405,0.09578368,-0.081352286,-0.119386815,0.17067449,-0.022666162,0.07262054,0.0584773,-0.0894311,0.008652158,-0.096097484,-0.14568323,-0.51969874,-0.015710596,-0.12349267,0.015189044,0.15491569,-0.5274911,-0.35271147,0.07575829,-0.22846764,-0.40446177,-0.15184918,-0.1396901,-0.28336266,-0.45313862,-0.5767868,0.16644675,-0.2672158,-0.47541314,-0.16595411,-0.23437244,-0.31905475,-0.14777881,0.15177889,0.1487419,0.12531099,-0.2565633,-0.03741493,-0.46140498,-0.2540364,-0.06825456,0.13759005,0.4329619,-0.33917743,-0.07542688,0.2162512,-0.5464814,0.3468346,-0.36242646,-0.06576151,0.38694048,-0.22286375,0.12186941,-0.31188366,-0.040891044,0.09543156,-0.21165662,-0.06757975,0.18765385,-0.095863715,0.21932602,-0.10240186,0.31358308,-0.21070722,0.057253517,-0.13879827,0.024563387,0.0059356876,0.39046812,0.2952823,0.15777555,0.009421404,0.13004476,0.24945614,-0.17136034,0.33897978,-0.3193328,0.1962434,-0.028967276,-0.36959127,0.015456099,0.0020554066,-0.21469767,0.0028374437,-0.19588487,0.10552701,0.32603893,-0.13091242,-0.031143572,0.2520335,-0.11467246,-0.11398199,0.07053908,-0.29624116,-0.014660388,-0.17246099,-0.060144655,-0.124478914,-0.19899364,-0.09837458,0.2983888,-0.072184384,-0.41257316,-0.317572,0.4435552,-0.045833603,0.62864625,0.4834869,-0.33375165,0.1296699,-0.11471311,0.05418267,0.03233006,0.23014545,-0.467996,-0.28977722,-0.050746746,-0.095011674,-0.32668138,-0.19830744,0.17990485,0.38882935,-0.06513788,-0.44996884,-0.2873793,-0.4568157,0.14279495,0.18284583,0.27913207,0.2064026,-0.08669644,0.45191693,0.31552294,0.020700492,0.13086237,-0.35084817,0.067480914,-0.1275045,0.03122811,-0.26062107,-0.16236718,-0.55917674,0.18346623,0.1866957,-0.026236497,0.19326052,0.13933077,0.0713178,0.06836268,0.19557679,0.055612944,0.39861447,-0.2947003,-0.11017234,0.1090318,0.40935913,0.071484655,-0.36224562,0.021197185,0.2557518,-0.042590536,0.34291497,-0.8423902,-0.14885254,-0.24792492,0.19845358,-0.33683914,-0.25678778,0.103697956,0.4427783,0.122070566,0.29150125,-0.36043003,0.29922628,-0.09530974,0.14346197,0.3512776,-0.17559493,0.010692328,-0.26643202,0.17047831,0.34075838,-0.098130174,-0.5156165,-0.50006104,-0.09519152,0.44832426,-0.08333162,0.2911159,0.10519288,-0.15963578,0.21276063,-0.16420463,0.13394669,-0.11248573,-0.18954724,-0.1253162,0.15359432,-0.0015543029,0.1539382,0.20128864,-0.7590158,-0.13110198,0.51380336,0.09326732,-0.26723018,-0.39015555,-0.0154928975,0.19431505,0.21309423,0.29733062,-0.12681213,0.08627512,0.29452685,-0.46538183,-0.25773704,0.2016928,0.2693741,-0.24626504,0.071853094,0.07141569,0.45766672,0.02840092,-0.17293248,0.6669152,0.038810775,0.32529318,-0.34233677,0.18787214,0.07139814,0.09564605,-0.46571004,-0.11469534,0.07073319,-0.24108256,0.25923568,-0.0016231835,0.33716464,-0.0056233443,-0.19938114,-0.30094367,0.19395712,-0.35468727,0.6933575,0.20956363,0.34462315,-0.21813498,0.2276233,-0.57239646,-0.39966962,-0.14770085,0.12486656,-0.37452736,0.33432055,-0.39084607,0.25342807,0.054640315,-0.3244517,-0.101755664,0.39294365,0.0040029883,0.104580775,0.0501313,-0.09279742,0.10351092,0.035950962,0.27442145,0.6016479,0.254824,-0.5335189,0.15195802,0.16607992,0.4795827,-0.20377299,-0.046686016,-0.46068376,-0.40327466,0.36443436,0.15620634,-0.4345132,0.06965059,0.29156017,0.07063769,0.07779785,-0.45631832,-0.30670944,-0.050122082,-0.22359972,-0.020498954,0.2548859,-0.53000945,-0.046053674,-0.051381715,0.002981834,0.11831241,-0.25332636,-0.2585371,0.18962142,0.13610339,0.2920623,-0.0088830665,0.1389785,-0.35435358,-0.19341552,-0.22468816,-0.2937207,-0.0440714,-0.12749305,-0.13110982,-0.20558444,0.29851604,-0.06180524,0.57598215,-0.20395766,-0.36916393,-0.54518473,-0.119210705,-0.17882627,0.27713296,0.120055184,-0.051526267,0.12695107,0.13980348,-0.093858734,-0.21709588,0.444674,0.27542523,0.1824565,0.058582433,-0.3292954,0.011780651,-0.3389261,-0.019619875,-0.1274965,0.06619514,-0.18540916,-0.2673271,0.025103167,-0.27081448,0.38850307,0.059420258,-0.51956266,-0.10333503,0.41110098,0.2898929,0.28621608,-0.30544478,0.06156054,-0.050727013,0.14283848,-0.3572748,-0.058795232,-0.0011294782,-0.44065157,-0.1557866,-0.097531274,0.70674896,0.16796467,-0.26238385,0.018910557,-0.16907047,-0.34969893,0.13553382,0.16931972,-0.6051374,-0.2523251,-0.4148296,-0.2000157,0.08763921,0.20050639,0.07517452,-0.21441501,-0.15875906,-0.23866929,-0.5292306,-0.07172838,0.009267591,-0.37981355,-0.8418037,-0.043972857,0.30607235,0.15318193,0.29691795,0.5756063,0.4191769,-0.09713006,-0.1543349,-0.16893348,-0.11143814,0.19807652,-0.31491596,0.2934328,-0.13647552,0.5568546,-0.4251236,-0.14120448,0.322707,0.38014752,0.11918117,-0.08866967,-0.20159003,-0.12769476,-0.49314314,-0.2584314,-0.0034179464,-0.16116726,-0.20419213,0.14640185,0.2697574,-0.08604383,0.3612389,-0.042515725,0.26637772,0.3931338,0.26824746,0.13151698,0.08571619,0.0034976453,-0.034452513,0.33300054,0.10389331,-0.15619975,0.0031029545,-0.13846046,0.08638228,0.23741649,-0.13660228,-0.2850588,-0.29483983,0.25508335,-0.03952097,-0.1512723,0.4159306,-0.45597327,-0.20751597,-0.092076905,-0.08265584,0.51047736,-0.3136852,0.30995542,-0.06756053,0.21835837,-0.29730967,0.089813195,-0.076295614,0.031841516,0.18720141,0.29548708,-0.60209274,-0.03908252,0.19953673,-0.73900414,0.30882624,-0.13929889,0.58461046,0.34172827
C3,0.18615365,-0.24992524,-0.38852307,0.3562771,-0.060796164,-0.22350623,0.4689554,0.5874886,0.26587248,-0.1509045,-0.4809193,-0.032741852,-0.16075535,0.010977492,0.16680382,0.10967234,-0.12021403,0.24367583,-0.14821318,0.3895537,-0.15876648,0.26585513,-0.111998014,0.50971454,0.024236634,-0.06632097,0.22840661,0.19759196,-0.17230833,-0.25676084,0.040435947,0.44017476,-0.033454474,-0.034599837,-0.081310414,-0.36785725,-0.0340313,0.07717987,-0.13977519,0.24407227,0.37431926,-0.39432278,0.4160385,0.22079492,0.16992201,0.08991905,-0.13132438,-0.011483386,-0.09989957,-0.59269226,0.13826488,0.13860056,-0.5385208,-0.19630872,0.073993534,0.019556563,0.07926752,0.11513266,-0.07094259,0.023666415,-0.29705554,0.6114083,-0.48277345,0.17807338,0.26363435,-0.027504668,-0.17807627,-0.128535,0.4134897,-0.1985498,0.52527285,-0.3882706,0.0051719397,0.04229472,0.24998002,0.14797875,-0.06097736,0.324001,0.18317361,-0.12917924,-0.082388744,0.09838997,0.32618028,0.006458968,0.12586412,-0.23336814,0.022491448,-0.07373006,0.14810023,-0.12240592,0.17086422,-0.5295786,-0.014971983,-0.28278366,0.07154153,-0.47652084,-0.07111989,0.11993539,0.16827282,-0.47099516,-0.030525085,0.26030558,0.022527143,0.13900346,-0.10298408,-0.07164116,-0.16155432,-0.22271653,0.3094988,0.02281215,0.23673937,0.10069083,0.120856896,0.0153461695,0.2735501,0.20427367,-0.1302017,0.13015895,0.07069501,-0.05512003,0.2349276,-0.36581096,-0.361777,-0.2940514,0.24081762,-0.1280044,-0.6532817,-0.13621399,0.6071872,0.09480525,-0.12198831,0.7168996,-0.051301084,-0.3709024,-0.003235992,0.26879364,0.17143625,0.24996957,0.15315814,0.28531238,-0.06901564,0.12963325,0.019301303,0.022556048,0.015117133,-0.396157,0.27826205,-0.1349668,-0.29807234,0.28740573,0.046965767,0.010508699,-0.18322068,0.09839145,0.31663656,-0.24300598,-0.23035416,-0.060202554,-0.1404783,-0.4033162,0.010296386,-0.13483427,-0.05720205,0.29449904,-0.17361245,-0.09430239,0.25670102,-0.2431272,-0.37754318,-0.1392194,-0.2994125,0.24120441,-0.11395943,0.09310397,-0.15315598,0.644318,-0.28174818,0.58546233,-0.27204177,0.09311487,-0.24482402,0.16979426,0.47743106,0.32732525,0.8341971,0.13303447,0.43205076,0.3142044,-0.07574069,-0.222334,-0.080698326,0.13145372,-0.115016,-0.11248777,-0.12804121,0.38914016,0.31547737,0.0833028,-0.23420894,0.0862617,-0.01701115,-0.1902813,-0.1764214,0.06019907,-0.13453314,-0.16733584,-0.12124383,0.44909015,0.016231574,-0.594025,-0.061064772,0.008016631,0.063092366,0.039659094,-0.081645705,0.28799602,0.023212582,0.19159865,0.2080336,-0.49894875,0.80577004,0.3965117,-0.53874195,0.12750126,0.13694543,-0.07840408,0.18376394,-0.038365714,0.22250691,-0.029109512,0.56332296,0.12217408,-0.102452956,-0.24829513,0.2448774,0.0059414133,0.4570903,-0.39610234,0.09009301,-0.17153713,-0.19595478,0.21258315,0.20969619,-0.15434554,0.19482456,0.116440795,0.019254114,0.2106947,-0.0728753,0.2122837,-0.40215793,0.3174935,0.08914766,-0.4676356,0.11991563,0.2130245,-0.03855122,-0.11369718,-0.24146049,0.03336254,0.46889096,0.31399372,-0.3709875,0.11862166,-0.2110858,-0.20660114,0.13092108,-0.064171396,0.25541976,-0.4246801,-0.17862251,0.5039473,-0.25258946,0.31814718,0.1043811,0.33964005,0.04911669,-0.14100543,0.39233443,0.05282408,-0.08069484,-0.19512653,0.41970542,0.42052677,0.35337856,-0.05730561,-0.079542406,-0.15532088,0.06839568,0.49086046,-0.14987783,-0.28289288,0.20634463,0.23621204,0.24150535,0.38719174,-0.31027603,-0.13467309,0.15082547,0.1447631,-0.107232496,-0.3222797,-0.27285656,-0.16700603,-0.11162563,-0.19558167,0.081429936,0.12453807,-0.7472502,0.06279766,-0.4148646,0.014979705,0.51331264,0.20320204,0.12168637,0.15872149,0.27158552,0.47834954,-0.16470325,0.4692898,-0.4005359,-0.023669466,-0.08465196,-0.34759653,0.58935153,0.010169648,-0.2124448,0.017153703,-0.06194464,-0.087073006,-0.2165483,0.15438439,-0.24204077,-0.30184886,0.045088716,-0.23866345,-0.3245938,0.2709816,0.27856353,-0.17284173,-0.20095243,-0.21737295,-0.38818595,0.7241686,0.07856101,0.04853324,0.053016536,-0.37995023,0.5434262,-0.24340963,-0.3343078,-0.29409805,-0.19107139,-0.46214265,-0.2449127,0.18391564,-0.15846008,-0.07124516,0.235372,0.07434291,-0.40917644,-0.052922223,0.21641687,-0.44958383,-0.24201903,-0.20915881,0.10048404,-0.0453969,0.09309695,-0.2515405,0.19931653,0.18621512,0.16831988,-0.058086682,0.13587871,-0.15090552,0.035034608,0.1976683,0.0784031,-0.25355667,-0.32099962,-0.1106609,-0.40361476,0.4765514,0.5397119,-0.051595557,0.5037563,0.3544123,-0.6017731,-0.049603652,-0.10683756,-0.08344255,0.069716945,0.22041827,0.0071704537,0.4453867,-0.5295884,-0.31545693,0.09031192,0.13502228,-0.20755693,0.27850094,-0.09123357,0.12722854,0.10469885,-0.11133847,0.15947075,-0.13032001,0.43033627,0.0641402,-0.34299898,-0.21117204,0.06975593,0.679466,0.50631976,-0.646538,-0.06775189,0.16437992,-0.03778208,-0.2994092,-0.24997166,-0.09026818,0.023232123,-0.061540194,-0.10182729,-0.13995892,0.20654689,0.09462233,-0.10216088,-0.2826848,-0.19066805,0.30816483,0.2162815,-0.1367602,-0.36693698,0.06254208,-0.22554335,0.0041885152,0.03803505,0.2322543,-0.22331631,0.191435,-0.110618435,0.18670093,0.28859335,0.039158285,0.31724435,-0.3911902,0.14779082,-0.17769882,0.34308445,-0.094943576,-0.3079348,-0.3274191,-0.41010278,-0.18299335,-0.094888344,-0.13221163,0.23588239,0.746957,-0.55248946,-0.22559234,-0.3531813,0.2778116,-0.10132614,-0.4430429,0.20000422,-0.25547487,-0.14503711,0.34418055,-0.06340329,-0.22265917,-0.39783207,0.11532307,0.06033148,-0.07424901,-0.72446835,0.3030779,-0.5913145,0.04584644,-0.32877865,0.36518478,-0.34981287,-0.38021487,0.14859313,0.42538628,0.10028254,-0.4987225,-0.5516042,0.019667327,0.29613337,0.22426283,-0.108219884,-0.113507226,0.38076854,-0.4789148,-0.20151591,-0.115818396,-0.26586673,0.23467705,-0.0881659,0.4632227,-0.15888542,0.27693567,-0.077937104,0.10095998,-0.25725377,0.41140068,0.12497337,-0.13634849,0.004390396,-0.12670535
C4,-0.25153986,0.057371497,0.024457473,0.111997746,-0.19826889,-0.33613688,0.33305687,0.33488482,-0.1928266,0.0041747913,-0.3954144,0.036421992,-0.37441462,-0.05942874,0.08059255,0.014964607,0.17780241,-0.04769353,-0.10863613,0.3575429,-0.04236204,-0.3743502,-0.27238587,0.38830748,0.35883552,-0.23945525,0.19562341,0.34828684,-0.31713033,0.37383747,0.15179005,0.5703464,0.17272559,0.17433749,-0.066896625,-0.21949819,0.15918879,0.12098111,-0.2680567,-0.30487347,0.06766315,-0.0761634,0.39606148,-0.02117274,0.3312135,-0.14838123,0.037356596,0.04574866,0.28014383,-0.1326838,-0.1415365,-0.3408252,0.18021537,-0.6042249,0.181627,0.18879843,0.24849176,0.14229766,0.059448905,0.2619059,0.06613453,0.13502753,-0.2873881,0.10196597,0.058188863,-0.25382358,0.26307413,-0.46650684,0.13806789,-0.29307023,0.41483238,0.15136322,-0.4674201,-0.10346738,0.029288203,-0.14890237,-0.30302882,0.12769423,-0.3527742,0.15889199,-0.06720553,0.07447823,-0.16370782,0.19804506,0.17997077,-0.2500417,-0.33245683,-0.04527308,-0.13506088,0.3095114,-0.2781311,0.16027328,0.1311763,0.39635107,0.06024542,0.11800978,-0.46445736,0.16946742,0.062070128,-0.088142686,-0.0068161637,-0.045123328,0.0110951625,-0.1590602,0.07037604,-0.2557541,0.026216833,-0.31833398,0.1071319,0.17441149,-0.023266315,0.25794217,0.07891889,-0.1987505,-0.027987015,0.08471294,0.12939347,0.28462607,-0.07973658,0.2638889,0.33072478,-0.106517896,-0.26151556,-0.3582485,0.19017911,-0.38185418,-0.1074159,0.07623139,0.072425365,0.13889259,-0.42875224,0.25010973,-0.13462862,-0.34573746,-0.090497844,0.10268967,-0.32588744,-0.5084555,-0.15648577,0.3783912,-0.049384072,0.39948615,-0.080202796,-0.3064078,-0.024356611,0.26387537,-0.07167747,-0.042099193,0.093682,-0.16081701,-0.046720907,-0.03781159,-0.33730584,0.15833232,0.13381702,-0.3043632,0.20214778,-0.058569074,0.4375718,-0.008944023,0.13724467,-0.3663446,-0.08166092,0.17437246,0.147567,0.17718975,0.42959037,-0.006255284,-0.14295146,-0.09231473,-0.25964925,0.12776947,-0.427295,-0.4143976,-0.24006423,0.3672009,0.07851694,0.09622628,0.0631155,0.105428085,-0.20000505,0.40120524,0.15100163,0.29539728,-0.08784924,0.32738996,-0.008410826,-0.21318989,-0.23487389,-0.25206605,-0.1260441,0.08649616,-0.17376804,0.15336815,-0.38459763,0.3234639,-0.069706425,-0.08827721,0.19168133,-0.44296432,-0.37689632,0.098176196,0.17366868,-0.091211624,0.14690942,-0.3962931,0.14732137,-0.029483907,-0.10753568,0.037680276,0.09053017,0.036288433,-0.24630255,-0.24413836,0.01955923,-0.09608163,0.17340337,-0.22859645,-0.16100124,0.013805434,0.22883272,-0.4326392,-0.12803143,0.33915085,0.080160126,-0.085588925,0.18037684,-0.269291,0.16769658,-0.19314457,0.09970857,-0.0006514713,0.05221444,-0.19509542,-0.09218569,-0.18502098,-0.20779958,0.084846236,-0.44885182,-0.3042189,-0.5547927,-0.21469548,-0.052747536,0.21961957,-0.18784292,0.11915476,-0.04262908,0.17846525,0.15234578,0.029559858,-0.24667579,-0.15287846,-0.36360863,-0.1202334,0.43219864,-0.04865136,-0.07759223,0.155357,-0.060015492,-0.06551032,0.3687096,-0.11755209,-0.03312268,0.011359094,-0.06709992,-0.1118325,-0.19192423,0.50089926,-0.37713397,0.27517405,-0.06310441,-0.1350964,-0.14417323,0.2558511,0.019801151,0.30235603,-0.1966874,0.3488164,0.2028051,-0.040374286,-0.1057093,0.07417664,0.04147808,0.10473354,-0.5928731,0.2609427,0.118814945,0.24368757,-0.28320783,0.26731643,0.5449676,-0.5960548,-0.0618308,0.28107038,0.025425613,0.035184674,-0.21682185,-0.38200963,-0.089200996,-0.29287773,0.011109874,0.19304857,-0.06859958,0.09838177,-0.14612181,-0.015581969,0.24544087,0.1153286,-0.20239258,0.08562255,-0.42997193,0.010054447,-0.043079622,0.024556186,-0.23663706,0.046454106,-0.1948816,-0.033146948,-0.24221498,0.078661196,-0.35577664,0.05184606,-0.18877469,-0.1335718,0.17392024,0.1851955,0.26713744,-0.15584895,-0.23546252,-0.15097639,-0.07786757,-0.1509412,-0.34169734,-0.047533754,-0.1668545,0.08878498,-0.08386793,-0.07051034,0.366155,0.1022313,-0.10602678,-0.0911307,-0.08271173,0.16224478,0.052158438,0.0063379705,-0.377245,-0.2690454,-0.035804994,0.34321728,-0.1304991,0.035990722,0.02451554,0.17448327,-0.08172305,-0.22601356,0.11425166,-0.17952976,0.16414735,-0.4600164,-0.30492973,-0.07536211,-0.31051177,0.119380884,0.18273954,-0.2725408,0.23269075,0.19684455,-0.2831044,0.40573317,0.23187912,0.054698803,-0.0741981,0.104035765,0.30055517,0.2935159,0.08234516,-0.20779657,0.09577825,-0.15652332,0.016966028,0.07891601,-0.040531375,-0.14911065,0.154035,-0.008265488,-0.1471385,0.094388485,0.21133226,0.30935574,0.27459553,-0.4058817,-0.19019678,0.10740238,-0.09589723,0.25769502,-0.17511666,-0.04591856,-0.09294868,0.25503436,-0.32773286,-0.21120912,-0.10169518,-0.025785295,0.06437918,-0.1418455,-0.14203417,-0.13293839,0.21551439,0.2863162,-0.10951663,-0.1634172,0.3502445,-0.11235623,0.4147612,-0.23275267,0.38544196,0.18076023,0.34310424,-0.41766885,-0.48102644,-0.32975686,-0.07353121,0.16870809,-0.30314475,-0.049801655,0.10549466,-0.011803977,0.29464826,-0.04577922,-0.31250203,-0.14088891,0.17416042,-0.39692664,-0.24497986,-0.23498428,-0.16459039,-0.002277188,-0.084580705,-0.07053084,0.21837047,-0.58907074,-0.088381715,-0.2648288,-0.23357771,0.07457901,-0.061528407,-0.16842085,-0.32164994,0.2815402,0.054025337,0.38224107,0.40624648,0.14248314,-0.06795047,0.2957914,-0.2972926,0.21222779,0.0020884713,-0.40628216,-0.39078987,0.114672266,-0.3475776,-0.01630748,-0.27474087,-0.1893554,0.07775658,-0.35186276,-0.30803594,0.36449444,0.33790055,-0.10541581,-0.010575347,-0.048628327,-0.0021276101,-0.18301317,0.010404941,-0.36852327,-0.03533136,0.15082185,0.20815311,-0.15292957,-0.22902267,0.51899654,-0.14008307,0.1602672,-0.01781401,-0.06335151,-0.17425862,0.06795135,0.41404486,-0.065044634,-0.06427049,0.20657052,0.23492852,-0.23339765,-0.41412985,-0.45377794,0.08808264,0.024504656,0.130739,-0.092162415,-0.2773514,0.21939492,-0.39272702,0.24288687,0.03711278,-0.25475016,0.38988683,-0.09386156,0.32859805,-0.16858923
C5,0.40521666,-0.22317402,0.523646,0.13461635,-0.20310634,-0.22060291,-0.1846334,-0.16501683,0.21101746,-0.24396268,-0.11158517,0.13354518,0.03691842,0.11617172,-0.27493694,0.31864682,-0.124220535,0.009195641,0.21624896,0.26540703,0.08303805,-0.26658615,0.40474063,0.2992323,-0.41583037,-0.22590932,-0.010452505,0.37986153,-0.16860852,0.4523237,-0.38879997,0.36992222,0.31725958,0.19690521,0.5284391,0.33207557,0.18704961,0.4276119,0.12177516,-0.10306381,0.14636752,-0.18769534,-0.2688289,-0.07283274,0.2058286,0.22696504,0.15625843,0.01676891,-0.41416916,0.26086128,-0.28939334,-0.019811895,-0.199806,0.20683241,0.18102965,0.60901433,0.0062304884,0.18168792,-0.19162908,0.18928991,0.17524672,0.006903721,0.019519027,0.36902806,-0.061462767,-0.22561893,-0.039206445,0.10632851,-0.14991672,-0.29915756,0.23159009,0.51546794,0.37652874,-0.15896973,-0.01313179,0.14870825,-0.20302851,-0.31395262,0.07626051,0.022717625,-0.07595214,0.33406612,0.05468761,0.14907716,0.119213946,-0.22801283,-0.26594877,0.058016244,0.0564482,0.1269882,0.35204113,-0.0025317408,0.02132272,0.020794474,-0.23359983,-0.27031398,0.063678704,-0.12049562,0.11416348,0.1201084,-0.50725204,-0.12501402,0.10821733,-0.29167867,-0.30505705,-0.010911938,0.19437976,0.033250388,-0.32886365,0.19363682,0.15614629,0.15364125,-0.24983716,-0.6647159,0.049899206,-0.24358462,-0.10186332,-0.04179027,-0.0035618516,-0.053666115,-0.123896845,0.30996466,0.22184885,0.11606236,-0.02823276,-0.2258797,0.36000818,-0.024797266,0.104448974,-0.045259103,0.51703763,0.06343061,-0.1067277,0.26271537,-0.09602125,0.24390507,-0.49151808,-0.33293146,0.29814422,0.1351871,-0.010016862,0.28715327,0.35748053,-0.26498032,-0.09509915,0.9215968,0.01325269,-0.20543948,-0.09369771,-0.27329046,-0.08769822,0.39146227,0.032683745,-0.11786801,-0.6426583,-0.13873352,0.20505232,0.3724798,-0.24322519,-0.026937854,0.109446034,-0.30277666,0.0278237,-0.39005575,0.30450243,0.06385764,-0.12653247,-0.08677193,0.3088703,-0.13290119,0.09633632,-0.43072867,-0.33834973,0.46312445,-0.23205873,0.34160227,0.29804954,0.5562962,-0.42456654,-0.063401595,0.0574368,0.15504465,-0.2736218,-0.3095977,-0.00882937,0.048091,0.23576841,0.20464844,-0.24385124,-0.21785891,0.059472293,-0.41121396,-0.06999082,0.25254387,-0.29433915,-0.11581841,-0.3590957,-0.7314787,-0.33460107,0.41873586,-0.12684312,-0.13565126,0.42879623,-0.05430875,0.37308314,0.24668264,-0.10455848,-0.09640769,0.08973343,0.2816648,0.24832052,-0.074012175,-0.13802934,-0.27995324,0.30217177,-0.22864354,0.009289473,-0.15643156,-0.079240724,0.09275977,-0.2787609,-0.24651399,0.6134274,0.7558849,-0.21619526,-0.040101893,-0.4762028,0.070467666,-0.12190736,0.18289985,0.060537383,0.056784756,0.07145293,-0.16493648,-0.21636061,-0.12984014,0.0010571405,-0.07163363,0.30615908,-0.090940006,-0.1007503,0.03233169,-0.10256143,-0.47332698,0.2644731,0.3171179,0.054826025,-0.011833228,0.24047938,0.49713352,-0.06913368,0.1271373,-0.23990463,0.055636413,-0.17945582,0.3335942,-0.1514521,0.2691607,0.09504439,-0.05383581,0.052155085,0.38402894,-0.38036138,-0.3122993,-0.104531005,0.06525932,0.41529065,-0.32811403,-0.43176028,0.4493897,0.16412899,-0.34869626,0.119484276,0.14224564,-0.4256255,0.19098943,-0.47137955,0.42316365,0.29157165,-0.16156387,0.1186299,0.020483725,-0.20860122,-0.01819583,0.28853512,0.6084848,0.3431259,0.30926833,0.021905005,0.010853436,-0.20090769,0.3512826,-0.022071406,0.0139678195,0.21358001,0.10841611,0.23212165,0.34869435,-0.37198824,0.108779386,-0.44102293,0.47496668,-0.17347714,0.34313262,-0.07602556,-0.04830666,-0.20810708,0.11733021,-0.12758046,0.265696,-0.017073883,0.20959216,-0.20151019,-0.005361542,0.29871988,-0.33519676,0.07271533,0.24438375,0.10248058,0.04668867,0.18785298,0.06990686,0.21959049,-0.28104562,0.028630923,-0.16705263,0.2214504,-0.12077413,-0.14228386,-0.28781262,0.7020871,0.32819206,-0.12879653,-0.45207804,0.1214294,-0.056220297,0.032508746,0.07260056,-0.116354145,-0.0040730163,-0.15211019,-0.42274198,-0.30176556,-0.41135597,-0.19885829,-0.14353448,-0.110265866,-0.0054400265,-0.2644177,-0.1911163,-0.3991143,0.12895024,-0.28139856,-0.09250543,0.46485817,0.038005225,-0.6478085,-0.016381212,-0.59190494,-0.20669672,-0.19751807,-0.17280549,0.10794647,-0.15742016,0.2943361,-0.27362132,0.15734583,-0.13603586,0.084681064,-0.14059503,0.03203135,0.18252805,-0.110364795,-0.19232705,-0.27684706,-0.29302835,0.17417969,0.16946317,-0.4808247,0.03541182,0.2577887,-0.010480508,0.16941962,-0.33436012,0.124570265,-0.1741787,-0.35607165,-0.30765617,0.07121076,-0.4633474,0.1122733,-0.27240044,-0.2086752,0.081187725,0.5565216,0.2754547,-0.19811347,0.21172856,0.5494347,0.44409877,-0.2510727,0.36393002,0.18668488,0.07308878,-0.39422208,0.22523333,0.16494083,-0.21812147,-0.14891613,-0.13805878,0.08822958,0.09931655,-0.016948894,-0.016389858,-0.0014525503,0.11378868,-0.29115027,-0.68054104,0.7293116,-0.39561033,-0.1562584,0.16374111,0.24793151,-0.29418,0.028466117,0.2435059,0.034116037,0.29753524,-0.092105724,0.15148635,-0.46785542,0.051062368,-0.195943,0.19126749,-0.26413113,-0.046627462,0.3504575,0.22957051,0.1922908,0.25951976,0.25408956,-0.2999965,-0.36708525,0.32463714,-0.473462,0.09140918,-0.2978415,0.1532715,-0.16491714,-0.14611518,0.35496587,0.19003713,0.7152607,0.24019477,0.07333054,0.35168287,-0.5381475,0.0820666,0.31914324,0.062165488,-0.09840027,-0.24646303,0.30957878,0.26634514,0.065100595,0.33206743,0.06293263,-0.12757504,0.1817328,0.7138954,-0.1917597,-0.121975824,-0.078011654,-0.2700624,-0.07940952,-0.009184878,-0.012624573,-0.019494407,0.19909835,0.1212451,0.2961642,-0.06278355,-0.17703599,0.22601667,-0.19474205,0.044086136,0.07512417,-0.33670053,0.162339,-0.5036926,0.065585256,-0.38759467,-0.24449545,-0.2093968,-0.43613303,0.04158111,-0.14504877,0.23776755,-0.03634274,0.09473579,-0.47180536,0.14492139,0.09440275,0.048399787,-0.29845664,-0.1034244,-0.18487117,0.14265609,0.304196,-0.09705906,0.22182423,-0.09893157
C6,-0.0061392374,-0.24750789,-0.37988368,-0.095547445,0.16889462,-0.07760984,0.074032776,0.11731019,-0.5333725,0.36054933,0.07382761,0.26381946,-0.39322343,0.13076335,-0.26866388,-0.3722783,-0.022575334,-0.1617626,0.590069,0.5344085,0.20330225,0.23120798,0.22524247,0.14337428,0.29241204,-0.32524204,-0.021134157,0.41580665,0.15993065,-0.11706941,0.04572123,0.33400545,-0.14725815,-0.24057172,0.11142045,0.113470554,-0.048317797,0.2394461,0.4658929,-0.0028026104,0.067838416,-0.17022547,0.15996867,0.3923541,-0.104437776,-0.2714802,-0.31754604,-0.4886355,0.25460896,-0.43662316,0.12530038,-0.21174154,0.01596456,0.23987532,0.21897727,0.07859514,0.013802696,-0.18696585,-0.031382747,-0.012092825,-0.26558104,0.2807582,0.20767434,0.17305917,0.45415187,0.12004643,-0.2066808,0.46295443,-0.25421506,-0.18836173,0.49083596,0.34135252,-0.30075917,0.3018478,-0.03607569,0.42774665,0.16719145,0.09323947,-0.3121188,-0.20123327,0.327837,-0.064249314,0.22955385,0.43696392,-0.24518833,0.008808538,-0.22306234,0.23686832,0.18018973,-0.4228595,-0.25755423,-0.5290834,0.6389771,0.42013434,0.32919705,-0.005782936,-0.5469117,0.26088202,0.2020249,-0.090923265,-0.21290113,-0.27217552,-0.08280311,-0.15122576,0.40154743,0.29973674,-0.24479869,0.20915739,-0.08802777,-0.08417132,0.1265068,0.015809208,0.5287869,-0.051380225,0.18736593,-0.030378457,0.4021672,0.42192057,0.07244623,-0.052258767,-0.04335562,0.26084772,0.44766942,0.16882041,0.28785533,-0.49312305,-0.39973003,0.033665504,0.076934814,0.14058614,-0.0944323,0.30512166,-0.3524879,-0.28976756,0.26066545,-0.2319966,0.026493387,0.407923,0.15641724,0.3083716,-0.1915025,-0.060336683,0.39570662,-0.1242688,-0.18625134,0.6819138,0.14120726,-0.43321007,0.15322842,0.4363383,0.052491587,-0.011177024,-0.06235888,0.27154803,-0.08263844,-0.24241628,0.34687907,0.19950439,0.20470992,0.0045848973,-0.2548727,0.31148496,0.12411988,-0.31430674,-0.2864553,-0.021464743,0.31698573,0.515119,0.18750036,-0.37636292,-0.20091917,0.11069274,-0.11366582,-0.15204635,0.26699266,0.079025,-0.24514502,0.38624758,-0.11249448,0.10470924,0.024560742,0.19443548,0.034319863,0.030070137,0.32579586,-0.17816818,-0.14711237,-0.11557744,0.43024108,0.10577693,0.1736499,0.18133444,-0.36083868,0.07219681,0.38755026,0.24983183,-0.039440818,-0.08130866,-0.34296295,-0.10919828,0.2184967,0.32445988,-0.078901894,0.5080689,0.18067464,-0.5193895,-0.025277134,0.33205277,-0.11071525,-0.4929508,-0.020443633,-0.4258467,-0.06647709,0.41210008,0.042305388,0.19776285,-0.46562064,-0.14369625,-0.26974458,-0.43812263,0.13278621,0.066399574,-0.36345905,-0.025742482,-0.26005173,-0.25251985,-0.28918716,-0.15932244,-0.18444535,-0.22913131,-0.1122803,-0.24003944,-0.058154643,0.11483545,-0.24325171,0.07871562,0.255313,-0.29296297,0.17076132,-0.09854039,-0.40493056,-0.06502682,-0.0102878995,-0.33582318,-0.27365807,-0.08871171,-0.13898298,0.18932149,0.25864744,0.17030852,-0.304006,0.4201055,-0.19856642,0.25374454,-0.08776685,0.02579834,0.39600277,0.18326563,-0.29327607,-0.36636236,-0.053985186,0.2730499,-0.08885353,-0.082635194,-0.27741557,-0.32261804,0.23213147,-0.21904211,0.06995741,0.034239747,-0.37331793,0.36906177,0.18044497,-0.07925155,0.30823976,-0.36369523,-0.14697386,0.012052797,0.21196732,0.119737476,0.033260424,-0.24095297,0.27487385,0.13610157,0.039991766,0.17938681,-0.34652165,0.5652731,-0.1870168,-0.6323946,-0.29654658,-0.04212442,0.18065543,-0.54391813,0.7003298,-0.090655975,0.19849595,-0.086242326,-0.17350328,-0.11278914,-0.07061524,0.17137548,-0.5585495,-0.3299663,-0.07490544,-0.26158577,-0.39149317,0.059627127,-0.2144416,0.06805822,-0.07115644,-0.26507753,0.19556478,0.015707009,0.18731488,-0.12348265,0.24688637,0.047925793,-0.17562228,0.091493934,-0.32667494,-0.2080057,-0.4407471,-0.033969875,0.33999276,-0.30943835,-0.31742626,0.17637937,-0.002213575,0.27056065,-0.4951062,-0.40697736,-0.08682293,0.08894645,-0.41886356,-0.15990262,-0.094504885,0.1241415,-0.40557557,0.049831577,-0.14913405,-0.13029578,-0.02633713,-0.19760156,-0.0023722053,0.22267033,-0.64801973,-0.24989156,0.15838552,0.59120286,-0.39472795,0.2546279,-0.018717904,-0.119047046,-0.1073359,-0.08251905,0.15401909,-0.511531,-0.16871491,0.057796776,0.3062005,-0.12608063,0.20733514,-0.11012411,0.031175662,0.41849688,-0.572885,0.14050844,-0.050503463,0.53810954,-0.21750045,-0.53134143,0.17447022,0.20784125,0.21774319,0.18675855,0.19863094,0.123116046,-0.5775441,-0.31530938,-0.12854183,0.4552177,-0.5523007,0.10140071,0.011185452,0.5502036,-0.13631243,-0.2221128,-0.25534093,0.033405557,-0.34024644,-0.25079212,-0.23609856,-0.23414123,-0.30886644,0.21263322,0.050854888,-0.2973944,-0.113117255,0.12735799,0.10344958,-0.2341901,-0.08524181,-0.10969339,0.16529503,0.17154893,-0.2583259,-0.026430547,0.01026953,-0.3030239,-0.27828443,-0.0047241747,-0.368125,-0.17500305,-0.16915607,-0.06993094,0.018763531,-0.67105114,0.18014392,0.09096534,-0.6386325,-0.53084916,0.31225508,0.3172216,-0.54176974,0.38377133,0.14881277,-0.275107,0.109847166,0.14029741,-0.3385274,-0.07952033,0.104066126,0.05139877,0.01623639,-0.16595751,-0.4785004,0.13490319,-0.07751016,-0.01900769,-0.11620525,-0.120186225,0.06398898,0.059568606,-0.36557347,-0.47967324,-0.18016145,0.003401598,-0.14148408,0.2718683,0.38351604,-0.42515025,-0.13772637,-0.12353822,-0.15359847,0.022007138,-0.46924382,-0.35381228,-0.2868231,-0.1536506,-0.20392856,0.22238621,0.19775641,-0.31719178,0.078662656,0.5474538,-0.36491242,0.09598814,0.23971376,0.56209654,0.43708405,0.1418415,-0.005521536,-0.11377307,-0.12784865,0.19295382,0.017085142,-0.28138945,0.25311622,0.0021464303,0.25079337,0.08835919,-0.16134925,0.031928886,0.24815091,0.4641517,-0.5779812,0.23817816,-0.4018008,0.07115742,-0.17213097,0.20425561,0.0334946,0.20347635,0.21939726,0.046849057,0.11792151,0.40449262,0.07893133,0.47477204,0.40344328,0.33078438,0.09012733,0.26683155,-0.21295753,-0.28962678,0.18824264,0.5473878,0.27110896,0.056585185,-0.043568082,-0.17453468
