DiseaseID,feature_1,feature_2,feature_3,feature_4,feature_5,feature_6,feature_7,feature_8,feature_9,feature_10,feature_11,feature_12,feature_13,feature_14,feature_15,feature_16,feature_17,feature_18,feature_19,feature_20,feature_21,feature_22,feature_23,feature_24,feature_25,feature_26,feature_27,feature_28,feature_29,feature_30,feature_31,feature_32,feature_33,feature_34,feature_35,feature_36,feature_37,feature_38,feature_39,feature_40,feature_41,feature_42,feature_43,feature_44,feature_45,feature_46,feature_47,feature_48,feature_49,feature_50,feature_51,feature_52,feature_53,feature_54,feature_55,feature_56,feature_57,feature_58,feature_59,feature_60,feature_61,feature_62,feature_63,feature_64,feature_65,feature_66,feature_67,feature_68,feature_69,feature_70,feature_71,feature_72,feature_73,feature_74,feature_75,feature_76,feature_77,feature_78,feature_79,feature_80,feature_81,feature_82,feature_83,feature_84,feature_85,feature_86,feature_87,feature_88,feature_89,feature_90,feature_91,feature_92,feature_93,feature_94,feature_95,feature_96,feature_97,feature_98,feature_99,feature_100,feature_101,feature_102,feature_103,feature_104,feature_105,feature_106,feature_107,feature_108,feature_109,feature_110,feature_111,feature_112,feature_113,feature_114,feature_115,feature_116,feature_117,feature_118,feature_119,feature_120,feature_121,feature_122,feature_123,feature_124,feature_125,feature_126,feature_127,feature_128,feature_129,feature_130,feature_131,feature_132,feature_133,feature_134,feature_135,feature_136,feature_137,feature_138,feature_139,feature_140,feature_141,feature_142,feature_143,feature_144,feature_145,feature_146,feature_147,feature_148,feature_149,feature_150,feature_151,feature_152,feature_153,feature_154,feature_155,feature_156,feature_157,feature_158,feature_159,feature_160,feature_161,feature_162,feature_163,feature_164,feature_165,feature_166,feature_167,feature_168,feature_169,feature_170,feature_171,feature_172,feature_173,feature_174,feature_175,feature_176,feature_177,feature_178,feature_179,feature_180,feature_181,feature_182,feature_183,feature_184,feature_185,feature_186,feature_187,feature_188,feature_189,feature_190,feature_191,feature_192,feature_193,feature_194,feature_195,feature_196,feature_197,feature_198,feature_199,feature_200,feature_201,feature_202,feature_203,feature_204,feature_205,feature_206,feature_207,feature_208,feature_209,feature_210,feature_211,feature_212,feature_213,feature_214,feature_215,feature_216,feature_217,feature_218,feature_219,feature_220,feature_221,feature_222,feature_223,feature_224,feature_225,feature_226,feature_227,feature_228,feature_229,feature_230,feature_231,feature_232,feature_233,feature_234,feature_235,feature_236,feature_237,feature_238,feature_239,feature_240,feature_241,feature_242,feature_243,feature_244,feature_245,feature_246,feature_247,feature_248,feature_249,feature_250,feature_251,feature_252,feature_253,feature_254,feature_255,feature_256,feature_257,feature_258,feature_259,feature_260,feature_261,feature_262,feature_263,feature_264,feature_265,feature_266,feature_267,feature_268,feature_269,feature_270,feature_271,feature_272,feature_273,feature_274,feature_275,feature_276,feature_277,feature_278,feature_279,feature_280,feature_281,feature_282,feature_283,feature_284,feature_285,feature_286,feature_287,feature_288,feature_289,feature_290,feature_291,feature_292,feature_293,feature_294,feature_295,feature_296,feature_297,feature_298,feature_299,feature_300,feature_301,feature_302,feature_303,feature_304,feature_305,feature_306,feature_307,feature_308,feature_309,feature_310,feature_311,feature_312,feature_313,feature_314,feature_315,feature_316,feature_317,feature_318,feature_319,feature_320,feature_321,feature_322,feature_323,feature_324,feature_325,feature_326,feature_327,feature_328,feature_329,feature_330,feature_331,feature_332,feature_333,feature_334,feature_335,feature_336,feature_337,feature_338,feature_339,feature_340,feature_341,feature_342,feature_343,feature_344,feature_345,feature_346,feature_347,feature_348,feature_349,feature_350,feature_351,feature_352,feature_353,feature_354,feature_355,feature_356,feature_357,feature_358,feature_359,feature_360,feature_361,feature_362,feature_363,feature_364,feature_365,feature_366,feature_367,feature_368,feature_369,feature_370,feature_371,feature_372,feature_373,feature_374,feature_375,feature_376,feature_377,feature_378,feature_379,feature_380,feature_381,feature_382,feature_383,feature_384,feature_385,feature_386,feature_387,feature_388,feature_389,feature_390,feature_391,feature_392,feature_393,feature_394,feature_395,feature_396,feature_397,feature_398,feature_399,feature_400,feature_401,feature_402,feature_403,feature_404,feature_405,feature_406,feature_407,feature_408,feature_409,feature_410,feature_411,feature_412,feature_413,feature_414,feature_415,feature_416,feature_417,feature_418,feature_419,feature_420,feature_421,feature_422,feature_423,feature_424,feature_425,feature_426,feature_427,feature_428,feature_429,feature_430,feature_431,feature_432,feature_433,feature_434,feature_435,feature_436,feature_437,feature_438,feature_439,feature_440,feature_441,feature_442,feature_443,feature_444,feature_445,feature_446,feature_447,feature_448,feature_449,feature_450,feature_451,feature_452,feature_453,feature_454,feature_455,feature_456,feature_457,feature_458,feature_459,feature_460,feature_461,feature_462,feature_463,feature_464,feature_465,feature_466,feature_467,feature_468,feature_469,feature_470,feature_471,feature_472,feature_473,feature_474,feature_475,feature_476,feature_477,feature_478,feature_479,feature_480,feature_481,feature_482,feature_483,feature_484,feature_485,feature_486,feature_487,feature_488,feature_489,feature_490,feature_491,feature_492,feature_493,feature_494,feature_495,feature_496,feature_497,feature_498,feature_499,feature_500,feature_501,feature_502,feature_503,feature_504,feature_505,feature_506,feature_507,feature_508,feature_509,feature_510,feature_511,feature_512
C1,-0.121757865,0.30247045,0.0932098,-0.17458019,0.23234394,-0.11513704,0.33793935,0.08355815,-0.2549899,0.19937551,-0.14820567,0.4655872,-0.2360121,-0.005906798,-0.1484983,-0.45370403,-0.30178294,-0.07939199,0.0015027225,-0.21791945,-0.3182602,0.15558414,-0.5308955,0.019547287,-0.056542866,0.06463165,0.20279494,0.17635944,-0.5359888,-0.09890043,-0.03733966,0.10669854,-0.36244404,0.072267026,-0.48280293,-0.33774748,0.132036,0.14458683,-0.071957506,0.32193965,-0.115682185,0.05411275,0.27913693,-0.024657488,-0.23380321,-0.028443508,-0.06004226,-0.25074723,-0.28552628,0.26282245,0.0794779,-0.1628057,0.43138224,-0.13501331,0.53630984,-0.1674757,0.14685315,-0.25092074,0.270165,-0.5690971,-0.3436724,-0.21930358,0.14628994,-0.26600003,0.16471209,-0.1932269,0.0005989596,0.09738013,-0.28556427,0.2892888,0.2971443,0.052573606,0.22532627,-0.10943919,-0.050390847,0.41168228,0.043831404,0.06673392,-0.11550763,-0.10528669,0.15620883,0.16858813,-0.046687488,0.3372852,-0.23305643,0.52597374,0.32510522,0.0007251501,0.35337228,-0.3408901,0.31304365,0.4729719,-0.40355992,0.36270687,0.013604142,-0.3291007,0.15551071,-0.044506162,-0.047210246,-0.12155609,0.06205295,0.14432979,0.40273964,0.040984318,-0.21202523,0.37869224,0.18798694,-0.17569384,-0.01188118,-0.15701589,-0.106172875,-0.40977272,0.00032365695,0.03493759,0.057460457,-0.22091857,-0.22485188,-0.14402547,-0.13156801,0.15470496,0.14435312,-0.05399596,0.4003616,0.23214158,0.04118006,-0.3783958,0.48534063,0.0207116,0.07443099,0.20747519,-0.1840764,-0.31657803,-0.22887266,0.09197296,-0.1530265,-0.08500791,0.25578672,-0.23711282,0.31385386,-0.017738529,-0.022081487,-0.048637368,-0.32601273,0.02393847,-0.07288292,-0.234747,0.093699254,-0.006153159,0.076284714,0.26614588,0.047797814,-0.31922105,0.25936756,0.23084053,-0.07086589,-0.06409518,-0.11980543,0.48566708,-0.11504851,0.19713283,-0.039513208,0.2772649,-0.2253437,-0.115838505,0.14546669,0.12700525,0.2849862,0.22462189,0.37000948,0.08792107,-0.04567503,-0.07185772,-0.03588354,0.013802819,-0.28735003,-0.120490946,0.098157264,-0.14664721,0.19552097,-0.10535505,0.2550887,-0.20846102,0.045316115,0.415179,-0.002039548,-0.0015896372,-0.22005668,0.07800858,0.17275193,-0.4665448,0.05956488,-0.16101965,0.099865675,-0.06873331,-0.1914489,-0.336344,-0.066308305,0.0010772012,0.18421961,-0.07727551,-0.020612944,0.25520694,0.13560572,0.11009,0.06365797,0.33000052,-0.41188478,-0.19804496,-0.09002094,-0.37929213,0.17258285,-0.041148625,-0.36362746,0.31931406,0.11490332,0.32750976,0.011412963,-0.41359416,0.112732254,0.08855462,0.1605829,-0.39472187,0.14819503,-0.008002423,-0.05316616,0.28328758,0.010006867,-0.0028090924,0.31193298,-0.0781559,-0.48838067,-0.27398157,0.32316804,-0.013750613,0.11141596,0.06550878,0.28619537,-0.057708763,0.279567,0.6505463,-0.004528053,0.49683398,0.0795092,-0.12348206,0.70777243,0.2893385,0.047011953,0.13943891,0.03294138,0.05996837,0.15390001,0.081304066,-0.2556179,0.10102704,0.09031668,-0.058932923,0.09319296,0.73043114,-0.058889948,0.18194215,0.06884552,0.25826767,0.15464106,-0.17387103,0.0010290463,0.19676077,0.12404363,0.16544735,0.18254021,-0.30149138,-0.2347554,0.12742087,-0.0121597275,0.58422,0.063747555,0.12567328,0.048172913,-0.09824146,-0.27270222,0.7919422,0.07595671,0.10316861,0.30696195,-0.03501155,-0.409502,0.18695328,0.15425652,-0.088171735,-0.16287899,-0.13223055,0.2672783,0.3930361,0.034022562,0.19059426,0.17914739,-0.1593436,-0.18539804,-0.1633036,-0.069608405,-0.26896134,0.23937717,0.071352735,0.32210377,0.31264827,0.08544004,0.04121743,-0.1176108,0.21033418,-0.1771026,0.5861113,-0.13426106,-0.034532133,-0.06213785,0.18373744,-0.21476631,0.15049352,-0.20049912,-0.080810405,-0.15984464,0.162808,0.1569159,-0.24785416,-0.06643343,-0.24472782,-0.2635188,-0.048658416,0.10746063,0.44608343,0.27266186,0.26692334,0.01751656,0.006272245,0.07153013,-0.32321638,0.049894463,0.0018433928,-0.17346257,0.3576013,0.20430878,-0.08276409,-0.5291587,0.19194674,-0.15690005,0.21316658,0.13251676,-0.2693832,-0.019749343,-0.19773275,0.14319417,0.059916817,0.01474452,-0.05073915,0.1903519,0.21018755,-0.4824341,0.3234743,0.38300532,-0.014880288,0.2755469,-0.11378597,0.49260423,0.7232494,-0.033252195,-0.32120812,0.080241114,-0.035880364,-0.11897069,-0.06290079,-0.023068272,0.21913044,0.21431299,-0.025128223,0.0059982017,0.004281748,0.36139858,0.10021113,0.45332485,0.2641127,-0.07934446,-0.0012782589,0.32090977,0.044676684,0.08592975,-0.23202284,0.073808275,-0.072136216,-0.14003626,-0.084191896,-0.023519922,-0.24107854,-0.12830693,-0.10745908,0.42736787,-0.248425,-0.31810144,-0.039505288,-0.055227064,0.19733034,-0.20286828,-0.32993373,0.41278672,1.13248825e-05,-0.103390224,0.36927164,0.06587468,-0.35160816,0.0069183,-0.20221208,0.0011164397,0.39609906,0.35743275,0.21009418,-0.29722005,0.13034359,-0.32739973,0.2158069,-0.34591562,-0.086374216,-0.10250727,-0.37533414,-0.29431134,0.1402784,0.16903698,-0.03959892,-0.1888048,0.24723285,-0.38718334,-0.11044801,0.045592885,0.32261577,-0.05162587,0.3967724,0.08906972,0.006061487,-0.031820707,-0.32761362,0.2226272,0.1110735,-0.084166534,0.040312566,-0.53184843,0.14770095,-0.01952286,-0.22138378,0.27279955,0.09359577,-0.27965456,-0.47493815,0.10676056,-0.4624298,0.044312768,-0.13405277,-0.3750895,-0.20725471,-0.20532247,-0.031349123,-0.11804067,-0.09116745,-0.20173687,0.15562052,0.0180327,0.1529243,0.2271545,-0.0074651167,0.23085395,-0.29674423,0.37479404,0.16009244,0.035194717,0.70456105,-0.19030759,0.3693822,0.2618317,0.04365074,0.0009907335,-0.24712864,-0.08091461,-0.15580387,0.14896286,-0.15401003,0.19906008,0.11011665,-0.11273376,-0.30550903,-0.07357056,0.05847708,-0.066980526,-0.08734082,-0.37949413,0.15090527,-0.24733412,0.2330127,-0.36923838,-0.19971055,-0.00038629025,0.023595076,0.043977305,0.14035696,-0.039284974,0.37255573,-0.079043634,-0.11466267,0.23982143,0.32865623,-0.01712624,0.09013392,-0.7728435,0.32525557,0.34447646,0.25552687,-0.14566484,0.33778954
C2,-0.3171411,-0.22475678,0.030776255,0.17936948,-0.20923376,-0.21562298,0.2577568,0.16621563,-0.0010693669,0.042593017,0.2075127,-0.19028431,0.052332886,0.57256603,-0.24582139,0.09518794,0.12252837,0.26097655,0.05439364,-0.0039825067,-0.09302551,0.044536173,0.42945114,0.06033135,0.09541099,-0.14477487,-0.18318194,0.09355398,-0.51366365,-0.17058036,-0.19530049,0.19378093,-0.3021561,-0.462444,0.4668373,-0.06395314,-0.2162357,-0.12006305,-0.05017756,-0.1292589,0.17636424,-0.037419822,-0.07633631,0.14855823,-0.009757042,0.15416317,0.16870494,-0.0064515844,0.40424109,-0.09687711,-0.38366404,-0.22954309,0.2553016,0.24692038,0.058920078,-0.14979762,0.20554909,0.14897603,0.24481833,0.2899446,-0.023131065,-0.03545462,0.15552846,0.3609398,-0.13975468,-0.11056463,-0.014745941,-0.0602853,0.02251558,0.09655962,-0.09227554,0.6035986,-0.30393934,0.057820093,-0.28633186,-0.06444919,-0.68034387,0.10755997,-0.32172284,0.09327594,0.16028345,0.01905287,0.2397654,0.11864217,-0.27842858,-0.29472777,0.11605966,0.48708388,0.06908837,0.14584711,0.03513585,-0.4241402,0.026772216,0.30989245,-0.3257171,-0.10734845,-0.27957773,-0.06651829,-0.087773055,0.5226377,0.3207474,-0.01371184,0.18559507,0.18278491,-0.15347812,0.07732925,0.0005702302,0.18853283,-0.27199984,0.09397729,-0.07138411,-0.033567734,0.21003836,0.041716836,0.0871418,-0.13722524,-0.04373105,0.32228822,-0.020088054,-0.1998026,0.13214445,-0.013068758,-0.18224448,0.19131288,-0.12595585,-0.32290265,0.21629356,0.39176476,-0.17127737,-0.28929937,0.008103371,-0.23931246,0.055005163,0.30611628,-0.16010988,0.112382606,-0.52159524,-0.101683,0.028996453,-0.28640828,0.11293518,0.3164599,0.022008635,0.29244918,0.050990384,-0.33473462,0.086293645,-0.077963,-0.23413998,-0.559553,0.025320742,-0.057257563,-0.07548764,-0.1508893,0.03498847,-0.08674107,0.007133059,0.017352637,-0.04279542,0.06268755,0.041430138,0.13599186,-0.113278486,-0.20112556,0.4523342,0.06417918,0.40419152,-0.42047226,-0.20594455,-0.15187415,0.25444221,-0.401829,0.21864194,0.36350396,0.16174096,0.1396069,0.040585093,0.30813536,-0.07633174,0.087316096,-0.29316676,0.49769527,0.1095026,0.0685132,0.2032933,0.11670123,0.017911348,0.13719943,0.11874844,-0.23110281,-0.33110833,0.117633045,-0.13010746,-0.16219412,-0.108148046,0.06262506,0.4205236,-0.19926238,-0.032191664,-0.08859328,0.26787102,-0.37918106,-0.066376686,-0.17098099,0.0068564415,-0.16956921,0.3088051,0.20273802,0.3053548,-0.05609681,-0.06997072,-0.09390652,0.2803398,0.2576301,-0.04903076,-0.051583655,0.3591497,-0.18864444,0.04943687,0.42520922,-0.022120588,0.10282769,0.36631238,-0.02026803,-0.051719725,0.06510377,-0.12489318,-0.020666447,-0.375258,0.15665682,-0.114348546,-0.020678837,0.16608116,0.020624578,-0.3742987,0.43292516,0.15318033,0.5437324,0.24890488,-0.051272597,-0.07484684,-0.4196087,-0.13036694,0.06481191,0.1649875,0.18101281,0.09535911,0.046566088,0.24246347,-0.1884441,-0.1605573,0.19888484,0.30186373,0.013559811,0.11621076,0.24581727,0.068718754,-0.03335993,0.0817214,-0.14336441,0.20193727,0.15577787,-0.111556605,0.171327,-0.052875575,0.0502115,-0.015308622,0.21042538,0.1288985,-0.12441725,0.81779736,0.24874514,0.7304832,-0.238172,0.06885746,-0.05793888,-0.3111506,-0.4812209,0.42824277,-0.35935974,0.14849383,-0.20450321,0.11616182,-0.18681554,-0.2108481,-0.35212255,-0.15513977,0.45580357,0.0119721815,0.16993845,-0.29844972,-0.6825019,0.080617286,0.11987401,0.35560757,0.53600556,0.044480126,0.08675261,0.0029805899,0.4627135,0.06981382,-0.35230127,0.56580514,0.2947075,0.10119924,-0.059920564,-0.5233177,-0.11889965,-0.351595,-0.3216946,0.3374856,0.00892362,-0.39844716,0.3355946,-0.46276635,0.19303863,-0.15577576,0.24789512,0.12903857,-0.056354873,-0.100781776,-0.26265407,-0.43558055,0.23420207,0.18694021,-0.055253502,-0.5138874,0.38523233,0.018878832,0.035778243,0.20399758,0.4805077,0.32875144,0.109664835,0.038835388,-0.12302332,-0.21599406,-0.15541077,-0.34769824,0.11547616,0.09419063,-0.30948523,-0.15002578,-0.18352012,0.29909283,0.06527829,0.178125,-0.05933789,-0.4359033,0.07302763,-0.12267907,0.07039961,0.14258638,0.07189574,0.087745816,0.15154928,-0.4745726,-0.16335025,-0.0878038,-0.03235559,0.012670483,0.0023514852,-0.19872193,0.27196735,0.012441337,-0.15667611,0.14786443,0.029210772,0.29768983,0.15296586,0.11188547,0.12150191,0.041503288,-0.41925845,-0.08462484,0.23883322,0.24419457,-0.48201674,-0.15857634,-0.03853041,0.12621132,-0.32888725,0.24208799,0.10843885,0.46605396,0.28830358,-0.15607256,-0.17811354,0.124188825,0.33205682,-0.02404733,-0.3194156,-0.008678101,-0.40359452,0.400078,-0.028508492,0.14183283,0.070555255,-0.47433832,0.2433906,-0.29111174,0.16376764,-0.34932083,0.28486925,-0.025054134,-0.178249,-0.3017835,0.17171915,0.22424433,-0.24940702,0.19457775,0.005859807,-0.26150644,-0.30520865,-0.17000528,0.11111476,0.031801477,-0.031855837,0.0707056,-0.0047712997,-0.31276628,-0.11981763,-0.3342068,-0.31115183,0.04008982,0.13241005,-0.105660036,0.5326597,0.21864963,0.22267103,-0.1383436,0.040094666,0.1713599,0.2352952,-0.3164548,-0.18784657,0.27612513,-0.32427362,-0.21653047,-0.03194283,-0.36533585,-0.32095522,-0.38478023,-0.09658967,0.09562761,0.063252345,0.043921895,-0.27397126,0.24424088,0.17192638,-0.1732038,-0.25077868,0.14609167,-0.14101094,-0.33007774,-0.45003498,0.24335957,-0.10797847,-0.21888137,-0.1827988,0.029837765,-0.19439162,-0.47006223,-0.24898127,0.2043975,0.0648759,0.08301443,0.30353808,0.083524145,-0.13897303,-0.23364362,-0.17969272,-0.23400989,-0.15319207,0.18276551,-0.2064608,0.4458576,-0.26726544,0.37499034,0.18630044,0.075202584,0.10023303,0.26188144,0.01767473,0.7089259,-0.25049096,0.091321155,-0.29794067,-0.051972847,0.12917072,0.3188412,0.021142133,-0.48876625,-0.023911797,0.09394347,-0.16887231,0.30017757,0.21936414,0.055494495,0.124365635,0.24608865,0.099305294,-0.16279587,0.15927015,0.09900639,0.39483938,-0.15752047,0.032170005,-0.33327368,0.25142428,0.3281609,-0.15851218
C3,-0.13438195,-0.029607449,0.028985932,-0.109589905,-0.03543596,-0.4989131,0.29460117,0.16608599,-0.076335095,-0.4843153,0.09302851,0.123329915,0.056893885,-0.16207482,0.37711322,-0.29626653,0.1775361,0.48867723,0.30892763,-0.14430791,0.028471865,0.42017493,0.10214999,-0.5548042,0.16120398,0.02032021,-0.17659605,-0.012994118,0.45435503,0.24863896,0.2950912,0.27172756,-0.06666082,-0.3121196,0.41556132,-0.68294734,0.20092845,0.17331827,0.29151085,0.2512365,0.16317397,0.21319415,-0.22836229,-0.24717385,0.20124343,-0.10664848,-0.008168098,0.025641523,-0.007526636,0.21277654,0.100897886,0.12246145,0.48463917,0.010297798,-0.5308822,0.21852028,-0.15583155,0.09892115,0.006245561,0.32849467,0.01133962,0.03770917,-0.0017988645,0.10804604,0.1328383,0.031336002,0.21151328,-0.045665044,-0.6126241,0.057951264,0.041192424,0.10037125,0.25757957,-0.2517502,0.12183625,0.3179317,0.071023926,0.26725256,0.4538367,0.16824993,0.3378752,0.36584908,0.03067309,-0.25366786,0.42105728,0.11315971,0.14872843,0.076525375,-0.017995663,-0.48876473,0.31004253,-0.21521562,-0.12028294,-0.004872419,-0.15637243,0.70858854,-0.008387279,0.032889277,-0.48787835,0.20118982,-0.19105408,0.43880832,0.20773089,-0.2653781,-0.011041034,0.20019373,-0.058595352,0.08499107,0.072719604,0.23942271,-0.12261551,0.30198255,0.14381254,-0.015398565,-0.37107444,-0.21451852,0.1879228,-0.1368917,-0.0007728487,0.0054572523,0.19756421,0.033467844,-0.217175,0.1277191,-0.056048304,0.17886555,-0.24788564,0.09884771,0.0037865043,0.2846256,0.13978797,0.18923147,0.015967257,-0.22113511,-0.10268262,-0.12395009,0.07805127,0.14429016,-0.06260812,0.012586907,0.02092418,0.12753147,-0.07901568,0.36240375,-0.25951084,-0.28796482,0.30456063,0.38880664,0.09201626,0.06414399,-0.016177617,0.2975077,0.2867565,0.28542417,-0.33396798,0.027542029,0.40739167,0.010474239,0.5073121,0.3028341,-0.7178735,0.07509508,0.09465377,-0.28733835,0.23017144,0.32201618,0.1191781,-0.68411756,0.07671045,-0.2381989,-0.16186613,-0.17275307,0.38626555,0.16079909,0.073195346,-0.0015991852,0.11817507,0.35147628,-0.2305449,0.13060817,0.07751013,-0.19381669,-0.70847625,-0.49112368,0.040508028,-0.14701615,0.00011630356,0.23584831,0.039844126,-0.042664576,-0.114582784,-0.29338795,-0.24898873,0.07899296,-0.052348383,0.25439763,0.24457902,0.14151877,0.097080015,0.005102314,0.038844105,-0.46857557,0.41864055,0.19746596,-0.0041008666,-0.04313316,0.24068432,-0.2440106,-0.2848668,-0.23317873,0.17221656,-0.23553854,0.07876668,-0.3267609,0.08072204,0.061287332,-0.21804386,-0.3263152,0.2683705,0.5161202,-0.13979903,0.218595,0.089821674,-0.03816863,-0.3876271,0.18713531,-0.39425567,0.17304668,0.35691994,0.06901392,-0.36014915,0.3407058,-0.2510086,-0.1058777,-0.5689397,0.135795,0.33576682,0.0698243,0.17689976,-0.12147071,-0.19255331,0.10381829,0.0563889,0.038052633,-0.33810413,-0.23230448,0.42403126,0.40691707,-0.012224168,-0.3465383,-0.047657814,0.2772832,0.055256512,0.052202776,-0.059147812,0.49014366,-0.134776,0.07830642,-0.103588976,0.63264155,-0.36990553,0.22097759,0.093155295,-0.40231016,-0.33464226,-0.008732047,-0.08808807,-0.24283782,0.16111323,-0.5410547,0.29472935,0.027588524,0.14869557,-0.42479482,-0.33888143,0.45706946,0.10026521,-0.10983831,0.3060541,0.20574024,0.12582567,0.3246538,0.35657835,-0.3425578,-0.27655968,0.15223747,0.17308646,0.33522463,0.14264908,-0.22315243,0.20841748,0.037845664,-0.26770592,0.47451013,-0.09223681,0.08564924,-0.20541841,0.22507991,0.3655957,-0.14499295,0.017584085,-0.12792218,-0.16941461,-0.013761204,-0.18430984,-0.759214,-0.3047294,-0.49824074,0.03101883,0.07341604,0.17504872,0.13995126,-0.3887843,0.100005135,-0.3847974,0.10913682,0.5759634,0.27014327,-0.043677792,-0.26671818,0.09585092,-0.49096632,0.058585204,0.042387307,-0.022649642,-0.4489784,-0.03381414,0.047768913,-0.1449901,-0.19685283,-0.51307106,0.063442364,0.47599202,-0.299739,-0.10288428,0.5051683,-0.16284868,0.1848472,-0.18802768,-0.357656,-0.15300816,-0.41931093,-0.004610218,0.14993575,-0.05045463,-0.32139164,-0.1515316,-0.089911886,0.15304863,0.028516784,0.33516958,0.47200593,0.22367853,-0.48362312,0.015990373,0.024778955,-0.3390194,-0.03246853,-0.014574267,-0.3393085,-0.12287892,0.3290156,-0.348695,0.16762011,-0.10109785,0.05336609,0.010932185,-0.012579851,-0.01498691,-0.011865165,0.08168255,0.54695636,0.17256197,-0.30323324,0.16511306,0.04870355,-0.03766278,0.2734384,-0.004376836,0.014082782,-0.038904175,0.05899954,-0.19657964,0.47476894,0.37250885,0.15074226,0.091611974,-0.0077088326,-0.11215109,-0.27869445,0.08186789,-0.3118823,0.2698117,0.33790785,-0.28279683,0.220474,-0.022995219,0.17993036,-0.8535023,-0.37922937,-0.5536512,-0.20471092,-0.66485065,-0.07756855,0.22098133,0.4722672,0.25612098,0.25349805,-0.055717956,-0.11073318,-0.19002742,0.1404407,-0.20110855,-0.21042582,0.3788077,0.52333975,0.278788,-0.15848345,0.21253133,-0.5107691,0.17454894,-0.08090478,-0.10724092,-0.43948472,-0.012547802,-0.15055925,-0.21096186,0.16294119,-0.3778721,0.6984643,0.11239301,0.38088393,-0.17700467,0.25883973,-0.24292207,-0.12840943,0.022327833,-0.26166266,-0.08546772,-0.046834104,-0.15986452,-0.091815256,0.05676037,-0.53928083,0.11602055,-0.0044542924,-0.07418712,0.08170639,0.110428974,0.15631998,-0.26635718,-0.15007709,-0.098201305,0.05992022,0.37110206,-0.15926208,0.3489838,-0.06409164,-0.040453847,-0.4173014,0.46970564,0.038949534,0.10092407,0.4177668,0.53303975,0.07739647,0.33829805,0.20631847,-0.46928677,-0.060379304,0.20920053,0.310454,-0.33710754,0.055692375,0.58723384,-0.3759073,0.36046287,0.104055166,0.07062429,-0.30011076,0.33029872,-0.17327476,0.30728027,-0.17053634,0.18914174,-0.015500054,-0.32696605,0.044289112,-0.4364452,0.40035105,0.021405723,0.03462861,-0.0358982,0.303427,-0.1145286,0.035974327,-0.4402838,-0.50743824,0.029913776,0.29890785,0.37046617,0.0010559037,-0.03515272,-0.22831333,0.5496815,0.005309224,-0.07782795,-0.2638115,0.043800928,0.18590948,0.12460093,-0.05340748
C4,-0.17840385,0.22099245,-0.10020947,-0.0029970817,-0.65244806,0.12867437,0.3221642,0.030769896,0.12728745,0.18674313,0.3121737,0.028021269,0.21047843,-0.3320976,-0.11949119,-0.3018928,0.08023968,-0.40902352,-0.29044825,-0.34789217,-0.022603769,-0.34974965,0.14340717,-0.067018256,0.28075445,0.21413371,0.32969087,0.24431837,-0.099241935,0.13895959,0.05579631,-0.09705333,-0.33908045,-0.44674826,0.40026724,0.2213437,-0.17218986,-0.6797021,-0.2765378,0.2399706,-0.20106569,-0.41341433,-0.3071939,-0.12668185,0.2947037,0.48623952,-0.02693452,-0.15091765,-0.58730704,0.22231412,0.06530769,0.14521758,0.21717545,-0.15148973,0.34317493,0.032718025,-0.042120956,0.08773655,-0.10439145,0.18366368,0.08711676,0.18744233,-0.16013816,0.109929875,0.19654027,-0.21566522,0.3106172,0.19095294,-0.1745815,-0.1376889,0.19898881,0.21729758,-0.09744877,0.098029405,-0.41216618,-0.20701116,-0.09866527,0.19645745,0.014887907,0.7269959,0.06189014,-0.10492016,-0.14468414,-0.025204726,-0.05575376,0.30665296,0.3328171,0.18502039,-0.3858811,0.090391904,-0.3350661,0.043250397,0.22581217,-0.101527534,-0.26779357,-0.11540154,0.492702,0.072009586,-0.01432284,0.21069995,-0.42145285,0.011906542,0.063898906,0.06023261,-0.23416528,0.4339594,0.032301314,0.18900579,0.18118536,-0.11957306,-0.17110741,0.32007295,0.18811281,-0.32153416,0.2582466,-0.12293347,0.12657787,-0.21620381,0.27627808,-0.040830523,-0.36054695,-0.42065996,-0.2495651,0.33316758,-0.20936164,-0.091831565,0.23247074,-0.3038664,0.13974869,-0.37049368,0.07206403,0.12088141,0.26834244,0.08732168,-0.36704224,0.35324058,0.17133793,0.43556455,-0.035839807,-0.1917499,0.24208903,-0.07797504,-0.28345567,-0.021374658,0.0025411136,-0.055254728,0.14464068,-0.009912886,0.044935815,0.2213243,0.026470039,-0.31770736,-0.040825196,0.3141449,-0.034465834,0.31753892,-0.37679762,0.12702075,0.44028226,-0.038454197,-0.5670967,-0.031116657,0.11729537,0.48792,-0.3358222,0.044577032,0.018184803,0.20755565,-0.29389513,0.20330581,-0.2630458,-0.4157656,0.24910477,0.08405045,-0.33492047,0.13987753,-0.21251631,-0.06717559,-0.0020459741,-0.047527827,-0.18438858,-0.31844896,0.219275,-0.28929976,0.29099357,-0.45334208,0.38841206,0.09356386,0.14700955,-0.29862475,-0.58268243,0.11628552,0.18170328,-0.10825662,-0.1342066,-0.05692026,-0.2803313,0.26270366,0.10730192,0.55846447,0.19398074,-0.17906636,-0.107062064,0.611748,-0.0636558,-0.32192725,0.5851082,-0.2092632,0.37199268,-0.69039416,0.2237052,-0.14948107,0.03502225,0.488221,-0.20126101,0.57564545,0.6717773,-0.31888723,-0.2840344,0.34938103,-0.058694184,0.008845355,0.22611275,0.29795587,0.23503196,-0.17003483,0.51226735,0.0309667,-0.014296107,-0.11463336,-0.13985232,0.13542913,-0.037749343,-0.25662696,0.46403968,0.26328552,-0.011690885,0.72035146,-0.18063691,0.24173602,0.18669471,0.19273724,-0.28403592,0.28509274,0.010251936,0.5434653,-0.27246186,-0.21578473,0.39768922,0.26216522,-0.6849454,0.17460191,-0.122116104,0.14815228,-0.15721554,0.22264436,0.105980836,0.5185368,0.11591402,-0.041495975,-0.2874872,0.27997077,0.7322246,-0.17775013,0.038382504,-0.20730457,-0.35131922,0.2640833,-0.37796012,-0.49490064,-0.025428116,-0.7284566,0.33777907,-0.08884091,0.008681163,-0.4286473,0.300605,0.061895102,-0.36991677,0.521778,0.21085623,-0.21506819,0.071126476,-0.19310986,-0.099838376,-0.2493138,0.08074412,0.06727089,-0.084202416,-0.4852656,-0.0484976,-0.158445,0.19523169,-0.120390736,-0.03157249,-0.18501097,-0.39154133,-0.18250586,-0.63543135,-0.100667395,-0.3213297,-0.3320579,-0.20476544,0.13751563,0.36622456,0.039987706,-0.15276437,0.43363777,-0.11193496,0.00029727072,0.5025793,0.15179074,0.1937226,0.027405523,-0.39097172,0.17718288,0.22080848,0.050761264,-0.08507336,0.08693089,-0.5662809,0.54259676,-0.07035349,-0.26522207,-0.11663109,-0.065483056,-0.17229804,0.2905988,0.13223188,-0.15202576,0.2957319,-0.029386204,-0.22817351,0.040170364,-0.19050963,0.2233674,0.16241825,-0.07296599,-0.43322426,-0.08187227,-0.07025209,-0.21795452,0.03934668,0.15635286,0.3463407,-0.4171371,-0.14065,-0.16538808,-0.3092281,0.19810331,-0.22786345,-0.027355451,0.49705034,0.46158454,-0.17240122,-0.2536432,-0.2086389,-0.10997603,0.018699147,0.5088899,0.108015954,-0.21538383,0.0076373518,-0.09337033,0.12845863,0.7004169,0.048926726,-0.23144856,0.20805657,0.1144948,-0.13387088,0.24859557,0.36753023,-0.1066684,0.20569295,0.39057243,-0.4963379,0.009347506,-0.1505504,-0.4580446,0.7062702,-0.31114587,-0.19188896,-0.08139175,0.08977846,-0.028160222,-0.3677796,0.12618424,0.16935977,-0.039257564,0.16845217,-0.27298808,0.5562208,0.08074783,0.4391703,-0.18141502,-0.5743765,-0.4793747,-0.25821644,-0.29095152,0.40302932,0.023697898,-0.08153339,0.3066231,-0.053146146,-0.14950618,-0.37416428,0.17563954,0.14961731,0.04338204,0.29305485,-0.5710009,-0.03253965,0.0019965172,0.012864843,0.114730164,-0.17613825,-0.014330998,-0.088657774,-0.19471964,-0.4194373,-0.18515259,-0.405745,-0.30590415,-0.3967247,0.052231662,-0.19212748,-0.11619925,0.39288473,-0.30696464,0.32264736,-0.07302178,0.07985559,-0.14042851,-0.005108319,0.10598805,0.27609316,-0.42359132,-0.12662536,-0.23123783,-0.37753153,-0.20469773,-0.1451473,-0.33185303,0.08072009,0.3132702,0.037918545,0.031718,0.12132776,0.021248952,-0.008902498,-0.24953273,0.014350161,-0.5966031,0.024499774,-0.5757714,-0.0781729,-0.10560249,-0.17760083,0.40289602,-0.26080933,-0.046797566,-0.09904733,0.3370499,0.57820505,-0.18854335,0.29360572,0.15363565,-0.31192565,-0.0925558,-0.058984138,0.22858205,-0.17471805,-0.36694035,0.23596969,0.17088243,0.0022731647,-0.06741028,0.07141416,-0.4087274,-0.20254798,0.15787092,0.47019124,-0.18827058,-0.34766316,-0.2978092,-0.5140696,0.35815364,-0.20928887,-0.42195562,0.16852668,0.16486004,0.23298101,0.20404142,-0.12483732,-0.13155712,0.19037381,-0.2848125,0.30973554,-0.011837758,0.5158499,0.43810198,0.1931315,0.17443207,0.33330357,0.27022436,-0.17940655,0.25953177,0.5621755,0.08691287,-0.3534542,-0.3355555
C5,0.095921524,0.02331568,0.07759004,0.5765531,-0.40871638,-0.39411205,-0.42326656,-0.22268385,-0.34097707,0.20521972,0.18300858,0.010303434,0.022485718,-0.0898957,0.003584884,-0.5759671,-0.046403635,0.049689658,0.064838625,-0.16406752,-0.0458984,0.10132959,-0.5131826,-0.0523478,0.07974635,-0.15599716,0.1290515,0.04931142,0.11927942,0.09704289,0.29086554,0.082334265,-0.039460033,-0.06833215,0.1528182,0.15416312,-0.12492264,0.0603711,-0.093945235,0.25397456,-0.22509086,-0.19448361,-0.32733014,0.27560404,-0.011619657,0.06233412,-0.37765634,0.09959291,-0.22663517,0.40741724,-0.10679581,0.028623369,0.115722895,0.21863553,0.072315216,-0.54115206,0.031596318,0.07936753,0.1501615,-0.0024888925,-0.1606284,-0.15873866,0.18577605,0.17827705,-0.32561135,-0.04835566,-0.40875825,0.029008284,-0.04547041,-0.22802866,0.18179555,0.18321712,0.09085527,0.15220219,0.13228723,0.16227965,0.045172818,0.13302529,-0.1420321,0.16266663,-0.20936996,0.28637713,0.31142038,0.27116808,-0.05831068,0.2932936,0.053195976,0.23534635,-0.08280309,-0.18092555,-0.06586208,0.29666767,-0.16637291,-0.30970362,-0.11826267,0.23486093,0.14234112,-0.24177492,-0.2451134,-0.2388716,0.026639748,0.0001944825,0.071473666,0.18512625,0.11640685,0.36859664,-0.12121085,-0.11685236,-0.29467553,-0.124123946,-0.010665162,0.0151983835,-0.15782785,-0.36076558,-0.09744942,-0.011412961,0.05763168,-0.07604843,0.0067564696,-0.54280627,0.41702902,-0.2960516,0.13205947,0.0898231,-0.22158657,0.05176505,-0.34677228,-0.30842397,0.3010056,0.3078871,-0.14119086,-0.3601498,0.16453269,0.008993082,0.08368224,0.14000276,-0.15214601,0.2858611,-0.12182732,-0.20407975,0.0031307302,-0.2628171,-0.039711155,0.16758063,0.0777386,0.11093536,0.07540261,-0.044082142,-0.15737464,-0.25164044,0.0212872,-0.29669636,0.26339096,-0.07159955,-0.24069723,0.04586365,-0.36320674,0.16949737,0.45387065,0.07021274,-0.046256427,-0.24025872,0.17328992,0.07103575,-0.18203484,0.49291766,0.051496472,-0.22403091,-0.06014163,-0.095133424,0.0025086552,0.047370143,0.21677208,-0.18540561,-0.06028969,0.15746945,0.183427,0.44441414,0.02348639,0.42906353,-0.40236557,-0.29308844,-0.045725517,0.04509076,0.11147989,0.0329886,0.17398173,-0.21278194,-0.05569818,-0.045016147,0.21209815,-0.13649467,-0.4222406,-0.112868235,0.17707765,0.12854052,-0.12229802,0.1777398,0.043496456,0.6485152,-0.18513496,-0.09624634,0.37671068,0.4306378,-0.12735856,0.07365154,-0.37928277,0.028606683,0.02074664,-0.3499457,-0.15306753,0.48426864,-0.12066848,0.13816017,-0.12338067,-0.10607203,0.03302107,-0.5489272,-0.024156563,0.1561335,-0.05431526,0.07838295,-0.26584017,-0.0003151521,0.31909904,-0.10648606,-0.04348249,-0.09000337,-0.17228718,-0.064302005,0.6131575,-0.05687685,0.32417628,-0.32549247,-0.07741858,-0.22574335,-0.17212847,0.06282953,0.014020253,0.0661931,0.19202387,0.010718396,-0.13637464,0.18940501,0.18769976,-0.053722493,0.109117985,0.39198914,-0.082019575,-0.08229476,0.23487827,-0.0654564,-0.2877447,-0.2262111,0.5943169,0.28726166,0.10468473,0.14468977,0.31996575,-0.30444562,0.124504805,0.1737891,0.1751954,0.0123501085,0.29921293,-0.34461844,-0.3607278,0.12217755,-0.21060434,-0.35985637,-0.25306022,0.45621026,0.28326383,-0.4387274,-0.24964763,-0.13128376,0.296695,-0.05501101,0.10444262,0.32443914,0.23558736,0.1603443,0.26819447,-0.20554402,-0.35339665,0.022751562,0.041659858,-0.51071507,-0.024616733,0.056151174,-0.12149958,-0.24661171,-0.15857928,0.30037957,-0.06307801,-0.38792515,-0.10752279,0.039413456,-0.2742415,0.44426706,-0.00051397085,-0.12999766,-0.23431256,0.20526057,0.3028561,-0.21341479,-0.26144686,0.07773286,-0.37218153,-0.09416542,-0.15787657,0.18646649,-0.077853255,-0.009521559,0.40008867,0.09794688,-0.0833319,-0.06011069,0.28209662,-0.20962417,-0.123155855,-0.67438984,-0.25702676,-0.23162064,-0.0219829,-0.14218317,0.11846621,0.8046736,0.3579013,0.054337334,-0.29741874,-0.5766338,-0.18596855,-0.10356538,-0.0923554,-0.27470502,0.32595626,0.2816981,-0.06010632,-0.3927771,0.23353092,0.13111901,0.27537972,0.288589,-0.10553526,-0.21103546,-0.43632805,-0.12507078,-0.37255985,-0.18348894,-0.2591228,0.1811059,0.47128674,0.37436455,-0.35949403,0.31072092,0.09656336,0.022933345,-0.49334377,-0.15507144,0.19022638,-0.12553784,0.25193742,-0.2969324,-0.31632268,-0.11064712,0.032641403,-0.006175928,-0.24484918,0.111738816,0.29769677,-0.10517419,0.21491933,-0.13062565,-0.11468314,0.18491244,0.18806794,0.028974503,-0.31309393,0.052209802,-0.2935114,-0.13723728,0.073340505,0.098152116,0.05707088,-0.42196772,0.22278097,-0.11732538,-0.16793388,-0.26999974,0.10274913,0.13351701,-0.08108313,-0.35391015,-0.08201709,0.38372424,-0.08097959,-0.39742124,-0.30032277,-0.038620215,0.31605142,0.19499013,0.20588861,-0.23988593,0.16392413,0.25461075,-0.275252,0.001535614,0.21106225,-0.0056044087,0.60220516,-0.26905876,-0.02935707,0.134269,0.112812646,0.43046832,0.0353497,-0.039168775,0.20260805,0.072565176,-0.49074975,0.06718887,0.30627358,0.11508769,-0.0040343925,-0.0028558597,-0.6992658,0.12935112,-0.09255677,0.15808925,0.111819975,-0.023206409,0.37674063,-0.23240107,-0.13274181,-0.09156452,0.28375375,-0.009137138,0.2224189,-0.31652325,-0.09542101,0.12944727,0.046421714,-0.045081437,0.47876105,0.044584308,0.09158385,-0.08876878,0.2461816,0.012864482,0.1468935,-0.03873052,-0.05989804,-0.2500166,0.30896592,-0.08555291,0.18313886,0.19653317,-0.44987994,0.1013701,0.030883178,0.024982892,-0.315467,0.3847135,0.23739022,-0.3537119,-0.05893094,0.53817827,-0.13863675,0.025361579,-0.016332902,0.21397841,0.34681386,-0.22326443,0.43148187,-0.12173929,-0.08336867,-0.24362342,0.13923174,0.030088589,-0.25415024,0.27413946,0.13754013,-0.10751888,-0.432624,-0.4527842,-0.04574737,-0.13425717,-0.42582047,0.5504949,0.60012233,0.13522997,-0.20115101,0.17602098,-0.37249658,0.012544546,0.01877638,0.19660357,-0.063998386,-0.07131528,0.28503793,0.098027915,0.054925468,0.21186538,0.031516843,-0.14470226,-0.40175125,0.30914873,0.14385161,0.18332398,-0.20005049,-0.09876955
C6,-0.3266083,0.066273615,0.06799073,0.005766738,-0.07631577,0.3263576,-0.07891602,0.042954113,0.42832458,0.19043612,-0.2994151,0.001417879,-0.20843801,0.14258146,-0.528631,-0.53868246,-0.29440275,-0.17051351,0.21339744,-0.13403788,-0.026422437,-0.09920452,-0.28167552,0.37827992,-0.51638114,-0.23408395,0.05882457,0.42712498,-0.61255133,0.05371038,-0.608897,0.34085727,0.017173402,-0.35794932,-0.032839537,0.053083945,0.06424737,0.015724517,0.10039325,-0.03712119,0.08198743,-0.2059959,-0.34560415,0.13669907,-0.21569283,0.39039737,-0.23482253,0.08611561,0.36623687,0.085378975,-0.1775909,0.07295167,0.45902473,-0.17307869,0.18490256,0.023906805,0.16523793,-0.33961293,0.2838059,-0.2400011,0.050890066,0.06719172,0.34012038,0.07297161,0.058434136,0.060199194,-0.1582104,-0.04136491,-0.5165489,-0.19181871,-0.07355552,0.10333385,0.10952103,0.08975048,0.121290006,0.31645387,-0.31189924,0.018108785,-0.0492682,-0.06504315,-0.34364712,0.27438563,0.12999575,0.5183547,-0.013090439,-0.032460894,-0.1070796,-0.16185004,0.061683096,-0.052679017,0.12616473,-0.0729878,-0.06781472,0.058251135,0.03990215,0.28890184,-0.2204755,0.44032702,0.24728003,-0.04616471,0.15439335,-0.11784988,-0.1603967,-0.1505447,0.13137749,0.26574025,0.21839601,0.058863655,0.04702498,0.5122831,-0.3356427,-0.19350043,-0.28432825,0.3818659,0.017737463,-0.17620948,-0.036934428,0.21773416,-0.20602787,-0.10633457,0.22257632,0.10671192,-0.18075487,0.23367783,0.22444005,-0.5238004,0.45029378,0.23959732,0.077097386,0.19539258,-0.08510178,-0.29505575,0.052463636,0.11881937,0.06394985,0.10594362,0.035998195,0.31799412,0.18908739,-0.13795117,-0.19965178,0.06286006,-0.12863109,-0.058525167,0.07811274,-0.13273579,0.033296138,-0.1498405,0.1065192,0.30649546,-0.40260607,-0.10817505,0.24793598,0.5998533,-0.33096722,-0.14056683,-0.09214624,-0.024449788,-0.23762436,0.1050819,-0.18701798,-0.032051817,-0.1613513,0.12881717,0.17396185,-0.55338866,0.08588835,-0.3234005,-0.01025321,-0.2111769,0.16721562,-0.07802357,-0.18153366,-0.4358626,-0.61689216,0.23003396,0.17865637,-0.091710635,0.44427752,0.027832884,0.32956377,-0.07243175,0.22007659,-0.08256371,0.18888265,-0.24179927,0.36521053,-0.06371318,-0.42276055,-0.35222822,0.19070321,-0.06349533,-0.09233874,0.08322714,0.13991366,-0.0003422629,0.372395,0.024987735,-0.020259254,0.5592845,-0.28803188,0.2102277,0.688231,-0.0033808202,0.06982996,-0.36389655,-0.014421079,-0.29826367,-0.10863426,0.01675732,-0.034162138,-0.33170712,0.31608626,0.34553635,-0.08271028,0.06763726,0.29844597,-0.56703305,-0.24362752,-0.47725356,-0.15698805,0.45284408,-0.09794203,0.31170523,0.0062327757,0.06476306,0.08293863,0.080934055,0.17312948,0.10469132,-0.33271265,-0.35293436,0.0611455,-0.19501126,-0.66840386,0.37274718,0.4613218,0.37473774,0.42421332,0.5418721,-0.3959033,0.03986465,0.40445244,0.07713053,0.12954727,-0.3722562,-0.42379466,0.17549635,0.13945954,-0.12860923,-0.08396193,-0.08886295,-0.12789555,0.09965443,-0.08432488,0.20618302,-0.09972303,0.54921407,-0.18752936,-0.1492782,0.41073984,-0.37355235,0.079974756,-0.3623153,-0.22731566,0.13978323,0.18513544,0.21489519,-0.07488778,-0.26029015,0.7174866,0.11471429,0.6168348,-0.17162266,0.14179541,0.006109208,-0.20575441,-0.34596384,-0.11417776,0.2753974,0.5133921,-0.13669911,0.06523713,-0.28789932,-0.673782,0.4161811,0.19621176,-0.038408287,-0.28675574,-0.21624812,0.005730547,-0.13494274,0.081342354,0.04862908,-0.39659974,-0.018064894,0.20712632,-0.026087474,0.21380797,-0.11402991,0.2075246,-0.1669364,-0.07292016,0.45106587,0.0032256097,-0.36392218,-0.12314278,-0.10718962,0.07081515,-0.086378135,0.002859991,-0.17384613,0.3676682,0.64635384,0.100881144,-0.14489363,-0.3977279,0.21401918,0.26177108,-0.054239817,0.3699974,-0.32361978,-0.31222287,-0.059697106,-0.20846505,0.35285378,0.19968942,-0.31533277,0.17697029,0.30837798,0.023862086,0.07253274,-0.067456305,-0.027834624,0.17646754,0.07415327,0.3604183,-0.03729313,0.00992807,0.21534154,-0.03718487,-0.41479075,0.16021654,0.23146181,0.38052574,0.17859,0.027611025,-0.18501776,0.27792183,0.34988344,-0.09407845,-0.34926432,-0.22669795,0.15623811,0.08826217,-0.008614719,0.23674476,-0.27939266,-0.40393448,-0.03749615,-0.39249507,0.24803305,-0.06780781,-0.32806098,-0.6327176,-0.25834376,0.3132209,-0.08328176,0.1320453,0.09146838,-0.16885722,-0.40325606,0.09564091,-0.23611565,-0.1540778,0.4043625,0.29829827,0.005800739,-0.13202748,0.27064568,0.21647984,0.0058936626,-0.25769073,-0.08024362,0.41882324,-0.26178613,0.19039619,-0.10667213,0.00081363507,0.041316412,0.06943134,-0.3135483,-0.09571604,-0.2870304,0.044894252,0.36872938,-0.06620327,0.4040367,-0.0883212,0.29983014,-0.2559983,-0.2820602,-0.110624835,-0.23195788,-0.023461662,-0.2624625,-0.3608808,-0.090549275,0.599913,-0.016534034,-0.14423591,0.38037544,-0.087399475,-0.13102603,-0.09505187,-0.048352115,-0.009323053,-0.35597017,0.29310244,-0.14370924,-0.18104704,0.3312559,-0.029898532,0.1437635,0.043596152,-0.050971586,0.17037761,0.032041658,0.768354,0.43182907,0.44485766,0.2545797,0.17097488,-0.29615134,-0.18741938,-0.15225643,0.13763557,-0.06527764,0.26919937,0.39731485,0.23516577,-0.06313161,-0.24157944,-0.41728696,0.11816758,-0.0099908635,-0.015130915,0.0024398416,0.10847056,-0.26935244,0.27564108,0.2016797,-0.06279613,-0.3451845,-0.1219732,-0.19843702,0.19785947,-0.362864,0.14610827,-0.32847288,-0.112740904,-0.18206263,-0.25647384,-0.42407447,0.018206522,-0.26314664,0.14523312,-0.3523187,0.21993968,0.12843248,-0.19633025,-0.18628746,0.06215719,-0.027943358,0.119415686,-0.19175291,0.17446399,-0.09071401,0.1293926,-0.5315275,-0.3988781,-0.004167393,0.14842334,0.10520615,0.20606963,0.3529164,-0.09205024,-0.30898395,-0.2031638,0.2613389,0.689013,-0.31282556,-0.06479283,-0.07193474,-0.09846792,-0.07886928,-0.021812044,-0.025220998,0.15017834,0.34401003,0.14027098,-0.27323884,-0.0734208,0.004276309,-0.13356471,0.31345662,-0.012297399,0.069222376,-0.37793982,-0.14756742,-0.44086054,0.015250176
