GeneID,feature_1,feature_2,feature_3,feature_4,feature_5,feature_6,feature_7,feature_8,feature_9,feature_10,feature_11,feature_12,feature_13,feature_14,feature_15,feature_16,feature_17,feature_18,feature_19,feature_20,feature_21,feature_22,feature_23,feature_24,feature_25,feature_26,feature_27,feature_28,feature_29,feature_30,feature_31,feature_32,feature_33,feature_34,feature_35,feature_36,feature_37,feature_38,feature_39,feature_40,feature_41,feature_42,feature_43,feature_44,feature_45,feature_46,feature_47,feature_48,feature_49,feature_50,feature_51,feature_52,feature_53,feature_54,feature_55,feature_56,feature_57,feature_58,feature_59,feature_60,feature_61,feature_62,feature_63,feature_64,feature_65,feature_66,feature_67,feature_68,feature_69,feature_70,feature_71,feature_72,feature_73,feature_74,feature_75,feature_76,feature_77,feature_78,feature_79,feature_80,feature_81,feature_82,feature_83,feature_84,feature_85,feature_86,feature_87,feature_88,feature_89,feature_90,feature_91,feature_92,feature_93,feature_94,feature_95,feature_96,feature_97,feature_98,feature_99,feature_100,feature_101,feature_102,feature_103,feature_104,feature_105,feature_106,feature_107,feature_108,feature_109,feature_110,feature_111,feature_112,feature_113,feature_114,feature_115,feature_116,feature_117,feature_118,feature_119,feature_120,feature_121,feature_122,feature_123,feature_124,feature_125,feature_126,feature_127,feature_128,feature_129,feature_130,feature_131,feature_132,feature_133,feature_134,feature_135,feature_136,feature_137,feature_138,feature_139,feature_140,feature_141,feature_142,feature_143,feature_144,feature_145,feature_146,feature_147,feature_148,feature_149,feature_150,feature_151,feature_152,feature_153,feature_154,feature_155,feature_156,feature_157,feature_158,feature_159,feature_160,feature_161,feature_162,feature_163,feature_164,feature_165,feature_166,feature_167,feature_168,feature_169,feature_170,feature_171,feature_172,feature_173,feature_174,feature_175,feature_176,feature_177,feature_178,feature_179,feature_180,feature_181,feature_182,feature_183,feature_184,feature_185,feature_186,feature_187,feature_188,feature_189,feature_190,feature_191,feature_192,feature_193,feature_194,feature_195,feature_196,feature_197,feature_198,feature_199,feature_200,feature_201,feature_202,feature_203,feature_204,feature_205,feature_206,feature_207,feature_208,feature_209,feature_210,feature_211,feature_212,feature_213,feature_214,feature_215,feature_216,feature_217,feature_218,feature_219,feature_220,feature_221,feature_222,feature_223,feature_224,feature_225,feature_226,feature_227,feature_228,feature_229,feature_230,feature_231,feature_232,feature_233,feature_234,feature_235,feature_236,feature_237,feature_238,feature_239,feature_240,feature_241,feature_242,feature_243,feature_244,feature_245,feature_246,feature_247,feature_248,feature_249,feature_250,feature_251,feature_252,feature_253,feature_254,feature_255,feature_256,feature_257,feature_258,feature_259,feature_260,feature_261,feature_262,feature_263,feature_264,feature_265,feature_266,feature_267,feature_268,feature_269,feature_270,feature_271,feature_272,feature_273,feature_274,feature_275,feature_276,feature_277,feature_278,feature_279,feature_280,feature_281,feature_282,feature_283,feature_284,feature_285,feature_286,feature_287,feature_288,feature_289,feature_290,feature_291,feature_292,feature_293,feature_294,feature_295,feature_296,feature_297,feature_298,feature_299,feature_300,feature_301,feature_302,feature_303,feature_304,feature_305,feature_306,feature_307,feature_308,feature_309,feature_310,feature_311,feature_312,feature_313,feature_314,feature_315,feature_316,feature_317,feature_318,feature_319,feature_320,feature_321,feature_322,feature_323,feature_324,feature_325,feature_326,feature_327,feature_328,feature_329,feature_330,feature_331,feature_332,feature_333,feature_334,feature_335,feature_336,feature_337,feature_338,feature_339,feature_340,feature_341,feature_342,feature_343,feature_344,feature_345,feature_346,feature_347,feature_348,feature_349,feature_350,feature_351,feature_352,feature_353,feature_354,feature_355,feature_356,feature_357,feature_358,feature_359,feature_360,feature_361,feature_362,feature_363,feature_364,feature_365,feature_366,feature_367,feature_368,feature_369,feature_370,feature_371,feature_372,feature_373,feature_374,feature_375,feature_376,feature_377,feature_378,feature_379,feature_380,feature_381,feature_382,feature_383,feature_384,feature_385,feature_386,feature_387,feature_388,feature_389,feature_390,feature_391,feature_392,feature_393,feature_394,feature_395,feature_396,feature_397,feature_398,feature_399,feature_400,feature_401,feature_402,feature_403,feature_404,feature_405,feature_406,feature_407,feature_408,feature_409,feature_410,feature_411,feature_412,feature_413,feature_414,feature_415,feature_416,feature_417,feature_418,feature_419,feature_420,feature_421,feature_422,feature_423,feature_424,feature_425,feature_426,feature_427,feature_428,feature_429,feature_430,feature_431,feature_432,feature_433,feature_434,feature_435,feature_436,feature_437,feature_438,feature_439,feature_440,feature_441,feature_442,feature_443,feature_444,feature_445,feature_446,feature_447,feature_448,feature_449,feature_450,feature_451,feature_452,feature_453,feature_454,feature_455,feature_456,feature_457,feature_458,feature_459,feature_460,feature_461,feature_462,feature_463,feature_464,feature_465,feature_466,feature_467,feature_468,feature_469,feature_470,feature_471,feature_472,feature_473,feature_474,feature_475,feature_476,feature_477,feature_478,feature_479,feature_480,feature_481,feature_482,feature_483,feature_484,feature_485,feature_486,feature_487,feature_488,feature_489,feature_490,feature_491,feature_492,feature_493,feature_494,feature_495,feature_496,feature_497,feature_498,feature_499,feature_500,feature_501,feature_502,feature_503,feature_504,feature_505,feature_506,feature_507,feature_508,feature_509,feature_510,feature_511,feature_512
a,0.09876362,0.10857001,-0.85891795,0.024429396,-0.37369114,-0.24418567,-0.43532473,0.19228327,-0.48482355,-0.15221508,-0.09891984,0.16591236,0.042627882,0.15598625,0.2806394,-0.11462735,-0.39989975,-0.38456225,0.12676352,-0.20383331,-0.24602063,-0.11317493,-0.13391648,0.28023294,0.16055611,0.0020838864,-0.010336056,-0.008987114,-0.33477926,0.3055256,0.5753404,0.1858168,0.13571927,0.008442618,0.050455928,0.24565497,-0.19301675,-0.1619957,0.029150575,-0.14069739,-0.14540339,0.15426144,-0.44547203,0.16370901,0.2722816,-0.011499554,-0.20078753,-0.117681235,0.12623464,-0.014013767,-0.11087446,0.060133237,-0.20022258,0.27061647,0.078428045,-0.06889223,0.032661393,-0.04891438,0.21546799,0.5119738,0.07145935,0.38531354,-0.037209693,-0.24516818,0.11186625,-0.059268735,-0.13413274,-0.36841953,-0.51748335,-0.46747062,0.52433157,0.022159163,-0.03826988,0.057234637,0.14519255,-0.47859502,0.4811605,0.0028545335,-0.04739304,-0.24298681,0.08465612,-0.11001521,-0.23411694,0.11821381,-0.08718873,-0.11125885,0.59551746,-0.13043542,-0.21743989,-0.36419827,-0.006460283,-0.41946614,-0.34941497,0.3906786,-0.15152052,-0.1390486,0.22251087,0.43124884,0.23865584,0.05084846,-0.25232857,-0.1192085,0.43328398,-0.4074885,0.2796348,0.22010672,-0.10835643,0.14218928,0.3016126,0.08478044,0.10859875,0.463872,-0.4448761,0.06452819,0.062146123,-0.60798115,0.22900715,0.5494657,0.39965153,-0.24885136,-0.50967604,-0.23531362,0.053652212,0.28100732,-0.32725272,-0.10145768,0.18574071,-0.17571457,0.2500004,-0.18731035,0.06757371,-0.102455296,-0.76247996,-0.071861796,0.1516771,0.3568836,0.22254038,-0.06846571,0.26233572,-0.08613486,-0.3009229,0.2057833,0.38933927,0.4385147,-0.2786249,-0.25836715,0.12345341,0.3106505,0.50339574,-0.004536338,0.26923898,-0.33668867,-0.44453317,-0.0074468553,-0.3155408,0.025258586,-0.17487678,-0.040920876,0.5993857,-0.3192904,0.32004362,0.0069629475,-0.10639887,-0.4868386,0.13579789,0.15566479,-0.53904206,0.36408427,-0.27207267,-0.48491293,-0.318771,-0.31357408,0.23642203,0.1409933,-0.17783366,-0.3858742,-0.3102672,-0.07393995,-0.24673298,-0.3480057,-0.2564191,0.03377708,-0.3455614,0.4737448,0.24947017,-0.17523634,0.1183455,-0.040074497,-0.24879393,-0.03070134,0.16995867,0.2619852,-0.039876767,0.1706185,-0.058092855,-0.2892072,-0.31250286,-0.56389093,0.34413266,0.43291405,-0.70947385,0.025105571,0.6972291,-0.13203046,-0.024905168,-0.023060367,-0.123448774,0.32882583,-0.0802415,0.081048705,-0.048280507,0.09899293,-0.24125177,-0.097899474,-0.2541638,-0.31802276,0.31380418,0.39450255,-0.053755164,-0.3486688,-0.14106978,0.2940611,-0.10896792,-0.40432465,-0.1529223,0.15794115,-0.06723332,0.041694097,0.24202448,-0.06659376,0.2518035,0.23502725,0.056520566,-0.25066474,0.128528,0.18774107,0.45443118,-0.013677157,0.55673045,-0.52890354,0.22635117,0.091380104,0.015663303,0.17762308,-0.046875462,-0.14200011,-0.007598969,-0.14408952,-0.45498192,-0.06644909,-0.09522282,0.1618137,-0.11091372,-0.20272464,-0.24086866,-0.037673596,0.07005294,0.35139215,0.19353956,-0.32141468,-0.08868151,-0.25628376,-0.43996006,-0.44739762,-0.04212209,-0.05921247,-0.03431721,-0.2519019,-0.037527338,0.15046412,0.09953258,-0.27094406,0.2746197,-0.038581535,0.053248525,0.17103285,-0.16849592,0.14730504,-0.20738012,0.45938244,-0.18408906,-0.18704882,-0.06792595,0.47744885,-0.51867265,-0.05790917,0.12763454,0.10024285,-0.04768248,0.34491062,0.3489104,0.05732295,0.27427897,0.27275625,-0.2901174,0.29728755,0.0221484,0.4564692,-0.11944683,-0.23191191,-0.116605066,-0.17525229,0.20693156,0.03414742,0.18136525,-0.37828228,0.21306494,0.4416548,-0.04318473,-0.07699493,-0.04965121,-0.57681036,0.15673545,-0.08172896,0.2591282,-0.09699106,0.317674,-0.56564516,0.3168563,-0.3301159,-0.17879498,0.35953036,-0.34200585,-0.48175368,0.044365097,0.25566334,0.048104137,-0.086651586,-0.09811709,0.27607167,-0.1966491,0.2771856,-0.34074137,-0.10903567,-0.20881775,0.40045264,0.22613704,-0.26378348,0.23230538,-0.16331138,0.24141732,0.15135089,0.13541421,0.36472267,0.42556554,-0.25512558,0.2748465,-0.059966303,0.45714447,-0.17687279,0.20916955,0.26611713,0.017447062,-0.32953137,0.5354098,0.12715931,0.07655668,-0.33044115,0.4911013,0.27298972,-0.034638476,-0.31815806,-0.14963353,-0.13153732,-0.05213561,0.035977557,-0.4288163,-0.261514,0.29348767,0.287826,-0.016497292,-0.30279905,-0.02606266,-0.33390388,-0.089824036,-0.1655134,0.07512182,0.6605914,-0.7619202,0.29301175,-0.071523786,-0.2571522,-0.2633449,-0.19273858,0.24985203,0.28575656,0.19510372,0.10540748,-0.0572318,0.16128442,0.177769,0.38377348,-0.027982198,-0.090753056,0.21695027,-0.24080914,-0.033214226,-0.39625594,0.5625844,0.2447272,-0.053798273,-0.34807453,-0.03632144,0.5290426,-0.0115210675,-0.02161333,0.22443959,-0.026050545,-0.059615515,0.57699805,-0.13924864,-0.15700033,0.069332354,0.14360401,0.3226492,-0.31053674,0.39834207,0.12319447,-0.13085565,-0.14912803,-0.7425512,0.31828415,0.314368,0.28452095,-0.2762262,0.046887163,0.28232798,0.1190608,-0.14963505,0.19641256,-0.016410548,0.15393913,0.47364458,-0.35045388,-0.03075748,0.054522656,0.5108467,0.3369637,-0.5267076,-0.118417986,-0.065005615,-0.41420522,0.21767509,-0.0870403,0.109450564,0.25246513,0.06283009,0.20117128,0.43838468,0.06353918,-0.12265239,-0.108072795,0.33517793,0.3549589,0.316586,0.5003068,-0.03238119,-0.30801973,-0.16955858,-0.06788591,0.30137292,-0.15196101,0.18437064,0.24413359,-0.00033743307,-0.07933354,-0.7074635,-0.09401684,0.096282125,-0.0062547587,0.1703198,-0.34383887,-0.13043566,0.37126508,-0.5526962,0.6855871,0.5321378,0.5633601,0.21775106,0.106788166,0.065055296,-0.3694423,-0.45579228,-0.103088,0.058414854,0.0058487803,-0.37644356,-0.26620668,0.6949538,0.2916725,0.10852173,0.1758902,-0.054390803,0.4807738,-0.07769534,-0.00620972,-0.3170671,-0.05900891,0.3294442,-0.15002958,0.026563674,-0.09672148,-0.26237804,-0.2794034,-0.22570364,-0.50938475,-0.14063081,0.020183928,0.91788405,0.18806717,0.07021313,-0.02739165
b,-0.063769065,-0.021256525,-0.15669116,0.26367795,0.17375249,0.07091055,0.04309654,0.0883939,0.18092844,-0.008924127,0.003471069,-0.13822716,-0.43008152,0.4469155,0.06639116,0.005249262,-0.1915288,0.1081626,-0.2761501,0.011264186,-0.03568723,0.12415618,0.29112452,-0.22303063,0.14732566,-0.17473716,-0.10541732,0.08760518,0.30905768,-0.3215282,-0.072983064,-0.09850817,-0.42226163,0.30478522,-0.17735088,0.24437469,0.2705872,0.21651956,-0.010170914,0.3267193,0.28393412,-0.1895209,0.19312438,-0.35409257,0.07778608,0.029070958,-0.04546196,-0.031374753,-0.1839345,-0.20635271,-0.14626801,0.0739133,0.36025247,-0.24363518,-0.08270972,0.08289749,0.21812214,-0.21578185,-0.19659045,-0.1565019,0.37815052,-0.24670583,0.1270802,0.2933396,0.049342263,0.0009294376,-0.06750962,-0.008153707,-0.30280462,-0.092384286,-0.17751272,0.3985155,-0.16425122,0.10751243,-0.27929503,-0.088179745,0.14695662,-0.28041014,-0.118309565,0.36474293,-0.15731908,0.08754474,0.22014081,0.31825945,0.28213578,0.22019982,0.092369005,-0.21976312,0.43713474,-0.026624158,-0.31542292,-0.08060047,0.84113544,0.22176468,0.16616604,0.16205825,-0.1820265,0.0012606904,0.04361745,-0.25227186,0.24183443,-0.1485537,-0.54718745,0.38682705,0.025909014,-0.1657446,-0.035509948,0.0032506436,-0.36169726,-0.33410883,0.37188107,0.009844013,-0.24514978,0.32384878,-0.3342468,0.13359798,-0.14614987,-0.332688,0.13768725,0.5381961,0.21069229,-0.15436387,-0.24675745,-0.26145256,-0.25502005,-0.09906327,-0.15045434,-0.26792178,-0.06880862,0.20327504,0.21511914,-0.19969904,0.14370263,-0.1510399,-0.079836555,-0.30890793,-0.21396327,0.08846007,0.20290619,-0.22651899,-0.17848408,-0.2578543,-0.3926532,-0.30626628,0.06861475,-0.104209185,-0.3382896,-0.47114757,-0.17663838,-0.12059849,-0.12600663,0.11196589,0.33425364,0.03536243,0.16432333,0.120122716,-0.13029005,0.13135579,0.40725663,-0.20107041,0.316126,0.033165738,-0.1346996,-0.28427446,-0.038467877,-0.13025834,0.21115135,-0.4319386,0.1304374,-0.31053907,0.33728874,-0.14174725,-0.13921028,0.07701158,-0.2283875,-0.2687358,0.16864997,-0.512774,0.177562,-0.0037331097,0.035287317,0.3410257,0.14550331,0.0150312595,-0.014063641,0.11301725,0.13844731,0.36379308,-0.08392086,-0.027185608,0.22721437,0.19251454,-0.13712253,0.09615105,0.040942006,-0.08002696,-0.27398527,0.14854275,-0.0012985747,-0.17816707,-0.08738033,0.1597257,0.0682971,-0.004745394,-0.22812256,0.4417099,0.10946699,-0.55129236,-0.20179284,-0.17989263,-0.08073279,0.13716651,-0.12604678,0.41943762,-0.36181024,0.1311954,-0.004597917,0.29464883,-0.4692215,-0.21240288,-0.20119189,-0.40337485,0.118693605,-0.108252384,0.14900652,-0.13847026,-0.060902767,-0.3480867,0.17822027,0.1616796,0.3947268,0.168807,-0.09061766,-0.19979045,-0.0010710135,-0.16246653,0.07316255,-0.13387126,-0.31923681,-0.020883057,-0.19216037,0.064190865,0.038651545,0.06373327,0.45170534,0.035101354,-0.24005938,-0.25995353,0.19133796,0.14529131,-0.03659837,0.37381265,0.17266938,0.08763772,-0.0645523,-0.07907738,0.013506092,-0.18613505,-0.032712914,0.26584822,0.25367823,-0.108775556,-0.13413602,-0.013962064,-0.32081532,0.33305502,0.6085171,0.24812567,-0.13387665,-0.083514616,-0.104344316,0.18816788,-0.42995748,-0.119242966,-0.08729131,-0.010857107,-0.22703052,0.18323544,0.016707957,-0.14862682,-0.23513389,0.4124747,0.1524844,-0.11858517,0.013216816,-0.30812433,-0.08334249,0.07114176,-0.08598121,0.035763383,-0.08698277,0.4342066,-0.11847233,0.15500793,0.088368796,-0.07680176,-0.049507387,0.3351386,0.34204876,-0.18145092,0.018844787,0.48805925,-0.17118514,-0.22686663,-0.062055834,0.11378702,-0.18572994,-0.11396646,0.31189743,0.32542014,-0.36936498,0.30166787,0.28507403,-0.043280125,0.16183338,-0.16697578,0.30153403,0.13901882,0.057429314,0.074888416,-0.16370621,-0.18358412,0.32910118,0.4629743,0.105080925,0.08677742,-0.035956733,-0.12342338,0.3105114,-0.4275927,0.6427836,0.15636103,0.47673824,0.12661517,-0.037787743,0.08316678,0.2766003,0.39048612,0.16325125,0.13432534,0.12332534,0.16871038,0.16362754,-0.19339268,-0.26952338,-0.042788085,-0.28731734,-0.14558658,0.20370618,0.048476327,-0.29806992,0.56622124,-0.050333567,-0.20728973,-0.33542976,0.36137673,-0.3615867,0.1570467,-0.2222909,-0.015059143,-0.10574,-0.04254736,-0.054174874,-0.7798112,-0.050891813,-0.56798,0.52350837,-0.5001237,0.114150584,-0.34153014,0.11995144,0.4281033,-0.07274841,0.2091321,0.26620287,-0.10710706,-0.045195512,-0.06463255,0.07706201,0.4333523,-0.101137765,-0.035543367,-0.07226991,0.11027778,0.13727832,-0.08641817,0.3456449,-0.1742633,-0.16930187,0.030221663,-0.21826506,0.25454187,-0.07320583,-0.1413036,0.16021577,0.050856773,0.22209218,-0.28295267,-0.00424619,0.1974074,0.107236676,0.28565365,-0.2281763,-0.17126441,0.31461275,0.19117785,0.28730497,0.07854855,0.17548214,0.13918695,0.005515881,0.12360673,0.45842114,-0.11537491,-0.017001856,-0.24976324,0.24989536,-0.18975179,0.13366595,-0.09100498,0.010488637,0.13100766,0.22713327,0.12760882,-0.40614536,0.50045365,0.45366782,0.27088284,-0.102107726,0.1474841,0.13296686,-0.76427394,0.072502,0.023820713,-0.30620885,-0.07571259,-0.33658406,0.016467273,0.06775307,-0.20907974,0.26523647,0.16853479,0.15403703,0.14520359,0.26426205,0.0666621,0.3001437,0.5068126,0.15879026,-0.2815246,-0.3018852,0.20428762,0.10176055,0.08452718,0.013102492,0.09960156,-0.5632007,-0.18876077,-0.17204973,0.10928438,-0.09278416,-0.14910308,-0.5243843,-0.19483152,-0.11629536,0.40940505,0.25082082,-0.2171329,-0.02795365,0.09432469,-0.22203282,0.096605286,0.043532386,-0.16644394,0.30763194,0.4174517,0.1400505,0.19527093,-0.4779487,-0.30349013,0.25762612,0.1141805,-0.08810048,0.15382752,0.19646311,-0.020646706,0.017252035,0.39292115,-0.5238084,-0.53371644,0.0982941,-0.112662904,-0.1687427,-0.22762546,-0.23231632,0.29737082,0.08337261,-0.3095279,0.06707744,-0.18510696,0.3535319,0.21320575,0.009179983,-0.11680148,-0.3801322,0.3212299,0.2617138,-0.027467854,0.11717145,-0.1390565,-0.28579432,-0.25847346
c,-0.20272464,-0.29220802,0.27262327,-0.32946235,0.1359202,0.036482804,-0.32614774,-0.22687222,-0.4815122,-0.24441788,-0.35422257,0.12130308,0.14540257,-0.09241586,-0.039724387,0.3339442,0.20735562,-0.0061526373,-0.74241936,0.22576521,0.0989351,0.12108612,-0.11204909,0.18075001,-0.12261704,-0.20613146,-0.009992473,-0.19780946,0.1370523,-0.24437808,0.35130477,-0.094902515,0.32224068,0.41999432,-0.101696126,-0.039671175,0.35419425,-0.087069064,0.1734201,-0.18552896,-0.07373359,0.40389523,-0.013972883,-0.10176689,0.047881104,-0.16862059,0.1585732,-0.0376992,0.017787416,-0.3175456,0.112029836,0.21025884,0.27620792,-0.10714096,0.21357216,0.60306585,0.064235516,-0.46804285,0.03257519,-0.19910432,-0.25369114,-0.3269067,0.24704939,0.3235287,0.057797465,-0.06149722,-0.015921466,-0.028041512,-0.28404784,-0.113428555,-0.11807025,0.17306206,-0.44268388,0.22629434,-0.06487034,0.31655183,-0.07445671,0.09108998,-0.17698902,-0.035331212,0.044730723,-0.4719279,0.092734344,-0.47371733,-0.05378075,-0.3591433,-0.035226606,0.24515754,-0.16829056,0.17740706,0.36368322,0.10603058,0.09485671,-0.13800427,0.11015514,0.40252322,0.23595783,-0.41683596,0.24383593,-0.15819252,0.066500865,0.6655433,-0.67189246,-0.00090038404,0.3007198,0.51272494,-0.4770813,-0.052890696,0.389699,0.35861513,0.4857414,0.38309646,-0.40156925,0.45927608,-0.04929603,-0.102511,0.0875577,0.28445035,-0.45572335,-0.15482071,-0.30015066,-0.10762241,0.05508226,-0.05767198,-0.6203559,-0.045393813,0.18079147,-0.24151748,-0.00829193,0.19836865,0.51768404,0.25613764,-0.32274306,0.13457248,-0.2879576,0.22225739,0.13414279,-0.15716031,-0.03589092,-0.0023876205,0.2313152,-0.12993103,0.14519958,0.3195437,0.36765802,-0.17795071,-0.025947034,-0.07205052,0.18384609,0.30574232,0.067050986,-0.20965481,-0.16251618,-0.26228306,0.0908143,-0.095019825,-0.45839688,-0.074746214,-0.06471936,0.3816362,0.2078454,-0.08499399,-0.0040370114,-0.0310742,0.5789156,0.23722072,-0.19753194,0.0985133,0.16418743,-0.13964702,0.033037946,-0.4373148,0.058334917,0.049616184,0.04924518,0.3229809,0.21125513,0.42500302,0.33682323,0.048123084,0.011112906,0.30832607,-0.2376022,0.02911311,0.03818769,-0.03460271,-0.10394945,-0.2664011,0.2805864,0.34753785,0.34905887,0.47245625,0.20854391,0.41166887,-0.298808,-0.033285145,0.4063714,0.20664777,0.18238851,0.09827909,-0.035569116,0.43495482,-0.14055914,-0.0122194365,0.04761218,-0.13538693,0.11323293,0.12137014,0.14241362,0.06977702,0.12610602,-0.0291472,0.14562106,0.2470344,0.0720039,-0.13539383,-0.244051,0.5414633,-0.20058492,-0.48005673,-0.08025833,-0.3968377,0.015139442,-0.32243022,-0.08311825,0.002452191,-0.05757699,-0.025994468,0.07652497,-0.4089972,0.021816127,0.24445301,0.0055423677,-0.011355132,0.40405294,-0.532273,-0.016865358,0.23006266,-0.09820931,0.21841785,-0.14979406,-0.3281741,0.18667616,-0.14124604,-0.1207846,-0.22859383,-0.17006612,0.4582572,-0.115657195,-0.2018827,-0.12296057,0.09794093,-0.49009317,-0.044653118,-0.053636827,-0.34283116,0.16613615,0.2001797,0.35546198,0.23461688,-0.39992383,0.3609557,0.30035704,0.056059975,-0.15536198,0.14093319,-0.14889655,0.082628764,0.031301983,-0.43464515,0.0072513595,-0.050993294,0.34837425,-0.22286582,-0.010283545,0.002153322,-0.35747316,-0.049972568,0.29840344,-0.015768144,-0.1987499,0.23641357,-0.11597401,0.34424427,-0.17910129,0.19348854,-0.051942512,0.1524508,0.007781055,-0.24484733,0.13207527,-0.098790005,0.57266253,0.24456257,0.2729301,-0.21747497,-0.07885087,0.35456166,0.06208477,0.01382973,0.0935894,0.29101497,-0.26633018,-0.59515256,0.006909734,0.26525378,-0.009626526,-0.13895288,0.078662656,-0.24874413,-0.001080431,0.16755666,-0.22096655,-0.03649389,0.34012765,0.052495986,0.44889247,0.020755831,0.054600656,0.23978335,0.37724808,0.13006425,0.35699978,-0.49503216,0.0028590746,0.16547135,0.18775988,-0.18465617,-0.3907905,0.116968706,-0.15754882,0.047992993,-0.26273775,0.16517907,-0.024724595,0.10036167,-0.09685177,-0.25710496,0.45380256,-0.43782744,-0.47104087,0.22732577,0.27594018,-0.41105103,0.135528,-0.30533832,-0.033087973,0.24434334,0.12855947,-0.019489154,0.14320867,-0.20055857,0.021733988,0.07691601,-0.23163414,-0.07706418,-0.21092463,0.33515558,0.34509146,0.17801505,0.25138098,-0.22705784,-0.06505537,-0.48055294,-0.052059174,-0.17908189,0.07869461,-0.005682308,-0.097284935,0.15539879,0.12742895,0.16192508,0.27631497,-0.23842126,-0.08051289,-0.1962478,-0.23377979,-0.17331211,-0.39020962,0.017358184,0.43154714,-0.27073425,-0.1569033,0.51427025,0.37285006,0.031643808,-0.08313,-0.12981068,-0.4048675,0.023755431,0.13729542,0.6341577,0.02607122,-0.012405177,0.016059656,-0.18555266,-0.15884748,-0.14758769,0.110896006,-0.4235508,-0.02379961,0.25357506,0.20376563,0.08601462,0.010316651,-0.2193256,-0.30753246,-0.28787196,-0.20654191,0.28496242,-0.25070906,-0.015708847,0.2852728,0.046789248,-0.14568412,-0.20517652,-0.49886298,-0.35269067,0.26634285,-0.037476894,-0.34744018,0.10911482,0.24502468,-0.15675935,0.30965877,0.20273256,0.3909582,-0.17427522,0.18376252,-0.12942225,-0.5006061,-0.35089353,0.27548423,0.10015483,0.0783259,-0.4706521,0.04531442,-0.2264456,-0.032960795,0.18853962,-0.28631926,-0.16629824,0.23786503,0.048366573,-0.2811964,-0.28340125,-0.13759476,0.11602366,-0.30979955,0.33174327,-0.25029525,0.123912886,0.1639187,-0.043554477,0.11655359,-0.2689948,-0.20690514,-0.5652858,-0.036241353,-0.13109237,-0.28551513,0.052278243,0.026890155,-0.13977733,-0.014301531,0.27324662,-0.10330618,0.2066198,-0.23417763,-0.2198453,0.10971569,-0.46832156,0.13266452,-0.40027833,0.2759484,0.15543386,0.34537178,0.49133652,-0.28390068,-0.31194377,0.019095287,0.07339875,-0.2092586,-0.33663058,0.0031359084,0.05592893,-0.26003078,0.29217732,0.22435382,0.18069893,-0.034921065,0.37915832,-0.20459664,0.010236971,-0.47243866,0.863142,0.16355057,-0.16231444,0.61561763,0.03991599,-0.04720506,0.09060724,-0.15542468,0.5053373,-0.119437054,0.062064823,-0.11071991,0.21551892,-0.020631127,-0.20074359,-0.016150244,-0.41890734
d,-0.19298351,0.25210762,0.038270596,0.027632765,0.2520156,-0.29270893,0.30153537,-0.29662764,-0.04926213,-0.09695375,-0.1321681,0.06058514,0.12906717,0.03683813,0.23626938,-0.16148631,-0.03802051,-0.12028894,-0.21946278,-0.14363864,0.2534783,0.12739396,0.36317098,0.25844032,-0.2682469,-0.17090558,0.2193217,-0.24193779,-0.03359058,-0.40862072,-0.043464243,-0.1522135,0.36398804,-0.00104554,-0.24171302,0.18866739,0.13572252,-0.2786631,0.3684678,-0.13362578,0.11031915,-0.2647495,-0.036535818,-0.028176136,-0.005635664,-0.014996439,-0.28109238,0.13123941,0.14367013,-0.21961151,0.06852271,-0.09265991,0.022895806,0.15515432,-0.06131414,0.10790172,0.16548924,-0.06340123,0.19976926,0.1828716,0.292047,0.2607348,0.022093441,-0.008500591,-0.04441428,-0.24637371,0.037572622,-0.1163777,-0.25029927,0.20585623,0.23193525,0.29911,-0.33496654,-0.21943787,-0.07366911,-0.18110687,0.18035942,-0.44638222,0.0863251,-0.089142814,-0.15201932,0.09786709,0.116469,0.14129591,0.25890982,-0.027215647,-0.12898132,0.0338004,-0.24457204,0.5243235,-0.16112131,-0.15851761,0.32480225,0.16787523,0.03977721,-0.06348359,0.004473515,-0.29179865,-0.17448705,0.031293366,-0.041017704,-0.15887234,-0.45010543,-0.31500256,0.7168695,-0.038098074,0.02147546,-0.1321246,0.069500014,0.32090017,0.37842882,0.050984763,-0.4199284,0.7462001,0.4057829,-0.19353679,-0.15049922,0.010395236,0.0894838,0.3740342,-0.15554266,-0.18148693,-0.2653283,-0.0041780733,-0.41920447,0.35875255,0.5104801,0.023968413,-0.14070219,0.25872606,0.4078474,0.02873651,0.2207935,0.008589141,0.12695754,-0.0032912195,-0.09185948,-0.032003522,-0.3240279,0.16631204,-0.041410625,-0.42302936,0.3755032,-0.21477476,0.19204237,-0.21314988,-0.008332364,-0.30763078,0.42340192,0.51900285,0.44315547,0.70593995,0.46098888,-0.17568757,-0.0038082525,0.44095233,-0.05700729,0.17388603,0.2951532,0.1378224,0.0027484782,0.08867198,-0.25723812,-0.26727813,-0.2306554,0.20840982,-0.18480614,-0.12630552,-0.43178338,-0.25530484,0.28292698,-0.39545307,-0.1227814,0.42327088,0.02784127,-0.45974717,-0.025977504,0.15693468,0.35497412,0.10344272,-0.019680128,0.1558027,0.13195099,-0.18320058,0.072658405,0.06520581,-0.16851977,0.34080175,0.23718753,0.27035138,0.15623845,0.18195644,0.25081378,0.50718665,-0.1769815,-0.23420504,-0.3194673,0.07687064,-0.31290498,-0.35130715,-0.45184243,0.20568436,0.23071718,-0.02511147,0.43316668,0.017795105,-0.31726208,-0.54916084,-0.43554923,0.034961186,-0.27520776,-0.27515006,0.20994142,-0.20390782,-0.019375488,-0.024776954,0.06580361,0.40623707,-0.07740553,-0.09166776,-0.29067275,-0.11079297,0.3907734,-0.38931373,0.19315097,0.081650965,0.24949399,-0.526639,0.03572296,0.08716573,-0.19167522,0.34280288,-0.043477,-0.3490027,-0.09743158,-0.38720924,0.0716446,-0.34090286,-0.21904814,0.15293312,-0.24565259,0.13177796,-0.008280478,-0.3841824,0.32355306,0.08094712,-0.3903994,-0.032207333,-0.12811625,0.26708782,-0.15086377,0.23427692,0.23151055,0.26201832,-0.28459942,-0.25614694,0.053490184,-0.30146158,-0.24083608,0.23224181,-0.355043,-0.53788733,0.28736392,0.02313913,-0.1432408,0.11528157,0.44603702,0.2885774,0.09745463,0.23379195,0.04254031,0.14686628,0.3018872,-0.21225764,0.35317546,0.17667991,-0.042770036,-0.03281991,-0.0007623732,-0.1624953,-0.16339248,-0.15437306,-0.11556339,-0.07032579,-0.2725368,0.18290733,0.18085937,0.13197643,-0.14091274,-0.26392442,0.4094092,-0.39545316,0.13321853,0.0658547,-0.069404386,0.04247454,0.25777054,0.4512683,0.030445885,0.21652918,0.39469448,0.0028265305,0.3159822,0.02135561,0.5774454,-0.06566522,-0.02220286,-0.20319931,0.15986013,0.20222163,0.16297176,0.43566737,-0.025387472,0.2801924,0.114699125,0.505489,0.361409,-0.21565875,0.5890075,0.51059926,0.16633755,0.02086106,-0.31116578,-0.17942512,-0.28879887,-0.11058513,-0.12770581,-0.09730899,-0.48778477,-0.19015063,0.07226875,0.08725077,0.12338776,-0.037930243,0.11375247,-0.04439132,0.42181808,-0.44328114,0.37265936,0.15607826,-0.09690394,0.17739034,0.4249688,0.3311774,0.013856426,0.13159344,0.16710593,-0.16784194,0.39412093,0.12760001,0.18721025,-0.15858576,0.1585122,-0.0032012053,-0.2852596,-0.3833299,0.05319898,-0.26555228,-0.13255343,0.110618144,0.12610573,-0.2416766,0.10323637,0.017075442,-0.24477854,-0.1585355,-0.26161298,-0.42827326,-0.09539241,-0.107655786,0.60481477,-0.07203906,0.30789864,-0.21095249,-0.06855306,-0.27882132,-0.09808975,0.3796556,-0.26676857,-0.34820834,0.20297322,-0.4772553,0.18915647,0.19001044,0.2592881,0.1299161,0.02255347,-0.22019169,0.21765018,0.09544662,-0.03029976,-0.052724786,-0.37063706,0.13160065,0.42767107,0.25269896,0.16932881,-0.116170436,0.028781082,0.4332758,-0.20857862,-0.15380466,-0.013001941,-0.06841483,0.20034963,-0.09671811,0.13380432,-0.313372,-0.38077682,-0.058244035,-0.0831515,-0.31931013,0.21425211,-0.26590914,-0.042716675,-0.19491038,0.44826445,-0.04007606,-0.11026462,0.26556256,0.2060911,0.07150024,0.45986766,0.21737406,0.42354292,0.5366618,-0.056618437,0.060035124,0.25695378,-0.2147981,0.02688216,-0.042143703,-0.14114359,0.0767687,0.1598446,0.06397218,0.17415318,-0.26203823,-0.17938414,-0.078647695,0.0077087022,0.2551592,-0.002279684,0.38669357,0.28494617,0.06619178,0.29212695,0.100994825,-0.4130143,-0.17813712,-0.4492488,0.18223682,-0.2000462,0.07389835,-0.08040816,0.27843723,0.1568831,-0.26892695,-0.16730954,0.07198485,0.20600024,0.13714918,0.0963666,0.056058936,0.1324062,0.37374404,-0.3912062,0.09277363,0.340253,0.14601845,-0.5407443,-0.18572491,-0.30040947,0.16235986,0.011513192,0.15491733,-0.091837145,0.17037264,-0.34503976,-0.3850553,0.11700309,-0.29923502,0.064704105,0.07619763,0.11581396,0.039633095,-0.077643365,-0.078525834,-0.008732673,-0.29852566,0.018667087,-0.43324223,-0.47539818,0.19143853,-0.10829609,0.30486825,-0.7366981,-0.25696248,0.35065573,0.17216207,0.2107223,0.06356643,-0.18433969,-0.032001838,-0.12034081,-0.030253988,-0.04656706,-0.050640065,0.38913462,0.16077885,-0.14024869,0.13454765
e,-0.4437715,-0.16150373,-0.09444323,0.14469314,0.6427799,0.07034203,0.27021322,0.16512255,0.33532754,-0.028063029,0.31483272,-0.08562704,-0.05921545,-0.08920801,-0.06512561,0.17802097,0.17098787,-0.06393665,0.12154539,-0.27302504,0.11208384,0.11045943,0.27651697,-0.079007156,-0.08515233,-0.5180697,0.44541463,0.420492,0.2811809,-0.5703108,-0.40367317,-0.14292645,-0.20694539,0.062949196,-0.06963893,-0.08991312,-0.022511326,0.04423309,0.324407,0.34116867,0.09142204,-0.21541977,0.007487932,-0.3948048,0.05867192,-0.21674389,0.2524213,-0.06284429,-0.15959924,-0.034227703,0.07935919,0.009967297,0.2493357,-0.13339585,-0.4801842,-0.13060129,0.18644802,0.05001632,0.26730347,-0.17957567,0.29672867,-0.16795811,0.0143307615,0.09981677,-0.16633233,0.28526723,-0.0016625347,0.34160805,-0.036213588,0.20780164,-0.44477856,0.025346696,-0.10203313,-0.06749589,-0.13686569,0.19145927,0.35320273,0.041511744,-0.15855175,0.3476101,-0.02748201,-0.1331607,-0.52582866,0.25317305,0.11659773,-0.08058008,0.2755648,-0.19272192,0.18372342,-0.069514364,-0.3078083,-0.14815105,-0.1403175,0.21687171,-0.2917315,0.40828353,0.18412706,-0.14758644,-0.22124502,-0.063808165,0.2116169,-0.07978641,-0.29742754,-0.046102457,0.39725935,0.15907127,-0.23965001,0.25136638,-0.34267655,-0.045190133,0.23999536,-0.1553069,-0.13607618,0.13384044,-0.020891204,-0.059048086,0.4246792,-0.1361799,0.113328055,-0.11034204,-0.08001588,-0.3093978,-0.48387757,-0.103886016,0.061896622,-0.26177868,-0.05565633,-0.32320538,-0.17311728,0.025031999,0.4857899,-0.2495566,-0.18324204,0.024548076,-0.10213917,-0.16452262,-0.52665216,-0.120786086,-0.033560023,-0.11322992,0.22166362,0.03329287,-0.49990916,-0.04549887,-0.024595466,-0.40636432,-0.08815276,0.03866,0.23423846,0.15860482,0.04946346,-0.027340861,0.013688799,-0.10401889,0.15005293,0.15987939,-0.15034574,-0.19345158,0.10117197,0.013127826,-0.10819544,-0.041576512,0.30631563,-0.066407226,0.013125636,-0.18811254,0.18055074,-0.10315117,0.17988941,-0.0065263584,0.02952582,-0.09976866,0.01289342,0.18291016,0.010441899,0.2155239,0.19082981,-0.32675835,-0.016582064,0.29516608,-0.0033786185,0.20663475,0.3118289,0.10751891,0.10196017,0.14009708,-0.03222873,0.14400187,-0.10794964,-0.2539748,0.28017217,-0.36580768,-0.036690198,0.12002541,-0.082157694,-0.034572616,-0.013782617,-0.020584822,-0.17664465,0.010680467,-0.25870302,0.0013377033,-0.18361953,0.06732305,0.6692015,0.22688802,0.1385977,0.06935017,0.07867854,0.15290785,0.23379062,-0.03783329,0.3362503,0.054148816,0.2688892,-0.07301674,-0.36438456,-0.03702022,-0.10312227,0.44855654,-0.079454586,0.012105275,0.21522433,-0.28557944,-0.3452942,0.08771293,0.33789048,0.029104052,0.30768213,-0.19556725,-0.20317295,0.09952602,0.020869061,-0.21589375,-0.27876955,-0.21612924,-0.048913065,0.034194093,-0.42807847,0.12017041,-0.3289724,0.024441324,-0.17617546,-0.23764126,-0.1963233,0.164018,-0.27838647,-0.16541559,0.3113653,0.28571045,-0.15587586,0.13753027,0.3832909,0.024807077,0.45135656,0.4792663,-0.079852246,0.035456818,0.37360847,0.1790869,0.07932816,-0.25472146,0.1560663,-0.23485377,0.1599129,0.06521621,-0.13049793,-0.019840822,-0.053588025,0.41822097,-0.14442894,0.19505009,-0.35756442,0.06826364,-0.118313506,-0.45793,-0.24436584,0.2977856,0.031732343,-0.2218856,-0.14440939,-0.27910435,-0.15073806,-0.10794994,0.2732008,0.08141999,0.16929233,-0.10908202,0.018246915,-0.15281051,-0.20895053,-0.08783064,0.05968791,-0.006235458,-0.08521744,0.2039123,0.13223,0.052171737,-0.042806502,-0.024836212,-0.10457944,-0.0062094275,0.085118026,0.082930565,-0.10818822,-0.050539285,-0.16121201,0.024386145,0.18308505,-0.31631306,-0.39759603,-0.1608172,-0.24646586,-0.5003883,0.045930646,-0.07465759,-0.006473707,0.08411893,-0.053353243,-0.12552822,0.18149132,-0.13363543,0.2546542,0.24258092,-0.3059644,0.13684995,0.23802152,0.025554342,-0.077873886,-0.05274644,-0.044936746,-0.09157167,0.14413035,-0.14174715,0.029402591,0.12481046,0.11385314,-0.0074855164,0.32307705,-0.15695812,0.13516662,0.00084564835,0.47611493,0.09571409,0.052583072,-0.12149824,-0.061429515,0.15434918,0.035060473,-0.30277872,0.3820231,-0.24105483,-0.16738892,-0.24001613,0.081941836,-0.09826589,0.1252135,0.044853732,0.2138496,-0.057722986,0.14170593,-0.008108767,0.073218375,-0.051524922,-0.20149383,-0.12743457,-0.1106185,-0.26667705,-0.082910396,0.00033194292,0.057485215,-0.05717428,0.13934797,0.23293865,-0.3453853,-0.14194684,0.19248873,0.043327197,-0.05880188,0.17755413,0.033690646,-0.086003326,0.030330038,0.25906634,0.11900819,0.004168229,-0.09010784,0.15530069,-0.023512933,-0.2946807,-0.10588472,0.23184386,-0.20840588,0.08468618,-0.050507464,0.14172068,0.30104822,-0.2857615,-0.19338098,0.41153747,0.11570405,0.029693648,0.028532539,0.0019198153,0.019266427,-0.28475773,0.030395351,-0.16680947,0.2540182,-0.015815996,-0.061250694,-0.024943205,-0.059829183,-0.07498558,-0.28857645,-0.44299164,0.24257591,0.040450845,-0.027831264,-0.13959879,0.07557095,0.103236414,0.36699533,-0.012188897,-0.07454782,-0.19525677,-0.41955835,0.18655068,-0.0859522,0.24250644,-0.2580678,0.2115219,0.01944618,0.091928825,-0.50167155,0.4322418,0.2910774,-0.007610444,0.083649494,0.45830896,-0.26338497,0.0388977,-0.08048591,0.075825036,-0.1806268,0.021129929,0.23799208,-0.18841803,0.24735266,-0.061628044,-0.085042216,0.09988833,-0.22123,-0.06976954,-0.27484334,0.1674793,0.17023037,-0.164067,-0.026120674,0.1720151,-0.31018266,-0.13019013,0.030935202,-0.21824053,-0.006255146,0.37415656,0.23635297,0.371794,0.22098583,0.07470544,-0.22730555,0.19178715,-0.2294424,0.18082502,-0.13505393,0.13094348,-0.30778348,-0.025594123,0.12921345,-0.10915025,-0.06621591,-0.030771524,-0.29558945,0.015063152,0.06598223,-0.044544842,0.23473783,0.43806055,-0.101148315,-0.2018255,-0.13486966,0.010451954,-0.14751731,0.01955454,0.36686966,-0.049879972,-0.4329291,-0.17279308,0.24591717,-0.15811433,0.21703386,-0.090212904,-0.23851983,0.039314814,0.10004078,0.61620885,0.16991252,-0.19461733,-0.26333705,-0.3547855,0.023047876,-0.21004781
f,0.12959284,0.081139475,-0.00030906498,0.009973783,0.09493719,-0.0152227655,0.13331556,0.010110773,0.15897861,0.08426654,-0.23197478,-0.026741453,-0.045291968,0.14776173,0.15765867,0.0356544,-0.21972951,0.09610485,-0.10333952,0.1766418,0.17839637,-0.3270863,0.087969415,-0.19854611,-0.37108782,0.0026742034,0.26820794,-0.40726733,0.4436005,-0.42039302,-0.46910566,0.14707242,0.07051867,0.25264302,0.25817546,-0.07643413,-0.26763102,-0.54201937,-0.30648783,-0.47493085,0.009876821,-0.7318514,-0.14806779,-0.07131361,-0.060906366,-0.23028383,-0.52693355,0.24540043,-0.05768381,-0.09982869,-0.06254314,0.37045553,0.34178248,0.24072355,-0.22179852,-0.08012865,0.19640008,-0.09305539,0.16807911,-0.15574408,0.0037187114,-0.064927265,-0.10819822,-0.048057854,0.25019693,-0.2555599,0.11214695,-0.14410198,0.40390417,-0.050626457,0.30021906,0.31711245,-0.19880809,0.008363359,-0.6216279,0.05541177,-0.22348726,-0.45134223,0.22837836,-0.04981996,-0.13826792,0.16950843,0.1653001,0.13608551,0.44739327,0.41302362,0.16700786,0.17071378,0.26039404,0.5317913,-0.3666348,0.28129017,0.5839603,-0.27610466,0.07465984,0.15530097,-0.026555024,-0.063657455,0.31809148,0.032562345,0.21833077,-0.6200613,-0.25272352,0.043562233,-0.07949841,-0.013078079,0.21305113,-0.11018566,-0.41303247,0.031758424,-0.27983516,0.11598267,-0.25698587,-0.020775966,0.37368745,-0.31454653,0.1330848,0.203116,0.20373386,0.3082673,0.09543497,0.00036756694,-0.14583012,-0.45664746,0.026484683,-0.24856058,-0.27496225,-0.32625717,-0.34184086,0.5566232,-0.06293216,0.0022265762,0.5936192,-0.63316625,-0.119576044,0.33042395,0.22134319,0.115229845,0.12388028,0.2499505,0.01279939,-0.34837055,-0.09661927,-0.44493803,0.3446524,-0.17906585,-0.20341533,-0.119246446,0.16987045,0.1454884,-0.10914657,0.5094494,0.059877604,0.028188765,-0.04807087,0.25223103,-0.09548676,0.6777269,-0.3469474,0.16434814,0.13626175,-0.11583553,-0.10443967,0.2185165,-0.5558752,-0.21432066,-0.19062257,-0.2804744,-0.19268903,-0.87660414,0.1284296,-0.544883,-0.15460956,0.21754022,-0.06651224,0.2131885,-0.08150414,-0.069906645,0.24181187,0.3705145,0.16817638,-0.137298,0.23877051,-0.2269354,0.029700413,0.27704784,0.10004349,0.7547024,0.14044857,-0.050723717,0.23266003,0.004023522,-0.25328755,0.058665596,-0.5880466,-0.37439853,-0.34662592,0.1745414,-0.058471624,-0.07187984,-0.00014104508,0.05400127,0.22681987,-0.26786882,0.21991265,-0.32012966,-0.020518258,-0.6422411,-0.52254033,-0.42309114,-0.35116875,0.04402108,0.022014245,0.16052175,-0.20514283,0.19528534,-0.0885161,0.4200698,-0.20033655,0.09548632,0.049214054,-0.016792502,-0.11298042,0.19459844,0.27548298,0.10612882,0.095557906,-0.16931978,-0.11402289,0.059409335,0.27767432,0.1604513,0.2984287,-0.27900195,-0.048276454,-0.25334316,-0.125801,-0.5242119,-0.6705908,0.08741166,-0.067329444,0.10116923,-0.0005595833,-0.11187805,0.07460635,-0.30106506,-0.3649709,-0.2130504,0.39786553,-0.3156587,-0.0119245425,0.040959135,0.08180904,0.11710704,-0.025352538,0.07689785,-0.17834222,-0.37066883,-0.18158889,0.007957501,-0.04646129,0.0062876083,-0.40133533,-0.030646041,-0.13980064,0.14288181,0.038064703,0.08088415,-0.0036192238,0.20981804,0.27803624,0.43486375,-0.3278563,-0.14823039,0.03824833,0.23674867,-0.327639,-0.011335645,0.25409386,-0.35993832,-0.27013084,0.085679375,-0.3527013,0.1533076,0.6376918,0.031048853,-0.07884203,0.18484794,-0.18727863,0.2900762,0.23036036,0.23837927,0.01906623,-0.21804118,0.6267383,-0.2724834,0.05715113,0.42236948,-0.024149586,-0.2797742,0.014503546,0.040037718,-0.015748039,0.012521859,0.01575736,0.14401567,-0.3247621,0.13428302,0.23438418,0.66995364,0.024406753,0.28010088,0.05513697,-0.110955976,0.043950707,-0.19967324,-0.14907226,-0.09890099,0.3282077,0.0661401,-0.1522589,-0.020412445,-0.6476513,0.5562011,-0.28032508,-0.43437722,-0.25107047,0.22365807,-0.48066524,-0.35037363,0.4431558,-0.1547254,0.51761615,-0.22756174,0.27751863,-0.4823449,0.124814175,-0.67372626,-0.18275192,-0.32742405,-0.25432175,0.20130944,0.1163251,-0.018343613,-0.025199018,-0.0983035,-0.107750684,0.15150842,0.016440045,0.18789133,-0.29621622,0.28594613,-0.02462343,0.018090375,-0.2643116,0.15498982,-0.30662808,-0.23752266,-0.10276633,0.1530138,-0.38456592,-0.196372,-0.09419521,0.045952685,-0.15960756,-0.44257277,0.06911524,0.12868567,-0.06299265,0.02396053,0.3310285,0.45487592,0.28050742,0.08413132,-0.0050502885,-0.28967044,-0.08078074,-0.39954895,-0.6403854,0.10462085,-0.19790685,0.15530169,0.33488476,-0.062051326,0.3655403,0.09972424,-0.36350137,-0.10141368,0.08939149,-0.2198618,-0.019925512,0.051909048,0.36336893,0.31683442,-0.03646439,0.24796364,-0.032591954,-0.13705598,-0.24337189,0.06704311,0.42664295,-0.15975168,0.10271083,-0.39681876,0.13188902,0.20524395,-0.11030107,-0.46961105,-0.57428414,0.020755742,0.17588669,0.05951035,0.10580141,0.14156026,-0.12685105,0.05438273,0.048856564,-0.07640642,-0.14835858,0.60398376,0.09362865,0.36650828,0.16103601,-0.5920329,-0.06181919,0.5202311,-0.18179622,-0.11123547,0.265086,0.11046963,-0.29220998,0.3137827,-0.14414391,0.16257042,0.07525107,-0.47645235,0.015572198,-0.20681268,-0.29926565,0.052171923,-0.17370842,-0.18923199,-0.22143221,0.49001125,-0.023926202,0.06446856,0.3820904,0.29551283,-0.43486008,-0.009548627,0.1008244,0.24510464,0.13976926,-0.35653389,0.31410664,0.14129451,0.0015727356,0.048022866,-0.25374612,0.20526391,0.20626894,0.44406444,-0.080735736,-0.15675357,-0.22338289,0.33842587,0.08274825,-0.010056857,-0.28183296,0.22403312,-0.27790844,-0.46639976,-0.032286674,0.20788851,-0.028632134,-0.336346,-0.1820862,0.02342368,-0.5062933,-0.48226795,-0.039474808,-0.14088038,0.33959275,0.789163,-0.14147505,-0.18666667,-0.0059437864,0.07081769,-0.8426451,-0.5714664,0.49566582,-0.20359814,-0.2663789,0.1012234,0.044970516,-0.09028211,-0.2721231,-0.2588353,0.05477943,0.2616936,0.42831272,0.08661649,-0.1985162,-0.14758442,-0.25602674,0.02469812,0.018757574,-0.16908614,0.5256379,-0.08323114,0.49947992,0.14988357
g,0.18402207,0.00413578,0.036867667,0.22977614,0.2773476,0.046331234,0.058610536,-0.225567,0.047831494,0.23082414,-0.28634953,0.30640954,0.44250628,0.023570664,-0.14393201,-0.37532505,-0.242699,0.09493516,-0.016038079,0.3057273,0.045084447,0.21210231,0.028911293,0.40867037,-0.46139833,-0.33781937,0.12739733,0.19225562,0.15784433,0.2679105,0.42026752,-0.06348777,0.32109445,0.35733578,-0.012710281,-0.07288449,-0.09436685,0.0721602,-0.062121935,-0.21135676,0.27149624,0.09838403,-0.05772288,-0.4340776,-0.02756052,-0.12279575,-0.17217629,-0.1762012,0.07939434,-0.059034184,0.068785414,0.9244872,-0.42545965,-0.06416758,0.13544971,-0.18215197,-0.69763404,-0.37706226,0.5434395,0.1259832,-0.14354524,-0.21482477,0.055848923,-0.11913198,0.0062634274,-0.09122608,0.25339442,-0.63503706,-0.10828754,-0.032430083,-0.16178428,-0.28615317,-0.41008514,0.11112205,-0.13074183,0.5031253,0.088656254,0.22152527,-0.2712944,-0.12549768,-0.21595427,-0.35461769,-0.15493816,-0.18428418,0.16281915,-0.008470951,-0.058244616,0.2849744,-0.14351663,0.029574335,0.04417685,-0.16347821,-0.33869255,-0.18411234,-0.0047382712,-0.21676174,-0.094851516,-0.2425437,0.102877446,0.15815546,-0.06808104,-0.6481607,-0.12977868,0.10232682,0.34346056,0.03203974,-0.47039104,-0.10146598,0.523491,0.06392168,0.34768504,-0.107332125,-0.58141625,-0.42415297,0.22291943,-0.49142337,-0.037043296,0.59916997,-0.060333375,-0.22166044,-0.41562137,0.19102463,0.07357037,0.17000145,0.124552324,0.1543059,-0.15109715,-0.066805795,0.13603473,-0.13574824,-0.16088802,-0.3193527,0.013032366,0.09288523,-0.05237641,0.46851206,-0.5145889,-0.086993515,-0.12992962,0.02202382,0.2924545,0.21618344,-0.23313779,0.24274752,0.13741228,-0.10055426,0.023608744,-0.29875016,-0.07124081,-0.24274132,-0.05912026,-0.08710955,-0.33426765,-0.04549329,-0.18408175,-0.46567684,0.13332736,-0.14873567,0.09880023,0.3673855,0.028285582,0.42654258,-0.27237922,-0.212719,0.11111373,0.079121925,-0.35143667,0.21632433,-0.17713389,-0.66178447,0.020971332,-0.24555096,-0.024951018,-0.20238376,0.08481885,-0.00568283,0.26331434,0.10477257,0.230905,0.49666,0.28065634,-0.41236335,0.53841084,-0.33044457,-0.28987452,-0.25059703,0.316974,-0.12067179,0.13456205,0.11074359,0.2897149,-0.039534424,0.19978277,0.5388322,-0.41117322,-0.08445482,-0.19633302,-0.011004284,-0.05213763,0.250722,-0.33879232,-0.014294177,0.24993014,0.105759755,0.400926,-0.4843888,0.18517348,0.10302923,0.15299445,0.2487391,0.001367107,-0.10924918,0.13161236,-0.14041945,0.099455565,-0.07348138,0.05566953,-0.4658895,-0.31840676,0.03748977,0.40792292,0.011859614,0.06478403,-0.093141995,0.1775692,0.108314484,0.5828881,0.084506646,-0.05525367,0.39367017,-0.63189894,-0.57149035,0.09230022,-0.017456725,-0.32639012,0.26133552,-0.0037620068,0.3474282,0.25722754,-0.17473704,0.12203809,-0.31092125,-0.116485305,0.09686995,0.17898193,-0.45004132,0.34681484,0.013478771,-0.0886433,-0.2638263,-0.72214186,0.028063245,-0.31429815,-0.13839631,0.46839902,-0.15622313,0.1883221,-0.14908114,0.37945095,-0.21350983,0.1975033,0.19690865,-0.3400277,0.07093851,0.1370746,-0.345455,0.137016,0.06392965,-0.23651192,0.25646177,-0.36456805,-0.1250895,-0.121724814,-0.50793827,0.5226176,-0.043969218,-0.12346814,0.26390734,0.3630725,-0.10013707,0.10048146,0.22254707,-0.11592306,-0.13967259,0.31119272,0.1352188,-0.011346832,0.20439225,0.2139512,-0.008818209,0.24648407,0.51071346,-0.00752569,0.457493,0.23232394,-0.07267727,0.19012102,0.55312514,-0.21391875,-0.19219369,0.08506394,-0.6559682,0.2259962,-0.8241516,-0.22393525,0.49915344,-0.13319579,0.19598426,0.01040387,-0.1198305,0.3706914,0.13477203,-0.44314486,-0.0020279512,-0.043950252,-0.024778802,0.27261737,-0.14532183,0.037326977,0.17782396,0.29950747,-0.11586949,-0.5523884,-0.33984277,0.07913251,0.36264676,0.13175817,-0.22628038,-0.294696,0.2786665,-0.078369975,-0.037926383,-0.14980513,-0.13712317,-0.060458623,-0.079121985,-0.3179099,-0.2078622,0.22421578,-0.5854506,-0.0460082,0.17425036,0.20630759,0.04923989,0.26459488,-0.35847592,-0.25685596,0.14124642,0.09625303,-0.049427755,0.17923005,-0.058356233,0.027979463,0.5775129,-0.09319901,0.29838613,-0.17826563,-0.054533347,0.6085181,-0.23159462,0.2202583,0.13586086,0.5756857,-0.17707127,-0.108786434,0.03279411,0.08422643,0.13494517,-0.121853374,0.47786978,-0.20645025,-0.4235592,0.06775857,-0.23076287,-0.13404678,0.29928392,0.3227102,0.14084408,-0.14203918,0.038533606,-0.13650182,0.22044948,-0.3756507,0.30847973,0.29077625,0.030900963,-0.047013335,0.68609697,-0.5859024,0.24897853,-0.04336403,0.001762867,-0.08659834,0.060239784,-0.39873362,0.19715881,-0.1596235,-0.41193277,-0.20963696,0.20242321,0.32132286,0.17951304,0.28245962,-0.16066465,-0.20259961,-0.27198684,0.16074952,-0.07112822,-0.13585088,-0.046476386,0.3616853,-0.021120794,0.21095714,-0.06791197,0.007933103,-0.040010612,-0.47406572,-0.1705242,0.108228035,-0.034487292,0.00377471,0.40187797,0.028153814,-0.4105956,-0.26332372,0.18644731,-0.22332975,0.10756933,0.06782671,-0.061530225,0.23006606,0.16340104,0.7807628,-0.109001555,-0.060952686,-0.1379058,0.21958435,-0.21239902,0.05464729,-0.032537334,-0.025999524,0.056814082,0.55907214,0.1472069,-0.36444694,0.18696246,0.3789224,0.13516492,-0.36051837,-0.761492,0.09562797,0.20422673,0.4108433,0.11309816,-0.36810482,0.052103557,0.073016465,-0.24706955,-0.16645539,0.12958443,-0.025331087,-0.3511688,0.21508858,0.16574126,-0.087407686,0.28510594,0.164225,-0.17569348,0.006697461,-0.44358692,-0.057085134,-0.35586357,-0.40168035,0.21924004,-0.19917256,-0.2788491,0.05245421,0.52359885,-0.10749247,0.027725315,-0.291009,-0.07251281,-0.033625808,0.2573767,-0.4211063,-0.5781282,-0.06043765,-0.1823295,-0.024659678,0.21830484,0.06611764,0.7041658,0.12130542,0.11209896,-0.0522319,-0.05608756,-0.1707084,-0.26676616,0.15477425,0.033923604,-0.3261951,-0.042464107,-0.2574451,-0.46698606,0.1609165,-0.08786082,0.07762379,0.08620743,0.50360817,-0.57340246,-0.22699517,-0.15694875
h,0.4835301,0.03486535,-0.4508144,0.10774866,0.19933617,-0.16785103,0.31704915,0.198477,-0.048782628,-0.16128944,0.33750498,0.011236034,0.17814484,0.52823526,0.08830203,0.2678613,-0.1271146,0.22242263,-0.28260377,-0.08530174,-0.06474752,-0.10365459,0.0676634,0.3494547,0.019142546,-0.4342552,0.30051076,0.24121407,0.27788335,0.022791814,0.22149314,-0.17273328,0.034805477,-0.15063357,0.15404889,0.08277018,-0.29732603,0.08407668,0.20692104,-0.0402596,0.29476404,0.25969285,0.2037369,-0.575387,0.053699933,0.34630677,-0.04343091,0.13506442,0.14884727,-0.1241115,-0.08035241,0.753345,-0.015904069,-0.29738015,-0.2012026,0.036129262,-0.32764316,-0.46735954,0.007812958,-0.06504798,-0.5552836,-0.3648631,0.049135283,0.106502086,-0.15182677,-0.0012570098,0.549997,-0.011856884,0.16645412,0.13804829,-0.29320723,-0.025210537,-0.1857849,0.28187642,-0.4849422,0.6161617,-0.2807733,-0.0052734017,-0.03511381,0.28250995,-0.29746056,0.010972749,-0.29047567,-0.3508944,0.54852283,0.08683503,-0.29390693,-0.24338928,-0.039535612,0.22772759,0.18946414,-0.046546325,-0.089954935,-0.17086318,-0.1741786,-0.39048395,-0.052985705,-0.36215487,0.09021368,-0.13228618,0.12504032,-0.39728248,0.2114934,0.38334477,0.26367912,0.36570933,-0.1522917,-0.01889062,-0.11699018,-0.25673413,0.11710422,0.2581673,-0.34930933,-0.25467998,0.2674327,-0.51579666,-0.04240576,0.23792249,-0.3047449,-0.10057457,0.11179278,-0.2124714,-0.025340352,0.38202068,0.04002282,-0.031719103,-0.297619,-0.47293893,-0.13412616,-0.11759969,0.35796756,0.13958067,-0.19551015,-0.18606927,0.54953223,0.028676333,-0.6936883,-0.33594552,-0.1233404,0.20570597,0.4720732,-0.0037707053,-0.054276735,0.014457323,-0.44790608,0.1695889,-0.15863338,-0.02062881,-0.04173853,-0.07589678,0.00061864406,-0.03324445,-0.06238903,-0.3227691,-0.051525965,-0.35586718,-0.17821789,-0.11224715,0.06313381,0.2163405,-0.13572106,0.03652861,-0.52409434,-0.15625194,-0.16987684,-0.02995196,0.44457567,-0.09839023,-0.30709904,-0.39755192,-0.029758811,-0.14023006,0.04871882,0.055218328,0.09538224,-0.42662945,0.23947248,0.12723114,0.01766529,0.008934975,0.16776103,-0.061211452,0.06824669,0.01513255,0.049086947,0.032210916,0.07713683,0.19057667,-0.013052292,-0.15622017,0.14356959,-0.029296894,0.39407825,-0.04924316,0.2790974,0.290379,-0.120304994,-0.10003252,-0.2816935,0.19340655,-0.43561193,0.37302235,0.052675143,0.04783019,0.10655202,-0.04396498,0.17872578,0.41813895,0.18952405,-0.08045581,-0.42838985,0.19448403,0.091605164,0.16735101,-0.06485368,-0.013224829,0.260036,-0.11872096,-0.4989841,0.13037306,-0.26624876,-0.30725944,-0.07565192,-0.07625846,-0.1159431,0.2548358,0.4174083,-0.07195998,-0.083186105,-0.0025312006,-0.107427165,0.17013499,-0.17772783,-0.079820454,-0.15855044,0.033783056,0.09664504,0.3138209,-0.13266002,-0.57350916,-0.30694434,-0.17972942,0.073746756,0.42020452,-0.062361144,-0.19110054,0.54243433,0.036935575,-0.0990992,0.016011283,0.036978386,-0.10825265,-0.4199032,0.047790043,0.3776753,-0.49304512,0.069905065,-0.6273427,0.06317149,0.11698177,0.059016783,0.13543534,-0.36557165,0.14450064,0.09446022,0.39578873,-0.1552515,0.10489084,-0.19402844,0.2648838,0.018815614,0.024346298,0.11985302,0.057887316,0.111009136,0.122052856,0.041985117,0.41082,-0.04366473,-0.020910345,0.054818906,0.35799086,-0.545886,0.15459219,0.2304571,0.30148175,-0.18739663,-0.38535982,-0.1513573,0.061387725,0.4492641,0.25917944,-0.3141163,0.2168454,0.3822997,-0.46238664,-0.031475715,-0.10488735,0.04234743,-0.096382365,0.20547858,0.05361597,0.03253019,-0.08216072,0.092289925,-0.10636049,0.044522364,0.17242996,-0.18444932,0.09075758,-0.06709942,0.4582297,0.032454494,-0.25499794,0.27480546,-0.029226176,0.1073859,-0.1913422,-0.35586983,0.21376657,-0.313164,0.31573322,-0.07371647,-0.2463187,0.1032532,-0.15210089,0.51327556,-0.14412981,0.12296349,-0.0006355345,0.14608285,-0.47364616,0.06748081,0.23250774,-0.109526284,0.14943129,-0.15586364,0.090941615,0.10899792,0.1841701,-0.18221286,0.0023414865,0.31607845,0.07345864,-0.4310108,-0.071196996,-0.024944238,-0.5516306,0.033412434,-0.14938161,-0.102218434,-0.072836034,-0.040144753,0.63019174,-0.056361876,0.0805269,0.19887966,0.17781535,0.27325624,-0.14084727,-0.07244493,0.23417243,-0.21477082,0.017832682,-0.236499,-0.16804412,-0.22255862,-0.3677794,0.24363068,0.53206253,-0.3196766,0.10640999,-0.09464233,-0.10168319,-0.4520648,-0.20918892,0.23389274,0.09033523,-0.105556294,0.06688649,-0.06544391,0.21096373,-0.37556747,0.04179606,0.20645282,0.39293882,0.39994264,0.89788944,-0.5572839,-0.12684458,-0.09918305,0.04700407,-0.26609004,0.3043342,-0.29261246,-0.20700127,0.12813477,-0.37222385,-0.36250114,-0.020430543,0.18660328,0.16026035,-0.008159339,0.2125544,-0.018350877,-0.073590785,0.25699455,-0.22699754,-0.17641085,-0.032625146,-0.17513219,-0.010391429,-0.16664311,0.19101775,-0.05692519,-0.19613437,-0.29516608,-0.33878598,-0.3503408,-0.1471875,0.1431664,-0.24137783,0.17226848,0.10444835,-0.3879631,0.10486759,0.028095111,0.44594973,-0.07521778,0.63348794,0.09127484,0.058786742,0.21704501,0.22947317,-0.022603229,-0.2671606,0.45870736,-0.20446606,0.060986817,-0.06524341,0.0012713484,0.08459759,0.2899148,0.36107093,-0.12134068,-0.18365869,0.2573944,0.07329043,0.20585424,-0.19468355,-0.15262848,-0.17049593,0.16043004,0.072232835,-0.0065345466,-0.032692462,-0.1663362,0.054922372,-0.096252084,0.047298554,-0.4715369,-0.16305044,-0.13277826,0.26109332,0.123709925,0.26709875,0.08107392,-0.3988006,0.09792159,-0.0843577,-0.58169967,-0.16027224,0.252877,0.02563833,-0.4825138,0.4314917,-0.064451076,0.1929878,-0.22748241,-0.30960605,-0.2866109,0.12158928,0.3274157,-0.1891548,0.0389872,-0.5588772,-0.21428804,-0.27862513,0.058105785,0.20746243,0.29838306,-0.12782258,0.066931546,-0.1518375,-0.4052702,-0.028729327,-0.42731994,-0.37629914,0.47353023,0.2906472,-0.04709739,0.35196105,-0.90218925,-0.02429356,-0.5014478,0.29044205,0.2621343,-0.1316964,-0.016145952,-0.35998154,0.08042549,-0.0377314
