GeneID,feature_1,feature_2,feature_3,feature_4,feature_5,feature_6,feature_7,feature_8,feature_9,feature_10,feature_11,feature_12,feature_13,feature_14,feature_15,feature_16,feature_17,feature_18,feature_19,feature_20,feature_21,feature_22,feature_23,feature_24,feature_25,feature_26,feature_27,feature_28,feature_29,feature_30,feature_31,feature_32,feature_33,feature_34,feature_35,feature_36,feature_37,feature_38,feature_39,feature_40,feature_41,feature_42,feature_43,feature_44,feature_45,feature_46,feature_47,feature_48,feature_49,feature_50,feature_51,feature_52,feature_53,feature_54,feature_55,feature_56,feature_57,feature_58,feature_59,feature_60,feature_61,feature_62,feature_63,feature_64,feature_65,feature_66,feature_67,feature_68,feature_69,feature_70,feature_71,feature_72,feature_73,feature_74,feature_75,feature_76,feature_77,feature_78,feature_79,feature_80,feature_81,feature_82,feature_83,feature_84,feature_85,feature_86,feature_87,feature_88,feature_89,feature_90,feature_91,feature_92,feature_93,feature_94,feature_95,feature_96,feature_97,feature_98,feature_99,feature_100,feature_101,feature_102,feature_103,feature_104,feature_105,feature_106,feature_107,feature_108,feature_109,feature_110,feature_111,feature_112,feature_113,feature_114,feature_115,feature_116,feature_117,feature_118,feature_119,feature_120,feature_121,feature_122,feature_123,feature_124,feature_125,feature_126,feature_127,feature_128,feature_129,feature_130,feature_131,feature_132,feature_133,feature_134,feature_135,feature_136,feature_137,feature_138,feature_139,feature_140,feature_141,feature_142,feature_143,feature_144,feature_145,feature_146,feature_147,feature_148,feature_149,feature_150,feature_151,feature_152,feature_153,feature_154,feature_155,feature_156,feature_157,feature_158,feature_159,feature_160,feature_161,feature_162,feature_163,feature_164,feature_165,feature_166,feature_167,feature_168,feature_169,feature_170,feature_171,feature_172,feature_173,feature_174,feature_175,feature_176,feature_177,feature_178,feature_179,feature_180,feature_181,feature_182,feature_183,feature_184,feature_185,feature_186,feature_187,feature_188,feature_189,feature_190,feature_191,feature_192,feature_193,feature_194,feature_195,feature_196,feature_197,feature_198,feature_199,feature_200,feature_201,feature_202,feature_203,feature_204,feature_205,feature_206,feature_207,feature_208,feature_209,feature_210,feature_211,feature_212,feature_213,feature_214,feature_215,feature_216,feature_217,feature_218,feature_219,feature_220,feature_221,feature_222,feature_223,feature_224,feature_225,feature_226,feature_227,feature_228,feature_229,feature_230,feature_231,feature_232,feature_233,feature_234,feature_235,feature_236,feature_237,feature_238,feature_239,feature_240,feature_241,feature_242,feature_243,feature_244,feature_245,feature_246,feature_247,feature_248,feature_249,feature_250,feature_251,feature_252,feature_253,feature_254,feature_255,feature_256,feature_257,feature_258,feature_259,feature_260,feature_261,feature_262,feature_263,feature_264,feature_265,feature_266,feature_267,feature_268,feature_269,feature_270,feature_271,feature_272,feature_273,feature_274,feature_275,feature_276,feature_277,feature_278,feature_279,feature_280,feature_281,feature_282,feature_283,feature_284,feature_285,feature_286,feature_287,feature_288,feature_289,feature_290,feature_291,feature_292,feature_293,feature_294,feature_295,feature_296,feature_297,feature_298,feature_299,feature_300,feature_301,feature_302,feature_303,feature_304,feature_305,feature_306,feature_307,feature_308,feature_309,feature_310,feature_311,feature_312,feature_313,feature_314,feature_315,feature_316,feature_317,feature_318,feature_319,feature_320,feature_321,feature_322,feature_323,feature_324,feature_325,feature_326,feature_327,feature_328,feature_329,feature_330,feature_331,feature_332,feature_333,feature_334,feature_335,feature_336,feature_337,feature_338,feature_339,feature_340,feature_341,feature_342,feature_343,feature_344,feature_345,feature_346,feature_347,feature_348,feature_349,feature_350,feature_351,feature_352,feature_353,feature_354,feature_355,feature_356,feature_357,feature_358,feature_359,feature_360,feature_361,feature_362,feature_363,feature_364,feature_365,feature_366,feature_367,feature_368,feature_369,feature_370,feature_371,feature_372,feature_373,feature_374,feature_375,feature_376,feature_377,feature_378,feature_379,feature_380,feature_381,feature_382,feature_383,feature_384,feature_385,feature_386,feature_387,feature_388,feature_389,feature_390,feature_391,feature_392,feature_393,feature_394,feature_395,feature_396,feature_397,feature_398,feature_399,feature_400,feature_401,feature_402,feature_403,feature_404,feature_405,feature_406,feature_407,feature_408,feature_409,feature_410,feature_411,feature_412,feature_413,feature_414,feature_415,feature_416,feature_417,feature_418,feature_419,feature_420,feature_421,feature_422,feature_423,feature_424,feature_425,feature_426,feature_427,feature_428,feature_429,feature_430,feature_431,feature_432,feature_433,feature_434,feature_435,feature_436,feature_437,feature_438,feature_439,feature_440,feature_441,feature_442,feature_443,feature_444,feature_445,feature_446,feature_447,feature_448,feature_449,feature_450,feature_451,feature_452,feature_453,feature_454,feature_455,feature_456,feature_457,feature_458,feature_459,feature_460,feature_461,feature_462,feature_463,feature_464,feature_465,feature_466,feature_467,feature_468,feature_469,feature_470,feature_471,feature_472,feature_473,feature_474,feature_475,feature_476,feature_477,feature_478,feature_479,feature_480,feature_481,feature_482,feature_483,feature_484,feature_485,feature_486,feature_487,feature_488,feature_489,feature_490,feature_491,feature_492,feature_493,feature_494,feature_495,feature_496,feature_497,feature_498,feature_499,feature_500,feature_501,feature_502,feature_503,feature_504,feature_505,feature_506,feature_507,feature_508,feature_509,feature_510,feature_511,feature_512
a,-0.037256252,-0.5054471,0.20058921,0.62920254,0.09313201,0.5109667,0.0041909833,0.25133488,0.09753004,-9.486079e-05,0.25226223,0.51107454,0.16384465,-0.060056455,-0.3101522,0.468854,0.23740354,-0.110033065,0.12218496,0.05099852,-0.0028820857,0.226035,0.044973418,-0.025856346,0.2846075,0.28931308,-0.059399806,-0.055430193,0.30418828,-0.08737595,-0.22805552,0.021539606,-0.32350934,-0.40996957,-0.07542156,0.085231125,-0.15555419,0.061126813,-0.3487456,-0.11867904,0.19413924,-0.069349766,-0.08593185,0.4056096,-0.22395986,-0.042854063,0.21644914,0.21486571,-0.19762924,-0.51438737,-0.2007822,-0.4017694,-0.07552155,0.22043735,0.08044106,0.028344627,-0.003133051,0.10604437,0.3586978,-0.072045974,-0.16877332,0.13238728,-0.12918323,0.20157108,-0.27049813,0.46719632,0.11208008,0.25322226,0.29755974,0.02877865,-0.29230234,0.19730276,0.021783091,-0.11466383,-0.0011477694,0.1328902,0.37317887,-0.07177378,-0.08106357,0.3900444,0.19933966,-0.26838696,-0.118358314,0.6015854,0.22663957,-0.01078888,0.34567088,-0.2862016,0.13468513,0.1617468,-0.37549266,-0.13746601,0.032877695,-0.24956146,0.21162573,-0.08146381,-0.07811832,-0.017354488,0.15852633,-0.16156471,0.38033286,0.15131521,-0.21089432,0.145841,-0.19057241,0.03032118,-0.04785938,-0.15554398,0.34870416,-0.104055494,-0.010525033,0.22130747,-0.33532825,-0.1845441,0.36763448,0.24094792,0.11394368,0.23704556,0.41603827,-0.035927225,-0.2513301,-0.21044928,-0.185823,-0.013158135,-0.22950885,0.18401045,0.77718097,-0.05385672,-0.009451002,-0.11895037,-0.031518288,-0.037552517,0.37753943,0.07927049,-0.11004889,-0.25159854,-0.07673243,0.045027908,0.18350671,0.09007944,-0.03282068,-0.2778788,-0.19209829,-0.14915718,0.09053184,-0.28728586,0.15421605,-0.020993356,-0.04760833,-0.19291282,0.1186011,-0.29357696,-0.31867546,-0.34411305,0.22848871,0.3192386,0.11448704,-0.075802356,0.23885617,0.017176393,0.2389977,-0.0058800317,0.21828395,-0.25324795,0.21187142,-0.27708453,0.046230145,-0.5216253,0.00033657253,-0.0037217662,-0.020445995,-0.33625433,0.06585771,-0.3626094,0.26534486,-0.08084216,-0.20550638,-0.58290416,-0.1992425,-0.07831187,0.08526664,-0.29107076,-0.123965845,0.09583348,0.3685508,0.109359205,-0.22346991,-0.09523816,0.41312,0.005065307,-0.05376757,-0.12832966,0.21469152,0.050150294,-0.3921066,-0.29131016,0.16678335,-0.25800502,0.25662178,0.14944863,0.013025288,0.13440654,0.21886823,-0.5081732,-0.035589293,-0.042696416,-0.06858707,-0.17947301,0.26920253,-0.42400995,-0.05714511,-0.16777796,-0.37691772,0.14072627,-0.19588062,0.03727325,0.07069494,-0.10524781,-0.23759688,0.12561311,0.08827282,0.07576391,0.2575065,0.012927978,0.08230802,0.19728127,-0.10978767,0.17478448,-0.21984178,0.11403349,0.06951646,-0.121854514,-0.32821333,0.10999602,0.09883012,-0.3888762,-0.6512191,-0.4972728,0.052610036,-0.13530967,0.109132774,-0.047243208,0.3450106,0.10219895,-0.07124215,0.3830759,0.0065192617,0.21524867,0.23979199,-0.05624918,-0.24700552,-0.049581196,-0.2385036,0.12944047,-0.23734763,0.006908033,-0.3652425,-0.08048101,-0.14406714,-0.036303397,-0.15797845,0.20540786,-0.20600997,-0.2160002,-0.20802496,0.08258529,-0.088614985,0.021283627,-0.12669703,0.50674015,0.10533208,-0.09637269,0.09267957,0.1518762,0.51513326,0.09861119,-0.07771545,-0.28618836,-0.08843982,0.12992007,0.17696618,-0.06960611,-0.15165195,-0.25425074,-0.04958051,-0.21011433,-0.060403563,-0.122559406,-0.1610354,0.04510178,0.2182073,0.1015218,-0.011873011,0.017130062,-0.26079002,0.24976018,0.06343262,-0.12750052,0.24356711,-0.07067818,-0.7315503,0.21092412,0.16542065,0.037409075,-0.004140105,-0.13651134,0.44506955,0.04818225,0.42199174,0.35878274,-0.18874505,-0.1723141,0.8546832,-0.02151053,0.22120059,0.065606326,-0.38877684,-0.19591638,-0.18344449,0.07131806,-0.42221993,-0.0073647425,-0.14822006,0.07569721,0.28158736,0.30070296,-0.23309079,0.22088367,-0.096488655,0.08435416,-0.45262694,-0.14464343,0.037341565,0.09713885,0.036142625,0.2864393,0.28415847,0.31652653,0.1503919,-0.055547904,-0.1887927,0.35454497,0.09570698,0.23920682,0.22874458,0.4287169,0.29647678,0.09832837,0.013008289,0.3167154,0.034124628,-0.051088013,0.011181191,-0.064804085,0.1277262,0.00649471,0.14900915,0.10721673,0.024909824,0.012055671,-0.011113167,0.4023459,-0.20966619,-0.08172601,0.13768664,0.34329343,0.110034734,0.23253396,-0.0029149689,-0.259619,0.27698463,0.0011587143,0.014037669,0.3364558,-0.24418797,-0.077583015,0.14201313,0.13767502,-0.2542446,-0.17448041,-0.64847916,-0.10009689,-0.29408717,0.13548777,-0.21968427,-0.024953004,-0.07765587,0.21029657,-0.07836147,-0.27019578,-0.1852647,0.1450774,0.043110527,0.16479218,-0.010427646,-0.53341967,0.23371792,-0.10548747,0.030939523,-0.023060754,-0.24458474,-0.08372614,-0.24211352,0.2626139,0.40008068,0.027259827,0.0473845,-0.009210303,0.12310366,0.33191887,-0.06478442,0.1688243,0.24945685,-0.0022267103,0.19312122,0.010106403,0.1958614,0.06870796,0.27956814,0.1397101,0.024705213,-0.22352132,0.12602198,0.54005665,0.44098315,-0.08972612,-0.30006316,-0.090049684,-0.20428768,0.0501774,0.18442929,-0.2015138,0.04034192,-0.08605542,0.13798243,-0.05370963,0.14543399,-0.17119879,-0.18032329,0.1900808,-0.13015223,0.3301547,0.33744827,0.05475462,0.64213026,-0.20510921,0.48301676,-0.25216198,-0.49788913,-0.04774022,0.33847892,0.12453015,0.1789808,0.2690931,-0.639352,0.012161028,0.31369632,-0.7304287,0.39935845,-0.43009615,-0.26442423,0.03162395,0.0036884844,0.24779871,-0.045954242,0.018593453,0.069462225,0.5684344,-0.42037597,-0.24855122,0.008115683,-0.34600154,0.32786623,-0.024227899,0.08520927,-0.34220856,0.1665795,0.31701946,0.14450562,0.37978053,-0.19046637,0.32494748,0.06837329,-0.30933625,-0.30871034,-0.021105625,-0.19639587,0.0047254786,0.22181833,-0.13000596,-0.019809157,-0.10668152,-0.19197382,0.43459347,-0.20690146,-0.23819035,-0.3872793,-0.07769227,0.13882968,-0.124306194,0.11977326,0.12913813,-0.26100096,0.28964302,-0.18558979,0.28269666,-0.43456644,0.00892444,-0.025767595,0.1202351,0.1015635,-0.23630488
b,-0.2232608,0.0036441013,-0.007596217,0.07213652,0.19627799,0.4060478,-0.496374,0.21297905,0.28563663,-0.28060633,0.18588945,0.0877667,0.2684386,-0.11923731,-0.3354643,-0.12165945,0.2365219,-0.35862505,-0.020113125,-0.33783835,0.36436635,-0.17290919,0.19339034,-0.55559814,-0.16371185,-0.17037651,0.11204475,0.024702337,0.26243323,0.08657323,-0.02150859,-0.5383876,-0.14681867,-0.20073001,0.035513464,-0.2995259,0.169333,-0.035738766,-0.033536404,-0.38774073,0.49008188,-0.30238658,0.20699942,-0.054495007,-0.045478694,0.16832194,0.57773435,-0.21872151,-0.34126562,-0.49144238,-0.18228836,-0.18776481,0.03743551,0.146036,-0.16556232,-0.18456379,-0.49764535,0.122716635,0.55976367,0.17144921,0.17462333,0.40434185,-0.15258038,0.16770416,-0.13792303,0.18634841,-0.3525363,-0.20493197,0.41202796,-0.37327567,-0.13016286,-0.29025477,-0.0845681,-0.15742251,-0.2801904,0.12893756,0.07972096,-0.40658504,0.06284423,0.31100154,-0.033810575,-0.1319779,-0.09313809,-0.20347953,0.5040372,0.11212674,0.12410328,0.25205094,0.5214343,0.118705675,-0.44673344,-0.018937558,0.30062282,-0.13788301,0.13351499,0.18517938,0.04369631,-0.24562776,0.18412903,0.21529917,0.91687536,-0.16476682,0.3183559,-0.14360401,-0.5113814,-0.011767395,0.011792,-0.64744395,0.40869612,-0.49976847,-0.35388786,-0.06685263,-0.1457057,0.055634633,0.47219747,-0.5288353,-0.13386837,0.6724135,0.7344644,0.1217411,-0.0006507188,0.29423046,0.22435065,0.06295785,0.11896609,0.08320166,0.21999136,-0.07123076,0.08249779,-0.5566437,0.055844862,0.0020789765,0.2180166,-0.030123357,-0.28212017,0.14480947,0.15509158,0.39749795,0.41303217,0.10427436,0.22322862,0.07562162,-0.30845147,-0.11214573,-0.06750124,0.6804267,0.4997959,-0.031822585,0.04623366,-0.15400305,0.34882876,-0.21997254,-0.016079187,-0.46766418,-0.031959005,0.26401833,0.013293937,-0.15090314,0.2264126,0.10218075,-0.070988886,0.39139864,0.5219688,0.068093725,-0.07556624,0.1278818,-0.18536972,-0.42149097,0.2724244,-0.23882511,-0.4161327,-0.28449196,0.3441914,0.0069274306,-0.28537557,-0.2579924,-0.4840623,0.02585034,-0.38645303,0.41089532,0.02359861,0.25431213,0.05073204,0.08360118,0.065492116,-0.07199764,0.0611876,-0.16575569,0.21823382,0.32160896,0.18418346,-0.6696498,-0.2820891,-0.563935,0.059207514,0.20771414,0.10943484,-0.2009485,0.26199758,-0.31067485,-0.46216676,0.08592734,-0.10976338,0.011108153,-0.026286796,-0.06914513,0.43467534,-0.0628945,-0.1702959,-0.23703861,-0.19000764,-0.43014997,-0.29931086,0.025953004,-0.56156236,-0.116402864,0.28553143,-0.2136488,-0.3885348,0.052675594,0.096562624,-0.14250016,-0.023283172,0.004141677,0.29087156,-0.23319641,-0.21072045,0.46023047,-0.15820932,0.10772742,-0.23404065,-0.13300541,-0.592888,-0.09558913,0.113546506,-0.1318102,0.011616746,-0.2285297,-0.24175698,-0.08202329,0.10335324,-0.30972147,-0.01904507,0.07591151,-0.072960585,0.34946367,0.4669689,-0.363527,0.30888426,-0.40522054,-0.076895505,0.17223285,-0.14609164,0.5547634,-0.321871,-0.19198841,0.018377498,-0.2431444,0.09814276,-0.17878005,-0.28701958,0.8262166,0.16985533,0.098523594,0.1739441,0.07310465,-0.0989009,-0.161896,0.5451826,0.2970997,-0.10861038,-0.13078535,-0.60029685,0.08521168,-0.4344068,-0.0145902075,0.085332304,0.43352255,0.06578167,0.107662685,0.24628979,-0.0738108,-0.13037066,0.07581799,0.20187879,-0.36732528,0.22151466,-0.006262999,0.2644717,0.23360994,0.6668223,0.08357815,-0.34716743,-0.27616003,-0.08988273,-0.35310656,-0.40433857,-0.12790185,0.02115573,0.5029408,-0.24111745,0.082862124,0.1637598,-0.18544862,0.4643976,0.1251592,-0.09398223,0.02157592,-0.46402365,0.07714202,-0.3028044,-0.4196677,0.6279699,0.011640947,-0.24226902,0.15648755,-0.009155959,-0.10926105,-0.03939305,0.38544083,-0.15168142,0.17457531,-0.2089747,0.2055354,0.42012954,0.06652584,-0.21894494,0.2670451,-0.19264357,0.08189948,-0.08786971,0.33335257,0.08921773,0.00073523447,-0.055065013,0.14412981,0.31093013,-0.13459623,0.18930697,0.19990715,-0.364999,0.14414966,-0.11827608,0.7718157,-0.06820375,0.10193736,-0.07076386,-0.33240464,-0.07836256,0.3721094,0.34718794,-0.0071471334,0.36394015,-0.086392745,-0.16130406,-0.1558609,-0.019179191,0.030103978,0.23763275,-0.32678384,0.3297184,0.50788486,0.13669458,-0.07251033,-0.0702052,-0.061810743,-0.31626916,0.122016095,0.17492726,-0.07896855,-0.19656199,-0.2548164,-0.49806023,0.3638223,-0.11811103,0.15968333,-0.36949196,0.13968426,-0.0638117,-0.42477366,-0.44376636,0.31687137,-0.044816464,0.3967144,0.48852658,0.040094335,-0.04940887,0.2246359,-0.27255982,0.082239464,-0.39469117,0.20346126,-0.084853835,-0.0038225055,0.12107011,-0.39138103,0.16159628,0.31346092,0.2769928,0.027268928,-0.001083564,0.1591407,-0.09885415,0.18275034,0.06888429,-0.28433594,-0.04183565,0.101889834,-0.08476369,0.28429246,-0.29272765,-0.027005378,-0.024919108,-0.4580995,-0.06539778,-0.11452707,-0.37822726,0.30462438,-0.24112314,-0.38452673,0.593245,-0.13225725,-0.2967697,0.46621832,0.22746328,-0.24412683,-0.14102486,0.054147042,-0.18550059,-0.046630263,0.06735136,0.28659067,-0.3899461,-0.13603383,-0.10628483,-0.24333423,-0.30247554,-0.22270487,-0.37964684,0.063308254,-0.20508313,-0.09724905,-0.24631539,-0.22696343,0.15903142,-0.3520409,0.27158448,-0.39686468,-0.3217681,0.11409539,-0.031121172,-0.062339533,0.59762496,-0.089483164,-0.04844058,-0.016978474,0.035922304,0.09085206,0.40793735,-0.15309757,0.5045629,0.25240627,0.21828991,0.03541824,0.6271728,0.27382928,-0.37305135,0.1634373,0.31557798,0.039488837,0.3309199,-0.09847707,0.027729329,0.014135633,0.29935506,-0.35721326,0.21529712,0.21408792,0.4615899,0.011679053,-0.39858162,0.33225635,0.04794267,-0.0733783,0.21078746,0.20440412,-0.4607966,0.3767882,0.14982067,-0.094311036,-0.23290616,0.34418762,0.36962986,0.56387645,-0.32106212,-0.043866187,-0.091662936,-0.19536385,0.044658702,-0.3228915,-0.24798685,-0.24276038,-0.17460269,-0.015461601,-0.46985385,0.1230717,-0.39611715,0.19682348,-0.24915692,0.43042862,-0.22295046,-0.10831982
c,-0.020298397,-0.120871134,0.5388078,0.3457362,0.036716826,-0.0068544075,0.19716674,0.2935103,0.0920852,0.19991136,-0.24970812,-0.24097908,0.28721753,0.332364,0.45481268,-0.006919928,0.4542462,-0.16951707,0.092847936,0.37621334,-0.36632904,0.51481324,0.22805572,0.18235293,-0.29986322,-0.31460968,-0.22675264,-0.15170708,-0.0609693,0.25949603,0.010645539,0.16700387,-0.6542412,0.23796462,-0.0288134,0.011282824,-0.30514738,-0.09974115,-0.44294614,-0.0034771897,-0.113727234,-0.41689023,-0.36026266,0.35598156,0.13534322,0.31164408,-0.28429306,0.20239294,0.28459466,-0.49372774,-0.29253274,-0.333789,-0.23612869,0.3982829,0.26457608,0.21634027,0.26792243,0.024179228,0.18038297,0.3746456,-0.01701973,0.5727855,0.07842417,0.006033007,-0.34809387,0.21918756,-0.1947878,-0.19383115,0.4127545,-0.22505242,0.12158157,-0.011002522,-0.18097913,-0.47361347,-0.13922922,-0.17474812,0.14694601,0.3146412,-0.08776027,-0.41061553,-0.21750456,-0.28144777,0.38271195,-0.07646235,-0.14947274,-0.117704734,0.20431079,0.14080839,-0.121419825,0.13724907,0.13203311,-0.24090958,-0.45567673,-0.103439964,-0.12597543,-0.26198065,0.024831392,-0.19357565,0.20166975,-0.38515365,0.24004897,0.21807554,-0.2352803,-0.46957645,0.14763162,-0.22771671,0.09527764,0.015682403,0.0036715083,0.041025873,-0.27177674,-0.24307911,0.4153417,0.22641611,0.44003594,0.42711526,0.08010076,-0.24562353,-0.1522491,0.1343539,0.16777286,0.11689488,-0.62658644,-0.023367144,-0.11607457,-0.1418629,-0.21637067,0.28625786,-0.03572521,-0.17842025,0.051311944,-0.026936114,-0.5718953,-0.12461032,0.28619897,-0.1422311,-0.10142778,-0.23401813,-0.49327278,-0.27524194,0.18200155,-0.0843526,-0.081199266,-0.1036759,-0.15158746,-0.38485372,0.3024668,0.42960104,0.14935479,0.008577019,-0.15598395,0.12558535,-0.44745576,-0.28649834,0.11419203,-0.060239222,0.3140531,0.16071841,0.3130139,-0.020207517,-0.08073696,-0.38536873,0.041403525,-0.043064244,-0.1328626,0.24707979,0.032945767,0.19051963,0.016994633,0.1402593,-0.2747028,0.29071295,-0.3903979,0.52221173,-0.45204005,0.29873186,0.3588422,-0.19472179,0.20358273,-0.18030638,-0.042527884,0.07453205,-0.07342091,0.037619144,0.10697801,0.08554725,0.26991835,-0.076113574,-0.25259137,0.09932134,-0.3057956,0.07763262,0.4318191,0.26973617,-0.42276436,-0.13820755,-0.061209124,0.41446048,0.011707965,-0.2838774,-0.14718767,-0.0063836128,-0.49206498,0.020240396,0.040881246,-0.21377061,0.039749924,0.07762647,0.05029715,-0.44214505,0.2581803,0.47587866,-0.18498512,-0.004549738,-0.3214661,-0.5644312,0.5932838,0.1558612,-0.40356955,-0.01591469,0.31724554,-0.009689821,0.39332712,0.06605688,0.22065952,-0.19641468,-0.5161392,0.16360447,-0.20479539,-0.5749054,-0.16925582,-0.30936286,0.13797948,-0.14018342,0.08101025,-0.47243065,-0.20634112,0.14379537,0.5233443,-0.28300124,-0.38865405,0.09892394,-0.110651165,0.078214325,-0.3001812,0.15430124,0.03502924,0.34504843,0.5758944,0.4025465,0.16110623,-0.31914645,-0.22072661,0.16375561,-0.15443516,0.18097879,-0.18640888,-0.25365603,0.14651269,0.48771152,0.004802659,-0.06274721,0.08030151,-0.01635024,0.07759082,0.1436976,0.23934194,0.37618393,-0.19489728,0.18901265,0.16534434,-0.037438184,0.15855402,0.12073141,0.19603087,0.011143364,-0.19666603,-0.19015497,0.10881357,-0.014563754,0.14909747,0.27158475,-0.22809705,-0.28394702,0.13010064,-0.1937683,-0.14797148,-0.24149835,-0.050238274,-0.18169215,0.43774235,0.17379603,0.16348526,0.0601502,-0.18367067,0.17539746,0.025892697,-0.01937392,-0.40075645,0.049367737,0.27108604,-0.07452632,-0.10626166,-0.18749869,-0.43522674,-0.22200541,0.39774707,0.30011773,0.07275383,0.1257388,-0.22544092,0.5573275,-0.38217652,0.14783636,-0.059918363,0.15175796,0.6031808,0.17384617,0.08913697,-0.010079801,0.28280616,-0.019943919,0.41091904,-0.011998899,-0.32018486,0.12662017,-0.2614556,0.35301244,-0.11614107,0.0040791593,-0.36818233,0.15104696,0.09020613,-0.024903106,0.022532731,-0.27184066,0.341412,-0.3711012,-0.16529143,-0.23108143,-0.15038094,-0.24759492,-0.3618424,0.08315748,-0.11071868,-0.01685737,-0.38549185,0.31572893,-0.19121988,-0.0292379,-0.2385822,-0.21144351,0.34573042,-0.32736707,-0.4567145,0.05205386,-0.19351432,0.34900826,0.28338674,-0.06767381,-0.19324973,0.021750275,-0.21304,0.15370312,-0.56387645,0.2373448,-0.01781844,-0.18333927,-0.19808897,-0.0050213123,-0.07025608,0.11738868,0.41258657,-0.5300703,-0.19550692,0.30549374,0.17915076,0.11703759,-0.041552424,0.1769054,-0.0060333945,-0.05866246,-0.32709417,-0.3113711,0.15548143,0.11170596,0.17732403,0.20581403,0.40609282,-0.7534765,-0.083425865,-0.2407265,0.17715552,0.08462218,0.20531887,-0.33147055,-0.112994894,-0.020149212,-0.8526534,-0.2200568,-0.14890343,-0.11353215,0.41438872,0.4308471,0.24654254,-0.008391343,0.22771153,-0.30582523,0.048269447,0.27515098,-0.35844252,0.41424233,0.08877728,0.07128593,0.19847968,0.019975148,-0.24506131,-0.64122427,0.08423412,-0.21674365,0.19725163,0.14146325,0.42513704,0.2705811,-0.13771139,-0.30330244,-0.6405673,0.41198397,-0.12556884,0.27830464,0.069789276,0.15293273,0.092442796,-0.29053554,0.13133064,-0.1645348,-0.035500914,0.157808,-0.3544761,-0.39232355,0.26137868,-0.43312857,0.3058877,0.13944891,-0.43053785,-0.24897486,-0.054318644,-0.19431534,-0.13079274,0.51955825,0.4058547,-0.42878255,-0.06739227,-0.37107426,-0.25847173,0.0119038075,-0.22829318,-0.42419568,-0.3234874,0.37871963,-0.048710342,-0.31479803,-0.36719072,-0.10226043,-0.1215561,0.21647042,0.33909857,0.1091871,-0.024547702,0.03241144,-0.38697553,0.17538919,0.056086216,-0.030960456,-0.01946573,0.17190084,0.036844015,0.10980083,0.1417307,0.116983265,0.1992477,-0.03484577,0.03275612,0.35680848,0.103142604,0.25887173,0.094789185,-0.011692904,0.18042049,-0.16703805,0.46712863,0.18459046,0.18020926,0.2987203,-0.00019047782,-0.35631794,-0.02384556,0.46940118,0.104541294,0.048835117,0.047275595,0.21571164,0.21416116,0.548965,0.009830415,0.16808194,0.19918187,0.070473954,-0.13310707,0.25887442,0.003523916,0.51929003
d,-0.19465315,-0.42384312,0.10317027,0.108143084,-0.23258036,-0.4349793,-0.022384288,0.25949356,-0.075721405,-0.28345233,0.044420883,0.2659881,0.09771312,0.08809462,-0.41293526,-0.13046843,0.13329479,0.18296808,-0.09558339,-0.3602692,-0.2607295,0.48127472,0.10939413,0.22686404,0.028210066,-0.1284546,0.110439,0.49347875,0.058792114,0.3293745,0.1861124,0.51523036,-0.37629598,0.021681055,-0.15647669,0.06204755,0.49140677,0.011541754,-0.11948641,0.09641375,-0.25717652,-0.12767799,0.16128841,0.32290787,-0.22446454,0.18126218,0.3825386,0.36911958,-0.19602785,-0.11476838,-0.3756225,-0.4087211,-0.119568355,0.46797687,-0.15954964,0.35786688,0.038978226,-0.7445037,-0.018621169,-0.015269779,0.23431231,-0.117936455,0.3546784,-0.47032583,0.15773875,-0.30310515,-0.06558242,-0.5695002,0.24210411,0.12411689,-0.1460365,0.042639785,0.5624144,0.03098445,-0.04856022,-0.24987596,-0.14249709,0.4195191,0.20697945,-0.2815597,-0.6058426,-0.29887927,-0.6720562,-0.34261924,0.12476854,0.45723844,-0.17601186,0.08002785,-0.025635324,-0.13760844,0.060962193,0.11526689,-0.15273276,-0.13315678,0.031772494,-0.1469186,-0.16797784,-0.2186395,0.023327006,-0.31315133,0.1541062,0.20396346,0.2626044,-0.029385585,0.14536324,-0.39369065,0.07723452,-0.23205452,-0.12312593,0.13932276,-0.24416688,0.29536664,0.34161693,0.116798446,0.32496125,0.060039528,-0.18411195,0.32132867,-0.13138062,0.37406576,-0.10048366,0.4512026,-0.11791399,-0.15338102,-0.13584527,0.0642719,-0.30154663,0.08849459,-0.32610595,-0.44060922,0.10609709,-0.14656904,-0.23382407,-0.44272307,0.2345757,0.20591888,0.06433442,0.07023409,-0.23454666,-0.15584733,0.062123545,-0.4625514,-0.21276078,-0.23975857,0.34061417,-0.09257429,0.16006726,-0.010158151,-0.04513882,-0.16732548,0.026416223,0.026798964,-0.31922615,-0.16511133,0.082234755,0.40629116,-0.17561644,0.1296277,-0.091203906,-0.20033073,0.21075737,0.047010105,0.01689807,0.0023587868,-0.32827827,0.39296246,0.05746811,0.292618,-0.28016782,-0.111826725,-0.19946536,0.4459593,-0.09983805,0.61762375,0.07570693,-0.0038589686,0.10712306,-0.013861328,0.4373956,-0.09970228,-0.050859477,0.43006498,-0.32929796,0.13484973,-0.107222684,0.06395562,-0.12833774,-0.529363,-0.05310905,0.01204595,0.15302351,0.22998896,-0.11306437,0.039964437,-0.32671744,-0.09212651,-0.10325969,0.1560384,0.029924333,-0.1310707,-0.11681612,0.27869135,0.1291359,0.39778855,0.09796098,-0.20742618,-0.04102204,0.1885362,-0.27925366,-0.15582196,-0.5618632,0.06647269,0.098511025,-0.117069125,0.22969049,-0.18669635,0.03077704,-0.06167338,0.36195225,-0.09504974,0.16942465,-0.031229058,0.035127252,-0.17664035,0.15930556,-0.5597465,-0.25670114,0.07279115,-0.01716324,-0.0055821016,-0.05000206,-0.051331885,0.0705668,0.18966918,0.14339986,-0.013355292,-0.042269614,-0.029109221,0.14744198,-0.17422453,-0.387122,0.26156384,-0.298494,-0.11351184,-0.21970138,0.16995576,-0.121223204,-0.03128597,0.024729885,0.32534832,-0.17323005,-0.252682,-0.14697003,0.25031126,-0.068717785,-0.330851,0.066764995,-0.3181236,-0.0916431,0.03812456,0.12589623,0.27023867,-0.032580554,0.0055573136,0.045294106,-0.16019157,-0.20603645,-0.06137821,0.16408919,0.50387144,-0.32999018,0.23975807,0.22284496,0.28674436,0.21391158,-0.3093412,-0.23963484,-0.0044531673,0.09681913,-0.29806024,-0.20574687,0.335005,0.203907,-0.19559452,0.12316301,0.40534094,-0.30222142,0.07271353,0.18764228,0.4091797,0.27488407,0.009269586,0.24671009,0.095752835,0.24066141,-0.19459681,0.025990404,-0.37747523,0.003745012,0.32096386,0.05005285,-0.096130185,-0.23919827,-0.20797843,0.2513259,-0.31941566,-0.07288838,0.48264083,0.40883228,0.24634606,-0.27263474,0.27180296,0.044731535,-0.4028384,-0.105280355,0.1273717,0.38437068,-0.27912185,-0.06346603,0.37654337,-0.19270194,0.10642093,-0.2454572,-0.31497425,0.19131282,0.09086127,0.0939079,0.22012487,0.26049685,-0.24287648,0.18244843,0.5139211,0.092995144,0.061905082,-0.2359396,0.28601813,0.49283406,-0.16544846,-0.11068805,-0.38767415,-0.2172117,0.29330274,-0.2220374,0.086250104,0.060603704,-0.22190791,-0.5310125,-0.017400876,-0.08080965,0.25089958,0.16951402,-0.024857111,-0.08155445,-0.3736763,-0.22867705,-0.0832627,0.15880695,0.25999776,-0.24021378,-0.26638478,-0.14589523,0.10103522,-0.00019580871,-0.13715759,0.1589097,-0.12459148,-0.025484286,-0.4413649,-0.3936078,0.004762605,-0.38904238,0.44280648,0.32046223,-0.14634678,-0.57040495,0.41678476,-0.27882457,-0.1910491,0.3062432,0.07501091,0.28566554,0.4533274,0.10264418,0.27423024,0.04545019,-0.023317385,0.51318735,0.0006482862,0.32840922,-0.40758073,-0.18898675,-0.080072366,0.2758225,0.28095397,0.18939227,0.16952011,0.06097247,0.016327374,-0.13070038,0.100358374,0.040290397,0.19184893,0.042728968,0.069333114,-0.039434426,0.43573698,0.26353616,-0.28568712,-0.555155,0.018035252,0.32500845,0.14234021,-0.097175874,-0.04195137,0.45207334,-0.007816859,-0.61836433,-0.3287163,0.56401575,-0.06008874,-0.059684977,0.5461844,-0.041558143,-0.115040205,0.22481528,0.07450844,-0.20594075,0.047879152,0.1743964,0.52288073,0.22649664,0.19000131,0.39384252,-0.2751796,0.06369635,-0.36377332,-0.15371446,0.14821236,-0.5309936,0.19235474,0.21700615,0.11131195,0.33917293,0.012497943,-0.03905292,-0.37815312,0.3433757,-0.040546667,-0.14161941,-0.11253362,0.27701226,0.13120683,-0.25927186,-0.19830248,0.04751,0.106307924,0.086843394,0.12278838,-0.31653863,-0.15778655,0.36322445,-0.49980903,-0.38283157,-0.33697087,-0.16888022,0.18207502,0.20219406,-0.12446157,0.102706105,-0.019107543,0.031115659,-0.23012659,-0.071255505,0.2086044,-0.01834806,0.0010270774,-0.13605924,-0.14707637,0.180733,-0.28437838,-0.14987695,0.120771796,0.18119395,-0.008580163,0.37722147,-0.07778507,0.030690141,0.1630777,0.14583825,0.056328762,-0.10552902,0.05458962,0.3790899,-0.025161278,-0.18429819,0.38826188,-0.11419708,0.0085149035,-0.19088385,0.07824861,0.07403544,-0.20190923,0.11752161,-0.000995405,-0.17005548,0.34816882,0.2939176,0.38786045,0.017645486,0.047482498,0.21899739,0.011092484
e,-0.22924167,0.2927794,0.100990966,0.53818315,0.3988399,-0.31671038,-0.08863215,-0.14088055,0.1551209,-0.08654242,0.22309914,-0.14561093,0.11724596,-0.17468336,-0.20222375,0.008137144,0.61134624,-0.2689817,0.20142874,0.28993085,-0.026255384,-0.067713395,-0.19063267,0.24036467,-0.06013927,-0.40069392,0.048215903,0.15170199,0.17942518,-0.02575814,-0.09730372,-0.099926986,0.010468975,0.49236578,0.0531574,0.23695198,0.008661319,0.07691978,0.22530544,0.56149346,-0.056636937,0.016025797,-0.01655468,-0.029347155,-0.013045728,-0.09370229,-0.16208613,-0.079901315,-0.38355523,0.16494368,0.17412083,-0.07071289,0.09986854,0.21470323,0.15347297,0.15359706,0.054789953,-0.07425673,0.15363175,-0.09604402,0.036816254,0.24917656,0.10868192,-0.036876794,0.25257668,0.13508967,-0.17321277,-0.14084071,-0.2348105,0.022149108,0.08837421,0.05070222,-0.25451815,-0.05714392,-0.25635615,0.13419491,0.3961128,-0.4230062,0.10230794,-0.35060143,-0.45154464,-0.2848671,0.17706142,-0.20791689,-0.03127008,0.16336778,0.3668975,-0.19707784,0.053072482,-0.08368343,0.37898257,-0.0610291,0.2352378,0.24019769,0.3320131,0.29047504,0.6132589,0.20014791,0.15702537,-0.44210774,0.8130482,0.20314023,0.06991124,-0.12143196,0.37205595,0.028611787,-0.23361704,-0.33537868,0.06246146,0.28944167,-0.101448625,-0.22136493,-0.006004289,-0.33999917,0.33922005,-0.08958495,-0.22447845,0.16718718,-0.49382377,0.019954368,-0.5703044,0.10628282,-0.12565465,0.07325621,-0.20975557,0.25618172,0.3430351,-0.13699651,0.19366138,-0.39855313,0.111394554,0.126408,0.34588066,-0.0039250776,-0.27585375,0.08785223,-0.5324132,0.08636202,-0.20518446,0.23543434,0.22025661,-0.05936865,0.3564632,0.4952492,-0.030709319,-0.22266665,0.19466045,-0.5700937,0.13244447,-0.00053563714,-0.47136226,-0.09596448,-0.14644617,0.022369754,-0.10141091,-0.31958425,-0.16267622,0.028273776,-0.06923879,0.5129628,0.36440483,-0.28988516,-0.100627735,-0.07451258,-0.21028206,0.28357962,-0.3078846,-0.19107217,0.12832208,-0.5179742,-0.16270617,-0.012612112,0.4430066,-0.35690686,-0.09071413,0.17723507,0.71249515,-0.29101777,0.0656682,0.14344802,0.071230456,0.087094195,-0.053188324,0.120784916,-0.1483967,0.35243285,-0.019627415,0.09103051,0.3368606,0.21135587,-0.067304604,0.19479057,-0.05460064,-0.3868002,-0.19583267,0.06353675,-0.31754494,0.039339058,-0.10441419,-0.03101544,0.06024127,0.32630455,-0.08619669,0.36151007,-0.5053829,0.095559135,0.2963433,-0.11918122,-0.4806045,-0.060832072,-0.117646195,-0.20215283,-0.05342967,0.14329958,0.46046576,0.39143106,0.061157692,0.27033657,0.21284717,0.03064451,-0.072692685,-0.29218793,0.03228862,0.016336136,-0.2772416,-0.060734756,0.015935112,0.39711928,0.0842054,-0.5054846,0.20786093,0.15870444,-0.0060192905,0.114607796,0.23699977,-0.3857075,0.25681412,0.3430894,0.410906,-0.6068959,0.036375582,-0.49066657,0.46110725,0.017169073,-0.21260697,0.37304872,0.5211608,-0.60547674,-0.1025086,0.02307894,-0.08189879,-0.21413808,0.098396845,0.24846423,-0.15840062,-0.27856398,-0.00016300753,-0.39946678,0.27290723,0.48246413,0.15410772,-0.18766615,-0.29947162,0.3504899,0.18211032,-0.04463689,-0.012401611,-0.4522615,0.0071569346,0.0062328726,0.24456728,-0.020603187,-0.05968722,-0.1538578,-0.27927962,0.206074,-0.29036376,-0.04966774,-0.15315731,0.2882562,0.27143195,-0.0015449356,-0.10103841,-0.1759449,0.08968389,-0.049998827,-0.33023584,0.1816015,-0.3205933,-0.08886642,-0.37472683,-0.0759574,0.08567892,-0.1709024,-0.0034641773,-0.05994661,0.29484478,-0.14668941,0.034436934,0.038942024,0.46144843,0.3325422,0.2444267,-0.275155,0.14448653,-0.25816214,-0.018324457,-0.56195855,0.3859683,-0.01886727,0.05840165,-0.06691586,-0.3161251,-0.119732805,-0.060666095,0.15264997,0.28522575,-0.043541536,0.23352206,0.056150578,-0.37656957,0.16562115,-0.35231057,0.1509793,-0.12892357,0.3041408,0.13218492,-0.3815041,-0.11823632,-0.19456401,0.39612526,0.036579013,-0.32955593,-0.04203249,0.087741196,0.03400147,-0.69793016,0.08943207,0.08422581,0.098676965,-0.47673514,0.5240006,0.30279547,-0.050521694,-0.073036686,0.1203751,0.011165984,0.19452432,-0.5751362,-0.30990368,-0.19711663,-0.24787742,0.12922157,0.24731317,0.21580574,-0.2259188,-0.1718508,0.04200363,-0.38406497,0.3384011,0.2203906,0.1452635,0.49605143,-0.41981992,0.056583226,-0.108720385,-0.05746603,-0.13007167,0.30830348,-0.2675378,-0.6340005,0.23846382,-0.23398459,0.08304493,-0.17734891,-0.04454459,-0.2517057,0.33459777,0.26841193,-0.2407317,-0.013818141,-0.052183986,-0.08871596,0.19521526,0.42593765,0.12878264,0.17185628,-0.29370818,-0.04245637,-0.48809588,-0.13093132,0.08173641,0.29956535,0.19543168,0.50303704,-0.5356932,-0.3520333,0.18640462,0.35047153,0.022406582,0.28628623,-0.33740777,-0.10442011,-0.29301924,0.032902457,-0.33273456,-0.0690333,-0.08013673,0.22279944,-0.007677749,0.16759184,-0.12592317,-0.09104076,0.15552777,0.11414924,-0.24171974,0.42372116,0.5069793,0.08136439,-0.16471446,0.5984657,-0.08072113,-0.05407775,0.24277848,-0.12056133,-0.4574072,0.14899805,0.077931024,-0.12153956,-0.31672513,-0.18756047,0.4265866,0.35833085,0.19322446,0.68142736,-0.3284874,-0.75703824,-0.065770015,-0.33263648,0.26643288,-0.078733645,-0.011825688,0.59912807,0.14203751,0.2498878,-0.1741209,0.008933019,0.39573193,-0.46015814,-0.12672606,0.132206,0.06119111,0.20694974,-0.1421259,0.5077101,0.07810249,-0.06474064,-0.03827001,0.038298637,-0.3628314,0.095801085,-0.20742458,0.068477824,-0.21539524,0.5367309,0.48729524,0.4884483,-0.2877131,0.045926116,0.41120532,0.3372932,-0.008153148,0.26463306,0.14629313,-0.12624562,-0.33384198,0.34987462,0.103754565,-0.4185641,0.16013938,0.24193715,-0.05273033,-0.44177806,-0.20673695,-0.2419249,0.02513393,-0.03889841,0.52441823,-0.11189608,0.1916782,-0.078785814,0.26583943,-0.14933717,-0.22355574,0.3920253,-0.067377806,-0.029491998,-0.05277986,0.1148557,-0.24109784,-0.7567944,-0.11735502,-0.387821,0.18587399,0.13414246,0.043532386,0.15147305,0.2773691,0.6184663,0.014782455,0.026004493,-0.33750868
f,-0.056369387,-0.2060479,-0.38560063,0.10680076,0.50643116,-0.3922436,0.37826303,0.008253805,0.27258754,-0.0041308617,-0.62939584,-0.35135704,0.0851948,-0.09591039,0.7142839,0.47588873,-0.52220726,0.0823664,0.32559893,0.266065,0.16227168,-0.28773454,-0.09638845,0.12109862,0.4082735,-0.012682337,0.08082439,0.2505177,0.06543303,-0.085286595,-0.47521114,-0.117654406,0.19044212,-0.24731915,0.066576384,0.045094576,-0.053204495,0.31854507,-0.11591627,0.009713432,-0.23400903,-0.11880337,-0.064722076,0.13545361,0.2358498,0.16150726,0.32470888,0.22022283,-0.05593112,-0.27906257,0.3598084,-0.15795341,0.08402007,0.054973677,-0.20343596,-0.42142507,-0.2550157,-0.15023255,-0.21248287,0.1174614,-0.2502579,0.20268196,-0.0001559332,0.51525825,-0.25963685,-0.13465017,0.27621615,-0.3867621,-0.16560349,-0.41027638,-0.15635145,0.43843943,0.027803546,0.31895927,0.29752618,-0.17212194,0.3246387,0.23576844,-0.8396412,0.26457572,-0.154264,0.08662325,-0.26204568,0.20811555,0.09361456,0.025272243,-0.31758866,0.02869524,0.0036677122,0.19725488,-0.021525912,-0.14148757,-0.6092496,0.31048253,0.41026247,0.5002141,-0.10889008,0.05152186,0.010324117,-0.12033421,0.19019142,0.37770766,0.0037415698,0.2834766,-0.046713367,0.4569258,-0.14525905,-0.03052722,0.46267024,0.2382995,0.3196048,0.11828579,-0.22784668,0.046386875,0.101309404,0.40152103,0.25117022,0.3288805,0.38058555,0.08359103,-0.2325674,-0.18136933,-0.39212906,-0.057909973,-0.20973107,-0.17218971,0.30005482,-0.011246234,-0.29465064,0.2023143,-0.09055855,-0.42256027,0.23808557,-0.20097217,-0.40041542,0.20131916,0.4698579,0.44454783,-0.23514973,-0.021629425,-0.10443553,0.23974977,-0.42420164,-0.041984655,-0.006507295,0.08353005,0.33030963,0.0032287352,-0.61615473,-0.04853426,-0.4768259,0.35166883,-0.2729244,-0.36540094,-0.18329513,0.13712183,0.44640055,0.7874336,0.33966756,0.15425204,0.3542512,-0.51964563,-0.4802919,-0.27068177,0.10374655,0.09176769,0.2978983,0.022599429,-0.12671375,0.54572463,0.32986265,-0.22299728,-0.098812334,0.13518578,-0.13698636,-0.11969551,-0.02957579,-0.61571854,0.22394866,-0.26510665,0.29631257,-0.042348184,0.06222363,0.33034614,0.3757925,0.07463106,0.40949482,0.7709225,0.18252617,-0.031886652,-0.38765103,0.24575546,-0.06917255,0.64818925,-0.05923253,0.28111112,0.24577138,-0.25029537,-0.17492181,-0.35482287,0.24015822,0.08536968,-0.052894406,0.11269647,-0.01052722,0.01613579,0.028608348,-0.15641633,-0.6140334,0.17051677,-0.25563246,0.26024202,0.20602985,-0.105962515,-0.11215631,0.032320984,-0.11797688,0.10819162,0.1550799,-0.046541966,-0.13166225,-0.2916591,0.014194861,-0.20127167,0.28084296,0.16082874,-0.32638407,0.45952433,-0.034692355,-0.2669247,0.30201307,0.16509616,0.19365516,-0.0058042184,-0.17691803,-0.18888508,0.053711675,0.14803843,-0.3859005,-0.14125422,0.13189569,-0.1464731,0.39064512,-0.033526488,0.30786148,0.0014635026,0.37535095,0.1955666,-0.16973248,0.4315939,0.13376781,0.66110843,0.15911144,-0.15411846,0.22804156,-0.6798477,0.12730336,0.27442247,0.4189089,-0.08355058,0.35079873,0.17185017,0.00569899,0.08091746,0.39014217,-0.0764401,0.08322342,-0.54820585,0.50738686,0.009775389,-0.16193707,-0.44137397,-0.09153312,-0.38510537,0.48486018,-0.40346116,-0.05164603,-0.0034786984,-0.34712473,0.18944454,0.18210566,-0.055237073,-0.07315762,-0.57081103,-0.21498147,0.09982398,-0.52647495,-0.0054813027,0.089475974,0.2180599,-0.2474753,0.33257446,0.00020757318,-0.07145774,0.63080186,-0.038879197,-0.3315921,-0.3232215,-0.23604205,-0.04154268,0.04460047,-0.123120986,0.060780875,0.03088656,-0.0035411436,0.2781176,-0.05638068,0.05804407,0.12732875,-0.057415843,0.26571777,-0.33759063,0.09379243,0.0053867754,-0.13561662,0.1438471,0.38306648,0.06588488,0.5267547,-0.28051037,-0.28067696,0.11865798,-0.30681086,0.09701644,0.08777361,-0.03767024,0.37028974,0.118737586,-0.019716566,0.6868383,-0.008723209,0.37594417,-0.21819453,-0.6225702,0.62809217,0.039952654,-0.1919654,-0.08517424,-0.13742295,0.027730742,0.058131408,-0.17867005,0.124725156,0.059323877,0.22045547,0.19851172,0.20177853,0.16681874,-0.24957785,-0.054234162,-0.2379325,-0.4110353,0.2350666,-0.3282176,0.22504422,-0.09463654,0.052846115,0.20397443,-0.34225476,-0.13791832,0.16685398,0.50763005,-0.32861942,-0.0154998675,-0.22627546,0.25589454,-0.11659537,-0.15129372,-0.14096054,0.13674173,-0.19986732,0.29995078,-0.029776292,0.34326595,-0.3416264,0.5398372,0.057142623,-0.15327027,-0.13521025,-0.00019495562,-0.099715896,-0.07254115,-0.25227886,0.482245,-0.01990211,0.15701279,-0.012816146,0.5262082,-0.436429,-0.47249025,0.05745415,-0.11704742,0.21708566,0.032534573,0.036062203,-0.001476571,0.32445198,0.67028534,0.14119902,0.10232101,-0.15016481,-0.42595267,0.093376815,0.7341368,0.3952904,0.2954904,0.229218,-0.3347988,0.012339655,-0.15076345,-0.31098688,0.3334145,-0.20016757,-0.21605372,0.023276523,-0.21891919,-0.0750845,0.046354875,0.30940208,0.07711402,0.22568144,-0.10728391,0.24709764,0.2029354,-0.13025334,0.26271826,-0.28028983,-0.34183955,0.24763727,-0.2737035,-0.09687675,0.3230618,0.49591416,0.31641287,-0.08336059,-0.42835608,0.11053968,-0.043533742,-0.022253543,0.18419082,-0.35513946,0.49544445,0.36422953,0.44578362,0.5040939,-0.03384288,-0.11237391,0.37205848,-0.5567082,-0.24949759,0.27418846,-0.012170814,-0.04014559,0.14767492,-0.24661237,0.36538643,-0.103584446,0.02354502,-0.14157376,-0.22408263,0.050897896,0.18387708,-0.08314617,0.5865366,0.41317764,0.15224394,-0.18436685,-0.34903052,-0.60485303,0.018970218,-0.11167557,-0.15899631,-0.34934735,0.22199923,-0.2038534,-0.107271865,0.6059437,0.06932478,-0.16732183,0.65088975,-0.16472273,0.26470947,0.33023006,-0.36706302,-0.25374573,-0.044993706,0.24504614,-0.05347205,-0.25198054,-0.015712135,0.020354874,0.2147575,0.21227454,0.3086806,-0.071908794,-0.17178631,-0.037719883,0.063456014,0.25052428,0.38700235,0.35650676,-0.07725537,0.17013997,-0.24302605,0.07552332,0.257256,-0.10447867,-0.39600646,-0.32080507,-0.1235723,0.20283431,-0.25125533
g,0.22407788,-0.61204934,0.4341819,-0.145289,-0.018837921,0.072691016,0.10101263,0.1580312,0.1434577,0.34677222,-0.30052206,-0.23239079,-0.070792384,0.18790102,-0.272701,-0.025123134,-0.15647238,-0.39875203,-0.0960735,0.0036468357,-0.016120847,0.35265866,-0.17819098,0.30510455,-0.22337352,-0.10837434,-0.17730376,-0.23548174,-0.14504257,0.17169166,0.3688382,0.45116955,-0.016351022,0.22957277,-0.22737789,0.3609727,-0.029798701,-0.42734382,-0.2701843,-0.20589325,0.24969938,-0.31623638,0.0015960857,-0.041133158,0.433728,0.27232862,0.35836276,0.14416152,-0.23201966,-0.0043327063,0.28376412,-0.14575535,-0.3028944,0.46870914,0.35605383,-0.25418007,0.09467081,0.2646445,0.081433,-0.40716922,-0.5900122,-0.077314876,-0.33465675,-0.66968226,-0.1102423,0.21987012,-0.00029278547,0.42711872,0.22203186,-0.61704975,-0.088744745,0.5158682,-0.11718106,0.23822033,0.330719,0.24167454,-0.27155522,0.13332242,0.022426343,-0.25729477,0.07541284,-0.7458019,-0.030918092,-0.1452733,-0.27508557,-0.12644841,-0.23979007,0.04822375,-0.12810954,0.38051185,0.11978055,0.10613431,0.08091644,0.20578465,-0.28101718,0.17633489,-0.00017623045,0.13557671,-0.4380997,-0.19916916,0.044101536,0.009297825,-0.16138697,0.40874588,-0.12745301,0.3390994,0.19740254,-0.2292303,0.19324884,-0.072102115,-0.25878277,-0.14974071,0.06290735,-0.15480064,-0.10878347,0.3020277,0.42708346,-0.18281955,-0.09031384,0.24848759,0.09535836,0.10676571,0.18357654,0.428937,-0.62153494,-0.028307587,0.3646764,0.3480812,0.14167194,0.20771815,0.35453716,0.28181282,0.25435644,-0.14042655,-0.117583886,-0.12918627,-0.18946585,-0.1433063,0.20102544,-0.26846835,-0.37324205,-0.24025744,0.67018145,-0.013658486,0.49517992,-0.14515316,0.1287111,-0.26415062,0.30426326,-0.2202405,0.08127375,-0.14438614,0.017883942,0.37659806,0.15979615,-0.20699188,0.35852388,-0.187806,0.31146497,0.03943067,0.2510524,0.19022922,0.28731775,0.047792085,0.39482346,0.027620785,0.30633664,-0.48230854,0.3663095,0.11370218,-0.024674412,0.001858227,-0.41323668,0.061784804,-0.024870403,-0.2028497,-0.36874744,-0.06745699,0.24044812,-0.1841194,0.20136802,-0.4197923,0.1511736,-0.13589787,-0.010761697,0.019027658,-0.15774542,-0.09567314,-0.1155924,0.022427142,-0.12931693,0.3306391,-0.0894473,0.2253224,-0.09445062,-0.027839158,-0.18526146,0.00037731975,0.26402444,0.13209003,0.22729127,0.24511102,0.1351818,0.123202644,0.043793976,-0.31012183,-0.49040157,0.07689524,-0.048588544,-0.31669143,0.00542894,-0.13887033,0.20052288,-0.14794542,0.1141512,-0.1296363,0.27658314,0.35690123,-0.10893355,-0.339142,0.070978835,0.09516287,-0.20388715,-0.37796146,0.5306699,0.03018269,-0.0074894577,0.18045107,-0.26936352,-0.0010002367,0.2755135,-0.00451706,0.32336992,0.2257498,0.24355671,-0.13583037,-0.4276051,-0.1411254,0.3595724,-0.45780113,-0.38647854,0.33461308,0.26349944,-0.1964725,-0.33586767,-0.093277596,-0.07755813,0.3384702,-0.22307107,0.004962139,0.316201,0.017292224,-0.14983895,-0.0008012429,-0.040342607,0.09874585,0.4553841,-0.09898609,-0.06683228,0.15226088,-0.15240654,-0.039680637,-0.43277496,-0.28870496,0.28114238,0.19610378,0.14471614,0.013280973,0.2251124,0.23567301,-0.26759735,-0.28890052,-0.20717278,0.0048630834,0.2800395,-0.1620184,-0.06098167,0.124967255,-0.060549702,0.19198352,0.46350026,0.08642214,-0.08108845,-0.36146736,-0.053713474,0.24950302,-0.24978925,0.41387042,-0.0263188,-0.21954635,0.39375672,0.3112821,0.06442454,-0.16987988,0.27885112,0.5157167,-0.21977198,-0.07245492,0.31503052,-0.5055884,-0.5491154,-0.027273525,0.02811005,-0.10189738,0.04493524,-0.21417268,0.55108064,0.08020365,0.52697504,0.060958542,-0.34235737,0.2858935,0.10959677,0.24231987,0.42267844,-0.07304128,-0.051797204,0.057971496,-0.23413348,0.08596369,-0.13649565,0.5555355,-0.51470786,-0.24048267,-0.004934218,0.0045110434,-0.251642,0.31174195,0.010116536,-0.13768294,-0.01841414,-0.08219099,-0.47733587,-0.09952775,0.33922973,0.14536175,0.08514208,0.15211907,0.08254759,0.09765129,0.033833895,0.09384921,-0.0062689446,0.051433813,-0.16676173,0.50948536,0.22751355,-0.15620556,0.033949476,0.12535833,-0.103699915,0.17643362,-0.2221359,-0.40839058,0.03352678,-0.1954284,-0.029194504,0.23060206,0.23090872,-0.12601084,-0.30730808,0.039403535,-0.48127973,0.39105195,0.117744535,0.12296958,0.041357674,-0.30661327,-0.186322,0.10279711,-0.11683227,-0.26543736,0.26634786,0.0029195026,0.06250953,-0.35450122,-0.18218163,-0.6023989,0.2414042,-0.09329034,-0.07192051,0.10583833,-0.21426105,-0.3324145,0.009130266,0.084065035,-0.2964892,0.10943479,-0.12748644,0.07853705,0.096032515,0.28167713,0.42758623,0.019153066,-0.17142493,-0.25283718,0.06819886,-0.28388664,-0.43992075,-0.12879214,0.029192604,0.4846791,-0.073065445,-0.003061708,0.006102763,0.47493818,0.036403656,0.11456914,-0.28663257,0.34971923,-0.4665616,-0.15547535,0.49206087,-0.15309682,0.49900857,-0.09883084,0.38817525,0.20148596,-0.025383063,-0.02650188,0.16817695,0.15314439,0.01518625,0.2548085,-0.61542207,-0.45108297,0.31163573,-0.37726814,-0.10649084,0.19641712,0.38026386,-0.2031627,-0.36961013,0.08768316,-0.112868965,-0.11450492,-0.15339112,0.24851428,0.31370473,-0.30334878,-0.31485093,0.12831727,-0.4369071,0.22381407,-0.17297268,-0.06847955,0.08071021,0.022190575,-0.09029252,0.20177263,0.19537017,-0.23062654,-0.08882073,-0.2666444,-0.22625026,0.30115455,-0.0041872635,-0.19993123,-0.34423327,-0.45029122,0.29937413,0.03141751,-0.52371097,0.0036375,0.032807384,-0.1464532,0.17154256,0.30701688,-0.8365519,0.5215946,0.1746629,0.14992127,-0.23038101,-0.27718464,0.31048405,-0.16678882,0.08693054,-0.052737966,0.17877224,0.056308106,0.25967246,0.072006986,0.040815413,-0.12437773,0.3983887,0.070596814,-0.20031297,0.34475827,-0.010200331,0.30429065,-0.05971057,-0.03410986,-0.49076414,-0.16894795,-0.026815537,-0.15466145,0.5252426,-0.10350831,0.55529344,-0.19791174,0.25284472,-0.018953882,-0.1898554,-0.0513291,-0.09946885,0.09783194,-0.0088834055,-0.3472282,-0.20825535,0.061102614,0.37220523,-0.14601901
h,-0.17202304,0.21270263,0.01087657,-0.019154228,0.2860521,-0.39388996,0.064465284,-0.09691524,0.017853357,0.020463873,-0.082346834,-0.18255416,0.45445848,0.3150482,0.35704878,0.06736818,-0.16387142,-0.20842563,0.42242163,0.024747793,-0.032366145,-0.4942756,0.13907287,0.161692,0.001178924,0.34227088,-0.054011665,-0.07093683,-0.19387782,-0.14888296,-0.082831934,-0.14272553,-0.036998086,0.32248807,0.010565519,-0.05152414,-0.3237194,0.023250967,0.05953356,0.070578255,0.12127775,-0.044722207,-0.22402212,-0.39052463,0.021621086,0.4431658,-0.082690336,-0.26137736,-0.20164537,-0.64807034,0.21242182,-0.028448813,0.19494876,-0.14358121,-0.017712051,-0.43488565,-0.26037666,-0.039605387,0.38589814,-0.09022477,-0.16165283,-0.06225527,-0.036011264,0.08041984,0.0065603256,-0.06752742,0.42937344,-0.034790874,0.015384909,-0.035556875,0.16311945,0.1261265,-0.18316726,0.2866641,-0.16200107,0.57840383,0.026002597,-0.05965949,-0.4398797,0.071918294,0.2896651,0.0012601912,0.013205156,-0.10474826,0.18028334,-0.3105968,0.1995104,-0.11999439,-0.18219033,0.10757106,0.018333279,0.19751248,-0.036951587,-0.2096324,-0.043289848,-0.08388261,0.20690958,0.15150599,-0.5336277,-0.43936664,0.29817075,0.072460756,0.78930813,-0.379671,-0.073047586,0.24190623,0.2064802,0.16311243,-0.1406712,0.08840294,-0.008496046,-0.35425925,0.28681397,-0.14820671,-0.1538541,-0.26948586,0.043057773,0.11170139,-0.15548436,-0.35519454,0.15677367,-0.14985898,-0.019908251,-0.11385103,0.17291608,-0.022145227,0.13267235,0.27792788,-0.2064618,-0.051560838,0.067152984,0.23660395,0.2702363,-0.08493519,-0.22672912,0.072538584,-0.14288343,0.0643142,-0.020783529,-0.09932585,-0.08520584,0.036432583,0.20566288,0.3977371,0.1430552,0.10728221,-0.2225062,-0.14946267,0.07579656,0.23442528,0.19286342,0.27465773,-0.23179743,0.17387125,-0.26143417,0.012138039,0.1711848,0.26378286,0.33193526,0.1309367,0.14830318,-0.14381658,-0.19290863,0.1577341,0.14280438,0.09611472,-0.113686986,0.08318468,0.14745757,0.05279076,-0.04151303,0.23417264,0.0633035,-0.1864515,-0.44145083,0.22978936,-0.1829645,0.014631197,-0.12673867,0.292879,0.1535088,0.26857236,0.26474184,0.20321009,-0.009505548,-0.05208908,0.07504565,0.3870191,-0.061893158,-0.29115403,0.20131412,-0.07742297,-0.22913852,0.05688303,0.06571369,0.27561176,0.031645995,0.026283726,-0.3447379,-0.22007501,-0.09713802,-0.17227161,0.25059065,-0.07561615,-0.2779143,-0.1361898,-0.092612706,0.11687277,0.14251363,0.029353946,-0.15271264,-0.26930398,-0.0410997,-0.16424972,0.101547435,-0.026637584,0.28849944,0.118711986,-0.033785053,0.1933719,-0.40088865,0.024434086,-0.1766082,0.24518894,-0.2822932,0.19744718,0.16343983,0.017202318,0.24051303,-0.36061555,-0.27326548,0.1547537,0.25194713,-0.43409336,-0.0129727945,0.09790337,0.51238436,0.168254,0.029902324,0.23274988,-0.060545146,-0.11876488,-0.006527059,-0.014424168,0.12395316,-0.20269787,0.16506106,0.016273577,0.35665092,0.28650278,-0.12504442,0.07036595,0.15478492,-0.014933487,0.54645187,-0.11330345,-0.08098107,0.2267918,0.20412925,0.14165036,0.23902416,0.3489073,-0.1139818,-0.12052586,-0.22348599,-0.18341875,-0.053501494,0.31251115,-0.18784343,-0.0983677,-0.21721482,-0.070873566,-0.12371423,-0.554955,0.12812333,0.33179265,-0.13768855,-0.08683636,-0.48352545,0.16455048,-0.043748926,-0.41153744,-0.027266506,-0.04512556,0.032176904,-0.09216613,-0.28217763,0.33774868,0.18414828,0.0034378394,0.17982626,0.1166743,0.17264387,-0.33264452,-0.1674234,-0.042128753,-0.14409643,-0.3598912,0.30968824,0.21973017,-0.013547547,0.08936642,0.14247963,-0.08543704,0.14121829,0.2736027,0.057790924,-0.5898536,-0.36295158,-0.02310428,-0.2737544,-0.48925582,-0.40854716,-0.044743203,-0.2800483,0.4222516,0.036169667,0.06189388,0.0061535276,-0.2803544,-0.31431237,-0.42137152,-0.26707733,0.19549198,0.27384764,-0.45708007,0.13050355,-0.19442698,-0.48481822,0.24953361,0.06743682,0.07655127,-0.09450865,0.25162992,0.09126015,-0.069266364,-0.4121668,-0.03973425,0.0018387083,0.081807844,0.06249222,-0.28091958,0.34794283,-0.5282687,0.03343498,0.19493344,0.287541,-0.21049792,0.07146763,-0.29056367,-0.23276985,-0.17909884,0.09530296,0.065790534,0.2111924,-0.005340684,0.012588717,-0.16833979,-0.05303015,0.30441114,0.19092567,0.26442912,-0.15703869,-0.15099382,0.0938355,-0.082602605,-0.073743045,-0.0059455787,0.4441467,-0.17962945,-0.7090309,-0.16637962,-0.17733356,0.19540888,0.18792425,0.07607223,-0.058015086,0.18643922,-0.4594553,-0.44567388,-0.0017831549,0.0155707,0.010891616,-0.044691227,-0.16218597,0.0075488575,-0.13431577,0.23813853,-0.3952051,-0.025266074,0.4591544,-0.26883742,0.26479548,-0.34391573,0.25280496,0.15104243,0.116249844,0.034798175,0.09079162,0.04496231,0.31124243,-0.32612512,-0.14339995,-0.066069014,-0.014176935,0.096391276,0.37810177,-0.6006816,-0.10990287,0.0072910152,-0.12414248,0.042253334,-0.506893,-0.21712679,-0.031390183,0.109762296,0.23011906,0.0025798008,0.17043847,-0.28282756,0.3947931,0.18561539,-0.13160054,-0.10463946,-0.16468748,0.37393072,0.47002062,-0.16686577,0.09481956,-0.30186203,-0.14306813,0.42795327,0.0392043,-0.054995846,-0.08570057,-0.17797422,-0.18154417,-0.29636294,-0.5387161,-0.15879978,0.03865216,0.06348061,0.17192647,0.2965621,0.3246325,0.298616,0.20888335,0.24125375,-0.13068837,-0.06571015,-0.4208399,0.28015664,0.3843908,-0.21894804,0.17733279,-0.107886,-0.2014629,-0.017010331,0.440292,-0.015749171,-0.49039438,0.0285029,0.3669223,0.098137096,-0.2310893,0.18062592,0.032368228,-0.24575755,0.048186675,0.42180935,0.07631777,0.3226072,0.033867564,0.06099266,-0.0031949766,-0.6228272,0.08935832,-0.15976368,-0.3881644,0.0063233227,-0.1701606,-0.046752095,-0.05343423,-0.47946778,-0.12654254,-0.030571193,-0.55739206,0.0058673546,-0.07918208,0.39424622,0.22741038,0.0507928,0.07002479,-0.57325053,0.8604104,-0.26833245,0.50162596,-0.4313951,0.39909586,0.44171533,-0.03454916,-0.3062628,0.041002072,0.12079137,-0.030472234,0.25928238,0.049047336,-0.27195117,0.12690327,0.08435125,0.22448868,0.23829406
