DiseaseID,feature_1,feature_2,feature_3,feature_4,feature_5,feature_6,feature_7,feature_8,feature_9,feature_10,feature_11,feature_12,feature_13,feature_14,feature_15,feature_16,feature_17,feature_18,feature_19,feature_20,feature_21,feature_22,feature_23,feature_24,feature_25,feature_26,feature_27,feature_28,feature_29,feature_30,feature_31,feature_32,feature_33,feature_34,feature_35,feature_36,feature_37,feature_38,feature_39,feature_40,feature_41,feature_42,feature_43,feature_44,feature_45,feature_46,feature_47,feature_48,feature_49,feature_50,feature_51,feature_52,feature_53,feature_54,feature_55,feature_56,feature_57,feature_58,feature_59,feature_60,feature_61,feature_62,feature_63,feature_64,feature_65,feature_66,feature_67,feature_68,feature_69,feature_70,feature_71,feature_72,feature_73,feature_74,feature_75,feature_76,feature_77,feature_78,feature_79,feature_80,feature_81,feature_82,feature_83,feature_84,feature_85,feature_86,feature_87,feature_88,feature_89,feature_90,feature_91,feature_92,feature_93,feature_94,feature_95,feature_96,feature_97,feature_98,feature_99,feature_100,feature_101,feature_102,feature_103,feature_104,feature_105,feature_106,feature_107,feature_108,feature_109,feature_110,feature_111,feature_112,feature_113,feature_114,feature_115,feature_116,feature_117,feature_118,feature_119,feature_120,feature_121,feature_122,feature_123,feature_124,feature_125,feature_126,feature_127,feature_128,feature_129,feature_130,feature_131,feature_132,feature_133,feature_134,feature_135,feature_136,feature_137,feature_138,feature_139,feature_140,feature_141,feature_142,feature_143,feature_144,feature_145,feature_146,feature_147,feature_148,feature_149,feature_150,feature_151,feature_152,feature_153,feature_154,feature_155,feature_156,feature_157,feature_158,feature_159,feature_160,feature_161,feature_162,feature_163,feature_164,feature_165,feature_166,feature_167,feature_168,feature_169,feature_170,feature_171,feature_172,feature_173,feature_174,feature_175,feature_176,feature_177,feature_178,feature_179,feature_180,feature_181,feature_182,feature_183,feature_184,feature_185,feature_186,feature_187,feature_188,feature_189,feature_190,feature_191,feature_192,feature_193,feature_194,feature_195,feature_196,feature_197,feature_198,feature_199,feature_200,feature_201,feature_202,feature_203,feature_204,feature_205,feature_206,feature_207,feature_208,feature_209,feature_210,feature_211,feature_212,feature_213,feature_214,feature_215,feature_216,feature_217,feature_218,feature_219,feature_220,feature_221,feature_222,feature_223,feature_224,feature_225,feature_226,feature_227,feature_228,feature_229,feature_230,feature_231,feature_232,feature_233,feature_234,feature_235,feature_236,feature_237,feature_238,feature_239,feature_240,feature_241,feature_242,feature_243,feature_244,feature_245,feature_246,feature_247,feature_248,feature_249,feature_250,feature_251,feature_252,feature_253,feature_254,feature_255,feature_256,feature_257,feature_258,feature_259,feature_260,feature_261,feature_262,feature_263,feature_264,feature_265,feature_266,feature_267,feature_268,feature_269,feature_270,feature_271,feature_272,feature_273,feature_274,feature_275,feature_276,feature_277,feature_278,feature_279,feature_280,feature_281,feature_282,feature_283,feature_284,feature_285,feature_286,feature_287,feature_288,feature_289,feature_290,feature_291,feature_292,feature_293,feature_294,feature_295,feature_296,feature_297,feature_298,feature_299,feature_300,feature_301,feature_302,feature_303,feature_304,feature_305,feature_306,feature_307,feature_308,feature_309,feature_310,feature_311,feature_312,feature_313,feature_314,feature_315,feature_316,feature_317,feature_318,feature_319,feature_320,feature_321,feature_322,feature_323,feature_324,feature_325,feature_326,feature_327,feature_328,feature_329,feature_330,feature_331,feature_332,feature_333,feature_334,feature_335,feature_336,feature_337,feature_338,feature_339,feature_340,feature_341,feature_342,feature_343,feature_344,feature_345,feature_346,feature_347,feature_348,feature_349,feature_350,feature_351,feature_352,feature_353,feature_354,feature_355,feature_356,feature_357,feature_358,feature_359,feature_360,feature_361,feature_362,feature_363,feature_364,feature_365,feature_366,feature_367,feature_368,feature_369,feature_370,feature_371,feature_372,feature_373,feature_374,feature_375,feature_376,feature_377,feature_378,feature_379,feature_380,feature_381,feature_382,feature_383,feature_384,feature_385,feature_386,feature_387,feature_388,feature_389,feature_390,feature_391,feature_392,feature_393,feature_394,feature_395,feature_396,feature_397,feature_398,feature_399,feature_400,feature_401,feature_402,feature_403,feature_404,feature_405,feature_406,feature_407,feature_408,feature_409,feature_410,feature_411,feature_412,feature_413,feature_414,feature_415,feature_416,feature_417,feature_418,feature_419,feature_420,feature_421,feature_422,feature_423,feature_424,feature_425,feature_426,feature_427,feature_428,feature_429,feature_430,feature_431,feature_432,feature_433,feature_434,feature_435,feature_436,feature_437,feature_438,feature_439,feature_440,feature_441,feature_442,feature_443,feature_444,feature_445,feature_446,feature_447,feature_448,feature_449,feature_450,feature_451,feature_452,feature_453,feature_454,feature_455,feature_456,feature_457,feature_458,feature_459,feature_460,feature_461,feature_462,feature_463,feature_464,feature_465,feature_466,feature_467,feature_468,feature_469,feature_470,feature_471,feature_472,feature_473,feature_474,feature_475,feature_476,feature_477,feature_478,feature_479,feature_480,feature_481,feature_482,feature_483,feature_484,feature_485,feature_486,feature_487,feature_488,feature_489,feature_490,feature_491,feature_492,feature_493,feature_494,feature_495,feature_496,feature_497,feature_498,feature_499,feature_500,feature_501,feature_502,feature_503,feature_504,feature_505,feature_506,feature_507,feature_508,feature_509,feature_510,feature_511,feature_512
C1,0.47341996,-0.046091296,-0.21198583,-0.1790961,0.2841309,0.051201686,-0.0694268,-0.4603979,-0.13206337,-0.020724267,-0.16630146,-0.1629043,0.18837515,0.15575919,0.03790169,0.16129747,0.13918974,-0.23074639,-0.14768195,-0.30747518,-0.15652402,0.008938335,0.18762445,-0.24128515,0.15948147,0.57284397,-0.02470683,0.10754021,0.07025437,-0.52137214,0.2176176,-0.55050135,0.009857815,-0.26982433,-0.015828136,-0.18515426,-0.14788222,-0.043366164,-0.41541988,-0.053610444,-0.09474056,-0.042569175,0.34804094,-0.23182279,0.2275041,-0.031114161,-0.031105023,0.11151432,0.114204474,-0.06794862,-0.20464662,0.12522236,0.23130652,0.0085111,-0.2706598,0.094656646,-0.121049024,0.26123565,-0.130074,-0.08408,0.31941828,-0.43648142,0.2711077,-0.32061717,-0.052642785,-0.10788321,0.2136519,0.17999542,-0.24030295,0.11086355,0.14694263,-0.25504047,-0.15461504,0.20456071,0.105071336,-0.34013832,-0.13664854,0.16144426,-0.295973,-0.13659711,0.021957219,0.47945583,0.017126847,0.10601351,-0.23809333,-0.13422272,0.2384311,-0.1674138,0.26215932,0.07202707,-0.12459603,-0.7038903,0.32645622,0.09804465,0.0023688003,0.31494725,0.5014821,-0.038234726,0.03705868,0.36241555,-0.0043356717,-0.1799474,-0.13289757,0.08696299,-0.039532557,-0.06377475,-0.0076597035,0.009006642,-0.18366265,-0.28715435,-0.2648773,0.29743895,-0.061899833,-0.06084373,0.5501928,0.21033582,-0.030962698,-0.23683593,-0.07982678,-0.14561936,0.31164077,0.21586683,0.1114116,-0.041654885,0.048211813,0.5101429,0.12578106,-0.29068,-0.31059787,0.12098426,-0.41330975,-0.08280203,-0.30999246,-0.15894726,-0.23860651,0.10605353,0.081309706,-0.12638094,-0.17101178,-0.07510706,0.1697397,-0.38261572,-0.022993825,-0.073667064,-0.11697905,0.1254482,0.015353002,0.22726196,-0.17706561,-0.0062668733,-0.12659626,-0.18731426,0.15544781,0.0956662,-0.29497966,-0.20874977,0.08866253,0.12572762,-0.013731401,0.2153146,-0.109369434,-0.11280852,0.22049402,-0.06344388,0.037201844,-0.16780809,-0.061847113,0.017240375,-0.07348773,0.12227581,0.027034167,0.13945112,-0.055320323,-0.056307532,0.3140976,0.12677032,0.3148176,0.0069344044,-0.13348329,-0.24071383,0.30274406,-0.13733259,-0.14259402,0.15802763,0.114447266,0.4017018,0.39522928,-0.41233355,0.4633196,0.007172387,0.061729535,-0.15952456,0.11915499,0.034358576,-0.07270512,0.3336656,-0.115155086,0.12662801,0.23593676,0.021083616,-0.0003841594,-0.025368445,-0.14145623,0.015864186,-0.16604228,0.09401314,-0.041568242,0.50709015,-0.04564058,0.055864275,0.21175337,-0.23776132,-0.27504748,0.22821015,-0.13371518,0.17825338,0.14886433,-0.13291436,0.06760068,0.18895182,-0.19259256,-0.3384958,0.2957283,-0.28157136,0.19806388,-0.35867336,-0.11328764,-0.17652884,0.14131197,0.17621507,-0.015352126,-0.1585511,0.4684283,-0.28647348,0.10311802,-0.022639483,-0.46999407,0.084594816,-0.35483092,-0.44792062,0.12304139,0.05529838,0.01505046,0.0148164295,-0.041912273,-0.21933883,-0.42518285,-0.055212706,0.33200052,0.19380532,-0.0064924285,-0.11537956,-0.27862012,-0.49423155,0.10687905,0.61353725,0.16266543,-0.0897637,0.08912964,0.13105571,0.37981668,0.25438252,-0.18433416,0.19890118,0.118926935,0.19143176,-0.27874216,0.05070825,0.1828101,-0.46823427,0.45608318,-0.06360111,-0.0076835416,0.5746647,0.0056715496,0.17926368,0.2500486,-0.32793882,0.019435316,0.1860761,-0.18685414,0.322206,-0.15621251,0.062485196,0.088562146,-0.12986697,-0.01858726,0.11765107,-0.27378577,0.029092409,-0.11310483,0.34979194,-0.27976903,-0.065907285,0.052793212,-0.09394274,-0.040631253,-0.45230916,-0.25248653,0.048930332,-0.03399881,-0.08906638,-0.13942629,-0.2591523,-0.21098725,-0.23427898,-0.10233123,0.0053930283,0.004345998,0.27744007,-0.12545311,0.5089075,-0.28228447,-0.17988539,-0.41590255,0.076956004,0.27495256,-0.12774688,0.06649619,-0.22265467,0.17529002,0.4290914,-0.30272484,-0.28081056,0.16074687,0.054949768,-0.3593965,0.0010417327,-0.15296967,-0.055131644,-0.04512062,0.14725664,-0.22841191,0.36305323,-0.096201725,-0.09206981,0.27077848,-0.18951313,-0.12597686,-0.41847718,-0.23638405,-0.04357777,0.41533762,0.10484897,0.27868325,0.10416124,0.056128524,0.40931746,0.13310048,0.13190328,0.3905937,0.21520025,0.3137089,-0.11677107,0.53411615,-0.15534517,0.10180621,0.27448308,0.20161116,-0.31922555,0.20347917,-0.035906218,-0.175568,0.025529701,-0.21981224,-0.01384341,0.10031056,-0.10058458,-0.41389298,0.044232264,0.20193502,0.12628567,-0.233996,-0.35417354,0.08645426,0.40186304,-0.17482086,0.22762036,-0.03283682,0.016145565,-0.12199999,-0.26469707,-0.13149509,-0.09745514,-0.06906221,0.09746427,0.16345844,0.37666225,0.5756233,0.2045274,-0.031507194,-0.16625822,-0.56330955,-0.26440987,-0.03059581,-0.11759609,0.20153722,0.2658483,0.34389153,0.104952514,-0.036208212,0.26920018,0.4266932,-0.038977064,-0.11808258,0.4073354,0.3351537,0.032504074,-0.3345648,0.38455126,0.06069892,-0.012620024,-0.08677224,0.35010728,-0.20616946,-0.30255243,0.17377904,0.028719626,0.29452056,-0.1794112,-0.13526976,0.2683743,0.23885813,-0.46838057,0.31896254,-0.2346716,-0.069777094,-0.014115162,0.01223807,-0.1585381,0.075157344,-0.05780206,0.13430375,0.28729916,0.076925844,0.057860248,-0.10794797,-0.17699462,-0.06966685,0.045818135,-0.11144631,0.19808611,-0.1862112,0.021773033,0.30562434,-0.013690002,-0.14495274,0.06318371,-0.2395832,-0.029014027,0.037199363,-0.11686891,0.05070218,0.07470994,0.115573615,-0.42956975,-0.25613835,-0.2788701,0.30252093,-0.025616385,-0.20567729,0.21310501,-0.050791778,-0.26579314,-0.7037752,0.0733711,0.10061947,-0.043887023,0.22896491,-0.09681468,0.097054526,0.13666612,-0.30937213,-0.08072826,-0.066194385,0.13461478,-0.06505287,0.035814468,0.34055805,0.29491144,-0.100150265,0.18411121,0.09296826,-0.346849,0.04889916,-0.24762288,0.19715509,-0.12950552,0.0702255,0.1335533,-0.014758613,-0.08429408,-0.08487174,0.24715284,0.3925275,0.28488845,0.22970435,-0.091252565,0.10878047,-0.040157236,0.0037246235,0.19203842,0.23366675,0.3249991,-0.007953085,0.15702221,-0.015637044,-0.11748516,-0.12092647,0.0054273307,-0.349091,0.07407968
C2,0.0010485128,0.14497405,-0.09746588,-0.12510937,-0.13996878,-0.06304404,0.31287685,0.3731397,0.07502524,0.3224664,-0.3407314,-0.25479272,0.21694168,-0.41115806,0.06885551,0.044268753,0.0007046871,0.23658964,0.14483932,0.14268169,0.20047443,-0.098961286,-0.117376976,0.16188283,-0.20092928,-0.2513129,-0.3048948,0.056083582,-0.0952686,-0.43317887,0.3859709,0.051445708,-0.027943663,-0.058433104,0.30146122,0.08533414,0.053992882,0.053808104,0.43230245,0.08039306,-0.04675641,-0.3609584,-0.11824893,-0.29361773,0.1714263,-0.01759737,0.013976224,-0.017588537,-0.12127282,0.09925239,0.31315923,0.20390335,0.25100392,0.10001621,0.0156085715,-0.252368,-0.045102127,-0.28269538,-0.07027385,0.0633445,-0.1357409,0.10637974,0.23470247,-0.472594,-0.22727525,0.053759098,0.056881785,0.063752234,-0.28903762,0.061887134,-0.014142105,0.09493074,-0.35727203,0.18467547,-0.12248887,-0.37207553,-0.28972697,-0.11878099,0.33954686,0.16111487,-0.0016617626,0.3194505,0.4053824,-0.033395253,-0.25221536,-0.21727383,0.15267831,0.15414602,0.07232891,-0.17095065,-0.43567425,0.42619798,0.06637341,0.0010316111,-0.29356265,-0.31051904,-0.13103098,0.30298638,0.011161402,-0.09582991,-0.5841886,0.060513094,0.17733821,0.2732333,-0.14319994,0.14517713,0.04880698,0.27482533,0.3308661,-0.17160144,0.23233235,-0.12656292,-0.42363024,-0.5199876,-0.12113675,0.006669609,0.2220779,0.16734366,0.26360562,-0.05379121,0.018471472,-0.24861127,0.15502825,0.5157098,-0.119182795,-0.00010738522,0.033232808,0.23218748,-0.3934304,-0.3354719,0.069238275,-0.17678976,-0.052199468,0.21509019,-0.0032009408,-0.33408117,-0.17213729,-0.034961805,0.3772432,0.15418541,0.010338582,-0.18664828,0.19622166,-0.1346076,0.06569812,0.3210451,-0.17960748,-0.10006402,0.45843002,-0.2760236,0.09960256,0.33423325,0.26814824,-0.37870568,0.20981473,-0.00045796484,0.2588092,0.16719234,0.32220927,-0.026544932,0.6147176,-0.34991235,0.24092677,0.09228292,-0.3164929,0.018605493,0.22313744,-0.007055007,-0.09857436,0.10254711,-0.017843973,0.39305583,0.21884337,0.06988924,-0.3165292,-0.055626564,-0.5655591,0.08956843,0.12727489,0.53571266,-0.3396128,0.30259708,0.20037001,-0.1494521,-0.17796345,-0.22899076,0.38662577,0.31521994,-0.18564826,-0.03943475,-0.037862852,0.100876756,-0.11850839,-0.36940175,-0.17067721,0.024964355,-0.03278384,0.031198144,0.0015356019,-0.1011666,0.38387775,0.24448253,0.018049087,0.16325,-0.14508566,-0.024115592,0.005526647,-0.29328048,-0.037045196,-0.07432489,0.48618758,-0.28274533,0.19291931,0.079054564,0.21504056,-0.084917374,0.13377257,0.0946954,-0.27828968,0.2239945,-0.47574508,-0.28994152,0.23243997,0.2474269,-0.022355542,-0.05448001,-0.15343465,-0.102377556,0.31727567,0.3401843,-0.13555768,-0.2521151,0.05545095,0.29293242,-0.07692848,-0.140116,0.17637403,0.024661526,-0.31363958,-0.05798573,0.036316097,0.09580834,-0.21434656,0.01991228,-0.31086904,0.24305494,-0.3369732,-0.44836342,0.17173618,0.32069814,0.26120844,-0.08256333,0.38809755,0.0464924,-0.37353277,-0.09017914,-0.0071742907,-0.32021025,0.4124212,0.1342622,-0.07952113,0.24306455,-0.26355195,-0.12296299,0.26332888,-0.27777633,-0.17109483,-0.2881403,-0.21983728,0.043550253,-0.32956398,0.41138744,0.005625464,0.31030697,-0.17756552,0.07537112,-0.26910543,0.49666467,-0.026240058,0.118653625,0.13784695,0.19583017,0.057516873,0.011446007,-0.14568487,-0.1707852,0.17709294,0.05106213,-0.07268309,-0.13887995,0.23359656,-0.4565138,-0.61879313,0.047946792,-0.14454481,0.38045904,-0.16074674,0.25648338,0.16812775,-0.05754883,-0.012484662,-0.26160932,-0.006577648,-0.47742784,0.47820994,-0.2103512,0.0044484586,0.2124187,-0.14445719,0.038270388,0.013436936,0.18623883,0.21020219,0.053867195,0.5350665,0.09146762,0.24372867,-0.005318869,0.36811385,0.34528792,0.17310224,-0.26437634,-0.2805181,0.69965667,-0.10958765,0.4673295,0.120300986,-0.20186144,0.25956964,0.040633217,0.156034,0.094125144,0.06412204,-0.07038953,0.15753141,-0.08388897,-0.13372512,0.08884047,-0.042827226,-0.021579687,0.76642495,0.18680343,0.14662132,0.029504858,-0.124271765,-0.11210319,0.030451583,-0.56584084,0.020165239,-0.023496155,-0.3656709,0.10595557,-0.19901848,0.2885017,-0.259824,0.22232333,0.1633539,-0.04870837,-0.29166943,0.04852809,-0.2524423,0.24618372,-0.22714779,0.20417248,-0.018378899,-0.11982477,-0.11241314,-0.03652887,0.48683193,0.2353994,-0.2762832,-0.22909239,0.14630967,-0.2938655,-0.5537513,-0.18428048,-0.29252928,0.1973409,-0.45066962,0.17406666,-0.20960715,0.07037604,0.011961915,0.21021137,0.21118397,0.1625869,0.008133844,-0.052675836,-0.010117887,0.41118765,-0.56624424,-0.12507713,0.3585842,-0.16115692,0.031647153,-0.19345802,-0.1858468,-0.20131186,-0.114612006,0.10181254,-0.16404149,0.25924903,-0.18843642,0.014364958,0.16263561,-0.016473725,-0.35078007,-0.20835513,0.113129824,0.15886739,-0.06437166,0.23337692,0.26707384,-0.015823312,0.09723534,-0.045096926,-0.19300988,0.21287262,0.22513075,-0.09967225,0.08018893,0.14645484,-0.14580311,0.3976189,-0.15805206,-0.23906532,0.16308528,0.005385263,-0.29374757,-0.43200862,0.13038301,0.065245666,0.40716314,-0.22995096,-0.23632342,0.05859611,0.07045027,-0.23597899,0.0345916,0.22059512,0.22476158,-0.55352074,0.025914453,0.01459264,-0.17032853,-0.0794891,0.2502051,0.31861344,0.092486836,0.088881165,0.05369603,-0.2591,0.17367738,-0.10840647,0.0008351542,0.024503915,0.074600264,0.5372263,-0.46894613,0.1418443,-0.21872179,-0.5765253,-0.23043907,-0.0038075522,0.3644493,0.18779556,-0.33243972,-0.34413832,0.28102893,0.02504094,-0.18980709,0.17254335,0.201381,0.03937038,-0.53999287,-0.28778443,-0.15223834,0.07595441,0.012683019,0.16255136,0.3664114,0.35419396,0.16317496,-0.16695362,-0.053548932,0.23278645,0.02177953,0.087680824,-0.120396025,-0.01786219,0.071265325,-0.30877608,0.111704625,-0.13351136,0.124829486,-0.14815465,-0.16371906,0.38620543,-0.17938319,-0.22846231,-0.026884608,0.16652265,-0.2263314,-0.07586373,-0.10295365,0.19090542,-0.041215397,0.027560815,-0.32929045,-0.18348959,0.061899647,0.09450564
C3,0.12971464,0.31898052,0.20013133,0.027444817,-0.035724476,-0.1012872,0.30838782,-0.30883062,0.4049294,0.35082948,0.48862192,0.17301896,-0.15978777,-0.1011696,-0.35377243,0.50023043,0.1774961,0.24658921,0.4350872,0.06990777,0.15489608,-0.18491381,-0.041308858,0.08478344,-0.016808473,0.16884044,0.52750164,-0.10367391,-0.09613811,-0.069769755,-0.013106346,-0.51279426,0.036734775,0.0109941065,0.12825765,0.052060165,-0.32998943,-0.15978299,0.01811352,0.30530018,0.030830733,-0.21522906,-0.035464443,-0.16692826,0.07679114,0.2897711,-0.18300425,0.70050406,-0.24935365,-0.13681096,-0.18019281,-0.0275057,0.03754298,0.07108575,-0.029436015,0.0470928,0.003983047,-0.043291412,0.3603791,-0.16105795,-0.25839484,0.21516374,0.15222207,-0.48806345,-0.1316284,0.23582098,-0.54105085,0.3924886,-0.4940288,0.1667189,0.36013862,-0.16181855,0.039098177,0.4028656,-0.28309092,-0.29988754,-0.02240492,-0.38037136,0.39105868,-0.047977034,-0.010699667,0.06470056,0.17956126,0.08364364,-0.46963477,0.0098499805,-0.1865277,-0.28153375,-0.022034481,-0.071611784,-0.14290819,-0.18098766,0.46667886,0.14413232,-0.5183275,0.29545176,0.13405249,-0.4612937,0.12852518,0.14341891,0.11610587,-0.42429402,0.5005594,0.4812405,-0.2745854,-0.10287167,0.23574385,0.5513159,-0.15867868,0.22657552,0.6097872,0.18036506,-0.22632846,-0.20456196,-0.5680942,-0.017348066,0.41391063,-0.1226141,-0.14045864,-0.04411126,0.05750849,-0.13946044,0.16831678,0.22786564,0.32557422,0.0007760897,0.28741726,-0.047984738,0.23016846,-0.49138597,0.25667155,-0.6161552,0.03323235,0.047115467,-0.16991991,-0.12732625,-0.13770589,0.105962574,-0.11205832,0.51345384,0.075526126,-0.17753401,0.08705259,-0.09653666,-0.1186527,-0.42556256,-0.18330863,-0.34892595,0.21161604,-0.5654983,0.0016927253,0.08138168,0.319192,0.005318456,-0.03913716,0.34136644,0.4685188,-0.022718497,0.020437758,-0.15063736,0.6549101,-0.02110453,-0.500287,0.323921,-0.13837244,0.2315822,0.27683648,0.19946066,-0.17399666,-0.44191027,0.17326924,-0.23237765,0.015213732,0.020231612,0.23116344,-0.09933865,-0.35409427,-0.24397555,-0.11719561,-0.32209435,-0.1623308,-0.21428707,0.03663384,-0.14031288,0.04584135,-0.05987816,-0.17058136,0.19705832,-0.1953291,0.08429867,-0.01713664,-0.052102864,0.3031591,0.035149075,-0.08565123,0.020830756,-0.5173606,0.07593989,0.1810309,0.1297732,0.056973264,0.26090586,0.1713978,0.069033965,-0.031518087,-0.2908513,-0.5363112,-0.26869562,0.022169024,0.18350309,-0.14042714,-0.38714784,-0.02313435,-0.2772019,-0.13737324,0.012437766,-0.06530119,0.75548786,0.31584385,0.21774824,-0.65826595,0.16765502,0.3049306,-0.10334582,-0.25563017,-0.46407354,0.5120525,0.4735435,0.4013118,0.23422928,0.14036195,-0.45038134,0.049375273,0.08284603,0.14545509,-0.24616325,-0.104685605,0.025994748,-0.4080385,0.19181734,0.3512682,0.14220612,-0.7281426,0.11586471,0.2651852,0.15273957,0.009292416,-0.03532805,0.25584677,0.0784671,0.5432594,0.12714806,0.112647094,0.02249901,-0.09910271,-0.18709627,0.20581576,0.020488653,0.25623423,0.17340797,0.0056974515,0.22245935,0.06993279,-0.32614204,-0.05896186,-0.41156134,-0.5007766,0.010829229,0.10483183,0.39151472,-0.09892331,-0.09544008,-0.30046535,0.11915235,-0.72035545,-0.050968997,-0.3277596,0.21126248,-0.30479956,-0.20337081,0.22041392,-0.10564614,-0.19409636,-0.11816307,0.16148043,0.32974836,-0.312293,0.24569443,-0.12542048,0.5126418,-0.33500493,0.09412551,-0.09179114,-0.33818287,0.15207401,-0.2078188,0.17816146,0.015915848,-0.286234,-0.019782986,0.3575298,0.07282472,-0.16564836,-0.10148636,0.14151,0.008104,0.058809757,0.18483683,-0.089969024,-0.24718703,0.2564267,0.12027356,-0.23032114,0.22295189,0.28131667,-0.3525982,0.14891346,-0.07541206,0.09110163,0.28425574,-0.012058757,-0.32638502,-0.14772187,0.104318865,0.17135741,0.42544943,-0.51200914,-0.018897928,0.06206927,-0.05772861,-0.054997154,0.38793987,-0.07995965,-0.17429057,0.58028907,-0.09416626,0.39533693,0.27392286,0.09673771,-0.030843318,0.39559287,0.23886341,0.08771409,-0.36178818,-0.31835768,-0.38926893,0.20949402,-0.46617347,0.15506846,0.03157845,-0.14892215,-0.033975445,-0.5482758,0.48077253,0.03181954,0.07420572,0.039458178,-0.31812894,0.551989,-0.34237713,0.08187348,0.40380192,-0.39203098,0.15806188,-0.23517291,-0.118971266,0.05934288,0.05692929,0.34125012,-0.44142857,-0.32360315,-0.017822284,0.33690822,-0.05621303,-0.24637158,-0.23172301,-0.048344128,0.17979258,-0.45370406,0.15792531,-0.32320854,0.33493617,0.075425215,0.064536005,0.32049218,0.81224453,-0.53631395,-0.1711143,-0.15462077,0.06319921,0.12128941,-0.15292501,-0.091542035,-0.02971118,-0.019042239,0.071667865,0.03810448,-0.25009248,-0.062669635,-0.41832036,0.3631904,0.005626403,0.20054275,-0.269497,-0.23387338,0.21555589,0.005841762,0.12413115,0.12587324,0.09382841,0.13823153,-0.09654067,-0.018498056,0.10461989,0.40110868,-0.15826832,-0.26432633,0.29057336,0.13701588,-0.16522184,-0.327064,-0.08266615,-0.56925714,0.004518766,-0.0065331496,0.064303584,0.1983619,0.26538557,-0.46759552,0.27666515,0.1511594,-0.06796049,-0.11427591,-0.1946488,-0.34685427,-0.1550039,-0.20560625,0.19862369,0.22029345,-0.17684212,-0.23934251,0.4908792,0.05821532,0.019419022,-0.20658143,0.036075074,-0.014905296,0.08998665,0.33939585,-0.0201546,-0.5122384,0.34279135,0.335788,-0.5046459,0.23216498,0.03436041,-0.30795833,0.5147352,-0.16633561,-0.1196585,-0.3007539,-0.29000047,-0.018376533,-0.45562613,0.15937087,0.39075065,-0.12489126,-0.23664856,0.17138986,-0.15539038,-0.355402,-0.016481161,-0.116814755,-0.27734172,-0.4360314,0.13345255,0.13748942,0.071449935,0.62395144,0.23700368,-0.015609514,0.00936304,0.6063378,-0.5041395,-0.121485904,0.35360947,-0.38264838,-0.18596165,-0.058379762,-0.39760324,-0.13097976,-0.018769674,-0.018197205,-0.3134687,0.293681,0.09122352,-0.32704553,0.29170477,-0.74855614,-0.38969392,-0.09371795,0.094223514,-0.39284503,-0.29555562,0.32494134,0.28854766,0.34566963,-0.1347642,-0.31974393,-0.21661514,0.36338425,0.08396804
C4,0.36388913,0.15552928,-0.27195624,-0.06275342,-0.25912592,0.467157,-0.0023605116,-0.15283757,-0.20145014,-0.1681828,-0.0125608295,0.41129634,0.38599554,0.15298289,0.24354044,0.615615,0.1358377,-0.34794495,0.16534045,0.24755907,-0.43789142,0.02766918,0.15477458,-0.037319638,-0.07378512,-0.17803809,-0.020018995,0.14991602,0.256431,0.14104556,-0.2759218,0.06273098,-0.10168239,0.26903766,-0.072965294,-0.28000525,0.11507421,-0.12966959,0.26415232,0.16311514,-0.023869662,0.23000614,0.09552549,0.15721712,-0.10708163,-0.22194603,-0.061995417,-0.1734192,0.059016116,0.31359303,0.0117469765,0.23476917,0.08098587,0.2598121,0.2780194,-0.20971492,0.13939524,0.1207019,-0.2529692,0.3631803,-0.14861307,-0.08965146,0.06929093,-0.033399995,-0.43728098,0.42832494,-0.14023691,-0.02693969,0.04367254,-0.0014064647,-0.123033166,-0.46658555,-0.23085195,-0.1816284,0.07431005,-0.19380653,0.05097717,0.2720629,-0.2213243,0.14127429,-0.07101813,-0.047235064,-0.32235685,-0.075990915,0.2510331,0.15179189,-0.04297281,-0.1522508,0.016402856,-0.12732944,0.2865107,0.2600749,0.3705874,-0.16897371,-0.21858719,-0.057068624,-0.025563441,0.0022615548,0.033886567,0.12220867,-0.071359225,0.66952217,0.04437683,-0.07027687,0.021315195,-0.27956504,-0.48331112,-0.25227153,-0.20432863,-0.046819046,-0.062450416,0.14169663,0.25621605,0.22037989,0.5548385,0.033257656,0.024557985,0.19793895,0.17689648,-0.030366436,0.1932056,-0.04005478,0.2809315,0.6798213,0.10440314,-0.01405219,0.32875726,0.2870517,0.05376554,0.28669527,0.111699164,-0.43669683,0.09096678,-0.040378474,-0.28803062,0.020365864,0.43273723,0.0017047115,0.1549334,-0.07577332,0.08631132,0.102864735,0.25312144,-0.27143118,0.06631726,-0.2552098,0.2787142,-0.12606677,-0.16490114,-0.008805186,-0.08797465,-0.2829752,0.016525146,0.117581226,-0.22956464,-0.14491934,0.14530933,0.0970169,-0.22543469,0.30181924,0.07041722,0.13896737,0.1978519,-0.21495926,0.0025375746,-0.13905889,-0.24454018,-0.0667741,-0.062909134,0.2762123,-0.39830142,-0.16352591,0.35379538,-0.2903527,0.15827519,-0.17960358,-0.11854723,0.21692207,-0.08881223,0.29463503,0.032991976,-0.046564557,0.28847387,-0.052922472,-0.086542524,-0.3182705,-0.5363095,-0.039419547,-0.16136762,-0.43905386,-0.24965966,0.30349806,-0.020813242,0.010955475,0.1993683,0.062013775,0.46623415,-0.6330012,-0.5683449,0.25615886,0.18108007,-0.42637217,-0.30098987,0.46628854,0.09848857,-0.072371915,0.37144005,-0.16289794,-0.24419531,0.018733844,0.21879056,-0.14468056,-0.30167156,-0.13672361,-0.17826304,-0.26779205,0.086276636,-0.4225157,0.11225471,0.08553347,0.5157058,-0.36997816,0.043702148,-0.48920164,0.18258278,0.18339618,-0.20657292,-0.07481823,-0.031437375,-0.13160986,0.25316715,0.2520248,0.19551226,0.076174304,0.14999986,0.1477049,-0.15712088,-0.14010426,0.15226609,-0.24429885,-0.08590656,0.008630667,0.07860931,-0.065024815,-0.20820022,-0.06133485,0.1672084,-0.19871828,-0.083763875,-0.25884438,0.060402803,-0.12965587,-0.1073215,0.08039849,-0.33919892,0.25231552,0.17175123,-0.027042523,-0.08763479,0.21817222,-0.0847123,-0.20486996,-0.21457441,-0.28303245,0.17033619,0.2122752,0.11160258,-0.16293935,-0.12138141,-0.03705075,-0.01508918,0.45266575,-0.054492082,0.018425439,0.035173226,-0.117932625,0.06163873,-0.09155041,-0.039704308,0.034995645,-0.35458568,-0.37172222,-0.19941369,0.21469441,-0.19162509,-0.25490457,-0.16832666,-0.12277678,0.29491496,0.2794446,-0.2887443,0.16239096,-0.22233589,-0.20532781,-0.06381962,0.105553046,0.20089136,-0.17014986,-0.2851286,0.12360592,-0.45948148,0.31385705,0.054111294,0.03743049,-0.08893345,0.032349724,0.38337946,-0.21568486,0.16532543,-0.10708088,-0.21796924,-0.19950709,-0.026987653,0.17885527,-0.014944218,0.20613194,0.30087006,0.11119332,0.10541152,0.19127668,0.272248,0.039718498,-0.045980673,-0.08596064,0.16081871,-0.31459332,-0.06675443,-0.013663389,0.3049244,0.20850587,0.22298944,-0.21375361,-0.18835136,0.19118726,0.22697067,0.15531495,0.16350664,-0.4282773,0.027462747,-0.057302654,-0.37424427,-0.15570273,-0.20725504,-0.028627887,-0.030482225,0.09471235,0.115788676,0.106249504,-0.37644523,-0.48273683,-0.04343366,-0.07834679,0.36750856,-0.53683376,-0.011495933,0.037533876,-0.15712368,-0.1994651,-0.09168885,0.43689543,0.16009289,-0.56906414,-0.51053464,-0.33472824,-0.51015526,-0.20277289,0.6439799,-0.24140666,-0.23421887,0.21678615,0.3025085,0.15476367,0.37614694,-0.10940187,0.0003257133,0.3663499,-0.10468671,0.038329154,-0.07998894,-0.23896188,0.03904701,0.1649695,-0.1465993,-0.11889592,0.50881416,-0.22654817,0.3489683,-0.13696131,0.12197048,-0.26730508,0.41215488,0.25457975,0.29275072,0.17056793,0.30968133,0.029915407,-0.2014899,0.2651174,-0.16206244,-0.3276955,-0.20235515,0.19332042,0.2114723,0.44265813,-0.056743026,-0.09639626,-0.29318237,0.16934358,-0.1584252,0.03199485,-0.32313815,0.08796172,0.30034247,0.018393096,0.024994526,0.20493177,0.22565123,0.4095901,-0.23363622,0.21800983,-0.32720476,0.19425118,0.27644727,0.39616972,-0.19342554,-0.11842587,0.17429754,-0.1533798,0.13895693,-0.19285884,0.22182977,-0.03325426,0.021502376,0.24621373,0.21853761,-0.1301414,-0.12526837,0.1328344,0.064842686,-0.19721416,-0.30771783,-0.17653811,-0.5604434,0.27715847,0.41480476,-0.1460921,-0.02246942,-0.116289005,0.23887476,-0.20941131,0.4646214,-0.48606753,0.120381415,-0.23572184,0.086358756,0.427166,0.103996724,0.4086916,0.092250586,-0.06834312,0.14161548,-0.12258859,-0.12000463,0.025961742,-0.007791035,-0.3526988,-0.14926434,0.08048594,-0.14812502,-0.54633754,0.14531049,-0.04102795,-0.1799244,0.23791066,0.37100387,0.0261839,-0.41080803,-0.31173173,-0.12665996,0.23855713,-0.71970004,-0.16305077,-0.04411902,0.0476238,0.1253506,0.33423096,-0.39799815,0.015222192,0.39522567,-0.04547505,0.304141,-0.09909423,-0.0027367696,-0.23582572,-0.017187677,0.08398873,-0.03419724,-0.38062525,0.11371899,-0.1184639,0.45855707,0.38668466,0.47231495,-0.19267823,-0.016972126,0.09533716,0.055053104,-0.2045097,0.26507467,0.12138822,-0.21237288,0.11094776
C5,0.25609034,0.20668048,0.23755401,-0.22652534,-0.07867618,0.05019778,0.17963809,-0.07938502,0.03085678,0.0011221841,0.24660003,0.13911757,-0.18168065,0.16837554,0.18691254,0.07828766,-0.039871346,0.63150644,-0.12250386,0.04032449,0.02199839,0.25722858,0.31688526,0.46677288,0.07510528,-0.079871036,0.23389709,-0.051626585,0.03316267,0.39642632,0.018127702,-0.018502608,0.23769501,0.06898014,-0.5183197,0.2672211,0.42916155,0.12424508,0.4390685,0.07645806,0.013694689,-0.36089438,0.0740857,0.5562251,-0.37761924,-0.11534387,-0.3508051,0.6044296,-0.11919892,0.24124786,-0.31003553,0.46723816,0.3355706,0.49161434,-0.19673258,-0.060482442,0.0305337,-0.051745556,0.1472709,-0.2281062,-0.18254104,0.12854728,-0.015153959,0.20884272,-0.24328059,0.43355197,-0.11381814,0.0066798814,0.2011638,-0.07068871,0.15368523,-0.19748867,-0.15264395,0.29377538,-0.21688098,-0.044032983,-0.21173143,-0.033150457,-0.19236043,0.44970778,-0.26181948,-0.20833355,0.13561893,0.5489456,0.2365237,0.04131849,-0.00034236163,-0.20194659,0.13477886,0.021176994,-0.36387768,0.5236353,-0.2939035,-0.041294035,0.32231587,0.3747371,-0.23895246,0.2640635,0.20706043,-0.24304062,-0.11378478,0.30740893,-0.12424263,-0.22427754,0.17041647,-0.04280296,0.19426379,0.15856253,0.36950916,0.33507353,0.26588917,-0.12850507,0.022477672,0.0991484,0.14490819,-0.44044262,-0.30841863,0.363279,0.18261708,0.25479588,-0.11500201,-0.21336102,-0.23357277,-0.011447251,0.15090635,0.1380091,-0.34829074,-0.062994406,0.3509431,0.030139811,-0.11055735,-0.08456081,-0.60113186,-0.62209064,0.0071631595,-0.2513144,-0.0973726,-0.14907038,-0.14884862,0.54979396,0.19187823,0.2646355,-0.26874593,-0.25250214,0.17785631,-0.41859353,0.3959256,-0.2939137,0.0055263713,0.35224116,0.28590125,0.041361913,0.14543375,-0.53075886,-0.30218732,0.25757128,0.22225448,-0.050144874,-0.4078188,-0.38168254,0.4634542,0.07393271,-0.2741134,-0.24245375,0.14836712,0.12534338,0.039233144,-0.12878722,0.11973149,-0.17126012,-0.21996938,0.24329084,-0.23156005,-0.16479579,-0.11215913,0.120847605,-0.37570655,0.04468988,-0.1965696,-0.112448946,0.30814597,-0.19428036,-0.15712918,0.3391047,0.14544848,-0.032721408,-0.16007844,-0.13845423,0.04444772,-0.10306394,0.27210823,-0.10420601,0.12063667,0.08342667,0.27517498,0.28187135,0.14229424,-0.25029492,-0.025277525,0.26170745,0.47129136,-0.16523424,0.24449033,0.418304,-0.0299417,-0.43523762,0.55299854,-0.49793214,0.12830092,0.178469,-0.17261365,0.13835835,0.15040699,-0.38019887,-0.018513523,0.052888617,-0.16202816,-0.3994191,0.1376856,0.30342045,0.32080093,0.26214075,-0.37165678,-0.095864,-0.11643175,-0.33878872,0.36838531,0.47506022,0.56292194,-0.28196153,0.4882519,-0.016194478,-0.16699246,0.1503914,-0.47981614,0.047459207,-0.3862496,-0.059716113,0.1501091,0.16389075,-0.0408955,-0.32642737,-0.051486216,-0.11613622,-0.17073748,0.09091525,-0.19204542,0.21022274,-0.12427681,-0.19836414,-0.11574464,-0.3743213,-0.12894279,-0.037978776,0.24413443,-0.16439554,-0.23596233,-0.21486473,-0.28838477,0.19825092,-0.61234087,-0.09440166,0.09802927,-0.17432249,0.02459392,-0.11594426,0.23092309,-0.1764939,-0.039916523,0.18975532,-0.10033946,-0.35362712,0.09079193,-0.67665994,-0.3515452,-0.068325736,-0.3696373,0.024109457,-0.16494516,-0.12163643,-0.24142501,-0.2104654,0.047240645,0.3121084,-0.121901564,-0.3942389,-0.056036945,-0.107776076,-0.38184592,0.6430539,-0.12364849,-0.121603474,0.27493554,-0.22979501,0.3163739,0.47872028,-0.36123908,-0.043330632,-0.19713856,0.27056998,-0.060272146,0.15875468,-0.19308355,0.08448784,0.12912586,0.11156194,0.37803409,-0.11470366,-0.015155323,-0.27960873,0.33399394,-0.28996643,-0.115790285,0.11810275,0.36071578,-0.35489544,0.05041051,-0.22026974,-0.040909495,0.35019872,-0.066938706,-0.03810994,-0.028920874,-0.041321926,0.5527882,0.23312488,-0.119164936,0.105386354,0.13138282,-0.22655353,0.20992905,0.14145704,-0.08564222,-0.06999514,0.19721073,0.16596432,0.28830528,-0.27109468,-0.039233126,0.27959383,0.33271024,-0.20096076,-0.23372835,0.34712496,0.11289623,0.27546945,-0.11454206,-0.41474357,0.5435201,-0.3399484,-0.19996351,-0.23987752,-0.42045113,-0.015203059,-0.29369196,-0.26932818,0.12638146,0.13981232,-0.012414679,0.5670208,0.1352856,0.23636362,-0.17714715,-0.33730665,0.1637654,-0.49215713,0.19824573,0.52190423,0.58340245,-0.01810411,-0.06859613,-0.04573998,0.2067442,0.094431296,-0.07125807,-0.29459372,-0.20089345,-0.16637544,-0.2056652,-0.28354606,0.16921109,0.3686121,-0.41452765,-0.18655601,0.6057294,-0.26575768,-0.2191059,-0.34879208,0.039754063,0.2140494,0.29306677,0.33454096,0.14387125,0.37087706,-0.44343737,-0.37811393,0.31960234,-0.2282211,0.2248058,0.019196156,0.039050292,-0.28130946,0.3450647,-0.25881803,-0.17989507,0.026304951,-0.13420194,0.051397566,0.030361397,0.09244025,-0.029259518,0.015625168,0.46470717,0.031078795,-0.21406308,0.19860858,-0.44824773,0.6385872,-0.16335587,0.49962053,-0.21523479,0.08418373,0.08168873,0.15625675,-0.11857671,0.11516715,0.25231355,0.47025865,-0.040807538,0.41247958,0.23918054,0.04981466,-0.30210167,-0.016415186,-0.06342079,0.17089623,0.16778204,0.10120282,-0.015295766,0.13835669,0.07631176,0.30003247,-0.23468716,0.36496824,0.19412157,0.4630227,-0.14748932,-0.018358367,-0.22465944,-0.5423485,-0.17850935,-0.05553249,0.113918655,-0.13508305,-0.17576635,0.4400426,0.049588274,-0.05855579,-0.16237545,0.060555235,0.26619816,6.836653e-05,0.27493474,2.4009496e-05,0.3923792,0.0035318434,0.15783906,-0.17002806,-0.035133548,0.35349745,-0.0053737834,0.4957949,-0.07047599,0.029771902,-0.34978515,-0.3725725,-0.18769816,-0.072952166,0.1069421,-0.32111293,-0.31700486,0.21304995,0.36698535,0.09140822,-0.24196093,-0.17462397,-0.69267714,0.06029088,0.09962408,-0.066780165,-0.11449451,-0.54342127,-0.45695174,0.32408622,-0.04115463,-0.1680524,0.10689661,-0.44916594,-0.548711,-0.32301095,0.7801949,0.60059303,-0.26856536,0.28735116,0.12200734,-0.0048762336,0.47813964,0.36117095,0.47253442,-0.031850964,-0.06799191,-0.107365884
C6,-0.13750777,-0.14589301,-0.32050145,0.36525607,0.33130798,0.07375535,0.019634167,0.2014766,-0.42156273,0.22296518,-0.6186061,0.06287487,-0.03414818,-0.14919761,0.22091442,-0.30301434,-0.20120877,-0.54705334,-0.33555079,0.01168181,-0.10370502,0.061021924,0.1609069,-0.3949855,0.2869273,-0.30094194,0.23975033,-0.0029378533,-0.078547016,-0.08045936,0.045288224,0.16673005,-0.06397829,-0.13963498,0.12068934,-0.24368586,0.24708232,-0.23075925,-0.1569155,-0.2927898,-0.15815195,-0.051339284,0.40884918,0.10585649,0.34250778,-0.35819668,-0.057931304,-0.114021294,-0.04231997,0.09596595,-0.13333699,-0.09243027,-0.041992083,-0.40982625,-0.13563836,0.48974204,0.067289904,0.15251097,-0.1278205,-0.15409695,-0.121856995,0.10331521,0.017534427,0.040775463,0.079650246,-0.2707354,-0.16324425,0.06799386,-0.028957807,-0.1637639,0.23257779,-0.020410884,-0.2664887,-0.0047328733,-0.53533614,-0.06711758,-0.11168686,-0.070434384,-0.3704436,-0.056323547,0.19869977,0.048662886,-0.028098553,0.06517795,0.33266297,0.06126812,0.13597968,-0.028792135,-0.14923093,-0.014618956,0.17817529,-0.012408722,0.08569132,-0.0055521987,-0.10720838,-0.026825562,-0.3378261,-0.061518095,-0.06828698,0.049595356,-0.34372813,-0.1972206,-0.3966198,-0.13126098,0.06522543,0.0077296793,-0.15992495,0.19369158,-0.17260775,0.13922259,-0.00954726,-0.20214415,0.17441313,-0.18216746,-0.29966006,0.11457123,0.1666475,-0.18035571,-0.28601965,0.06695348,-0.49013716,-0.37272465,0.021931134,0.042337537,-0.17723863,0.46049634,0.39261886,-0.1571745,0.08513753,0.6249812,-0.39229208,0.069616795,-0.14855188,-0.052512184,-0.2902996,-0.14229308,0.07519959,-0.3937387,0.09420427,-0.20855016,0.07357049,-0.09368994,-0.077737704,-0.22554356,0.29309326,0.18908335,-0.28354064,-0.12807599,-0.32623634,-0.24608389,-0.39553577,0.06744352,-0.0055259615,0.41024616,0.21992484,-0.10049877,-0.106151156,0.36983988,-0.39082274,-0.2324458,-0.45998883,0.1561369,0.07262841,0.120134905,0.056860946,0.05421132,-0.008736685,0.15585604,-0.39403847,0.058016002,0.0318739,0.37081167,-0.1369678,-0.22680032,-0.12499162,-0.0936494,-0.12996891,0.02483023,-0.27890423,0.115603104,-0.30527592,-0.13256076,0.027065068,0.02559584,-0.09447169,-0.09229837,0.06587764,0.0008792486,0.066217564,-0.2015463,-0.47064474,-0.059233245,0.1216734,-0.9021496,-0.23654884,0.27740943,0.56135297,-0.016130429,0.2271162,-0.2790921,-0.05447597,0.11634095,-0.070596404,-0.010611609,0.6954914,0.0673922,-0.10651406,-0.034158103,-0.26536047,-0.21941833,0.2297504,-0.0046516284,0.052468278,0.31413898,-0.24736372,0.29238516,-0.19592547,0.014764804,-0.14772567,0.50283813,0.20887347,0.25931552,0.11022173,0.23581514,0.07099761,0.18808031,0.046914335,-0.37487155,-0.19273373,-0.19813009,0.012740895,0.3278798,0.2851119,-0.07344247,-0.10836823,-0.02403821,-0.17952663,0.20747742,0.44170213,0.10348376,-0.35057136,0.3804485,0.14525172,0.06362827,-0.047465634,0.111500725,-0.07786079,-0.039213173,-0.0031955354,0.18976156,0.28072864,0.035035152,0.21629216,0.35422355,0.13058984,-0.08481263,0.088422544,0.3367475,0.23685119,-0.043604635,-0.1773381,0.14427453,-0.2718048,0.018677033,0.109217905,0.51363206,0.0478284,-0.1443003,-0.08360248,0.123295635,-0.41650146,0.18871391,-0.23466596,0.2808706,0.10484625,0.19851351,0.10003427,0.21387897,-0.23538408,0.21992189,0.3405158,0.5396065,-0.099092975,0.066109285,0.51408345,0.081492804,0.38967907,0.17817634,0.28018418,-0.26100218,0.5156553,-0.1041884,-0.2164296,-0.12684953,-0.4004017,-0.36079887,-0.111385725,0.013821416,0.12073843,-0.2450718,-0.39622217,0.26280138,-0.4572156,-0.38921297,0.15033767,-0.27165622,-0.008427538,-0.20191261,0.38959867,0.23913981,0.034111574,0.10541563,-0.14156991,0.15488237,-0.36205426,-0.17128032,-0.3769717,-0.22157776,0.19612634,0.023574065,-0.66877323,-0.42920148,-0.55230427,-0.035952285,-0.028548703,0.35372904,-0.004506871,-0.26375365,-0.4302824,-0.102136545,0.11674271,0.19237073,-0.09409332,0.09868972,-0.2698992,0.18741694,-0.30339056,-0.17785147,0.02308565,-0.2732537,-0.27375636,0.12732664,0.10403222,-0.20526427,-0.039963372,0.031116325,-0.07579074,0.25074193,-0.25727957,-0.08892298,0.09224653,-0.5267012,-0.13948157,-0.049953077,-0.17715809,-0.048863344,0.027411103,0.33709672,-0.04775288,0.13776447,-0.049902447,-0.15928078,-0.010404751,-0.41574094,-0.1871137,-0.17547703,-0.5275541,0.2516803,-0.0139307715,0.305941,-0.12944806,0.22085959,-0.5094687,-0.30459547,-0.15230058,-0.0978372,-0.3772115,0.22251272,-0.34516588,-0.06983408,-0.5329007,-0.01444196,-0.16792697,-0.008513719,0.08441887,-0.48429507,0.3680177,0.36251667,0.03821782,-0.041595675,0.03123337,-0.043781918,-0.010222059,-0.2668329,-0.041901827,-0.30701923,-0.01612369,-0.2704369,-0.035722915,0.100121364,-0.103683166,0.2617218,-0.09993061,0.055502616,-0.18018803,0.13232465,0.39449227,-0.20544198,-0.4594122,-0.46834597,0.22522558,0.037662037,0.060510352,0.425904,-0.12045495,0.24430995,0.52197385,-0.09000737,0.026877943,-0.24706498,-0.33893833,-0.030815303,0.15567128,0.30461705,0.14616114,0.35042512,-0.06025099,-0.4349717,0.3466468,-0.12030403,-0.05960346,0.19746792,0.19836447,-0.32912317,0.026995026,-0.2748819,0.045174636,0.28193843,0.032310717,-0.02261455,0.51244146,-0.023337878,-0.28086308,0.27235934,0.24545193,-0.37577108,-0.59942496,0.1058688,-0.50278527,0.2645104,0.39179966,-0.26259777,0.11480079,0.11565544,0.011875723,-0.022753235,-0.35906756,-0.0859464,0.17525211,-0.14323121,-0.046206094,-0.067542285,-0.29013935,0.26101813,0.049422875,0.0069218874,-0.12188973,0.020546116,0.018177502,-0.12292728,-0.071408056,-0.018523183,0.33008736,-0.03841549,-0.15266213,-0.0348827,0.09804168,0.26988554,0.16361257,0.12529099,0.25998765,0.23358333,-0.022174388,0.3296555,0.46902016,-0.0007257387,0.12031745,-0.007825986,0.07505515,0.06226117,0.27688807,-0.061004974,0.089012064,0.41398063,-0.2330506,0.2397447,-0.2276034,0.3298561,-0.46151716,0.35435006,-0.34710252,-0.26689804,0.25669384,0.11927998,-0.076524206,-0.28947103,0.08729149,0.05574631,0.20231415,0.11576934,0.22858939,-0.32423052
