GeneID,feature_1,feature_2,feature_3,feature_4,feature_5,feature_6,feature_7,feature_8,feature_9,feature_10,feature_11,feature_12,feature_13,feature_14,feature_15,feature_16,feature_17,feature_18,feature_19,feature_20,feature_21,feature_22,feature_23,feature_24,feature_25,feature_26,feature_27,feature_28,feature_29,feature_30,feature_31,feature_32,feature_33,feature_34,feature_35,feature_36,feature_37,feature_38,feature_39,feature_40,feature_41,feature_42,feature_43,feature_44,feature_45,feature_46,feature_47,feature_48,feature_49,feature_50,feature_51,feature_52,feature_53,feature_54,feature_55,feature_56,feature_57,feature_58,feature_59,feature_60,feature_61,feature_62,feature_63,feature_64,feature_65,feature_66,feature_67,feature_68,feature_69,feature_70,feature_71,feature_72,feature_73,feature_74,feature_75,feature_76,feature_77,feature_78,feature_79,feature_80,feature_81,feature_82,feature_83,feature_84,feature_85,feature_86,feature_87,feature_88,feature_89,feature_90,feature_91,feature_92,feature_93,feature_94,feature_95,feature_96,feature_97,feature_98,feature_99,feature_100,feature_101,feature_102,feature_103,feature_104,feature_105,feature_106,feature_107,feature_108,feature_109,feature_110,feature_111,feature_112,feature_113,feature_114,feature_115,feature_116,feature_117,feature_118,feature_119,feature_120,feature_121,feature_122,feature_123,feature_124,feature_125,feature_126,feature_127,feature_128,feature_129,feature_130,feature_131,feature_132,feature_133,feature_134,feature_135,feature_136,feature_137,feature_138,feature_139,feature_140,feature_141,feature_142,feature_143,feature_144,feature_145,feature_146,feature_147,feature_148,feature_149,feature_150,feature_151,feature_152,feature_153,feature_154,feature_155,feature_156,feature_157,feature_158,feature_159,feature_160,feature_161,feature_162,feature_163,feature_164,feature_165,feature_166,feature_167,feature_168,feature_169,feature_170,feature_171,feature_172,feature_173,feature_174,feature_175,feature_176,feature_177,feature_178,feature_179,feature_180,feature_181,feature_182,feature_183,feature_184,feature_185,feature_186,feature_187,feature_188,feature_189,feature_190,feature_191,feature_192,feature_193,feature_194,feature_195,feature_196,feature_197,feature_198,feature_199,feature_200,feature_201,feature_202,feature_203,feature_204,feature_205,feature_206,feature_207,feature_208,feature_209,feature_210,feature_211,feature_212,feature_213,feature_214,feature_215,feature_216,feature_217,feature_218,feature_219,feature_220,feature_221,feature_222,feature_223,feature_224,feature_225,feature_226,feature_227,feature_228,feature_229,feature_230,feature_231,feature_232,feature_233,feature_234,feature_235,feature_236,feature_237,feature_238,feature_239,feature_240,feature_241,feature_242,feature_243,feature_244,feature_245,feature_246,feature_247,feature_248,feature_249,feature_250,feature_251,feature_252,feature_253,feature_254,feature_255,feature_256,feature_257,feature_258,feature_259,feature_260,feature_261,feature_262,feature_263,feature_264,feature_265,feature_266,feature_267,feature_268,feature_269,feature_270,feature_271,feature_272,feature_273,feature_274,feature_275,feature_276,feature_277,feature_278,feature_279,feature_280,feature_281,feature_282,feature_283,feature_284,feature_285,feature_286,feature_287,feature_288,feature_289,feature_290,feature_291,feature_292,feature_293,feature_294,feature_295,feature_296,feature_297,feature_298,feature_299,feature_300,feature_301,feature_302,feature_303,feature_304,feature_305,feature_306,feature_307,feature_308,feature_309,feature_310,feature_311,feature_312,feature_313,feature_314,feature_315,feature_316,feature_317,feature_318,feature_319,feature_320,feature_321,feature_322,feature_323,feature_324,feature_325,feature_326,feature_327,feature_328,feature_329,feature_330,feature_331,feature_332,feature_333,feature_334,feature_335,feature_336,feature_337,feature_338,feature_339,feature_340,feature_341,feature_342,feature_343,feature_344,feature_345,feature_346,feature_347,feature_348,feature_349,feature_350,feature_351,feature_352,feature_353,feature_354,feature_355,feature_356,feature_357,feature_358,feature_359,feature_360,feature_361,feature_362,feature_363,feature_364,feature_365,feature_366,feature_367,feature_368,feature_369,feature_370,feature_371,feature_372,feature_373,feature_374,feature_375,feature_376,feature_377,feature_378,feature_379,feature_380,feature_381,feature_382,feature_383,feature_384,feature_385,feature_386,feature_387,feature_388,feature_389,feature_390,feature_391,feature_392,feature_393,feature_394,feature_395,feature_396,feature_397,feature_398,feature_399,feature_400,feature_401,feature_402,feature_403,feature_404,feature_405,feature_406,feature_407,feature_408,feature_409,feature_410,feature_411,feature_412,feature_413,feature_414,feature_415,feature_416,feature_417,feature_418,feature_419,feature_420,feature_421,feature_422,feature_423,feature_424,feature_425,feature_426,feature_427,feature_428,feature_429,feature_430,feature_431,feature_432,feature_433,feature_434,feature_435,feature_436,feature_437,feature_438,feature_439,feature_440,feature_441,feature_442,feature_443,feature_444,feature_445,feature_446,feature_447,feature_448,feature_449,feature_450,feature_451,feature_452,feature_453,feature_454,feature_455,feature_456,feature_457,feature_458,feature_459,feature_460,feature_461,feature_462,feature_463,feature_464,feature_465,feature_466,feature_467,feature_468,feature_469,feature_470,feature_471,feature_472,feature_473,feature_474,feature_475,feature_476,feature_477,feature_478,feature_479,feature_480,feature_481,feature_482,feature_483,feature_484,feature_485,feature_486,feature_487,feature_488,feature_489,feature_490,feature_491,feature_492,feature_493,feature_494,feature_495,feature_496,feature_497,feature_498,feature_499,feature_500,feature_501,feature_502,feature_503,feature_504,feature_505,feature_506,feature_507,feature_508,feature_509,feature_510,feature_511,feature_512
a,0.083991356,0.16087759,-0.8032807,0.02988118,-0.33028793,-0.26503426,-0.44941738,0.20050555,-0.5003602,-0.19172639,-0.055010237,0.24506298,0.073948324,0.13992077,0.26442644,-0.16506246,-0.37714314,-0.41200954,0.15214828,-0.18822466,-0.22659127,-0.08053289,-0.121891364,0.30970508,0.16238359,-0.08899744,-0.0027654395,0.0045339987,-0.29651657,0.29328766,0.538943,0.23840776,0.14959776,-0.017133944,0.057088614,0.27084878,-0.18290105,-0.18013293,0.048027337,-0.11359698,-0.11898158,0.11411675,-0.45825472,0.18292499,0.33255017,0.016798273,-0.2042032,-0.16459812,0.13408986,-0.014811635,-0.100475594,0.020199463,-0.15767163,0.34687704,0.030515552,-0.1109306,0.03636623,-0.049588192,0.24121761,0.4944892,0.13943285,0.44212177,-0.059932936,-0.28677678,0.1646998,-0.08672065,-0.14101425,-0.32539976,-0.48326743,-0.43408123,0.49532664,0.00046864897,-0.062328238,0.0801474,0.1454234,-0.44427887,0.4987248,-0.01133056,-0.0241002,-0.27077216,0.08107458,-0.11852552,-0.2826108,0.11127099,-0.09727121,-0.09412721,0.6230027,-0.15672934,-0.23464829,-0.30177432,-0.025982317,-0.41373208,-0.35362512,0.3810338,-0.1172866,-0.17328933,0.20702279,0.47263288,0.1938959,0.0596568,-0.30356488,-0.14555039,0.4495635,-0.37812206,0.2494791,0.20773026,-0.082065605,0.17535809,0.26842514,0.08539729,0.118099965,0.50965315,-0.44033802,0.034075364,0.113781,-0.6570397,0.25104427,0.52196294,0.46626168,-0.23340479,-0.5014506,-0.20184606,0.0782828,0.3214728,-0.31687212,-0.10537126,0.17378187,-0.13575128,0.28992528,-0.18169504,0.105952725,-0.24111778,-0.8140074,-0.13220516,0.1410594,0.38331753,0.26268402,-0.094374694,0.31145847,-0.09273671,-0.29058632,0.25775045,0.3645606,0.41690814,-0.29664296,-0.3301252,0.13023046,0.3447917,0.5966848,0.031510677,0.33017007,-0.33563796,-0.5009937,-0.021435484,-0.3163625,0.060129598,-0.1388305,0.0051587783,0.5529828,-0.36187285,0.35276496,0.01988678,-0.09697184,-0.42074794,0.061022032,0.13790537,-0.54795694,0.34617317,-0.25027582,-0.51395106,-0.3220309,-0.32702565,0.2698439,0.18161121,-0.16263668,-0.40861806,-0.32962364,-0.11398899,-0.22994047,-0.37063247,-0.2946299,0.10423817,-0.33998793,0.44478464,0.2668583,-0.14388844,0.16499722,0.050340123,-0.25850993,-0.06065695,0.16895357,0.26130244,-0.06382444,0.18723631,-0.106924385,-0.30447105,-0.30374733,-0.6219404,0.37064132,0.43359184,-0.7379502,0.0037897043,0.6764317,-0.1634449,0.043602403,0.00070315227,-0.110471144,0.33888504,-0.10494763,0.10444484,-0.06413129,0.081241645,-0.25061697,-0.13176721,-0.28155044,-0.32432532,0.28898364,0.4150035,-0.043263637,-0.32890883,-0.13870117,0.29665554,-0.08572427,-0.3733411,-0.13505605,0.10941004,-0.033901043,0.026161492,0.21747282,-0.1116453,0.21115789,0.22188213,0.029441133,-0.2829785,0.1620864,0.22788453,0.46952042,0.0034158751,0.5897677,-0.51435316,0.30643305,0.057032056,-0.03572978,0.14672802,-0.055870004,-0.10228494,-0.0058288034,-0.15966758,-0.43493724,-0.06048568,-0.066776074,0.15528879,-0.06819905,-0.15942389,-0.26244903,0.0114416815,0.09653084,0.39598253,0.21799734,-0.30010894,-0.11622652,-0.26983294,-0.41054264,-0.4690238,0.005050659,-0.088943504,-0.053564213,-0.21625015,-0.02076491,0.1770404,0.11801889,-0.25333565,0.2712046,-0.0026927898,0.060821496,0.15675735,-0.11550802,0.11523299,-0.17540008,0.4495728,-0.1801067,-0.24493666,-0.041054025,0.49849147,-0.48823917,-0.04758542,0.1274027,0.12192635,-0.10967642,0.3332869,0.3694391,0.08232404,0.25210935,0.2047092,-0.27492413,0.3204676,0.039799646,0.425944,-0.14537427,-0.20515272,-0.07427407,-0.17388925,0.25974852,0.008618496,0.18292926,-0.32805052,0.18524116,0.45269805,-0.07043459,-0.05066643,-0.059499815,-0.5647273,0.14003474,-0.083695814,0.257594,-0.091166586,0.32429168,-0.573494,0.33342442,-0.3525945,-0.18950436,0.32890624,-0.40171212,-0.48686072,0.038597878,0.26763132,0.06395729,-0.06981961,-0.07876953,0.29500067,-0.22985306,0.22940022,-0.29748294,-0.14156796,-0.22452724,0.37397698,0.23699594,-0.27375457,0.21678656,-0.123722404,0.2581163,0.10568746,0.112608954,0.3692096,0.44752577,-0.26813093,0.31083637,-0.08752563,0.43549225,-0.19269451,0.26662353,0.23733628,0.056788802,-0.38506228,0.57703876,0.12137836,0.07515009,-0.3795544,0.5299702,0.25028783,-0.059577916,-0.32990912,-0.15330252,-0.11680016,-0.08568509,0.010175865,-0.41847768,-0.33382043,0.26525635,0.31169418,-0.056126364,-0.37985173,-0.029164687,-0.29697803,-0.11357021,-0.19165051,0.11611858,0.6541364,-0.7804082,0.19625297,-0.09354835,-0.22398104,-0.30215883,-0.24606301,0.21423626,0.28605983,0.18405698,0.12681913,-0.036080856,0.1356408,0.21036011,0.3722343,-0.008109033,-0.104673766,0.16917071,-0.24361286,-0.040067773,-0.42129722,0.569066,0.29103923,-0.10048579,-0.3489667,-0.03197337,0.5684312,-0.008535914,-0.022203684,0.2215217,-0.05775583,-0.035421364,0.53456026,-0.1560957,-0.1755158,0.017170347,0.12032593,0.31575826,-0.27392974,0.41132098,0.1664407,-0.13552198,-0.19472358,-0.7474096,0.30541375,0.28888837,0.29669723,-0.27564308,0.02179372,0.24273422,0.13335602,-0.15373895,0.2813683,-0.030989926,0.16345164,0.4330842,-0.349239,-0.0003123954,0.06561784,0.48447642,0.31483608,-0.53628016,-0.11695065,-0.15723918,-0.48213857,0.25123492,-0.11099722,0.1411392,0.26337382,0.073075786,0.15649083,0.4214784,0.06344457,-0.13445702,-0.14392865,0.31833735,0.3524151,0.32533506,0.50895506,-0.020378806,-0.29432577,-0.14758424,-0.03603715,0.20238379,-0.18557197,0.20974284,0.30361155,-0.03176851,-0.07495084,-0.71370673,-0.05647543,0.13434668,0.027640035,0.1671678,-0.2934578,-0.12675144,0.4622571,-0.54440033,0.6626988,0.50523275,0.61231685,0.27876008,0.13018301,0.0810957,-0.36956444,-0.47361505,-0.07339547,0.08901486,-0.04556285,-0.36593193,-0.23284626,0.7420973,0.30178633,0.13437775,0.23454648,-0.052134693,0.44923893,-0.037756637,-0.043313254,-0.33244187,-0.018024916,0.3610031,-0.10527915,0.012611359,-0.10014973,-0.24765196,-0.31279373,-0.1777249,-0.48613748,-0.23784482,0.012596063,0.9408174,0.18040273,0.03733663,-0.028812118
b,-0.092333645,0.017720431,-0.11556694,0.25716573,0.13316277,0.16223317,0.011510009,0.13218433,0.15201703,-0.1633791,-0.024835609,-0.09282959,-0.42874074,0.5168922,-0.0393065,0.012636725,-0.1734421,-0.05231145,-0.4791351,0.0005469024,0.0057485625,0.15083274,0.219397,-0.20725283,0.12506063,-0.16853815,-0.0030790828,0.08063176,0.4310317,-0.4530586,-0.12990926,-0.0982413,-0.41437805,0.21654913,-0.16734684,0.33503547,0.39235672,0.23581229,-0.066424794,0.38752612,0.25401413,-0.14567542,0.20181708,-0.40556127,0.20202741,-0.054340705,-0.031689372,0.060257845,-0.116006,-0.17961492,-0.02097851,0.0484229,0.3613571,-0.33050358,-0.15204033,0.116347864,0.152114,-0.16920781,-0.12666258,-0.10589298,0.3779228,-0.15309355,0.12671188,0.23773041,0.077645816,-0.072420575,0.016065199,0.0014758408,-0.27344066,-0.15508601,-0.15838744,0.40804863,-0.15219052,0.17288056,-0.2727856,-0.08024567,0.19227281,-0.24304682,-0.03844828,0.44486228,-0.21704352,0.07069151,0.19997033,0.350264,0.20703152,0.2031964,0.15787974,-0.242154,0.42253518,-0.0131317675,-0.39601532,0.006530475,0.8196043,0.18716183,0.05889167,0.127731,-0.2343429,0.028876927,-0.00864118,-0.2562281,0.21986112,-0.18873417,-0.5373376,0.40527156,-0.027264487,-0.23214212,0.024491474,0.023704149,-0.29850978,-0.1820018,0.4485381,0.008558035,-0.35153216,0.26545343,-0.3905237,0.07738358,-0.18167278,-0.29897463,0.030998696,0.74105406,0.22261307,-0.12786242,-0.265602,-0.18878499,-0.21787466,-0.16377538,-0.16814756,-0.2189964,-0.016843393,0.29099774,0.33904386,-0.182643,0.13961609,-0.14202988,0.010528341,-0.4619046,-0.26107448,0.09314997,0.21385506,-0.35346854,-0.25826156,-0.2790182,-0.3426257,-0.28058863,0.021500401,-0.06136694,-0.32440597,-0.35988608,-0.1268203,-0.105368935,-0.166915,0.09368352,0.21408877,0.06987552,0.11997252,0.22915486,-0.09700878,0.20128661,0.3429564,-0.24315743,0.3376249,-0.06618035,-0.004432887,-0.31387836,0.02480375,-0.07874236,0.19664724,-0.4729878,0.16943336,-0.33760166,0.35066628,-0.252577,-0.11842332,0.10570192,-0.29167622,-0.2588229,0.12254807,-0.48764572,0.23389381,-0.0030159326,0.044260003,0.4265507,0.124181814,-0.037691236,0.008702025,0.17634243,0.20042384,0.4191163,-0.069060996,0.012537487,0.24712932,0.12884308,-0.1278222,0.14086074,-0.04061801,-0.07015909,-0.2168909,0.08466555,-0.037379492,-0.12180046,-0.124827415,0.3127824,0.041853756,-0.093037695,-0.09311532,0.32733822,0.1589871,-0.52626765,-0.14056507,-0.14112398,-0.06178055,0.1590462,-0.17923677,0.3900204,-0.1832251,0.21173286,-0.07858278,0.3397246,-0.44119176,-0.406352,-0.2372015,-0.3951948,0.2250582,-0.12325,0.16564843,-0.12236466,-0.109294616,-0.28968865,0.09804725,0.16118363,0.32154426,0.2246665,-0.1235915,-0.3245152,0.083280824,-0.2200534,-0.0030261688,-0.11903598,-0.20222117,0.0052524954,-0.0353608,0.080366716,0.024755526,-0.033012122,0.511785,0.07838493,-0.32752782,-0.29482922,0.20821607,0.09915508,-0.012233794,0.3288724,0.15055934,0.13164166,-0.12041841,-0.019540757,-0.04298591,-0.017291784,0.050899748,0.24071902,0.25890186,-0.1107129,-0.053492643,-0.12921819,-0.3709883,0.27638584,0.5112493,0.28464139,-0.108975865,-0.1153804,0.06704702,0.1997189,-0.41533548,-0.21014267,-0.037106365,-0.0799775,-0.2521355,0.22175118,0.032796144,-0.12313107,-0.3253458,0.43685472,0.091437295,-0.027791478,-0.006236203,-0.2400557,-0.02947197,0.10743811,-0.070345,0.13148257,0.02129573,0.45043227,-0.08716162,0.12627763,0.19920412,-0.09136331,-0.0398537,0.42642596,0.31416607,-0.27135837,0.0456738,0.4842944,-0.22112386,-0.24797544,0.03879308,0.07423407,-0.2204071,-0.048342545,0.33233383,0.29698685,-0.3290847,0.33110613,0.29615358,0.008054979,0.28527647,-0.21283144,0.29503733,0.093145475,0.1696333,0.07196102,-0.10046789,-0.20117924,0.35302976,0.46002206,0.16580221,0.10190335,0.07427335,-0.09168093,0.2817116,-0.34470332,0.57880294,0.100556865,0.42886448,0.1117399,-0.096362434,0.0323136,0.32495657,0.39895344,0.12684485,0.09258072,0.050461926,0.2199873,0.18768623,-0.2238622,-0.28561613,-0.05689292,-0.30397677,-0.20035252,0.18505205,0.06200251,-0.22916585,0.5006974,0.020950172,-0.20664361,-0.34637156,0.33922797,-0.43522575,0.08845303,-0.16447055,0.041384213,-0.016047902,-0.07218297,-0.051341295,-0.73892236,0.04672583,-0.6847565,0.45294023,-0.4806592,0.09497992,-0.34282124,0.15340325,0.4066758,0.053380214,0.20382151,0.24869408,-0.19333316,0.022497475,-0.17645693,0.16496168,0.3667656,-0.13920808,-0.14214385,-0.21998373,0.008937074,0.18871555,-0.025517553,0.3784522,-0.14330141,-0.12249658,-0.0268526,-0.2444582,0.23799968,-0.039650045,-0.25167036,0.12360454,0.032593835,0.1540786,-0.23672819,0.02853189,0.22483253,-0.0049217716,0.28361738,-0.29261866,-0.03192351,0.25430602,0.18648508,0.29383606,-0.052835822,0.15156417,0.17235668,-0.0012691766,0.060860805,0.48430258,-0.16704321,-0.005406279,-0.23288871,0.23043004,-0.2041322,0.15125257,-0.0054302216,-0.09767926,0.20264882,0.22937748,0.120676875,-0.41708562,0.5161869,0.5177753,0.120135725,-0.11937513,0.15566832,0.114147246,-0.7472568,0.10268587,0.07631261,-0.4018832,-0.13041681,-0.33022356,-0.039628386,0.008609466,-0.19574305,0.17341392,0.18100259,0.22252291,0.16994399,0.26331148,0.054066792,0.30136803,0.51444393,0.11200569,-0.24794927,-0.26691502,0.23914155,0.050700746,0.12672688,0.03202132,0.18830156,-0.5973267,-0.2590204,-0.19275227,0.19571128,-0.12113308,-0.1766944,-0.38596937,-0.085782655,-0.081496045,0.45888403,0.20809935,-0.08329012,0.08187729,0.06300245,-0.2794279,0.15267847,0.099601656,-0.13336338,0.25765622,0.3936653,0.19299811,0.27932894,-0.49895585,-0.34947228,0.21454394,0.07053961,0.041924354,0.24781221,0.06860992,0.035159938,0.02823098,0.40311232,-0.52742285,-0.55088586,0.121802054,-0.05765579,-0.19469419,-0.21635583,-0.17369983,0.31878975,0.10449071,-0.36058798,0.12726533,-0.09791598,0.35454285,0.21463695,0.055764932,-0.1181071,-0.40590167,0.26400346,0.23157084,-0.0045588017,0.23106068,-0.16831891,-0.32794297,-0.29151496
c,-0.2606052,-0.22813353,0.3757503,-0.33485708,0.17435473,-0.017816786,-0.35806623,-0.24414083,-0.44779345,-0.30017158,-0.25246835,0.19949213,0.24091306,-0.049939886,-0.05889099,0.2421684,0.2493256,-0.030902574,-0.68039304,0.2660328,0.045672663,0.13133964,-0.15733519,0.16888964,-0.11768628,-0.37089643,-0.029116638,-0.24381337,0.18865797,-0.29016244,0.35487962,-0.006585039,0.26308495,0.35261935,-0.13325366,0.037666436,0.30983272,-0.11174908,0.14177504,-0.1319488,-0.083536975,0.3252078,-0.057807993,-0.042534232,0.1265561,-0.15383634,0.1772005,-0.039882436,-0.049174264,-0.32096556,0.1587172,0.16004398,0.38714263,-0.07163244,0.18559854,0.52443767,0.12089613,-0.46330965,0.022204623,-0.29980856,-0.18686333,-0.19002551,0.18870151,0.32375702,0.18083787,-0.072228916,-0.052586734,0.010923877,-0.28557518,-0.078437574,-0.07133342,0.25049874,-0.44062716,0.2921367,-0.045914248,0.29754305,0.0033923015,0.09649269,-0.107816316,-0.04720532,0.037212364,-0.51966417,0.05893556,-0.5176596,-0.017439298,-0.3561428,0.0029823296,0.23304486,-0.16741237,0.29476297,0.27927887,0.04805315,0.0723361,-0.15035164,0.15725124,0.3468571,0.24652585,-0.37018803,0.18828586,-0.14482696,-0.031289868,0.72513425,-0.685168,0.098188214,0.1759516,0.46823022,-0.48558855,0.021029823,0.40892354,0.3599494,0.5224476,0.4245697,-0.3825068,0.44963616,-0.026151069,-0.13044545,0.0799974,0.20514983,-0.45333803,-0.07108352,-0.25000486,-0.06422211,0.10540193,0.022744216,-0.58003914,-0.11220429,0.13488263,-0.22854877,0.09452875,0.2199408,0.6444344,0.09372679,-0.4065663,0.060666375,-0.31397805,0.14565194,0.12938315,-0.16813286,0.03660798,-0.014203437,0.17536217,-0.10015011,0.11360804,0.2609318,0.31696862,-0.23785886,-0.04078515,-0.049117826,0.30757767,0.30377358,0.11663358,-0.1652119,-0.24695694,-0.27439207,0.05477719,-0.04570919,-0.46906522,-0.033748426,-0.09735612,0.28664172,0.2544425,-0.02143396,-0.025146987,0.06825747,0.5336314,0.25907147,-0.15655239,0.0111647025,0.27743676,-0.20876929,0.0828519,-0.48953557,0.088934675,0.0689246,0.080789745,0.25235894,0.09885386,0.3860288,0.41240835,-0.034896284,0.04079482,0.42129385,-0.23079765,-0.036233455,0.032211486,-0.0342307,0.017765388,-0.15935498,0.25815976,0.3267952,0.3192573,0.5064552,0.17251831,0.4502208,-0.36927786,-0.04973313,0.48794279,0.23004644,0.27535647,0.10428714,-0.08509,0.43156046,-0.1722289,-0.045979258,0.11492422,-0.15590894,0.110368185,0.23204494,0.16172564,-0.021231756,0.06656124,-0.08164815,0.13655016,0.16343418,0.07137351,-0.09867429,-0.25718427,0.49432513,-0.18711399,-0.41245732,-0.06760307,-0.40079188,0.017183118,-0.31364977,-0.11195368,-0.10645283,-0.038408488,-0.049727,0.10427819,-0.5496951,-0.05573256,0.24537572,0.008932218,-0.032268688,0.49781948,-0.41177163,-0.06307927,0.3346362,-0.06982389,0.2612851,-0.04744194,-0.40862244,0.093969956,-0.18763465,-0.07541863,-0.2120058,-0.069159016,0.42271763,-0.074152105,-0.19722818,-0.09219223,0.054708682,-0.3664126,0.055684447,-0.09019209,-0.29036745,0.152037,0.2285662,0.4003862,0.22070998,-0.3630832,0.3437548,0.31375173,0.005978089,-0.12854975,0.17014301,-0.121178456,0.10331715,-0.047130853,-0.37591583,0.08218656,-0.019575324,0.2514272,-0.19526775,-0.04255998,-0.008696977,-0.28043643,-0.08665526,0.31599194,0.0049001016,-0.17915022,0.18622507,-0.037521288,0.32810113,-0.16006956,0.2368827,-0.031349238,0.11958623,-0.09254345,-0.28268084,0.16709112,-0.069495045,0.57539636,0.11544856,0.29392764,-0.14078173,-0.02835925,0.3512678,0.09735108,0.029780641,0.11511613,0.3798128,-0.22354327,-0.6192454,-0.032418385,0.33774504,-0.1520946,-0.11376416,0.0050757267,-0.2872231,-0.0013493784,0.16462669,-0.22915396,-0.07991619,0.38309997,0.029200196,0.39396235,-0.025612656,0.14974716,0.27558693,0.37702814,0.100585155,0.33358082,-0.5079417,-0.025401704,0.124424815,0.29680115,-0.16970018,-0.27960697,0.16116446,-0.1664837,-0.027449071,-0.20977995,0.10367641,-0.03358292,0.019616883,-0.10271343,-0.25594768,0.4465165,-0.4487276,-0.47725204,0.148539,0.27207863,-0.33601618,0.13581976,-0.254169,-0.026165705,0.2196202,-0.023042545,-0.086390264,0.28169477,-0.21189156,0.091176726,0.033854026,-0.23706281,-0.07528393,-0.20882258,0.28343946,0.4026971,0.13803533,0.32790297,-0.25884008,-0.039228488,-0.4799688,-0.03242988,-0.1699124,0.14177382,-0.015598718,-0.09195918,0.18292585,0.1686348,0.088303916,0.30503047,-0.22588983,-0.08021999,-0.24654388,-0.104932524,-0.15984374,-0.40112656,-0.09527267,0.39729792,-0.25022888,-0.23484468,0.4788133,0.32147968,-0.0020550191,-0.07933787,-0.12362771,-0.24358582,-0.020577684,0.15574479,0.6554095,0.12501189,-0.03774579,-0.10491428,-0.18193045,-0.20080873,-0.18987562,0.1128843,-0.3403243,-0.08797872,0.22859743,0.124987334,0.14670599,-0.009195823,-0.19894102,-0.17194048,-0.34811735,-0.11812494,0.22348961,-0.23260719,-0.027109858,0.228252,0.032823242,-0.20935985,-0.11369598,-0.4908297,-0.2795651,0.3294642,-0.11193979,-0.34862888,0.0719194,0.21108758,-0.1476169,0.30838156,0.122597486,0.42448983,-0.16194619,0.17524728,0.047596768,-0.48952836,-0.36219728,0.2663745,0.14296314,0.12455487,-0.4527362,0.008553363,-0.244402,-0.09898091,0.18751067,-0.35339412,-0.21508196,0.278714,0.06601255,-0.32827395,-0.35689232,-0.12648416,0.0042319037,-0.39471465,0.33987656,-0.22425207,0.041875653,0.096153684,0.006672114,0.087807305,-0.26649442,-0.17404719,-0.5394939,-0.014616843,-0.029866531,-0.423035,0.0049187765,0.083662964,-0.12363242,-0.06598241,0.2920054,-0.04461216,0.30415124,-0.16287732,-0.25308564,0.12809363,-0.42905048,0.11899619,-0.37855488,0.32248423,0.15927216,0.36452508,0.52984756,-0.24390087,-0.23870733,-0.0040664896,0.03453037,-0.22835693,-0.2569198,0.040636964,-0.011752017,-0.25295323,0.38751927,0.23465571,0.14812627,0.002343107,0.42332837,-0.14634268,-0.04674525,-0.42786196,0.85636985,0.144366,-0.0967843,0.61762387,0.070376895,-0.11932344,0.12821046,-0.17681895,0.39583445,-0.13486454,0.1411212,-0.2001948,0.25033894,0.0006785393,-0.21626708,-0.15361336,-0.4263989
d,-0.20516413,0.22685975,0.03333495,0.03561222,0.22007647,-0.28895372,0.3122191,-0.31726098,-0.052983455,-0.22208256,-0.030472036,0.06525398,0.17590988,0.0038148798,0.25252083,-0.12234628,0.03920847,-0.109893374,-0.34118754,-0.04159856,0.19961801,0.10157581,0.23830216,0.21739104,-0.25411764,-0.16313455,0.22875255,-0.27689964,0.031106152,-0.48167634,-0.049082268,-0.080668665,0.37182906,-0.065853305,-0.18212405,0.19615236,0.16797666,-0.21953154,0.2881916,-0.056921005,0.08998032,-0.3191746,-0.05606097,-0.050832022,0.060686983,0.039474387,-0.3158076,0.12819985,0.110861,-0.36088726,0.13314585,-0.06546637,0.089132644,0.023972534,-0.11148344,0.14665382,0.1620838,0.018912047,0.17216793,0.046713307,0.25694755,0.3680518,0.038725745,0.1789889,0.033592682,-0.18864551,0.026846223,-0.05761385,-0.20365018,0.21368921,0.17197098,0.40403336,-0.30995542,-0.09272105,-0.13143755,-0.23962569,0.22870976,-0.42157823,0.2547187,-0.12926167,-0.094094604,0.07952277,-0.028747447,0.018509738,0.20419937,-0.07773715,-0.0033157952,0.055664435,-0.17836928,0.62341815,-0.2487525,-0.23005645,0.34410408,0.11946619,0.044238456,-0.05856774,0.02871937,-0.31910294,-0.1620287,-0.03264282,-0.041497342,-0.13260438,-0.38468325,-0.22294974,0.67034537,-0.08439175,0.034664214,0.0027784966,0.10786928,0.39685142,0.34333846,-0.0067241527,-0.46235448,0.67450595,0.4036742,-0.25518423,-0.106767304,-0.04817348,-0.022405375,0.35913524,-0.120052546,-0.15227062,-0.35741302,0.034096614,-0.38164127,0.19900933,0.38862914,-0.035277773,-0.098801635,0.3657261,0.460608,0.02412729,0.24709795,-0.14293717,0.10398135,-0.128154,-0.03145891,-0.09894876,-0.37155426,0.13781337,-0.054311775,-0.36522442,0.3697047,-0.16347119,0.18728368,-0.26935592,-0.053168304,-0.34679845,0.44912928,0.50935394,0.4059026,0.794781,0.39825404,-0.19910802,-0.023570083,0.46262804,-0.10461035,0.26414064,0.27127007,0.17151587,0.05118962,0.09733664,-0.25060803,-0.19836998,-0.2049852,0.25985473,-0.086054474,-0.18512374,-0.31119406,-0.27901596,0.28432417,-0.38473684,-0.159116,0.46996927,0.03732343,-0.39164189,-0.12406483,0.19176893,0.34134668,0.0511774,-0.030372575,0.2597164,0.092945404,-0.22570924,0.12689105,0.13146374,-0.13510829,0.39323857,0.24092168,0.21146715,0.08708421,0.29084337,0.18582399,0.48270944,-0.29703847,-0.21561943,-0.21771914,0.16241018,-0.13953522,-0.32229584,-0.3936115,0.42794877,0.15799555,-0.09878395,0.42247477,0.04137553,-0.27499512,-0.47450286,-0.41691667,-0.102456085,-0.41668004,-0.30539125,0.17472929,-0.19809029,0.07553379,-0.025919225,0.040098123,0.3813292,-0.06165384,-0.18947,-0.25338674,-0.19052365,0.36609614,-0.3339488,0.033124268,0.036900047,0.22618547,-0.61785185,0.049694072,-0.08641467,-0.17520261,0.37962076,-0.095495544,-0.3859086,-0.072798215,-0.3884322,0.035094034,-0.2990194,-0.25502667,0.15304413,-0.17677441,0.03980072,0.030879717,-0.39721757,0.37064123,0.017408788,-0.358642,-0.083246596,-0.11605741,0.11652985,-0.18264659,0.23265404,0.22247076,0.32240242,-0.3280496,-0.2874877,0.0035149455,-0.30864578,-0.08131089,0.2468149,-0.30841756,-0.44098473,0.309992,-0.04849697,-0.15970048,0.17351083,0.38497153,0.33880928,0.049033575,0.19757852,0.09860859,0.081430286,0.268573,-0.1682386,0.30985945,0.23743036,-0.005717993,-0.07922208,-0.0274067,-0.07548678,-0.23800525,-0.07731446,-0.11787027,0.0022257231,-0.29307926,0.31805778,0.215171,0.09751149,-0.12009156,-0.21717697,0.36465546,-0.37079751,0.23001313,-0.0015610568,-0.030612513,0.09207037,0.28802997,0.4691017,0.029705942,0.15413432,0.4177137,-0.0038734786,0.25334656,-0.04022464,0.6175034,-0.0683661,-0.10842494,-0.2262237,0.13587873,0.12701574,0.12636673,0.36152944,-0.09038875,0.26241648,0.15311383,0.50706756,0.3858123,-0.1886284,0.6607021,0.4556265,0.20151949,0.13199827,-0.24156666,-0.14742565,-0.28250775,-0.27256903,-0.041796707,-0.048383735,-0.43680212,-0.12175436,0.12789801,0.044683833,0.20947942,-0.084163494,0.092365004,-0.14759651,0.40370083,-0.36967933,0.38577273,0.051157605,-0.13502896,0.10701636,0.3685113,0.33980852,-0.04885868,0.20628315,0.15036741,-0.24198055,0.2990011,0.09092973,0.18494308,-0.12258918,0.24808411,-0.011100329,-0.40014982,-0.30211216,0.056411736,-0.3010107,-0.09924979,0.056167036,0.1576299,-0.24527979,0.03900689,-0.051415455,-0.2316567,-0.12350096,-0.26933354,-0.34092242,-0.12994699,-0.022430453,0.61581296,0.064566515,0.40806788,-0.27866775,-0.072607785,-0.25603244,-0.013721228,0.28006148,-0.30107582,-0.3270782,0.17396814,-0.48012498,0.18253085,0.17281772,0.15199348,0.036752105,0.08426787,-0.13814905,0.27847436,0.051011804,-0.047307633,-0.016836792,-0.21179229,0.05955869,0.18608427,0.20665419,0.1714274,-0.22351141,0.01964863,0.37586343,-0.26687735,-0.17168924,-0.16133219,0.0147289,0.20559913,-0.11425005,0.22128986,-0.3371061,-0.41947067,-0.17751023,0.017930076,-0.30828863,0.18891475,-0.22075205,-0.06671111,-0.123173594,0.42838198,-0.006744016,-0.062238626,0.3065083,0.15527299,0.028884495,0.38477343,0.12870647,0.36993292,0.41808274,-0.07925831,-0.02912788,0.33498526,-0.1726805,-0.010112051,0.01328136,-0.15761095,0.23300025,0.11008999,-0.06943454,0.12687992,-0.2929533,-0.2417059,-0.06417417,-0.05596867,0.2612074,0.015112583,0.514899,0.24317731,-0.026282422,0.2621694,0.16095003,-0.44517097,-0.31192714,-0.36385337,0.15428823,-0.24491021,0.08972448,0.03451374,0.15636596,0.19299169,-0.31847152,-0.21269533,0.18249351,0.15544537,0.1285547,0.17827949,0.04458812,0.06585843,0.33293116,-0.28916562,0.12388338,0.419408,0.04631773,-0.4891526,-0.30742338,-0.2228842,0.073016174,0.043595467,0.17314671,0.015102431,0.13768291,-0.45130545,-0.29337025,0.013558038,-0.2901937,0.08557686,0.16210142,0.12389306,0.064627126,-0.06900339,-0.03647067,-0.062622905,-0.28894854,0.04957292,-0.46473515,-0.37527692,0.20271921,-0.13228437,0.33709267,-0.6356031,-0.26108438,0.3568141,0.18281041,0.12103708,0.09811483,-0.27020824,-0.026453514,-0.19577013,0.033875655,0.016328499,0.05412464,0.41708848,0.120547116,-0.1327984,0.12330463
e,-0.51543856,-0.1692845,-0.09536721,0.11941535,0.6650163,0.03473719,0.25313193,0.21411473,0.30089325,-0.040259793,0.28862903,-0.07960763,-0.10330657,-0.10802762,-0.10133412,0.14622225,0.1527498,-0.16721922,0.14949709,-0.27983353,0.16270655,0.11687522,0.22332953,-0.04663311,-0.08262368,-0.52255243,0.46946865,0.40196058,0.29726785,-0.6187539,-0.45395416,-0.10778889,-0.13183042,0.004126206,0.036207445,-0.08454808,0.016455099,0.040231526,0.25932088,0.33576244,0.07685595,-0.30101615,0.04880222,-0.37871233,0.12407705,-0.2478478,0.20304157,-0.12589729,-0.119542345,-0.063228846,0.077384606,-0.0007090047,0.23678094,-0.034952458,-0.49143684,-0.14192119,0.18412545,0.067900196,0.3140414,-0.14878936,0.28932178,-0.12048933,0.006297796,0.08375648,-0.15380768,0.21981022,0.04070541,0.35760766,-0.050133616,0.17758909,-0.5046395,-0.014820069,-0.02615036,-0.04472541,-0.09175427,0.21275613,0.35766882,0.009576272,-0.10001809,0.36963937,-0.02362605,-0.08525376,-0.5347736,0.2797987,0.07675675,-0.08225544,0.35372746,-0.17727064,0.18853211,-0.02064718,-0.304564,-0.12153393,-0.12817541,0.21166825,-0.30512047,0.44340673,0.19925165,-0.11906754,-0.22911492,-0.05286283,0.1932505,-0.21544835,-0.22932592,-0.029761598,0.37861383,0.14216223,-0.16783106,0.27181217,-0.3495517,-0.042661957,0.24036744,-0.13211688,-0.1353016,0.06970251,0.02708698,-0.1585517,0.45396772,-0.0823681,0.19490093,-0.1070949,-0.12562686,-0.3300683,-0.49876627,-0.1282568,0.042261943,-0.28018424,-0.010100298,-0.37832057,-0.16665998,0.07128343,0.4840443,-0.29474536,-0.22127149,-0.056984037,-0.091131926,-0.14279719,-0.4025138,-0.09656104,-0.0039456505,-0.16543779,0.2006903,0.06745984,-0.50735235,-0.055639453,-0.028326493,-0.42456812,-0.090956725,0.05254325,0.29090932,0.20300709,0.02587742,-0.060203407,-0.06394105,-0.14792128,0.1726772,0.24596912,-0.13247988,-0.12561727,0.06105643,0.007834017,-0.09415753,-0.13033484,0.35054722,-0.031721484,0.021357115,-0.21594815,0.12368639,-0.09342391,0.250023,-0.05245664,-0.06461044,-0.1396504,-0.015597917,0.26154292,0.027259834,0.31713802,0.21804506,-0.3634218,-0.041137,0.3118819,-0.091463454,0.22343607,0.29609588,0.1414932,0.12800586,0.21008983,0.013567712,0.21743888,-0.15765187,-0.32288936,0.3612002,-0.38418984,-0.079879045,0.09620005,-0.16438644,-0.14416873,-0.0010696594,-0.08477935,-0.17681968,-0.004222775,-0.2763157,0.007352324,-0.20795205,0.017945671,0.720104,0.22920518,0.14187545,-0.023910463,-0.004537966,0.20538822,0.28647727,0.031077474,0.2750716,0.03677714,0.28810626,-0.08441822,-0.3788065,0.013286848,-0.047028936,0.4289383,-0.05004438,0.038519908,0.2271938,-0.26649424,-0.34190044,0.0781575,0.30037585,0.053468592,0.3213627,-0.20135683,-0.18103838,0.0855401,0.028735526,-0.27117527,-0.23907271,-0.23643643,-0.04615423,-0.055398814,-0.41983384,0.084305584,-0.2546965,0.00075595826,-0.19718489,-0.23581474,-0.25242534,0.20146751,-0.30651537,-0.20710796,0.3360821,0.24424489,-0.08687982,0.14438674,0.36958852,0.012342978,0.41192803,0.49727774,-0.064957105,0.098116234,0.37770098,0.17478871,0.07055947,-0.2489052,0.12356331,-0.3320245,0.1652611,0.0063924417,-0.2020858,-0.068904616,-0.019974068,0.38096297,-0.12559384,0.24747525,-0.31272423,0.05911064,-0.090302244,-0.47318372,-0.2690963,0.30826357,0.044799164,-0.25234157,-0.21069196,-0.2819773,-0.231641,-0.07310006,0.3158869,0.055685434,0.1619331,-0.11627035,-0.0063801855,-0.14892933,-0.16023539,-0.11182242,0.022409633,-0.011230178,-0.058445454,0.2012776,0.12951343,0.091569856,-0.13074145,-0.028559342,-0.077250585,-0.011658536,0.09368673,0.11521318,-0.07364271,-0.020300739,-0.21201979,-0.0068137757,0.2286427,-0.24813104,-0.3885653,-0.15344542,-0.26305696,-0.47502214,0.09180845,-0.045578323,-0.026781775,0.078006044,-0.080122285,-0.19865862,0.12684932,-0.12427921,0.18400764,0.29332447,-0.2683829,0.107226446,0.20872897,0.013472091,-0.14754201,-0.0051293327,-0.09935101,-0.078851454,0.16042274,-0.20673282,0.044417117,0.113411,0.10036091,-0.06645746,0.28146616,-0.20424344,0.13683334,0.0028527305,0.42868805,0.1316311,0.01790139,-0.12692972,-0.044753097,0.14531973,0.06899628,-0.29977262,0.36327028,-0.22376275,-0.09583996,-0.2966865,0.12919506,-0.057491824,0.13530374,-0.067370966,0.24988824,-0.06564772,0.11912509,-0.049762737,0.008973848,-0.003883861,-0.26432505,-0.18194246,-0.14875409,-0.23467539,-0.09961135,0.050545517,0.024316695,-0.08690755,0.20001504,0.24062988,-0.32475746,-0.09114042,0.22999927,0.010777899,-0.19083583,0.10873596,-0.048976123,-0.07436695,0.048000515,0.1930276,0.11619712,-0.029205047,-0.10741469,0.17654993,-0.072004095,-0.25763074,-0.034092125,0.19450873,-0.18242106,0.08898805,-0.08922002,0.10001759,0.27734601,-0.3105902,-0.1223433,0.4129803,0.099217735,0.014087975,0.024859035,0.03548613,-0.03127236,-0.31061637,-0.036260743,-0.24027148,0.21228208,-0.02437295,-0.01777219,0.018227236,-0.05764156,-0.0778485,-0.20251384,-0.43784505,0.22816506,0.092056945,-0.054820783,-0.15981692,0.04394768,0.09637607,0.33240634,-0.02181184,-0.102596305,-0.19053635,-0.4356142,0.12441927,-0.084007256,0.21799865,-0.32673913,0.28387052,0.017754573,0.1111764,-0.46106103,0.41103673,0.23664853,-0.0010515004,0.06633655,0.4410483,-0.30335334,-0.01287891,-0.04962729,0.035527438,-0.1538274,0.106066756,0.24529186,-0.1734365,0.21921271,-0.09689697,-0.031510167,0.14716873,-0.2213644,-0.08650846,-0.20776105,0.12276578,0.21572934,-0.13897024,-0.030996282,0.24444416,-0.39509988,-0.10568444,0.05527079,-0.18892887,-0.011662811,0.3649284,0.21393591,0.38528562,0.17296802,0.1759299,-0.24996565,0.14024863,-0.22534232,0.2164652,-0.14359383,0.08543734,-0.36992988,0.0016224012,0.18323383,-0.12887552,-0.029754765,-0.042531442,-0.25982437,0.06501019,0.047366865,-0.088922,0.22838183,0.45067725,-0.10652401,-0.19540963,-0.060308076,0.06735772,-0.17839263,0.011531353,0.44457445,-0.11242865,-0.44397914,-0.17874704,0.24888122,-0.13556609,0.17844433,-0.114073984,-0.23226717,0.13518368,0.16320333,0.5561287,0.1341817,-0.22006142,-0.20033872,-0.30625874,0.11987865,-0.18786076
f,0.1317802,0.08068754,-0.003824152,0.0020420868,0.098767966,-0.024309345,0.13885319,0.013569221,0.14890712,0.07970427,-0.2244907,-0.0026926473,-0.0463844,0.14064005,0.15908289,0.04636049,-0.21022022,0.10690514,-0.1124198,0.19193979,0.18855555,-0.33218548,0.08378555,-0.19174346,-0.37664142,0.010192804,0.27715325,-0.4196288,0.43155897,-0.4181617,-0.47274613,0.15536152,0.06445734,0.2619001,0.26989034,-0.09171837,-0.27623874,-0.5365484,-0.28607556,-0.44614697,0.0042898767,-0.7449412,-0.14426303,-0.07827874,-0.0641815,-0.21377108,-0.51358783,0.23672134,-0.049669616,-0.11046023,-0.057240825,0.37308782,0.35118267,0.23642915,-0.21779053,-0.06847701,0.19640453,-0.0871719,0.16911921,-0.1673298,0.0077302083,-0.06991591,-0.10490541,-0.041117385,0.21743552,-0.25446546,0.10802746,-0.12403353,0.40622172,-0.021330282,0.29596823,0.3232597,-0.18608694,0.010265581,-0.62469864,0.058029443,-0.23633519,-0.45327795,0.23024896,-0.05711938,-0.12499463,0.16967888,0.1623457,0.14048201,0.4384875,0.4109608,0.15799674,0.18601343,0.2576676,0.5424748,-0.36553577,0.28778386,0.6051255,-0.27687508,0.08719225,0.16098094,-0.03593477,-0.058679618,0.34148088,0.037860923,0.20367871,-0.626644,-0.22545987,0.038499303,-0.08474989,-0.007834472,0.22277628,-0.10317647,-0.40091395,0.059665974,-0.26946652,0.11546014,-0.23839642,-0.001879856,0.3822032,-0.3126148,0.12611738,0.1990822,0.19102417,0.30337727,0.087513454,-0.0031329896,-0.14747226,-0.4603538,0.01263126,-0.24712977,-0.2817076,-0.32329434,-0.35228544,0.5574848,-0.06428043,-0.00077877194,0.6004829,-0.64838386,-0.11342258,0.3354196,0.21763608,0.098331764,0.11984554,0.25232753,0.03167773,-0.3356359,-0.09653566,-0.46019605,0.34156346,-0.17571655,-0.20328939,-0.1296666,0.16854917,0.1387712,-0.09720785,0.5243032,0.06560961,0.012929529,-0.04663673,0.24315873,-0.084924005,0.6785453,-0.35771483,0.18292175,0.12838478,-0.11036493,-0.11704913,0.23112291,-0.57996726,-0.20954844,-0.19002151,-0.27536237,-0.185085,-0.87940174,0.1327877,-0.53304106,-0.15135235,0.22596009,-0.064450555,0.22546512,-0.07870281,-0.07027085,0.243218,0.3625725,0.15202408,-0.1354632,0.22691551,-0.24519388,0.020880152,0.2665229,0.10026773,0.74815637,0.1490373,-0.043499455,0.22112915,0.003725022,-0.25254947,0.050084114,-0.5899645,-0.36701718,-0.3414284,0.1892458,-0.049894113,-0.07056599,0.024717458,0.06114386,0.21537453,-0.27053747,0.2218349,-0.3231044,-0.020723373,-0.64801764,-0.51073146,-0.44358972,-0.35111332,0.027177177,0.035077035,0.17162797,-0.20938352,0.19156162,-0.10056963,0.42352644,-0.20590651,0.094284035,0.04120158,-0.045574114,-0.12455513,0.20198682,0.25842184,0.11558181,0.09251094,-0.17700899,-0.11787177,0.074498855,0.26342362,0.16417593,0.2988701,-0.26712686,-0.03962373,-0.24270508,-0.13397124,-0.5017424,-0.6655888,0.09088611,-0.065391816,0.07899445,0.0061862543,-0.11155701,0.061515473,-0.28945726,-0.36266175,-0.1917339,0.40445006,-0.3191373,-0.01924337,0.042027615,0.06770105,0.119348995,-0.03222183,0.05977168,-0.1774658,-0.36990136,-0.18760613,-0.0011002365,-0.041991964,0.010118179,-0.38904577,-0.02462966,-0.1373565,0.15111068,0.039549045,0.089067,0.009896249,0.18810543,0.2843693,0.42258328,-0.31753188,-0.14637233,0.015035462,0.23563075,-0.33250213,-0.018613845,0.25263706,-0.33602425,-0.27025822,0.08203269,-0.34738618,0.16445331,0.6563969,0.040885527,-0.06770022,0.17297588,-0.1876016,0.2969927,0.24437016,0.2440876,0.03452632,-0.22036171,0.6361476,-0.278315,0.051271975,0.42750517,-0.017704654,-0.25080857,0.02544865,0.052563578,-0.02114714,0.004293274,0.015101895,0.14314905,-0.32002208,0.11930843,0.22624424,0.6554642,0.01842495,0.2752893,0.043086424,-0.11552695,0.038866766,-0.20089127,-0.14244843,-0.1043203,0.32243684,0.0875183,-0.15217972,-0.008527454,-0.6267266,0.5573326,-0.27125013,-0.43254986,-0.25372717,0.23389317,-0.47421977,-0.35458136,0.46300507,-0.17531669,0.524955,-0.21353453,0.2787823,-0.48577955,0.12449531,-0.66041034,-0.17352295,-0.3067572,-0.25446314,0.20658249,0.118403345,-0.012053013,-0.024962895,-0.10358627,-0.0954399,0.14135188,-0.0010991916,0.20176801,-0.28559136,0.27252784,-0.030715663,0.011463737,-0.26568252,0.15744002,-0.29755995,-0.21214229,-0.098703824,0.15155077,-0.3823388,-0.19203258,-0.09987963,0.0315793,-0.16762525,-0.42631346,0.07613814,0.13279194,-0.05581477,0.020938054,0.32328704,0.4734091,0.2687043,0.071909145,0.00020505302,-0.28930396,-0.063088976,-0.40556747,-0.64681506,0.099625826,-0.20047444,0.15801464,0.3342792,-0.057165314,0.36598685,0.10034327,-0.34233108,-0.09386701,0.08874463,-0.23246291,-0.03129872,0.07211114,0.36442998,0.30978942,-0.054077297,0.23756856,-0.027284667,-0.14142837,-0.25035766,0.060784556,0.42152447,-0.15956742,0.09591166,-0.39276257,0.14044727,0.19175094,-0.105807915,-0.46008474,-0.55319744,0.023538414,0.17669183,0.06051817,0.10820196,0.1322839,-0.14052862,0.055302437,0.055247426,-0.07575635,-0.15205261,0.61175907,0.087615766,0.36721954,0.14049995,-0.5907799,-0.05387237,0.5012323,-0.1794618,-0.09408251,0.25910845,0.11974501,-0.3022363,0.31287038,-0.14711678,0.18520658,0.0790468,-0.46441823,0.02123193,-0.21182339,-0.2940901,0.04763412,-0.15802327,-0.18501899,-0.22175214,0.4711406,-0.022082817,0.04378409,0.37299255,0.3058041,-0.43048462,-0.012885883,0.09316498,0.24772102,0.14863177,-0.34314537,0.31400475,0.12168054,-0.012857437,0.038344473,-0.24401748,0.18815589,0.20270663,0.42908755,-0.07512609,-0.14366126,-0.22352469,0.34882227,0.07134277,-0.030736186,-0.27867088,0.2209974,-0.2580846,-0.4676138,-0.013268657,0.20712256,-0.010814901,-0.33939126,-0.1817522,0.012650676,-0.52049947,-0.47588417,-0.028031565,-0.14553219,0.33273026,0.78455603,-0.13397133,-0.18400167,-0.02633059,0.06276533,-0.8420935,-0.54476345,0.489876,-0.20440158,-0.2555301,0.089654796,0.044001356,-0.10353203,-0.25811625,-0.2592097,0.06674211,0.24254195,0.4405362,0.089538075,-0.2058337,-0.1578946,-0.24842052,0.040554088,0.013482921,-0.1687607,0.51432365,-0.08246264,0.49834904,0.14225584
g,0.18402207,0.00413578,0.036867667,0.22977614,0.2773476,0.046331234,0.058610536,-0.225567,0.047831494,0.23082414,-0.28634953,0.30640954,0.44250628,0.023570664,-0.14393201,-0.37532505,-0.242699,0.09493516,-0.016038079,0.3057273,0.045084447,0.21210231,0.028911293,0.40867037,-0.46139833,-0.33781937,0.12739733,0.19225562,0.15784433,0.2679105,0.42026752,-0.06348777,0.32109445,0.35733578,-0.012710281,-0.07288449,-0.09436685,0.0721602,-0.062121935,-0.21135676,0.27149624,0.09838403,-0.05772288,-0.4340776,-0.02756052,-0.12279575,-0.17217629,-0.1762012,0.07939434,-0.059034184,0.068785414,0.9244872,-0.42545965,-0.06416758,0.13544971,-0.18215197,-0.69763404,-0.37706226,0.5434395,0.1259832,-0.14354524,-0.21482477,0.055848923,-0.11913198,0.0062634274,-0.09122608,0.25339442,-0.63503706,-0.10828754,-0.032430083,-0.16178428,-0.28615317,-0.41008514,0.11112205,-0.13074183,0.5031253,0.088656254,0.22152527,-0.2712944,-0.12549768,-0.21595427,-0.35461769,-0.15493816,-0.18428418,0.16281915,-0.008470951,-0.058244616,0.2849744,-0.14351663,0.029574335,0.04417685,-0.16347821,-0.33869255,-0.18411234,-0.0047382712,-0.21676174,-0.094851516,-0.2425437,0.102877446,0.15815546,-0.06808104,-0.6481607,-0.12977868,0.10232682,0.34346056,0.03203974,-0.47039104,-0.10146598,0.523491,0.06392168,0.34768504,-0.107332125,-0.58141625,-0.42415297,0.22291943,-0.49142337,-0.037043296,0.59916997,-0.060333375,-0.22166044,-0.41562137,0.19102463,0.07357037,0.17000145,0.124552324,0.1543059,-0.15109715,-0.066805795,0.13603473,-0.13574824,-0.16088802,-0.3193527,0.013032366,0.09288523,-0.05237641,0.46851206,-0.5145889,-0.086993515,-0.12992962,0.02202382,0.2924545,0.21618344,-0.23313779,0.24274752,0.13741228,-0.10055426,0.023608744,-0.29875016,-0.07124081,-0.24274132,-0.05912026,-0.08710955,-0.33426765,-0.04549329,-0.18408175,-0.46567684,0.13332736,-0.14873567,0.09880023,0.3673855,0.028285582,0.42654258,-0.27237922,-0.212719,0.11111373,0.079121925,-0.35143667,0.21632433,-0.17713389,-0.66178447,0.020971332,-0.24555096,-0.024951018,-0.20238376,0.08481885,-0.00568283,0.26331434,0.10477257,0.230905,0.49666,0.28065634,-0.41236335,0.53841084,-0.33044457,-0.28987452,-0.25059703,0.316974,-0.12067179,0.13456205,0.11074359,0.2897149,-0.039534424,0.19978277,0.5388322,-0.41117322,-0.08445482,-0.19633302,-0.011004284,-0.05213763,0.250722,-0.33879232,-0.014294177,0.24993014,0.105759755,0.400926,-0.4843888,0.18517348,0.10302923,0.15299445,0.2487391,0.001367107,-0.10924918,0.13161236,-0.14041945,0.099455565,-0.07348138,0.05566953,-0.4658895,-0.31840676,0.03748977,0.40792292,0.011859614,0.06478403,-0.093141995,0.1775692,0.108314484,0.5828881,0.084506646,-0.05525367,0.39367017,-0.63189894,-0.57149035,0.09230022,-0.017456725,-0.32639012,0.26133552,-0.0037620068,0.3474282,0.25722754,-0.17473704,0.12203809,-0.31092125,-0.116485305,0.09686995,0.17898193,-0.45004132,0.34681484,0.013478771,-0.0886433,-0.2638263,-0.72214186,0.028063245,-0.31429815,-0.13839631,0.46839902,-0.15622313,0.1883221,-0.14908114,0.37945095,-0.21350983,0.1975033,0.19690865,-0.3400277,0.07093851,0.1370746,-0.345455,0.137016,0.06392965,-0.23651192,0.25646177,-0.36456805,-0.1250895,-0.121724814,-0.50793827,0.5226176,-0.043969218,-0.12346814,0.26390734,0.3630725,-0.10013707,0.10048146,0.22254707,-0.11592306,-0.13967259,0.31119272,0.1352188,-0.011346832,0.20439225,0.2139512,-0.008818209,0.24648407,0.51071346,-0.00752569,0.457493,0.23232394,-0.07267727,0.19012102,0.55312514,-0.21391875,-0.19219369,0.08506394,-0.6559682,0.2259962,-0.8241516,-0.22393525,0.49915344,-0.13319579,0.19598426,0.01040387,-0.1198305,0.3706914,0.13477203,-0.44314486,-0.0020279512,-0.043950252,-0.024778802,0.27261737,-0.14532183,0.037326977,0.17782396,0.29950747,-0.11586949,-0.5523884,-0.33984277,0.07913251,0.36264676,0.13175817,-0.22628038,-0.294696,0.2786665,-0.078369975,-0.037926383,-0.14980513,-0.13712317,-0.060458623,-0.079121985,-0.3179099,-0.2078622,0.22421578,-0.5854506,-0.0460082,0.17425036,0.20630759,0.04923989,0.26459488,-0.35847592,-0.25685596,0.14124642,0.09625303,-0.049427755,0.17923005,-0.058356233,0.027979463,0.5775129,-0.09319901,0.29838613,-0.17826563,-0.054533347,0.6085181,-0.23159462,0.2202583,0.13586086,0.5756857,-0.17707127,-0.108786434,0.03279411,0.08422643,0.13494517,-0.121853374,0.47786978,-0.20645025,-0.4235592,0.06775857,-0.23076287,-0.13404678,0.29928392,0.3227102,0.14084408,-0.14203918,0.038533606,-0.13650182,0.22044948,-0.3756507,0.30847973,0.29077625,0.030900963,-0.047013335,0.68609697,-0.5859024,0.24897853,-0.04336403,0.001762867,-0.08659834,0.060239784,-0.39873362,0.19715881,-0.1596235,-0.41193277,-0.20963696,0.20242321,0.32132286,0.17951304,0.28245962,-0.16066465,-0.20259961,-0.27198684,0.16074952,-0.07112822,-0.13585088,-0.046476386,0.3616853,-0.021120794,0.21095714,-0.06791197,0.007933103,-0.040010612,-0.47406572,-0.1705242,0.108228035,-0.034487292,0.00377471,0.40187797,0.028153814,-0.4105956,-0.26332372,0.18644731,-0.22332975,0.10756933,0.06782671,-0.061530225,0.23006606,0.16340104,0.7807628,-0.109001555,-0.060952686,-0.1379058,0.21958435,-0.21239902,0.05464729,-0.032537334,-0.025999524,0.056814082,0.55907214,0.1472069,-0.36444694,0.18696246,0.3789224,0.13516492,-0.36051837,-0.761492,0.09562797,0.20422673,0.4108433,0.11309816,-0.36810482,0.052103557,0.073016465,-0.24706955,-0.16645539,0.12958443,-0.025331087,-0.3511688,0.21508858,0.16574126,-0.087407686,0.28510594,0.164225,-0.17569348,0.006697461,-0.44358692,-0.057085134,-0.35586357,-0.40168035,0.21924004,-0.19917256,-0.2788491,0.05245421,0.52359885,-0.10749247,0.027725315,-0.291009,-0.07251281,-0.033625808,0.2573767,-0.4211063,-0.5781282,-0.06043765,-0.1823295,-0.024659678,0.21830484,0.06611764,0.7041658,0.12130542,0.11209896,-0.0522319,-0.05608756,-0.1707084,-0.26676616,0.15477425,0.033923604,-0.3261951,-0.042464107,-0.2574451,-0.46698606,0.1609165,-0.08786082,0.07762379,0.08620743,0.50360817,-0.57340246,-0.22699517,-0.15694875
h,0.3750031,0.087194756,-0.4026928,-0.0874971,0.2482093,-0.28033394,0.068213694,0.22396627,-0.01508693,-0.22946648,0.3860302,0.042324394,0.14524844,0.62608373,0.047138084,0.1424723,-0.11840646,0.19183916,-0.17628793,-0.13068643,-0.015486051,0.050724022,0.1053153,0.35063156,0.010491405,-0.56129855,0.2047177,0.26409155,0.22191173,0.026111223,0.24356435,-0.17661595,0.028950311,-0.27268857,0.1219944,0.13959323,-0.3672318,0.16451803,0.21929005,0.036889687,0.3300214,0.42556852,0.21159855,-0.4771935,-0.0016676672,0.28642544,-0.16587728,0.13151246,0.07132004,-0.15346363,-0.16840166,0.7104119,0.030084085,-0.3449804,-0.24414738,0.10189403,-0.43263966,-0.4160387,-0.048549566,-0.1494066,-0.57377607,-0.49217308,0.054959666,0.2361441,-0.0045304997,0.048170377,0.57790726,-0.023107402,0.1017336,0.17027095,-0.3628404,0.032144252,-0.21852772,0.19383368,-0.41673493,0.62312365,-0.10546196,-0.113893375,0.0219987,0.43349364,-0.44020513,-0.1370277,-0.3853756,-0.40375528,0.6494772,0.11831919,-0.5300492,-0.40146726,-0.06349158,0.18784548,0.22482933,-0.13025352,-0.24003685,-0.23794019,-0.2479431,-0.35485804,-0.07300816,-0.43007463,0.06547648,-0.17395678,0.11255695,-0.24663782,0.23215443,0.39890507,0.2579523,0.362979,-0.24509992,0.0020797774,-0.117773384,-0.16521055,0.23333704,0.21411441,-0.33897436,-0.24435294,0.13981691,-0.55862504,-0.033347886,0.26493603,-0.32041454,-0.11191434,0.12172604,-0.22948748,-0.051159307,0.5864773,0.14665577,0.008730274,-0.21787477,-0.51659036,-0.20788753,-0.04054308,0.51333207,0.055897407,-0.12437607,-0.24166304,0.4712883,-0.053153485,-0.7635226,-0.28684127,-0.19185372,0.0942716,0.34969246,-0.08677219,-0.14338776,0.03556825,-0.431018,0.119002506,-0.24322769,0.048961647,-0.053620167,0.09827219,-0.04925473,-0.14491358,-0.051280916,-0.2717914,-0.05001703,-0.25770485,-0.3132824,-0.08600744,0.133128,0.2261395,-0.15530382,0.08972211,-0.53096795,-0.029349871,-0.047880277,0.038030114,0.5155521,-0.08186582,-0.25074553,-0.41013873,-0.16525894,-0.2718584,0.1267283,0.023871541,0.096018344,-0.4089248,0.2320087,0.17971233,0.161091,0.023437213,0.2593091,-0.11804421,-0.096238516,0.071283594,0.029799215,-0.014078375,-0.00240805,0.28486457,0.0009198785,-0.1395095,0.357156,0.0072439946,0.54047745,-0.061992176,0.3539989,0.20115274,-0.061744798,-0.20779167,-0.22077918,0.08401067,-0.38055736,0.34219787,0.044814736,0.0089587215,0.09720978,-0.19375606,0.30368146,0.5225819,0.16712913,-0.10704888,-0.44834906,0.246813,0.091751635,0.0099459775,-0.01618798,0.14294295,0.281416,0.06587024,-0.4434721,0.23000783,-0.2356871,-0.33007395,-0.009623505,-0.115418114,-0.09667555,0.21830606,0.4298717,-0.14727132,-0.14964259,-0.033344977,-0.1858688,0.12221769,0.023003288,0.023717321,-0.1702407,0.06802275,0.07937726,0.3224561,-0.05221569,-0.5589272,-0.22401267,-0.22763965,0.07674399,0.47631907,-0.010063283,-0.28198314,0.68262494,0.009001175,0.023278717,0.085105985,-0.08133963,-0.14779547,-0.45569003,0.17146033,0.38609335,-0.4678283,0.04401709,-0.59428614,0.019353725,0.102229945,-0.0028608218,0.104819566,-0.289607,0.109524004,0.04043048,0.4537322,-0.05236639,-0.05987402,-0.22818395,0.23581004,0.02445086,0.11764439,0.18116441,0.05613385,0.13109325,0.086904734,0.092859015,0.41466913,-0.14100984,0.006613523,-0.062626936,0.5243772,-0.48115504,0.122182086,0.22735739,0.40713647,-0.14714354,-0.27645862,-0.25362396,-0.029608391,0.5158648,0.2887753,-0.3776276,0.24059087,0.29997492,-0.37516835,0.09670594,-0.16845258,0.01495773,-0.0065218657,0.110224396,0.13731802,-0.15097043,-0.12108151,0.09414796,-0.16538864,0.14380872,0.123632535,-0.2626415,0.051680356,-0.09740505,0.47746372,-0.004715305,-0.29409686,0.31010365,-0.03659634,0.00980258,-0.21934727,-0.2786508,0.19753397,-0.35540953,0.37398568,0.021436322,-0.36401016,0.21870998,-0.22945526,0.49319643,-0.11962488,0.22810157,-0.1410289,0.032131974,-0.49735177,0.08923077,0.15356432,-0.10736247,0.30309662,-0.15537703,0.08797806,0.16309169,0.071242616,-0.21510264,-0.055574838,0.37327123,0.12965618,-0.3674833,-0.051856108,-0.011189289,-0.5207504,-0.052735694,-0.17060032,0.0014053397,-0.1876894,0.030361943,0.72484493,0.03753136,0.055432077,0.16255495,0.2343052,0.37345752,-0.12369858,0.17226925,0.16524294,-0.3099846,0.010465831,-0.30782297,-0.1447817,-0.15792294,-0.5155361,0.23389052,0.7492649,-0.23321608,0.089763544,-0.015430748,-0.08747769,-0.3530004,-0.15420508,0.47392085,0.17033765,-0.14993328,0.047839686,0.06160285,0.058165237,-0.3873288,0.030094828,0.2159304,0.3558705,0.35025182,0.8300755,-0.424518,-0.1023978,-0.096423045,0.13791984,-0.1743837,0.19496247,-0.3439336,-0.3193191,0.08950132,-0.35637254,-0.26423812,0.12630591,0.17170826,0.03120241,0.03685534,0.19462594,-0.13321427,-0.13798876,0.24872376,-0.12902278,-0.26501286,-0.085487016,-0.12576753,0.03086362,-0.22877595,0.0259219,-0.06978127,-0.20143986,-0.4898455,-0.3420738,-0.22975418,-0.19625181,0.07274055,-0.20294583,0.2019691,0.19779015,-0.3633226,0.15908879,0.038374588,0.34841865,-0.090325244,0.6963425,0.03534935,0.06475038,0.32135534,0.22844204,-0.020128183,-0.22266874,0.42505974,-0.18867593,-0.037438124,0.007836949,-0.04187645,0.021733906,0.24106002,0.3840578,-0.13760172,-0.1813823,0.2710449,0.041083172,0.20725176,-0.12894511,-0.03230697,-0.120266475,0.1951917,0.08147433,-0.030605866,-0.09489497,-0.14166123,0.015365243,-0.09856391,0.04699322,-0.5282277,-0.21792549,-0.02133321,0.3625154,0.14267029,0.30911264,0.03237054,-0.334086,0.2920792,-0.13841388,-0.40990353,-0.1974556,0.18252961,0.060481273,-0.50062907,0.38852838,-0.18190387,0.16199297,-0.19407618,-0.2931132,-0.17768309,0.16926628,0.3522088,-0.20209369,-0.008912452,-0.54270434,-0.06373845,-0.2510146,0.14166647,0.20934182,0.28619888,-0.032788537,0.19954994,-0.18805808,-0.4583372,-0.037723184,-0.31573433,-0.30797094,0.60431534,0.2256738,-0.07794446,0.3470037,-0.9727092,-0.05465348,-0.42127067,0.16083385,0.19684651,-0.1617876,0.050370637,-0.33211732,0.02465707,-0.047008835
