DiseaseID,feature_1,feature_2,feature_3,feature_4,feature_5,feature_6,feature_7,feature_8,feature_9,feature_10,feature_11,feature_12,feature_13,feature_14,feature_15,feature_16,feature_17,feature_18,feature_19,feature_20,feature_21,feature_22,feature_23,feature_24,feature_25,feature_26,feature_27,feature_28,feature_29,feature_30,feature_31,feature_32,feature_33,feature_34,feature_35,feature_36,feature_37,feature_38,feature_39,feature_40,feature_41,feature_42,feature_43,feature_44,feature_45,feature_46,feature_47,feature_48,feature_49,feature_50,feature_51,feature_52,feature_53,feature_54,feature_55,feature_56,feature_57,feature_58,feature_59,feature_60,feature_61,feature_62,feature_63,feature_64,feature_65,feature_66,feature_67,feature_68,feature_69,feature_70,feature_71,feature_72,feature_73,feature_74,feature_75,feature_76,feature_77,feature_78,feature_79,feature_80,feature_81,feature_82,feature_83,feature_84,feature_85,feature_86,feature_87,feature_88,feature_89,feature_90,feature_91,feature_92,feature_93,feature_94,feature_95,feature_96,feature_97,feature_98,feature_99,feature_100,feature_101,feature_102,feature_103,feature_104,feature_105,feature_106,feature_107,feature_108,feature_109,feature_110,feature_111,feature_112,feature_113,feature_114,feature_115,feature_116,feature_117,feature_118,feature_119,feature_120,feature_121,feature_122,feature_123,feature_124,feature_125,feature_126,feature_127,feature_128,feature_129,feature_130,feature_131,feature_132,feature_133,feature_134,feature_135,feature_136,feature_137,feature_138,feature_139,feature_140,feature_141,feature_142,feature_143,feature_144,feature_145,feature_146,feature_147,feature_148,feature_149,feature_150,feature_151,feature_152,feature_153,feature_154,feature_155,feature_156,feature_157,feature_158,feature_159,feature_160,feature_161,feature_162,feature_163,feature_164,feature_165,feature_166,feature_167,feature_168,feature_169,feature_170,feature_171,feature_172,feature_173,feature_174,feature_175,feature_176,feature_177,feature_178,feature_179,feature_180,feature_181,feature_182,feature_183,feature_184,feature_185,feature_186,feature_187,feature_188,feature_189,feature_190,feature_191,feature_192,feature_193,feature_194,feature_195,feature_196,feature_197,feature_198,feature_199,feature_200,feature_201,feature_202,feature_203,feature_204,feature_205,feature_206,feature_207,feature_208,feature_209,feature_210,feature_211,feature_212,feature_213,feature_214,feature_215,feature_216,feature_217,feature_218,feature_219,feature_220,feature_221,feature_222,feature_223,feature_224,feature_225,feature_226,feature_227,feature_228,feature_229,feature_230,feature_231,feature_232,feature_233,feature_234,feature_235,feature_236,feature_237,feature_238,feature_239,feature_240,feature_241,feature_242,feature_243,feature_244,feature_245,feature_246,feature_247,feature_248,feature_249,feature_250,feature_251,feature_252,feature_253,feature_254,feature_255,feature_256,feature_257,feature_258,feature_259,feature_260,feature_261,feature_262,feature_263,feature_264,feature_265,feature_266,feature_267,feature_268,feature_269,feature_270,feature_271,feature_272,feature_273,feature_274,feature_275,feature_276,feature_277,feature_278,feature_279,feature_280,feature_281,feature_282,feature_283,feature_284,feature_285,feature_286,feature_287,feature_288,feature_289,feature_290,feature_291,feature_292,feature_293,feature_294,feature_295,feature_296,feature_297,feature_298,feature_299,feature_300,feature_301,feature_302,feature_303,feature_304,feature_305,feature_306,feature_307,feature_308,feature_309,feature_310,feature_311,feature_312,feature_313,feature_314,feature_315,feature_316,feature_317,feature_318,feature_319,feature_320,feature_321,feature_322,feature_323,feature_324,feature_325,feature_326,feature_327,feature_328,feature_329,feature_330,feature_331,feature_332,feature_333,feature_334,feature_335,feature_336,feature_337,feature_338,feature_339,feature_340,feature_341,feature_342,feature_343,feature_344,feature_345,feature_346,feature_347,feature_348,feature_349,feature_350,feature_351,feature_352,feature_353,feature_354,feature_355,feature_356,feature_357,feature_358,feature_359,feature_360,feature_361,feature_362,feature_363,feature_364,feature_365,feature_366,feature_367,feature_368,feature_369,feature_370,feature_371,feature_372,feature_373,feature_374,feature_375,feature_376,feature_377,feature_378,feature_379,feature_380,feature_381,feature_382,feature_383,feature_384,feature_385,feature_386,feature_387,feature_388,feature_389,feature_390,feature_391,feature_392,feature_393,feature_394,feature_395,feature_396,feature_397,feature_398,feature_399,feature_400,feature_401,feature_402,feature_403,feature_404,feature_405,feature_406,feature_407,feature_408,feature_409,feature_410,feature_411,feature_412,feature_413,feature_414,feature_415,feature_416,feature_417,feature_418,feature_419,feature_420,feature_421,feature_422,feature_423,feature_424,feature_425,feature_426,feature_427,feature_428,feature_429,feature_430,feature_431,feature_432,feature_433,feature_434,feature_435,feature_436,feature_437,feature_438,feature_439,feature_440,feature_441,feature_442,feature_443,feature_444,feature_445,feature_446,feature_447,feature_448,feature_449,feature_450,feature_451,feature_452,feature_453,feature_454,feature_455,feature_456,feature_457,feature_458,feature_459,feature_460,feature_461,feature_462,feature_463,feature_464,feature_465,feature_466,feature_467,feature_468,feature_469,feature_470,feature_471,feature_472,feature_473,feature_474,feature_475,feature_476,feature_477,feature_478,feature_479,feature_480,feature_481,feature_482,feature_483,feature_484,feature_485,feature_486,feature_487,feature_488,feature_489,feature_490,feature_491,feature_492,feature_493,feature_494,feature_495,feature_496,feature_497,feature_498,feature_499,feature_500,feature_501,feature_502,feature_503,feature_504,feature_505,feature_506,feature_507,feature_508,feature_509,feature_510,feature_511,feature_512
C1,-0.39168644,0.034769066,-0.2372208,0.10481275,0.09872577,-0.35861224,0.26794913,0.39343706,0.04000409,-0.35866582,-0.22868226,0.23621458,0.20003939,-0.1549888,0.66281235,0.29249892,0.18410154,-0.16477981,-0.023826726,-0.04852722,-0.07643059,0.16792543,0.15276314,0.119573615,0.054329127,-0.2823752,-0.26527056,0.1468611,0.016631462,-0.5295452,-0.26151723,0.09530942,-0.3860523,0.041392464,-0.10715165,0.4444183,-0.01340504,0.023126006,-0.1884861,0.039630666,0.1587804,0.048464794,0.43549976,-0.010046907,0.39980352,0.12529707,0.55472636,0.17811581,-0.016929615,-0.120521195,0.030896224,-0.12387227,0.13280687,-0.13943604,0.12229646,-0.32462156,0.13916358,0.27016926,-0.019093186,-0.16483723,0.46006837,0.22859265,-0.2680013,-0.19519424,-0.0244172,-0.039771993,0.21805108,-0.2782529,0.079937935,0.3294664,-0.29823333,-0.04334873,-0.3421356,0.20801842,-0.112124026,-0.10277521,-0.5443292,-0.111080535,-0.29093707,0.0007055029,0.23522398,-0.0656687,-0.187426,-0.5582381,-0.24223107,-0.1996265,0.19203085,0.57735455,-0.114922605,0.020849764,-0.0007935539,0.14211062,-0.061165247,0.08507467,0.20837341,0.09580794,0.17246273,0.24921668,-0.23552799,-0.2351842,0.46926188,0.32142887,0.25344324,0.52513635,0.16266654,0.19609618,-0.18302144,-0.13005288,-0.22094247,-0.10917858,0.35100818,0.19375765,0.32736862,0.1585581,-0.04070828,0.06643732,0.4083492,-0.31220636,-0.05469522,0.24016494,-0.039930947,-0.18241856,-0.1771449,0.06993197,-0.28630853,0.2670477,0.44806775,-0.24546914,-0.082376815,0.17841552,-0.18360105,-0.1686715,-0.39384976,0.09693056,-0.07561237,0.26322076,0.22130185,0.18802923,-0.48138207,0.14976394,-0.33644745,-0.092333384,-0.04021492,0.26189578,0.15058044,-0.36111945,-0.18252608,-0.068853974,-0.14146788,-0.06687881,-0.052547794,-0.25628418,0.0065495335,0.27734944,-0.029719703,-0.2438605,-0.18007788,-0.2848857,-0.5035997,-0.017241377,0.0026381388,0.093736075,0.50761837,0.2387994,0.32864615,0.016376823,-0.003463678,-0.38242176,0.18880895,-0.21158174,-0.10100739,0.22007918,-0.28276423,-0.13593665,0.0084735975,-0.2609262,0.33134404,-0.11328969,0.07536579,-0.1728283,0.29991686,0.18761769,0.030066408,-0.10239164,0.006496776,-0.33790767,0.10873158,-0.2625457,0.24903592,-0.1499184,-0.19494876,0.1845738,0.045395054,0.048030507,0.17943856,-0.29087538,-0.07427082,-0.18632416,-0.029411696,-0.3093777,0.12373389,0.06653427,0.10113342,0.25773004,-0.06449849,0.27219093,-0.41080895,-0.25990778,-0.4295994,0.03548178,0.09555335,-0.13236478,-0.15128435,-0.27461556,0.21913168,0.07432528,0.24506642,0.20347434,0.11101657,-0.21378501,-0.014002435,-0.4288425,-0.4423383,-0.19525239,-0.6935122,0.41766003,0.07354586,-0.021627516,-0.004804343,-0.39842483,-0.07577287,-0.10271056,-0.044463336,-0.067889,0.09326132,-0.04959949,-0.19541574,0.01999937,-0.09709551,-0.012104224,0.059101965,-0.00529119,0.036294445,-0.042624813,0.56360316,-0.07970835,0.08562197,-0.07905063,-0.2892876,-0.06836449,-0.42348623,-0.3047369,-0.52212214,0.15245667,-0.19536376,0.0035556927,0.11515541,-0.7223644,0.2507395,0.4514875,-0.1380127,-0.29913393,0.31538633,0.079210654,0.017613217,-0.16925976,0.090454444,0.49688053,-0.08612535,0.12471271,0.012531355,0.305364,5.015731e-05,0.085924715,-0.042924732,0.041650183,0.17881335,0.054595947,-0.51670885,-0.011928301,-0.04423185,0.25208083,0.0523366,0.020435706,-0.45183888,0.30898118,0.046292573,-0.018501133,0.07026048,0.11280356,0.28864795,-0.4507519,-0.40787846,0.5241525,-0.17239884,-0.23733118,0.0592975,-0.14208856,0.3601868,0.36903527,0.2151915,0.029078066,-0.062274277,0.07877724,0.0067216605,0.15633526,0.44035262,0.09724982,-0.051205553,-0.067853235,-0.22863166,-0.4350998,-0.123829246,0.18515162,-0.056791164,0.21979842,-0.15852267,-0.20473884,-0.032953855,0.010478884,-0.029124342,0.10719527,0.43142512,-0.29662812,0.21239755,0.2356633,-0.15202942,-0.29286948,0.54372174,-0.46039277,0.38287663,-0.17159127,-0.16140436,0.033945486,0.34617925,-0.39503238,0.2459791,-0.060275063,-0.45432648,-0.30267575,-0.071005434,-0.22454795,0.013470832,0.38650537,-0.074933864,-0.2884637,0.27783927,-0.21844658,0.3751343,0.0791344,0.664661,-0.057855777,-0.39903262,-0.34269533,-0.41201672,0.73112524,0.19089681,0.03550349,0.25807816,0.25517988,-0.102335244,0.26341328,0.40340447,0.14713436,-0.25634533,-0.20704022,0.2342605,-0.023216896,-0.1289266,-0.11394756,0.28310058,0.48260224,-0.1843821,-0.16659692,0.08389362,-0.0008662194,-0.17946012,-0.20373516,0.03923928,-0.42578065,0.12802973,0.036497273,0.2061179,-0.31549144,0.09094153,-0.12907378,-0.15321451,-0.10591957,0.06274118,-0.032206528,0.26277384,-0.2519725,-0.14555332,-0.18139935,-0.26522827,-0.25767213,-0.01937877,0.11397056,-0.16126749,-0.249351,0.10846184,-0.21110237,-0.23894502,-0.079537384,-0.11198124,0.0026346445,0.43079868,0.33388534,-0.48465365,0.19061123,-0.52192855,0.27864766,0.4803492,-0.26670074,-0.060420472,-0.290333,0.10738316,0.03195327,0.45220676,-0.03424969,-0.08797156,-0.040415082,-0.22564156,-0.18444687,0.11191207,-0.48926595,0.1273017,0.35142228,-0.15133673,-0.25323737,-0.07284494,-0.2953695,0.3565801,0.18174824,0.21769845,-0.55908215,-0.21352261,-0.34401342,-0.019970946,0.058964886,0.22575644,0.086748734,-0.15999794,-0.088466056,0.0024466217,0.14403051,-0.049911432,0.0088818,0.17358044,0.5663344,-0.29862934,0.1975401,0.17088583,-0.2915914,0.2486643,-0.059978127,-0.32023978,0.12426082,-0.061291523,-0.08739489,0.011798553,0.044964135,-0.13399479,-0.03620571,-0.024111629,-0.1167477,0.2789671,-0.16565222,0.27516773,0.7235809,0.15942976,0.20721994,0.22357073,0.14172947,-0.04349675,-0.5863454,-0.16965702,-0.10600852,-0.056380484,-0.33362973,0.05525621,0.07937358,-0.31167975,0.075615495,-0.45597148,0.20719391,-0.15407228,-0.049213704,-0.1058481,-0.1309219,-0.2740764,0.04300585,-0.21739858,-0.4235816,-0.022211462,0.1872425,0.11208596,-0.32020485,-0.05480197,-0.2420992,-0.28357622,0.13066351,-0.17273787,0.41146895,0.23633474,0.026819788,-0.14289969,-0.41974193,0.13197337,0.3650193,-0.12663417,-0.23529713
C2,-0.4661797,0.13041417,0.03503842,0.22358245,-0.15709326,0.26615506,-0.083041765,-0.14240173,0.5847047,-0.28647515,0.034801252,-0.004002087,-0.18859087,-0.08818787,0.25230458,-0.56992644,0.033519153,0.115939155,0.04302121,0.29270074,0.29621172,0.10469717,0.42443535,0.39415392,-0.09535203,-0.23083848,-0.49893898,0.0675764,-0.16765249,-0.37837663,-0.23126632,0.34752572,-0.06256525,0.47761184,0.10113492,0.24660659,-0.26090515,0.32072166,-0.057284735,0.13261378,0.028530803,-0.18481049,-0.22834969,-0.46492267,-0.14417857,0.36366653,-0.1730882,0.13706818,-0.63079387,0.12026127,-0.41233295,-0.26796934,-0.06610216,0.26597765,0.16989082,-0.29609835,0.08247222,-0.054559328,-0.10660867,0.16855787,-0.04135891,0.07502863,0.070201024,-0.07280051,0.023759667,-0.111679025,-0.116136596,-0.5165528,0.010633551,-0.14258173,0.05084386,0.12674437,-0.5326323,-0.37326092,0.070941076,-0.2252214,-0.38783222,-0.085761786,-0.1571008,-0.24924324,-0.47771496,-0.5818845,0.20266566,-0.25473976,-0.45877373,-0.14584994,-0.21958321,-0.3226346,-0.14744791,0.16616778,0.18087626,0.13396215,-0.25524417,-0.03865026,-0.49964768,-0.22077468,-0.04750319,0.14058328,0.47293153,-0.31609076,-0.051492568,0.22454634,-0.56538403,0.37760377,-0.3566779,-0.08404095,0.39923042,-0.22442062,0.11429648,-0.3647949,-0.017836928,0.078776814,-0.23437776,-0.03645269,0.21307014,-0.09648055,0.21155265,-0.11966451,0.32080612,-0.25170064,0.018725894,-0.14670491,0.070716165,0.0028893389,0.36562294,0.27767837,0.14779066,-0.00846589,0.14911053,0.25215477,-0.1612482,0.31139076,-0.33053142,0.23812765,-0.007863507,-0.32617572,0.047741596,0.066858925,-0.23061655,-0.0011005774,-0.24666083,0.09940802,0.3689058,-0.13901956,-0.010598227,0.25152496,-0.12408335,-0.08643384,0.07101315,-0.29933584,-0.023330413,-0.15616855,-0.06051696,-0.13098118,-0.22067063,-0.13559827,0.24925381,-0.076915964,-0.40664324,-0.35632005,0.43684718,-0.052579552,0.6125454,0.48305112,-0.34892967,0.11979219,-0.09756864,0.034655176,0.025408804,0.2060419,-0.49163988,-0.25811428,-0.030606173,-0.10458615,-0.29670966,-0.26277268,0.19610035,0.38453257,-0.07494603,-0.5004505,-0.23072428,-0.47620675,0.14987029,0.17324069,0.29309115,0.22081542,-0.101231374,0.45438737,0.30703524,0.05331769,0.17698339,-0.32939598,0.07293563,-0.15494537,0.059654508,-0.27138594,-0.14233394,-0.5685683,0.16229063,0.177098,-0.0019031689,0.17543432,0.12713933,0.059057742,0.11440661,0.20928131,0.03346324,0.3540518,-0.29811594,-0.07691738,0.11217716,0.39996532,0.047770847,-0.34685925,-0.005042203,0.2622339,-0.07311014,0.37382972,-0.79551595,-0.13921954,-0.23593175,0.2188081,-0.3240189,-0.26042834,0.15532903,0.4341073,0.12669775,0.31591216,-0.3522253,0.27073768,-0.1012616,0.13857538,0.3762596,-0.16629422,0.027830645,-0.24313197,0.17901336,0.33024004,-0.07900778,-0.52784634,-0.4886301,-0.123117566,0.4075476,-0.06172216,0.28118142,0.0987458,-0.17139597,0.23361748,-0.16436687,0.11418237,-0.105239786,-0.18452859,-0.12039209,0.12860698,0.033510834,0.13366309,0.1932801,-0.71770924,-0.12728502,0.5231735,0.10304328,-0.25244877,-0.36852327,0.0033762008,0.22813007,0.24226585,0.29539967,-0.1398348,0.09059707,0.2998185,-0.44719842,-0.24420166,0.22078167,0.30329373,-0.25195825,0.07370161,0.082231194,0.42320672,0.018789493,-0.12404734,0.7082325,0.01760653,0.30832228,-0.3327411,0.1772578,0.042502254,0.11147594,-0.4377619,-0.10537823,0.049174007,-0.3056183,0.29124254,-0.02460033,0.32676712,0.023106597,-0.1833117,-0.26761466,0.18079206,-0.3397478,0.70679307,0.20991422,0.344759,-0.21664828,0.24546258,-0.5539474,-0.4055815,-0.15704092,0.12653759,-0.3893562,0.3609689,-0.41793138,0.21995288,0.027397893,-0.34817255,-0.14910175,0.42442545,0.0133533515,0.114357874,0.039528027,-0.09309799,0.12800458,0.048860997,0.2507436,0.6209467,0.2427991,-0.54150206,0.1215773,0.18028444,0.45822632,-0.20994994,-0.049357824,-0.4260196,-0.44363964,0.34574735,0.13233826,-0.4565033,0.10184531,0.31358135,0.058117952,0.09299999,-0.43695444,-0.32122496,-0.036073662,-0.18379986,0.0049863234,0.2935964,-0.54558015,-0.07476955,-0.06776614,0.009947907,0.114962764,-0.29483053,-0.2293767,0.17536163,0.14474726,0.31098425,-0.021447323,0.16447823,-0.36647356,-0.16702679,-0.28207704,-0.30778053,-0.05367101,-0.10449565,-0.10761535,-0.17227814,0.32481438,-0.025268659,0.6073377,-0.18503164,-0.3612498,-0.47514218,-0.14250082,-0.15411007,0.23446667,0.06862472,-0.05071776,0.11294378,0.1696319,-0.06434657,-0.1952874,0.4961281,0.25687203,0.15887535,0.04414007,-0.3046459,-0.021655016,-0.3335555,-0.05714277,-0.08524482,0.097930424,-0.23153555,-0.23508108,0.035704665,-0.2744062,0.35393232,0.07459561,-0.48556757,-0.12015819,0.3865601,0.29580215,0.24965465,-0.327981,0.04150264,-0.034953002,0.12254533,-0.34856787,-0.0704844,0.018464692,-0.44523552,-0.12584406,-0.10815936,0.69944876,0.14593738,-0.24557534,0.079904094,-0.1971898,-0.31766328,0.12674697,0.14269209,-0.5919151,-0.24762702,-0.45286903,-0.2162663,0.112215236,0.14865346,0.08477793,-0.19763675,-0.11664357,-0.24193393,-0.50305295,-0.07290281,0.025314726,-0.38742575,-0.8525036,-0.013979197,0.31528,0.15731552,0.29046223,0.56851476,0.39982116,-0.11015554,-0.19599983,-0.12488289,-0.0840189,0.2218245,-0.29403886,0.27797717,-0.15707284,0.553,-0.42644018,-0.11990825,0.28183547,0.41655552,0.115504816,-0.082589634,-0.20872837,-0.15545821,-0.5220402,-0.27492625,-0.005491499,-0.13845447,-0.17976317,0.18682826,0.30554286,-0.08967657,0.39691427,-0.051683694,0.27890694,0.40232083,0.28786358,0.12596188,0.06666082,0.009886544,0.01328595,0.37590218,0.09930542,-0.18923873,-0.0026088618,-0.16243611,0.08045422,0.26551044,-0.12605828,-0.31806064,-0.2990751,0.2932692,-0.034847163,-0.13538228,0.37996945,-0.47771242,-0.24283153,-0.12559232,-0.040574484,0.45769244,-0.3491039,0.32228565,-0.108808726,0.24055222,-0.28957888,0.08916566,-0.10833893,0.011840254,0.16509312,0.30981022,-0.6236295,-0.014588095,0.22328632,-0.7156802,0.28763777,-0.17241597,0.5701264,0.3417449
C3,0.18615365,-0.24992524,-0.38852307,0.3562771,-0.060796164,-0.22350623,0.4689554,0.5874886,0.26587248,-0.1509045,-0.4809193,-0.032741852,-0.16075535,0.010977492,0.16680382,0.10967234,-0.12021403,0.24367583,-0.14821318,0.3895537,-0.15876648,0.26585513,-0.111998014,0.50971454,0.024236634,-0.06632097,0.22840661,0.19759196,-0.17230833,-0.25676084,0.040435947,0.44017476,-0.033454474,-0.034599837,-0.081310414,-0.36785725,-0.0340313,0.07717987,-0.13977519,0.24407227,0.37431926,-0.39432278,0.4160385,0.22079492,0.16992201,0.08991905,-0.13132438,-0.011483386,-0.09989957,-0.59269226,0.13826488,0.13860056,-0.5385208,-0.19630872,0.073993534,0.019556563,0.07926752,0.11513266,-0.07094259,0.023666415,-0.29705554,0.6114083,-0.48277345,0.17807338,0.26363435,-0.027504668,-0.17807627,-0.128535,0.4134897,-0.1985498,0.52527285,-0.3882706,0.0051719397,0.04229472,0.24998002,0.14797875,-0.06097736,0.324001,0.18317361,-0.12917924,-0.082388744,0.09838997,0.32618028,0.006458968,0.12586412,-0.23336814,0.022491448,-0.07373006,0.14810023,-0.12240592,0.17086422,-0.5295786,-0.014971983,-0.28278366,0.07154153,-0.47652084,-0.07111989,0.11993539,0.16827282,-0.47099516,-0.030525085,0.26030558,0.022527143,0.13900346,-0.10298408,-0.07164116,-0.16155432,-0.22271653,0.3094988,0.02281215,0.23673937,0.10069083,0.120856896,0.0153461695,0.2735501,0.20427367,-0.1302017,0.13015895,0.07069501,-0.05512003,0.2349276,-0.36581096,-0.361777,-0.2940514,0.24081762,-0.1280044,-0.6532817,-0.13621399,0.6071872,0.09480525,-0.12198831,0.7168996,-0.051301084,-0.3709024,-0.003235992,0.26879364,0.17143625,0.24996957,0.15315814,0.28531238,-0.06901564,0.12963325,0.019301303,0.022556048,0.015117133,-0.396157,0.27826205,-0.1349668,-0.29807234,0.28740573,0.046965767,0.010508699,-0.18322068,0.09839145,0.31663656,-0.24300598,-0.23035416,-0.060202554,-0.1404783,-0.4033162,0.010296386,-0.13483427,-0.05720205,0.29449904,-0.17361245,-0.09430239,0.25670102,-0.2431272,-0.37754318,-0.1392194,-0.2994125,0.24120441,-0.11395943,0.09310397,-0.15315598,0.644318,-0.28174818,0.58546233,-0.27204177,0.09311487,-0.24482402,0.16979426,0.47743106,0.32732525,0.8341971,0.13303447,0.43205076,0.3142044,-0.07574069,-0.222334,-0.080698326,0.13145372,-0.115016,-0.11248777,-0.12804121,0.38914016,0.31547737,0.0833028,-0.23420894,0.0862617,-0.01701115,-0.1902813,-0.1764214,0.06019907,-0.13453314,-0.16733584,-0.12124383,0.44909015,0.016231574,-0.594025,-0.061064772,0.008016631,0.063092366,0.039659094,-0.081645705,0.28799602,0.023212582,0.19159865,0.2080336,-0.49894875,0.80577004,0.3965117,-0.53874195,0.12750126,0.13694543,-0.07840408,0.18376394,-0.038365714,0.22250691,-0.029109512,0.56332296,0.12217408,-0.102452956,-0.24829513,0.2448774,0.0059414133,0.4570903,-0.39610234,0.09009301,-0.17153713,-0.19595478,0.21258315,0.20969619,-0.15434554,0.19482456,0.116440795,0.019254114,0.2106947,-0.0728753,0.2122837,-0.40215793,0.3174935,0.08914766,-0.4676356,0.11991563,0.2130245,-0.03855122,-0.11369718,-0.24146049,0.03336254,0.46889096,0.31399372,-0.3709875,0.11862166,-0.2110858,-0.20660114,0.13092108,-0.064171396,0.25541976,-0.4246801,-0.17862251,0.5039473,-0.25258946,0.31814718,0.1043811,0.33964005,0.04911669,-0.14100543,0.39233443,0.05282408,-0.08069484,-0.19512653,0.41970542,0.42052677,0.35337856,-0.05730561,-0.079542406,-0.15532088,0.06839568,0.49086046,-0.14987783,-0.28289288,0.20634463,0.23621204,0.24150535,0.38719174,-0.31027603,-0.13467309,0.15082547,0.1447631,-0.107232496,-0.3222797,-0.27285656,-0.16700603,-0.11162563,-0.19558167,0.081429936,0.12453807,-0.7472502,0.06279766,-0.4148646,0.014979705,0.51331264,0.20320204,0.12168637,0.15872149,0.27158552,0.47834954,-0.16470325,0.4692898,-0.4005359,-0.023669466,-0.08465196,-0.34759653,0.58935153,0.010169648,-0.2124448,0.017153703,-0.06194464,-0.087073006,-0.2165483,0.15438439,-0.24204077,-0.30184886,0.045088716,-0.23866345,-0.3245938,0.2709816,0.27856353,-0.17284173,-0.20095243,-0.21737295,-0.38818595,0.7241686,0.07856101,0.04853324,0.053016536,-0.37995023,0.5434262,-0.24340963,-0.3343078,-0.29409805,-0.19107139,-0.46214265,-0.2449127,0.18391564,-0.15846008,-0.07124516,0.235372,0.07434291,-0.40917644,-0.052922223,0.21641687,-0.44958383,-0.24201903,-0.20915881,0.10048404,-0.0453969,0.09309695,-0.2515405,0.19931653,0.18621512,0.16831988,-0.058086682,0.13587871,-0.15090552,0.035034608,0.1976683,0.0784031,-0.25355667,-0.32099962,-0.1106609,-0.40361476,0.4765514,0.5397119,-0.051595557,0.5037563,0.3544123,-0.6017731,-0.049603652,-0.10683756,-0.08344255,0.069716945,0.22041827,0.0071704537,0.4453867,-0.5295884,-0.31545693,0.09031192,0.13502228,-0.20755693,0.27850094,-0.09123357,0.12722854,0.10469885,-0.11133847,0.15947075,-0.13032001,0.43033627,0.0641402,-0.34299898,-0.21117204,0.06975593,0.679466,0.50631976,-0.646538,-0.06775189,0.16437992,-0.03778208,-0.2994092,-0.24997166,-0.09026818,0.023232123,-0.061540194,-0.10182729,-0.13995892,0.20654689,0.09462233,-0.10216088,-0.2826848,-0.19066805,0.30816483,0.2162815,-0.1367602,-0.36693698,0.06254208,-0.22554335,0.0041885152,0.03803505,0.2322543,-0.22331631,0.191435,-0.110618435,0.18670093,0.28859335,0.039158285,0.31724435,-0.3911902,0.14779082,-0.17769882,0.34308445,-0.094943576,-0.3079348,-0.3274191,-0.41010278,-0.18299335,-0.094888344,-0.13221163,0.23588239,0.746957,-0.55248946,-0.22559234,-0.3531813,0.2778116,-0.10132614,-0.4430429,0.20000422,-0.25547487,-0.14503711,0.34418055,-0.06340329,-0.22265917,-0.39783207,0.11532307,0.06033148,-0.07424901,-0.72446835,0.3030779,-0.5913145,0.04584644,-0.32877865,0.36518478,-0.34981287,-0.38021487,0.14859313,0.42538628,0.10028254,-0.4987225,-0.5516042,0.019667327,0.29613337,0.22426283,-0.108219884,-0.113507226,0.38076854,-0.4789148,-0.20151591,-0.115818396,-0.26586673,0.23467705,-0.0881659,0.4632227,-0.15888542,0.27693567,-0.077937104,0.10095998,-0.25725377,0.41140068,0.12497337,-0.13634849,0.004390396,-0.12670535
C4,-0.25153986,0.057371497,0.024457473,0.111997746,-0.19826889,-0.33613688,0.33305687,0.33488482,-0.1928266,0.0041747913,-0.3954144,0.036421992,-0.37441462,-0.05942874,0.08059255,0.014964607,0.17780241,-0.04769353,-0.10863613,0.3575429,-0.04236204,-0.3743502,-0.27238587,0.38830748,0.35883552,-0.23945525,0.19562341,0.34828684,-0.31713033,0.37383747,0.15179005,0.5703464,0.17272559,0.17433749,-0.066896625,-0.21949819,0.15918879,0.12098111,-0.2680567,-0.30487347,0.06766315,-0.0761634,0.39606148,-0.02117274,0.3312135,-0.14838123,0.037356596,0.04574866,0.28014383,-0.1326838,-0.1415365,-0.3408252,0.18021537,-0.6042249,0.181627,0.18879843,0.24849176,0.14229766,0.059448905,0.2619059,0.06613453,0.13502753,-0.2873881,0.10196597,0.058188863,-0.25382358,0.26307413,-0.46650684,0.13806789,-0.29307023,0.41483238,0.15136322,-0.4674201,-0.10346738,0.029288203,-0.14890237,-0.30302882,0.12769423,-0.3527742,0.15889199,-0.06720553,0.07447823,-0.16370782,0.19804506,0.17997077,-0.2500417,-0.33245683,-0.04527308,-0.13506088,0.3095114,-0.2781311,0.16027328,0.1311763,0.39635107,0.06024542,0.11800978,-0.46445736,0.16946742,0.062070128,-0.088142686,-0.0068161637,-0.045123328,0.0110951625,-0.1590602,0.07037604,-0.2557541,0.026216833,-0.31833398,0.1071319,0.17441149,-0.023266315,0.25794217,0.07891889,-0.1987505,-0.027987015,0.08471294,0.12939347,0.28462607,-0.07973658,0.2638889,0.33072478,-0.106517896,-0.26151556,-0.3582485,0.19017911,-0.38185418,-0.1074159,0.07623139,0.072425365,0.13889259,-0.42875224,0.25010973,-0.13462862,-0.34573746,-0.090497844,0.10268967,-0.32588744,-0.5084555,-0.15648577,0.3783912,-0.049384072,0.39948615,-0.080202796,-0.3064078,-0.024356611,0.26387537,-0.07167747,-0.042099193,0.093682,-0.16081701,-0.046720907,-0.03781159,-0.33730584,0.15833232,0.13381702,-0.3043632,0.20214778,-0.058569074,0.4375718,-0.008944023,0.13724467,-0.3663446,-0.08166092,0.17437246,0.147567,0.17718975,0.42959037,-0.006255284,-0.14295146,-0.09231473,-0.25964925,0.12776947,-0.427295,-0.4143976,-0.24006423,0.3672009,0.07851694,0.09622628,0.0631155,0.105428085,-0.20000505,0.40120524,0.15100163,0.29539728,-0.08784924,0.32738996,-0.008410826,-0.21318989,-0.23487389,-0.25206605,-0.1260441,0.08649616,-0.17376804,0.15336815,-0.38459763,0.3234639,-0.069706425,-0.08827721,0.19168133,-0.44296432,-0.37689632,0.098176196,0.17366868,-0.091211624,0.14690942,-0.3962931,0.14732137,-0.029483907,-0.10753568,0.037680276,0.09053017,0.036288433,-0.24630255,-0.24413836,0.01955923,-0.09608163,0.17340337,-0.22859645,-0.16100124,0.013805434,0.22883272,-0.4326392,-0.12803143,0.33915085,0.080160126,-0.085588925,0.18037684,-0.269291,0.16769658,-0.19314457,0.09970857,-0.0006514713,0.05221444,-0.19509542,-0.09218569,-0.18502098,-0.20779958,0.084846236,-0.44885182,-0.3042189,-0.5547927,-0.21469548,-0.052747536,0.21961957,-0.18784292,0.11915476,-0.04262908,0.17846525,0.15234578,0.029559858,-0.24667579,-0.15287846,-0.36360863,-0.1202334,0.43219864,-0.04865136,-0.07759223,0.155357,-0.060015492,-0.06551032,0.3687096,-0.11755209,-0.03312268,0.011359094,-0.06709992,-0.1118325,-0.19192423,0.50089926,-0.37713397,0.27517405,-0.06310441,-0.1350964,-0.14417323,0.2558511,0.019801151,0.30235603,-0.1966874,0.3488164,0.2028051,-0.040374286,-0.1057093,0.07417664,0.04147808,0.10473354,-0.5928731,0.2609427,0.118814945,0.24368757,-0.28320783,0.26731643,0.5449676,-0.5960548,-0.0618308,0.28107038,0.025425613,0.035184674,-0.21682185,-0.38200963,-0.089200996,-0.29287773,0.011109874,0.19304857,-0.06859958,0.09838177,-0.14612181,-0.015581969,0.24544087,0.1153286,-0.20239258,0.08562255,-0.42997193,0.010054447,-0.043079622,0.024556186,-0.23663706,0.046454106,-0.1948816,-0.033146948,-0.24221498,0.078661196,-0.35577664,0.05184606,-0.18877469,-0.1335718,0.17392024,0.1851955,0.26713744,-0.15584895,-0.23546252,-0.15097639,-0.07786757,-0.1509412,-0.34169734,-0.047533754,-0.1668545,0.08878498,-0.08386793,-0.07051034,0.366155,0.1022313,-0.10602678,-0.0911307,-0.08271173,0.16224478,0.052158438,0.0063379705,-0.377245,-0.2690454,-0.035804994,0.34321728,-0.1304991,0.035990722,0.02451554,0.17448327,-0.08172305,-0.22601356,0.11425166,-0.17952976,0.16414735,-0.4600164,-0.30492973,-0.07536211,-0.31051177,0.119380884,0.18273954,-0.2725408,0.23269075,0.19684455,-0.2831044,0.40573317,0.23187912,0.054698803,-0.0741981,0.104035765,0.30055517,0.2935159,0.08234516,-0.20779657,0.09577825,-0.15652332,0.016966028,0.07891601,-0.040531375,-0.14911065,0.154035,-0.008265488,-0.1471385,0.094388485,0.21133226,0.30935574,0.27459553,-0.4058817,-0.19019678,0.10740238,-0.09589723,0.25769502,-0.17511666,-0.04591856,-0.09294868,0.25503436,-0.32773286,-0.21120912,-0.10169518,-0.025785295,0.06437918,-0.1418455,-0.14203417,-0.13293839,0.21551439,0.2863162,-0.10951663,-0.1634172,0.3502445,-0.11235623,0.4147612,-0.23275267,0.38544196,0.18076023,0.34310424,-0.41766885,-0.48102644,-0.32975686,-0.07353121,0.16870809,-0.30314475,-0.049801655,0.10549466,-0.011803977,0.29464826,-0.04577922,-0.31250203,-0.14088891,0.17416042,-0.39692664,-0.24497986,-0.23498428,-0.16459039,-0.002277188,-0.084580705,-0.07053084,0.21837047,-0.58907074,-0.088381715,-0.2648288,-0.23357771,0.07457901,-0.061528407,-0.16842085,-0.32164994,0.2815402,0.054025337,0.38224107,0.40624648,0.14248314,-0.06795047,0.2957914,-0.2972926,0.21222779,0.0020884713,-0.40628216,-0.39078987,0.114672266,-0.3475776,-0.01630748,-0.27474087,-0.1893554,0.07775658,-0.35186276,-0.30803594,0.36449444,0.33790055,-0.10541581,-0.010575347,-0.048628327,-0.0021276101,-0.18301317,0.010404941,-0.36852327,-0.03533136,0.15082185,0.20815311,-0.15292957,-0.22902267,0.51899654,-0.14008307,0.1602672,-0.01781401,-0.06335151,-0.17425862,0.06795135,0.41404486,-0.065044634,-0.06427049,0.20657052,0.23492852,-0.23339765,-0.41412985,-0.45377794,0.08808264,0.024504656,0.130739,-0.092162415,-0.2773514,0.21939492,-0.39272702,0.24288687,0.03711278,-0.25475016,0.38988683,-0.09386156,0.32859805,-0.16858923
C5,0.49636406,-0.33289325,0.5038538,0.06681297,-0.18208987,-0.1779477,-0.32830286,-0.13803747,0.2438488,-0.26009503,-0.030964598,0.17343305,0.121135026,-0.015199322,-0.23244476,0.30985922,-0.1115125,0.034904018,0.15541841,0.27695462,0.029117912,-0.26510483,0.28253412,0.21390477,-0.3171088,-0.13643046,0.093228936,0.23244604,-0.1819016,0.31597593,-0.2918118,0.21734026,0.16233814,0.03203879,0.4363295,0.344479,0.100413516,0.45525426,0.112633854,0.06810212,0.26018155,-0.1476332,-0.30822387,-0.03631293,0.25706217,0.26364517,0.18692979,-0.010811597,-0.42775482,0.28490973,-0.23870885,0.22366917,-0.19610102,0.24383888,0.1260623,0.5866399,-0.0041416883,0.16991627,-0.09072616,0.08219416,0.23920128,-0.063772425,-0.0004990697,0.41448727,-0.12994215,-0.20369405,-0.071982756,0.048251465,-0.06440296,-0.36069155,0.08993529,0.52319014,0.46701473,-0.18089303,0.06403157,0.16722366,-0.121604234,-0.24983706,0.16173859,0.0661653,-0.15243524,0.5241369,-0.015220171,0.24760233,0.122157685,-0.016772356,-0.3081857,-0.027226306,-0.06894312,0.30859834,0.35979456,0.10858045,-0.016106661,-0.07018524,-0.24117114,-0.30145395,-0.046833627,-0.12565024,0.15184143,0.21314189,-0.51443195,-0.09652601,-0.03420852,-0.31411284,-0.43278748,-0.020844646,0.22244899,0.025988705,-0.2459875,0.10846954,0.18676427,0.0728088,-0.34697443,-0.61373776,-0.03372345,-0.22939353,-0.2288138,-0.044611253,0.032431647,-0.020395704,-0.07599504,0.2301982,0.20078048,0.027122434,-0.06219228,-0.1749268,0.38131967,-0.10868488,0.010216631,0.027327362,0.55727625,0.021508023,0.033251505,0.2822098,-0.08278238,0.2078296,-0.5227399,-0.32207677,0.24032803,-0.0049968474,0.07224825,0.2912015,0.300964,-0.21849926,-0.14207405,0.81559944,-0.027072929,-0.18929036,-0.018731542,-0.34032488,-0.056682337,0.42496872,0.12501353,-0.11943047,-0.65556306,-0.09994114,0.19356677,0.30070537,-0.17616343,-0.056114644,0.1467995,-0.31288186,0.09263769,-0.28103453,0.38627926,0.056101806,-0.21904725,-0.05449298,0.22503397,-0.09554819,0.24438651,-0.49167287,-0.44148046,0.46540722,-0.14213285,0.28803867,0.31527045,0.5231525,-0.44961417,-0.14028549,0.05641883,0.16849652,-0.3207453,-0.1767292,-0.070844255,0.1299448,0.27971703,0.1441995,-0.26498303,-0.20352489,0.10227604,-0.45172516,-0.10715212,0.1903762,-0.30372915,-0.19278678,-0.40423054,-0.5565903,-0.3229235,0.36496913,-0.084859416,-0.16002026,0.3507601,-0.16170564,0.37410083,0.24687856,-0.15205503,-0.10832734,0.17827526,0.27709597,0.2150473,-0.07696248,-0.04093203,-0.34114313,0.23701537,-0.1912565,-0.06196034,-0.09091743,0.09450026,0.23843478,-0.17196554,-0.29136038,0.58869576,0.74552315,0.09964034,0.061945282,-0.5841331,0.1564255,-0.16188946,0.2925865,-0.029090531,0.101819985,-0.06858356,-0.21422848,-0.23018293,-0.2669368,0.0016683862,-0.17781094,0.3306344,-0.06992959,-0.06912862,0.10587291,-0.17113696,-0.37577647,0.21523675,0.2990272,0.05199805,-0.031953298,0.14025816,0.5546782,0.005898103,-0.023800693,-0.2259093,0.046341892,-0.25627872,0.36081752,-0.05067873,0.38803366,-0.009979483,-0.0669593,0.13282722,0.37288848,-0.21114779,-0.31776312,-0.075105816,0.08773358,0.37763613,-0.36984915,-0.3454108,0.52776474,0.11929987,-0.4169919,0.027995095,0.11731039,-0.33451363,0.20694432,-0.46122316,0.40181762,0.2980248,-0.102861725,0.08900149,0.005600743,-0.26004562,-0.0024497844,0.3793322,0.4624768,0.30924952,0.30925533,0.20108862,0.019862507,-0.18146607,0.3449999,-0.11844745,-0.05463507,0.19759,0.09602086,0.18239912,0.33406156,-0.3941996,0.057294294,-0.5101164,0.41638345,-0.003929764,0.32816243,0.06445064,0.027542554,-0.19773024,0.090682,-0.18581933,0.23441005,0.010764886,0.28470865,-0.17011747,0.0015953258,0.33116117,-0.32463622,-0.020569723,0.10749479,0.17729825,0.076800235,0.18725628,0.01250384,0.17021705,-0.21836892,-0.05416035,-0.118631855,0.13943875,-0.13160059,-0.2575932,-0.16852134,0.72965574,0.4207968,-0.022967666,-0.36659884,0.17042169,-0.04097602,0.15399365,0.22235815,-0.05914659,0.09322042,0.05771755,-0.40016866,-0.30074725,-0.4495433,-0.16331437,-0.29369426,0.01782874,0.05637966,-0.41362408,-0.22262916,-0.49182856,0.07562204,-0.30732107,-0.15657705,0.4612741,0.0059218667,-0.6292085,-0.07943907,-0.6065781,-0.12895522,-0.3114602,-0.10156957,0.06009507,-0.06500298,0.24822491,-0.38506755,0.15753213,-0.10358485,0.010310255,-0.063119866,0.028477684,0.14994736,-0.057795905,-0.1780681,-0.36042914,-0.17552593,0.042887278,0.12143731,-0.41627592,0.057295367,0.297949,-0.14154702,0.06209497,-0.25088915,0.19657257,-0.114651255,-0.2703267,-0.22466266,0.051734515,-0.4257178,-0.03387336,-0.24015158,-0.20657492,0.17461154,0.46314317,0.3286172,-0.1547986,0.3229816,0.5911079,0.3570778,-0.27417773,0.4724965,0.23618548,0.057603285,-0.41984946,0.07404499,-0.0038376898,-0.1671618,-0.062286586,-0.23339085,0.07675032,0.0880012,-0.07438364,-0.039810486,0.047753565,0.0014507659,-0.19250545,-0.602317,0.6540708,-0.34825614,-0.033051338,0.18623334,0.27373365,-0.20433685,0.104434654,0.3639664,0.021301236,0.18774396,-0.07756206,0.29294354,-0.35643685,0.03010381,-0.16574979,0.14042325,-0.12129931,0.048304148,0.29728487,0.25344846,0.16149072,0.2052502,0.11905974,-0.31325433,-0.39242563,0.29477093,-0.45444828,0.034503482,-0.31764317,0.07526931,-0.18472928,-0.22533506,0.33690488,0.1896036,0.59127384,0.22239053,-0.017437883,0.34332308,-0.4096927,0.14773476,0.2915132,0.0424184,-0.10050492,-0.17003098,0.19605342,0.3030384,-0.03814163,0.3404346,0.12231644,0.002039764,0.09876477,0.60632,-0.30644232,-0.1782505,0.022745244,-0.28170067,-0.08914124,-0.054018643,-0.08730051,0.020982802,0.23877594,0.26471353,0.24282303,0.009784553,-0.17639056,0.26053792,0.0020183213,-0.037746385,0.1128876,-0.26638222,0.14259022,-0.39191255,0.09226327,-0.27480483,-0.23989391,-0.3071475,-0.37745678,0.033161953,-0.1287827,0.19075748,-0.040815152,-0.002167061,-0.54648393,0.1716837,0.18930581,0.048339304,-0.20284164,-0.035266,-0.20392442,0.06546823,0.26620778,-0.10902741,0.18431929,-0.07289921
C6,-0.0061392374,-0.24750789,-0.37988368,-0.095547445,0.16889462,-0.07760984,0.074032776,0.11731019,-0.5333725,0.36054933,0.07382761,0.26381946,-0.39322343,0.13076335,-0.26866388,-0.3722783,-0.022575334,-0.1617626,0.590069,0.5344085,0.20330225,0.23120798,0.22524247,0.14337428,0.29241204,-0.32524204,-0.021134157,0.41580665,0.15993065,-0.11706941,0.04572123,0.33400545,-0.14725815,-0.24057172,0.11142045,0.113470554,-0.048317797,0.2394461,0.4658929,-0.0028026104,0.067838416,-0.17022547,0.15996867,0.3923541,-0.104437776,-0.2714802,-0.31754604,-0.4886355,0.25460896,-0.43662316,0.12530038,-0.21174154,0.01596456,0.23987532,0.21897727,0.07859514,0.013802696,-0.18696585,-0.031382747,-0.012092825,-0.26558104,0.2807582,0.20767434,0.17305917,0.45415187,0.12004643,-0.2066808,0.46295443,-0.25421506,-0.18836173,0.49083596,0.34135252,-0.30075917,0.3018478,-0.03607569,0.42774665,0.16719145,0.09323947,-0.3121188,-0.20123327,0.327837,-0.064249314,0.22955385,0.43696392,-0.24518833,0.008808538,-0.22306234,0.23686832,0.18018973,-0.4228595,-0.25755423,-0.5290834,0.6389771,0.42013434,0.32919705,-0.005782936,-0.5469117,0.26088202,0.2020249,-0.090923265,-0.21290113,-0.27217552,-0.08280311,-0.15122576,0.40154743,0.29973674,-0.24479869,0.20915739,-0.08802777,-0.08417132,0.1265068,0.015809208,0.5287869,-0.051380225,0.18736593,-0.030378457,0.4021672,0.42192057,0.07244623,-0.052258767,-0.04335562,0.26084772,0.44766942,0.16882041,0.28785533,-0.49312305,-0.39973003,0.033665504,0.076934814,0.14058614,-0.0944323,0.30512166,-0.3524879,-0.28976756,0.26066545,-0.2319966,0.026493387,0.407923,0.15641724,0.3083716,-0.1915025,-0.060336683,0.39570662,-0.1242688,-0.18625134,0.6819138,0.14120726,-0.43321007,0.15322842,0.4363383,0.052491587,-0.011177024,-0.06235888,0.27154803,-0.08263844,-0.24241628,0.34687907,0.19950439,0.20470992,0.0045848973,-0.2548727,0.31148496,0.12411988,-0.31430674,-0.2864553,-0.021464743,0.31698573,0.515119,0.18750036,-0.37636292,-0.20091917,0.11069274,-0.11366582,-0.15204635,0.26699266,0.079025,-0.24514502,0.38624758,-0.11249448,0.10470924,0.024560742,0.19443548,0.034319863,0.030070137,0.32579586,-0.17816818,-0.14711237,-0.11557744,0.43024108,0.10577693,0.1736499,0.18133444,-0.36083868,0.07219681,0.38755026,0.24983183,-0.039440818,-0.08130866,-0.34296295,-0.10919828,0.2184967,0.32445988,-0.078901894,0.5080689,0.18067464,-0.5193895,-0.025277134,0.33205277,-0.11071525,-0.4929508,-0.020443633,-0.4258467,-0.06647709,0.41210008,0.042305388,0.19776285,-0.46562064,-0.14369625,-0.26974458,-0.43812263,0.13278621,0.066399574,-0.36345905,-0.025742482,-0.26005173,-0.25251985,-0.28918716,-0.15932244,-0.18444535,-0.22913131,-0.1122803,-0.24003944,-0.058154643,0.11483545,-0.24325171,0.07871562,0.255313,-0.29296297,0.17076132,-0.09854039,-0.40493056,-0.06502682,-0.0102878995,-0.33582318,-0.27365807,-0.08871171,-0.13898298,0.18932149,0.25864744,0.17030852,-0.304006,0.4201055,-0.19856642,0.25374454,-0.08776685,0.02579834,0.39600277,0.18326563,-0.29327607,-0.36636236,-0.053985186,0.2730499,-0.08885353,-0.082635194,-0.27741557,-0.32261804,0.23213147,-0.21904211,0.06995741,0.034239747,-0.37331793,0.36906177,0.18044497,-0.07925155,0.30823976,-0.36369523,-0.14697386,0.012052797,0.21196732,0.119737476,0.033260424,-0.24095297,0.27487385,0.13610157,0.039991766,0.17938681,-0.34652165,0.5652731,-0.1870168,-0.6323946,-0.29654658,-0.04212442,0.18065543,-0.54391813,0.7003298,-0.090655975,0.19849595,-0.086242326,-0.17350328,-0.11278914,-0.07061524,0.17137548,-0.5585495,-0.3299663,-0.07490544,-0.26158577,-0.39149317,0.059627127,-0.2144416,0.06805822,-0.07115644,-0.26507753,0.19556478,0.015707009,0.18731488,-0.12348265,0.24688637,0.047925793,-0.17562228,0.091493934,-0.32667494,-0.2080057,-0.4407471,-0.033969875,0.33999276,-0.30943835,-0.31742626,0.17637937,-0.002213575,0.27056065,-0.4951062,-0.40697736,-0.08682293,0.08894645,-0.41886356,-0.15990262,-0.094504885,0.1241415,-0.40557557,0.049831577,-0.14913405,-0.13029578,-0.02633713,-0.19760156,-0.0023722053,0.22267033,-0.64801973,-0.24989156,0.15838552,0.59120286,-0.39472795,0.2546279,-0.018717904,-0.119047046,-0.1073359,-0.08251905,0.15401909,-0.511531,-0.16871491,0.057796776,0.3062005,-0.12608063,0.20733514,-0.11012411,0.031175662,0.41849688,-0.572885,0.14050844,-0.050503463,0.53810954,-0.21750045,-0.53134143,0.17447022,0.20784125,0.21774319,0.18675855,0.19863094,0.123116046,-0.5775441,-0.31530938,-0.12854183,0.4552177,-0.5523007,0.10140071,0.011185452,0.5502036,-0.13631243,-0.2221128,-0.25534093,0.033405557,-0.34024644,-0.25079212,-0.23609856,-0.23414123,-0.30886644,0.21263322,0.050854888,-0.2973944,-0.113117255,0.12735799,0.10344958,-0.2341901,-0.08524181,-0.10969339,0.16529503,0.17154893,-0.2583259,-0.026430547,0.01026953,-0.3030239,-0.27828443,-0.0047241747,-0.368125,-0.17500305,-0.16915607,-0.06993094,0.018763531,-0.67105114,0.18014392,0.09096534,-0.6386325,-0.53084916,0.31225508,0.3172216,-0.54176974,0.38377133,0.14881277,-0.275107,0.109847166,0.14029741,-0.3385274,-0.07952033,0.104066126,0.05139877,0.01623639,-0.16595751,-0.4785004,0.13490319,-0.07751016,-0.01900769,-0.11620525,-0.120186225,0.06398898,0.059568606,-0.36557347,-0.47967324,-0.18016145,0.003401598,-0.14148408,0.2718683,0.38351604,-0.42515025,-0.13772637,-0.12353822,-0.15359847,0.022007138,-0.46924382,-0.35381228,-0.2868231,-0.1536506,-0.20392856,0.22238621,0.19775641,-0.31719178,0.078662656,0.5474538,-0.36491242,0.09598814,0.23971376,0.56209654,0.43708405,0.1418415,-0.005521536,-0.11377307,-0.12784865,0.19295382,0.017085142,-0.28138945,0.25311622,0.0021464303,0.25079337,0.08835919,-0.16134925,0.031928886,0.24815091,0.4641517,-0.5779812,0.23817816,-0.4018008,0.07115742,-0.17213097,0.20425561,0.0334946,0.20347635,0.21939726,0.046849057,0.11792151,0.40449262,0.07893133,0.47477204,0.40344328,0.33078438,0.09012733,0.26683155,-0.21295753,-0.28962678,0.18824264,0.5473878,0.27110896,0.056585185,-0.043568082,-0.17453468
