DiseaseID,feature_1,feature_2,feature_3,feature_4,feature_5,feature_6,feature_7,feature_8,feature_9,feature_10,feature_11,feature_12,feature_13,feature_14,feature_15,feature_16,feature_17,feature_18,feature_19,feature_20,feature_21,feature_22,feature_23,feature_24,feature_25,feature_26,feature_27,feature_28,feature_29,feature_30,feature_31,feature_32,feature_33,feature_34,feature_35,feature_36,feature_37,feature_38,feature_39,feature_40,feature_41,feature_42,feature_43,feature_44,feature_45,feature_46,feature_47,feature_48,feature_49,feature_50,feature_51,feature_52,feature_53,feature_54,feature_55,feature_56,feature_57,feature_58,feature_59,feature_60,feature_61,feature_62,feature_63,feature_64,feature_65,feature_66,feature_67,feature_68,feature_69,feature_70,feature_71,feature_72,feature_73,feature_74,feature_75,feature_76,feature_77,feature_78,feature_79,feature_80,feature_81,feature_82,feature_83,feature_84,feature_85,feature_86,feature_87,feature_88,feature_89,feature_90,feature_91,feature_92,feature_93,feature_94,feature_95,feature_96,feature_97,feature_98,feature_99,feature_100,feature_101,feature_102,feature_103,feature_104,feature_105,feature_106,feature_107,feature_108,feature_109,feature_110,feature_111,feature_112,feature_113,feature_114,feature_115,feature_116,feature_117,feature_118,feature_119,feature_120,feature_121,feature_122,feature_123,feature_124,feature_125,feature_126,feature_127,feature_128,feature_129,feature_130,feature_131,feature_132,feature_133,feature_134,feature_135,feature_136,feature_137,feature_138,feature_139,feature_140,feature_141,feature_142,feature_143,feature_144,feature_145,feature_146,feature_147,feature_148,feature_149,feature_150,feature_151,feature_152,feature_153,feature_154,feature_155,feature_156,feature_157,feature_158,feature_159,feature_160,feature_161,feature_162,feature_163,feature_164,feature_165,feature_166,feature_167,feature_168,feature_169,feature_170,feature_171,feature_172,feature_173,feature_174,feature_175,feature_176,feature_177,feature_178,feature_179,feature_180,feature_181,feature_182,feature_183,feature_184,feature_185,feature_186,feature_187,feature_188,feature_189,feature_190,feature_191,feature_192,feature_193,feature_194,feature_195,feature_196,feature_197,feature_198,feature_199,feature_200,feature_201,feature_202,feature_203,feature_204,feature_205,feature_206,feature_207,feature_208,feature_209,feature_210,feature_211,feature_212,feature_213,feature_214,feature_215,feature_216,feature_217,feature_218,feature_219,feature_220,feature_221,feature_222,feature_223,feature_224,feature_225,feature_226,feature_227,feature_228,feature_229,feature_230,feature_231,feature_232,feature_233,feature_234,feature_235,feature_236,feature_237,feature_238,feature_239,feature_240,feature_241,feature_242,feature_243,feature_244,feature_245,feature_246,feature_247,feature_248,feature_249,feature_250,feature_251,feature_252,feature_253,feature_254,feature_255,feature_256,feature_257,feature_258,feature_259,feature_260,feature_261,feature_262,feature_263,feature_264,feature_265,feature_266,feature_267,feature_268,feature_269,feature_270,feature_271,feature_272,feature_273,feature_274,feature_275,feature_276,feature_277,feature_278,feature_279,feature_280,feature_281,feature_282,feature_283,feature_284,feature_285,feature_286,feature_287,feature_288,feature_289,feature_290,feature_291,feature_292,feature_293,feature_294,feature_295,feature_296,feature_297,feature_298,feature_299,feature_300,feature_301,feature_302,feature_303,feature_304,feature_305,feature_306,feature_307,feature_308,feature_309,feature_310,feature_311,feature_312,feature_313,feature_314,feature_315,feature_316,feature_317,feature_318,feature_319,feature_320,feature_321,feature_322,feature_323,feature_324,feature_325,feature_326,feature_327,feature_328,feature_329,feature_330,feature_331,feature_332,feature_333,feature_334,feature_335,feature_336,feature_337,feature_338,feature_339,feature_340,feature_341,feature_342,feature_343,feature_344,feature_345,feature_346,feature_347,feature_348,feature_349,feature_350,feature_351,feature_352,feature_353,feature_354,feature_355,feature_356,feature_357,feature_358,feature_359,feature_360,feature_361,feature_362,feature_363,feature_364,feature_365,feature_366,feature_367,feature_368,feature_369,feature_370,feature_371,feature_372,feature_373,feature_374,feature_375,feature_376,feature_377,feature_378,feature_379,feature_380,feature_381,feature_382,feature_383,feature_384,feature_385,feature_386,feature_387,feature_388,feature_389,feature_390,feature_391,feature_392,feature_393,feature_394,feature_395,feature_396,feature_397,feature_398,feature_399,feature_400,feature_401,feature_402,feature_403,feature_404,feature_405,feature_406,feature_407,feature_408,feature_409,feature_410,feature_411,feature_412,feature_413,feature_414,feature_415,feature_416,feature_417,feature_418,feature_419,feature_420,feature_421,feature_422,feature_423,feature_424,feature_425,feature_426,feature_427,feature_428,feature_429,feature_430,feature_431,feature_432,feature_433,feature_434,feature_435,feature_436,feature_437,feature_438,feature_439,feature_440,feature_441,feature_442,feature_443,feature_444,feature_445,feature_446,feature_447,feature_448,feature_449,feature_450,feature_451,feature_452,feature_453,feature_454,feature_455,feature_456,feature_457,feature_458,feature_459,feature_460,feature_461,feature_462,feature_463,feature_464,feature_465,feature_466,feature_467,feature_468,feature_469,feature_470,feature_471,feature_472,feature_473,feature_474,feature_475,feature_476,feature_477,feature_478,feature_479,feature_480,feature_481,feature_482,feature_483,feature_484,feature_485,feature_486,feature_487,feature_488,feature_489,feature_490,feature_491,feature_492,feature_493,feature_494,feature_495,feature_496,feature_497,feature_498,feature_499,feature_500,feature_501,feature_502,feature_503,feature_504,feature_505,feature_506,feature_507,feature_508,feature_509,feature_510,feature_511,feature_512
C1,0.4722902,-0.043088034,-0.20975891,-0.17584768,0.28521043,0.047080755,-0.07014524,-0.45732996,-0.12932402,-0.017250009,-0.17317536,-0.16604327,0.18939897,0.15598184,0.030592293,0.15847537,0.13413294,-0.23273057,-0.15672588,-0.30990234,-0.15821512,0.011157349,0.18837073,-0.2408422,0.15476401,0.56191677,-0.023159645,0.103355885,0.07431373,-0.524178,0.21830869,-0.5551957,0.010030162,-0.27512333,-0.022259582,-0.19635415,-0.14789477,-0.047359604,-0.41983855,-0.051240593,-0.08446053,-0.04316403,0.355532,-0.22715926,0.23306626,-0.03361045,-0.020458931,0.108462386,0.113167964,-0.06971932,-0.19954716,0.12986895,0.23304099,0.0016933084,-0.2748453,0.09437181,-0.12195114,0.26668516,-0.13650204,-0.08832321,0.32426658,-0.43420997,0.2681319,-0.3191909,-0.05399842,-0.10844483,0.21315083,0.17567718,-0.24563958,0.11331691,0.15222639,-0.25604022,-0.15333924,0.20048313,0.10892002,-0.34415203,-0.13711974,0.16272497,-0.29577038,-0.13110064,0.02413962,0.48189127,0.019130588,0.10625275,-0.23854996,-0.13432398,0.23689747,-0.16360393,0.26406103,0.07428011,-0.124482244,-0.6980688,0.32584834,0.10365,0.004411109,0.32326418,0.5012467,-0.031120569,0.03812252,0.36619785,-0.0017271563,-0.17838782,-0.12953117,0.08978133,-0.042491086,-0.06740692,-0.012680821,0.015186988,-0.18475482,-0.28197896,-0.26394838,0.29314002,-0.063232474,-0.060225606,0.5471043,0.20947033,-0.037574135,-0.23533219,-0.08000307,-0.13819411,0.31427547,0.21665773,0.10776484,-0.03652215,0.04469852,0.506626,0.13117202,-0.28522497,-0.30969417,0.12983909,-0.4156692,-0.08767283,-0.30735448,-0.16194129,-0.23342365,0.10320217,0.08350131,-0.12769675,-0.17165464,-0.07661287,0.16749492,-0.38357487,-0.021499924,-0.07999653,-0.1118423,0.1306844,0.013659656,0.22057709,-0.17352676,-0.0035260357,-0.12926511,-0.19180731,0.15127197,0.09780332,-0.29342008,-0.20761889,0.091614015,0.12893364,-0.015229125,0.21588567,-0.10827404,-0.11639863,0.22295958,-0.06693025,0.03904523,-0.16546959,-0.059679784,0.023912322,-0.07273763,0.121482186,0.027344432,0.14034767,-0.052857526,-0.05481256,0.3029299,0.12658212,0.3149358,0.0076519325,-0.13010427,-0.23779722,0.2977148,-0.13610622,-0.14022948,0.15793012,0.1202468,0.4077281,0.39464462,-0.4133964,0.4599805,0.008386489,0.05928126,-0.15786374,0.114803955,0.03163342,-0.07622476,0.329983,-0.11809607,0.1283919,0.23560065,0.0213997,-0.0025174543,-0.026122164,-0.1371383,0.013269484,-0.1636562,0.09404187,-0.03642,0.50841385,-0.0482445,0.056402743,0.21228963,-0.23460832,-0.27813733,0.23258343,-0.1297603,0.18212357,0.15343344,-0.14053017,0.07102677,0.18734133,-0.19652995,-0.3396276,0.2884861,-0.27660385,0.2049151,-0.36103916,-0.11130592,-0.17638665,0.13550997,0.17725162,-0.020344622,-0.15901226,0.46410236,-0.2872752,0.09656587,-0.024135865,-0.46045566,0.083932705,-0.3520447,-0.44704613,0.12140949,0.06344975,0.01104239,0.02305166,-0.03666047,-0.21821035,-0.42349502,-0.062098593,0.33697543,0.19526257,-0.0024759397,-0.1158678,-0.28014743,-0.48964897,0.10924842,0.6174127,0.16108319,-0.09267056,0.090186045,0.1256757,0.37894577,0.2535325,-0.18699805,0.20186141,0.12346768,0.19805884,-0.28081733,0.053523913,0.18273452,-0.4687133,0.45313576,-0.06497477,0.0020247921,0.5830424,0.009689163,0.1809775,0.24679866,-0.32764623,0.019150965,0.1943309,-0.18157366,0.32120198,-0.15178844,0.057949156,0.09314509,-0.12495801,-0.017047148,0.11768197,-0.27579233,0.02503736,-0.11406962,0.3526167,-0.2756061,-0.068667024,0.05951614,-0.09532293,-0.04407633,-0.45421302,-0.24895743,0.047624998,-0.03537876,-0.09145373,-0.13921364,-0.26123124,-0.20988396,-0.23025826,-0.10092408,0.0068687797,0.0027771927,0.27571207,-0.12865019,0.51056695,-0.27657112,-0.18599012,-0.41842437,0.07866919,0.2825019,-0.13154252,0.07388527,-0.22132882,0.17871162,0.42518884,-0.29671973,-0.27171704,0.15810639,0.054845937,-0.36430198,0.00059711933,-0.14857972,-0.06172146,-0.04376421,0.1420806,-0.23401189,0.36316696,-0.093733124,-0.085217156,0.27228945,-0.18511659,-0.124018796,-0.41701636,-0.23335098,-0.04715928,0.4145702,0.10101535,0.27547705,0.104316875,0.055760518,0.4121155,0.13390055,0.14482689,0.39298198,0.21541938,0.31196204,-0.11542466,0.53139204,-0.15583932,0.10324928,0.27398464,0.19714352,-0.31161454,0.20475832,-0.025893912,-0.17669992,0.028629381,-0.21722259,-0.020594649,0.09760919,-0.10121446,-0.4139244,0.043101452,0.19946542,0.12345927,-0.23438075,-0.3508197,0.086222455,0.40696344,-0.16930489,0.23005155,-0.028219644,0.018883083,-0.13005894,-0.2710775,-0.12667704,-0.10727578,-0.06860348,0.09445851,0.1587412,0.37514588,0.58449316,0.19692779,-0.037298635,-0.1658828,-0.5587989,-0.25936478,-0.03215456,-0.12278554,0.1978575,0.27336276,0.34363705,0.10471125,-0.038022667,0.26319778,0.42019385,-0.03392721,-0.122111276,0.4039997,0.34265697,0.031779863,-0.34370354,0.38056234,0.063029155,-0.015058704,-0.08876795,0.34531042,-0.20391674,-0.303013,0.17578313,0.023884919,0.29523855,-0.17542735,-0.13498685,0.2716153,0.23574376,-0.46914804,0.32069078,-0.23754922,-0.06414295,-0.015215613,0.019497499,-0.1607361,0.07278359,-0.059223093,0.13708696,0.29249722,0.0782558,0.05595059,-0.10564107,-0.17953822,-0.06925254,0.051123843,-0.10907488,0.19524083,-0.18290229,0.01637828,0.30531272,-0.016788796,-0.14187203,0.06364821,-0.24216193,-0.029548498,0.04035808,-0.116202995,0.046789445,0.07359776,0.11504324,-0.43148452,-0.2610042,-0.27405468,0.29732877,-0.026861288,-0.20920809,0.2152949,-0.052280508,-0.26601928,-0.70500845,0.0720519,0.103855185,-0.046515718,0.2327862,-0.09353165,0.095910706,0.13196251,-0.30439344,-0.078772835,-0.063243344,0.1457703,-0.06582168,0.034700792,0.33678627,0.29729646,-0.10269357,0.18936077,0.09432694,-0.3601887,0.045027256,-0.24555027,0.20379221,-0.13119403,0.07248865,0.13774863,-0.02112044,-0.09077586,-0.08182278,0.24513051,0.38920698,0.2841083,0.23296526,-0.08851207,0.10670838,-0.041679986,0.0020403732,0.19021949,0.22626099,0.32414916,-0.009371996,0.15742719,-0.023737982,-0.11622649,-0.122478984,0.0028607324,-0.3479454,0.07720102
C2,-0.0189488,0.15822092,-0.0920045,-0.1401605,-0.1007546,-0.09500104,0.25320998,0.3708939,0.10791368,0.28863502,-0.3615414,-0.26710486,0.27346995,-0.43588513,0.09555057,0.120745555,-0.035980444,0.23739767,0.10916884,0.14330852,0.18288815,-0.13223049,-0.07236176,0.11285941,-0.23676482,-0.2258279,-0.3149805,0.061842047,-0.09029982,-0.43618524,0.37866184,0.08985302,-0.053868152,-0.08146596,0.3017706,0.04498972,0.0946912,0.06560156,0.3901726,0.025077738,-0.06588729,-0.3479362,-0.14571443,-0.3309671,0.16256168,-0.03086318,-0.054493308,-0.048888847,-0.13902977,0.13837814,0.33149284,0.18513745,0.23889846,0.08875598,0.0461713,-0.3137007,-0.05931671,-0.2344338,-0.10074693,0.06323167,-0.043667108,0.06512375,0.21885389,-0.43936902,-0.23424676,0.08129027,0.03803865,0.051370986,-0.2662009,0.057775784,-0.007296387,0.10446125,-0.38575408,0.14311726,-0.06791532,-0.3987457,-0.32296753,-0.12667531,0.32405603,0.2017596,0.0458394,0.34574327,0.37201446,-0.031790033,-0.22139393,-0.17436484,0.17730576,0.13378079,0.10834847,-0.12426213,-0.35861853,0.36633426,0.10749693,0.039909486,-0.3497416,-0.3106014,-0.1446099,0.30960202,0.049528204,-0.1140833,-0.6364223,0.06430328,0.1742186,0.2987138,-0.16263643,0.12875316,-0.004129231,0.2544067,0.3150742,-0.18801063,0.2283585,-0.1749765,-0.42126712,-0.54399,-0.0922816,0.05237771,0.19625238,0.17949522,0.19818014,-0.07461285,0.046620943,-0.27162135,0.124555916,0.575495,-0.12582341,-0.02736573,0.03557864,0.24500695,-0.45354992,-0.2436473,0.09847711,-0.21528894,-0.10610694,0.2618772,0.0062748343,-0.34186158,-0.1903846,-0.026719704,0.43623006,0.1607005,0.028904922,-0.22178835,0.23678067,-0.13106403,0.094277605,0.29849565,-0.13711277,-0.112907834,0.44678724,-0.27837017,0.06021856,0.28626224,0.3151492,-0.36533538,0.24834743,0.026831605,0.25848654,0.20162886,0.26852283,0.00076153874,0.65486115,-0.3605036,0.30722165,0.09412959,-0.3392338,-0.0110080615,0.2617998,-0.021153763,-0.059573762,0.16522405,-0.049537614,0.38974586,0.25846386,0.08070592,-0.31368554,-0.0506835,-0.57780504,0.07530838,0.10579732,0.48179978,-0.34923092,0.29478115,0.24395923,-0.1470217,-0.22855406,-0.23228675,0.39923516,0.29736498,-0.1732023,-0.022259984,-0.062599696,0.10372084,-0.11533057,-0.39088702,-0.1618758,0.019523188,-0.056777023,0.039967194,-0.030863214,-0.06682364,0.37255526,0.22617744,0.0032917447,0.14157644,-0.19367076,-0.020660685,-0.015447002,-0.29309237,-0.0700808,-0.07835807,0.47229356,-0.2894008,0.14861545,0.047658738,0.17190576,-0.07166953,0.1742683,0.047685675,-0.25274515,0.2604568,-0.50904816,-0.3025753,0.2223733,0.20700577,0.05267074,-0.057363257,-0.1595657,-0.12033776,0.35555112,0.32708684,-0.19951558,-0.2739304,0.0208067,0.35562652,-0.14146891,-0.14339629,0.23772551,0.012838215,-0.2926787,-0.10429543,0.023559034,0.08219579,-0.23147693,0.020110901,-0.30029386,0.22748442,-0.36024836,-0.47474965,0.13005841,0.29639143,0.21968758,-0.07366929,0.38415205,0.0053793713,-0.40685144,-0.0427721,-0.081815735,-0.35840896,0.4248776,0.12229022,-0.016057126,0.25166065,-0.19389541,-0.091124274,0.24105,-0.26596472,-0.16721001,-0.27935404,-0.2633222,-0.011830147,-0.3556692,0.4309977,-0.0039023366,0.3711837,-0.12438951,0.051318437,-0.2506514,0.5261557,-0.080144525,0.13184375,0.11244418,0.19371557,0.074735306,0.07019671,-0.16643012,-0.14485338,0.21688217,0.024949722,-0.09276229,-0.1379968,0.23260322,-0.44967577,-0.6657502,0.029633138,-0.18251276,0.33167282,-0.18198316,0.27937934,0.16405013,0.0031863376,-0.020479284,-0.28554067,0.0017991439,-0.46464002,0.44378403,-0.23005852,0.020487405,0.20196274,-0.18245164,0.04691619,-0.0071462467,0.21101826,0.2181701,0.034461666,0.4799995,0.16024634,0.34179348,-0.0013096109,0.42695442,0.35471788,0.26540807,-0.23519932,-0.326131,0.6855242,-0.107233204,0.501556,0.15873909,-0.19899315,0.26372188,-0.014531352,0.13943627,0.038068406,0.088319786,-0.054161392,0.1779696,-0.077574275,-0.12938182,0.06664336,-0.04368189,-0.021552987,0.7676344,0.16771019,0.17033067,0.08119465,-0.11151707,-0.016267993,0.08023014,-0.5276808,-0.018310465,-0.035899278,-0.38919735,0.10579707,-0.17116165,0.25512594,-0.23913829,0.21268249,0.15975937,-0.06078293,-0.28123006,-0.006404303,-0.20541656,0.21504411,-0.22490317,0.18320985,0.07478775,-0.08094884,-0.10602147,-0.06217658,0.48426247,0.32124183,-0.2577796,-0.23787776,0.1379297,-0.28430676,-0.5498837,-0.1320028,-0.30812848,0.15319325,-0.4285887,0.21298301,-0.20729816,0.061952256,0.049930193,0.16035208,0.1783998,0.13258225,0.028992012,-0.037792973,0.031118866,0.42376012,-0.60503185,-0.13232675,0.37117687,-0.14241368,0.09110257,-0.18364547,-0.22921982,-0.19511153,-0.12040735,0.06621921,-0.24194369,0.2712509,-0.1929206,0.05444234,0.18874618,-0.018290944,-0.33389434,-0.22934327,0.08067481,0.13520443,-0.06225366,0.22696629,0.28406247,0.077639155,0.09008719,-0.063376635,-0.16335332,0.21343225,0.22480501,-0.07927535,0.065241225,0.15688372,-0.15961382,0.40597135,-0.16449994,-0.22261602,0.2036953,0.012357831,-0.2782381,-0.4224257,0.16011405,0.054999493,0.41928217,-0.15721887,-0.26903713,0.042793773,0.12942728,-0.24095225,0.07344545,0.21534777,0.20520663,-0.58594674,-0.017560944,0.010179304,-0.158429,-0.08495541,0.20502384,0.3180065,0.119015,0.05354112,0.027645934,-0.267466,0.14488786,-0.09966312,0.053311184,0.043434136,0.05666131,0.5891126,-0.4857693,0.15649922,-0.2764039,-0.5287576,-0.23144743,0.020627663,0.33316472,0.19021104,-0.36312506,-0.40392822,0.28288126,-0.002146732,-0.23195222,0.10293113,0.17226434,0.00701423,-0.5135625,-0.2975475,-0.16758083,0.0055028535,0.061782487,0.22540167,0.37540442,0.35353607,0.14162467,-0.17939755,-0.0349961,0.22137251,0.08481599,0.09281295,-0.10719641,0.0013063848,0.09580697,-0.3092037,0.07434431,-0.14047888,0.14157818,-0.13191694,-0.15986323,0.37820804,-0.15651274,-0.21142715,-0.0940238,0.17649198,-0.24709842,-0.056392938,-0.09812899,0.23800552,-0.08747136,0.038753998,-0.3239348,-0.23551664,0.0834989,0.12142834
C3,0.12491832,0.32317567,0.20419857,0.02813683,-0.034578077,-0.1073104,0.30606437,-0.302965,0.4037342,0.35656288,0.48558757,0.17227308,-0.16433316,-0.09546584,-0.36974174,0.49487492,0.17965084,0.24502811,0.42679757,0.06796804,0.15130097,-0.18089938,-0.045143656,0.09394736,-0.02504725,0.15614945,0.5284954,-0.11173601,-0.087936826,-0.066875786,-0.014867462,-0.51789314,0.03754687,0.010933679,0.115495965,0.039143987,-0.33208257,-0.16625296,0.013760641,0.31187013,0.042731285,-0.22021644,-0.02320861,-0.15920049,0.08141198,0.28216264,-0.16830194,0.69676715,-0.24569201,-0.1391119,-0.17588517,-0.01880341,0.03957139,0.06670164,-0.035231963,0.044696774,0.0053351186,-0.03778935,0.35357574,-0.16057763,-0.2568827,0.21674526,0.15100381,-0.49208105,-0.13497728,0.23494017,-0.5411472,0.38274986,-0.50365984,0.17170566,0.36313632,-0.16975366,0.04109484,0.39571244,-0.28546906,-0.30460253,-0.020307546,-0.38068917,0.39079005,-0.04718272,-0.0102684945,0.06745524,0.18232864,0.084989086,-0.4731255,0.006289564,-0.19149348,-0.27163628,-0.020586908,-0.06903642,-0.15058789,-0.17123827,0.46535668,0.14996506,-0.5170318,0.3033597,0.13786682,-0.4552523,0.12190764,0.14914009,0.11940448,-0.4271115,0.50231737,0.48246646,-0.27987695,-0.10315959,0.23084477,0.5608952,-0.16043267,0.23217309,0.6165189,0.1724936,-0.23122618,-0.20444155,-0.57750666,-0.026402753,0.4034569,-0.11875366,-0.14527698,-0.036772095,0.0591326,-0.14048518,0.1671159,0.22958085,0.32028556,0.0022333115,0.2932156,-0.04094317,0.23658404,-0.4832449,0.25110722,-0.6118877,0.03455321,0.041281916,-0.1600467,-0.13089775,-0.13491577,0.101270005,-0.11429847,0.5146421,0.068876326,-0.18069252,0.08136533,-0.10922593,-0.11148113,-0.4192086,-0.18479571,-0.3583657,0.21247873,-0.56356096,-0.0008054003,0.08124387,0.31221032,0.008781989,-0.03627734,0.34363306,0.47418395,-0.024109252,0.015366055,-0.14653653,0.6564506,-0.024808321,-0.50366706,0.31369394,-0.1377954,0.23378047,0.2779834,0.20905146,-0.18197644,-0.44326735,0.17950398,-0.23024154,0.016837627,0.015823036,0.22322983,-0.096623465,-0.35889816,-0.24278285,-0.11741693,-0.32147324,-0.17398313,-0.21862519,0.03769725,-0.14476587,0.05422526,-0.050043266,-0.17401344,0.2011072,-0.2013852,0.081897765,-0.019346572,-0.04977572,0.29632953,0.032868207,-0.08410847,0.016653188,-0.5151082,0.08285621,0.1797213,0.12871069,0.055625763,0.2640819,0.17645746,0.074015066,-0.028641645,-0.28847313,-0.5277221,-0.26647478,0.021255106,0.18707302,-0.13797355,-0.38312545,-0.027085971,-0.26977208,-0.13483056,0.016818194,-0.06424246,0.7520058,0.32019413,0.212029,-0.6592042,0.1707809,0.29940027,-0.09680253,-0.25615546,-0.46569473,0.5177293,0.47632664,0.3952508,0.22983883,0.13802743,-0.44854,0.042096447,0.07765781,0.14306135,-0.2466951,-0.09895954,0.0310741,-0.40089893,0.19592792,0.34959838,0.14968902,-0.7295445,0.12635176,0.27404982,0.1563942,0.010732286,-0.036078308,0.26456866,0.08026428,0.54881984,0.12064553,0.11565223,0.02956234,-0.09695829,-0.18436098,0.21161011,0.019049484,0.25185132,0.1634638,-0.0020753182,0.2178606,0.06431633,-0.333015,-0.055817243,-0.41061386,-0.5024339,0.015873328,0.10756193,0.39619935,-0.10172734,-0.10184012,-0.28636634,0.12285611,-0.71465725,-0.04832227,-0.33097357,0.21253331,-0.31021336,-0.19280079,0.2303279,-0.10449659,-0.18629828,-0.12332215,0.16664875,0.33433607,-0.31537008,0.23972875,-0.12464468,0.50619376,-0.3397417,0.09311184,-0.0831942,-0.34554985,0.16526696,-0.20332116,0.17497633,0.006909311,-0.27723014,-0.029592574,0.3530409,0.07009503,-0.16852114,-0.105517104,0.14093098,0.0086288825,0.06500303,0.1859614,-0.08476923,-0.24878748,0.24919388,0.120018296,-0.22879544,0.21638471,0.2855666,-0.35772473,0.1576374,-0.084178746,0.10069118,0.2884325,-0.009174056,-0.3310575,-0.13990025,0.11949966,0.16533187,0.42472115,-0.52303356,-0.023694828,0.07088351,-0.064799756,-0.05289606,0.38349074,-0.08922003,-0.1724171,0.57855797,-0.080233894,0.39932978,0.28119004,0.09863256,-0.03164283,0.40005285,0.23820496,0.08792975,-0.35926285,-0.32596818,-0.38934377,0.20570084,-0.46317628,0.15283808,0.045532096,-0.1377534,-0.033889055,-0.55289143,0.48075518,0.031735394,0.07212096,0.041086674,-0.31800187,0.5540567,-0.32882726,0.079802856,0.4160039,-0.39686432,0.15931691,-0.22915258,-0.1353851,0.057504218,0.061918028,0.34239417,-0.446109,-0.3215073,-0.01871299,0.33370522,-0.047703378,-0.24494171,-0.22855958,-0.04274268,0.17990944,-0.4474007,0.16106328,-0.33130682,0.33068117,0.07573799,0.061482623,0.32394195,0.8103997,-0.5453813,-0.18344158,-0.15000609,0.055594217,0.114432506,-0.14852083,-0.09002331,-0.021015685,-0.028946985,0.061526023,0.04268349,-0.2416505,-0.06915971,-0.41936162,0.3593221,-0.0046091303,0.19689423,-0.26669413,-0.24242346,0.2143145,0.01235776,0.12520179,0.11904816,0.09202403,0.14281943,-0.097285844,-0.021533377,0.09432134,0.4042499,-0.16067953,-0.26411504,0.2820777,0.13708024,-0.16025624,-0.32574865,-0.078633256,-0.5666351,0.009439681,-0.0008046478,0.06130541,0.1976023,0.26304948,-0.4585055,0.27635282,0.14952415,-0.06770576,-0.11260343,-0.19096026,-0.34347636,-0.15678118,-0.20752746,0.2031754,0.21746661,-0.17168906,-0.23617843,0.4897957,0.06410527,0.016634528,-0.21037652,0.034717012,-0.011530388,0.092263505,0.33382982,-0.025285471,-0.50460094,0.34689078,0.3365879,-0.50885487,0.23163354,0.033631474,-0.31378204,0.5189375,-0.17181203,-0.12479249,-0.30211294,-0.28781945,-0.015207201,-0.45145205,0.16275272,0.3876502,-0.12075653,-0.24524672,0.1731569,-0.14868191,-0.35397372,-0.019899096,-0.10881532,-0.27533537,-0.43777162,0.14470904,0.14158694,0.07228933,0.6188274,0.23575754,-0.016088102,0.01647181,0.6143408,-0.5199717,-0.1288687,0.35913968,-0.37970474,-0.18600994,-0.05209095,-0.39428934,-0.13250887,-0.02405011,-0.013888843,-0.314378,0.29019636,0.08952546,-0.32525578,0.29339284,-0.7524446,-0.3900111,-0.09281695,0.09047467,-0.39715078,-0.2956502,0.3213762,0.28618914,0.34140956,-0.13656682,-0.31213105,-0.21639693,0.36929613,0.08234638
C4,0.36388913,0.15552928,-0.27195624,-0.06275342,-0.25912592,0.467157,-0.0023605116,-0.15283757,-0.20145014,-0.1681828,-0.0125608295,0.41129634,0.38599554,0.15298289,0.24354044,0.615615,0.1358377,-0.34794495,0.16534045,0.24755907,-0.43789142,0.02766918,0.15477458,-0.037319638,-0.07378512,-0.17803809,-0.020018995,0.14991602,0.256431,0.14104556,-0.2759218,0.06273098,-0.10168239,0.26903766,-0.072965294,-0.28000525,0.11507421,-0.12966959,0.26415232,0.16311514,-0.023869662,0.23000614,0.09552549,0.15721712,-0.10708163,-0.22194603,-0.061995417,-0.1734192,0.059016116,0.31359303,0.0117469765,0.23476917,0.08098587,0.2598121,0.2780194,-0.20971492,0.13939524,0.1207019,-0.2529692,0.3631803,-0.14861307,-0.08965146,0.06929093,-0.033399995,-0.43728098,0.42832494,-0.14023691,-0.02693969,0.04367254,-0.0014064647,-0.123033166,-0.46658555,-0.23085195,-0.1816284,0.07431005,-0.19380653,0.05097717,0.2720629,-0.2213243,0.14127429,-0.07101813,-0.047235064,-0.32235685,-0.075990915,0.2510331,0.15179189,-0.04297281,-0.1522508,0.016402856,-0.12732944,0.2865107,0.2600749,0.3705874,-0.16897371,-0.21858719,-0.057068624,-0.025563441,0.0022615548,0.033886567,0.12220867,-0.071359225,0.66952217,0.04437683,-0.07027687,0.021315195,-0.27956504,-0.48331112,-0.25227153,-0.20432863,-0.046819046,-0.062450416,0.14169663,0.25621605,0.22037989,0.5548385,0.033257656,0.024557985,0.19793895,0.17689648,-0.030366436,0.1932056,-0.04005478,0.2809315,0.6798213,0.10440314,-0.01405219,0.32875726,0.2870517,0.05376554,0.28669527,0.111699164,-0.43669683,0.09096678,-0.040378474,-0.28803062,0.020365864,0.43273723,0.0017047115,0.1549334,-0.07577332,0.08631132,0.102864735,0.25312144,-0.27143118,0.06631726,-0.2552098,0.2787142,-0.12606677,-0.16490114,-0.008805186,-0.08797465,-0.2829752,0.016525146,0.117581226,-0.22956464,-0.14491934,0.14530933,0.0970169,-0.22543469,0.30181924,0.07041722,0.13896737,0.1978519,-0.21495926,0.0025375746,-0.13905889,-0.24454018,-0.0667741,-0.062909134,0.2762123,-0.39830142,-0.16352591,0.35379538,-0.2903527,0.15827519,-0.17960358,-0.11854723,0.21692207,-0.08881223,0.29463503,0.032991976,-0.046564557,0.28847387,-0.052922472,-0.086542524,-0.3182705,-0.5363095,-0.039419547,-0.16136762,-0.43905386,-0.24965966,0.30349806,-0.020813242,0.010955475,0.1993683,0.062013775,0.46623415,-0.6330012,-0.5683449,0.25615886,0.18108007,-0.42637217,-0.30098987,0.46628854,0.09848857,-0.072371915,0.37144005,-0.16289794,-0.24419531,0.018733844,0.21879056,-0.14468056,-0.30167156,-0.13672361,-0.17826304,-0.26779205,0.086276636,-0.4225157,0.11225471,0.08553347,0.5157058,-0.36997816,0.043702148,-0.48920164,0.18258278,0.18339618,-0.20657292,-0.07481823,-0.031437375,-0.13160986,0.25316715,0.2520248,0.19551226,0.076174304,0.14999986,0.1477049,-0.15712088,-0.14010426,0.15226609,-0.24429885,-0.08590656,0.008630667,0.07860931,-0.065024815,-0.20820022,-0.06133485,0.1672084,-0.19871828,-0.083763875,-0.25884438,0.060402803,-0.12965587,-0.1073215,0.08039849,-0.33919892,0.25231552,0.17175123,-0.027042523,-0.08763479,0.21817222,-0.0847123,-0.20486996,-0.21457441,-0.28303245,0.17033619,0.2122752,0.11160258,-0.16293935,-0.12138141,-0.03705075,-0.01508918,0.45266575,-0.054492082,0.018425439,0.035173226,-0.117932625,0.06163873,-0.09155041,-0.039704308,0.034995645,-0.35458568,-0.37172222,-0.19941369,0.21469441,-0.19162509,-0.25490457,-0.16832666,-0.12277678,0.29491496,0.2794446,-0.2887443,0.16239096,-0.22233589,-0.20532781,-0.06381962,0.105553046,0.20089136,-0.17014986,-0.2851286,0.12360592,-0.45948148,0.31385705,0.054111294,0.03743049,-0.08893345,0.032349724,0.38337946,-0.21568486,0.16532543,-0.10708088,-0.21796924,-0.19950709,-0.026987653,0.17885527,-0.014944218,0.20613194,0.30087006,0.11119332,0.10541152,0.19127668,0.272248,0.039718498,-0.045980673,-0.08596064,0.16081871,-0.31459332,-0.06675443,-0.013663389,0.3049244,0.20850587,0.22298944,-0.21375361,-0.18835136,0.19118726,0.22697067,0.15531495,0.16350664,-0.4282773,0.027462747,-0.057302654,-0.37424427,-0.15570273,-0.20725504,-0.028627887,-0.030482225,0.09471235,0.115788676,0.106249504,-0.37644523,-0.48273683,-0.04343366,-0.07834679,0.36750856,-0.53683376,-0.011495933,0.037533876,-0.15712368,-0.1994651,-0.09168885,0.43689543,0.16009289,-0.56906414,-0.51053464,-0.33472824,-0.51015526,-0.20277289,0.6439799,-0.24140666,-0.23421887,0.21678615,0.3025085,0.15476367,0.37614694,-0.10940187,0.0003257133,0.3663499,-0.10468671,0.038329154,-0.07998894,-0.23896188,0.03904701,0.1649695,-0.1465993,-0.11889592,0.50881416,-0.22654817,0.3489683,-0.13696131,0.12197048,-0.26730508,0.41215488,0.25457975,0.29275072,0.17056793,0.30968133,0.029915407,-0.2014899,0.2651174,-0.16206244,-0.3276955,-0.20235515,0.19332042,0.2114723,0.44265813,-0.056743026,-0.09639626,-0.29318237,0.16934358,-0.1584252,0.03199485,-0.32313815,0.08796172,0.30034247,0.018393096,0.024994526,0.20493177,0.22565123,0.4095901,-0.23363622,0.21800983,-0.32720476,0.19425118,0.27644727,0.39616972,-0.19342554,-0.11842587,0.17429754,-0.1533798,0.13895693,-0.19285884,0.22182977,-0.03325426,0.021502376,0.24621373,0.21853761,-0.1301414,-0.12526837,0.1328344,0.064842686,-0.19721416,-0.30771783,-0.17653811,-0.5604434,0.27715847,0.41480476,-0.1460921,-0.02246942,-0.116289005,0.23887476,-0.20941131,0.4646214,-0.48606753,0.120381415,-0.23572184,0.086358756,0.427166,0.103996724,0.4086916,0.092250586,-0.06834312,0.14161548,-0.12258859,-0.12000463,0.025961742,-0.007791035,-0.3526988,-0.14926434,0.08048594,-0.14812502,-0.54633754,0.14531049,-0.04102795,-0.1799244,0.23791066,0.37100387,0.0261839,-0.41080803,-0.31173173,-0.12665996,0.23855713,-0.71970004,-0.16305077,-0.04411902,0.0476238,0.1253506,0.33423096,-0.39799815,0.015222192,0.39522567,-0.04547505,0.304141,-0.09909423,-0.0027367696,-0.23582572,-0.017187677,0.08398873,-0.03419724,-0.38062525,0.11371899,-0.1184639,0.45855707,0.38668466,0.47231495,-0.19267823,-0.016972126,0.09533716,0.055053104,-0.2045097,0.26507467,0.12138822,-0.21237288,0.11094776
C5,0.20672283,0.21367896,0.31315276,-0.30435863,-0.0029402934,0.07376519,0.17288658,0.014521547,0.13770482,-0.022461649,0.3454513,0.1278004,-0.15578267,0.10925613,0.14402345,0.06508383,0.05566455,0.5807811,-0.13933052,-0.0042685084,-0.0491729,0.22656381,0.32815805,0.51524085,-0.022233445,-0.12082326,0.17121825,-0.12944525,0.17627925,0.5417175,0.012178563,-0.03996773,0.10754029,0.12954707,-0.60989916,0.1701626,0.4992978,0.058463056,0.44601393,0.07263861,0.042364247,-0.45757324,0.079306975,0.5470432,-0.44472978,-0.123663805,-0.44979888,0.65237045,-0.12200072,0.27426708,-0.3845108,0.46021745,0.33143672,0.48450547,-0.26550987,-0.10178568,-0.06616798,-0.026935384,0.24770974,-0.2128927,-0.1734159,0.14924517,0.09929613,0.19435802,-0.20804599,0.43305275,-0.12525204,-0.03600759,0.13515784,-0.021497104,0.15763894,-0.17381135,-0.12636214,0.26022908,-0.27664596,-0.09897588,-0.17630368,-0.04907777,-0.19708142,0.4223771,-0.20787829,-0.27299726,0.048927814,0.54761237,0.21397449,0.05966565,0.04001481,-0.20321175,0.16314577,0.10312831,-0.3808981,0.5722215,-0.23535788,-0.061309975,0.21780455,0.37747118,-0.19874129,0.23892428,0.2099163,-0.21204594,-0.16922562,0.24043036,-0.1618059,-0.109797284,0.084056325,-0.003565786,0.14000702,0.03510096,0.3400655,0.31871057,0.35417688,-0.19265464,-0.07854939,0.077407554,0.04763116,-0.44929722,-0.39675325,0.39657524,0.11380334,0.22447073,-0.11024744,-0.26771516,-0.26502305,0.012653705,0.12943463,0.15211582,-0.36274514,-0.039123286,0.38894904,0.064732246,-0.082263745,-0.050013885,-0.60753393,-0.5821775,0.020966977,-0.17132008,-0.10138387,-0.24028231,-0.18462667,0.58433026,0.14148384,0.21065605,-0.39680982,-0.38594002,0.27352256,-0.44552952,0.4250122,-0.38071024,-0.022175677,0.31201985,0.26080358,0.0640447,0.2023192,-0.48477864,-0.25978318,0.24659759,0.20410019,-0.061894335,-0.5476239,-0.43235245,0.42218542,0.07238107,-0.31092307,-0.33527926,0.106252655,0.08882878,0.0779471,-0.07066689,0.06552965,-0.09769236,-0.2236947,0.22521555,-0.17287697,-0.25744528,-0.099247135,0.14990282,-0.43793505,0.1183379,-0.21541056,-0.20851777,0.24471089,-0.34949997,-0.18715411,0.22127306,0.018480036,-0.021469362,-0.19645499,-0.037625615,0.017579488,-0.22257337,0.27883163,-0.064360425,0.236759,-0.026139364,0.34566376,0.163514,0.1698908,-0.19292167,0.038877226,0.17679346,0.434735,-0.09195295,0.28545308,0.54998606,0.062488332,-0.4037474,0.5740725,-0.44761896,0.111084685,0.19792226,-0.20894033,0.12569392,0.14021176,-0.4164536,-0.066507496,0.053058043,-0.31481633,-0.39017218,0.111681424,0.24177867,0.30913988,0.32201296,-0.3855993,-0.11208987,-0.1676799,-0.36048993,0.31791422,0.5411822,0.56179106,-0.3532136,0.513302,-0.06650075,-0.14635366,0.154423,-0.6154969,0.01584769,-0.416287,0.020950243,0.19353776,0.13340577,0.005465649,-0.4029401,-0.053070437,-0.066367686,-0.14674088,0.13337742,-0.17475313,0.26056898,-0.068180665,-0.1958125,-0.07595097,-0.49115133,0.05219955,-0.12142468,0.21586585,-0.21547696,-0.24957028,-0.18400663,-0.2980503,0.12556931,-0.6691741,-0.10124576,0.23816718,-0.19175085,0.00913585,-0.15324357,0.15156344,-0.22444367,0.032565523,0.19968411,-0.17898625,-0.35190246,0.1426633,-0.70796955,-0.3363226,-0.020613965,-0.36392075,0.0844789,-0.21316284,-0.16288626,-0.20554934,-0.22475845,0.08812413,0.42239222,-0.10994112,-0.38854253,-0.14148465,-0.18569951,-0.3625605,0.6424497,-0.19464925,-0.18977293,0.23332168,-0.2684483,0.34473398,0.49776402,-0.3572864,2.4043024e-05,-0.12958959,0.26889667,-0.0358012,0.1883014,-0.19967309,0.09289406,0.13437113,0.09464234,0.30938464,-0.111072145,0.024401132,-0.3261714,0.32320476,-0.3021567,-0.12601487,0.12730908,0.4671203,-0.3971397,0.058826216,-0.23313022,0.08561531,0.36855432,-0.0026748143,-0.028345775,-0.07768512,-0.05482434,0.5751251,0.27157536,-0.1039136,0.13882643,0.084885895,-0.15707204,0.2569029,0.1769725,-0.07011016,-0.08191187,0.27136844,0.1762909,0.26015043,-0.30474955,-0.013766244,0.23194227,0.45131978,-0.13376908,-0.15067092,0.43905962,0.06752259,0.28440997,-0.094508715,-0.38185212,0.52521694,-0.46616495,-0.11220144,-0.31149852,-0.47572997,-0.06556203,-0.2699589,-0.23259968,0.17606315,0.16718839,-0.003403902,0.5111927,0.016929056,0.2167086,-0.18918273,-0.41813472,0.22938229,-0.506029,0.21642244,0.64545554,0.56484896,-0.025431097,-0.033360887,0.018011753,0.21895093,0.20086606,-0.16119291,-0.31015357,-0.247358,-0.25649464,-0.21829359,-0.21853787,0.18383032,0.44528,-0.38676375,-0.1065154,0.6364439,-0.30403432,-0.27686268,-0.4260244,0.027045,0.15079248,0.30574417,0.30352283,0.20073597,0.38423294,-0.5340419,-0.41704303,0.31791282,-0.20684342,0.11008491,0.005461011,-0.14063701,-0.3675359,0.37816247,-0.29569235,-0.29422528,0.041822724,-0.21733701,-0.00023242086,0.07009889,0.10496151,0.006103996,-0.03319162,0.51397085,0.017937306,-0.22814815,0.20759735,-0.47248173,0.5894986,-0.08362966,0.4312272,-0.20314297,0.06820661,0.10080348,0.23033743,-0.1582883,0.1540403,0.19576228,0.51226866,0.004291773,0.44323963,0.28407404,0.05062647,-0.3383255,0.06425343,-0.1603604,0.15151393,0.1261906,0.09434694,0.041533843,0.12316792,0.0537884,0.3541321,-0.1831722,0.35288113,0.13069326,0.5155087,-0.110392705,-0.032964244,-0.17671809,-0.7093951,-0.22746441,-0.009558428,0.21503264,-0.13847104,-0.11098523,0.49343076,0.030172896,-0.026141614,-0.1811088,-0.00997838,0.21177101,0.057675924,0.26906693,0.020257108,0.4259532,0.047274217,0.20172694,-0.2218406,-0.10105046,0.27248755,-0.049892858,0.41924638,-0.074806385,-0.039167736,-0.45329726,-0.37194777,-0.19790001,-0.11374951,0.08048181,-0.22316623,-0.28131592,0.14419138,0.35608125,0.08720854,-0.19916116,-0.12375151,-0.75609523,0.1556406,0.19911033,-0.045342587,-0.13704087,-0.52459866,-0.43256402,0.29033124,0.023114916,-0.14002332,0.15407632,-0.4283359,-0.65362006,-0.29174358,0.68870866,0.56816995,-0.2660076,0.21466076,0.068751246,-0.1088888,0.5101303,0.30005613,0.5679167,0.0051571317,0.062382482,-0.21648416
C6,-0.15994659,-0.12594059,-0.2993878,0.36602053,0.31796482,0.071107015,0.045640875,0.28499696,-0.3882605,0.22538549,-0.64006567,0.03602962,-0.0075190607,-0.18470421,0.2248081,-0.3313421,-0.19196393,-0.5863267,-0.31367463,-0.015969075,-0.102226265,0.05821997,0.16456497,-0.40593106,0.2722175,-0.3575544,0.23213384,-0.025255926,-0.017468479,-0.04696726,0.036563862,0.1513097,-0.121538915,-0.16314478,0.1102157,-0.29689735,0.25453132,-0.25722444,-0.1671606,-0.30690464,-0.11078023,-0.07448521,0.4358149,0.12671086,0.35486817,-0.35249373,-0.047905352,-0.09124902,-0.03401125,0.07566701,-0.16292833,-0.108467616,-0.049065925,-0.4399162,-0.18298297,0.4883352,0.03659593,0.15948755,-0.08048177,-0.15702873,-0.13284442,0.13494557,0.052772664,0.107380465,0.10309687,-0.29196545,-0.16463009,0.06544462,-0.038750477,-0.1457034,0.21989807,0.032817915,-0.24932292,-0.013793696,-0.5349054,-0.07530494,-0.057075083,-0.046903387,-0.32560137,-0.041928787,0.24579227,0.033121463,-0.013253622,0.035112947,0.31840244,0.06687735,0.15109995,-0.031031303,-0.14771815,0.016562887,0.21656597,0.03909308,0.10805018,-0.028802786,-0.15548125,0.011559993,-0.33778003,-0.05703052,-0.05337535,0.037180483,-0.37595928,-0.19582208,-0.37890267,-0.07793766,0.027991451,0.018956263,-0.19321865,0.14154018,-0.19906145,0.14105645,-0.02210037,-0.2018238,0.13987052,-0.18378873,-0.29337275,0.11179394,0.1402998,-0.1926724,-0.26710215,0.08875246,-0.4846079,-0.38124377,0.029743575,0.08331275,-0.19294287,0.43184957,0.37893662,-0.13148114,0.116274714,0.6316109,-0.4022826,0.06856483,-0.08347743,-0.032122675,-0.31122258,-0.08251772,0.09817973,-0.3988096,0.07372939,-0.21243763,0.05065057,-0.07522811,-0.13523036,-0.25253367,0.3273459,0.17750318,-0.29072657,-0.14430147,-0.3326953,-0.22658229,-0.404082,0.07907502,0.016703926,0.43059203,0.18915573,-0.11483774,-0.12119082,0.403957,-0.42546326,-0.29120818,-0.48648435,0.1514425,0.10060266,0.11968215,0.060531244,0.051526524,0.0018607676,0.19320998,-0.39437214,0.07120061,0.0054079704,0.3626151,-0.09682287,-0.24926394,-0.1519613,-0.11952497,-0.13152386,0.060164806,-0.26545045,0.11353949,-0.31254262,-0.16447109,0.017450288,0.008203447,-0.121722996,-0.08882998,0.04264286,0.009638887,0.044928156,-0.25023937,-0.46080318,0.0020590574,0.17660499,-0.92828846,-0.25936496,0.21934661,0.5389295,-0.012303531,0.21010622,-0.36324027,-0.07177314,0.1450422,-0.07756014,0.0223548,0.7516057,0.07640523,-0.076384954,-0.024872191,-0.3112358,-0.2288032,0.19134015,-0.005110938,0.060001887,0.2825476,-0.20393342,0.29839432,-0.24034485,-0.018938497,-0.15916649,0.48780215,0.20071842,0.25662428,0.104895264,0.26674202,0.05568558,0.18078102,0.04419909,-0.36301684,-0.2130765,-0.23569931,0.02708079,0.34629762,0.31587088,-0.061272375,-0.18316512,-0.01777377,-0.15996097,0.2026271,0.42759126,0.09354428,-0.36967334,0.38727453,0.13043457,0.06449306,-0.057492487,0.11702885,-0.033990055,-0.049520407,0.025562817,0.1642586,0.3358369,0.01800859,0.2835859,0.33608863,0.14378688,-0.115143396,0.10353045,0.34794083,0.25159064,-0.033142313,-0.18185905,0.15039167,-0.24491856,0.05443328,0.09834843,0.5077533,0.016521424,-0.18974937,-0.0100441575,0.12820621,-0.4585006,0.23013613,-0.22952232,0.27890304,0.0801347,0.22653823,0.074396625,0.22814612,-0.20721683,0.23476264,0.35546535,0.51509947,-0.08771169,0.09814685,0.5292015,0.11291873,0.3788947,0.1826618,0.2809858,-0.26672623,0.5326196,-0.11247146,-0.2249253,-0.1059673,-0.38169622,-0.38231352,-0.11984545,0.082893424,0.12804358,-0.21746011,-0.38643873,0.26273325,-0.44699305,-0.3716144,0.18534836,-0.20607921,-0.050144322,-0.17659369,0.39618334,0.19797279,0.019038228,0.106129676,-0.11439977,0.1659059,-0.366173,-0.13860622,-0.36219874,-0.20855102,0.23228627,0.04619184,-0.65151733,-0.46857277,-0.53872496,-0.036466233,-0.024102576,0.3381397,0.03196796,-0.2220208,-0.44979164,-0.05412487,0.16040018,0.18804008,-0.069511645,0.058098204,-0.23237899,0.20355198,-0.2947014,-0.19720857,0.009101652,-0.2820602,-0.24095766,0.12621397,0.13255745,-0.21194422,-0.032833993,-0.015033007,-0.05801007,0.25699317,-0.21975991,-0.13434719,0.07674022,-0.5221137,-0.16662762,-0.059884436,-0.19157624,-0.002681546,0.058595575,0.33401743,-0.119140156,0.1202628,-0.08394291,-0.14093809,0.023909442,-0.45069253,-0.20169848,-0.15235263,-0.5100216,0.27456385,-0.04096893,0.29028016,-0.14498654,0.2192668,-0.4810876,-0.28026038,-0.16527644,-0.07132707,-0.38648897,0.2191588,-0.34301952,-0.052428782,-0.5396311,-0.0056935325,-0.1379398,0.0045805126,0.086853564,-0.5159511,0.3434804,0.33165354,0.020824835,-0.06686091,0.046902847,-0.02111505,0.050113916,-0.2917384,-0.057703584,-0.31011808,-0.07230291,-0.23524736,-0.062683284,0.12887298,-0.16408023,0.2325229,-0.14442724,0.04539512,-0.22087577,0.11361435,0.33905593,-0.22180673,-0.43497887,-0.481302,0.20611377,-0.0059812516,0.09605129,0.40813005,-0.12869647,0.2953499,0.5159351,-0.10124611,0.05537185,-0.26882994,-0.31233442,-0.01000493,0.14355826,0.29790294,0.13365272,0.34810093,-0.033022255,-0.4086458,0.39891267,-0.13072942,-0.06426977,0.16418236,0.19619867,-0.2754841,-0.007848643,-0.31415033,0.020514525,0.20966989,0.050504494,-0.032936677,0.46171552,-0.004884213,-0.24894941,0.2721312,0.22353601,-0.34664696,-0.59350204,0.10897918,-0.48567644,0.2442704,0.3822151,-0.24525201,0.13865376,0.12779228,0.016264677,0.0056685526,-0.36441407,-0.061715074,0.16156393,-0.15872121,-0.06896165,-0.032293856,-0.29816526,0.2585327,0.090438984,0.01698967,-0.059353914,0.08010867,0.028663538,-0.15598562,-0.07977226,-0.024932127,0.33028984,-0.035857342,-0.16734624,-0.00860529,0.048171714,0.24519104,0.12459703,0.14433059,0.2242917,0.17198151,-0.06608797,0.33000788,0.46009824,0.007721767,0.07676206,0.040848173,0.12222371,0.058971293,0.1944994,-0.077215895,0.08808983,0.39907455,-0.25998336,0.2478599,-0.21005794,0.33866102,-0.49409455,0.3478335,-0.36859912,-0.28036085,0.24920744,0.06704146,-0.12346404,-0.32290706,0.06368172,0.04712254,0.1892946,0.1268988,0.29046655,-0.32975355
