GeneID,feature_1,feature_2,feature_3,feature_4,feature_5,feature_6,feature_7,feature_8,feature_9,feature_10,feature_11,feature_12,feature_13,feature_14,feature_15,feature_16,feature_17,feature_18,feature_19,feature_20,feature_21,feature_22,feature_23,feature_24,feature_25,feature_26,feature_27,feature_28,feature_29,feature_30,feature_31,feature_32,feature_33,feature_34,feature_35,feature_36,feature_37,feature_38,feature_39,feature_40,feature_41,feature_42,feature_43,feature_44,feature_45,feature_46,feature_47,feature_48,feature_49,feature_50,feature_51,feature_52,feature_53,feature_54,feature_55,feature_56,feature_57,feature_58,feature_59,feature_60,feature_61,feature_62,feature_63,feature_64,feature_65,feature_66,feature_67,feature_68,feature_69,feature_70,feature_71,feature_72,feature_73,feature_74,feature_75,feature_76,feature_77,feature_78,feature_79,feature_80,feature_81,feature_82,feature_83,feature_84,feature_85,feature_86,feature_87,feature_88,feature_89,feature_90,feature_91,feature_92,feature_93,feature_94,feature_95,feature_96,feature_97,feature_98,feature_99,feature_100,feature_101,feature_102,feature_103,feature_104,feature_105,feature_106,feature_107,feature_108,feature_109,feature_110,feature_111,feature_112,feature_113,feature_114,feature_115,feature_116,feature_117,feature_118,feature_119,feature_120,feature_121,feature_122,feature_123,feature_124,feature_125,feature_126,feature_127,feature_128,feature_129,feature_130,feature_131,feature_132,feature_133,feature_134,feature_135,feature_136,feature_137,feature_138,feature_139,feature_140,feature_141,feature_142,feature_143,feature_144,feature_145,feature_146,feature_147,feature_148,feature_149,feature_150,feature_151,feature_152,feature_153,feature_154,feature_155,feature_156,feature_157,feature_158,feature_159,feature_160,feature_161,feature_162,feature_163,feature_164,feature_165,feature_166,feature_167,feature_168,feature_169,feature_170,feature_171,feature_172,feature_173,feature_174,feature_175,feature_176,feature_177,feature_178,feature_179,feature_180,feature_181,feature_182,feature_183,feature_184,feature_185,feature_186,feature_187,feature_188,feature_189,feature_190,feature_191,feature_192,feature_193,feature_194,feature_195,feature_196,feature_197,feature_198,feature_199,feature_200,feature_201,feature_202,feature_203,feature_204,feature_205,feature_206,feature_207,feature_208,feature_209,feature_210,feature_211,feature_212,feature_213,feature_214,feature_215,feature_216,feature_217,feature_218,feature_219,feature_220,feature_221,feature_222,feature_223,feature_224,feature_225,feature_226,feature_227,feature_228,feature_229,feature_230,feature_231,feature_232,feature_233,feature_234,feature_235,feature_236,feature_237,feature_238,feature_239,feature_240,feature_241,feature_242,feature_243,feature_244,feature_245,feature_246,feature_247,feature_248,feature_249,feature_250,feature_251,feature_252,feature_253,feature_254,feature_255,feature_256,feature_257,feature_258,feature_259,feature_260,feature_261,feature_262,feature_263,feature_264,feature_265,feature_266,feature_267,feature_268,feature_269,feature_270,feature_271,feature_272,feature_273,feature_274,feature_275,feature_276,feature_277,feature_278,feature_279,feature_280,feature_281,feature_282,feature_283,feature_284,feature_285,feature_286,feature_287,feature_288,feature_289,feature_290,feature_291,feature_292,feature_293,feature_294,feature_295,feature_296,feature_297,feature_298,feature_299,feature_300,feature_301,feature_302,feature_303,feature_304,feature_305,feature_306,feature_307,feature_308,feature_309,feature_310,feature_311,feature_312,feature_313,feature_314,feature_315,feature_316,feature_317,feature_318,feature_319,feature_320,feature_321,feature_322,feature_323,feature_324,feature_325,feature_326,feature_327,feature_328,feature_329,feature_330,feature_331,feature_332,feature_333,feature_334,feature_335,feature_336,feature_337,feature_338,feature_339,feature_340,feature_341,feature_342,feature_343,feature_344,feature_345,feature_346,feature_347,feature_348,feature_349,feature_350,feature_351,feature_352,feature_353,feature_354,feature_355,feature_356,feature_357,feature_358,feature_359,feature_360,feature_361,feature_362,feature_363,feature_364,feature_365,feature_366,feature_367,feature_368,feature_369,feature_370,feature_371,feature_372,feature_373,feature_374,feature_375,feature_376,feature_377,feature_378,feature_379,feature_380,feature_381,feature_382,feature_383,feature_384,feature_385,feature_386,feature_387,feature_388,feature_389,feature_390,feature_391,feature_392,feature_393,feature_394,feature_395,feature_396,feature_397,feature_398,feature_399,feature_400,feature_401,feature_402,feature_403,feature_404,feature_405,feature_406,feature_407,feature_408,feature_409,feature_410,feature_411,feature_412,feature_413,feature_414,feature_415,feature_416,feature_417,feature_418,feature_419,feature_420,feature_421,feature_422,feature_423,feature_424,feature_425,feature_426,feature_427,feature_428,feature_429,feature_430,feature_431,feature_432,feature_433,feature_434,feature_435,feature_436,feature_437,feature_438,feature_439,feature_440,feature_441,feature_442,feature_443,feature_444,feature_445,feature_446,feature_447,feature_448,feature_449,feature_450,feature_451,feature_452,feature_453,feature_454,feature_455,feature_456,feature_457,feature_458,feature_459,feature_460,feature_461,feature_462,feature_463,feature_464,feature_465,feature_466,feature_467,feature_468,feature_469,feature_470,feature_471,feature_472,feature_473,feature_474,feature_475,feature_476,feature_477,feature_478,feature_479,feature_480,feature_481,feature_482,feature_483,feature_484,feature_485,feature_486,feature_487,feature_488,feature_489,feature_490,feature_491,feature_492,feature_493,feature_494,feature_495,feature_496,feature_497,feature_498,feature_499,feature_500,feature_501,feature_502,feature_503,feature_504,feature_505,feature_506,feature_507,feature_508,feature_509,feature_510,feature_511,feature_512
a,-0.033483114,-0.51458687,0.20359802,0.6291246,0.09031724,0.50643826,0.0072636716,0.24404913,0.09797621,0.0024766475,0.25108153,0.5100094,0.16595316,-0.058796205,-0.30854,0.4708814,0.24055234,-0.110431105,0.1224574,0.053618606,-0.008965105,0.22980446,0.041672233,-0.024110533,0.28964636,0.29079244,-0.0611246,-0.053564984,0.30708918,-0.08988588,-0.22988006,0.02535101,-0.32528013,-0.40952706,-0.07534356,0.08782424,-0.14785883,0.058907986,-0.35180026,-0.11495974,0.19415793,-0.06868615,-0.08876007,0.40912074,-0.22773561,-0.045512937,0.21714514,0.21905226,-0.19425029,-0.5149222,-0.1981541,-0.40160668,-0.079134755,0.22137061,0.08109759,0.030710142,-0.0010771751,0.102681145,0.36251587,-0.06992081,-0.16463667,0.1282734,-0.12594241,0.20578584,-0.26618332,0.4682545,0.117316335,0.25678793,0.29293147,0.032886066,-0.2949551,0.20014149,0.024526805,-0.11613976,-0.0018320084,0.1257597,0.3761064,-0.06897512,-0.0739997,0.3872215,0.1916928,-0.26705068,-0.117439635,0.60322857,0.22479749,-0.012828201,0.34692118,-0.2861502,0.13379139,0.16358522,-0.37674364,-0.13585958,0.030009095,-0.2506947,0.21193868,-0.083157815,-0.07437513,-0.01673226,0.15336514,-0.16494776,0.38088253,0.15567857,-0.2152136,0.14702207,-0.18894246,0.028848961,-0.049350403,-0.15281495,0.3464436,-0.102438785,-0.010676108,0.2215518,-0.33995557,-0.18802729,0.3691368,0.23582353,0.112881884,0.24194378,0.41557002,-0.03125959,-0.2499899,-0.20762059,-0.18392873,-0.011282712,-0.23366132,0.18599287,0.7755266,-0.046735145,-0.01777079,-0.11843404,-0.029969059,-0.04316107,0.3799782,0.078292646,-0.10960989,-0.24807744,-0.075820014,0.04332147,0.18544377,0.09275209,-0.03237251,-0.27748373,-0.19708505,-0.15039071,0.0911887,-0.28815272,0.1542306,-0.02246499,-0.05073986,-0.18951002,0.11985086,-0.2875113,-0.32251447,-0.34930196,0.2250613,0.32130438,0.11701024,-0.0756859,0.23436064,0.019647107,0.24088457,-0.00018493459,0.20967297,-0.25128207,0.20806503,-0.27636796,0.04647646,-0.52081865,-0.007683877,-0.0021318905,-0.017463647,-0.33228055,0.06592058,-0.3627318,0.26766086,-0.08338631,-0.20222478,-0.5891608,-0.19273654,-0.08035079,0.08982471,-0.28835604,-0.12397073,0.10162196,0.37188894,0.111452594,-0.22364464,-0.093942456,0.41551512,0.009378299,-0.053994425,-0.12368592,0.21772668,0.050142065,-0.3931468,-0.29187015,0.16791047,-0.25462005,0.2536332,0.15052566,0.007525582,0.13640551,0.21696824,-0.50671715,-0.034168385,-0.048433904,-0.064640604,-0.18011865,0.2685385,-0.42596555,-0.054335445,-0.16586462,-0.3778026,0.13985401,-0.19397461,0.04055552,0.07158217,-0.1013554,-0.23620886,0.12756132,0.08914754,0.07729757,0.25848776,0.01682546,0.08155604,0.19681981,-0.11524385,0.16925518,-0.22111583,0.11051139,0.06946856,-0.11861496,-0.32221124,0.1097358,0.098397784,-0.38537937,-0.64956075,-0.49473727,0.049685933,-0.13605917,0.11023226,-0.042377897,0.34446928,0.101334654,-0.07196535,0.38488084,0.007797558,0.21330702,0.23620763,-0.05472722,-0.24608818,-0.050720025,-0.2404145,0.13019966,-0.23762414,0.00015004724,-0.36505046,-0.07758121,-0.1490941,-0.032164026,-0.15738004,0.20216334,-0.20372055,-0.21111482,-0.20781614,0.081609786,-0.08731506,0.017842352,-0.12481287,0.50506634,0.10321,-0.09884585,0.09150538,0.15581505,0.5210055,0.09512313,-0.078943424,-0.29132992,-0.08872323,0.13457012,0.17811048,-0.06572633,-0.1521255,-0.25426328,-0.047919247,-0.206193,-0.06420048,-0.12157402,-0.15922017,0.042515494,0.21553326,0.103391275,-0.012085332,0.014151804,-0.25629342,0.25171363,0.060248762,-0.12901717,0.24152845,-0.072221436,-0.7267998,0.2092584,0.16479541,0.036857046,0.00012954697,-0.13470975,0.44415042,0.053520326,0.4273227,0.3607442,-0.19003788,-0.17332396,0.8530966,-0.022949237,0.21889561,0.06863916,-0.3850649,-0.20097384,-0.18253571,0.07580202,-0.42704132,-0.006679833,-0.15046518,0.0758574,0.27207157,0.3019081,-0.23061436,0.22270286,-0.08972796,0.08909853,-0.45347783,-0.14115483,0.038277976,0.09688868,0.041485585,0.2870415,0.28286898,0.31229395,0.1508337,-0.05210535,-0.1927289,0.35629064,0.09951178,0.24218142,0.22351761,0.4320091,0.2946727,0.101578236,0.008332178,0.3135163,0.031804956,-0.05281832,0.008562535,-0.06054488,0.12697706,0.006699117,0.14948803,0.10434891,0.026903395,0.009118615,-0.010508403,0.4048559,-0.21186735,-0.08485594,0.1393438,0.3396207,0.109448,0.2302663,-0.0036356635,-0.25539407,0.27541387,0.0032849368,0.012581389,0.3342366,-0.25084692,-0.075518236,0.14251873,0.13795918,-0.25358036,-0.17762434,-0.6490402,-0.10338701,-0.29841894,0.14120609,-0.22060123,-0.02416543,-0.07562087,0.20975515,-0.08137345,-0.27410704,-0.18629636,0.14303759,0.048019562,0.1651777,-0.011417396,-0.5402118,0.23816207,-0.099390164,0.026699513,-0.020710535,-0.24905321,-0.08519763,-0.24367659,0.26596957,0.39918607,0.021608483,0.04691957,-0.0158628,0.12262224,0.33343446,-0.065239474,0.16919209,0.25463238,-4.707277e-05,0.19615045,0.011474874,0.19533601,0.0690034,0.2833299,0.14563152,0.025636148,-0.22194651,0.12652709,0.5415624,0.4421142,-0.096419334,-0.2986203,-0.09180286,-0.2077451,0.053794943,0.18557143,-0.20319116,0.047865123,-0.08762562,0.13747162,-0.057133425,0.14787513,-0.17205764,-0.17784426,0.18809895,-0.12987447,0.33422238,0.33631974,0.052160818,0.6450246,-0.20524755,0.47983277,-0.24537925,-0.5001124,-0.04526788,0.33626276,0.12808773,0.18171045,0.27070495,-0.644612,0.012232564,0.3129967,-0.73067343,0.39721698,-0.432737,-0.2616689,0.033049025,0.0012282431,0.24961224,-0.049319237,0.017832674,0.071111746,0.5662223,-0.42216107,-0.2488639,0.007119186,-0.34469488,0.32795316,-0.026057143,0.083426185,-0.34137434,0.16308028,0.31389946,0.14699072,0.37769547,-0.19248283,0.33024463,0.07023014,-0.30963522,-0.30954462,-0.021847881,-0.19463849,0.0076839775,0.21781498,-0.12727514,-0.017060392,-0.10806549,-0.1869151,0.4363157,-0.20568058,-0.23537111,-0.3888683,-0.07749605,0.1344476,-0.12626469,0.11923206,0.1320496,-0.26821563,0.28815413,-0.18103766,0.285616,-0.43576646,0.011512212,-0.025924422,0.1162247,0.10243348,-0.23698373
b,-0.22120054,-0.008792166,-0.0061964076,0.078909695,0.197661,0.39602342,-0.4986561,0.21091211,0.27952108,-0.2739674,0.1906611,0.091397405,0.27175996,-0.12496699,-0.33762226,-0.11657105,0.23754686,-0.35996383,-0.013371654,-0.33604643,0.36448467,-0.1692245,0.18297675,-0.5570924,-0.16208252,-0.16609393,0.10512016,0.024856824,0.27086002,0.075428896,-0.021938063,-0.5303554,-0.14726642,-0.19913462,0.04007494,-0.30118084,0.18103333,-0.044916462,-0.036239676,-0.37966502,0.49566722,-0.30356544,0.20535186,-0.052848246,-0.056863643,0.16491216,0.5757443,-0.21181822,-0.3349846,-0.49201494,-0.1814255,-0.19038716,0.033326373,0.14350246,-0.1645435,-0.1775854,-0.5027889,0.12568466,0.564943,0.17699629,0.17842138,0.39150164,-0.14921066,0.1688226,-0.13222975,0.18734947,-0.34558082,-0.19227976,0.40494877,-0.36715305,-0.14062208,-0.2930136,-0.0832376,-0.1715441,-0.27610037,0.1292366,0.08596708,-0.4109231,0.07514313,0.30767494,-0.051245637,-0.13716733,-0.09158511,-0.19906077,0.5006913,0.120272905,0.13663533,0.24999201,0.5270213,0.12564124,-0.45225704,-0.020547241,0.29952782,-0.13200712,0.13137308,0.178065,0.05542341,-0.2533531,0.1873756,0.22131605,0.9186419,-0.15735728,0.30832934,-0.15222868,-0.51518244,-0.014513299,0.0029357076,-0.6434594,0.4068458,-0.5057287,-0.34755528,-0.067558944,-0.1470455,0.055120423,0.4760638,-0.53810275,-0.14051463,0.6774191,0.7357918,0.12108593,0.00014783442,0.2881427,0.22892274,0.06649853,0.11130784,0.08547547,0.22408324,-0.06357972,0.07330835,-0.56260115,0.051576838,-0.008368384,0.22334564,-0.026120141,-0.27931666,0.15081936,0.15205562,0.39634883,0.41797334,0.114430286,0.22406055,0.073361605,-0.31948647,-0.11680849,-0.07092183,0.67556345,0.49669874,-0.03937622,0.04180643,-0.15454116,0.34620282,-0.21296866,-0.01629296,-0.48186296,-0.031086847,0.26634648,0.010342345,-0.15073487,0.22219813,0.103543274,-0.07150584,0.40058672,0.51889044,0.071938165,-0.083998136,0.1291922,-0.19603926,-0.42692953,0.26566777,-0.23119095,-0.40800324,-0.28224066,0.3457727,0.003625922,-0.27889118,-0.2655062,-0.4813224,0.016841374,-0.37815472,0.41635174,0.039055273,0.26118377,0.05389589,0.08951284,0.07116396,-0.06529559,0.065430515,-0.1701658,0.22373879,0.33137447,0.184449,-0.66923046,-0.27179947,-0.5644743,0.062830284,0.20815623,0.109320976,-0.20355031,0.26076943,-0.31412178,-0.46880707,0.09438543,-0.11162747,0.012419738,-0.01873371,-0.07857683,0.43096396,-0.065089755,-0.16735476,-0.2412,-0.17914817,-0.43287027,-0.2915517,0.010787874,-0.56037253,-0.117890105,0.2868442,-0.20722869,-0.39474693,0.0472275,0.100873165,-0.13998291,-0.02183501,0.008393768,0.29208207,-0.23843709,-0.2201817,0.45244735,-0.16424617,0.10596791,-0.23557773,-0.13359205,-0.58883655,-0.09764548,0.1085451,-0.13143957,0.016268685,-0.22496304,-0.24886584,-0.083030805,0.10775066,-0.3046075,-0.023093697,0.07559496,-0.07474329,0.3562968,0.466806,-0.36265022,0.3085498,-0.4074535,-0.076376826,0.17034304,-0.15175983,0.558282,-0.32094818,-0.2076132,0.021754846,-0.24170724,0.089284636,-0.1754937,-0.28297105,0.83185756,0.17749648,0.11345707,0.18044831,0.072391436,-0.09823057,-0.1633852,0.54689926,0.29557732,-0.11503652,-0.13000944,-0.6039535,0.096057996,-0.43072826,-0.017989095,0.08870214,0.43458995,0.07419844,0.107702516,0.25601548,-0.07500972,-0.1399865,0.07818295,0.2031455,-0.36513272,0.21635456,-0.008393154,0.26705813,0.22965094,0.66596466,0.07784431,-0.34852603,-0.28623515,-0.08727467,-0.34333098,-0.4117747,-0.13233902,0.021029003,0.5011625,-0.2364876,0.081537694,0.16114606,-0.18554989,0.46762758,0.12384956,-0.09588327,0.031707194,-0.45718664,0.086125724,-0.29706007,-0.42375132,0.6399001,0.009402977,-0.25096068,0.15741923,-0.010300733,-0.1129235,-0.043511912,0.38550046,-0.16298199,0.18358304,-0.20783244,0.20872955,0.41237405,0.07548028,-0.2111359,0.27492583,-0.1862485,0.08302316,-0.08877735,0.3368493,0.08590377,0.0036772303,-0.04444306,0.14497012,0.30900174,-0.14254794,0.18867004,0.20253018,-0.37523848,0.15108821,-0.113465376,0.77549344,-0.07722385,0.114431135,-0.07552794,-0.324268,-0.07950536,0.3748981,0.34489805,-0.004338138,0.36450487,-0.077142514,-0.15662214,-0.16221943,-0.024877518,0.030109227,0.24090244,-0.33109745,0.33743203,0.5129395,0.13541353,-0.07938915,-0.06400675,-0.059648722,-0.30802238,0.121114925,0.17674536,-0.075368606,-0.1961443,-0.25659728,-0.49708316,0.36956525,-0.1291801,0.16559438,-0.3664222,0.13055915,-0.06389214,-0.4318643,-0.44834295,0.30935958,-0.045326047,0.39782295,0.4831888,0.037683796,-0.04628329,0.22063422,-0.2803461,0.083948106,-0.4017673,0.19464248,-0.08487802,-0.0023377016,0.11868129,-0.40178275,0.1687724,0.32319158,0.27435312,0.039178386,-0.0041769557,0.1562281,-0.11007122,0.19527917,0.07063855,-0.29330915,-0.041638203,0.09830208,-0.09317924,0.29191947,-0.29609433,-0.03329988,-0.014237806,-0.46458474,-0.06571486,-0.11949867,-0.3695811,0.30986667,-0.23801467,-0.379708,0.5990579,-0.14121595,-0.30278224,0.47555298,0.22409329,-0.24921368,-0.1414908,0.05389882,-0.19936591,-0.050882302,0.0668488,0.28474697,-0.38281846,-0.13401054,-0.10604857,-0.24778867,-0.30303833,-0.22228102,-0.38025367,0.06368653,-0.21006855,-0.088022195,-0.24553853,-0.23515499,0.16751722,-0.35665077,0.27889323,-0.3933918,-0.33117133,0.114358336,-0.030221693,-0.057170723,0.60150665,-0.08733552,-0.061370406,-0.022272676,0.044843674,0.090628944,0.40303224,-0.15616064,0.5098226,0.2554307,0.2153933,0.033964667,0.6244925,0.27291113,-0.36664045,0.16134101,0.31157672,0.028133314,0.32840282,-0.10088422,0.029968034,0.015895259,0.29627618,-0.35713705,0.21164319,0.21004371,0.46073318,0.0034408197,-0.39937794,0.34191945,0.051182464,-0.06942069,0.20512924,0.20061308,-0.46253806,0.3752157,0.1515378,-0.09107555,-0.22751507,0.34005126,0.37456924,0.5694774,-0.31664398,-0.04236441,-0.097549714,-0.18589061,0.043092817,-0.3267369,-0.25076967,-0.2307943,-0.1845197,-0.009985726,-0.46421826,0.12335819,-0.39795148,0.20264089,-0.24551684,0.42402908,-0.22462612,-0.1114024
c,-0.01726022,-0.13936634,0.521909,0.375811,0.05514038,-0.011003412,0.1691538,0.2962865,0.081711754,0.17433783,-0.28234163,-0.24930495,0.28282338,0.2941319,0.414756,0.0018548034,0.48863563,-0.17403938,0.1111668,0.34936976,-0.37407574,0.5253448,0.19570035,0.18951422,-0.28344122,-0.3213651,-0.19207516,-0.107573025,-0.09123861,0.22772917,-0.0031417236,0.20849535,-0.6497024,0.2665875,-0.022165224,0.036733743,-0.26978955,-0.11090038,-0.44043037,0.021650683,-0.093886994,-0.415782,-0.34329775,0.35953534,0.11999102,0.3198888,-0.35261372,0.20170188,0.33046472,-0.47485405,-0.27154863,-0.31366968,-0.24775812,0.42300597,0.21680436,0.26042268,0.26796213,0.013446517,0.20744532,0.36910492,0.007887974,0.48834813,0.094284326,-0.005896922,-0.361717,0.20554337,-0.19469672,-0.1791305,0.37096134,-0.2177872,0.112101346,-0.03329735,-0.18298219,-0.51820385,-0.12453573,-0.18916038,0.12349298,0.3061734,-0.06165359,-0.41085753,-0.2627612,-0.2907045,0.34131622,-0.096069135,-0.1370742,-0.112112276,0.21608531,0.1582145,-0.08686221,0.1522609,0.1088667,-0.2532695,-0.44084877,-0.106306575,-0.099099524,-0.28481802,0.023690142,-0.21917418,0.23918483,-0.38741392,0.25519794,0.22961536,-0.25699383,-0.5375403,0.16409695,-0.21706581,0.01813754,0.025387097,-0.020983052,0.027021315,-0.22439197,-0.24389307,0.44484922,0.23620914,0.44423777,0.43594283,0.07102521,-0.22725496,-0.16057423,0.1169675,0.14495899,0.1304206,-0.5958893,-0.019357897,-0.13395348,-0.15108883,-0.21899897,0.26515254,-0.029272357,-0.21207717,0.04672063,-0.045704655,-0.5640782,-0.1177983,0.30691522,-0.10004614,-0.102695614,-0.24585558,-0.49779946,-0.23912326,0.22210176,-0.08915782,-0.121880926,-0.111903094,-0.16796212,-0.42452767,0.30632415,0.4329274,0.13803047,0.010906972,-0.15571505,0.15433429,-0.42231297,-0.29807058,0.13401231,-0.042344224,0.25407004,0.15032762,0.29152727,0.02463331,-0.06151051,-0.37146547,0.023904819,-0.020623617,-0.1707122,0.22845969,0.005044926,0.19354519,0.017201304,0.14246938,-0.25176063,0.3134245,-0.3892963,0.49185956,-0.4420423,0.2722932,0.36201304,-0.21718407,0.23007154,-0.14870557,-0.020791084,0.13588443,-0.055423394,0.03498249,0.13859959,0.10841907,0.25622192,-0.0892554,-0.24649313,0.11221629,-0.2908845,0.07479593,0.40467134,0.24531859,-0.40236443,-0.111361675,-0.104395404,0.40411213,0.020403594,-0.29543537,-0.16376184,-0.018477574,-0.50027287,0.04027614,0.04999671,-0.23529162,0.053003274,0.100390024,0.0779148,-0.4409075,0.3126103,0.46075064,-0.1682263,-0.031450108,-0.3497112,-0.5467576,0.6155017,0.1424771,-0.43588936,0.008096103,0.3283369,-0.022525506,0.40647298,0.016231231,0.2508484,-0.22074735,-0.50253636,0.11293273,-0.21008193,-0.57509893,-0.16810268,-0.36512524,0.14439744,-0.13737647,0.03857875,-0.48520446,-0.18926707,0.13502729,0.5040462,-0.2912306,-0.37473783,0.111560516,-0.14285101,0.036796782,-0.26070803,0.20381913,0.00530342,0.33000073,0.5680874,0.41393304,0.14803675,-0.36073974,-0.21537375,0.17874156,-0.16344282,0.12632398,-0.1889036,-0.26300922,0.16557318,0.50522524,0.03259886,-0.02178441,0.11187075,0.052732375,0.069499,0.14666884,0.22214895,0.37368256,-0.2228116,0.19032821,0.12241043,-0.030674264,0.12512708,0.1491256,0.17338663,0.0145156905,-0.19094494,-0.17842335,0.12245238,-0.037851088,0.17145005,0.29755604,-0.24896693,-0.2925326,0.164305,-0.14826378,-0.14733233,-0.28865144,-0.050412178,-0.2085101,0.4142075,0.15338713,0.15465769,0.025708988,-0.18994492,0.16238272,0.00020968914,0.0022378825,-0.37400943,0.015098035,0.30295342,-0.070502035,-0.09068737,-0.22356182,-0.45404977,-0.19400254,0.38672832,0.3180719,0.10246913,0.14458445,-0.22508535,0.5202584,-0.36232555,0.117911756,-0.07162482,0.15748763,0.63084245,0.16766411,0.12894313,0.004961878,0.265794,0.010680851,0.38657635,-0.03652912,-0.32921717,0.12720685,-0.2262137,0.34814876,-0.06613713,-0.010819968,-0.37971443,0.12609684,0.08988854,-0.019800354,0.044754,-0.29260918,0.343761,-0.38776976,-0.1676735,-0.24605083,-0.15856612,-0.22004804,-0.3678666,0.06445073,-0.12645374,0.0056260005,-0.42691684,0.3239388,-0.23134282,-0.013298992,-0.24279454,-0.19252971,0.37381247,-0.30849522,-0.44351566,0.031971395,-0.20024723,0.3208311,0.27984205,-0.051295213,-0.1967448,0.033386953,-0.21780235,0.1258062,-0.5702341,0.22427571,-0.015596349,-0.2195783,-0.21499985,0.015444532,-0.094701774,0.093476556,0.4288181,-0.52407324,-0.20011544,0.30452436,0.16082907,0.083083786,-0.015808716,0.16676301,0.010929555,-0.092493996,-0.3157259,-0.30886543,0.1707314,0.09122604,0.2012254,0.1681594,0.42599735,-0.7249655,-0.11396474,-0.20649311,0.19816595,0.11042031,0.21276602,-0.3327103,-0.12742762,0.00028141215,-0.8557578,-0.17891797,-0.18814144,-0.11229437,0.3940714,0.43960565,0.29329225,-0.018548124,0.24188788,-0.32072812,0.019568708,0.26801312,-0.36126402,0.4339288,0.1108026,0.06249425,0.19657439,0.029252775,-0.23443913,-0.6397245,0.10430774,-0.20820832,0.19793855,0.14331548,0.38737875,0.27189016,-0.16968751,-0.2735094,-0.6822837,0.4337682,-0.1789747,0.26463187,0.08958399,0.13080059,0.10241692,-0.3082911,0.16514426,-0.16066466,-0.038703967,0.1742599,-0.39844877,-0.38143516,0.2538857,-0.4234494,0.28137028,0.11947097,-0.38235706,-0.26091802,-0.041353025,-0.17495477,-0.15467477,0.51500136,0.39671564,-0.39790544,-0.08238601,-0.39315826,-0.22134537,-0.021450639,-0.20866427,-0.39338452,-0.34278917,0.41561705,0.00081338733,-0.3401149,-0.35175884,-0.10766483,-0.10111897,0.20704448,0.35235277,0.07232277,-0.026235957,-0.027699925,-0.37137675,0.20812538,0.054186147,-0.0015392229,-0.047344565,0.13003995,0.010669146,0.088495746,0.13168535,0.10083408,0.21578683,-0.013335019,0.027985923,0.38100758,0.08616659,0.26562998,0.09823587,-0.02343458,0.17421056,-0.1765373,0.450434,0.17696702,0.18289438,0.29310405,0.007768102,-0.3706394,-0.06740462,0.4712066,0.09198313,0.009718809,0.03581468,0.261311,0.19692165,0.5805045,0.011277698,0.16262552,0.21603702,0.08976569,-0.112124644,0.21453989,0.01053381,0.4870355
d,-0.2183694,-0.41528094,0.07375625,0.0967876,-0.22322133,-0.42329344,0.017476764,0.26402932,-0.058118016,-0.27123955,0.029891726,0.27219084,0.09089677,0.04627666,-0.4057031,-0.08855019,0.13998488,0.2132922,-0.056153826,-0.3740865,-0.25768137,0.49841338,0.119539134,0.20955563,0.021741603,-0.12831566,0.10687161,0.4760494,0.049330056,0.35037726,0.1517535,0.5158565,-0.4218324,-0.0021260045,-0.15666856,0.051776018,0.47429398,0.013413753,-0.13562417,0.08725466,-0.27175537,-0.1310044,0.16060269,0.32490197,-0.2580815,0.2158616,0.40868524,0.3848241,-0.21460438,-0.13610719,-0.39187872,-0.44054222,-0.12729701,0.4450592,-0.1565897,0.37368706,0.03893151,-0.7143703,-0.026209429,0.019527365,0.21649455,-0.08253027,0.35775706,-0.44440395,0.11914886,-0.2822378,-0.08132737,-0.582428,0.26955372,0.09061354,-0.14729753,0.03702958,0.5328863,-0.03400354,-0.052803293,-0.22534227,-0.093976,0.39869323,0.14402953,-0.26520002,-0.60532266,-0.354723,-0.6532054,-0.35788003,0.13901168,0.46688098,-0.14327025,0.07389917,-0.027026694,-0.13247718,0.057941176,0.039386623,-0.18344942,-0.14490697,0.0615075,-0.15419969,-0.17689282,-0.24273883,0.048965223,-0.31570914,0.1745776,0.2064802,0.2766785,-0.046739206,0.15140578,-0.43130422,0.077751726,-0.23234515,-0.106063806,0.123370826,-0.21261886,0.29985267,0.36801976,0.1339852,0.34226054,0.07736566,-0.17926504,0.32109112,-0.114145726,0.39346856,-0.08859029,0.48033428,-0.13990365,-0.1838746,-0.15035218,0.03882882,-0.29849896,0.077826805,-0.31980836,-0.44047487,0.11786088,-0.17679138,-0.21753386,-0.4046388,0.22324722,0.17913249,0.090647876,0.103199266,-0.24014011,-0.17196733,0.07460646,-0.44159603,-0.24466035,-0.25431585,0.32943195,-0.10850141,0.16647708,-0.03047353,-0.066831075,-0.19026116,0.034283813,0.045022607,-0.33296755,-0.19204092,0.07763506,0.3804962,-0.18371478,0.12973952,-0.077258654,-0.22753993,0.19732349,0.012490302,0.022754945,-0.042234622,-0.3295176,0.3921315,0.035285845,0.266749,-0.27291155,-0.12684642,-0.20551282,0.4589355,-0.082667045,0.6267673,0.046883572,-0.0052938536,0.09280121,0.016756877,0.42590874,-0.084133744,-0.051467028,0.44417834,-0.35834605,0.12214613,-0.11098523,0.08751348,-0.12439027,-0.5076892,-0.033647932,0.017553665,0.11390431,0.21772736,-0.12543467,0.027292747,-0.32333976,-0.09665697,-0.08821231,0.15820602,0.025301546,-0.17573828,-0.13449797,0.29695842,0.09648957,0.40026277,0.07984767,-0.16212164,-0.055761695,0.16387102,-0.30527622,-0.18962742,-0.54640234,0.08617604,0.086983964,-0.11646436,0.20548862,-0.19095856,0.03254123,-0.04842508,0.3489793,-0.09836957,0.1971533,-0.05738736,0.056072712,-0.18694127,0.14638369,-0.5610643,-0.2624126,0.076117665,-0.021427216,-0.005516354,-0.087430745,-0.060981203,0.017926604,0.18685475,0.16098334,-0.057425186,-0.06292431,-0.031857334,0.1349813,-0.17334798,-0.36636123,0.23017737,-0.27474174,-0.09800484,-0.22532019,0.18578988,-0.1179847,-0.026244506,0.030334827,0.32360992,-0.1999104,-0.24414437,-0.16058537,0.24096774,-0.08833695,-0.3386698,0.048694707,-0.35958573,-0.06013576,0.06803637,0.13111138,0.25793427,-0.029874317,0.018642768,0.01999441,-0.15343991,-0.21356863,-0.060502775,0.17321779,0.49082208,-0.2928401,0.23482352,0.20765683,0.2927376,0.23785537,-0.31021428,-0.22675207,-0.013799936,0.088148385,-0.312918,-0.2334165,0.3325841,0.18403333,-0.2032092,0.13460669,0.3913454,-0.2963614,0.06563292,0.21093833,0.3822868,0.2923383,0.025338314,0.22227451,0.11829893,0.21927461,-0.1955538,0.03801313,-0.3689221,0.016106889,0.33170903,0.060629494,-0.123513915,-0.21782875,-0.20545426,0.22414719,-0.30136898,-0.056523263,0.4816414,0.43110088,0.24334979,-0.2516293,0.27055353,0.07497688,-0.4213559,-0.14525732,0.13974506,0.39003938,-0.23021942,-0.049980372,0.36374873,-0.20001012,0.11690357,-0.24741939,-0.28102958,0.22472668,0.13683079,0.08879662,0.22742805,0.22135152,-0.23666649,0.18796638,0.5196749,0.08992846,0.03663343,-0.24379858,0.27873433,0.54471356,-0.15672013,-0.1015319,-0.37302846,-0.26171818,0.2596734,-0.23268262,0.0954202,0.08314438,-0.24350092,-0.5304435,-0.02805623,-0.10977331,0.24560586,0.1792871,-0.051922314,-0.05726044,-0.3757354,-0.21660785,-0.057555813,0.16173387,0.2783886,-0.23645562,-0.28613248,-0.17696442,0.09571579,0.004882723,-0.12485684,0.15060033,-0.12639643,-0.023506265,-0.43899935,-0.4073305,-0.009666244,-0.39039522,0.43582994,0.3128493,-0.13162005,-0.56362087,0.45975593,-0.2932095,-0.19765577,0.28049374,0.057297252,0.26539102,0.41951177,0.11002464,0.27516,0.05959262,-0.008290965,0.46475032,0.023209788,0.35767913,-0.41171616,-0.18007167,-0.0695282,0.25363794,0.29419577,0.1831378,0.118887424,0.036546264,-0.0027003847,-0.11405722,0.06983889,0.028260428,0.17793442,0.031147555,0.073916525,-0.048538625,0.42782342,0.2732604,-0.27259737,-0.5227843,0.02339217,0.29656637,0.19843987,-0.076665856,-0.038641997,0.45211598,-0.025579173,-0.63052696,-0.33025414,0.5622686,-0.041458607,-0.06754301,0.54197794,-0.025041504,-0.08032625,0.216894,0.08799529,-0.23193479,0.047981344,0.16643299,0.53047484,0.18838835,0.23937711,0.38078928,-0.2931233,0.099645294,-0.39057657,-0.15552089,0.16515702,-0.55700296,0.17073725,0.20280048,0.0909732,0.35923472,0.024133924,-0.033326395,-0.4265725,0.33504555,-0.022349548,-0.14700468,-0.080575444,0.31520548,0.123934954,-0.28001362,-0.20925698,0.0649189,0.122953415,0.056410283,0.09121632,-0.31689996,-0.16951168,0.3781659,-0.5019305,-0.37779003,-0.338121,-0.15555939,0.2128441,0.19611177,-0.09238731,0.097356364,-0.044090785,0.013394345,-0.25518292,-0.057974808,0.2105465,-0.03573139,-0.010763209,-0.14271046,-0.14485817,0.17244866,-0.26776734,-0.1333985,0.098166525,0.1975186,0.018723883,0.36607486,-0.049107246,0.04961484,0.13282847,0.15384151,0.026148055,-0.13664359,0.08203064,0.3759175,0.0034871884,-0.2091071,0.37064886,-0.10707504,0.05791512,-0.16027454,0.065477595,0.06156772,-0.21635045,0.12659594,0.019431392,-0.18030751,0.3499894,0.2487408,0.39219582,0.0011151955,0.08856096,0.20071569,0.044610947
e,-0.22788343,0.28485298,0.100818716,0.54015523,0.3997712,-0.32318833,-0.08724588,-0.14363211,0.15444899,-0.083649166,0.22393113,-0.14583766,0.11744821,-0.17639041,-0.20155463,0.010685146,0.61277866,-0.26956743,0.20572963,0.29236683,-0.026818529,-0.06798852,-0.19332767,0.23854855,-0.061307423,-0.39865246,0.04716289,0.14960295,0.17990017,-0.028749116,-0.09664626,-0.097662665,0.010152161,0.49376476,0.05443096,0.23679018,0.015424658,0.07511425,0.22125033,0.5646959,-0.05738855,0.016247228,-0.019728715,-0.029010966,-0.016585998,-0.09286763,-0.1594224,-0.07886929,-0.37800747,0.1661186,0.17377245,-0.07085562,0.09790143,0.21246427,0.15265082,0.15569547,0.05572997,-0.07264005,0.15645379,-0.09209463,0.036848083,0.24738833,0.11104181,-0.03598088,0.25315773,0.13526395,-0.17210028,-0.13944316,-0.23796129,0.023679003,0.086334124,0.05087454,-0.2547192,-0.064163595,-0.25660798,0.1312572,0.39969692,-0.42601967,0.10922657,-0.3502463,-0.45879167,-0.2864372,0.17661135,-0.20489776,-0.030326866,0.16281521,0.3700054,-0.1965069,0.05353623,-0.08221203,0.37651968,-0.061067484,0.23422286,0.24064612,0.33241028,0.2907345,0.61580634,0.19836259,0.15599677,-0.44217932,0.81191534,0.20548981,0.06810464,-0.12419757,0.37103233,0.027679551,-0.24073094,-0.33345094,0.06137042,0.2855528,-0.1004225,-0.22236133,-0.008079007,-0.34085664,0.34374088,-0.09258,-0.2261641,0.17324843,-0.4939553,0.019486908,-0.5686586,0.10668779,-0.12518468,0.07573443,-0.21407682,0.25485867,0.3441214,-0.13319859,0.18877205,-0.40247172,0.11162199,0.119535625,0.3478945,-6.578863e-05,-0.27453637,0.08953543,-0.5320604,0.085705236,-0.20240898,0.23994961,0.22355834,-0.056433335,0.35196385,0.4931506,-0.033213183,-0.22230557,0.19354248,-0.5734041,0.13098541,-0.0026693493,-0.47067404,-0.09302856,-0.14644268,0.01735999,-0.1031229,-0.31962317,-0.16531897,0.030465215,-0.07108929,0.51145566,0.3641076,-0.28566834,-0.103692174,-0.0695288,-0.2147386,0.2880061,-0.31347635,-0.19009593,0.12548101,-0.5166116,-0.15972845,-0.009177253,0.44356334,-0.35588458,-0.08920506,0.17394643,0.7155325,-0.2943774,0.06972754,0.14282686,0.077576354,0.08804221,-0.051231563,0.11959903,-0.1436817,0.35563743,-0.015942032,0.0920305,0.33888566,0.21382731,-0.066826366,0.19614601,-0.051874332,-0.38604864,-0.19659865,0.06399403,-0.31730446,0.038597204,-0.10380991,-0.033209395,0.056576777,0.33166754,-0.08661537,0.36305046,-0.5044284,0.09021878,0.296123,-0.1214638,-0.47713184,-0.064313374,-0.11533208,-0.203035,-0.04937777,0.13990203,0.45833284,0.391121,0.06136267,0.27340987,0.21007416,0.03237318,-0.07047879,-0.2921649,0.0359725,0.017144028,-0.2804095,-0.060347565,0.014624793,0.3912403,0.0842504,-0.50880384,0.20374945,0.15964894,-0.0055069216,0.11281787,0.23395246,-0.3829788,0.2578984,0.34657294,0.40922055,-0.6076411,0.035050176,-0.49124908,0.45994884,0.018002264,-0.21249351,0.37585706,0.52199227,-0.60547704,-0.1035615,0.024401523,-0.08028703,-0.21553497,0.09631836,0.25001973,-0.15669632,-0.2834982,-0.0010777973,-0.40134692,0.2713666,0.48496938,0.1525177,-0.18481138,-0.2952376,0.35434785,0.18465367,-0.042620778,-0.011194032,-0.45258534,0.007624276,0.0042956024,0.24180803,-0.022381641,-0.062459953,-0.14916973,-0.27595207,0.20431225,-0.28907794,-0.04932686,-0.15140577,0.29126337,0.2740257,0.0045485273,-0.10472672,-0.1740188,0.08999098,-0.052517466,-0.33137965,0.18278962,-0.3187992,-0.09307616,-0.3766531,-0.07578296,0.08734362,-0.17435974,-0.0014136583,-0.05888483,0.29179692,-0.14564572,0.031778716,0.04023031,0.46362972,0.33084226,0.24567944,-0.27482796,0.14529517,-0.25849566,-0.019328706,-0.55701876,0.38608322,-0.016797855,0.057027422,-0.06556482,-0.3156839,-0.12225775,-0.06425391,0.15560555,0.2878827,-0.045093328,0.23402157,0.060011595,-0.382275,0.16629483,-0.35325992,0.15292779,-0.13387766,0.30528107,0.13387927,-0.37592894,-0.11384109,-0.19293517,0.39689943,0.039616365,-0.3318432,-0.040425476,0.09343611,0.03687048,-0.6971212,0.08488051,0.085333765,0.101833634,-0.48133123,0.52769697,0.30923453,-0.04820215,-0.07622059,0.122081436,0.009545725,0.19754264,-0.5751572,-0.30948946,-0.19917004,-0.249513,0.12908979,0.2484963,0.2160523,-0.22315088,-0.17322415,0.039666094,-0.38027966,0.33604544,0.21900555,0.14766029,0.4963525,-0.42210597,0.056125514,-0.109783284,-0.0572257,-0.13213012,0.30676147,-0.26620832,-0.6356403,0.23818019,-0.2332117,0.08394419,-0.1818536,-0.041106526,-0.25406003,0.33156246,0.2674847,-0.24478354,-0.016094804,-0.05715647,-0.090993315,0.19788736,0.4248232,0.1307696,0.17359835,-0.29371682,-0.042728066,-0.49102044,-0.13353267,0.07925327,0.30168718,0.19657966,0.50150275,-0.53966355,-0.34748936,0.19047219,0.3482738,0.025380611,0.28894812,-0.33796242,-0.10642782,-0.287318,0.031056456,-0.3360019,-0.06635252,-0.08216697,0.2195658,-0.004977241,0.16627347,-0.12570874,-0.08755817,0.1544095,0.11298926,-0.24457233,0.42786098,0.50752085,0.082243465,-0.16357258,0.60060275,-0.0822342,-0.053476326,0.24739185,-0.120573014,-0.45867625,0.14885968,0.07619562,-0.12713118,-0.31596518,-0.1852459,0.4255834,0.3636862,0.1946249,0.68151575,-0.3295199,-0.7593656,-0.06760632,-0.33469558,0.26697427,-0.0782068,-0.008041881,0.59799445,0.1403854,0.2508963,-0.1747776,0.008613408,0.39657867,-0.46268335,-0.121702455,0.12989223,0.06324088,0.20792711,-0.14147764,0.50323004,0.07934875,-0.062814906,-0.040956147,0.038261116,-0.36184615,0.09391937,-0.20596482,0.066119894,-0.21432328,0.5366162,0.48629206,0.49185365,-0.28947398,0.042701334,0.4070032,0.3362145,-0.006230466,0.26359257,0.14922433,-0.1269839,-0.3336362,0.34863043,0.10072854,-0.41655406,0.15869838,0.24126469,-0.04752346,-0.43771476,-0.20928454,-0.24395812,0.02775313,-0.040415075,0.52313983,-0.11396155,0.19066042,-0.07646572,0.26401433,-0.14583603,-0.21936773,0.39519188,-0.06543216,-0.030532889,-0.0512089,0.11415648,-0.24015653,-0.757847,-0.11309473,-0.39207578,0.18356532,0.13624895,0.042483304,0.14862216,0.27831566,0.6198322,0.009912357,0.02465609,-0.33910486
f,-0.030525785,-0.2308633,-0.36579433,0.08835174,0.49085242,-0.3867538,0.405429,-0.027591676,0.26994216,-0.0031275423,-0.6338626,-0.356524,0.08673588,-0.06802621,0.72264916,0.46847647,-0.4986724,0.081058815,0.29843846,0.26393056,0.1167052,-0.26121205,-0.08578356,0.16136743,0.45808172,-0.009433258,0.08374106,0.24979553,0.07732127,-0.06870922,-0.48770058,-0.1047801,0.16851172,-0.24964587,0.073642045,0.060359627,-0.038743403,0.33326787,-0.12340341,0.02125137,-0.24816278,-0.113861635,-0.08005384,0.14879194,0.23808613,0.13927856,0.3214652,0.23949286,-0.05711364,-0.28244376,0.3690623,-0.13947356,0.060209487,0.071104236,-0.19041651,-0.42168665,-0.23547515,-0.17735495,-0.21542114,0.09958106,-0.20922907,0.19166636,0.0029438213,0.5310469,-0.23929316,-0.1346938,0.2947913,-0.37839854,-0.18655947,-0.3865938,-0.15111376,0.46000925,0.039658934,0.34604153,0.28439176,-0.21053767,0.30306605,0.2709388,-0.81649125,0.24220642,-0.14375728,0.11102243,-0.25238207,0.2010715,0.082727,-0.00018481165,-0.31343699,0.038726397,-0.007938333,0.19326678,-0.015077688,-0.1210339,-0.6310657,0.27157173,0.41995743,0.48762733,-0.096177444,0.060777098,-0.026115457,-0.15284689,0.19072586,0.37269685,0.0057628825,0.3041,-0.025238615,0.4412926,-0.12632596,-0.009886339,0.45669195,0.26141077,0.303531,0.13327196,-0.24978742,0.015091956,0.086920634,0.38663536,0.24720173,0.34869015,0.3574339,0.11556402,-0.23951617,-0.15454635,-0.39015245,-0.049701907,-0.20816407,-0.16496325,0.26964533,0.013538457,-0.32523388,0.23206641,-0.073527284,-0.4158742,0.2545963,-0.2331954,-0.40563184,0.2119326,0.48167536,0.42636067,-0.23089623,-0.04344188,-0.10550043,0.22671239,-0.42828357,-0.056434065,0.016977636,0.0900798,0.34666973,0.015583549,-0.6377788,-0.01739411,-0.45483434,0.36960214,-0.29887205,-0.35814688,-0.21291482,0.14103451,0.46566924,0.7798666,0.30502695,0.18953054,0.36026,-0.50615156,-0.51696116,-0.27849793,0.10667104,0.08623985,0.3282991,0.02123949,-0.1798149,0.52883285,0.32339016,-0.19660261,-0.10993325,0.13931406,-0.1236279,-0.13344027,-0.01989516,-0.6122079,0.24960575,-0.28627846,0.28437233,-0.0302772,0.040232584,0.35525975,0.37389776,0.06999022,0.38426033,0.78051066,0.18293709,-0.024618044,-0.36735314,0.2720506,-0.08580104,0.6287331,-0.07249911,0.26859307,0.2539066,-0.21868491,-0.20532456,-0.3341373,0.23353495,0.06449072,-0.07059174,0.12323261,-0.0074277,0.01527559,0.06705536,-0.14246753,-0.624252,0.18922177,-0.25245678,0.27578413,0.17117679,-0.081056684,-0.10005324,0.054167688,-0.10850715,0.10702228,0.17515244,-0.025935076,-0.13146114,-0.2857959,-0.011019893,-0.18251337,0.28449202,0.15328309,-0.34259126,0.47086263,-0.03355132,-0.2811675,0.30840963,0.17671578,0.229637,-0.001657851,-0.15149719,-0.16739255,0.04944563,0.14159793,-0.37599057,-0.14991263,0.14404443,-0.11050077,0.3904826,-0.032463588,0.31398967,-0.008867696,0.38386616,0.17826465,-0.20546374,0.43561828,0.1283344,0.6458187,0.15339604,-0.15403758,0.21986851,-0.69164324,0.11839932,0.2924849,0.41471425,-0.058322735,0.3622511,0.13126361,-0.013991324,0.088600636,0.3693192,-0.093400724,0.096045464,-0.57112867,0.5057256,0.0031353608,-0.15382393,-0.45838213,-0.087716185,-0.38189793,0.52777207,-0.42703253,-0.06628967,-0.059800267,-0.3748515,0.20705366,0.16182435,-0.04841631,-0.049361095,-0.58072245,-0.2038283,0.14159352,-0.53191644,0.006548292,0.08740872,0.22591746,-0.26194173,0.35558832,-0.013284214,-0.059077412,0.63721025,-0.03777209,-0.324166,-0.33143297,-0.24314886,-0.059607968,0.05904191,-0.11536235,0.05590207,0.022898428,0.018362291,0.29629743,-0.05130408,0.071709305,0.13969311,-0.078054495,0.25147584,-0.3447524,0.056936365,0.0156443,-0.12990338,0.15733418,0.39972562,0.032175407,0.52638966,-0.26587412,-0.28598532,0.122534096,-0.3121853,0.09021129,0.04292979,-0.025048248,0.36998305,0.11410217,0.006366551,0.70386124,-0.01694772,0.3800578,-0.20632172,-0.6425524,0.620692,0.04149744,-0.20139939,-0.101957716,-0.1450471,0.031566687,0.054304074,-0.18218708,0.12913388,0.05864629,0.21144043,0.20721495,0.18992439,0.14870043,-0.27515376,-0.07413745,-0.25612986,-0.41321358,0.22953406,-0.3183103,0.20124274,-0.09054383,0.07876557,0.19464046,-0.33265635,-0.14856398,0.15965104,0.5126211,-0.33751184,-0.02366744,-0.22530967,0.21465303,-0.12609553,-0.16052532,-0.14539033,0.15045509,-0.20009261,0.3217265,-0.038496394,0.32047403,-0.35212207,0.5435326,0.053880356,-0.12765318,-0.116529085,-0.004895212,-0.09462055,-0.0710198,-0.27249876,0.51450527,-0.008019414,0.15728906,-0.016031481,0.5347736,-0.4442615,-0.49612975,0.07889351,-0.114093326,0.25587767,0.044687547,0.057005607,-0.039948046,0.32096937,0.67578447,0.12754929,0.1027103,-0.18707836,-0.4231856,0.10748862,0.71307826,0.38897917,0.28207693,0.22888805,-0.36730093,0.03467362,-0.14802545,-0.29496896,0.34647214,-0.19926175,-0.20604722,0.051070325,-0.19074112,-0.11038987,0.028389484,0.3183765,0.11045221,0.21654913,-0.080699526,0.24034311,0.1957868,-0.110182256,0.23379634,-0.2624427,-0.32672957,0.24816707,-0.25523782,-0.0923231,0.31294248,0.51440597,0.2869889,-0.074076,-0.4538673,0.11945648,-0.04726769,-0.017753057,0.15502149,-0.34396514,0.50241506,0.34725946,0.4335171,0.50855005,-0.012563728,-0.15320796,0.4093902,-0.5452145,-0.23633492,0.25823984,-0.005625695,-0.032335315,0.14328943,-0.24880606,0.3603711,-0.11939746,0.017079517,-0.1504166,-0.24212396,0.07103437,0.17129478,-0.07631597,0.6054766,0.39554653,0.14880294,-0.18911639,-0.35021022,-0.6010798,0.051063996,-0.1154205,-0.16093612,-0.341855,0.20133093,-0.22734436,-0.107173696,0.5873846,0.071997344,-0.16856346,0.6439156,-0.17686175,0.26950598,0.3230005,-0.3425065,-0.24880315,-0.049413323,0.27624628,-0.038213946,-0.25958622,-0.0038500428,0.017416269,0.23592979,0.23998035,0.2957941,-0.07375942,-0.17003945,-0.053590707,0.04226108,0.22918266,0.3815045,0.35629112,-0.08281765,0.15085012,-0.25192767,0.09049042,0.27923042,-0.09802714,-0.38205972,-0.34005046,-0.12655348,0.20925951,-0.24490093
g,0.22495133,-0.61579806,0.4371081,-0.14655969,-0.014938459,0.0709402,0.09659077,0.16054225,0.1373518,0.35134915,-0.2981722,-0.2276636,-0.06987532,0.18527131,-0.27515212,-0.022479352,-0.15816689,-0.39637572,-0.09761583,0.0013123527,-0.015525647,0.35651857,-0.17993739,0.3043604,-0.21757218,-0.10497065,-0.1854546,-0.2380166,-0.1361723,0.1641181,0.3644231,0.45914382,-0.016940948,0.22912727,-0.22307,0.3614518,-0.027369507,-0.4385732,-0.2667075,-0.20284712,0.2593647,-0.31975546,0.00096224993,-0.040919703,0.4216472,0.2728111,0.35356274,0.14650428,-0.23537555,-0.009725347,0.28400654,-0.15090701,-0.30893964,0.46840376,0.3571238,-0.25032565,0.09038113,0.2673689,0.0786035,-0.40801805,-0.58954734,-0.09188964,-0.3337078,-0.67244464,-0.11000868,0.2251552,0.0069843307,0.44123846,0.21811342,-0.61188024,-0.09764767,0.5122464,-0.11986296,0.23112243,0.3398131,0.24386105,-0.27106297,0.13012907,0.032475524,-0.26265794,0.06607822,-0.7487377,-0.029001173,-0.14516282,-0.28190205,-0.12189415,-0.23272797,0.04636375,-0.1219397,0.38770324,0.11956597,0.10582706,0.08250046,0.20698786,-0.28057846,0.16921258,0.011062764,0.12899314,-0.43968603,-0.19254969,0.047203276,0.016871963,-0.16842636,0.4034099,-0.13070056,0.33977485,0.19846943,-0.22316052,0.19358644,-0.07260828,-0.24892184,-0.1508723,0.063403636,-0.15710111,-0.1126508,0.29534727,0.42183605,-0.1903778,-0.08797183,0.24910924,0.100214966,0.099466555,0.18575063,0.4309179,-0.6261282,-0.024575152,0.36657166,0.3496571,0.14147237,0.20878585,0.3500195,0.27863705,0.25843757,-0.14294699,-0.117752396,-0.12607628,-0.19358449,-0.14471391,0.20231502,-0.26462373,-0.3766425,-0.24904677,0.6656055,-0.01350829,0.4994968,-0.15079159,0.126124,-0.2702416,0.30246773,-0.21916202,0.077686474,-0.14050886,0.019556008,0.37120262,0.15893748,-0.20552135,0.36209163,-0.18975171,0.3103451,0.043180212,0.24858838,0.19763675,0.285927,0.04587193,0.39046803,0.021339752,0.3009356,-0.4913562,0.36456987,0.12028165,-0.016177073,-0.0029429793,-0.41546953,0.056578152,-0.022397226,-0.21009342,-0.3740778,-0.06905496,0.2429893,-0.17893499,0.21238123,-0.41556165,0.15094188,-0.12585571,-0.006539531,0.018130513,-0.15854833,-0.10264873,-0.108661,0.028728,-0.13145211,0.32813418,-0.07633247,0.22183004,-0.09046627,-0.031135835,-0.18874462,-0.0017819852,0.26364195,0.12784845,0.22628053,0.24684027,0.1335564,0.12188836,0.05270801,-0.31596085,-0.49279797,0.076111116,-0.05019884,-0.3192218,0.016809016,-0.14366567,0.20485409,-0.15774053,0.11754086,-0.13201006,0.27642295,0.3586046,-0.10962795,-0.34735376,0.07081197,0.098525345,-0.20942855,-0.37868017,0.5356849,0.02777268,-0.0148138665,0.1802673,-0.28029537,0.006416902,0.27661306,-0.007344868,0.32572368,0.22743024,0.24296978,-0.14197934,-0.4273326,-0.14466254,0.36111647,-0.45556408,-0.38511014,0.34150434,0.25830388,-0.19539016,-0.3353776,-0.0883973,-0.07968865,0.3458651,-0.21613795,-0.0018508956,0.31986582,0.015554294,-0.1520817,0.0023768395,-0.041176595,0.08981423,0.45799416,-0.09713527,-0.07448565,0.15350029,-0.14735532,-0.036239155,-0.42844003,-0.2796441,0.28520286,0.19270515,0.14707954,0.012544116,0.22608046,0.23845926,-0.27182195,-0.2868096,-0.20731929,0.0072876066,0.2778108,-0.16667663,-0.058398426,0.12390558,-0.05271193,0.18729737,0.4747702,0.077609085,-0.08965467,-0.36465174,-0.053822067,0.25464964,-0.2533092,0.41032994,-0.020418596,-0.22082525,0.393097,0.30372232,0.058352105,-0.17570262,0.2766978,0.5245527,-0.22724298,-0.07589775,0.31796274,-0.5100406,-0.5518684,-0.029074732,0.021395866,-0.10052327,0.04670888,-0.21478827,0.54689926,0.08716817,0.5339627,0.06496303,-0.33807242,0.27992004,0.12712973,0.24681975,0.41630027,-0.073676966,-0.060215704,0.055271465,-0.23979631,0.08395757,-0.14052096,0.56513697,-0.5123302,-0.23809578,-0.010709595,0.014410965,-0.2463898,0.31621057,0.01055523,-0.13848181,-0.021964267,-0.08651194,-0.47704446,-0.09782094,0.34390798,0.1426652,0.08211186,0.15255791,0.08316079,0.09618462,0.0316533,0.09618696,-0.013417654,0.048583485,-0.16965917,0.51880556,0.22473219,-0.15196274,0.03330896,0.12809321,-0.10624552,0.18637352,-0.22316602,-0.4021592,0.039063364,-0.20462957,-0.035819158,0.23347783,0.23399049,-0.1274308,-0.2959879,0.04045145,-0.4833005,0.38891563,0.122473195,0.12722003,0.051259346,-0.3038075,-0.17735806,0.105679415,-0.11287512,-0.26170892,0.26748198,0.008672021,0.054524966,-0.35335663,-0.17893565,-0.60954046,0.24085397,-0.09399098,-0.073780484,0.10512823,-0.2138508,-0.33997542,0.003182426,0.081345335,-0.29571497,0.10586151,-0.13260108,0.088697225,0.08984317,0.27712348,0.42525107,0.024008416,-0.17144555,-0.2594038,0.06805013,-0.28261992,-0.4409409,-0.11505067,0.021865822,0.484307,-0.08564243,0.005559504,0.011940926,0.46936652,0.03161832,0.11826013,-0.29178318,0.3609734,-0.47020292,-0.16587844,0.5018184,-0.16057447,0.49953777,-0.10016206,0.39119846,0.20875078,-0.027927347,-0.02441328,0.17236936,0.14494291,0.014262766,0.25929657,-0.6236765,-0.45735434,0.31007364,-0.37716034,-0.11500117,0.19237903,0.376214,-0.20596847,-0.36990982,0.09060942,-0.113758996,-0.117482126,-0.15399553,0.24785176,0.31945616,-0.30358458,-0.3223594,0.13403349,-0.4348603,0.21334982,-0.16619784,-0.06857708,0.086693116,0.022330109,-0.09857861,0.19589052,0.2045218,-0.23131312,-0.08578647,-0.26635185,-0.2341024,0.29283404,0.0021897703,-0.1926059,-0.3528139,-0.45197856,0.3079837,0.033375226,-0.52162665,-0.0009387024,0.025234856,-0.1457988,0.17271996,0.30664,-0.8363154,0.5164712,0.17010796,0.14342016,-0.23101605,-0.280702,0.30611396,-0.16359612,0.08292725,-0.053014778,0.17477137,0.048616618,0.26508033,0.074756674,0.036972284,-0.11366032,0.3983812,0.061848238,-0.20427448,0.34414256,-0.00708293,0.30804187,-0.058767922,-0.039148822,-0.489334,-0.16745834,-0.03142344,-0.15550387,0.5253792,-0.096172735,0.5535587,-0.20389241,0.25330627,-0.011133507,-0.19500595,-0.04266861,-0.0928576,0.094026744,-0.0031874701,-0.34502053,-0.20329061,0.061221562,0.3722405,-0.14712211
h,-0.1483595,0.13356933,-0.03654656,-0.08214282,0.27717185,-0.3489997,0.03983875,-0.051133253,-0.036463037,-0.016568623,-0.07176627,-0.14960188,0.36008504,0.23801786,0.20085177,0.07531792,-0.174891,-0.1406461,0.28973743,-0.041049547,-0.08530938,-0.3950058,0.08081323,0.18001902,0.06723639,0.31222564,-0.05160574,0.04110547,-0.1715104,-0.14783686,-0.050567143,-0.07362952,0.008212864,0.24189518,0.022322886,-0.04248979,-0.26790223,0.05364147,0.09714382,0.01039587,0.059052654,-0.06410446,-0.18759564,-0.29943892,-0.056723617,0.41460103,-0.10605118,-0.21469599,-0.23234849,-0.5783347,0.24231005,-0.08851915,0.13720816,-0.15533525,0.010944108,-0.35888135,-0.2757704,-0.039093703,0.39583588,-0.1939317,-0.111466065,-0.18263534,-0.005571235,0.11170985,-0.028471753,0.010060497,0.42599517,0.06325836,0.03107265,-0.12372094,0.13795835,0.06989726,-0.14288883,0.273317,-0.019933507,0.6167013,0.0626756,-0.056006595,-0.4188037,0.082996905,0.23813355,-0.055618353,-0.089784816,-0.029120818,0.17711478,-0.20290187,0.14982396,-0.15673733,-0.24902007,0.0040926337,0.028131649,0.077718556,-0.15391928,-0.17779589,0.0360636,-0.09214077,0.20143498,0.14878297,-0.46610022,-0.44341648,0.29714224,0.0908619,0.7009229,-0.3986889,-0.038405187,0.16794613,0.26913357,0.12972353,-0.24069396,0.21341963,-0.00132557,-0.33770835,0.17952955,-0.14687893,-0.2074331,-0.17915803,-0.03132505,-0.017980278,-0.14918229,-0.2847311,0.09680055,-0.19842222,0.058639742,-0.08844977,0.094553664,-0.032531828,0.10246062,0.31621945,-0.18505049,0.03217313,0.041143797,0.22725186,0.28527072,-0.054245453,-0.23519517,0.091879934,-0.20593405,0.02534901,-0.019411184,-0.13739374,-0.12133068,-0.024675895,0.29222885,0.31848514,0.21809946,0.038300097,-0.31235665,-0.16438422,0.09053493,0.21163747,0.21261849,0.3132741,-0.13323705,0.14398628,-0.30970392,0.009627506,0.15821114,0.1800391,0.2957158,0.15389474,0.23815027,-0.18491787,-0.15599215,0.17761707,0.21772608,0.06981959,-0.0520656,0.028148808,0.12672731,0.04571505,0.009379875,0.26547036,0.06666473,-0.15297922,-0.36242476,0.22681184,-0.21850553,0.031585023,-0.12896535,0.25099966,0.072388984,0.28622055,0.16730933,0.20809567,0.0062481016,-0.058816433,-0.014821606,0.34735215,-0.03325323,-0.24264318,0.23997514,-0.10169091,-0.23186705,0.10412819,0.06656811,0.24012211,-0.036461122,-0.09706931,-0.31395656,-0.25906813,-0.078757085,-0.1292485,0.21452433,-0.026725307,-0.18942142,-0.1841932,-0.17417416,0.14663315,0.034405604,-0.0044636875,-0.08769874,-0.2966171,-0.028046563,-0.17226186,0.1691761,0.0060962588,0.26686817,0.1144393,-0.020534132,0.11746031,-0.40232432,0.0746744,-0.28725556,0.1942371,-0.22845158,0.16699249,0.12868108,0.092972085,0.2164968,-0.2970581,-0.25517023,0.0847266,0.18696459,-0.28749394,-0.024389297,0.10237408,0.45080048,0.028695688,0.019411579,0.21021909,-0.06020906,-0.0031022346,0.036127478,-0.025737949,0.07847524,-0.19542646,0.15677238,-0.0244167,0.36589512,0.24997428,-0.16907266,0.03332041,0.17507434,-0.04222344,0.56311506,-0.11767222,0.008528367,0.15447992,0.22580424,0.056498773,0.32017025,0.32261327,-0.21080907,-0.10581378,-0.2488141,-0.16106455,-0.07779042,0.31342727,-0.1762711,0.0031416714,-0.20583077,0.004419539,-0.08334003,-0.4834093,0.15666085,0.3105331,-0.1503636,-0.10587838,-0.52558976,0.17656013,-0.032304466,-0.47533205,-0.008047204,-0.07394986,0.054281943,-0.068108864,-0.31238014,0.3137262,0.18393433,-0.006589994,0.1369873,0.042669654,0.04190532,-0.37731043,-0.18792441,0.06973173,-0.14355835,-0.3956775,0.35569736,0.20314708,0.042627893,0.09120277,0.13739929,-0.06667089,0.17114283,0.20393506,0.046103884,-0.48310682,-0.31364197,-0.013755798,-0.1990877,-0.5026823,-0.24088651,-0.015732847,-0.26402026,0.4050976,-0.03685896,0.05334567,0.029361475,-0.27536964,-0.2938201,-0.25930905,-0.38634536,0.15866984,0.3494164,-0.27377853,0.14321311,-0.22212338,-0.51321995,0.27188545,0.09045017,0.04928648,-0.03578873,0.2165912,0.15264341,-0.007299537,-0.36030087,0.04049109,-0.020453691,0.04272431,0.014755808,-0.24737874,0.2686299,-0.58197945,0.0074764416,0.2926798,0.24083912,-0.16446817,0.1300846,-0.24851528,-0.17290205,-0.09050182,0.095065765,-0.082397714,0.23872468,-0.025270145,-0.077901244,-0.18834254,0.014516834,0.34804177,0.18130134,0.19620037,-0.2070889,-0.1124106,0.12503435,-0.04183353,-0.01693976,-0.006159351,0.4015096,-0.16118842,-0.63284236,-0.16545333,-0.105415344,0.21967849,0.23543663,0.12606709,-0.012136549,0.1484161,-0.37605014,-0.3194631,0.038707197,-0.00087711215,0.033059977,-0.14171162,-0.13947266,-0.03615943,-0.08233281,0.21085384,-0.32072112,0.052649632,0.5164697,-0.22480762,0.20019832,-0.29180807,0.25513172,0.14381978,0.027688172,-0.03821496,0.07522354,0.12684888,0.32536972,-0.18766403,-0.2373399,-0.031200599,0.03499286,0.11795435,0.31647527,-0.5118884,-0.120065376,0.035049483,-0.16808608,0.029612426,-0.39577082,-0.21699038,-0.008346833,0.14236575,0.19530314,-0.0012985393,0.23845148,-0.21398267,0.35049918,0.25036556,-0.14349611,-0.13095146,-0.22281942,0.29725602,0.42142904,-0.20327216,0.06417043,-0.329281,-0.199193,0.43877184,-0.013037272,-0.028840944,-0.0053690895,-0.2085758,-0.18286541,-0.21435584,-0.50020474,-0.068954945,-0.044267174,0.050040774,0.17704234,0.29142696,0.33031723,0.26774737,0.18190797,0.21598472,-0.19942784,-0.07088981,-0.3344393,0.2999936,0.32282862,-0.17710882,0.2523941,-0.13758582,-0.11808421,0.03103207,0.27762377,0.012487486,-0.32685578,-0.11052369,0.37859648,0.035523757,-0.17403607,0.15195987,-0.05275312,-0.22149414,0.035663202,0.3823786,0.06953713,0.20833334,-0.00061943755,0.042553205,-0.074320175,-0.6611531,0.13887638,-0.21628474,-0.41667825,-0.07674093,-0.035254557,0.027462512,-0.1150293,-0.3626075,-0.115620635,-0.08355688,-0.5503787,-0.066163324,0.0071874633,0.33905435,0.24664015,0.036832318,0.011295047,-0.61973023,0.80683905,-0.33446482,0.47246486,-0.41133487,0.4478826,0.34462303,-0.04691253,-0.3339995,0.05565282,0.20365223,-0.021176204,0.24638307,0.04676281,-0.29650736,0.18211234,0.109628044,0.22010753,0.2987253
