GeneID,feature_1,feature_2,feature_3,feature_4,feature_5,feature_6,feature_7,feature_8,feature_9,feature_10,feature_11,feature_12,feature_13,feature_14,feature_15,feature_16,feature_17,feature_18,feature_19,feature_20,feature_21,feature_22,feature_23,feature_24,feature_25,feature_26,feature_27,feature_28,feature_29,feature_30,feature_31,feature_32,feature_33,feature_34,feature_35,feature_36,feature_37,feature_38,feature_39,feature_40,feature_41,feature_42,feature_43,feature_44,feature_45,feature_46,feature_47,feature_48,feature_49,feature_50,feature_51,feature_52,feature_53,feature_54,feature_55,feature_56,feature_57,feature_58,feature_59,feature_60,feature_61,feature_62,feature_63,feature_64,feature_65,feature_66,feature_67,feature_68,feature_69,feature_70,feature_71,feature_72,feature_73,feature_74,feature_75,feature_76,feature_77,feature_78,feature_79,feature_80,feature_81,feature_82,feature_83,feature_84,feature_85,feature_86,feature_87,feature_88,feature_89,feature_90,feature_91,feature_92,feature_93,feature_94,feature_95,feature_96,feature_97,feature_98,feature_99,feature_100,feature_101,feature_102,feature_103,feature_104,feature_105,feature_106,feature_107,feature_108,feature_109,feature_110,feature_111,feature_112,feature_113,feature_114,feature_115,feature_116,feature_117,feature_118,feature_119,feature_120,feature_121,feature_122,feature_123,feature_124,feature_125,feature_126,feature_127,feature_128,feature_129,feature_130,feature_131,feature_132,feature_133,feature_134,feature_135,feature_136,feature_137,feature_138,feature_139,feature_140,feature_141,feature_142,feature_143,feature_144,feature_145,feature_146,feature_147,feature_148,feature_149,feature_150,feature_151,feature_152,feature_153,feature_154,feature_155,feature_156,feature_157,feature_158,feature_159,feature_160,feature_161,feature_162,feature_163,feature_164,feature_165,feature_166,feature_167,feature_168,feature_169,feature_170,feature_171,feature_172,feature_173,feature_174,feature_175,feature_176,feature_177,feature_178,feature_179,feature_180,feature_181,feature_182,feature_183,feature_184,feature_185,feature_186,feature_187,feature_188,feature_189,feature_190,feature_191,feature_192,feature_193,feature_194,feature_195,feature_196,feature_197,feature_198,feature_199,feature_200,feature_201,feature_202,feature_203,feature_204,feature_205,feature_206,feature_207,feature_208,feature_209,feature_210,feature_211,feature_212,feature_213,feature_214,feature_215,feature_216,feature_217,feature_218,feature_219,feature_220,feature_221,feature_222,feature_223,feature_224,feature_225,feature_226,feature_227,feature_228,feature_229,feature_230,feature_231,feature_232,feature_233,feature_234,feature_235,feature_236,feature_237,feature_238,feature_239,feature_240,feature_241,feature_242,feature_243,feature_244,feature_245,feature_246,feature_247,feature_248,feature_249,feature_250,feature_251,feature_252,feature_253,feature_254,feature_255,feature_256,feature_257,feature_258,feature_259,feature_260,feature_261,feature_262,feature_263,feature_264,feature_265,feature_266,feature_267,feature_268,feature_269,feature_270,feature_271,feature_272,feature_273,feature_274,feature_275,feature_276,feature_277,feature_278,feature_279,feature_280,feature_281,feature_282,feature_283,feature_284,feature_285,feature_286,feature_287,feature_288,feature_289,feature_290,feature_291,feature_292,feature_293,feature_294,feature_295,feature_296,feature_297,feature_298,feature_299,feature_300,feature_301,feature_302,feature_303,feature_304,feature_305,feature_306,feature_307,feature_308,feature_309,feature_310,feature_311,feature_312,feature_313,feature_314,feature_315,feature_316,feature_317,feature_318,feature_319,feature_320,feature_321,feature_322,feature_323,feature_324,feature_325,feature_326,feature_327,feature_328,feature_329,feature_330,feature_331,feature_332,feature_333,feature_334,feature_335,feature_336,feature_337,feature_338,feature_339,feature_340,feature_341,feature_342,feature_343,feature_344,feature_345,feature_346,feature_347,feature_348,feature_349,feature_350,feature_351,feature_352,feature_353,feature_354,feature_355,feature_356,feature_357,feature_358,feature_359,feature_360,feature_361,feature_362,feature_363,feature_364,feature_365,feature_366,feature_367,feature_368,feature_369,feature_370,feature_371,feature_372,feature_373,feature_374,feature_375,feature_376,feature_377,feature_378,feature_379,feature_380,feature_381,feature_382,feature_383,feature_384,feature_385,feature_386,feature_387,feature_388,feature_389,feature_390,feature_391,feature_392,feature_393,feature_394,feature_395,feature_396,feature_397,feature_398,feature_399,feature_400,feature_401,feature_402,feature_403,feature_404,feature_405,feature_406,feature_407,feature_408,feature_409,feature_410,feature_411,feature_412,feature_413,feature_414,feature_415,feature_416,feature_417,feature_418,feature_419,feature_420,feature_421,feature_422,feature_423,feature_424,feature_425,feature_426,feature_427,feature_428,feature_429,feature_430,feature_431,feature_432,feature_433,feature_434,feature_435,feature_436,feature_437,feature_438,feature_439,feature_440,feature_441,feature_442,feature_443,feature_444,feature_445,feature_446,feature_447,feature_448,feature_449,feature_450,feature_451,feature_452,feature_453,feature_454,feature_455,feature_456,feature_457,feature_458,feature_459,feature_460,feature_461,feature_462,feature_463,feature_464,feature_465,feature_466,feature_467,feature_468,feature_469,feature_470,feature_471,feature_472,feature_473,feature_474,feature_475,feature_476,feature_477,feature_478,feature_479,feature_480,feature_481,feature_482,feature_483,feature_484,feature_485,feature_486,feature_487,feature_488,feature_489,feature_490,feature_491,feature_492,feature_493,feature_494,feature_495,feature_496,feature_497,feature_498,feature_499,feature_500,feature_501,feature_502,feature_503,feature_504,feature_505,feature_506,feature_507,feature_508,feature_509,feature_510,feature_511,feature_512
a,-0.19559494,-0.26971027,-0.516913,-0.19412658,0.0847009,0.5089986,-0.25126565,-0.025055744,0.29986405,0.25132746,-0.048472174,0.108046755,-0.04974792,0.14375615,-0.087074995,-0.017109845,0.019382399,0.114822805,0.1581252,-0.3564381,0.18127894,0.053977672,0.11239351,-0.039789893,0.55922294,0.17167926,-0.015474059,-0.23618978,-0.08061544,-0.09558685,-0.3227148,-0.2833947,-0.2816269,-0.13825446,0.082901284,-0.05124166,0.028101034,0.11060728,-0.45906243,0.38355076,0.19062257,0.23472929,-0.034715824,0.2846124,-0.1309747,-0.036895838,-0.2791229,0.43293455,0.15796378,0.2668022,-0.086974084,0.040641487,-0.019125327,0.17344996,-0.43125445,-0.16690502,-0.19723248,0.19541112,0.42382085,0.035139717,0.10647424,-0.005666094,0.27031654,-0.028576598,-0.25183198,-0.051175527,-0.17581071,0.342581,-0.36349717,-0.25074714,-0.22287816,0.08804793,-0.30654693,0.36920577,-0.084443174,0.08853697,-0.05451931,-0.17956296,-0.3176975,0.15566574,0.18968767,0.34718487,0.33666366,0.13113582,-0.05035086,0.0874849,0.39832693,-0.21226555,0.41990483,-0.4125259,0.3583473,-0.39544713,-0.1945754,-0.47903088,-0.0650428,0.004275836,-0.5294045,0.4189389,-0.43357188,-0.08208792,0.030241985,-0.3052426,-0.3662835,0.36662608,0.25093004,0.39032128,-0.32142818,0.13496369,-0.20445836,0.032310933,-0.00066860765,0.052257083,-0.08057202,0.10241727,-0.49466708,0.037274778,0.37889344,-0.11126766,-0.27857783,0.1832747,0.08339566,0.46732512,0.17433622,-0.109532446,0.2946646,-0.14166921,0.10612643,0.08991876,-0.34419,0.05765065,-0.35195252,0.28192964,-0.09373015,0.08724945,0.13329248,-0.15158805,-0.052535836,-0.116014585,0.063716464,-0.084835894,0.43744186,-0.12196536,-0.11414543,0.1158913,-0.05209185,0.14304999,-0.3095628,0.30112916,-0.029718824,-0.0967421,0.46721315,0.0883151,-0.07896204,-0.21399099,-0.02931276,-0.0895083,-0.36491904,-0.05772616,0.016550489,-0.35714832,0.13081226,-0.24288635,0.75554544,0.29734918,-0.11232076,0.42195296,0.15000962,-0.4833621,0.049353212,0.112606436,-0.23755458,-0.38472596,0.38845658,-0.30521587,-0.08260183,0.31019548,-0.06271906,-0.16888154,0.17544825,0.48814705,0.2717751,0.10601728,0.19643083,0.18839929,-0.21255262,-0.07876524,0.0700537,0.026389427,0.20046388,0.014389187,-0.06800747,0.09237123,0.20795754,-0.021467138,0.14906347,-0.43398544,0.24831872,-0.052431382,-0.20334329,0.50703514,0.4156432,-0.073787205,-0.28590065,-0.23445086,0.25799996,0.030737897,-0.2507197,0.24588653,0.23829329,0.029197715,-0.0045183823,-0.04701187,-0.31446558,0.42940122,0.09292942,0.011778701,0.12476624,-0.17331225,-0.089263834,0.27300608,-0.32903102,0.22117701,0.14198557,0.30188942,0.0035989285,0.03298265,-0.30230695,0.07116229,0.05238934,-0.047730066,0.07890326,0.2357111,0.30114412,0.05453515,-0.16658962,-0.03914664,-0.4216274,0.021467656,0.526605,0.111009814,-0.19281729,0.29200307,-0.23367085,0.23399012,0.35977748,0.13688788,0.33509195,0.33353007,0.3146006,0.3109923,-0.25759625,0.32742727,0.079685956,0.092912026,-0.09308998,-0.29695854,0.2315746,-0.19260433,0.45729947,-0.21087927,0.25448942,0.06513679,-0.08228755,-0.31813467,0.13629594,-0.17321123,0.017426644,-0.03847438,0.40591472,0.10564192,0.17058617,0.120041385,-0.07377366,0.020538963,-0.4819306,0.09302195,0.10021485,0.28542694,-0.0845152,0.24955216,0.29674113,0.34415296,-0.12166597,0.3100516,-0.07069398,-0.123873904,-0.1814591,-0.052579984,-0.0104682185,0.15581402,-0.2924937,0.36951578,0.52123684,-0.28196397,-0.076087475,-0.20293018,0.14759162,-0.52629596,-0.16329387,-0.1383037,0.5744927,-0.1800928,0.5094948,-0.2233087,0.1129526,-0.24010463,0.4198489,-0.18473032,-0.09340563,0.17020574,0.073932275,-0.33492097,-0.08490179,-0.066811,0.13616244,0.22171685,-0.4088265,0.221156,-0.36276174,-0.18596864,0.19157735,-0.03059385,0.16148329,0.24275146,0.18185669,0.46622378,-0.04052839,0.052644983,0.40694997,-0.20448472,-0.56099665,0.18265766,-0.25941825,-0.18811846,-0.15738991,0.04277104,-0.085228264,0.74382603,-0.21089196,0.05877189,0.104298204,-0.28556424,0.080207735,-0.049399287,-0.21178587,0.2089793,0.008492403,-0.029436104,0.060810536,0.42993212,-0.16072251,-0.3791641,0.03024324,-0.47654408,0.22818202,0.42826915,-0.14929505,-0.34001508,0.31362408,-0.08467429,-0.2727408,-0.06363834,-0.40772155,0.077328086,0.26551157,0.009342693,-0.08983026,-0.37435213,-0.34335506,0.3222136,0.028185498,-0.21062295,0.071036994,0.37893236,-0.124248244,-0.033551894,-0.031479612,0.38070893,0.012615394,0.285565,0.23133504,-0.188064,-0.20928267,-0.27020216,0.39131916,0.19088092,0.18182231,-0.037948065,-0.27781513,-0.49790525,-0.3156175,-0.43998146,-0.46917582,-0.36483437,-0.15762232,-0.3503477,0.13535789,0.2747565,-0.12049707,-0.18026155,0.33906734,0.24931681,0.3618806,-0.03012953,-0.2509985,0.38368773,-0.046369947,0.44464216,-0.63837385,0.73339105,-0.07393696,-0.4040899,0.29445642,0.17388105,0.14694256,0.3464808,0.24038112,0.041199245,0.4243885,-0.036263496,-0.13322926,0.27821574,0.45519122,-0.03147979,-0.018211404,-0.31678087,0.040166266,0.39615905,0.0074483715,-0.2547979,-0.300404,0.0106448,0.014292501,-0.30656427,0.05662548,0.04409003,-0.32539245,-0.041012593,-0.016750379,-0.33013088,-0.07110828,0.105948545,0.22728519,-0.18919058,-0.057250336,0.2229733,-0.1622861,0.07764831,-0.15006025,-0.5185377,-0.2029193,-0.07269276,-0.09184503,-0.05001917,-0.027921826,-0.050692968,0.1494455,-0.14244173,-0.042138077,-0.13543752,-0.10117448,0.07062735,-0.21657348,0.05554811,-0.452034,0.059840277,0.27517432,-0.031114668,0.016801871,0.2322914,0.42556393,0.28462607,0.45629618,0.048811592,0.008622289,-0.56691223,-0.14213571,0.3764861,-0.39966783,0.23414277,0.086413294,-0.1632306,0.11635518,-0.18551251,0.124262884,-0.30754074,0.108841226,-0.46063983,0.09676792,0.23304856,0.112191394,-0.19078922,0.045712218,-0.21704325,0.13052458,0.025510568,0.011081871,-0.04443653,-0.12958145,0.08150454,-0.018441938,0.3736406,-0.0635557,0.09449599,-0.4281428,-0.29503074,0.02871449,0.050338272,0.26281196,-0.3395959,-0.18189192,0.09175809
b,-0.028082274,-0.03605733,-0.27427772,-0.05571796,-0.034898724,-0.14754409,-0.035955854,0.36479062,0.22991195,0.18397179,0.14420518,0.11616854,-0.7624023,-0.053646944,-0.16315383,-0.073935896,0.099393606,0.06825355,0.0061651953,-0.07079612,0.13219473,0.20775124,-0.10381389,-0.048233986,0.3785556,-0.3373171,-0.4998439,-0.23215091,0.43657804,0.23824479,0.1368464,-0.11320392,0.020062141,-0.08743167,-0.12342324,0.53498507,-0.03180054,0.22397059,-0.3881238,-0.23026426,0.24305013,0.5064743,-0.10401902,0.38535702,-0.37639618,-0.20865637,-0.08855669,0.117931284,-0.2281045,0.15323758,0.21982433,0.28965896,-0.20890874,0.03283862,-0.007219292,0.26179847,-0.53136843,0.028762028,-0.013463106,-0.028968126,0.043000616,-0.24646527,0.032975696,0.08014132,-0.17281416,0.09809144,0.035948012,0.32872587,0.050917227,0.15664168,-0.22667554,0.6271518,-0.25558144,0.15776011,-0.063128434,0.1069768,0.017233044,-0.13166252,0.0033995789,0.095814005,-0.30915725,0.31582054,-0.048455916,-0.06389491,-0.5434475,0.22318007,0.17272615,-0.010610618,0.039947595,-0.21239066,0.13779512,-0.23036031,0.054750606,-0.025640137,-0.39318904,0.07433956,0.121655166,-0.34832016,-0.0004185289,-0.09817546,0.034455143,0.4604233,-0.28942367,-0.4666509,-0.2241179,-0.34042996,-0.13889182,0.06577466,0.61897314,-0.006405521,0.011528283,-0.32440364,0.03341921,-0.023079492,0.03529632,0.5042757,-0.05863917,-0.36489892,-0.15304568,-0.1675103,-0.331393,0.16870433,0.3048872,0.0640506,-0.36386603,-0.2018072,0.018544253,0.22603327,-0.1146582,0.29879585,-0.08018636,0.08573325,-0.055407092,-0.33073768,0.0075996704,0.05005748,-0.114839524,0.74680847,0.09263927,0.3441502,-0.06111825,-0.08651406,0.102532744,0.14271352,-0.2662068,-0.29549062,-0.12906834,0.08936008,-0.2789759,0.19024965,0.30491892,-0.025570355,0.004132457,0.3981295,0.06694676,0.112348504,-0.4185529,0.18200019,-0.046155266,-0.3890042,0.2984814,-0.1515324,-0.18595392,-0.14033213,-0.010311514,0.47099108,0.25574583,-0.12834045,0.25259888,-0.05457253,-0.10968947,0.16913864,-0.08497373,-0.07971143,-0.36439264,0.32251847,-0.008662652,-0.107006036,-0.1603474,-0.037645556,-0.24647379,-0.3555129,0.14018428,0.014862269,-0.30945817,0.074318476,-0.037963748,-0.041871298,-0.2513566,-0.09328833,0.27260923,-0.0741651,0.21304569,0.014871385,-0.026149234,-0.35491034,-0.47933012,0.15087268,-0.38619593,0.061566457,-0.067978054,-0.38529843,0.23835807,0.028961405,0.3439678,0.08576523,0.41097736,0.08574614,0.24516404,-0.1721321,0.14627516,-0.6034145,0.031823836,0.08665601,-0.24094915,-0.066981494,-0.13799042,0.03816011,-0.45816347,0.13326132,0.111257,0.37658364,0.13777895,-0.14899437,-0.02709436,-0.15670922,-0.06970032,-0.14458655,0.20419201,-0.04457485,0.400566,-0.081770696,0.65369034,-0.32350478,-0.065918766,0.11874346,0.16195492,0.085752875,-0.19962412,0.0071852133,-0.36705932,0.07938375,0.31255832,0.0021959469,-0.18616146,0.18616004,-0.12151892,0.02267024,0.08604662,0.16934869,-0.1148288,-0.4531835,0.41191447,0.14649588,-0.21863598,-0.11688712,0.30022177,-0.17056766,0.07724877,0.22367673,-0.43346995,-0.09466545,-0.20527124,-0.039503455,-0.40277728,-0.24098308,0.011202652,0.007913716,0.38962954,-0.41839212,0.1430816,-0.30245826,0.44655707,0.059609577,0.13151377,-0.38697585,0.15510198,-0.095779024,-0.29397172,0.2337366,0.1132148,-0.15597771,0.0076973066,0.1748501,0.2682967,-0.029684179,-0.02541085,0.14093566,0.06691922,-0.18668568,-0.3527039,0.21623364,-0.35849226,0.13987237,0.17814793,0.07118174,0.13883668,-0.027322292,0.11007621,0.1641356,0.11037785,0.024872966,-0.14219576,-0.3107193,0.14560848,0.22560665,-0.12951611,0.19903502,-0.115387015,-0.2937515,-0.06717086,-0.07988016,0.1899268,0.22035927,0.27383542,-0.03822513,0.08529646,0.073591925,-0.47926673,0.37821424,-0.10983817,-0.10442454,0.11157058,-0.40071094,-0.041607905,0.12617218,-0.29687652,0.01409293,-0.110214844,-0.33479053,0.18306054,-0.2633215,0.3770504,0.33923486,-0.068045095,-0.45437974,0.081877664,-0.019984938,0.02011083,0.3237451,0.11380544,0.15350452,-0.29798883,0.008934502,0.32774234,0.46315163,-0.6150335,0.07304332,-0.16808422,-0.070242815,-0.3467921,-0.2648518,0.15917939,-0.2075164,-0.36152503,-0.059207782,-0.18945795,0.3235076,-0.07555838,0.048577733,0.02823364,0.24644828,0.044518545,0.030338626,0.410885,0.060686994,0.052392483,0.13933614,0.4229913,0.4773752,0.43013933,0.0055910945,0.40160793,-0.4478401,-0.11824371,0.37026516,0.02106257,0.016939737,-0.23579088,0.04525889,0.28766334,-0.2774252,-0.25896877,0.51826,-0.31714228,-0.61083764,0.00063022226,-0.07060101,-0.24818185,0.20323977,0.3145085,-0.17508584,0.052493148,-0.067055516,-0.048056614,-0.045367915,0.017564267,0.3134953,0.03534262,-0.002720002,-0.28984162,0.78203225,-0.46807516,0.42378306,-0.26593208,0.30695146,-0.077605166,0.055161446,0.022562072,-0.09642755,0.03912765,0.028293096,-0.25610533,0.36623564,-0.02836252,-0.12929887,-0.24374002,-0.15502751,0.16235921,-0.0923214,-0.07510813,-0.35843113,-0.32062727,0.3432561,-0.11552842,-0.25010028,0.16422212,-0.18662235,-0.038677763,0.0066122636,0.19957176,-0.09342586,0.66982603,0.017579887,-0.1328842,0.18866764,0.26008642,0.08754974,-0.2702863,-0.028733656,0.31378323,0.42890367,0.17024249,0.45900548,-0.015881073,0.058907524,0.07468277,0.34399998,0.2740404,0.279494,0.29686117,0.14754625,-0.32058284,-0.21598545,0.42536122,0.24758941,0.0068352968,-0.13656847,0.08273007,-0.13370402,-0.043841816,0.13617015,0.48890018,-0.22927776,-0.006885346,0.3847909,-0.04785266,-0.0956502,-0.1027411,-0.25657314,0.098541744,0.09060157,-0.13199392,0.57635206,0.14312986,0.05413495,-0.21300559,-0.18375036,0.09962597,0.23270898,-0.047055118,-0.003988199,0.123606585,0.07978528,0.12237193,0.14718415,0.039642435,-0.15322533,0.119330704,0.20854566,0.02941396,0.07831565,-0.22914198,0.078824244,0.27935115,-0.17895484,0.16752952,-0.10034989,0.29812574,-0.07228052,-0.40852633,-0.037804015,-0.11339163,0.16827375,0.022789523,-0.24000068,-0.10487969,-0.18088585,0.07853575,-0.714411,0.2851454,-0.043872997
c,0.243691,-0.07284936,-0.4018609,-0.04052607,0.20088756,-0.25614956,0.14262693,-0.027711995,-0.16463986,0.11660442,0.36039048,0.07681845,-0.34504288,0.3829597,0.09573472,-0.19176711,0.11357604,-0.14736268,-0.42785236,-0.17324243,-0.22617942,0.14434847,-0.12885453,0.026047572,0.12078562,-0.6419166,-0.16673423,-0.056893207,0.33043697,0.22449388,-0.24172664,-0.30907613,-0.2387341,-0.22134592,0.3028548,-0.11532798,0.14290437,-0.21039975,-0.026799276,-0.34047848,-0.22682437,0.43274805,-0.0684991,-0.2312822,0.37649196,-0.27373454,0.007647164,-0.009176128,0.018521886,0.40932235,-0.5246669,-0.60565674,0.00663241,0.6969246,0.008507624,0.083564684,-0.24108492,-0.10019108,-0.023853574,0.07690254,-0.09537881,-0.29361105,0.15343857,0.2776708,-0.19571364,-0.3031418,-0.15698102,0.09352954,0.4217669,0.17455988,-0.23023567,0.32808664,0.20234874,0.02737689,-0.2026808,-0.2653081,0.12509653,0.04012002,0.44625226,-0.12807196,-0.1362835,0.0054314286,-0.46778575,-0.045094557,-0.34002566,-0.41410828,0.044350423,0.19838473,0.087019995,-0.09951298,0.08237517,0.14165622,0.14013508,0.0867077,-0.003913723,0.01782211,-0.5312355,-0.053383857,-0.4549555,0.19037928,-0.3116919,0.25517586,-0.1731276,-0.035431653,-0.026000373,-0.2820734,0.11982141,-0.145782,0.06747819,-0.21719895,0.08052767,-0.29694578,0.2134603,-0.07539577,-0.689993,-0.08179034,0.20446886,0.4155488,-0.24332818,-0.20684329,0.26369488,0.05055033,0.21882132,0.11801617,0.008283213,0.29528752,-0.24007663,0.15920243,0.17172107,-0.1182414,-0.05904468,-0.1760907,0.014330871,0.4022702,-0.3992798,-0.26791453,0.19414273,0.37492257,-0.22515836,0.26583013,-0.025306955,0.023825787,-0.21694686,0.071227334,-0.23906958,0.046167485,0.41160092,0.5660865,0.4132804,-0.0114724785,0.29083815,0.20648417,-0.15535522,-0.13635641,-0.5298319,0.45897722,-0.08783914,-0.0336197,0.12615126,0.1943456,0.1249395,0.1888614,-0.33056363,0.16264027,-0.045126125,-0.077192836,-0.07775054,-0.017143264,-0.39208454,-0.052855067,-0.1810328,0.1873097,-0.028753318,0.5648794,-0.24065417,0.22923645,-0.082664385,-0.048364185,0.059521817,-0.22612166,-0.015482049,0.04163224,0.20297578,-0.07122382,0.09348819,-0.05923719,0.041056313,-0.12007856,-0.24316803,-0.13079368,-0.1503254,0.21943527,-0.34402177,0.45606405,-0.004016727,-0.5146854,-0.13392535,-0.27852383,0.07686345,-0.039044105,-0.34631285,-0.25190216,0.12773745,-0.02434431,-0.12029721,0.24631548,0.3412591,-0.44213432,0.050309632,0.00937948,-0.07509489,-0.19576931,-0.3144552,0.123193756,0.2732507,0.23769277,-0.058730826,-0.14654571,0.04617947,0.28923795,0.049912013,0.10222356,-0.26102483,0.1656197,0.119883,0.085448645,0.4497345,0.049537346,0.18847309,-0.39328325,-0.23990938,0.16787228,0.5666858,0.32788262,-0.345782,0.26701194,0.5675314,-0.24756649,-0.21661994,-0.20546234,-0.030452404,-0.08680135,-0.20552844,0.23814048,-0.2790249,0.37585473,0.0016615465,0.24454561,0.42026085,0.29156297,-0.13824967,-0.19080469,-0.0432022,0.32271838,-0.1443293,0.03366296,0.4378752,0.10438328,0.4118225,-0.15526259,0.36150178,0.09011024,-0.0015211478,0.2393719,0.070334956,-0.0041827485,-0.28973708,0.491632,0.07932881,-0.50338954,-0.11108363,-0.15524831,-0.15754664,-0.4495296,-0.028885864,0.27935195,-0.15173852,-0.15802538,0.124559015,-0.311819,0.013395943,-0.4060962,-0.19108579,-0.3902429,0.43730816,0.19614464,0.5630669,0.60593915,-0.25713637,-0.100821674,-0.12541848,-0.16007155,0.18233514,-0.1293212,-0.20194519,0.039330326,0.23198244,-0.15565342,0.21670273,-0.37669346,0.17681962,-0.30226454,0.19113061,-0.24204002,-0.10753944,-0.022833405,-0.059036404,-0.00082493946,-0.20398068,-0.18607384,0.37186295,-0.15288296,0.5962447,0.29453272,0.078426644,0.111767806,0.21429011,0.38317165,0.03072815,-0.33766574,0.2638166,0.07918748,0.12922145,-0.32627678,0.30542046,0.28147742,-0.4114307,-0.45266896,-0.1386613,-0.19745032,-0.36147356,0.2719988,0.08053605,0.06659927,-0.33771595,0.13585886,-0.16705464,0.054396123,-0.13955033,0.11043054,-0.04857512,0.04711083,0.12405851,0.11633503,0.29139924,0.28158164,-0.113848075,0.38281527,-0.32270253,0.28282905,0.16082175,0.19796976,0.20861492,-0.2084184,0.36660826,0.35737813,0.26647913,0.19019428,0.02428257,0.11830705,-0.19612795,-0.26145953,0.4756404,0.2306389,0.23761171,0.01929786,-0.23352468,-0.10176155,-0.14118218,0.6900123,0.4103272,-0.1528838,0.3396691,-0.41498044,0.327943,0.2723032,-0.23310828,-0.0035292543,-0.17757753,-0.6874067,0.06067481,-0.30308175,-0.22955076,0.018471666,0.10120014,0.036589824,0.08157021,-0.109340005,-0.1134093,-0.34356692,0.14692292,0.33773094,0.22878739,0.22270365,0.13104557,-0.4651745,0.5560328,-0.19295302,-0.05309362,-0.36840627,-0.20160282,0.31321853,0.09612941,0.31526655,0.12884478,0.326292,0.09643994,0.17411718,0.54240674,0.1529093,0.1988662,-0.1294783,0.021874007,0.19015041,-0.18451273,-0.22890493,-0.50160253,-0.24046257,-0.0738819,-0.37052488,-0.32663497,-0.3573935,-0.05180466,0.2149423,0.19801044,0.10246682,-0.3604594,-0.43153408,-0.04005551,-0.27603182,0.04103607,-0.28680018,0.061463498,0.33061802,-0.16457799,-0.6073845,0.5848246,0.23168233,-0.38692942,-0.17723183,0.15207848,-0.2929836,0.01509285,0.043388158,0.28575298,-0.17284751,0.19139044,0.01685207,-0.19395529,-0.14783782,-0.15056294,0.100556076,-0.34111384,-0.6152805,0.46772075,0.5840113,0.038153723,-0.298957,-0.09285916,-0.27128133,0.5230708,-0.13068938,0.29145122,-0.24560717,-0.21951964,-0.13111204,-0.10047154,0.3355968,0.11068571,-0.17340848,0.28129897,-0.1507916,0.31596845,0.28611407,0.29847026,-0.15951864,0.09175019,-0.066736974,-0.21255964,0.18128867,0.19346489,0.30929625,-0.13205267,0.1624023,0.24714015,-0.011888057,-0.30360404,0.01286865,0.18707266,0.17293644,0.1153909,0.115478635,-0.1556699,0.3582894,0.67081386,-0.6295319,-0.13919897,0.03502181,-0.29059717,-0.5064648,-0.15146926,-0.028885044,-0.048126373,-0.043004483,-0.19577521,0.36850786,-0.080946356,-0.46178967,-0.28889745,-0.44606924,0.065353625,-0.3337838
d,0.04344695,0.395867,-0.4185326,-0.25975364,0.14811543,-0.27446386,-0.19436228,0.22211367,0.06729254,0.21766984,0.5580905,0.3997406,-0.13231876,-0.32195914,0.3685686,0.037909925,-0.028074149,0.21942109,0.16312489,-0.3024169,-0.041479312,0.15849204,0.0664158,0.2703677,-0.069374114,0.17988808,-0.013082011,-0.049812824,-0.41406754,0.00042003393,-0.06452515,-0.09548006,-0.31939024,-0.2519783,-0.48661116,0.09160411,-0.07811191,0.11102168,0.0777527,0.061455116,0.27202016,0.125314,0.01253489,0.16155308,-0.19957024,-0.19752261,0.009266622,0.19676578,-0.4455922,0.2518324,-0.41899812,-0.01824192,-0.44998512,-0.09141148,0.261348,0.07738541,-0.2151189,0.14267266,0.23447122,0.08235831,-0.33179447,-0.15822273,0.49398923,0.18417755,-0.2197158,-0.32911015,-0.066365406,0.23504445,-0.13396084,-0.13966313,-0.49393573,-0.37835822,-0.16156548,-0.14324215,0.35418016,-0.27111083,0.13974911,0.03954017,-0.093064636,0.14788763,0.891894,-0.04437013,0.03834249,-0.19591545,-0.2453457,0.26201606,-0.39621067,0.0360497,-0.13587067,0.11244081,0.30605555,0.22165662,0.37899807,-0.21315798,-0.37638372,0.24842206,-0.020006035,-0.0030513108,-0.25300536,-0.06396116,-0.34067482,0.12710787,-0.5183183,0.1472323,0.15232275,0.47333828,-0.2251136,0.04635244,-0.3312261,0.49156415,-0.3054988,0.42591807,-0.041941144,0.040733144,0.054930158,0.34720477,0.0999068,0.45911682,-0.06638421,-0.09528779,0.07517642,0.104558654,-0.056444112,0.035170224,0.07775235,-0.010125339,-0.21977693,0.060089104,0.39759535,-0.27949888,0.014728136,-0.052386496,-0.5061849,0.16793546,0.15895416,0.23677245,-0.23118609,0.42903256,-0.16161498,-0.105512284,0.35707235,-0.13747454,0.12849145,-0.32572272,0.07170177,-0.045597516,-0.43284544,-0.01240835,0.1594625,0.22686201,-0.22993329,-0.034405068,0.14282116,0.0015336201,-0.36809805,0.37288177,0.0039361306,-0.08402183,0.0605828,0.44329715,-0.1595181,-0.31555527,0.2034066,-0.082156904,0.017580874,-0.17296717,0.0597808,-0.11973873,0.11600874,-0.030340254,-0.122464545,0.11922991,-0.19626978,0.43103185,0.06522936,0.2934672,-0.08995498,0.31444806,0.2049922,0.12343303,0.11200376,-0.37037343,0.30083537,0.19956005,-0.36736438,-0.16089395,-0.13472268,-0.22884083,-0.19117615,-0.25157052,0.3110295,0.13423663,0.07935829,0.45387676,-0.47742337,-0.28045222,0.0045141503,-0.31072712,-0.31202713,-0.20296255,0.349378,0.05066129,-0.41076308,-0.2592538,-0.29634327,-0.026321076,-0.059372384,-0.32390082,0.10832061,-0.36734408,-0.09716344,-0.00077471137,0.03529325,5.1885843e-05,0.08729437,0.17267743,-0.13386762,0.31523523,0.51035744,0.3097993,-0.22910139,-0.14076638,0.17095105,0.024504092,-0.0019508004,0.040062144,0.400422,0.19190654,-0.033028353,0.19115832,-0.17714345,0.30716616,0.13282403,0.5093869,-0.27951127,0.16308948,0.23586933,-0.0800065,0.20856455,-0.0036502108,0.34196514,-0.2921023,-0.474277,0.0716598,0.20638481,0.55757195,-0.20488864,-0.054099604,-0.04323656,0.35348913,-0.013274882,-0.03336409,0.24350956,0.04147746,0.1388757,0.104555584,0.7124079,-0.04985579,0.16412881,-0.0067037605,0.09283094,-0.12410088,-0.09198028,-0.18040738,-0.39379516,-0.5610824,-0.30088466,0.21312088,0.27295795,0.04324062,-0.064406,0.20846616,-0.32443368,0.11213985,-0.2924318,0.33267155,0.18303981,0.43985236,-0.19087031,-0.08118755,-0.28447455,0.40558323,-0.37053296,0.3102557,0.21540213,-0.0706979,-0.2735019,0.62552917,-0.20812982,-0.15868542,-0.22725007,-0.053027727,0.37864137,0.052510284,0.15838774,0.036613964,0.31082347,-0.46684387,-0.084841035,0.49511477,0.2354148,-0.072809555,0.22305334,0.043946497,0.2807827,-0.19127929,0.29685935,0.014196813,0.31380528,0.08549416,-0.14844598,-0.5276909,0.4168513,-0.11987435,-0.24336922,0.47768602,-0.1957519,0.3920493,-0.2961357,0.07161496,0.121511385,0.21095279,0.12280804,-0.10699231,0.38508642,-0.23378763,0.11246698,0.112213455,-0.4155513,0.17565338,-0.3077672,0.5590159,-0.29613012,0.10087872,0.20338508,0.093360715,-0.16180956,0.19727635,-0.4823288,0.023796715,0.4384573,0.13186406,0.3598419,-0.29190245,0.11064793,0.007865183,-0.34482372,-0.1548684,-0.20842199,0.49867076,-0.21043059,0.2798043,-0.1255584,-0.14845644,0.28511828,0.12162772,-0.66932046,0.18471816,0.22718124,0.054179005,-0.35173765,-0.3254506,-0.31350407,-0.269457,0.07455047,-0.28083867,-0.38652784,-0.20347187,-0.3635954,0.21137884,0.24145433,-0.16866358,-0.1616653,0.20248422,0.29861733,-0.28176156,-0.25371355,0.17220007,-0.103194416,0.19792953,0.2857791,-0.08637408,-0.21916068,0.30348298,0.15833664,-0.28835014,-0.052366074,-0.33364603,-0.12071679,-0.34678802,-0.5238599,-0.3081532,-0.53044885,-0.1904477,-0.059194848,-0.09420612,0.2671218,0.11876484,0.19420686,0.11411686,-0.30085638,-0.27359432,0.34975713,0.4054185,0.011183765,0.520643,0.29365483,0.09364595,0.3322662,0.13769758,-0.22319682,-0.7632245,0.66195786,-0.23455939,0.030619953,0.03681492,-0.36791065,0.19733274,0.17567064,-0.068048015,-0.22183856,-0.18236613,0.2616046,0.3991123,-0.11760468,0.5590808,-0.39075494,0.25775522,0.37992686,-0.25324485,-0.2749786,-0.4176689,-0.52880144,0.12109138,0.05947887,-0.31500143,-0.013496887,0.31754267,-0.5405916,-0.58634496,-0.14455137,-0.25461698,0.5625875,-0.1600422,0.12157178,-0.119403705,-0.28524244,0.10003196,-0.21925683,0.006616853,0.3345538,0.1862432,-0.0009639263,-0.3640185,0.050846655,-0.12583032,0.06255328,0.14822052,0.15548214,-0.39728513,0.30221656,0.063513726,-0.2605265,-0.2360534,-0.008435555,-0.076570764,-0.14414284,-0.003907487,-0.4267901,0.016503707,0.13522387,0.34880635,-0.104479074,0.29040825,0.1547734,-0.5381466,0.39163083,-0.13018134,-0.281848,-0.014470056,-0.11581087,0.45246518,-0.30129504,0.15400922,-0.109661326,0.08936545,-0.046679106,0.16298448,-0.273074,-0.00088915974,0.1299035,-0.09756575,-0.2079474,0.37950808,0.046202943,-0.48795182,-0.5660329,-0.24483109,0.12988147,-0.3220287,0.21946862,-0.15993732,0.24936005,0.21710077,-0.0022213124,-0.32777306,-0.064720385,0.16123661,-0.20619245,-0.017913297,-0.14624605,0.28957134
e,-0.19326225,-0.17335908,-0.3136267,0.31487834,-0.07703932,0.19308236,0.2079935,-0.0029381812,-0.11114817,0.06578767,0.6612881,-0.03974353,-0.11564829,-0.5685238,-0.25852144,-0.03538292,0.38211843,0.23263034,-0.005226206,-0.2553406,0.099730626,-0.041091956,-0.44294432,0.27063054,0.0012190826,-0.172457,-0.17552622,0.14386985,0.84392107,0.086916074,0.21194011,-0.11096691,0.07304626,0.16576552,-0.28219512,-0.1406708,0.37932378,0.6058331,-0.43224913,-0.34626883,0.0457583,-0.3811567,-0.33378333,-0.2322709,0.1092367,-0.30155322,0.12970346,-0.31856135,0.18090066,-0.118059896,0.13042861,-0.52303326,-0.36732984,0.38632616,0.35407522,0.29626828,0.015761279,-0.12653181,0.050433293,-0.41326815,0.16723725,0.031296693,0.28526643,0.14819977,0.15571508,-0.12593056,0.1491137,0.17472658,-0.09714794,0.030639272,0.12480452,-0.26513833,-0.15214056,0.18770707,0.12911655,-0.5390892,-0.019517727,-0.1398068,0.47317562,-0.07918019,0.14195852,0.42148516,-0.5004763,-0.35514337,-0.15121926,-0.35372448,0.7737993,-0.30895415,-0.2818717,0.04988179,0.2559523,-0.10308808,0.29837853,0.20087177,-0.19701776,-0.053288862,0.10368824,-0.005513437,-0.13714653,0.25074685,-0.11487661,-0.050718747,-0.2507619,0.17161223,-0.08853533,-0.35562444,0.2953072,-0.041404657,0.30723226,0.001858972,-0.3472518,-0.2924075,-0.14819631,0.26103026,-0.0879177,-0.47453487,-0.37064826,-0.27007782,-0.16748412,0.05205435,0.13934433,0.6150644,-0.2643206,0.4757646,-0.16061735,-0.23141354,-0.34172368,0.19703272,0.10454192,0.16566093,0.15778387,-0.248452,-0.069880396,-0.07862548,0.25733697,-0.30314127,0.35385555,-0.2195825,-0.0150724575,-0.025125995,-0.2788163,-0.18837377,-0.5575172,0.12824243,-0.10482275,0.4873348,0.19561994,-0.1129801,0.24525958,-0.10192356,0.5739281,0.15349528,0.063320726,0.5088043,-0.30860323,0.039911885,-0.14735726,-0.049606882,0.15855941,-0.1212632,0.55305463,-0.48437402,-0.24300063,0.072256364,0.09405735,0.10821557,0.024348035,0.3306123,0.08160904,-0.21996024,0.113188565,-0.059889734,0.101009876,-0.022904985,0.40346873,-0.07224444,-0.37764677,-0.10341924,-0.0067286417,-0.31007764,0.2800816,0.26782975,0.3199236,0.05566818,-0.13217163,0.73288643,0.4019874,-0.60517454,-0.23985365,-0.42057258,0.14682372,-0.26837838,-0.11020739,0.009185813,-0.53071886,0.04793538,-0.07485146,-0.3059411,-0.06344089,0.16666257,-0.21754417,0.20106259,0.15895627,0.11010745,0.18480313,0.32075527,0.18570757,0.11516565,-0.32387853,-0.22860727,-0.56665915,0.05596492,0.1214376,0.22368884,0.07741152,0.17159587,-0.1866673,-0.22295412,0.04275994,0.5428297,-0.16260158,-0.2056833,-0.34759212,0.05814787,-0.37422633,0.4768685,0.07230601,0.08332236,0.17293957,-0.2415058,-0.41867596,0.026734222,-0.5768785,-0.06005118,-0.1943011,-0.32384273,0.3812691,-0.24105942,-0.087897174,-0.2260015,-0.21993092,0.12655497,0.14080292,0.37793833,-0.11433162,-0.24806294,0.13412666,0.0028869584,-0.07224973,-0.460459,0.1280923,-0.17739655,0.4101574,0.24856408,0.050577004,0.2929924,-0.18216142,0.11286078,0.40358925,0.4287603,-0.13082871,-0.35187954,-0.014737807,0.2993868,-0.026009005,-0.033737607,-0.42680192,-0.24864241,0.26439902,-0.10518165,-0.026331473,0.055223867,0.3707322,-0.806582,0.3206458,0.021894947,0.07780972,0.16752973,0.19799802,-0.2761641,-0.18067765,-0.22253639,0.054635685,-0.13620576,0.4735728,-0.2549483,0.06489493,-0.18334574,0.06998057,-0.18349989,-0.21858928,-0.16966239,-0.19084458,0.24614015,-0.29885542,0.07253411,0.8845188,0.27328292,0.13129868,-0.5511352,0.1378564,0.07789872,-0.006025117,-0.32972085,0.19174933,-0.11468369,-0.1413705,0.13324383,-0.10269531,-0.409889,-0.21509989,0.17627966,0.21734801,-0.08149212,0.02978335,0.030937675,-0.07311721,-0.25646877,-0.18078125,0.114927724,0.08184838,0.22024366,-0.094675325,0.110881194,-0.22333083,0.3647767,-0.29860413,-0.25421715,-0.16059351,-0.11940523,-0.14547925,-0.17871109,-0.09167732,0.62716496,0.36371487,-0.12367362,0.11653671,-0.22431627,0.062688634,0.022695564,-0.48870558,0.32477796,0.27976346,-0.5789804,0.16006233,0.33849806,-0.045601852,0.12798938,0.6853509,0.73124844,0.058403403,-0.1740124,0.07755804,0.24495307,0.044764206,0.23229298,0.39932904,0.21792671,-0.025496831,-0.1328893,0.37620345,-0.25063354,0.4183382,-0.26316562,0.110241406,-0.065531015,-0.06758786,-0.09592073,0.025766961,0.14888704,0.3072551,0.03469783,0.004064005,0.13768849,0.17696363,0.29860342,-0.078218624,0.4001761,-0.026997447,-0.6990338,-0.6959361,-0.03578601,0.23573942,0.19785243,-0.39909476,-0.17518477,-0.017457359,-0.3059712,0.5140757,0.033056613,0.51270765,0.17020358,0.2167339,-0.3867594,0.1061908,-0.039030917,-0.29678622,-0.27273712,0.20910797,-0.15612842,-0.07296388,0.65059215,0.036361843,-0.3907273,-0.25205672,-0.26095542,0.08793828,-0.10105904,-0.052832313,0.34515586,-0.13686197,0.17149109,-0.13106297,0.3230878,0.12959594,-0.3981037,0.04570482,-0.13306439,-0.13722739,-0.78134644,-0.038682573,0.107023805,-0.22412401,0.034519494,-0.48799306,-0.0691176,0.6409651,-0.008945346,-0.48048568,0.30361533,0.15875198,0.2564986,-0.18267667,0.33622307,-0.47986874,0.024619784,0.40267605,0.060145196,-0.3692724,0.22050834,0.31913123,0.37644723,0.122316375,0.06030377,-0.31283218,-0.16035661,-0.0998669,0.4228288,0.1571864,-0.25345612,0.38768828,-0.24120733,0.13819927,-0.04392142,0.029013675,0.1709736,0.30969617,-0.27520776,0.42512468,0.3344537,0.09125212,-0.08255061,-0.03687699,0.29954147,-0.37440428,-0.10839402,0.19255915,0.50390726,-0.2230111,0.0523618,-0.39431995,0.030640632,0.35919437,-0.19341421,0.2681825,-0.48195723,-0.45944548,-0.03187954,0.34869656,-0.12541202,-0.079221204,-0.07987357,0.32435447,0.45022088,0.14299218,0.16844343,-0.20913817,-0.19402061,-0.27523628,-0.19748688,0.18542424,-0.20608535,-0.12637547,-0.2743224,0.14663655,-0.026638124,0.16069484,-0.18771334,-0.5029536,-0.47565877,0.09455452,0.03997461,0.11570236,0.03792748,-0.45308268,-0.09106766,0.012862876,0.59576905,-0.07340626,-0.107436,-0.46206373,-0.55900514
f,-0.04933025,0.1618246,-0.20077968,-0.011943497,0.118500754,0.2654309,0.114424154,-0.37890682,-0.079982854,-0.23537076,0.13586986,-0.4274461,-0.20912352,-0.047029473,-0.1964046,0.39291134,0.6612947,0.012678504,0.1043062,-0.42798224,0.46940243,-0.43577397,-0.23246086,-0.027002051,0.39400408,0.030023567,0.10093482,-0.15173921,0.6363759,0.31371045,-0.026541263,-0.06504538,0.103832714,-0.42793944,0.5822735,0.24185452,-0.42111707,-0.103738464,-0.3054676,0.012103327,0.056802005,0.04376793,0.17044398,0.09425538,-0.069024555,0.5406172,0.23346671,0.22949892,0.1716026,-0.24392429,-0.4059558,0.18918999,0.04146199,-0.16101474,0.1848627,0.055143125,0.011903312,0.10370034,-0.2315498,-0.22614563,0.21892184,-0.52622736,0.31317517,0.15715168,0.21875724,0.15389572,0.18871564,-0.0889693,-0.37580958,-0.038415994,-0.11620555,0.05156355,-0.35608023,0.34511802,-0.116003074,-0.13632572,-0.3026205,-0.19903758,0.24163136,0.18994428,-0.47316048,0.19693655,0.14868635,-0.3047668,0.42604348,-0.343643,-0.03016819,-0.49379838,-0.015544802,-0.47050554,0.3371132,-0.43209726,-0.14575478,-0.046750806,0.04873555,-0.30072534,-0.107471034,0.14041409,0.021091096,-0.4221472,0.048388883,-0.035048753,-0.14055891,-0.3379666,0.14309585,-0.19179097,-0.24587712,0.018553972,0.09537668,-0.012124587,-0.5642023,-0.12282466,-0.37314636,0.30710208,-0.12800151,0.028136492,-0.046536934,0.22819567,0.14350928,-0.22264758,0.06550588,-0.28528562,-0.18503198,-0.31333002,-0.1959899,0.14318863,0.31793848,-0.009915046,-0.4571132,0.5053217,0.48795244,0.31436616,-0.33293664,-0.6325497,0.18127374,-0.30337286,-0.30555588,-0.2583515,0.14539014,0.049031883,-0.3111703,-0.51184577,0.1804931,0.41744405,-0.58408004,0.27138418,-0.045048155,0.34275037,-0.42236805,-0.37301394,-0.13798046,-0.2021548,-0.47917172,-0.15760872,0.568948,-0.0782033,0.044961568,0.16462696,-0.15062526,0.016405605,0.50931895,-0.12819847,0.21533883,0.27610162,-0.01367832,0.02841558,-0.055039488,-0.120572776,0.40022996,-0.035802044,0.1357826,-0.4214849,0.65221417,-0.29735637,-0.14126728,-0.03999851,0.13660705,0.22772884,0.12933204,-0.111851335,-0.23359883,0.3401151,0.2540444,-0.039698265,-0.29978684,-0.44165984,0.13032453,0.28151062,0.35189682,-0.06273549,0.47644752,-0.099247046,0.00539539,-0.39841327,-0.040198773,-0.13760492,-0.37168628,0.4033887,-0.050075717,0.034686543,0.21126091,0.11552191,-0.49798504,-0.048809472,0.50614846,0.35550934,0.50712824,0.1228583,-0.14890236,0.0661588,-0.060158134,-0.026649745,-0.39350623,0.10231751,-0.03289726,-0.010782983,-0.37014854,-0.15488204,-0.4981177,-0.20764524,-0.3720746,0.6576973,-0.056996636,0.008849032,-0.2957284,-0.08839958,-0.103777975,-0.17620343,-0.006553009,0.14214462,-0.04833276,-0.050877444,-0.10401125,-0.5474595,0.3820722,-0.4028004,-0.372154,0.33941004,-0.14856914,0.20244569,-0.37049213,-0.19895601,0.031111896,-0.31391525,0.40344894,-0.026881702,0.4153361,0.43087828,-0.09896011,-0.24121326,-0.36869955,-0.65992844,-0.5506561,0.24978636,-0.20546193,-0.36726037,-0.16537344,-0.6019487,-0.080296814,0.04589455,0.25411862,0.37983283,-0.020051148,0.18065801,0.23822731,0.36180788,0.10186373,-0.57184446,0.23130792,-0.077656545,0.39738825,-0.56466836,0.2246112,0.09218033,0.6091105,-0.08575127,0.34793425,-0.08568584,0.19515201,0.22818553,0.42026848,-0.048696086,0.1172986,-0.07589685,0.032099195,0.09181464,-0.2736506,-0.46755135,0.30932146,0.4531403,0.18663934,0.4134056,0.3191805,-0.03898567,0.18770579,0.1744687,0.092554666,0.09928786,0.30923662,-0.19023234,-0.06554385,0.020149,0.03990415,-0.21266586,-0.4434501,-0.1118602,-0.16789374,-0.08056599,0.21637377,-0.2666205,0.40881956,-0.06178491,-0.12104363,0.16434497,0.64107025,0.2132329,0.42931792,0.080253325,-0.18842624,0.24192548,-0.14686616,-0.04052326,0.10057922,-0.12750748,-0.3477883,0.5461168,-0.21731767,-0.27008644,-0.25096035,-0.22635664,0.0516295,-0.20092174,0.037420485,0.1329236,-0.12602289,-0.21953964,0.1747792,-0.034640163,0.37459964,-0.11771933,-0.22388086,-0.40880373,-0.33247644,-0.26411825,-0.26896966,0.23005639,-0.32286888,0.25225303,-0.45616096,0.033099562,-0.4753513,-0.25543135,-0.24788263,-0.14872417,0.014183318,0.16483909,-0.18183662,-0.38386297,-0.3070538,0.19684128,-0.2731128,0.44055402,-0.3513064,-0.3724193,-0.16984707,0.14473891,0.3154843,-0.11315797,-0.21697748,0.21486008,-0.31303263,0.15146078,-0.07246958,-0.0504504,-0.012869798,-0.065175325,0.14314869,0.22292908,-0.51124734,0.3165149,0.012223929,0.0429343,0.19908306,-0.2180664,0.24472284,0.4539387,0.09076539,0.2775487,-0.076222084,0.08280106,-0.19600734,0.040409774,-0.30712885,0.03785372,-0.14299303,-0.058436714,0.15851931,0.2339693,0.2535445,0.25830945,0.40824226,0.14667961,0.22908983,-0.07197494,-0.52124375,-0.24843949,-0.024257474,0.095940225,-0.023622498,0.2808809,-0.40384552,-0.20318916,-0.14595084,0.044768758,-0.18710968,0.49974576,-0.10911147,-0.27912566,0.5854002,-0.19040242,0.3791078,0.2805635,-0.07009906,-0.27295968,0.16368872,-0.07803956,0.097811885,-0.015773907,-0.27593356,-0.05637087,0.0601812,0.24096814,0.31601515,0.3318078,0.0015804209,0.41913217,-0.6303561,0.17997521,-0.4739999,0.26347283,0.017012082,0.69891083,0.08921406,0.23830253,-0.18355219,-0.026425667,0.07538715,0.27522415,0.17990157,-0.015195355,-0.41294616,0.16735907,0.114662826,0.27071095,-0.18134049,0.020595782,0.32743198,0.041626874,0.026207458,-0.09766595,-0.21836177,0.17710099,-0.020304129,0.13779873,-0.4618743,-0.28948718,-0.23388505,0.20099394,-0.08485584,0.5944714,0.16014409,-0.12131277,0.09067011,-0.004315257,0.19122311,-0.23598768,-0.3487593,0.024858464,0.147098,-0.28572178,0.2513465,-0.1859743,0.2947787,-0.64748067,0.1355765,-0.20345283,0.38209283,-0.15362512,0.100911856,-0.24234557,-0.1980857,0.20720568,0.09234153,-0.14843377,0.14150587,0.017487358,0.03870253,-0.10080159,0.0822732,0.23764753,-0.4264931,0.21955717,0.11089255,-0.15456519,-0.6422456,0.410029,-0.5456,-0.007000955,0.6670445,-0.40783376,-0.079162925,-0.061995015
g,0.15934737,-0.25246307,0.111622214,0.08481747,-0.29702246,0.18182188,-0.09626087,-0.1308636,-0.07382468,0.021276683,-0.2039131,-0.36198363,-0.22149435,-0.41684207,0.2114211,0.30000928,-0.024448268,0.339564,-0.34349814,0.114770964,0.040762432,-0.3149874,0.32347712,0.10958884,-0.62870526,0.3857401,0.24905802,0.21747187,-0.10702462,-0.29577813,-0.06617966,0.69272214,-0.01692947,-0.04823094,0.5922216,-0.06648936,0.16983819,0.15174466,0.21471435,0.01823087,0.089222364,-0.45966738,-0.14851016,0.12810183,-0.020898353,0.27021775,0.30496597,-0.19345456,0.07911744,-0.17865717,-0.34572238,-0.028602086,0.1349855,-0.32710946,0.39012575,0.23792574,-0.02970834,-0.1521478,-0.49619156,-0.19573104,0.07275923,0.35880962,0.17466122,-0.13977832,0.08263488,0.24311827,0.18252249,-0.26558122,-0.033441544,0.44202542,0.68142426,0.14022303,0.4397134,-0.041494407,0.19894278,-0.13633533,0.03278581,-0.07388411,0.13326637,0.09067652,-0.17203596,-0.11367198,0.18453224,-0.06346625,0.19178161,0.025391042,-0.23595847,-0.24468732,0.3520189,0.30583137,0.29845423,-0.06982337,0.49584255,0.43899456,0.27646133,0.047735885,0.15243481,-0.061892234,0.2775664,0.079878315,0.0045198873,-0.124749064,-0.012340087,0.011828311,-0.20371994,-0.05123698,0.02391963,-0.21038926,0.14376226,-0.16745329,0.09214879,0.46603143,0.024053644,0.24676993,-0.13481945,0.29246098,-0.13686162,-0.07946004,0.09376089,-0.47268748,-0.054679625,-0.1661615,-0.3263524,-0.06667212,-0.044562913,0.19299382,-0.06499754,-0.022008896,-0.39177963,-0.24505676,0.056866057,-0.40759102,-0.14430502,-0.12097346,-0.034487117,-0.14863014,-0.2871171,0.16948263,0.28524122,-0.02777163,-0.20780355,0.014961354,-0.02358628,-0.3989842,-0.36632904,0.30484456,0.19318885,-0.22173557,0.18515456,-0.29498866,0.0094628595,-0.40951985,0.047952928,-0.16863963,0.04355084,0.27932572,0.0348571,-0.28609955,0.30786127,0.33545002,-0.013481513,0.06180659,0.25026318,0.15183815,-0.053048834,-0.13283184,-0.2693778,-0.41741508,0.19391865,-0.1388661,0.55367064,0.19619116,0.24783045,0.10492617,-0.049590092,0.22926202,0.09133591,0.35993427,0.085265204,0.012618437,-0.18398264,-0.19821146,-0.15784699,-0.0024234876,-0.02600034,-0.40102103,-0.2895934,0.35645017,-0.036507152,-0.1565659,-0.22051449,0.28974164,-0.07059678,-0.17898586,-0.1068499,0.036803722,-0.13771555,-0.00034059584,-0.16546276,0.14302093,-0.15189148,0.25696823,-0.07684493,-0.35815275,-0.0046301354,0.08847962,0.28766617,-0.14600426,-0.12714666,-0.06305271,0.009056225,0.31977698,-0.19123498,-0.22018194,-0.17263874,0.2079381,-0.24156687,-0.09621178,-0.21702772,-0.37803525,0.20973265,-0.25943136,0.23850064,-0.22311768,0.19704188,0.101679236,0.22327378,0.06923012,-0.29943928,-0.19775894,-0.20042762,0.14249615,0.16167447,0.052485652,-0.20996925,-0.100647636,-0.22883089,0.15318361,-0.27110916,-0.16720706,0.10857703,-0.19570404,-0.048030987,-0.026807088,0.100864306,-0.36412802,0.2755306,0.062273502,-0.25403407,-0.5177868,0.01726757,-0.44539163,0.20010802,-0.21161918,-0.057019316,-0.29844347,0.09746695,-0.06915311,-0.44985235,0.1062759,-0.35056406,-0.11546461,-0.17872152,0.6263973,-0.19507146,-0.33641255,-0.42835182,-0.2649597,-0.28026658,0.29652327,0.12654978,-0.31829923,-0.14806232,-0.00892473,-0.14000835,-0.09688421,0.27528,0.33282286,-0.5469794,0.25659785,-0.07568918,-0.19116603,-0.30204934,-0.08766884,-0.5399059,-0.04081022,0.07473551,-0.06678125,0.0054924786,-0.13758802,-0.19320637,-0.034700893,-0.17064287,-0.120745055,0.33849144,-0.1459019,0.15714802,0.005892709,-0.51011324,0.021004332,0.028872795,-0.10537851,0.07479243,-0.31780177,-0.4237759,-0.45710924,0.12236384,-0.49562025,0.3571543,-0.27246,-0.06031749,0.36587748,-0.07642115,0.3824889,0.46505708,-0.23935017,0.2635801,0.0253949,0.14448586,0.13775088,0.081821755,-0.15073252,0.039456382,-0.044273145,-0.113878384,0.14470805,-0.35894993,0.08609656,-0.33379924,-0.051715832,0.26773176,-0.040065564,0.13310811,-0.10162922,0.00056141615,0.118991196,-0.28551865,-0.07882085,0.1438488,0.080389954,0.09134403,-0.3022348,0.37613034,-0.32709676,-0.08450288,-0.0017724633,0.046625786,-0.168643,0.32832462,0.071352705,-0.0087026395,0.3521232,-0.30982345,0.11111773,-0.06960378,-0.1750797,-0.16358739,-0.12960815,-0.023776418,0.25986034,-0.06192018,-0.0911074,0.017664295,0.016304743,-0.0062231123,0.12496207,0.2066457,0.22689614,-0.113755964,-0.10065434,0.05911878,-0.07417618,-0.21093339,-0.0023384392,-0.0196212,-0.04012502,0.1765286,-0.14170861,-0.14611994,0.32422248,0.27230215,-0.062722296,0.014957044,0.163313,-0.3087195,-0.018332578,-0.03556408,0.07836684,0.10685239,0.21858421,-0.37201935,0.3297196,-0.25138462,-0.01353202,-0.14656329,-0.008059472,0.21865982,0.078629844,-0.40951133,-0.1989441,0.2672924,-0.23397991,-0.008667417,0.057783302,-0.1486077,-0.16261002,-0.11108389,-0.012052737,-0.028878577,-0.0984286,-0.21134488,-0.25833344,-0.13969591,-0.44311225,-0.16552612,0.0020144507,0.12626503,0.15245429,-0.09836804,0.16662714,0.05035823,0.053941466,0.22493532,-0.17160487,0.13412932,0.07705346,-0.12358151,0.21856377,-0.060146663,-0.241173,-0.1540592,-0.27640805,0.41602904,0.35497117,0.12704137,-0.124652416,0.16994199,0.48310634,0.17466272,0.09211147,-0.043009948,-0.19444342,-0.20944507,-0.36282665,-0.431087,-0.050949175,-0.34885854,-0.17631158,0.36472052,0.1247067,-0.3805777,0.4468255,0.10078386,0.18871133,-0.2585244,0.34285334,-0.08833807,0.36207142,0.02544203,0.082754344,-0.10449443,-0.15223609,-0.11468775,-0.054900356,0.4573015,-0.5291567,0.1830188,0.03330443,-0.14772376,-0.07618845,0.1314838,-0.12996995,0.35983732,0.00688228,0.14155182,-0.11856556,-0.16143386,-0.09204461,0.30784804,0.05276893,-0.51371205,-0.095289044,0.33622754,-0.21725407,0.18766849,0.31204152,-0.24768543,0.08620911,-0.199966,0.10790654,0.17951706,0.12025386,-0.24818969,0.33670807,-0.09069516,-0.38837057,-0.0066503696,0.06776864,-0.12273088,0.22033161,0.359374,0.30662972,0.3204649,0.17208064,0.0074247345,0.0037867054,-0.014160607,-0.36256582,0.13123007,0.14024971,0.06825816,-0.12348346
h,-0.10904574,0.16013573,0.17250727,-0.19279154,-0.084370196,0.42696634,0.259556,0.34710675,-0.38349786,0.15284142,-0.10588778,-0.1769717,0.004828468,0.32653892,0.17257142,-0.24419272,-0.19590697,-0.05384036,-0.18387689,0.115397036,-0.084489666,-0.13271411,-0.5175067,-0.091076665,0.4210662,-0.28708202,-0.13081905,-0.287375,0.3766636,0.18688615,-0.024194077,-0.02223038,-0.41550726,0.09048902,0.3839847,-0.03923104,0.16805246,0.10217474,0.1874637,0.30508178,0.26420608,-0.35743952,0.26307827,-0.0150459595,0.041798964,-0.010727137,0.0060146227,-0.026797645,0.016221378,0.32659167,0.13871762,-0.24186382,-0.08834636,0.69862217,0.049205054,-0.12530711,0.16022052,-0.22466648,0.13691977,-0.07636731,-0.011558598,0.3955714,-0.18811402,-0.061023243,0.26455975,-0.009402871,0.04594132,0.16489476,0.15683866,-0.30701315,-0.27813455,-0.12332568,0.39085892,-0.069245845,0.0335496,-0.24062705,-0.09113573,-0.0246232,-0.28635615,0.23819889,0.2579444,0.16965148,-0.10389138,0.1879152,-0.058839586,-0.3844418,-0.048579782,-0.0183849,0.25811905,0.011479203,-0.44189686,-0.10561784,-0.15388635,0.008736812,0.21421382,-0.36993396,0.02770111,0.052024677,-0.4941629,0.46280092,0.14590432,0.035281904,-0.023818638,0.3706302,-0.13123968,-0.04486829,0.2989599,-0.07727935,0.10419459,-0.16330148,-0.093431175,-0.3218051,0.014191978,0.2311112,-0.44014946,0.0049648024,0.12258588,-0.053692453,-0.18153349,0.48353922,-0.097875975,0.43627685,0.30864957,0.10919547,0.006081976,-0.114296526,-0.3825459,-0.33640358,-0.3058617,-0.17675374,-0.14231616,-0.04058916,-0.24918391,0.046776533,-0.12198253,-0.1593898,0.19185561,-0.166956,0.14300594,-0.21622407,-0.20234758,-0.35668576,-0.08252791,0.35037905,0.22490421,0.21091968,0.38474923,-0.16715473,0.08920577,0.26854187,0.37377834,0.18471885,-0.35636565,-0.20066872,-0.022331126,-0.276005,0.034732327,0.10704538,-0.25880286,0.06681045,0.12598884,-0.20995031,0.10826486,-0.022579104,0.0029837564,0.057251394,-0.12457577,0.14670661,-0.029678486,0.18947402,-0.0069547594,-0.24931774,0.4292842,-0.32486644,0.6209277,0.20460105,0.080809295,-0.2323916,0.18072306,0.14744782,0.049697,0.42897162,0.3216274,0.03207722,-0.012271196,0.6385644,0.25602448,-0.36632112,0.03320314,0.069218986,-0.3244753,0.06380128,0.3630216,0.19324273,-0.03673438,-0.11850217,0.020565726,-0.24336158,-0.112325326,0.2971818,-0.17502436,0.039201923,-0.23340826,-0.09642966,0.080804154,-0.48590195,-0.022703167,0.40386596,-0.04647567,-0.10697702,-0.13055423,0.02029077,-0.38280916,0.075906746,0.0343859,0.14265102,0.038346704,-0.28952488,-0.19086128,0.17396751,0.026593603,0.30878508,-0.317414,0.29898956,0.21645688,0.10960091,-0.27798536,-0.09880701,0.024307795,-0.13112384,-0.01538939,0.23959082,-0.21301866,0.100406066,0.21134138,-0.27757618,-0.29463345,0.21756735,-0.28412223,0.078423336,-0.5999123,-0.07735354,0.06696453,0.60810256,-0.09910445,-0.17351681,0.16540237,0.0020473823,0.31407598,0.18174934,0.1258611,-0.0047222823,0.15459278,0.1883175,0.19455266,-0.034066718,-0.15099198,0.8141311,0.13337362,-0.19601579,-0.052559923,-0.37624645,-0.035683565,0.7200906,0.14548814,0.40652508,-0.29870507,0.32848004,0.10271585,0.34446102,0.22037053,-0.3809473,-0.20508152,-0.27624252,-0.15730686,-0.11474004,0.17443216,0.19767809,-0.009165898,-0.20192623,0.13475282,0.0047548823,0.3964417,0.19672424,0.12257826,0.22416317,0.049761806,0.008516844,0.042831086,0.009202797,0.031356797,-0.15665203,0.046241403,-0.21994117,-0.519899,-0.12922457,-0.054622807,0.26054156,0.14735141,-0.26097518,0.090796374,0.039054163,0.29200974,0.025350362,-0.23237649,-0.1732732,0.14178643,0.24331063,0.24089912,-0.2006839,0.09185217,-0.08203503,0.22228178,-0.31173342,0.1410906,-0.18027353,-0.39931232,0.08889309,-0.36156824,-0.24420062,0.025041759,0.5426618,0.004081362,-0.3523342,-0.054498713,0.011442795,-0.17170933,0.026215285,0.0124960635,-0.12956369,0.06052922,-0.07965145,-0.0902153,0.30383053,-0.23670186,-0.17139615,0.23181528,0.41720626,-0.27687275,0.03307435,0.024360258,0.12605734,0.11707907,0.24537462,0.16519597,-0.10032694,0.39070362,-0.024493106,-0.0062926933,0.356781,-0.2211982,-0.15353706,-0.04221695,-0.367955,0.24423882,0.12959796,0.71609026,-0.24985185,-0.077281475,-0.26430935,-0.16078812,-0.28970873,0.56567013,0.051820725,-0.35566497,-0.120993726,0.16505182,-0.20509607,-0.3609049,0.30798817,-0.018923812,-0.2436272,-0.11690892,0.09439308,-0.043154135,-0.18914244,-0.34576276,-0.44208437,-0.011290723,-0.0767991,-0.78103507,0.19415493,0.3089525,-0.2141583,-0.13391551,-0.06301261,-0.29191858,0.23657063,-0.045277305,-0.2966365,0.16351417,-0.3197406,0.23703995,0.053961564,-0.121168844,-0.45838052,-0.016207159,-0.3030257,0.25118738,-0.025831105,0.45900735,-0.21517548,0.25406677,0.26390365,-0.07182746,-0.13775803,-0.10265552,0.021183275,-0.50540733,-0.08921505,0.25747144,-0.1597347,0.46039462,0.4648887,0.023601206,0.48749566,0.20619443,0.10614062,0.3331304,-0.557882,0.038996648,-0.1360864,0.076082,-0.35917857,-0.20226079,0.004101198,0.874499,0.17879865,-0.18779545,-0.09406604,0.17428833,0.5308127,-0.11329693,-0.19980763,0.08862883,0.3116031,0.36156246,-0.26879123,-0.36162925,-0.44445002,0.115371145,0.26275644,0.18655163,0.58125883,0.4081873,0.19886197,0.19431542,0.3500703,-0.11897455,-0.11698966,-0.08390348,0.18028513,-0.21733502,0.17432816,-0.0037730709,-0.039068118,0.25618464,-0.3885993,0.24549684,-0.20310596,-0.09254982,-0.2877866,0.22137675,0.4800792,-0.15506919,-0.25897452,-0.144084,0.13850036,-0.15510619,-0.2813333,-0.18816221,-0.1021204,0.1308547,-0.015205309,0.12459804,0.3886372,-0.397272,0.32701796,-0.040823966,-0.20175873,-0.064895764,0.07197017,0.3490467,0.03696017,0.06373073,-0.372903,-0.28313297,-0.04135096,-0.13504574,-0.23057526,-0.52221286,0.13926333,0.004475862,-0.11548247,0.03144692,0.26783836,-0.2343103,0.257277,-0.4197901,0.008345716,0.31412983,0.19226223,0.26202822,0.41670436,-0.21920596,0.04262426,0.23530468,0.4025331,-0.013803244,0.42747998,-0.06726305,-0.21308486
