GeneID,feature_1,feature_2,feature_3,feature_4,feature_5,feature_6,feature_7,feature_8,feature_9,feature_10,feature_11,feature_12,feature_13,feature_14,feature_15,feature_16,feature_17,feature_18,feature_19,feature_20,feature_21,feature_22,feature_23,feature_24,feature_25,feature_26,feature_27,feature_28,feature_29,feature_30,feature_31,feature_32,feature_33,feature_34,feature_35,feature_36,feature_37,feature_38,feature_39,feature_40,feature_41,feature_42,feature_43,feature_44,feature_45,feature_46,feature_47,feature_48,feature_49,feature_50,feature_51,feature_52,feature_53,feature_54,feature_55,feature_56,feature_57,feature_58,feature_59,feature_60,feature_61,feature_62,feature_63,feature_64,feature_65,feature_66,feature_67,feature_68,feature_69,feature_70,feature_71,feature_72,feature_73,feature_74,feature_75,feature_76,feature_77,feature_78,feature_79,feature_80,feature_81,feature_82,feature_83,feature_84,feature_85,feature_86,feature_87,feature_88,feature_89,feature_90,feature_91,feature_92,feature_93,feature_94,feature_95,feature_96,feature_97,feature_98,feature_99,feature_100,feature_101,feature_102,feature_103,feature_104,feature_105,feature_106,feature_107,feature_108,feature_109,feature_110,feature_111,feature_112,feature_113,feature_114,feature_115,feature_116,feature_117,feature_118,feature_119,feature_120,feature_121,feature_122,feature_123,feature_124,feature_125,feature_126,feature_127,feature_128,feature_129,feature_130,feature_131,feature_132,feature_133,feature_134,feature_135,feature_136,feature_137,feature_138,feature_139,feature_140,feature_141,feature_142,feature_143,feature_144,feature_145,feature_146,feature_147,feature_148,feature_149,feature_150,feature_151,feature_152,feature_153,feature_154,feature_155,feature_156,feature_157,feature_158,feature_159,feature_160,feature_161,feature_162,feature_163,feature_164,feature_165,feature_166,feature_167,feature_168,feature_169,feature_170,feature_171,feature_172,feature_173,feature_174,feature_175,feature_176,feature_177,feature_178,feature_179,feature_180,feature_181,feature_182,feature_183,feature_184,feature_185,feature_186,feature_187,feature_188,feature_189,feature_190,feature_191,feature_192,feature_193,feature_194,feature_195,feature_196,feature_197,feature_198,feature_199,feature_200,feature_201,feature_202,feature_203,feature_204,feature_205,feature_206,feature_207,feature_208,feature_209,feature_210,feature_211,feature_212,feature_213,feature_214,feature_215,feature_216,feature_217,feature_218,feature_219,feature_220,feature_221,feature_222,feature_223,feature_224,feature_225,feature_226,feature_227,feature_228,feature_229,feature_230,feature_231,feature_232,feature_233,feature_234,feature_235,feature_236,feature_237,feature_238,feature_239,feature_240,feature_241,feature_242,feature_243,feature_244,feature_245,feature_246,feature_247,feature_248,feature_249,feature_250,feature_251,feature_252,feature_253,feature_254,feature_255,feature_256,feature_257,feature_258,feature_259,feature_260,feature_261,feature_262,feature_263,feature_264,feature_265,feature_266,feature_267,feature_268,feature_269,feature_270,feature_271,feature_272,feature_273,feature_274,feature_275,feature_276,feature_277,feature_278,feature_279,feature_280,feature_281,feature_282,feature_283,feature_284,feature_285,feature_286,feature_287,feature_288,feature_289,feature_290,feature_291,feature_292,feature_293,feature_294,feature_295,feature_296,feature_297,feature_298,feature_299,feature_300,feature_301,feature_302,feature_303,feature_304,feature_305,feature_306,feature_307,feature_308,feature_309,feature_310,feature_311,feature_312,feature_313,feature_314,feature_315,feature_316,feature_317,feature_318,feature_319,feature_320,feature_321,feature_322,feature_323,feature_324,feature_325,feature_326,feature_327,feature_328,feature_329,feature_330,feature_331,feature_332,feature_333,feature_334,feature_335,feature_336,feature_337,feature_338,feature_339,feature_340,feature_341,feature_342,feature_343,feature_344,feature_345,feature_346,feature_347,feature_348,feature_349,feature_350,feature_351,feature_352,feature_353,feature_354,feature_355,feature_356,feature_357,feature_358,feature_359,feature_360,feature_361,feature_362,feature_363,feature_364,feature_365,feature_366,feature_367,feature_368,feature_369,feature_370,feature_371,feature_372,feature_373,feature_374,feature_375,feature_376,feature_377,feature_378,feature_379,feature_380,feature_381,feature_382,feature_383,feature_384,feature_385,feature_386,feature_387,feature_388,feature_389,feature_390,feature_391,feature_392,feature_393,feature_394,feature_395,feature_396,feature_397,feature_398,feature_399,feature_400,feature_401,feature_402,feature_403,feature_404,feature_405,feature_406,feature_407,feature_408,feature_409,feature_410,feature_411,feature_412,feature_413,feature_414,feature_415,feature_416,feature_417,feature_418,feature_419,feature_420,feature_421,feature_422,feature_423,feature_424,feature_425,feature_426,feature_427,feature_428,feature_429,feature_430,feature_431,feature_432,feature_433,feature_434,feature_435,feature_436,feature_437,feature_438,feature_439,feature_440,feature_441,feature_442,feature_443,feature_444,feature_445,feature_446,feature_447,feature_448,feature_449,feature_450,feature_451,feature_452,feature_453,feature_454,feature_455,feature_456,feature_457,feature_458,feature_459,feature_460,feature_461,feature_462,feature_463,feature_464,feature_465,feature_466,feature_467,feature_468,feature_469,feature_470,feature_471,feature_472,feature_473,feature_474,feature_475,feature_476,feature_477,feature_478,feature_479,feature_480,feature_481,feature_482,feature_483,feature_484,feature_485,feature_486,feature_487,feature_488,feature_489,feature_490,feature_491,feature_492,feature_493,feature_494,feature_495,feature_496,feature_497,feature_498,feature_499,feature_500,feature_501,feature_502,feature_503,feature_504,feature_505,feature_506,feature_507,feature_508,feature_509,feature_510,feature_511,feature_512
a,-0.04316025,-0.50305825,0.19446906,0.6296481,0.098658636,0.5001268,0.004876068,0.2534161,0.098079726,0.0049157813,0.25515795,0.5139607,0.16905905,-0.06903087,-0.31026718,0.47015393,0.23446873,-0.11061415,0.1349302,0.05353443,0.010346144,0.21822533,0.03650574,-0.03213744,0.27804336,0.29611698,-0.061732672,-0.058705494,0.30451098,-0.097088315,-0.22982532,0.023522891,-0.3138625,-0.40543002,-0.06983059,0.084981546,-0.15262899,0.055364557,-0.35434434,-0.10790316,0.19816813,-0.07115691,-0.087689914,0.4000416,-0.23101434,-0.0348985,0.21548972,0.21015087,-0.19352311,-0.51398456,-0.19851595,-0.39913565,-0.07085151,0.21095979,0.07660046,0.03154687,-0.012616627,0.11130269,0.3636974,-0.06291406,-0.18026991,0.12648407,-0.12387996,0.20142248,-0.27334106,0.46356103,0.11392287,0.25117007,0.2957863,0.024406403,-0.29797658,0.18777409,0.017814424,-0.12531546,0.004280135,0.14345796,0.36981136,-0.07862517,-0.084778756,0.38645652,0.189948,-0.27209532,-0.11733458,0.5963515,0.22924435,-0.0055008233,0.35782528,-0.28829315,0.1414308,0.1683858,-0.37876472,-0.13908798,0.036636822,-0.23849219,0.20851159,-0.0737753,-0.06960297,-0.017866477,0.16443732,-0.15263815,0.38044423,0.15278322,-0.20519614,0.13886692,-0.1961354,0.032275748,-0.059545867,-0.15225612,0.34657496,-0.117470324,-0.0038647503,0.21879734,-0.3223539,-0.17527185,0.37326163,0.2375211,0.11245028,0.2448228,0.42088264,-0.04491781,-0.25199133,-0.22079414,-0.18683586,-0.008292384,-0.23283839,0.18273735,0.7798445,-0.060759775,-0.009451132,-0.13231923,-0.029972129,-0.04801956,0.37882707,0.08522854,-0.10654196,-0.24552998,-0.077487096,0.05090316,0.18277104,0.10105018,-0.029916495,-0.27281997,-0.20084426,-0.14910829,0.079302534,-0.2841315,0.15794283,-0.031201355,-0.04970123,-0.19931743,0.11157222,-0.29190218,-0.31847256,-0.35551625,0.23575392,0.31979552,0.112234116,-0.07818815,0.2406843,0.0114753805,0.22839063,-0.00640494,0.21862449,-0.25035164,0.20764348,-0.26888722,0.03405839,-0.52164924,0.00994863,-0.0006504208,-0.012907833,-0.3413414,0.067285836,-0.36240807,0.26168138,-0.08431567,-0.20702365,-0.59028614,-0.19697765,-0.06521336,0.09474935,-0.28936175,-0.11367737,0.101650946,0.37222025,0.109454274,-0.20988855,-0.09503146,0.41617754,0.009751096,-0.06323105,-0.13349643,0.22115543,0.04822703,-0.38110334,-0.28465,0.16547674,-0.26422885,0.26429474,0.1454151,0.01133373,0.13546005,0.22169074,-0.5121734,-0.038304873,-0.04352339,-0.078031756,-0.18722594,0.27281123,-0.42960542,-0.05540885,-0.16755864,-0.3677215,0.12823167,-0.19621444,0.03221327,0.07186943,-0.10285545,-0.24749705,0.12365182,0.09158821,0.07061243,0.26407778,0.017282508,0.08061093,0.19534498,-0.10979703,0.1668312,-0.22489962,0.11766218,0.061055586,-0.12349546,-0.33339542,0.10950713,0.09041323,-0.39676696,-0.64929605,-0.49069375,0.044328053,-0.13342822,0.11206143,-0.057726897,0.3405851,0.09979982,-0.06975171,0.3875465,0.00095479935,0.2206246,0.24570698,-0.054441668,-0.24487436,-0.047708143,-0.23801452,0.13183151,-0.23048836,0.00073067844,-0.36505643,-0.084281206,-0.14359245,-0.03389146,-0.15454492,0.21389389,-0.1982761,-0.20624632,-0.19854887,0.08611025,-0.082946345,0.02466014,-0.12538992,0.5063622,0.09998527,-0.09572408,0.08539432,0.15690638,0.507022,0.10035812,-0.07087804,-0.2746848,-0.08654767,0.119841225,0.18108979,-0.07531156,-0.1647668,-0.25156647,-0.049502533,-0.21977577,-0.056470927,-0.1269134,-0.16289483,0.0364819,0.21741012,0.100361004,-0.001757089,0.007669814,-0.25658727,0.25257546,0.06007266,-0.13128155,0.2428644,-0.066770546,-0.7323915,0.20886236,0.1643436,0.038373597,-0.013357252,-0.13319801,0.44708613,0.045972604,0.42402622,0.36557811,-0.18687381,-0.1792466,0.8608616,-0.02633164,0.21508098,0.064505994,-0.39139068,-0.18739438,-0.18585041,0.06826712,-0.42918727,-0.010275632,-0.14546745,0.08142561,0.2833567,0.29771546,-0.22783124,0.2246893,-0.0991106,0.08646692,-0.4485778,-0.14686537,0.039939217,0.096962616,0.041872278,0.28550062,0.28296587,0.30969968,0.14775854,-0.05291827,-0.19503951,0.36223426,0.100073114,0.2435627,0.22953561,0.42623526,0.29650095,0.103400484,0.013381004,0.31806263,0.028481796,-0.049429186,0.009176597,-0.054732203,0.134846,0.011398677,0.14675823,0.106327996,0.023538206,0.014942165,-0.0046067685,0.406883,-0.20754549,-0.09056156,0.13596058,0.346173,0.1147795,0.22777733,-0.0022097155,-0.2619693,0.27657312,-0.0020862557,0.010727279,0.3471705,-0.24576904,-0.07497321,0.14135435,0.1297423,-0.2611553,-0.18203232,-0.6541263,-0.099570304,-0.2938412,0.13222516,-0.2232593,-0.023502585,-0.07827024,0.20820448,-0.08039563,-0.26338357,-0.19808583,0.144467,0.03780008,0.16302148,-0.011978857,-0.5360449,0.23482955,-0.102056794,0.034391522,-0.016652927,-0.23918942,-0.087963946,-0.24766372,0.2701547,0.39826566,0.023348685,0.052795745,-0.0077247694,0.11667715,0.3317953,-0.06362762,0.16625448,0.24802801,-0.0068161115,0.18214962,0.0035706237,0.20417091,0.075257,0.27825838,0.13153952,0.030494772,-0.2271806,0.12403345,0.54847014,0.43755522,-0.08088368,-0.30141374,-0.08955974,-0.20719254,0.048542183,0.17876512,-0.19857687,0.04272887,-0.08258106,0.13775021,-0.048507772,0.14155155,-0.17247441,-0.18732204,0.19351812,-0.13882557,0.32856512,0.34070826,0.05564643,0.6451883,-0.20623586,0.493664,-0.25821036,-0.5061283,-0.045747824,0.3399834,0.124287635,0.18401375,0.2662348,-0.6429532,0.01165428,0.3177338,-0.72755826,0.39874536,-0.42375833,-0.27328444,0.039469775,0.0032632425,0.24817145,-0.03965389,0.021575302,0.07510059,0.5649963,-0.42101952,-0.26469618,0.009257328,-0.34047464,0.3271281,-0.016585018,0.08675275,-0.34876686,0.1680785,0.3124839,0.13981518,0.3757276,-0.19365421,0.32728833,0.07903093,-0.31738102,-0.31366295,-0.019961737,-0.20122308,-0.003222607,0.22189263,-0.13547775,-0.017482989,-0.115000196,-0.18843795,0.44478884,-0.20407528,-0.23620099,-0.38219294,-0.07436677,0.14078528,-0.11627782,0.11572144,0.13616116,-0.25969827,0.29024148,-0.18853688,0.28209582,-0.4341647,0.0152632445,-0.0205867,0.12132231,0.09168126,-0.24115565
b,-0.22576088,-0.011358613,-0.006905211,0.08107473,0.1958221,0.38992232,-0.4986962,0.20694923,0.2795219,-0.27271932,0.18975487,0.08981143,0.27015206,-0.12755838,-0.33419794,-0.11501128,0.23633793,-0.3603552,-0.0037901625,-0.33299118,0.36717543,-0.17139612,0.17825216,-0.5586339,-0.1668766,-0.16662002,0.11002455,0.028237164,0.2670584,0.07693912,-0.020484012,-0.5299569,-0.14615339,-0.19713674,0.036799967,-0.29962534,0.1857947,-0.04159699,-0.03801885,-0.37628677,0.48995087,-0.30216083,0.2051551,-0.04669301,-0.057719834,0.16255696,0.58028793,-0.21089518,-0.33008844,-0.4921626,-0.18314552,-0.19054168,0.034416065,0.14411274,-0.16142042,-0.17833072,-0.50385505,0.12667823,0.5681606,0.17672826,0.17441416,0.39790967,-0.14654928,0.16880512,-0.1335181,0.18672633,-0.34926498,-0.20013863,0.40582532,-0.37224498,-0.14026639,-0.29738453,-0.08287725,-0.1770398,-0.27921388,0.13103762,0.08753989,-0.41440508,0.070330285,0.30938053,-0.052606825,-0.14018613,-0.09136838,-0.19865239,0.50223655,0.12009919,0.13879812,0.24962497,0.5282995,0.122284874,-0.45405844,-0.01940567,0.2993645,-0.1310279,0.12905644,0.17809801,0.053822644,-0.25132498,0.19273034,0.21955322,0.91679287,-0.15919954,0.30691814,-0.15513128,-0.51645637,-0.013316192,-0.004192792,-0.64654434,0.4041564,-0.50956094,-0.344932,-0.07159398,-0.14490852,0.057183832,0.4800877,-0.5339082,-0.1407615,0.68124044,0.73560214,0.116861105,-0.002369091,0.2887393,0.22647575,0.06481502,0.11158629,0.0829941,0.2251262,-0.06343183,0.07062723,-0.567273,0.053041726,-0.009221591,0.22435516,-0.02210287,-0.27841914,0.14898345,0.15628555,0.39776427,0.41830623,0.11514368,0.22647853,0.07887074,-0.32557702,-0.118236214,-0.07557555,0.67672646,0.49764222,-0.038699783,0.04019449,-0.15631828,0.34878218,-0.21182474,-0.015803546,-0.48648638,-0.032017894,0.26741254,0.004281357,-0.1485939,0.22189063,0.10078147,-0.07143625,0.39919782,0.5181281,0.07225422,-0.08524216,0.13197422,-0.20031337,-0.4217648,0.26722834,-0.2312983,-0.4114565,-0.2774202,0.3478174,0.008819059,-0.27865005,-0.2653043,-0.47816458,0.014381193,-0.37612197,0.41536638,0.042613428,0.2633334,0.053486995,0.08276306,0.07035641,-0.062220752,0.07015722,-0.16901425,0.21989965,0.33115944,0.18496998,-0.66847867,-0.27559605,-0.5625501,0.06200391,0.21286467,0.111374624,-0.20565328,0.2611817,-0.31352645,-0.4682803,0.09678157,-0.11054262,0.0146617815,-0.021944068,-0.08120904,0.4266923,-0.06681654,-0.16244799,-0.24087423,-0.1833184,-0.42896324,-0.28751224,0.00778131,-0.5621776,-0.11842284,0.28824827,-0.20673174,-0.39677182,0.049175482,0.10221686,-0.13997664,-0.018311031,0.0047571277,0.29211637,-0.24065635,-0.21994454,0.44780603,-0.16075602,0.10078114,-0.239722,-0.13339718,-0.5874,-0.100194424,0.10689579,-0.13161343,0.014934301,-0.22002518,-0.25251412,-0.084363945,0.107382305,-0.3086506,-0.021435712,0.073832765,-0.075860925,0.36022145,0.46764672,-0.3663987,0.30648062,-0.4056066,-0.08078934,0.16943501,-0.1542624,0.55968493,-0.3199137,-0.2112345,0.020136315,-0.2422722,0.09167905,-0.1770971,-0.28550637,0.83483773,0.18001619,0.11160332,0.17747974,0.07296267,-0.09813042,-0.15846388,0.54848933,0.29318407,-0.115068495,-0.13060987,-0.60712326,0.10052769,-0.42759404,-0.0150218345,0.091342345,0.43804762,0.073743284,0.10640592,0.2529382,-0.072588414,-0.1393595,0.07977034,0.20300716,-0.36947614,0.21799885,-0.008139383,0.26645482,0.2268031,0.6660581,0.07995887,-0.34303623,-0.2858882,-0.085700236,-0.34427857,-0.41323838,-0.13061474,0.021901786,0.50348204,-0.23710671,0.08253813,0.16321938,-0.18731162,0.4654103,0.124030374,-0.09186364,0.035407327,-0.45893764,0.0855684,-0.29923728,-0.417804,0.6352837,0.007200461,-0.25173897,0.15935278,-0.005347267,-0.11229096,-0.04207508,0.38716927,-0.1641971,0.18060571,-0.20748554,0.21271263,0.41186965,0.073123306,-0.21122992,0.2804917,-0.18400854,0.083057374,-0.08661795,0.33652815,0.08417338,0.0028587542,-0.045752857,0.14685342,0.31357625,-0.14837983,0.18736565,0.20257917,-0.37898695,0.15194526,-0.106064655,0.774573,-0.07261838,0.11086414,-0.07570785,-0.32379958,-0.08111642,0.37167242,0.3457607,-0.008656822,0.36597353,-0.080218256,-0.15564913,-0.15632275,-0.022492893,0.025281511,0.24230434,-0.33356583,0.33589345,0.51563895,0.13700686,-0.08109934,-0.064890236,-0.062938794,-0.307513,0.119250335,0.17131147,-0.074510366,-0.19885856,-0.26241982,-0.49446094,0.3733547,-0.12813775,0.16792074,-0.36744142,0.12764779,-0.06487788,-0.43631366,-0.44977954,0.30859143,-0.04286861,0.40068465,0.4824448,0.03805003,-0.04263724,0.22086811,-0.27778953,0.07769276,-0.40321717,0.19390449,-0.08433414,-0.0039642826,0.1153892,-0.40060112,0.17073973,0.32203943,0.2692203,0.035699435,-0.0007346608,0.15537678,-0.10634622,0.19545761,0.07016548,-0.29225495,-0.035466537,0.096209705,-0.09420389,0.28963393,-0.29770058,-0.028706659,-0.014247578,-0.46200505,-0.06838343,-0.12468631,-0.37017286,0.30840766,-0.23746526,-0.3807199,0.60060483,-0.13907108,-0.30581105,0.47608206,0.22596896,-0.24537879,-0.14069688,0.05423762,-0.20130208,-0.049417265,0.06904602,0.2874624,-0.37943304,-0.13497117,-0.10635496,-0.24421082,-0.3030648,-0.222578,-0.38662112,0.06673055,-0.20860028,-0.087367855,-0.2458547,-0.23057476,0.16600867,-0.36085576,0.27918684,-0.3958193,-0.3292403,0.12093023,-0.03465063,-0.056608293,0.603404,-0.086225756,-0.06139536,-0.01980693,0.047222093,0.088866346,0.4042763,-0.15500718,0.5089913,0.25932145,0.21366668,0.035115547,0.6282898,0.27267796,-0.36449125,0.16042417,0.31140816,0.021975487,0.33028746,-0.09686031,0.030489866,0.022204656,0.2988655,-0.35992205,0.2147764,0.20576157,0.46267414,0.0058094636,-0.4017403,0.34517607,0.0528241,-0.078737706,0.20097502,0.20675936,-0.46231633,0.3725692,0.14987478,-0.09422181,-0.22484615,0.33997628,0.37386537,0.5715978,-0.31437853,-0.03944341,-0.09743326,-0.18672895,0.04351756,-0.32392183,-0.24930945,-0.23206247,-0.18241781,-0.013117228,-0.46797368,0.12494649,-0.40602332,0.20283443,-0.24871287,0.4204809,-0.22762945,-0.10904217
c,-0.012301769,-0.17396906,0.5403796,0.36288458,0.051107246,-0.0505668,0.18438962,0.2732962,0.08116375,0.20962289,-0.26130575,-0.25672102,0.28801003,0.30800715,0.44380715,0.0058295783,0.47160512,-0.19272391,0.12056631,0.3500406,-0.3900941,0.5274637,0.19177803,0.19949478,-0.2772481,-0.29190698,-0.23779714,-0.13285843,-0.037125066,0.23142299,0.001531668,0.17833799,-0.65902245,0.28061497,-0.031605974,0.021528713,-0.26439244,-0.10556108,-0.45848712,0.007236995,-0.11485269,-0.41608852,-0.37110376,0.36932102,0.103714295,0.31466958,-0.26640004,0.1949979,0.2982909,-0.5144325,-0.29366863,-0.3190905,-0.24821031,0.39532864,0.27497458,0.2283594,0.2510185,0.034482963,0.19832104,0.38523203,-0.017902978,0.5061186,0.07685816,-0.0072965547,-0.35324648,0.22517475,-0.18343258,-0.18977287,0.39697316,-0.23627046,0.099537656,-0.027009591,-0.17997907,-0.5227235,-0.13249509,-0.1800504,0.14315106,0.28677577,-0.05953343,-0.4130865,-0.2848244,-0.2863291,0.3733254,-0.09612446,-0.15097696,-0.10691414,0.24914767,0.18175578,-0.07753481,0.17642537,0.08441194,-0.23326948,-0.45808655,-0.08980713,-0.14324868,-0.2962789,0.023601048,-0.22385296,0.21154535,-0.40094227,0.2513306,0.21305469,-0.23966432,-0.5311681,0.117150314,-0.26721793,0.034160763,0.014307026,-0.0037050042,0.002129797,-0.2350665,-0.25708294,0.41887367,0.20448083,0.43795288,0.42282277,0.06396448,-0.20564437,-0.16536616,0.12914036,0.17043833,0.123509444,-0.6416567,-0.03163057,-0.16055524,-0.14552745,-0.22551152,0.31235796,-0.044379704,-0.19640583,0.07242959,-0.06301656,-0.54918754,-0.12504913,0.27782637,-0.12060806,-0.07990562,-0.22588472,-0.49961215,-0.2400305,0.19874701,-0.095966175,-0.12515053,-0.123331346,-0.14895892,-0.38917243,0.30987823,0.39853162,0.11981393,0.0031006709,-0.14759652,0.15759197,-0.4520324,-0.33138266,0.10081014,-0.054469667,0.27361968,0.17736733,0.31507838,0.003762506,-0.084172495,-0.34675765,0.029779091,-0.026623111,-0.1527586,0.22304428,-0.028726272,0.17563245,0.010732193,0.15870643,-0.24328843,0.30978775,-0.3998764,0.51465464,-0.44738626,0.26304704,0.3411198,-0.21769802,0.26555923,-0.14010668,0.01467479,0.11402011,-0.048586458,0.050244734,0.1065299,0.09878517,0.28668734,-0.08711255,-0.24975929,0.102941275,-0.3009537,0.08199488,0.42451715,0.23604792,-0.41154158,-0.113445304,-0.081794545,0.41321778,0.011780746,-0.3099431,-0.18736465,0.022997152,-0.45665592,0.023290023,0.052352544,-0.22114776,0.031158417,0.084128015,0.07214447,-0.44605106,0.28999618,0.4762236,-0.14852867,-0.070904106,-0.33383286,-0.5601616,0.61145455,0.14282331,-0.4363547,-0.009728763,0.33019254,-0.024200337,0.39497823,0.04496152,0.25416514,-0.22156546,-0.55049324,0.13092521,-0.2123369,-0.5827503,-0.19046916,-0.32739082,0.13202542,-0.1391511,0.053732075,-0.47391963,-0.20094675,0.15861554,0.5215886,-0.29564556,-0.38958582,0.10329486,-0.12968425,0.06890753,-0.27657014,0.20145878,0.044143118,0.35080516,0.592625,0.41357136,0.13751781,-0.33105835,-0.25566247,0.18629286,-0.1659809,0.11352441,-0.18195704,-0.2527631,0.1504927,0.5325,0.02179923,-0.018349588,0.10678679,0.008417346,0.07933589,0.14577669,0.21666795,0.37987357,-0.18567155,0.18335633,0.14053904,-0.040273525,0.11031732,0.15013543,0.22535115,-0.00040220842,-0.19950059,-0.17494854,0.12861629,-0.018357921,0.178884,0.27490684,-0.24827155,-0.2869248,0.14157972,-0.17571563,-0.14983875,-0.2581685,-0.03556485,-0.21577144,0.44469327,0.17913982,0.17794478,0.042867362,-0.1674794,0.19808823,-0.0040968657,-0.03666241,-0.39394048,0.0507548,0.2800425,-0.04595311,-0.105265476,-0.21909499,-0.42649812,-0.21471764,0.4134735,0.32743487,0.08090401,0.13741857,-0.25168207,0.559985,-0.35591984,0.12987831,-0.09257731,0.16752753,0.6282292,0.16005841,0.08779612,-0.0015992448,0.22108075,0.022693155,0.4037218,-0.0077196956,-0.32838142,0.13116312,-0.23778439,0.39888197,-0.084269755,0.003410574,-0.3777353,0.1456629,0.073411524,-0.016626064,0.021150962,-0.2665037,0.3489506,-0.40935865,-0.1736187,-0.22437882,-0.20127669,-0.23348555,-0.34014097,0.073415585,-0.12378602,0.0007790625,-0.41078725,0.30150485,-0.2061202,-0.029719803,-0.25510788,-0.20932329,0.35828933,-0.32510814,-0.46427116,0.06009122,-0.19847523,0.34646294,0.3098196,-0.10257638,-0.19165133,0.07114134,-0.22270489,0.12612033,-0.5361163,0.20333381,0.005476132,-0.19002333,-0.20347697,0.03876479,-0.10908302,0.10339254,0.4116407,-0.51288295,-0.21029525,0.3103999,0.17253861,0.084871136,-0.026746579,0.146037,-0.018866394,-0.08443237,-0.32863113,-0.28235728,0.15605223,0.101490244,0.1853508,0.21069017,0.377601,-0.7588994,-0.10959554,-0.24016392,0.20158327,0.10009587,0.190756,-0.372636,-0.09599988,-0.007800039,-0.8661358,-0.18844569,-0.16083807,-0.13244131,0.3767224,0.44471645,0.2620423,-0.019823886,0.2388554,-0.331096,0.014947217,0.3024157,-0.38283822,0.425999,0.1151999,0.039176702,0.2020537,-0.0068652024,-0.21615744,-0.6360802,0.08534426,-0.23228115,0.22812921,0.12774295,0.39065644,0.3118459,-0.15601426,-0.28300512,-0.621658,0.4270867,-0.16917256,0.25764027,0.09223496,0.14814791,0.1231941,-0.30223167,0.15152606,-0.14798975,-0.049585335,0.14920235,-0.39165175,-0.41103643,0.25615576,-0.41210446,0.28958204,0.11222626,-0.4002303,-0.28151968,-0.013160579,-0.15938717,-0.13937908,0.5432544,0.38977072,-0.4000044,-0.06419831,-0.37823635,-0.27072376,-0.0012313053,-0.22880837,-0.43559867,-0.31751835,0.40346533,-0.007422805,-0.33337408,-0.37451828,-0.122085474,-0.11080016,0.21567753,0.3603367,0.0983388,-0.030892309,-0.014207266,-0.37649152,0.18843174,0.07705133,-0.0043864883,-0.040215526,0.15669522,0.015340757,0.09442566,0.1350869,0.09582022,0.18889596,0.025184616,0.030821852,0.3529318,0.08318552,0.2554717,0.08610395,-0.007988736,0.19205335,-0.17082083,0.45191017,0.18861604,0.18494205,0.3312753,0.0059420913,-0.35016218,-0.0474303,0.47176433,0.09967203,0.039203506,0.04431258,0.25399965,0.17419016,0.5773734,0.0037242323,0.17050946,0.17513359,0.10755004,-0.104719885,0.19822472,0.01233194,0.50599885
d,-0.22342601,-0.40251255,0.077660404,0.09543352,-0.22530884,-0.41556898,0.006748207,0.26351595,-0.060240798,-0.27862567,0.027993489,0.27264497,0.09497327,0.05081837,-0.40264592,-0.092453964,0.13555598,0.20598374,-0.062396787,-0.37918866,-0.24522519,0.49173182,0.117730856,0.21174735,0.023015313,-0.1388812,0.111326545,0.48113397,0.04290009,0.35172543,0.1515027,0.5234063,-0.41717038,0.0005484186,-0.16441476,0.046409402,0.47069713,0.017128143,-0.124265686,0.08936429,-0.27561072,-0.13047329,0.17025676,0.32359326,-0.2526403,0.20801303,0.40325907,0.385132,-0.22640987,-0.1294038,-0.38542914,-0.44170177,-0.12094281,0.45036215,-0.14271596,0.37707412,0.026477374,-0.7189866,-0.024628036,0.008049991,0.21258368,-0.08367833,0.35666305,-0.4482731,0.12907481,-0.28901738,-0.08949546,-0.585986,0.2644799,0.09075182,-0.13907509,0.0354382,0.53843224,-0.010148134,-0.0545394,-0.22562206,-0.10573713,0.40811834,0.13124377,-0.26161456,-0.59122944,-0.3485829,-0.65840155,-0.3570073,0.1339582,0.4638245,-0.14779237,0.07031953,-0.030633885,-0.13650888,0.061859347,0.044169612,-0.1762909,-0.1518892,0.06255611,-0.14912525,-0.18091843,-0.23564592,0.04725771,-0.32133293,0.17109746,0.20429417,0.27947637,-0.043941125,0.16134343,-0.42554438,0.09059583,-0.24132885,-0.10889379,0.13362591,-0.21522304,0.30578947,0.3693763,0.14762172,0.33616322,0.07862526,-0.17612451,0.31672615,-0.1118733,0.39651027,-0.103438064,0.4738576,-0.13614058,-0.18436885,-0.13684294,0.042885847,-0.29755616,0.069055095,-0.32047278,-0.43889493,0.11244963,-0.15537569,-0.22897848,-0.41422793,0.2216342,0.18265492,0.09081879,0.10315769,-0.24354886,-0.18127088,0.06502142,-0.44324696,-0.23545334,-0.24616039,0.33542323,-0.10873486,0.17126128,-0.02567625,-0.06518428,-0.18716967,0.026476819,0.043219462,-0.33384758,-0.17753726,0.08188391,0.38644075,-0.18480185,0.12734348,-0.0812066,-0.22414361,0.20009464,0.010889646,0.027055688,-0.044772856,-0.32272422,0.39026532,0.052821606,0.27540147,-0.26448444,-0.12768972,-0.21463549,0.4497569,-0.08237326,0.62692654,0.043709848,0.0004954301,0.09615439,0.0183191,0.4201035,-0.08458275,-0.06217026,0.43844965,-0.35769254,0.12921593,-0.1155156,0.071977,-0.12380751,-0.5133994,-0.030790754,0.013290815,0.12444523,0.22016439,-0.13827974,0.031294547,-0.32499194,-0.09263655,-0.09263686,0.1567465,0.024012513,-0.16672692,-0.12224518,0.28745398,0.1048072,0.400432,0.07160503,-0.16220284,-0.05855716,0.17568594,-0.30550808,-0.18099196,-0.5613731,0.084183216,0.089623526,-0.115545854,0.21673188,-0.18722737,0.037096404,-0.052273482,0.35492218,-0.097254544,0.19357857,-0.060153775,0.047639035,-0.18727277,0.15099609,-0.57079995,-0.25927064,0.08379237,-0.01736365,0.0037470013,-0.07574459,-0.05880504,0.027766347,0.19505644,0.16451474,-0.054769933,-0.06124501,-0.036596414,0.14190656,-0.17240536,-0.36527088,0.22839503,-0.26827353,-0.10026715,-0.23480847,0.19087285,-0.12099795,-0.025442068,0.025050815,0.32034287,-0.20447078,-0.24425982,-0.15546954,0.24406667,-0.08436041,-0.33489493,0.05146712,-0.35081407,-0.061644368,0.04619435,0.1386824,0.2595197,-0.04554814,0.006049849,0.011583674,-0.1622233,-0.20780082,-0.06052591,0.16941895,0.50567734,-0.29772732,0.24123278,0.21063602,0.28458,0.23004884,-0.30265546,-0.23090881,-0.009920798,0.079706684,-0.32064968,-0.2299213,0.31858912,0.19349018,-0.20021164,0.12929866,0.3871229,-0.29555756,0.060572535,0.20542453,0.39325386,0.28781012,0.021235272,0.22270271,0.119202554,0.21726954,-0.20400444,0.043811038,-0.3794983,0.021204762,0.3225645,0.053932384,-0.11580668,-0.22154096,-0.20682055,0.22997515,-0.29789165,-0.050317325,0.47663423,0.42893797,0.23992148,-0.24838597,0.2622675,0.07004787,-0.4175756,-0.13828494,0.14107281,0.37914318,-0.22744286,-0.045541942,0.35430726,-0.18360648,0.11833641,-0.2501037,-0.28954536,0.23964977,0.12837772,0.08868366,0.2096914,0.2212991,-0.24319668,0.18637659,0.5110043,0.090206675,0.042368617,-0.2502946,0.27008924,0.5404042,-0.1431104,-0.105218105,-0.3805859,-0.253038,0.26407197,-0.23993331,0.088533565,0.090799,-0.24698508,-0.530627,-0.028850362,-0.10835284,0.24305539,0.18434484,-0.04575958,-0.06321539,-0.37257367,-0.21932517,-0.060870506,0.17122063,0.28325593,-0.24063078,-0.27159968,-0.16817957,0.0935056,0.0038722306,-0.12245033,0.1501038,-0.12340315,-0.023500796,-0.44100836,-0.40752047,-0.008609552,-0.39891708,0.43374902,0.31612602,-0.12812501,-0.5609415,0.4509805,-0.28452694,-0.19318894,0.2825971,0.06269609,0.2695725,0.43274376,0.11357071,0.27620852,0.052200176,-0.017013336,0.4745339,0.02521763,0.3586911,-0.40415388,-0.1824793,-0.06779133,0.24882302,0.278182,0.18496323,0.13837588,0.03169634,-0.007489507,-0.11267748,0.06009557,0.030132432,0.18268202,0.037749924,0.057664976,-0.037900485,0.43987885,0.271738,-0.26702744,-0.5264839,0.01487045,0.3030693,0.19205639,-0.08955026,-0.030583218,0.45195827,-0.024625536,-0.6298442,-0.33100575,0.56387323,-0.045350447,-0.06795475,0.5458768,-0.03375542,-0.08774122,0.22166616,0.091073066,-0.2279357,0.05146029,0.17818785,0.52531564,0.19547868,0.23355272,0.37732518,-0.28987193,0.10018296,-0.38966188,-0.14616579,0.16492528,-0.55172586,0.17467512,0.20536864,0.0964545,0.36413303,0.03466103,-0.038879022,-0.4246319,0.33758128,-0.023992445,-0.13904531,-0.09072862,0.3203664,0.13082442,-0.27209052,-0.207519,0.07511918,0.12455891,0.06012886,0.09697094,-0.31493437,-0.17003791,0.3772426,-0.50723267,-0.3713938,-0.3401474,-0.15416235,0.21874768,0.19109863,-0.094193004,0.10642141,-0.03471557,0.01743636,-0.25417092,-0.0557079,0.20676088,-0.031779412,-0.013109256,-0.13561648,-0.1465488,0.16877732,-0.26529017,-0.12578566,0.09051947,0.19066283,0.01830218,0.37111944,-0.050431103,0.053173833,0.14575192,0.15629216,0.0216729,-0.14468494,0.083490886,0.36646765,-0.008670658,-0.21291927,0.36333102,-0.108880185,0.04442385,-0.16646475,0.06452559,0.06585607,-0.22423926,0.1397264,0.014880981,-0.17928326,0.34821066,0.2534284,0.38963395,-0.0068924427,0.09207322,0.2085363,0.038508594
e,-0.22937047,0.2946757,0.101764604,0.5392403,0.39799583,-0.3207761,-0.09341699,-0.14106432,0.15146814,-0.08689201,0.22283319,-0.1463307,0.1179529,-0.17552796,-0.20023945,0.006533835,0.6101376,-0.27467388,0.20309886,0.28895423,-0.021511622,-0.070532404,-0.1949566,0.24316025,-0.060723267,-0.40172133,0.049324542,0.15553069,0.18024242,-0.030020915,-0.09940268,-0.094630264,0.014161825,0.49452996,0.050969385,0.23554146,0.011693697,0.074366316,0.23130965,0.56408215,-0.05929167,0.017009355,-0.015291817,-0.028722145,-0.013623014,-0.09692758,-0.16420764,-0.08021925,-0.3850016,0.16901512,0.17667945,-0.07200359,0.10043014,0.2171692,0.16058615,0.155227,0.049910188,-0.07404767,0.15401393,-0.10109308,0.03733796,0.24397808,0.10776542,-0.036845762,0.2580802,0.13501993,-0.17404369,-0.13899663,-0.23976117,0.023097754,0.08850342,0.05099176,-0.2526207,-0.0526444,-0.25552142,0.13369006,0.3942138,-0.42273915,0.10140516,-0.35020155,-0.45156038,-0.28047517,0.17704147,-0.2042731,-0.036697224,0.16243485,0.3676548,-0.19847713,0.05282566,-0.08476591,0.37755436,-0.05787527,0.23763764,0.23872423,0.3303488,0.2918667,0.6160953,0.20055114,0.15566099,-0.44321358,0.81210595,0.20397687,0.068367586,-0.1244597,0.3731683,0.030821327,-0.23535317,-0.33850172,0.058621116,0.29200074,-0.098938145,-0.22138697,-0.009304568,-0.33739954,0.338476,-0.09054166,-0.22685516,0.16704613,-0.49249768,0.018810034,-0.57573366,0.100077815,-0.12605527,0.076035775,-0.20822644,0.25636607,0.3468652,-0.13730079,0.18861756,-0.4008021,0.1065007,0.12918334,0.3430327,-0.0060863085,-0.2749809,0.09019264,-0.533469,0.085843995,-0.20423666,0.23336436,0.21890892,-0.060139608,0.3576269,0.49920726,-0.029423084,-0.22339168,0.19577196,-0.5711328,0.1312859,0.0010093674,-0.4756654,-0.094085336,-0.14691052,0.023025867,-0.09923969,-0.31670353,-0.16463962,0.030006908,-0.07344001,0.5166784,0.36749676,-0.2860494,-0.09984177,-0.07133357,-0.20965257,0.284078,-0.30581897,-0.18707918,0.13051844,-0.51573014,-0.16451433,-0.014707379,0.4409711,-0.35489213,-0.09093356,0.17751577,0.7143693,-0.29261822,0.0680677,0.14429206,0.07310688,0.08689012,-0.05125375,0.12155372,-0.14880499,0.35144728,-0.018224442,0.087571226,0.33877948,0.21258977,-0.06313217,0.19693619,-0.058303088,-0.3850937,-0.19585122,0.062932916,-0.31804982,0.037182413,-0.10434899,-0.027828604,0.065430656,0.32552108,-0.082120225,0.36196092,-0.5073102,0.09151259,0.29204997,-0.117143676,-0.47703966,-0.05779034,-0.12109196,-0.20369524,-0.047228098,0.1379624,0.46410125,0.39162713,0.062487483,0.27272835,0.21231163,0.033071835,-0.07323267,-0.29054955,0.029554017,0.015752297,-0.27608535,-0.06587543,0.015688961,0.39572802,0.08486701,-0.5029385,0.2097295,0.15893011,0.0009952858,0.11834203,0.23438096,-0.38110322,0.25584748,0.342386,0.41220397,-0.6065952,0.0340287,-0.4882365,0.46285006,0.01626774,-0.21548125,0.3784198,0.5186769,-0.6075411,-0.10417872,0.023404606,-0.08463876,-0.214962,0.09847861,0.25226712,-0.15519965,-0.28147486,0.00078725815,-0.39607632,0.26859662,0.4745512,0.15685093,-0.18614164,-0.3045413,0.3483737,0.18120572,-0.048940644,-0.010511842,-0.45124424,0.005279172,0.0098804645,0.24239564,-0.017711818,-0.059612893,-0.1509986,-0.2779494,0.20759466,-0.29046258,-0.050274387,-0.1561564,0.28534168,0.2773507,-0.0070711076,-0.101205274,-0.1744229,0.088963985,-0.05031603,-0.33266407,0.18021607,-0.32089913,-0.086470045,-0.37759864,-0.080026515,0.087377734,-0.17298557,-0.0026985668,-0.06026399,0.29527107,-0.1504802,0.03631697,0.033869,0.4607556,0.3388824,0.24256256,-0.27480918,0.14881837,-0.25946456,-0.019025467,-0.5598354,0.38477778,-0.017282225,0.059670307,-0.07026135,-0.31580842,-0.118515424,-0.0599261,0.15262482,0.28293765,-0.043248802,0.23208928,0.053848937,-0.37353203,0.16783345,-0.3546791,0.15040301,-0.12549353,0.30292216,0.13394983,-0.3850182,-0.11396012,-0.1965955,0.39386392,0.033460435,-0.3324216,-0.038561214,0.089321956,0.03369583,-0.69942206,0.09156249,0.08371708,0.09702007,-0.47660556,0.52803385,0.3028622,-0.05422931,-0.071136445,0.12239593,0.008239482,0.19651973,-0.57592744,-0.31096533,-0.19809666,-0.24604204,0.12579453,0.24946713,0.21342382,-0.22690111,-0.1695118,0.042342953,-0.38232416,0.34208775,0.22453825,0.14841948,0.4964528,-0.42185816,0.058220312,-0.10709859,-0.055204287,-0.13199285,0.30710527,-0.26371044,-0.63656956,0.23691928,-0.22828719,0.08823177,-0.1783667,-0.04429764,-0.24933177,0.33288914,0.27063537,-0.23950836,-0.014359109,-0.051834114,-0.08964579,0.19773355,0.4220312,0.12368767,0.18131542,-0.29274786,-0.04392318,-0.48878622,-0.1339341,0.07928082,0.2957126,0.19352183,0.50219834,-0.53027844,-0.35131013,0.18672207,0.34904462,0.020874735,0.28673533,-0.3364845,-0.1029801,-0.29302657,0.03834311,-0.3318688,-0.071035415,-0.07896585,0.21781214,-0.006610062,0.1706174,-0.12780191,-0.09127959,0.15498848,0.114741094,-0.24351867,0.42604637,0.50982594,0.08397748,-0.16593978,0.5999936,-0.08131101,-0.058775,0.24338764,-0.119920924,-0.4598509,0.15326536,0.079091296,-0.12188111,-0.3194201,-0.1835331,0.42402312,0.36069924,0.1968115,0.68173665,-0.3282302,-0.75262654,-0.06611181,-0.33019418,0.26743972,-0.07770542,-0.0049529,0.5987244,0.1436439,0.2505442,-0.17354342,0.012772199,0.39599568,-0.4597093,-0.12810528,0.134942,0.06395097,0.21244442,-0.14100039,0.5070857,0.07757386,-0.059083,-0.03558468,0.03701651,-0.3613999,0.09825216,-0.20968571,0.071789816,-0.21640807,0.53709614,0.488619,0.48879197,-0.2878701,0.04683668,0.41062835,0.33950984,-0.0069686994,0.26369447,0.14756453,-0.12611459,-0.33463535,0.35114214,0.100667074,-0.41917735,0.15955627,0.24407049,-0.050383322,-0.44518733,-0.20875454,-0.24268027,0.025208063,-0.03839524,0.5304406,-0.11082241,0.19052619,-0.07883527,0.2641288,-0.1510371,-0.22655803,0.39384764,-0.06805702,-0.030148126,-0.057304826,0.11187149,-0.24122086,-0.75245893,-0.114825256,-0.38917002,0.18518591,0.13682103,0.040403333,0.14968094,0.2770364,0.6161595,0.010942638,0.02911647,-0.34112436
f,-0.058069635,-0.20848227,-0.38697153,0.108195774,0.5059979,-0.39709648,0.3738074,0.008950718,0.27128175,-0.0019606203,-0.6288683,-0.34987736,0.08645435,-0.100712545,0.71330863,0.4779824,-0.5225866,0.08059194,0.33060586,0.2668052,0.16496754,-0.2887949,-0.1025086,0.11893389,0.40613055,-0.011658236,0.080291554,0.25002307,0.06630758,-0.09036342,-0.47544116,-0.11381327,0.19075963,-0.24648733,0.06489812,0.045285597,-0.048004184,0.3150009,-0.116104305,0.011543119,-0.23184994,-0.12049585,-0.06340466,0.13828117,0.22964126,0.1611612,0.3258665,0.22330046,-0.05218137,-0.27927798,0.36001062,-0.16189253,0.08315695,0.05607146,-0.20051269,-0.42005688,-0.25830004,-0.14861882,-0.20928997,0.11961427,-0.2531115,0.19966361,-0.0007463619,0.5130351,-0.25995746,-0.13429514,0.27804515,-0.38525504,-0.1656979,-0.41087714,-0.15932156,0.43615076,0.026836425,0.3142272,0.29956257,-0.1692814,0.3268138,0.23370287,-0.8377304,0.26462337,-0.16037026,0.08206096,-0.2622168,0.20939288,0.09236503,0.028012618,-0.31406775,0.026345573,0.0073531717,0.19985805,-0.024506025,-0.14175305,-0.6085279,0.31453222,0.40800226,0.4992717,-0.10532063,0.049020655,0.013526525,-0.11622301,0.19073528,0.3818448,-0.0011948347,0.27833152,-0.04934813,0.45799664,-0.14952835,-0.032501336,0.46174312,0.23409273,0.3227944,0.11615074,-0.22700775,0.04869695,0.104595214,0.398875,0.250573,0.32801878,0.38351375,0.08152139,-0.23294437,-0.18504408,-0.39191335,-0.056538768,-0.21258867,-0.1724517,0.30306974,-0.009705067,-0.2965384,0.19740488,-0.09340287,-0.42671752,0.2388992,-0.19808617,-0.3985945,0.20213237,0.46954998,0.4454834,-0.23305804,-0.017448643,-0.10412869,0.23963533,-0.42959017,-0.039918527,-0.008471436,0.07983293,0.32863837,0.0005915761,-0.6169502,-0.050356723,-0.47795054,0.3533216,-0.2719363,-0.37151605,-0.18342623,0.13805413,0.4453178,0.79005945,0.3398629,0.15350468,0.3529633,-0.5152077,-0.47972918,-0.26743534,0.101421766,0.09271411,0.29386017,0.022670068,-0.12581405,0.5492898,0.3309421,-0.22272676,-0.09822045,0.13483706,-0.13555433,-0.12197909,-0.029722713,-0.6192577,0.22687083,-0.2637877,0.3028226,-0.040523984,0.06670402,0.32968894,0.37776428,0.07650388,0.4126777,0.76751155,0.18558413,-0.029228404,-0.38845152,0.24635822,-0.06583486,0.65008765,-0.056553923,0.28168198,0.24598661,-0.25299072,-0.1720469,-0.35673225,0.23953931,0.08880635,-0.052790083,0.11245656,-0.009123009,0.010213397,0.023083508,-0.15736526,-0.6111293,0.16785018,-0.25265828,0.26080823,0.21332125,-0.11471689,-0.11071255,0.030227922,-0.117058836,0.11015428,0.15242293,-0.05035284,-0.12972319,-0.2905895,0.016376957,-0.20164093,0.2823224,0.15908888,-0.32956946,0.4558188,-0.03713388,-0.26486245,0.30077827,0.16456941,0.19626047,-0.0058677867,-0.17976274,-0.19100487,0.054177336,0.15048535,-0.3885969,-0.14258367,0.130703,-0.14557987,0.38987976,-0.034658484,0.30698377,0.006010443,0.37441373,0.19618693,-0.16936734,0.4314756,0.133459,0.66322154,0.15813482,-0.15146947,0.22696704,-0.6859211,0.12868884,0.2740826,0.4168431,-0.085238956,0.35051852,0.17659938,0.010046532,0.08414017,0.39256978,-0.07730592,0.08400048,-0.54528093,0.5092698,0.009762052,-0.16352825,-0.44232443,-0.09307016,-0.3804484,0.48513433,-0.40320432,-0.049061395,0.00014558434,-0.34279653,0.1877856,0.18638584,-0.05726664,-0.07677785,-0.57002604,-0.21596822,0.09748595,-0.5271551,-0.0063593574,0.091000475,0.21688187,-0.24649319,0.3313594,0.0027738363,-0.07607786,0.6328266,-0.03561939,-0.33706567,-0.3241748,-0.23500896,-0.041553117,0.042709015,-0.12320263,0.060141362,0.029679425,-0.0059375204,0.27619377,-0.055038348,0.061366297,0.13009897,-0.05335792,0.26584435,-0.33992782,0.09991653,0.0055832323,-0.13722014,0.14366588,0.38165325,0.06633554,0.52462447,-0.2822372,-0.28430104,0.12090087,-0.30588967,0.09903282,0.08688211,-0.03662215,0.37265328,0.1242153,-0.017859526,0.687657,-0.009244407,0.37583998,-0.21992327,-0.62043566,0.63035405,0.038247116,-0.19208324,-0.086500876,-0.13845423,0.028247327,0.05622117,-0.17486054,0.1277386,0.061554663,0.22115093,0.20179445,0.20112088,0.17145006,-0.2504292,-0.0532121,-0.2369277,-0.41054046,0.23549709,-0.32736832,0.22805178,-0.09549498,0.050785672,0.20165807,-0.34169093,-0.13902712,0.16973697,0.51024896,-0.3294273,-0.01821988,-0.22440127,0.25944793,-0.11309092,-0.15189749,-0.13974395,0.1381563,-0.19998585,0.29716992,-0.02682821,0.34973547,-0.3459481,0.5418293,0.05828216,-0.15892816,-0.13644055,-0.0033363663,-0.10155485,-0.07392204,-0.25276464,0.48074853,-0.023120742,0.15607192,-0.009092443,0.525658,-0.44094864,-0.4713179,0.051136356,-0.11764604,0.21445006,0.030741058,0.0330291,-0.004246518,0.32677203,0.67186356,0.13802302,0.10512809,-0.15076011,-0.4277181,0.0888152,0.7391244,0.3985933,0.29381803,0.22893663,-0.33325982,0.006907288,-0.14859515,-0.31365424,0.33128297,-0.19594136,-0.21788833,0.021356385,-0.22352052,-0.06931491,0.049966305,0.30924907,0.07876346,0.22855757,-0.11000531,0.24460985,0.20580849,-0.13221793,0.26305866,-0.28057614,-0.34397858,0.24435654,-0.27520135,-0.096801974,0.32116216,0.49782062,0.31860662,-0.08592324,-0.4277433,0.11173787,-0.04444789,-0.021604009,0.18734671,-0.35764495,0.5002072,0.3655741,0.44462526,0.5056215,-0.0375118,-0.10737807,0.37039798,-0.56136984,-0.2481964,0.2761405,-0.010221168,-0.039031647,0.14958365,-0.25218686,0.36523008,-0.0989607,0.025750495,-0.14462139,-0.22352032,0.05267308,0.18629329,-0.08476864,0.58473295,0.41155896,0.15314445,-0.18215111,-0.34735227,-0.60767734,0.01151783,-0.10959316,-0.15916377,-0.34784183,0.2232151,-0.20282161,-0.108252496,0.60614896,0.06660913,-0.16641244,0.6495839,-0.1634135,0.26869756,0.33336684,-0.36903802,-0.255842,-0.04466211,0.24290007,-0.05433055,-0.2524895,-0.013522461,0.022180244,0.21069908,0.21056154,0.31225768,-0.070011534,-0.17024228,-0.03853538,0.065567404,0.24954745,0.3866645,0.35767788,-0.07351043,0.16746828,-0.2410348,0.0753083,0.25802755,-0.109162614,-0.39597946,-0.32065165,-0.1250172,0.20125324,-0.2514065
g,0.21356672,-0.608042,0.42943236,-0.1469137,-0.013566218,0.056719698,0.1006324,0.1628016,0.14046241,0.35548672,-0.29377627,-0.22849157,-0.062155657,0.1761336,-0.27186236,-0.019787952,-0.16337165,-0.4012704,-0.08008271,0.007805653,0.0054488126,0.34449685,-0.19268161,0.297102,-0.23514886,-0.10107805,-0.18449661,-0.23694617,-0.13806728,0.16005513,0.36965322,0.45419598,-0.0032525882,0.23569544,-0.22337434,0.36089018,-0.027792953,-0.43551862,-0.27441624,-0.19505113,0.25424492,-0.32016176,0.0029062405,-0.043153863,0.4232203,0.27717453,0.36018133,0.14194131,-0.22943236,-0.0038490146,0.28776628,-0.14486375,-0.29668835,0.46052608,0.357103,-0.25447732,0.07973211,0.2710718,0.086958736,-0.39623177,-0.6090361,-0.0814595,-0.33134568,-0.6734784,-0.11199894,0.21934548,0.002569534,0.4241344,0.22088805,-0.6235197,-0.09630859,0.5010078,-0.120482504,0.22317302,0.33391854,0.25875625,-0.27368835,0.12500782,0.015294222,-0.25642323,0.06336307,-0.75216055,-0.026185084,-0.14896932,-0.27105322,-0.113647774,-0.22596866,0.042166717,-0.11938887,0.388784,0.11390934,0.10863799,0.089510016,0.2236886,-0.28681847,0.18557611,0.010625297,0.13485026,-0.42954358,-0.18486387,0.04323121,0.01023341,-0.15725282,0.40193433,-0.13813859,0.34422258,0.18367097,-0.22641675,0.18931034,-0.08466351,-0.24642265,-0.15733598,0.076822884,-0.14364567,-0.10315415,0.29627806,0.42613518,-0.17735729,-0.08442778,0.23488012,0.09586601,0.09094796,0.17995846,0.43316323,-0.62453574,-0.027110524,0.367592,0.3417322,0.14096169,0.1943598,0.357952,0.27292788,0.25652128,-0.13192225,-0.11481223,-0.12399246,-0.18763894,-0.13355076,0.19901185,-0.2568027,-0.37038404,-0.23683858,0.6563438,-0.016236657,0.48513842,-0.14201349,0.13149753,-0.27347067,0.30365828,-0.23117337,0.07277551,-0.14478703,0.020048454,0.3602402,0.16895008,-0.2019355,0.35526806,-0.1926766,0.31532127,0.032489076,0.23845446,0.1904327,0.29191035,0.047688507,0.3919975,0.031523008,0.28968903,-0.4843933,0.38225505,0.121651456,-0.017637251,-0.0053472146,-0.41092545,0.058694407,-0.02695551,-0.20785731,-0.37396157,-0.07943943,0.2458663,-0.16878986,0.21426632,-0.4186742,0.16302052,-0.13013229,-0.010420006,0.01693641,-0.13911083,-0.0991044,-0.11089184,0.027101316,-0.14050952,0.3231074,-0.07691698,0.2250492,-0.082025126,-0.019997194,-0.18246292,-0.01192601,0.27337384,0.12528577,0.22667216,0.24900946,0.14251582,0.118570484,0.039915517,-0.3092245,-0.5044654,0.06710453,-0.0435032,-0.3229068,0.0024252087,-0.13435982,0.21445493,-0.16484489,0.11846385,-0.1397695,0.2753512,0.36017302,-0.122305036,-0.344713,0.069896325,0.08902617,-0.19886601,-0.37171233,0.533852,0.026083075,-0.009860631,0.17594221,-0.28183085,0.0014381595,0.26592767,-0.0030386113,0.3193471,0.22523098,0.23535262,-0.14859721,-0.4281756,-0.12865692,0.3481963,-0.4548421,-0.38395742,0.321042,0.25916868,-0.20073715,-0.33660728,-0.086800866,-0.08161242,0.3436716,-0.21846527,0.006519772,0.31409496,0.025021117,-0.1493971,0.0051349625,-0.034558795,0.090542026,0.46116534,-0.10234162,-0.07043422,0.15309736,-0.15112743,-0.027589284,-0.42535585,-0.28308085,0.29091933,0.19803046,0.15322262,0.017888542,0.2318895,0.23453215,-0.2725649,-0.28369126,-0.2118572,0.010764644,0.2673492,-0.1658476,-0.05105175,0.13951114,-0.057320286,0.175324,0.46827286,0.07401202,-0.09321255,-0.36042094,-0.061138008,0.23529127,-0.24382234,0.4074919,-0.026338324,-0.22749609,0.39590022,0.30607125,0.079296075,-0.17943954,0.28839177,0.5223028,-0.22645319,-0.08122816,0.3194989,-0.49629572,-0.55683833,-0.02982504,0.021696027,-0.09735679,0.035626426,-0.2113961,0.55408925,0.07537114,0.5252584,0.07296013,-0.3399668,0.27891892,0.11770012,0.23892076,0.4124542,-0.074338526,-0.058193475,0.06717056,-0.24071948,0.0785698,-0.14404476,0.5529915,-0.5087719,-0.23350659,-0.001731921,0.0015903376,-0.24165583,0.31889266,0.00630245,-0.13644531,-0.014242679,-0.08688435,-0.47687864,-0.1002744,0.34203464,0.14453909,0.081782416,0.14376244,0.07781744,0.09714715,0.02674323,0.10342253,-0.0012267567,0.052509394,-0.16234772,0.50561243,0.23065835,-0.14688344,0.035426512,0.12509122,-0.10704902,0.18270186,-0.22842309,-0.398317,0.04548274,-0.18870956,-0.031115472,0.22826076,0.22724004,-0.12930484,-0.29588532,0.04715891,-0.4812293,0.38040185,0.121423155,0.128312,0.046847053,-0.3128507,-0.1817626,0.10428298,-0.11425394,-0.26964235,0.2652697,0.017298281,0.060051233,-0.3554868,-0.18198287,-0.6144766,0.23600882,-0.10082322,-0.08182516,0.11110173,-0.21101025,-0.33709782,-0.0010533929,0.08684106,-0.29556584,0.10656089,-0.1338014,0.08511408,0.077245936,0.27631575,0.41918907,0.012165032,-0.177524,-0.25363046,0.07329631,-0.2815917,-0.43692058,-0.124135904,0.037922964,0.47879905,-0.082243174,0.004917778,0.0072258264,0.47075337,0.041997496,0.118013665,-0.2944816,0.34987047,-0.4651699,-0.15806055,0.48957238,-0.15968719,0.48309723,-0.11347528,0.40083084,0.21430442,-0.027898245,-0.03638181,0.17308024,0.14999115,0.009912804,0.2655373,-0.6185953,-0.43976587,0.3137791,-0.37653905,-0.107244745,0.1921305,0.37268046,-0.20000193,-0.3645953,0.09078709,-0.11484204,-0.10374962,-0.15387623,0.24856383,0.3064164,-0.2975893,-0.32415202,0.13245428,-0.4290312,0.22542945,-0.17107135,-0.07290782,0.102371894,0.013045695,-0.099716395,0.20140442,0.19581679,-0.23005342,-0.08356574,-0.266596,-0.23268136,0.29945529,0.00837611,-0.19382691,-0.3441503,-0.44671768,0.29024655,0.043719135,-0.52726126,0.0023671836,0.03820569,-0.1452114,0.17820832,0.3031253,-0.8391632,0.50196254,0.17634727,0.15457202,-0.2290126,-0.26533836,0.31272364,-0.17436333,0.09141575,-0.055176735,0.17541024,0.0508572,0.25620115,0.076692164,0.052908678,-0.13760415,0.39307502,0.06855131,-0.20996988,0.33811703,-0.010326529,0.29594114,-0.054731898,-0.04646171,-0.49105036,-0.15512884,-0.023815125,-0.14959997,0.5300098,-0.10072451,0.55854195,-0.18696904,0.25187472,-0.010941617,-0.19065252,-0.048585467,-0.10432376,0.098993346,-0.010149132,-0.3379568,-0.204766,0.06358554,0.35815465,-0.14639392
h,-0.1679903,0.21476704,0.00074514747,-0.014909051,0.28512064,-0.40063286,0.05728908,-0.088766105,0.013954319,0.02444239,-0.07343371,-0.17443588,0.4547585,0.30383348,0.34483775,0.067126974,-0.16806781,-0.21062429,0.42533034,0.019895826,-0.029028144,-0.4888432,0.13044944,0.16058576,0.0026235394,0.34693763,-0.06028592,-0.07450492,-0.18945068,-0.16356617,-0.08862705,-0.13167325,-0.03460404,0.32136565,0.022136413,-0.05062642,-0.3197929,0.013917491,0.062402166,0.07722754,0.12689155,-0.0517218,-0.22149593,-0.39834732,0.012973897,0.45177636,-0.0890472,-0.2635275,-0.19732285,-0.6450823,0.21464637,-0.025120586,0.19590962,-0.14969808,-0.022384254,-0.42395496,-0.26881808,-0.040069856,0.3875464,-0.090875044,-0.1650053,-0.07842385,-0.03128638,0.080921516,0.0038954988,-0.06417639,0.43233272,-0.025684133,0.017533097,-0.03253781,0.15259841,0.11947288,-0.18440735,0.27825403,-0.15204802,0.5847568,0.02634602,-0.06231592,-0.4383729,0.06702363,0.27777463,-0.0049902797,0.0069897175,-0.10694004,0.1743048,-0.30546325,0.21588507,-0.12191427,-0.17770228,0.11596635,0.012656927,0.18906339,-0.031966813,-0.1966039,-0.042604484,-0.086736,0.21685329,0.14577231,-0.52419305,-0.42876032,0.30146977,0.07783999,0.78648925,-0.3939028,-0.07519893,0.22858465,0.19872174,0.16103405,-0.14321432,0.08358598,-0.001299195,-0.3509966,0.29064462,-0.14787081,-0.15125062,-0.27136183,0.040437773,0.108303554,-0.15575525,-0.3605807,0.15758595,-0.1607148,-0.015735002,-0.11410012,0.15919566,-0.024149,0.1415893,0.27737933,-0.20381719,-0.058831636,0.057146706,0.23072207,0.27316636,-0.077005535,-0.22093497,0.07595138,-0.15574428,0.061775565,-0.021651894,-0.08659062,-0.08579188,0.039835956,0.20089075,0.3994621,0.13747925,0.09607901,-0.22998282,-0.16146776,0.07409114,0.22986189,0.18589011,0.27578568,-0.22971012,0.16165325,-0.25161895,0.011835605,0.17020333,0.26334554,0.33881232,0.13247794,0.14654842,-0.13773514,-0.1874219,0.16639408,0.13735554,0.10497811,-0.119426206,0.07366278,0.14320382,0.06099619,-0.027929984,0.22778684,0.066686556,-0.18856418,-0.43804842,0.22468947,-0.18210422,0.006339915,-0.12343364,0.3084715,0.15867446,0.2771027,0.27007425,0.2122986,-0.0029780418,-0.051541373,0.07589639,0.3816072,-0.056423567,-0.2804639,0.19418634,-0.088170104,-0.22358641,0.054763444,0.07914166,0.27077767,0.025051646,0.022263769,-0.33944207,-0.2228092,-0.08980539,-0.16684744,0.25462633,-0.08103074,-0.2697161,-0.14063397,-0.108318485,0.117104165,0.1424456,0.020288125,-0.14056003,-0.27126393,-0.02733083,-0.18110198,0.10449263,-0.029174201,0.29056293,0.117253594,-0.038758416,0.18844861,-0.3971063,0.026034053,-0.17476451,0.23943657,-0.283059,0.19137752,0.16278951,0.012837183,0.23884973,-0.34756082,-0.27625328,0.14474206,0.2505683,-0.4254229,-0.02031738,0.09249914,0.50899005,0.16370453,0.025750883,0.23314965,-0.058844004,-0.11921172,-0.010879878,-0.015509922,0.12046842,-0.19578505,0.1554474,0.01986304,0.36406878,0.2895458,-0.12547168,0.07092123,0.1520592,-0.014613565,0.5488851,-0.12589371,-0.081539206,0.22690108,0.20233276,0.14751573,0.25019026,0.3562056,-0.11368642,-0.109603085,-0.21137328,-0.17740877,-0.056641713,0.31487745,-0.19082816,-0.09869752,-0.220289,-0.070692174,-0.12328645,-0.54318076,0.13101646,0.32719302,-0.1335881,-0.08254214,-0.48010182,0.15582475,-0.035172053,-0.42095894,-0.045511354,-0.04551607,0.030839361,-0.08889166,-0.28257203,0.32618177,0.18748948,0.0014300644,0.18260616,0.10758813,0.17229396,-0.34899536,-0.17253536,-0.032949727,-0.14702617,-0.3608565,0.31248495,0.21360123,-0.012921013,0.09032921,0.14120086,-0.08778923,0.13776202,0.2726999,0.057647992,-0.5863535,-0.35407448,-0.015887305,-0.26594588,-0.5020646,-0.38952902,-0.044253193,-0.28774044,0.41905314,0.027401555,0.06950779,0.0007943623,-0.28125334,-0.3227496,-0.40423614,-0.26775762,0.19622938,0.27517763,-0.44835725,0.13877733,-0.1915574,-0.49019235,0.24425374,0.069209725,0.078380704,-0.093856804,0.2526685,0.106321424,-0.07349888,-0.41181022,-0.044030823,0.0019486919,0.07939816,0.0575677,-0.27115682,0.34595266,-0.5310535,0.03141988,0.20494613,0.28338864,-0.20179993,0.07135569,-0.2849834,-0.24189363,-0.18235523,0.10040746,0.06920238,0.21683022,-0.013384804,0.0068354458,-0.16867003,-0.054881006,0.3131387,0.1989733,0.26864165,-0.154987,-0.15822363,0.09380348,-0.0724028,-0.06545983,-0.005953121,0.44468865,-0.1791409,-0.70440423,-0.16505232,-0.17280313,0.21067548,0.18450691,0.08165255,-0.05504059,0.17818365,-0.46368343,-0.4487284,-0.007050894,0.010292616,0.014236279,-0.056364417,-0.16106242,0.004036531,-0.12923977,0.22999382,-0.397384,-0.011766136,0.44835582,-0.27065068,0.25734547,-0.34046885,0.25848514,0.14041337,0.110059336,0.03864295,0.09836336,0.061317183,0.30935594,-0.32174897,-0.15671219,-0.052064158,-0.0046678334,0.09138983,0.37352896,-0.5944269,-0.1203668,0.016244143,-0.1284539,0.037937004,-0.49647465,-0.22963862,-0.037574865,0.10495643,0.23275682,0.011857692,0.17107287,-0.28314763,0.39971262,0.17958696,-0.13467292,-0.0965699,-0.17700659,0.3742562,0.46362954,-0.16380316,0.08498222,-0.3041221,-0.14694336,0.43010643,0.035029367,-0.043984517,-0.0761296,-0.18283959,-0.18502662,-0.2952981,-0.5408525,-0.15646727,0.028235598,0.061622057,0.17427924,0.29610384,0.3381671,0.29513964,0.22052586,0.24170159,-0.14555752,-0.07018008,-0.40691906,0.28295848,0.38625994,-0.22524837,0.17299607,-0.113036335,-0.19180109,-0.012307346,0.43357408,-0.012740314,-0.48757032,0.017743487,0.3704184,0.08952772,-0.23169217,0.1817837,0.03342355,-0.24772325,0.043604523,0.4016875,0.07873152,0.32158628,0.031098794,0.05839306,0.0020473786,-0.63059443,0.09241485,-0.16660653,-0.39662975,0.0011530742,-0.16314657,-0.044496648,-0.047325753,-0.46868578,-0.13552713,-0.035670884,-0.5565667,-0.0025816932,-0.0699774,0.3918349,0.22553584,0.0426398,0.06830768,-0.57127345,0.8573721,-0.27548584,0.5055707,-0.4242953,0.40178984,0.43800792,-0.031339124,-0.29499763,0.035671867,0.13164093,-0.025108628,0.25338385,0.04936195,-0.26390156,0.14014772,0.08318722,0.22047248,0.22652352
