DiseaseID,feature_1,feature_2,feature_3,feature_4,feature_5,feature_6,feature_7,feature_8,feature_9,feature_10,feature_11,feature_12,feature_13,feature_14,feature_15,feature_16,feature_17,feature_18,feature_19,feature_20,feature_21,feature_22,feature_23,feature_24,feature_25,feature_26,feature_27,feature_28,feature_29,feature_30,feature_31,feature_32,feature_33,feature_34,feature_35,feature_36,feature_37,feature_38,feature_39,feature_40,feature_41,feature_42,feature_43,feature_44,feature_45,feature_46,feature_47,feature_48,feature_49,feature_50,feature_51,feature_52,feature_53,feature_54,feature_55,feature_56,feature_57,feature_58,feature_59,feature_60,feature_61,feature_62,feature_63,feature_64,feature_65,feature_66,feature_67,feature_68,feature_69,feature_70,feature_71,feature_72,feature_73,feature_74,feature_75,feature_76,feature_77,feature_78,feature_79,feature_80,feature_81,feature_82,feature_83,feature_84,feature_85,feature_86,feature_87,feature_88,feature_89,feature_90,feature_91,feature_92,feature_93,feature_94,feature_95,feature_96,feature_97,feature_98,feature_99,feature_100,feature_101,feature_102,feature_103,feature_104,feature_105,feature_106,feature_107,feature_108,feature_109,feature_110,feature_111,feature_112,feature_113,feature_114,feature_115,feature_116,feature_117,feature_118,feature_119,feature_120,feature_121,feature_122,feature_123,feature_124,feature_125,feature_126,feature_127,feature_128,feature_129,feature_130,feature_131,feature_132,feature_133,feature_134,feature_135,feature_136,feature_137,feature_138,feature_139,feature_140,feature_141,feature_142,feature_143,feature_144,feature_145,feature_146,feature_147,feature_148,feature_149,feature_150,feature_151,feature_152,feature_153,feature_154,feature_155,feature_156,feature_157,feature_158,feature_159,feature_160,feature_161,feature_162,feature_163,feature_164,feature_165,feature_166,feature_167,feature_168,feature_169,feature_170,feature_171,feature_172,feature_173,feature_174,feature_175,feature_176,feature_177,feature_178,feature_179,feature_180,feature_181,feature_182,feature_183,feature_184,feature_185,feature_186,feature_187,feature_188,feature_189,feature_190,feature_191,feature_192,feature_193,feature_194,feature_195,feature_196,feature_197,feature_198,feature_199,feature_200,feature_201,feature_202,feature_203,feature_204,feature_205,feature_206,feature_207,feature_208,feature_209,feature_210,feature_211,feature_212,feature_213,feature_214,feature_215,feature_216,feature_217,feature_218,feature_219,feature_220,feature_221,feature_222,feature_223,feature_224,feature_225,feature_226,feature_227,feature_228,feature_229,feature_230,feature_231,feature_232,feature_233,feature_234,feature_235,feature_236,feature_237,feature_238,feature_239,feature_240,feature_241,feature_242,feature_243,feature_244,feature_245,feature_246,feature_247,feature_248,feature_249,feature_250,feature_251,feature_252,feature_253,feature_254,feature_255,feature_256,feature_257,feature_258,feature_259,feature_260,feature_261,feature_262,feature_263,feature_264,feature_265,feature_266,feature_267,feature_268,feature_269,feature_270,feature_271,feature_272,feature_273,feature_274,feature_275,feature_276,feature_277,feature_278,feature_279,feature_280,feature_281,feature_282,feature_283,feature_284,feature_285,feature_286,feature_287,feature_288,feature_289,feature_290,feature_291,feature_292,feature_293,feature_294,feature_295,feature_296,feature_297,feature_298,feature_299,feature_300,feature_301,feature_302,feature_303,feature_304,feature_305,feature_306,feature_307,feature_308,feature_309,feature_310,feature_311,feature_312,feature_313,feature_314,feature_315,feature_316,feature_317,feature_318,feature_319,feature_320,feature_321,feature_322,feature_323,feature_324,feature_325,feature_326,feature_327,feature_328,feature_329,feature_330,feature_331,feature_332,feature_333,feature_334,feature_335,feature_336,feature_337,feature_338,feature_339,feature_340,feature_341,feature_342,feature_343,feature_344,feature_345,feature_346,feature_347,feature_348,feature_349,feature_350,feature_351,feature_352,feature_353,feature_354,feature_355,feature_356,feature_357,feature_358,feature_359,feature_360,feature_361,feature_362,feature_363,feature_364,feature_365,feature_366,feature_367,feature_368,feature_369,feature_370,feature_371,feature_372,feature_373,feature_374,feature_375,feature_376,feature_377,feature_378,feature_379,feature_380,feature_381,feature_382,feature_383,feature_384,feature_385,feature_386,feature_387,feature_388,feature_389,feature_390,feature_391,feature_392,feature_393,feature_394,feature_395,feature_396,feature_397,feature_398,feature_399,feature_400,feature_401,feature_402,feature_403,feature_404,feature_405,feature_406,feature_407,feature_408,feature_409,feature_410,feature_411,feature_412,feature_413,feature_414,feature_415,feature_416,feature_417,feature_418,feature_419,feature_420,feature_421,feature_422,feature_423,feature_424,feature_425,feature_426,feature_427,feature_428,feature_429,feature_430,feature_431,feature_432,feature_433,feature_434,feature_435,feature_436,feature_437,feature_438,feature_439,feature_440,feature_441,feature_442,feature_443,feature_444,feature_445,feature_446,feature_447,feature_448,feature_449,feature_450,feature_451,feature_452,feature_453,feature_454,feature_455,feature_456,feature_457,feature_458,feature_459,feature_460,feature_461,feature_462,feature_463,feature_464,feature_465,feature_466,feature_467,feature_468,feature_469,feature_470,feature_471,feature_472,feature_473,feature_474,feature_475,feature_476,feature_477,feature_478,feature_479,feature_480,feature_481,feature_482,feature_483,feature_484,feature_485,feature_486,feature_487,feature_488,feature_489,feature_490,feature_491,feature_492,feature_493,feature_494,feature_495,feature_496,feature_497,feature_498,feature_499,feature_500,feature_501,feature_502,feature_503,feature_504,feature_505,feature_506,feature_507,feature_508,feature_509,feature_510,feature_511,feature_512
C1,-0.12257443,0.30773577,0.10121218,-0.16336247,0.23306936,-0.12461464,0.3427032,0.08510343,-0.25874737,0.18816224,-0.14919424,0.46671838,-0.23034024,-0.0047769696,-0.1526899,-0.45049655,-0.29823118,-0.07805031,0.0038663484,-0.2082145,-0.32260516,0.15374182,-0.53178906,0.009175856,-0.051407024,0.061948456,0.20449415,0.17092097,-0.5341636,-0.10257714,-0.036124922,0.11225626,-0.36389065,0.07719606,-0.48539627,-0.3373168,0.124841794,0.13712068,-0.07880477,0.32190225,-0.11207709,0.047950324,0.28384632,-0.017454341,-0.23383254,-0.028199159,-0.06465137,-0.2584333,-0.2848572,0.2656478,0.08053509,-0.16878206,0.43596148,-0.13805729,0.5386479,-0.16649091,0.15107444,-0.2534808,0.26855338,-0.5759121,-0.35214642,-0.22161084,0.14439094,-0.26447317,0.17065506,-0.19273263,-0.009724557,0.10886602,-0.2791002,0.28989387,0.28389865,0.05565364,0.2204329,-0.11408998,-0.051474698,0.40922722,0.050788723,0.06297595,-0.117911875,-0.10961041,0.15749472,0.1736896,-0.047194876,0.3326505,-0.22950244,0.52759445,0.32371968,-0.0007343516,0.35698357,-0.34137645,0.32072458,0.4680101,-0.4060578,0.36397967,0.011838436,-0.3305966,0.15817313,-0.046235085,-0.04560662,-0.11859404,0.05434268,0.15174031,0.406143,0.04420314,-0.20735973,0.37618297,0.19409841,-0.17212757,-0.0087483,-0.15880921,-0.1013088,-0.4161351,0.0033164695,0.02878528,0.05600527,-0.22519055,-0.21842,-0.13854048,-0.135822,0.16043973,0.139534,-0.05597596,0.40545836,0.23347372,0.03114064,-0.38446552,0.47744963,0.018147785,0.07256894,0.21746787,-0.18792334,-0.31720668,-0.22046849,0.099304035,-0.15255412,-0.08152754,0.25516286,-0.23280492,0.31056756,-0.003398884,-0.025409058,-0.056681924,-0.3252729,0.017522044,-0.06829181,-0.23376113,0.09051963,0.0018390566,0.07795934,0.26819178,0.047348194,-0.315965,0.2546691,0.22832957,-0.06793406,-0.05826962,-0.11903433,0.4875506,-0.11625254,0.20850185,-0.027909786,0.27530584,-0.22393715,-0.11140943,0.14441437,0.12083762,0.2712798,0.23248827,0.37090975,0.089884534,-0.03877505,-0.070638776,-0.03329473,0.007169679,-0.2869723,-0.124615274,0.10385593,-0.1436018,0.1975876,-0.102237426,0.25221527,-0.20572221,0.045985416,0.42140564,-0.005115252,-0.0016675219,-0.22736579,0.07281686,0.17047334,-0.45943373,0.06398747,-0.16212016,0.11303978,-0.067345776,-0.18967119,-0.33118826,-0.061880823,-0.0051141903,0.18548322,-0.089850776,-0.019244894,0.25712362,0.13880283,0.10501484,0.067561716,0.33286464,-0.41668165,-0.19205937,-0.0882817,-0.37589327,0.16909502,-0.03710474,-0.3635015,0.31558502,0.1179267,0.32161534,0.003898792,-0.41616797,0.113145426,0.09422834,0.15831912,-0.3991032,0.14868668,-0.018112212,-0.047635786,0.28720108,0.003636621,0.011024792,0.30646896,-0.07494476,-0.48025978,-0.27308166,0.32376316,-0.0076080933,0.105552174,0.06479044,0.28732738,-0.064644404,0.2681833,0.6508582,-0.0015663803,0.49624038,0.07594619,-0.12221888,0.71639776,0.28468746,0.0444943,0.13630556,0.029444959,0.06637061,0.15958367,0.0808291,-0.25210547,0.10471548,0.0943622,-0.053362347,0.09078026,0.7317679,-0.05650151,0.18270878,0.07107229,0.2559371,0.15759136,-0.17151648,0.004008461,0.19587293,0.120381236,0.162296,0.19255053,-0.28555757,-0.24333948,0.13017735,-0.015987426,0.5822131,0.0591218,0.11956353,0.038460433,-0.10146004,-0.2755473,0.79051656,0.07325035,0.103396624,0.29601237,-0.04566786,-0.4156714,0.18785137,0.15902701,-0.10012648,-0.15717116,-0.12845755,0.2650071,0.3975967,0.029891036,0.18385115,0.17779484,-0.15242319,-0.18590008,-0.16488805,-0.06887594,-0.2656758,0.22848642,0.076176226,0.3276183,0.31378597,0.07937692,0.05109807,-0.11942446,0.20218587,-0.17997938,0.58927166,-0.13514267,-0.037676394,-0.064387836,0.18205304,-0.21250387,0.14407344,-0.2046271,-0.08397356,-0.16049284,0.17323014,0.15688866,-0.24530791,-0.06534493,-0.23632586,-0.26394486,-0.05214788,0.112556964,0.44728857,0.2713759,0.26772296,0.018484525,0.009931225,0.08225787,-0.32198533,0.05484392,0.0020449758,-0.17351198,0.35500398,0.20487854,-0.07661438,-0.5168978,0.19146839,-0.15741932,0.21228291,0.13894516,-0.2733714,-0.021799259,-0.1939835,0.15004067,0.057466075,0.015838116,-0.05244926,0.19559309,0.2043846,-0.48466864,0.32219917,0.3795202,-0.018717587,0.2692125,-0.113698915,0.49493188,0.7210527,-0.030663453,-0.32052892,0.0809748,-0.045043476,-0.12541822,-0.06373886,-0.03152342,0.21614839,0.21565981,-0.016861536,0.002863694,0.0059392564,0.3581286,0.09957087,0.452731,0.27605572,-0.08104279,-0.00060705096,0.31186163,0.046911716,0.08903805,-0.22709346,0.0715686,-0.06428061,-0.13892984,-0.083516,-0.017601721,-0.24239857,-0.13027674,-0.10275322,0.4259674,-0.24745639,-0.31768686,-0.038092375,-0.052523762,0.20111592,-0.20629309,-0.33529449,0.41309565,-0.0034139007,-0.10046461,0.36575222,0.06670834,-0.35225782,0.0049798563,-0.19630143,-0.003521338,0.39452323,0.36320624,0.21402597,-0.30087787,0.14157213,-0.332068,0.21707487,-0.34769082,-0.089186765,-0.10112567,-0.38065213,-0.29120806,0.13879144,0.17184868,-0.03622157,-0.18973081,0.24679872,-0.390275,-0.105534695,0.05065617,0.32952118,-0.049039364,0.39939266,0.08557429,0.0036351234,-0.021411914,-0.3269144,0.22509164,0.115305446,-0.08959087,0.041071445,-0.5257129,0.14946851,-0.016504668,-0.20711313,0.2669394,0.09381153,-0.28827,-0.46455258,0.11398569,-0.47043192,0.04197713,-0.13079704,-0.3824058,-0.20472139,-0.20800108,-0.02776124,-0.120736934,-0.09285245,-0.21119553,0.16566876,0.014223769,0.15985875,0.23175259,-0.0070919096,0.21908039,-0.29867303,0.38513732,0.15910846,0.037329905,0.7000552,-0.18621027,0.37045267,0.26487508,0.03915403,0.00016035885,-0.24548456,-0.08246691,-0.14700598,0.14449751,-0.14975029,0.19386649,0.11908823,-0.11047187,-0.31081855,-0.08327068,0.061845653,-0.06566174,-0.08314903,-0.36492807,0.16495754,-0.2472794,0.22814664,-0.3770392,-0.20579126,-0.0007264167,0.018142078,0.049954653,0.14149159,-0.045804925,0.36564398,-0.08978521,-0.10560184,0.24475992,0.3223883,-0.021106437,0.08412476,-0.77129865,0.32314536,0.33837816,0.2470712,-0.1348926,0.33569387
C2,-0.29485273,-0.23033983,0.040693037,0.17209208,-0.19988886,-0.22292165,0.24826115,0.13710126,0.014723156,0.043503024,0.20713878,-0.1899642,0.014996473,0.55812913,-0.23587042,0.0749423,0.11428056,0.24895802,0.06038244,-0.011439666,-0.11467995,0.028813949,0.4091228,0.04505958,0.099884346,-0.16977715,-0.1973781,0.08321188,-0.50857234,-0.17626214,-0.21614452,0.17868742,-0.3073873,-0.46049654,0.48713952,-0.060562216,-0.25020662,-0.11667174,-0.06038228,-0.10842282,0.16693127,-0.040740166,-0.092376225,0.18568504,-0.0014432371,0.15664783,0.15344046,-0.0008912906,0.40762812,-0.081781775,-0.37366122,-0.22815418,0.21262114,0.26155603,0.055307083,-0.17685103,0.19736804,0.17104708,0.23753968,0.27544606,-0.03208071,-0.03195774,0.16046196,0.3803854,-0.16576123,-0.1106407,-0.01541779,-0.096718825,0.038024776,0.09712845,-0.09839383,0.64523524,-0.32317796,0.028450314,-0.27715254,-0.05651807,-0.6972204,0.1190787,-0.31365323,0.09037873,0.1580511,0.0215149,0.20783472,0.108233765,-0.28961286,-0.2840273,0.14733145,0.49205345,0.113009356,0.122172505,0.047361247,-0.39778584,0.03972151,0.27365577,-0.34970453,-0.08890908,-0.24895819,-0.09719885,-0.10675527,0.5382353,0.29889652,-0.037412457,0.1514954,0.1520293,-0.13725346,0.07761906,-0.013822168,0.19125056,-0.25045204,0.08291281,-0.08847517,-0.010377683,0.21333992,0.049930334,0.10169853,-0.15337282,-0.03256741,0.35701498,-0.010689698,-0.16013107,0.13220054,-0.019385546,-0.19521311,0.20142978,-0.12465419,-0.31751883,0.21421956,0.36377436,-0.1322943,-0.30163866,0.059578523,-0.23432039,0.04343789,0.3075298,-0.16184232,0.11785246,-0.48635504,-0.07874571,0.0061777327,-0.28611857,0.1091487,0.30921572,0.023133595,0.31415337,0.06511462,-0.3468606,0.07996378,-0.041061185,-0.2321918,-0.5606547,0.04120349,-0.074701466,-0.045188434,-0.13376743,0.022362754,-0.08698167,-0.009275891,0.026855014,-0.032282393,0.044823583,0.019106522,0.12843768,-0.1263769,-0.21394557,0.4483185,0.065162145,0.42332044,-0.4488695,-0.20520908,-0.14001083,0.25889197,-0.4163042,0.22783574,0.36259645,0.14286077,0.14105928,0.038563304,0.28487596,-0.043745972,0.06949559,-0.28155276,0.4595576,0.109661356,0.0659457,0.18833612,0.12284244,0.011708194,0.14065893,0.11358954,-0.2464296,-0.30209836,0.13601997,-0.14447032,-0.19948336,-0.053090766,0.103336774,0.43629327,-0.19126892,-0.0605115,-0.08904403,0.2933585,-0.39387053,-0.090073995,-0.17097089,-0.0057707056,-0.18252997,0.29215848,0.18651298,0.32205775,-0.08088988,-0.074646585,-0.069584355,0.29109728,0.2861324,-0.049251802,-0.058123395,0.35337067,-0.16255671,0.06313476,0.44394138,0.0001848191,0.11000851,0.3573537,-0.041217156,-0.045462824,0.050177887,-0.10396429,0.005113011,-0.36527473,0.13364512,-0.13715568,0.010380324,0.16749942,0.022550166,-0.3747932,0.44247845,0.1420305,0.53753096,0.24418783,-0.04030238,-0.05965323,-0.42417067,-0.14827223,0.07485697,0.1788809,0.17115009,0.120633416,0.001293689,0.23573658,-0.19746009,-0.1554198,0.1833167,0.31028974,0.020471588,0.1057602,0.2417525,0.10616369,-0.033247404,0.08446312,-0.12288897,0.18237051,0.14436358,-0.12911645,0.15169147,-0.08198197,0.036489766,-0.008580234,0.19878888,0.122286744,-0.14257634,0.81488496,0.25293487,0.7053549,-0.23231858,0.030801985,-0.06919362,-0.27902776,-0.48103672,0.4275289,-0.3515174,0.13724414,-0.21880177,0.12859182,-0.16149041,-0.23354873,-0.34760216,-0.16961274,0.47634208,0.014459919,0.12688673,-0.28482795,-0.7028359,0.07961583,0.1828984,0.3537508,0.5196196,0.022782821,0.10162924,0.024061829,0.47138843,0.07259788,-0.40031362,0.53141326,0.29342505,0.088499516,-0.052730583,-0.5109055,-0.103049286,-0.38651913,-0.31388733,0.33900434,0.025176488,-0.446143,0.32196504,-0.45935327,0.19714235,-0.14723551,0.25793728,0.10606244,-0.09282302,-0.10778913,-0.31293523,-0.43363443,0.2328272,0.18326826,-0.051727086,-0.5161757,0.39874637,0.025619857,0.0030308105,0.20698002,0.4884011,0.35266146,0.11194413,0.015291695,-0.14847112,-0.20852053,-0.15861142,-0.3617388,0.112253025,0.10557075,-0.2946118,-0.1634301,-0.16814512,0.27659655,0.047342386,0.15331316,-0.04577672,-0.4127809,0.05418086,-0.09940603,0.08146222,0.14365208,0.05961451,0.06464891,0.16907406,-0.45934647,-0.14937067,-0.03700023,-0.013141975,-0.012317881,0.016376644,-0.18489757,0.2873822,0.0134058,-0.15363419,0.12725243,0.029516,0.32763338,0.14030212,0.12583756,0.14598706,0.025092462,-0.40411106,-0.10499127,0.24725899,0.23969811,-0.4723059,-0.14685848,0.0038642436,0.1313853,-0.3478104,0.23793668,0.10746564,0.49041423,0.28660646,-0.16649035,-0.20148014,0.10757516,0.32101196,-0.026385464,-0.32931194,-0.0032021552,-0.37537187,0.4062748,-0.008042067,0.12578622,0.07374999,-0.5024174,0.24121808,-0.34889847,0.15081988,-0.36184204,0.27871993,-0.0048064515,-0.14597842,-0.28161708,0.18750924,0.21677881,-0.22465864,0.22601292,-0.0026909448,-0.2997306,-0.2803919,-0.17159961,0.12997046,0.021953985,-0.057252057,0.07883807,-0.010249255,-0.3214852,-0.11123657,-0.32910213,-0.2971857,0.00951995,0.10177054,-0.08527898,0.5459144,0.22513351,0.27475247,-0.1691041,0.039468035,0.16386026,0.23396078,-0.31356776,-0.14459172,0.2595282,-0.3390342,-0.21010765,-0.039143175,-0.34952238,-0.34623903,-0.36478454,-0.11094998,0.09162119,0.08341317,0.053221405,-0.29787624,0.24399373,0.18769136,-0.1588983,-0.25523567,0.14692655,-0.15288484,-0.30919653,-0.46427566,0.24149516,-0.122392826,-0.21968555,-0.16387218,0.043189347,-0.20786047,-0.47572455,-0.26208743,0.21326542,0.0660848,0.11303893,0.32224995,0.06225223,-0.1497027,-0.21414208,-0.16766217,-0.215388,-0.16583577,0.18710494,-0.23495778,0.46408027,-0.27827376,0.37374613,0.17175354,0.07667594,0.09243269,0.2651967,-0.008703811,0.70973504,-0.2910717,0.07840549,-0.28342232,-0.0716684,0.12752396,0.30540314,0.04043935,-0.48326087,-0.013994582,0.084398784,-0.14684899,0.2997423,0.2172631,0.049063146,0.09725134,0.24713677,0.07586453,-0.17740446,0.12873203,0.06632006,0.41013592,-0.181846,0.040434614,-0.30184954,0.25902966,0.3510031,-0.11833336
C3,-0.13438195,-0.029607449,0.028985932,-0.109589905,-0.03543596,-0.4989131,0.29460117,0.16608599,-0.076335095,-0.4843153,0.09302851,0.123329915,0.056893885,-0.16207482,0.37711322,-0.29626653,0.1775361,0.48867723,0.30892763,-0.14430791,0.028471865,0.42017493,0.10214999,-0.5548042,0.16120398,0.02032021,-0.17659605,-0.012994118,0.45435503,0.24863896,0.2950912,0.27172756,-0.06666082,-0.3121196,0.41556132,-0.68294734,0.20092845,0.17331827,0.29151085,0.2512365,0.16317397,0.21319415,-0.22836229,-0.24717385,0.20124343,-0.10664848,-0.008168098,0.025641523,-0.007526636,0.21277654,0.100897886,0.12246145,0.48463917,0.010297798,-0.5308822,0.21852028,-0.15583155,0.09892115,0.006245561,0.32849467,0.01133962,0.03770917,-0.0017988645,0.10804604,0.1328383,0.031336002,0.21151328,-0.045665044,-0.6126241,0.057951264,0.041192424,0.10037125,0.25757957,-0.2517502,0.12183625,0.3179317,0.071023926,0.26725256,0.4538367,0.16824993,0.3378752,0.36584908,0.03067309,-0.25366786,0.42105728,0.11315971,0.14872843,0.076525375,-0.017995663,-0.48876473,0.31004253,-0.21521562,-0.12028294,-0.004872419,-0.15637243,0.70858854,-0.008387279,0.032889277,-0.48787835,0.20118982,-0.19105408,0.43880832,0.20773089,-0.2653781,-0.011041034,0.20019373,-0.058595352,0.08499107,0.072719604,0.23942271,-0.12261551,0.30198255,0.14381254,-0.015398565,-0.37107444,-0.21451852,0.1879228,-0.1368917,-0.0007728487,0.0054572523,0.19756421,0.033467844,-0.217175,0.1277191,-0.056048304,0.17886555,-0.24788564,0.09884771,0.0037865043,0.2846256,0.13978797,0.18923147,0.015967257,-0.22113511,-0.10268262,-0.12395009,0.07805127,0.14429016,-0.06260812,0.012586907,0.02092418,0.12753147,-0.07901568,0.36240375,-0.25951084,-0.28796482,0.30456063,0.38880664,0.09201626,0.06414399,-0.016177617,0.2975077,0.2867565,0.28542417,-0.33396798,0.027542029,0.40739167,0.010474239,0.5073121,0.3028341,-0.7178735,0.07509508,0.09465377,-0.28733835,0.23017144,0.32201618,0.1191781,-0.68411756,0.07671045,-0.2381989,-0.16186613,-0.17275307,0.38626555,0.16079909,0.073195346,-0.0015991852,0.11817507,0.35147628,-0.2305449,0.13060817,0.07751013,-0.19381669,-0.70847625,-0.49112368,0.040508028,-0.14701615,0.00011630356,0.23584831,0.039844126,-0.042664576,-0.114582784,-0.29338795,-0.24898873,0.07899296,-0.052348383,0.25439763,0.24457902,0.14151877,0.097080015,0.005102314,0.038844105,-0.46857557,0.41864055,0.19746596,-0.0041008666,-0.04313316,0.24068432,-0.2440106,-0.2848668,-0.23317873,0.17221656,-0.23553854,0.07876668,-0.3267609,0.08072204,0.061287332,-0.21804386,-0.3263152,0.2683705,0.5161202,-0.13979903,0.218595,0.089821674,-0.03816863,-0.3876271,0.18713531,-0.39425567,0.17304668,0.35691994,0.06901392,-0.36014915,0.3407058,-0.2510086,-0.1058777,-0.5689397,0.135795,0.33576682,0.0698243,0.17689976,-0.12147071,-0.19255331,0.10381829,0.0563889,0.038052633,-0.33810413,-0.23230448,0.42403126,0.40691707,-0.012224168,-0.3465383,-0.047657814,0.2772832,0.055256512,0.052202776,-0.059147812,0.49014366,-0.134776,0.07830642,-0.103588976,0.63264155,-0.36990553,0.22097759,0.093155295,-0.40231016,-0.33464226,-0.008732047,-0.08808807,-0.24283782,0.16111323,-0.5410547,0.29472935,0.027588524,0.14869557,-0.42479482,-0.33888143,0.45706946,0.10026521,-0.10983831,0.3060541,0.20574024,0.12582567,0.3246538,0.35657835,-0.3425578,-0.27655968,0.15223747,0.17308646,0.33522463,0.14264908,-0.22315243,0.20841748,0.037845664,-0.26770592,0.47451013,-0.09223681,0.08564924,-0.20541841,0.22507991,0.3655957,-0.14499295,0.017584085,-0.12792218,-0.16941461,-0.013761204,-0.18430984,-0.759214,-0.3047294,-0.49824074,0.03101883,0.07341604,0.17504872,0.13995126,-0.3887843,0.100005135,-0.3847974,0.10913682,0.5759634,0.27014327,-0.043677792,-0.26671818,0.09585092,-0.49096632,0.058585204,0.042387307,-0.022649642,-0.4489784,-0.03381414,0.047768913,-0.1449901,-0.19685283,-0.51307106,0.063442364,0.47599202,-0.299739,-0.10288428,0.5051683,-0.16284868,0.1848472,-0.18802768,-0.357656,-0.15300816,-0.41931093,-0.004610218,0.14993575,-0.05045463,-0.32139164,-0.1515316,-0.089911886,0.15304863,0.028516784,0.33516958,0.47200593,0.22367853,-0.48362312,0.015990373,0.024778955,-0.3390194,-0.03246853,-0.014574267,-0.3393085,-0.12287892,0.3290156,-0.348695,0.16762011,-0.10109785,0.05336609,0.010932185,-0.012579851,-0.01498691,-0.011865165,0.08168255,0.54695636,0.17256197,-0.30323324,0.16511306,0.04870355,-0.03766278,0.2734384,-0.004376836,0.014082782,-0.038904175,0.05899954,-0.19657964,0.47476894,0.37250885,0.15074226,0.091611974,-0.0077088326,-0.11215109,-0.27869445,0.08186789,-0.3118823,0.2698117,0.33790785,-0.28279683,0.220474,-0.022995219,0.17993036,-0.8535023,-0.37922937,-0.5536512,-0.20471092,-0.66485065,-0.07756855,0.22098133,0.4722672,0.25612098,0.25349805,-0.055717956,-0.11073318,-0.19002742,0.1404407,-0.20110855,-0.21042582,0.3788077,0.52333975,0.278788,-0.15848345,0.21253133,-0.5107691,0.17454894,-0.08090478,-0.10724092,-0.43948472,-0.012547802,-0.15055925,-0.21096186,0.16294119,-0.3778721,0.6984643,0.11239301,0.38088393,-0.17700467,0.25883973,-0.24292207,-0.12840943,0.022327833,-0.26166266,-0.08546772,-0.046834104,-0.15986452,-0.091815256,0.05676037,-0.53928083,0.11602055,-0.0044542924,-0.07418712,0.08170639,0.110428974,0.15631998,-0.26635718,-0.15007709,-0.098201305,0.05992022,0.37110206,-0.15926208,0.3489838,-0.06409164,-0.040453847,-0.4173014,0.46970564,0.038949534,0.10092407,0.4177668,0.53303975,0.07739647,0.33829805,0.20631847,-0.46928677,-0.060379304,0.20920053,0.310454,-0.33710754,0.055692375,0.58723384,-0.3759073,0.36046287,0.104055166,0.07062429,-0.30011076,0.33029872,-0.17327476,0.30728027,-0.17053634,0.18914174,-0.015500054,-0.32696605,0.044289112,-0.4364452,0.40035105,0.021405723,0.03462861,-0.0358982,0.303427,-0.1145286,0.035974327,-0.4402838,-0.50743824,0.029913776,0.29890785,0.37046617,0.0010559037,-0.03515272,-0.22831333,0.5496815,0.005309224,-0.07782795,-0.2638115,0.043800928,0.18590948,0.12460093,-0.05340748
C4,-0.17657897,0.1526598,-0.034178533,0.013020117,-0.57470167,0.1853308,0.32796273,0.038994797,0.14228407,0.12347263,0.28846902,0.06239993,0.2818812,-0.35713702,-0.13191314,-0.36673686,0.045867674,-0.40499035,-0.24542227,-0.36736095,-0.006494801,-0.31244335,0.085712165,-0.03596453,0.3595866,0.23900715,0.24140841,0.24886194,-0.14575437,0.1017177,0.05322601,-0.063634075,-0.29854766,-0.46160817,0.3968473,0.21166295,-0.10727952,-0.69828534,-0.25688607,0.1758236,-0.17084154,-0.39766264,-0.26950532,-0.10057071,0.29030904,0.49223885,-0.12376425,-0.06498011,-0.4142143,0.14781046,0.024593465,0.18034396,0.23212436,-0.13327509,0.34342062,0.057137173,0.05136276,0.16035295,-0.08548426,0.21123596,0.19782811,0.17488182,-0.17309117,0.16139665,0.1557722,-0.20834294,0.33757666,0.11247638,-0.11064949,-0.23419732,0.252868,0.20422924,-0.1355766,0.048987042,-0.42980096,-0.12176361,-0.17064697,0.24688339,0.0737155,0.7141556,0.059205428,-0.08026304,-0.10252605,0.035428114,-0.00081928074,0.25809345,0.25165257,0.15531099,-0.3936618,0.122770175,-0.3660395,-0.04426618,0.1640248,-0.102392145,-0.2464754,-0.05455526,0.53124124,0.112915926,-0.100997806,0.24672994,-0.30110008,-0.0019943714,-0.0076913387,0.07873018,-0.32226512,0.4858347,0.0344494,0.18664783,0.1026814,-0.17281938,-0.12021375,0.37726575,0.100534976,-0.27186382,0.23488851,-0.067669556,0.11178999,-0.23793745,0.26915362,-0.08277435,-0.27637476,-0.4857746,-0.26724306,0.2688652,-0.1887657,-0.15137164,0.23898838,-0.2508564,0.09513648,-0.33766025,0.08398026,0.072884396,0.29815343,0.13790742,-0.17706397,0.34408104,0.18228713,0.3692966,0.046873994,-0.19772774,0.23673153,-0.009365745,-0.28327176,-0.046181165,0.00938281,-0.012471739,0.16223922,0.12275406,-0.03029358,0.19620949,0.0327091,-0.25394037,-0.053816624,0.31107825,0.07998134,0.34457132,-0.35248378,0.15430838,0.39841905,-0.095854305,-0.56373155,0.021003276,0.17327428,0.49822932,-0.4372023,0.019336514,0.07047135,0.16767827,-0.3838027,0.15933819,-0.28006667,-0.4534306,0.22912785,0.00910861,-0.2780303,0.10016503,-0.21153691,-0.12116466,-0.001624845,0.025305785,-0.22497308,-0.2546814,0.19471136,-0.28862908,0.3082826,-0.4716628,0.43846014,0.022808708,0.2229658,-0.34762102,-0.51736534,0.1893866,0.14208668,-0.047082614,-0.13183159,-0.00032546,-0.24399644,0.25176036,0.0689856,0.57801676,0.13412568,-0.15484819,-0.08060324,0.52415043,-0.063627265,-0.31928763,0.5747297,-0.24415648,0.35853076,-0.71055084,0.12143141,-0.19530734,-0.012794383,0.46555763,-0.19568875,0.55500513,0.5646735,-0.29558912,-0.2696075,0.3275785,-0.05714827,0.045365818,0.20706883,0.33035982,0.13915548,-0.05901777,0.55887073,0.051892348,-0.07187114,-0.09951652,-0.09039138,0.13242243,-0.033305705,-0.17205429,0.3781175,0.28284544,-0.012202188,0.7110732,-0.13432676,0.2089763,0.09241417,0.16057476,-0.26676863,0.20815167,0.057983898,0.4445991,-0.2653961,-0.11884401,0.41560757,0.22200033,-0.6584587,0.19380552,-0.12817271,0.22089961,-0.14731109,0.21939772,0.092285305,0.41793764,0.120606855,-0.016652353,-0.34028256,0.29253715,0.6397745,-0.23176792,-0.017532967,-0.26134187,-0.40046462,0.29361162,-0.47189447,-0.44117594,-0.030738726,-0.761362,0.31901783,-0.16524082,0.056477886,-0.5185741,0.28761983,0.08171092,-0.35063806,0.47049162,0.28007233,-0.15530176,-0.030738419,-0.13114919,-0.07806688,-0.19749036,-0.047488518,0.15264188,-0.024028935,-0.53865474,-0.12426819,-0.19904628,0.20335539,-0.14690948,0.038285084,-0.11175753,-0.35423854,-0.1400202,-0.6928877,-0.08585603,-0.20013997,-0.43208674,-0.20127985,0.12623051,0.23024565,0.0149349645,-0.14180286,0.409537,-0.12263829,-0.037243538,0.51379395,0.1288195,0.19199595,0.13539569,-0.42474794,0.2012357,0.26535857,0.10538891,-0.039878562,0.08490746,-0.540712,0.48199016,-0.090216495,-0.20761572,-0.18868645,-0.12504978,-0.16221657,0.26331478,0.21645218,-0.13822576,0.3423425,-0.060181085,-0.21725027,0.17986614,-0.18264343,0.2482903,0.23560125,-0.0797,-0.43564832,-0.08055274,-0.071135476,-0.20459121,0.02081789,0.121624514,0.28389803,-0.46227878,-0.2169233,-0.20220119,-0.24353188,0.26641798,-0.26056787,-0.036592424,0.4086592,0.44561028,-0.2673978,-0.22128528,-0.24164209,-0.2018387,0.01706697,0.4776304,-0.021758482,-0.23782173,-0.0064988136,0.014627531,0.08276251,0.6918357,0.12439754,-0.14555138,0.28402612,0.10827044,-0.1986621,0.19333716,0.38239798,-0.08151834,0.16405627,0.37482643,-0.54261506,-0.040854596,-0.22846207,-0.38378194,0.701018,-0.23868495,-0.13881648,-0.15979838,0.06460342,-0.013031311,-0.34598622,0.21313664,0.20112407,0.0069791675,0.11445041,-0.28127906,0.55235136,0.057806525,0.4618917,-0.25623903,-0.47028813,-0.46497446,-0.17344849,-0.28676027,0.37764606,0.010203503,-0.06389552,0.28880605,-0.10618838,-0.06455267,-0.39462996,0.2025152,0.16299033,0.049739234,0.26041755,-0.54639584,-0.045118622,-0.10071619,0.09105632,0.05438511,-0.0892536,-0.014110155,-0.10425209,-0.24303159,-0.305399,-0.17538068,-0.43982336,-0.3492634,-0.3863542,-0.013047881,-0.13243787,-0.11805815,0.4674715,-0.32269663,0.30090794,0.0017236918,0.05878818,-0.13827693,-0.014379971,0.034983784,0.18007328,-0.34227273,-0.19728133,-0.19032416,-0.3096533,-0.18366489,-0.18734303,-0.35932717,0.14639378,0.2510731,0.0015246496,0.11708243,-0.014646057,0.0077698007,0.0019161031,-0.207815,-0.05202589,-0.48276407,0.0050927848,-0.5696468,0.008840211,-0.11296248,-0.17646706,0.37974307,-0.216709,-0.10772109,-0.081994124,0.32755104,0.53019375,-0.15869632,0.31312105,0.12272072,-0.31615695,-0.09441886,0.0065342262,0.16782504,-0.20067987,-0.30651367,0.2642081,0.16014504,0.05238666,-0.07694873,0.11225488,-0.34773958,-0.17914826,0.13049255,0.44569826,-0.22250508,-0.31172025,-0.29859045,-0.4756962,0.41819292,-0.21578765,-0.42704687,0.29259342,0.17669821,0.30250865,0.20907089,-0.060222156,-0.07747111,0.16427809,-0.26621786,0.36233878,0.053402476,0.48832527,0.41510195,0.17114747,0.1733287,0.31881273,0.20215088,-0.13928914,0.21715444,0.50445694,0.034317806,-0.32526705,-0.35510355
C5,0.09453545,0.027355347,0.073197745,0.5781258,-0.40666768,-0.39852035,-0.4332109,-0.22543389,-0.3441496,0.20707875,0.18313125,0.008937541,0.018502872,-0.090314105,0.0053355545,-0.5736337,-0.042760428,0.04551379,0.060263418,-0.16696556,-0.046195008,0.09730878,-0.5106567,-0.056518123,0.072215736,-0.1567409,0.1275351,0.047308847,0.119995065,0.09939279,0.29098588,0.076929905,-0.035297744,-0.06683385,0.15310045,0.15597409,-0.12326195,0.059397906,-0.09505859,0.2555244,-0.2275838,-0.19440293,-0.32939166,0.27447805,-0.009682223,0.06064608,-0.3739165,0.09741598,-0.23910888,0.4105178,-0.10256218,0.025303815,0.10885948,0.22035512,0.071300626,-0.54285777,0.025819585,0.08229089,0.14650905,-0.005830575,-0.16429844,-0.15482365,0.18429786,0.17938644,-0.32778692,-0.052855708,-0.4057543,0.02791828,-0.04792746,-0.2247597,0.17704712,0.18417159,0.097059906,0.14723545,0.13407725,0.16370946,0.048196398,0.1341008,-0.14387262,0.16283883,-0.20446275,0.28191403,0.31014746,0.2694567,-0.05296091,0.29291514,0.058375508,0.23883295,-0.07969835,-0.18521485,-0.063956,0.29689774,-0.16561335,-0.30913797,-0.118072696,0.24119821,0.14016695,-0.2443595,-0.24477018,-0.24341348,0.027373359,-0.0012660995,0.077104814,0.18901658,0.121820346,0.37233102,-0.11588522,-0.11989585,-0.2890453,-0.118257016,-0.011247274,0.018055607,-0.1564799,-0.35761002,-0.09872201,-0.013479147,0.052931085,-0.0751543,0.009075489,-0.5359367,0.4164199,-0.30324045,0.12825695,0.08900427,-0.22547612,0.048783865,-0.3456172,-0.31218186,0.3021928,0.30285612,-0.1381994,-0.35675144,0.16299291,0.0026639923,0.082779914,0.13838997,-0.15254629,0.28483123,-0.1230435,-0.2065129,0.00031810254,-0.26719788,-0.039377846,0.16797936,0.07944022,0.10744256,0.07189428,-0.043874905,-0.15488514,-0.25372952,0.025211092,-0.29595146,0.26498145,-0.07228885,-0.24124125,0.045482356,-0.36460507,0.16409126,0.449168,0.0688438,-0.047580678,-0.2398727,0.16985756,0.07200819,-0.18321297,0.49524325,0.05099948,-0.22142032,-0.06057078,-0.089396015,0.0016241521,0.050269775,0.21876588,-0.17746389,-0.06592699,0.15661776,0.18102771,0.43873006,0.026088212,0.42918003,-0.40131387,-0.29398367,-0.041556314,0.05123997,0.11485493,0.03135547,0.17454642,-0.20968276,-0.055872306,-0.04623231,0.20913014,-0.14286527,-0.421283,-0.11698912,0.17786238,0.13091725,-0.12554157,0.17789286,0.045755282,0.6429893,-0.18046747,-0.101997726,0.37334624,0.4338195,-0.12569997,0.07542753,-0.37391257,0.0376696,0.018792525,-0.35269973,-0.15554038,0.48534146,-0.118767984,0.14527586,-0.12438073,-0.106115036,0.040047847,-0.54763865,-0.021831281,0.16009663,-0.06010998,0.081650816,-0.269493,-0.001632072,0.32113644,-0.110741235,-0.042837545,-0.08617202,-0.17749238,-0.06690275,0.60881114,-0.049455766,0.32519192,-0.33237243,-0.0805713,-0.2298564,-0.1727072,0.065604016,0.009177074,0.06530123,0.19544753,0.015226364,-0.14215398,0.19362365,0.18377328,-0.055608504,0.1053583,0.3929613,-0.0851326,-0.08328003,0.232588,-0.06625355,-0.28505263,-0.23078248,0.5945498,0.29029423,0.10580743,0.1464375,0.3235012,-0.3035462,0.1283161,0.1692306,0.17447726,0.015716182,0.29752988,-0.3456665,-0.36317244,0.11970518,-0.21409129,-0.35926467,-0.2502192,0.4492312,0.28134874,-0.43355352,-0.25449592,-0.13091767,0.29939747,-0.050289735,0.10941341,0.3207123,0.22899342,0.15310231,0.27292272,-0.19857955,-0.351174,0.019510401,0.048119567,-0.51816845,-0.019959107,0.058856525,-0.12150584,-0.25019175,-0.15944885,0.30391634,-0.060625874,-0.38968593,-0.10818085,0.0369482,-0.27386144,0.44635183,-0.0033326447,-0.13221002,-0.23522592,0.19967723,0.3057012,-0.21146455,-0.2618176,0.08070486,-0.3717771,-0.099250905,-0.15613338,0.18854955,-0.07846426,-0.01324176,0.39910668,0.101551235,-0.08427315,-0.05993329,0.27977186,-0.21333832,-0.12510684,-0.67702895,-0.258564,-0.23394842,-0.019847788,-0.14084752,0.11544058,0.80467165,0.3605851,0.051791146,-0.29368037,-0.5728017,-0.18722036,-0.10944733,-0.094636306,-0.2754595,0.32845044,0.28293276,-0.058101818,-0.39435562,0.23391993,0.13608,0.27722403,0.29255044,-0.102283545,-0.21147859,-0.42821434,-0.12787369,-0.36795998,-0.18671063,-0.25884932,0.1827584,0.47130746,0.3717372,-0.360924,0.30970132,0.09972189,0.023694418,-0.49044818,-0.15772161,0.19188258,-0.12596828,0.25267875,-0.29729986,-0.31187108,-0.105751924,0.03070594,-0.008799709,-0.24216467,0.110014364,0.30030334,-0.10444791,0.207149,-0.13098066,-0.12272947,0.18198973,0.19014145,0.031407613,-0.31058514,0.055214588,-0.29122403,-0.1360037,0.07287745,0.10025543,0.05840749,-0.42179316,0.22111988,-0.11746219,-0.16725124,-0.27394783,0.10455627,0.13841334,-0.08016557,-0.35395288,-0.0843808,0.3847086,-0.07406173,-0.39921415,-0.30211756,-0.03857752,0.31549677,0.1943391,0.21088825,-0.23527303,0.16836919,0.25284764,-0.27046198,-0.0014641853,0.20946552,-0.0062266365,0.60507727,-0.27077514,-0.03125282,0.13139969,0.11114999,0.4340417,0.035308428,-0.041583993,0.20246935,0.08458699,-0.4983839,0.06679892,0.30061936,0.12018888,-0.008079249,-0.005351469,-0.70131975,0.13927199,-0.096610464,0.1644395,0.11247384,-0.025690716,0.37785608,-0.22814137,-0.12741995,-0.084129885,0.28406918,-0.0076972675,0.22625402,-0.31782734,-0.09545955,0.13149072,0.053534076,-0.044717073,0.47611246,0.046999462,0.09295328,-0.08744304,0.2445038,0.013803951,0.15003484,-0.03874559,-0.057035696,-0.24919248,0.30846903,-0.087435484,0.17810655,0.19905919,-0.45097324,0.101099975,0.027239978,0.028185692,-0.31582302,0.3849338,0.23499244,-0.35208693,-0.056654997,0.53496385,-0.14322495,0.025962286,-0.015511386,0.21035555,0.3479455,-0.22101603,0.4290566,-0.12191128,-0.08211396,-0.24236773,0.13155189,0.0227997,-0.25923383,0.26930702,0.13620219,-0.10750562,-0.43498385,-0.45727062,-0.04713566,-0.13836132,-0.42540893,0.5418248,0.5956387,0.13683335,-0.20063329,0.17635351,-0.3804999,0.014000606,0.021992005,0.19244093,-0.06314255,-0.072770484,0.287685,0.10085609,0.05518297,0.21244814,0.029784359,-0.13871536,-0.40136656,0.30865598,0.15022552,0.18342167,-0.20032519,-0.097326756
C6,-0.3266083,0.066273615,0.06799073,0.005766738,-0.07631577,0.3263576,-0.07891602,0.042954113,0.42832458,0.19043612,-0.2994151,0.001417879,-0.20843801,0.14258146,-0.528631,-0.53868246,-0.29440275,-0.17051351,0.21339744,-0.13403788,-0.026422437,-0.09920452,-0.28167552,0.37827992,-0.51638114,-0.23408395,0.05882457,0.42712498,-0.61255133,0.05371038,-0.608897,0.34085727,0.017173402,-0.35794932,-0.032839537,0.053083945,0.06424737,0.015724517,0.10039325,-0.03712119,0.08198743,-0.2059959,-0.34560415,0.13669907,-0.21569283,0.39039737,-0.23482253,0.08611561,0.36623687,0.085378975,-0.1775909,0.07295167,0.45902473,-0.17307869,0.18490256,0.023906805,0.16523793,-0.33961293,0.2838059,-0.2400011,0.050890066,0.06719172,0.34012038,0.07297161,0.058434136,0.060199194,-0.1582104,-0.04136491,-0.5165489,-0.19181871,-0.07355552,0.10333385,0.10952103,0.08975048,0.121290006,0.31645387,-0.31189924,0.018108785,-0.0492682,-0.06504315,-0.34364712,0.27438563,0.12999575,0.5183547,-0.013090439,-0.032460894,-0.1070796,-0.16185004,0.061683096,-0.052679017,0.12616473,-0.0729878,-0.06781472,0.058251135,0.03990215,0.28890184,-0.2204755,0.44032702,0.24728003,-0.04616471,0.15439335,-0.11784988,-0.1603967,-0.1505447,0.13137749,0.26574025,0.21839601,0.058863655,0.04702498,0.5122831,-0.3356427,-0.19350043,-0.28432825,0.3818659,0.017737463,-0.17620948,-0.036934428,0.21773416,-0.20602787,-0.10633457,0.22257632,0.10671192,-0.18075487,0.23367783,0.22444005,-0.5238004,0.45029378,0.23959732,0.077097386,0.19539258,-0.08510178,-0.29505575,0.052463636,0.11881937,0.06394985,0.10594362,0.035998195,0.31799412,0.18908739,-0.13795117,-0.19965178,0.06286006,-0.12863109,-0.058525167,0.07811274,-0.13273579,0.033296138,-0.1498405,0.1065192,0.30649546,-0.40260607,-0.10817505,0.24793598,0.5998533,-0.33096722,-0.14056683,-0.09214624,-0.024449788,-0.23762436,0.1050819,-0.18701798,-0.032051817,-0.1613513,0.12881717,0.17396185,-0.55338866,0.08588835,-0.3234005,-0.01025321,-0.2111769,0.16721562,-0.07802357,-0.18153366,-0.4358626,-0.61689216,0.23003396,0.17865637,-0.091710635,0.44427752,0.027832884,0.32956377,-0.07243175,0.22007659,-0.08256371,0.18888265,-0.24179927,0.36521053,-0.06371318,-0.42276055,-0.35222822,0.19070321,-0.06349533,-0.09233874,0.08322714,0.13991366,-0.0003422629,0.372395,0.024987735,-0.020259254,0.5592845,-0.28803188,0.2102277,0.688231,-0.0033808202,0.06982996,-0.36389655,-0.014421079,-0.29826367,-0.10863426,0.01675732,-0.034162138,-0.33170712,0.31608626,0.34553635,-0.08271028,0.06763726,0.29844597,-0.56703305,-0.24362752,-0.47725356,-0.15698805,0.45284408,-0.09794203,0.31170523,0.0062327757,0.06476306,0.08293863,0.080934055,0.17312948,0.10469132,-0.33271265,-0.35293436,0.0611455,-0.19501126,-0.66840386,0.37274718,0.4613218,0.37473774,0.42421332,0.5418721,-0.3959033,0.03986465,0.40445244,0.07713053,0.12954727,-0.3722562,-0.42379466,0.17549635,0.13945954,-0.12860923,-0.08396193,-0.08886295,-0.12789555,0.09965443,-0.08432488,0.20618302,-0.09972303,0.54921407,-0.18752936,-0.1492782,0.41073984,-0.37355235,0.079974756,-0.3623153,-0.22731566,0.13978323,0.18513544,0.21489519,-0.07488778,-0.26029015,0.7174866,0.11471429,0.6168348,-0.17162266,0.14179541,0.006109208,-0.20575441,-0.34596384,-0.11417776,0.2753974,0.5133921,-0.13669911,0.06523713,-0.28789932,-0.673782,0.4161811,0.19621176,-0.038408287,-0.28675574,-0.21624812,0.005730547,-0.13494274,0.081342354,0.04862908,-0.39659974,-0.018064894,0.20712632,-0.026087474,0.21380797,-0.11402991,0.2075246,-0.1669364,-0.07292016,0.45106587,0.0032256097,-0.36392218,-0.12314278,-0.10718962,0.07081515,-0.086378135,0.002859991,-0.17384613,0.3676682,0.64635384,0.100881144,-0.14489363,-0.3977279,0.21401918,0.26177108,-0.054239817,0.3699974,-0.32361978,-0.31222287,-0.059697106,-0.20846505,0.35285378,0.19968942,-0.31533277,0.17697029,0.30837798,0.023862086,0.07253274,-0.067456305,-0.027834624,0.17646754,0.07415327,0.3604183,-0.03729313,0.00992807,0.21534154,-0.03718487,-0.41479075,0.16021654,0.23146181,0.38052574,0.17859,0.027611025,-0.18501776,0.27792183,0.34988344,-0.09407845,-0.34926432,-0.22669795,0.15623811,0.08826217,-0.008614719,0.23674476,-0.27939266,-0.40393448,-0.03749615,-0.39249507,0.24803305,-0.06780781,-0.32806098,-0.6327176,-0.25834376,0.3132209,-0.08328176,0.1320453,0.09146838,-0.16885722,-0.40325606,0.09564091,-0.23611565,-0.1540778,0.4043625,0.29829827,0.005800739,-0.13202748,0.27064568,0.21647984,0.0058936626,-0.25769073,-0.08024362,0.41882324,-0.26178613,0.19039619,-0.10667213,0.00081363507,0.041316412,0.06943134,-0.3135483,-0.09571604,-0.2870304,0.044894252,0.36872938,-0.06620327,0.4040367,-0.0883212,0.29983014,-0.2559983,-0.2820602,-0.110624835,-0.23195788,-0.023461662,-0.2624625,-0.3608808,-0.090549275,0.599913,-0.016534034,-0.14423591,0.38037544,-0.087399475,-0.13102603,-0.09505187,-0.048352115,-0.009323053,-0.35597017,0.29310244,-0.14370924,-0.18104704,0.3312559,-0.029898532,0.1437635,0.043596152,-0.050971586,0.17037761,0.032041658,0.768354,0.43182907,0.44485766,0.2545797,0.17097488,-0.29615134,-0.18741938,-0.15225643,0.13763557,-0.06527764,0.26919937,0.39731485,0.23516577,-0.06313161,-0.24157944,-0.41728696,0.11816758,-0.0099908635,-0.015130915,0.0024398416,0.10847056,-0.26935244,0.27564108,0.2016797,-0.06279613,-0.3451845,-0.1219732,-0.19843702,0.19785947,-0.362864,0.14610827,-0.32847288,-0.112740904,-0.18206263,-0.25647384,-0.42407447,0.018206522,-0.26314664,0.14523312,-0.3523187,0.21993968,0.12843248,-0.19633025,-0.18628746,0.06215719,-0.027943358,0.119415686,-0.19175291,0.17446399,-0.09071401,0.1293926,-0.5315275,-0.3988781,-0.004167393,0.14842334,0.10520615,0.20606963,0.3529164,-0.09205024,-0.30898395,-0.2031638,0.2613389,0.689013,-0.31282556,-0.06479283,-0.07193474,-0.09846792,-0.07886928,-0.021812044,-0.025220998,0.15017834,0.34401003,0.14027098,-0.27323884,-0.0734208,0.004276309,-0.13356471,0.31345662,-0.012297399,0.069222376,-0.37793982,-0.14756742,-0.44086054,0.015250176
