DiseaseID,feature_1,feature_2,feature_3,feature_4,feature_5,feature_6,feature_7,feature_8,feature_9,feature_10,feature_11,feature_12,feature_13,feature_14,feature_15,feature_16,feature_17,feature_18,feature_19,feature_20,feature_21,feature_22,feature_23,feature_24,feature_25,feature_26,feature_27,feature_28,feature_29,feature_30,feature_31,feature_32,feature_33,feature_34,feature_35,feature_36,feature_37,feature_38,feature_39,feature_40,feature_41,feature_42,feature_43,feature_44,feature_45,feature_46,feature_47,feature_48,feature_49,feature_50,feature_51,feature_52,feature_53,feature_54,feature_55,feature_56,feature_57,feature_58,feature_59,feature_60,feature_61,feature_62,feature_63,feature_64,feature_65,feature_66,feature_67,feature_68,feature_69,feature_70,feature_71,feature_72,feature_73,feature_74,feature_75,feature_76,feature_77,feature_78,feature_79,feature_80,feature_81,feature_82,feature_83,feature_84,feature_85,feature_86,feature_87,feature_88,feature_89,feature_90,feature_91,feature_92,feature_93,feature_94,feature_95,feature_96,feature_97,feature_98,feature_99,feature_100,feature_101,feature_102,feature_103,feature_104,feature_105,feature_106,feature_107,feature_108,feature_109,feature_110,feature_111,feature_112,feature_113,feature_114,feature_115,feature_116,feature_117,feature_118,feature_119,feature_120,feature_121,feature_122,feature_123,feature_124,feature_125,feature_126,feature_127,feature_128,feature_129,feature_130,feature_131,feature_132,feature_133,feature_134,feature_135,feature_136,feature_137,feature_138,feature_139,feature_140,feature_141,feature_142,feature_143,feature_144,feature_145,feature_146,feature_147,feature_148,feature_149,feature_150,feature_151,feature_152,feature_153,feature_154,feature_155,feature_156,feature_157,feature_158,feature_159,feature_160,feature_161,feature_162,feature_163,feature_164,feature_165,feature_166,feature_167,feature_168,feature_169,feature_170,feature_171,feature_172,feature_173,feature_174,feature_175,feature_176,feature_177,feature_178,feature_179,feature_180,feature_181,feature_182,feature_183,feature_184,feature_185,feature_186,feature_187,feature_188,feature_189,feature_190,feature_191,feature_192,feature_193,feature_194,feature_195,feature_196,feature_197,feature_198,feature_199,feature_200,feature_201,feature_202,feature_203,feature_204,feature_205,feature_206,feature_207,feature_208,feature_209,feature_210,feature_211,feature_212,feature_213,feature_214,feature_215,feature_216,feature_217,feature_218,feature_219,feature_220,feature_221,feature_222,feature_223,feature_224,feature_225,feature_226,feature_227,feature_228,feature_229,feature_230,feature_231,feature_232,feature_233,feature_234,feature_235,feature_236,feature_237,feature_238,feature_239,feature_240,feature_241,feature_242,feature_243,feature_244,feature_245,feature_246,feature_247,feature_248,feature_249,feature_250,feature_251,feature_252,feature_253,feature_254,feature_255,feature_256,feature_257,feature_258,feature_259,feature_260,feature_261,feature_262,feature_263,feature_264,feature_265,feature_266,feature_267,feature_268,feature_269,feature_270,feature_271,feature_272,feature_273,feature_274,feature_275,feature_276,feature_277,feature_278,feature_279,feature_280,feature_281,feature_282,feature_283,feature_284,feature_285,feature_286,feature_287,feature_288,feature_289,feature_290,feature_291,feature_292,feature_293,feature_294,feature_295,feature_296,feature_297,feature_298,feature_299,feature_300,feature_301,feature_302,feature_303,feature_304,feature_305,feature_306,feature_307,feature_308,feature_309,feature_310,feature_311,feature_312,feature_313,feature_314,feature_315,feature_316,feature_317,feature_318,feature_319,feature_320,feature_321,feature_322,feature_323,feature_324,feature_325,feature_326,feature_327,feature_328,feature_329,feature_330,feature_331,feature_332,feature_333,feature_334,feature_335,feature_336,feature_337,feature_338,feature_339,feature_340,feature_341,feature_342,feature_343,feature_344,feature_345,feature_346,feature_347,feature_348,feature_349,feature_350,feature_351,feature_352,feature_353,feature_354,feature_355,feature_356,feature_357,feature_358,feature_359,feature_360,feature_361,feature_362,feature_363,feature_364,feature_365,feature_366,feature_367,feature_368,feature_369,feature_370,feature_371,feature_372,feature_373,feature_374,feature_375,feature_376,feature_377,feature_378,feature_379,feature_380,feature_381,feature_382,feature_383,feature_384,feature_385,feature_386,feature_387,feature_388,feature_389,feature_390,feature_391,feature_392,feature_393,feature_394,feature_395,feature_396,feature_397,feature_398,feature_399,feature_400,feature_401,feature_402,feature_403,feature_404,feature_405,feature_406,feature_407,feature_408,feature_409,feature_410,feature_411,feature_412,feature_413,feature_414,feature_415,feature_416,feature_417,feature_418,feature_419,feature_420,feature_421,feature_422,feature_423,feature_424,feature_425,feature_426,feature_427,feature_428,feature_429,feature_430,feature_431,feature_432,feature_433,feature_434,feature_435,feature_436,feature_437,feature_438,feature_439,feature_440,feature_441,feature_442,feature_443,feature_444,feature_445,feature_446,feature_447,feature_448,feature_449,feature_450,feature_451,feature_452,feature_453,feature_454,feature_455,feature_456,feature_457,feature_458,feature_459,feature_460,feature_461,feature_462,feature_463,feature_464,feature_465,feature_466,feature_467,feature_468,feature_469,feature_470,feature_471,feature_472,feature_473,feature_474,feature_475,feature_476,feature_477,feature_478,feature_479,feature_480,feature_481,feature_482,feature_483,feature_484,feature_485,feature_486,feature_487,feature_488,feature_489,feature_490,feature_491,feature_492,feature_493,feature_494,feature_495,feature_496,feature_497,feature_498,feature_499,feature_500,feature_501,feature_502,feature_503,feature_504,feature_505,feature_506,feature_507,feature_508,feature_509,feature_510,feature_511,feature_512
C1,-0.41077474,0.026606306,-0.26018193,0.12578347,0.09114889,-0.3588068,0.28335708,0.395238,0.022704847,-0.36082077,-0.22425559,0.2369399,0.21078965,-0.14659712,0.6769122,0.28465217,0.1851531,-0.15921679,-0.008761104,-0.028363392,-0.088826805,0.1754712,0.12135399,0.11351151,0.032567427,-0.27838686,-0.28223833,0.1431722,0.027795225,-0.52726424,-0.2608717,0.09354499,-0.3951499,0.044678006,-0.10616756,0.46101066,-0.026243433,0.019265436,-0.21221116,0.040291563,0.15052766,0.05681278,0.41949087,0.00058773905,0.40405262,0.11986735,0.57428336,0.16651362,-0.022712383,-0.104037106,0.020459719,-0.12140726,0.1339544,-0.121113844,0.1366457,-0.33160836,0.15566579,0.25967243,-0.015305072,-0.16286832,0.4548779,0.24741119,-0.27501735,-0.20855406,-0.03265617,-0.029637117,0.22362635,-0.2952226,0.07873875,0.34731755,-0.3135462,-0.037202872,-0.35593212,0.2073955,-0.088909075,-0.08955962,-0.5388704,-0.10106127,-0.28816283,0.0062559396,0.2173307,-0.047283314,-0.21626893,-0.5471226,-0.25888133,-0.2083483,0.20109996,0.5550936,-0.10049193,0.030432902,-0.013882071,0.14980716,-0.052954502,0.1052077,0.22794501,0.0989597,0.18631306,0.24903354,-0.24277705,-0.23596111,0.45873144,0.3164313,0.2411029,0.4951434,0.15526202,0.204717,-0.18900445,-0.13941294,-0.20947278,-0.11969682,0.33655334,0.19238126,0.3282252,0.16542056,-0.041912697,0.06316382,0.39245775,-0.31490436,-0.055035792,0.24224374,-0.020335324,-0.19754308,-0.17273583,0.08254497,-0.29717332,0.28926975,0.45306394,-0.24838156,-0.079252966,0.18584427,-0.19195622,-0.18003775,-0.40190932,0.07224761,-0.07850781,0.27575484,0.2253451,0.17424046,-0.4576457,0.16679263,-0.36007953,-0.060149975,-0.0342839,0.26757133,0.13436282,-0.37395263,-0.1708841,-0.06583075,-0.15783943,-0.07085135,-0.04931184,-0.27709875,0.015589569,0.27223358,-0.034488942,-0.25437838,-0.16082364,-0.2722882,-0.45950088,-0.012827104,0.008789271,0.09405137,0.5068955,0.24992466,0.3329821,0.01232975,-0.004782401,-0.3696737,0.20194787,-0.21564129,-0.09788871,0.20618352,-0.2927776,-0.11366462,0.009273849,-0.26322395,0.32794207,-0.102318235,0.06624108,-0.2090146,0.2950591,0.20472762,0.037396565,-0.092718594,0.0061787926,-0.354625,0.10278626,-0.2749308,0.25709692,-0.15964296,-0.20437923,0.17856508,0.06134381,0.030338213,0.1903019,-0.2816859,-0.088193476,-0.18848044,-0.044647165,-0.30425084,0.10259272,0.0444372,0.1141295,0.2668187,-0.06693584,0.26754382,-0.42041177,-0.247161,-0.42898363,0.023573346,0.11303083,-0.121584445,-0.1492888,-0.27453506,0.2160078,0.08151578,0.250687,0.2016213,0.106753424,-0.21019238,-0.0115686655,-0.42359194,-0.46440667,-0.18319765,-0.68238246,0.4295625,0.054247543,-0.039716087,-0.016787358,-0.37469515,-0.081818774,-0.11145405,-0.040284023,-0.06777508,0.08246858,-0.07545019,-0.2098046,0.012993902,-0.10647022,0.0043700114,0.06950121,-0.023861717,0.050506055,-0.049103525,0.58828104,-0.07939497,0.067344725,-0.076298945,-0.28720492,-0.07558224,-0.44018897,-0.31585982,-0.52914226,0.1767377,-0.188867,0.004803119,0.13504449,-0.7313475,0.25011736,0.45618796,-0.14485812,-0.31061506,0.29862043,0.06104555,0.034260012,-0.17872575,0.09630154,0.5107264,-0.07539375,0.13250178,0.0184685,0.31386095,-0.00512217,0.06470425,-0.044017293,0.0632394,0.15679328,0.059274785,-0.5244072,0.0047174767,-0.06269561,0.24181864,0.07218364,0.0062665716,-0.42341432,0.30328763,0.03489047,-0.031558424,0.06652375,0.1248011,0.31031764,-0.47978753,-0.41240165,0.5346423,-0.16298282,-0.24223569,0.054871224,-0.15285623,0.3328322,0.3707397,0.21260934,0.03711015,-0.053196862,0.04509701,0.014043432,0.13686445,0.42872918,0.09533244,-0.048707105,-0.08244429,-0.252948,-0.43463084,-0.120493084,0.18820736,-0.052498102,0.21909791,-0.14575052,-0.19020727,-0.041793074,0.024299644,-0.009529151,0.101466544,0.46966514,-0.28533942,0.2043182,0.2236256,-0.16218597,-0.30812505,0.54168576,-0.47732693,0.3839821,-0.19700934,-0.1383458,0.03300699,0.3511014,-0.38472635,0.24723801,-0.06584591,-0.4807602,-0.28564742,-0.05059186,-0.23656213,0.012742724,0.39294046,-0.0660476,-0.31310153,0.27520368,-0.23019569,0.39115733,0.0999723,0.6541236,-0.07033888,-0.40903646,-0.3400962,-0.40647274,0.72837085,0.21787196,0.023685258,0.28672868,0.2676494,-0.092402816,0.24859568,0.4309771,0.17071012,-0.25121385,-0.23687145,0.25136396,-0.012652077,-0.14607856,-0.12718254,0.29239583,0.48047197,-0.18346514,-0.19638479,0.081930764,0.0075661987,-0.18717316,-0.18808594,0.04776266,-0.41978246,0.106297515,0.05800295,0.20444182,-0.3258766,0.10178341,-0.12963572,-0.1624589,-0.112827905,0.05628577,-0.053773202,0.23583126,-0.22092524,-0.16670716,-0.19536287,-0.25876826,-0.25266805,-0.034366805,0.11567493,-0.1631316,-0.2528552,0.10375644,-0.20104611,-0.24380164,-0.06595508,-0.091007814,-0.005148314,0.41421625,0.33451733,-0.47334462,0.1831666,-0.5376856,0.28768218,0.5069458,-0.27319908,-0.066419244,-0.3134608,0.1213565,0.039013978,0.45783392,-0.0055257455,-0.09418555,-0.041127723,-0.22712891,-0.17276317,0.10717785,-0.47115168,0.118322685,0.3535208,-0.164478,-0.25300634,-0.08364916,-0.28593138,0.36726266,0.18229398,0.23048335,-0.54073024,-0.22145236,-0.35121354,-0.031610124,0.062256984,0.23642078,0.090857476,-0.15721416,-0.10590868,0.010672867,0.155299,-0.03364598,0.0026914477,0.16270295,0.5690995,-0.31023878,0.17560983,0.16951191,-0.31183589,0.24806257,-0.07094784,-0.31314892,0.100056864,-0.057081327,-0.07917493,0.014567651,0.031964414,-0.15581578,-0.06964423,-0.020559289,-0.11299407,0.27583453,-0.17502284,0.29214796,0.71799225,0.16131428,0.2056777,0.24185261,0.15041351,-0.049159236,-0.5985044,-0.16375522,-0.08875928,-0.04384365,-0.3345949,0.05679092,0.09381811,-0.33190453,0.06735745,-0.45897162,0.19926265,-0.16306889,-0.035954744,-0.10635551,-0.13334511,-0.2606427,0.054416064,-0.25644237,-0.3969016,-0.03980329,0.21544372,0.11521087,-0.33253202,-0.050937735,-0.23718658,-0.278254,0.13511279,-0.15930602,0.42833984,0.2578529,0.02804862,-0.14011605,-0.44956252,0.15038797,0.37799835,-0.11962716,-0.24395026
C2,-0.36812195,0.28872734,0.014662586,0.3166925,-0.22697562,0.18361135,-0.23191065,-0.13649729,0.38606003,-0.04601927,0.07628537,0.0015041605,-0.2943261,-0.22256754,0.032136563,-0.5584307,-0.10300069,0.082098514,0.14081532,0.40291575,0.21231152,0.21796416,0.59652567,0.29550114,-0.02490928,-0.294845,-0.33532447,-0.00018803775,-0.2066814,-0.3678231,-0.07715241,0.29518792,-0.10642777,0.51734525,-0.069561176,0.35947502,-0.34182,0.3638137,-0.031202707,0.13382305,-0.10354499,-0.19166814,-0.29254973,-0.4815963,-0.15104717,0.3290846,-0.18264309,0.3000829,-0.6561012,0.38501495,-0.3657107,-0.19218832,0.013078332,0.28732994,0.33247736,-0.17733285,0.09479568,-0.14526388,-0.16495416,0.18190253,0.039586406,0.08719517,0.17453942,-0.052879795,0.03920534,-0.10117871,-0.12964535,-0.44007027,-0.031518325,-0.260341,-0.0066023767,0.12393972,-0.52223593,-0.2883285,0.16430432,-0.27879086,-0.44479904,-0.07006768,-0.1735401,-0.24462044,-0.42972803,-0.27448225,0.25099054,-0.1776722,-0.5331528,-0.101585865,-0.3596544,-0.40992424,0.045227423,0.18683589,0.27037886,0.14722598,-0.28364202,0.08736732,-0.3949502,-0.3004568,0.03942532,-0.042150736,0.33752686,-0.3177215,-0.12075706,0.21341601,-0.63914824,0.22077213,-0.28222,-0.042825386,0.32621905,-0.14965212,0.32417327,-0.29470903,-0.22420421,0.08088406,-0.3684532,0.03266862,-0.06692739,-0.0581081,0.1954622,-0.03603919,0.30448145,-0.14312544,0.024297588,-0.1737419,0.04850839,-0.28248444,0.29119277,0.35181022,0.10031769,0.20551261,0.13160405,0.427954,-0.10624941,0.28217703,-0.34892535,0.10746397,-0.071837,-0.26312715,0.046035983,-0.17176098,-0.23900998,0.03616276,-0.0864062,0.15343356,0.2653977,-0.23955806,-0.096925564,0.19921513,0.0073947683,0.17522149,0.1362944,-0.14993559,-0.044816133,-0.087149955,-0.0045730537,-0.13378984,-0.22995622,0.020807065,0.31422278,0.070953056,-0.3650287,-0.22111452,0.36004877,-0.093769796,0.51640695,0.3762191,-0.2697303,0.09723547,0.08755205,0.071922995,-0.03611555,0.22275764,-0.44101232,-0.29641125,-0.035911813,-0.076459594,-0.22496012,0.05442757,0.020408377,0.3727096,0.039653756,-0.41568533,-0.16073063,-0.4618974,0.08335334,0.09511594,0.15391152,0.3737826,-0.107529484,0.42082086,0.21031833,0.055909075,-0.073832735,-0.32612154,0.04238271,-0.11150993,0.04786881,-0.23928976,-0.2905662,-0.39785612,0.22976014,0.16438225,0.0691146,0.25202724,0.10230912,0.14085132,0.004906513,0.014423586,0.22723264,0.48762152,-0.15360314,-0.1195636,-0.033421256,0.45382312,0.16857919,-0.2613257,-0.08389182,0.23128626,-0.005513139,0.24921152,-0.6664992,-0.2850858,-0.1148069,0.357039,-0.2292641,-0.059507675,0.2742533,0.19877136,0.034394614,0.2412579,-0.2712398,0.4146215,-0.17485191,0.22487554,0.2897708,-0.21905816,-0.0779328,-0.18789247,-0.07101605,0.30592898,-0.059408806,-0.35100624,-0.49436912,-0.021589618,0.4630891,0.027830968,0.06600822,-0.06293398,-0.19495296,0.27755272,-0.0036393926,0.19419785,-0.053829975,-0.14263341,0.08645153,0.16987711,0.06657771,0.30741185,0.0973001,-0.5600055,-0.23109184,0.17795733,-0.09779259,-0.23659158,-0.3597412,0.12105636,0.08373627,0.23567888,0.23951398,-0.3221829,0.18804637,0.17246722,-0.4233967,-0.25150025,0.17181942,0.21679363,-0.27333164,-0.02076903,-0.09023323,0.45051503,0.037067987,-0.14393778,0.56299555,0.00873382,0.17976198,-0.32049662,0.19726518,0.092496425,-0.01436203,-0.5390031,-0.1457868,0.014392529,-0.18043473,0.28972805,0.05631342,0.314931,0.10098689,-0.2301606,-0.45729467,0.22515345,-0.11985388,0.5723807,0.13154213,0.37077385,-0.21657392,0.15903865,-0.5812581,-0.48809922,-0.30950108,0.041210882,-0.25961292,0.2338856,-0.442214,0.2230052,0.12556872,-0.027840175,-0.078364104,0.41819662,0.107295096,0.083249524,0.20677295,-0.082608275,0.077128105,0.12860103,0.28115454,0.69727916,0.17688906,-0.31827968,0.041959908,0.13248518,0.56657255,-0.0923797,-0.10603311,-0.22147697,-0.33463126,0.39321163,0.130045,-0.3444348,-0.07821011,0.2705086,0.2123082,0.15706742,-0.25570744,-0.2929203,-0.055485915,-0.2727521,0.12810755,0.36003828,-0.41190714,0.06721887,-0.26244384,0.012048759,0.117425464,-0.22359729,-0.10062745,0.097581945,0.38710847,0.21238515,0.0032602623,0.04380376,-0.46726832,-0.16365674,-0.31688407,-0.28336543,-0.16063215,-0.1372122,-0.22054979,-0.2188212,0.36270127,0.06297758,0.5935392,-0.21928145,-0.39179784,-0.61446023,-0.050491713,0.016588423,0.3197855,0.075781524,-0.022902392,0.10307759,-0.010829179,-0.04800664,-0.12487895,0.52199244,0.2671697,0.374217,-0.023729466,-0.2779054,0.13500899,-0.26964995,-0.045882054,-0.14597411,-0.15067597,-0.31171066,-0.29335952,0.035070546,-0.28957903,0.24993694,0.09986945,-0.46252787,-0.16805494,0.33117986,0.24326265,0.44108704,-0.19638819,0.12742406,0.0024656914,0.14783914,-0.4865537,-0.15596007,-0.10506381,-0.5323242,-0.2034974,-0.06909171,0.5678778,0.10702457,-0.20039535,0.20772411,-0.18175104,-0.3385875,0.016804226,0.24116749,-0.7414349,-0.056326948,-0.5015243,-0.24304816,-0.05280633,0.17340702,0.19887812,-0.18625912,-0.14195603,-0.11555101,-0.45908722,-0.05573904,-0.21457848,-0.27553678,-0.7476778,0.14866117,0.3162022,0.10526738,0.2086502,0.6168402,0.42208186,-0.107684284,-0.17273155,-0.083593026,0.019784138,0.1124274,-0.40400308,0.15727708,-0.10534778,0.3890136,-0.22976598,-0.1884583,0.23767859,0.3429193,0.036379464,-0.051743105,-0.18641748,-0.20680377,-0.43756855,-0.19736649,-0.047007546,-0.09956313,-0.25383192,0.09221225,0.13178071,-0.1588549,0.3148523,0.052805766,0.10833133,0.2282494,0.25608698,0.124644086,0.04460536,0.06649939,-0.06391268,0.34611312,0.0855121,-0.08658973,-0.09683152,-0.028979782,0.061728723,0.060979746,0.07184102,-0.21689476,-0.27839023,0.33006784,0.07910622,-0.17295235,0.35830763,-0.37458533,-0.01306764,0.0042881817,-0.024495102,0.48130375,-0.40107638,0.2621954,-0.06774549,0.13150556,-0.025732413,0.22104225,-0.01921463,-0.16202895,0.21426997,0.15894037,-0.5546401,-0.018157538,0.1697805,-0.6028846,0.21679771,-0.20765021,0.422936,0.3636319
C3,0.22246873,-0.24127503,-0.33465722,0.36299345,-0.045533784,-0.17869166,0.43369308,0.60269463,0.23929158,-0.13654295,-0.4710641,-0.02871532,-0.16659306,-0.0025893934,0.12730244,0.16507053,-0.13086109,0.2569419,-0.13209218,0.3861629,-0.15152633,0.23701386,-0.15640461,0.45783272,0.030638274,0.004066959,0.23747039,0.22647336,-0.23608123,-0.2715841,0.058269978,0.44341666,-0.027089752,-0.02017172,-0.044881992,-0.39248922,-0.039268754,0.123729564,-0.123688266,0.22979783,0.4077322,-0.44873655,0.40621224,0.1978479,0.1192843,0.084639214,-0.1314518,0.010481723,-0.06496147,-0.58581984,0.12554377,0.12537766,-0.5186964,-0.21645108,0.04442001,0.061219998,0.08363293,0.14918898,-0.07216697,0.034836147,-0.2802818,0.60522085,-0.48198,0.19431576,0.29277587,-0.05072592,-0.20721838,-0.10733134,0.41203594,-0.20346862,0.55260706,-0.37100554,0.02148746,0.029225145,0.21956469,0.18860123,-0.02475573,0.29089022,0.16159971,-0.1335291,-0.052381843,0.12592417,0.36277518,0.015797421,0.09481449,-0.2027733,0.042863354,-0.10188877,0.12022632,-0.1332526,0.16004133,-0.50550973,-0.056867383,-0.27675873,0.03446276,-0.46231285,-0.15112075,0.11712457,0.13412353,-0.46416417,-0.07818319,0.2645665,0.06398547,0.13331708,-0.10599873,-0.057585493,-0.14585564,-0.20538561,0.31469536,0.05606249,0.22479245,0.10157375,0.14820187,0.04058835,0.27769864,0.1900388,-0.12202353,0.14589323,0.058775283,-0.06608316,0.24338633,-0.39521325,-0.36000642,-0.34004533,0.25673485,-0.14927116,-0.64807594,-0.14197688,0.6066664,0.09884397,-0.13531238,0.7335259,-0.05772532,-0.376185,0.02577418,0.30101654,0.22355872,0.24099524,0.14554903,0.2675152,-0.0020413138,0.12035444,0.00022010505,-0.0061916076,0.04905628,-0.40459162,0.3165002,-0.18812999,-0.33594534,0.25290796,0.062099826,0.021900974,-0.20460051,0.08430531,0.32924843,-0.22147605,-0.22287217,-0.06619311,-0.13003352,-0.39025635,0.03219913,-0.15310827,-0.06009642,0.3146808,-0.14154083,-0.06591418,0.24648103,-0.26839563,-0.35427338,-0.1274131,-0.3435409,0.24782914,-0.113331474,0.08874564,-0.15920934,0.6350608,-0.2607361,0.57010096,-0.2543639,0.09897806,-0.21455842,0.16854718,0.4673769,0.34708923,0.8381987,0.15649357,0.4422268,0.329537,-0.10072279,-0.23519903,-0.09031959,0.10026869,-0.07270051,-0.13178638,-0.12875623,0.33949497,0.2851597,0.09506614,-0.22604272,0.08226951,-0.028026927,-0.16377655,-0.16060843,0.005683452,-0.121936284,-0.10143209,-0.10947898,0.42370403,0.031059895,-0.5826902,-0.1109088,-0.028948493,0.023304101,0.03777263,-0.09060956,0.28790218,0.017328762,0.18667474,0.18221961,-0.4706902,0.7942655,0.4148657,-0.52372456,0.14940345,0.15961215,-0.078991555,0.18402047,-0.037672758,0.2336283,-0.04679248,0.59730977,0.17163768,-0.11804964,-0.23830819,0.24190874,0.028315827,0.48663878,-0.39900082,0.07974434,-0.1812864,-0.21576338,0.21036386,0.24555154,-0.15964314,0.1778529,0.082065344,0.04147119,0.19396928,-0.07112213,0.21977898,-0.39983833,0.36145455,0.08524194,-0.44334862,0.11169589,0.23162052,-0.07307104,-0.13324618,-0.3047688,0.022443123,0.5039498,0.31633073,-0.40557265,0.08651607,-0.22616917,-0.21662694,0.12065245,-0.09860795,0.27149162,-0.44811547,-0.18614334,0.5052186,-0.24634473,0.2728977,0.10961978,0.33761668,0.070538685,-0.11114339,0.3774661,0.0207529,-0.09236342,-0.19511843,0.41157582,0.4529085,0.37466136,-0.062824905,-0.07415321,-0.13257456,0.090082,0.49251795,-0.16884445,-0.26690167,0.19442965,0.23324639,0.2384975,0.3774696,-0.3264408,-0.12717296,0.12012252,0.10696276,-0.10524498,-0.27351063,-0.22675952,-0.099624276,-0.13457258,-0.1615099,0.11265699,0.11948881,-0.65521073,0.056445055,-0.39809,0.02640621,0.5268129,0.21242964,0.166814,0.17316186,0.2398427,0.428103,-0.19324487,0.49885964,-0.39419276,0.015173791,-0.159405,-0.3742882,0.6234447,0.012341991,-0.12977149,0.0001558587,-0.065786846,-0.1349991,-0.21932629,0.17543176,-0.21938938,-0.30011582,0.044432484,-0.2184911,-0.29922393,0.24768908,0.28229043,-0.17864877,-0.19206226,-0.19181117,-0.41299453,0.69871444,0.051109776,0.03229844,0.0126618,-0.37077022,0.53815496,-0.26265532,-0.31376624,-0.29289895,-0.18910462,-0.47546333,-0.23276815,0.19235244,-0.1627194,-0.06718865,0.21360573,0.040875763,-0.40840185,-0.06511803,0.18731643,-0.45737606,-0.24866195,-0.1913544,0.0871704,-0.025687665,0.14153366,-0.29605204,0.19690217,0.13468216,0.16197915,-0.021537524,0.15647215,-0.16057207,-0.03941129,0.17311804,0.03812241,-0.26920652,-0.3434636,-0.097088724,-0.41121647,0.4400355,0.5367886,-0.060933173,0.54069865,0.35357946,-0.56063557,-0.0151688885,-0.12067925,-0.11878541,0.061039932,0.20432171,0.0127990395,0.42845112,-0.51536167,-0.30909288,0.101878025,0.1266256,-0.19256273,0.30100253,-0.08640831,0.1465677,0.056690834,-0.11425499,0.1654754,-0.16246153,0.46170694,0.039930332,-0.33174506,-0.19919091,0.056424208,0.7249163,0.507879,-0.68089193,-0.039391235,0.14609297,-0.024342813,-0.31602582,-0.24660331,-0.0935651,0.01107358,-0.017101742,-0.09080568,-0.11177224,0.17102666,0.08811718,-0.09773774,-0.28985822,-0.17817849,0.32225093,0.24014485,-0.09163628,-0.35822052,0.10012189,-0.20900258,0.022401933,0.018388622,0.23023736,-0.21892315,0.20350702,-0.11867269,0.18177839,0.3065824,0.016281132,0.28980455,-0.40526268,0.12079484,-0.15551296,0.33462226,-0.06789181,-0.29001522,-0.27612895,-0.40805787,-0.2101335,-0.07323673,-0.07713165,0.24830332,0.7036768,-0.57133764,-0.20454553,-0.34145498,0.29069734,-0.13833681,-0.4480652,0.2557857,-0.25393236,-0.17557283,0.31612465,-0.07723811,-0.27096057,-0.33872965,0.10102055,0.048411194,-0.07154832,-0.75055796,0.2894202,-0.57728577,0.061090067,-0.3261646,0.36557454,-0.339052,-0.3715046,0.13196412,0.39150557,0.10614262,-0.476207,-0.5615884,0.044188626,0.331172,0.22342587,-0.06382053,-0.12271092,0.42493212,-0.5232549,-0.17747086,-0.10770134,-0.21577495,0.2478328,-0.0870656,0.4102626,-0.210462,0.25880158,-0.10628002,0.10145622,-0.29936817,0.43249276,0.17239243,-0.110051386,0.013342746,-0.12709315
C4,-0.25153986,0.057371497,0.024457473,0.111997746,-0.19826889,-0.33613688,0.33305687,0.33488482,-0.1928266,0.0041747913,-0.3954144,0.036421992,-0.37441462,-0.05942874,0.08059255,0.014964607,0.17780241,-0.04769353,-0.10863613,0.3575429,-0.04236204,-0.3743502,-0.27238587,0.38830748,0.35883552,-0.23945525,0.19562341,0.34828684,-0.31713033,0.37383747,0.15179005,0.5703464,0.17272559,0.17433749,-0.066896625,-0.21949819,0.15918879,0.12098111,-0.2680567,-0.30487347,0.06766315,-0.0761634,0.39606148,-0.02117274,0.3312135,-0.14838123,0.037356596,0.04574866,0.28014383,-0.1326838,-0.1415365,-0.3408252,0.18021537,-0.6042249,0.181627,0.18879843,0.24849176,0.14229766,0.059448905,0.2619059,0.06613453,0.13502753,-0.2873881,0.10196597,0.058188863,-0.25382358,0.26307413,-0.46650684,0.13806789,-0.29307023,0.41483238,0.15136322,-0.4674201,-0.10346738,0.029288203,-0.14890237,-0.30302882,0.12769423,-0.3527742,0.15889199,-0.06720553,0.07447823,-0.16370782,0.19804506,0.17997077,-0.2500417,-0.33245683,-0.04527308,-0.13506088,0.3095114,-0.2781311,0.16027328,0.1311763,0.39635107,0.06024542,0.11800978,-0.46445736,0.16946742,0.062070128,-0.088142686,-0.0068161637,-0.045123328,0.0110951625,-0.1590602,0.07037604,-0.2557541,0.026216833,-0.31833398,0.1071319,0.17441149,-0.023266315,0.25794217,0.07891889,-0.1987505,-0.027987015,0.08471294,0.12939347,0.28462607,-0.07973658,0.2638889,0.33072478,-0.106517896,-0.26151556,-0.3582485,0.19017911,-0.38185418,-0.1074159,0.07623139,0.072425365,0.13889259,-0.42875224,0.25010973,-0.13462862,-0.34573746,-0.090497844,0.10268967,-0.32588744,-0.5084555,-0.15648577,0.3783912,-0.049384072,0.39948615,-0.080202796,-0.3064078,-0.024356611,0.26387537,-0.07167747,-0.042099193,0.093682,-0.16081701,-0.046720907,-0.03781159,-0.33730584,0.15833232,0.13381702,-0.3043632,0.20214778,-0.058569074,0.4375718,-0.008944023,0.13724467,-0.3663446,-0.08166092,0.17437246,0.147567,0.17718975,0.42959037,-0.006255284,-0.14295146,-0.09231473,-0.25964925,0.12776947,-0.427295,-0.4143976,-0.24006423,0.3672009,0.07851694,0.09622628,0.0631155,0.105428085,-0.20000505,0.40120524,0.15100163,0.29539728,-0.08784924,0.32738996,-0.008410826,-0.21318989,-0.23487389,-0.25206605,-0.1260441,0.08649616,-0.17376804,0.15336815,-0.38459763,0.3234639,-0.069706425,-0.08827721,0.19168133,-0.44296432,-0.37689632,0.098176196,0.17366868,-0.091211624,0.14690942,-0.3962931,0.14732137,-0.029483907,-0.10753568,0.037680276,0.09053017,0.036288433,-0.24630255,-0.24413836,0.01955923,-0.09608163,0.17340337,-0.22859645,-0.16100124,0.013805434,0.22883272,-0.4326392,-0.12803143,0.33915085,0.080160126,-0.085588925,0.18037684,-0.269291,0.16769658,-0.19314457,0.09970857,-0.0006514713,0.05221444,-0.19509542,-0.09218569,-0.18502098,-0.20779958,0.084846236,-0.44885182,-0.3042189,-0.5547927,-0.21469548,-0.052747536,0.21961957,-0.18784292,0.11915476,-0.04262908,0.17846525,0.15234578,0.029559858,-0.24667579,-0.15287846,-0.36360863,-0.1202334,0.43219864,-0.04865136,-0.07759223,0.155357,-0.060015492,-0.06551032,0.3687096,-0.11755209,-0.03312268,0.011359094,-0.06709992,-0.1118325,-0.19192423,0.50089926,-0.37713397,0.27517405,-0.06310441,-0.1350964,-0.14417323,0.2558511,0.019801151,0.30235603,-0.1966874,0.3488164,0.2028051,-0.040374286,-0.1057093,0.07417664,0.04147808,0.10473354,-0.5928731,0.2609427,0.118814945,0.24368757,-0.28320783,0.26731643,0.5449676,-0.5960548,-0.0618308,0.28107038,0.025425613,0.035184674,-0.21682185,-0.38200963,-0.089200996,-0.29287773,0.011109874,0.19304857,-0.06859958,0.09838177,-0.14612181,-0.015581969,0.24544087,0.1153286,-0.20239258,0.08562255,-0.42997193,0.010054447,-0.043079622,0.024556186,-0.23663706,0.046454106,-0.1948816,-0.033146948,-0.24221498,0.078661196,-0.35577664,0.05184606,-0.18877469,-0.1335718,0.17392024,0.1851955,0.26713744,-0.15584895,-0.23546252,-0.15097639,-0.07786757,-0.1509412,-0.34169734,-0.047533754,-0.1668545,0.08878498,-0.08386793,-0.07051034,0.366155,0.1022313,-0.10602678,-0.0911307,-0.08271173,0.16224478,0.052158438,0.0063379705,-0.377245,-0.2690454,-0.035804994,0.34321728,-0.1304991,0.035990722,0.02451554,0.17448327,-0.08172305,-0.22601356,0.11425166,-0.17952976,0.16414735,-0.4600164,-0.30492973,-0.07536211,-0.31051177,0.119380884,0.18273954,-0.2725408,0.23269075,0.19684455,-0.2831044,0.40573317,0.23187912,0.054698803,-0.0741981,0.104035765,0.30055517,0.2935159,0.08234516,-0.20779657,0.09577825,-0.15652332,0.016966028,0.07891601,-0.040531375,-0.14911065,0.154035,-0.008265488,-0.1471385,0.094388485,0.21133226,0.30935574,0.27459553,-0.4058817,-0.19019678,0.10740238,-0.09589723,0.25769502,-0.17511666,-0.04591856,-0.09294868,0.25503436,-0.32773286,-0.21120912,-0.10169518,-0.025785295,0.06437918,-0.1418455,-0.14203417,-0.13293839,0.21551439,0.2863162,-0.10951663,-0.1634172,0.3502445,-0.11235623,0.4147612,-0.23275267,0.38544196,0.18076023,0.34310424,-0.41766885,-0.48102644,-0.32975686,-0.07353121,0.16870809,-0.30314475,-0.049801655,0.10549466,-0.011803977,0.29464826,-0.04577922,-0.31250203,-0.14088891,0.17416042,-0.39692664,-0.24497986,-0.23498428,-0.16459039,-0.002277188,-0.084580705,-0.07053084,0.21837047,-0.58907074,-0.088381715,-0.2648288,-0.23357771,0.07457901,-0.061528407,-0.16842085,-0.32164994,0.2815402,0.054025337,0.38224107,0.40624648,0.14248314,-0.06795047,0.2957914,-0.2972926,0.21222779,0.0020884713,-0.40628216,-0.39078987,0.114672266,-0.3475776,-0.01630748,-0.27474087,-0.1893554,0.07775658,-0.35186276,-0.30803594,0.36449444,0.33790055,-0.10541581,-0.010575347,-0.048628327,-0.0021276101,-0.18301317,0.010404941,-0.36852327,-0.03533136,0.15082185,0.20815311,-0.15292957,-0.22902267,0.51899654,-0.14008307,0.1602672,-0.01781401,-0.06335151,-0.17425862,0.06795135,0.41404486,-0.065044634,-0.06427049,0.20657052,0.23492852,-0.23339765,-0.41412985,-0.45377794,0.08808264,0.024504656,0.130739,-0.092162415,-0.2773514,0.21939492,-0.39272702,0.24288687,0.03711278,-0.25475016,0.38988683,-0.09386156,0.32859805,-0.16858923
C5,0.40521666,-0.22317402,0.523646,0.13461635,-0.20310634,-0.22060291,-0.1846334,-0.16501683,0.21101746,-0.24396268,-0.11158517,0.13354518,0.03691842,0.11617172,-0.27493694,0.31864682,-0.124220535,0.009195641,0.21624896,0.26540703,0.08303805,-0.26658615,0.40474063,0.2992323,-0.41583037,-0.22590932,-0.010452505,0.37986153,-0.16860852,0.4523237,-0.38879997,0.36992222,0.31725958,0.19690521,0.5284391,0.33207557,0.18704961,0.4276119,0.12177516,-0.10306381,0.14636752,-0.18769534,-0.2688289,-0.07283274,0.2058286,0.22696504,0.15625843,0.01676891,-0.41416916,0.26086128,-0.28939334,-0.019811895,-0.199806,0.20683241,0.18102965,0.60901433,0.0062304884,0.18168792,-0.19162908,0.18928991,0.17524672,0.006903721,0.019519027,0.36902806,-0.061462767,-0.22561893,-0.039206445,0.10632851,-0.14991672,-0.29915756,0.23159009,0.51546794,0.37652874,-0.15896973,-0.01313179,0.14870825,-0.20302851,-0.31395262,0.07626051,0.022717625,-0.07595214,0.33406612,0.05468761,0.14907716,0.119213946,-0.22801283,-0.26594877,0.058016244,0.0564482,0.1269882,0.35204113,-0.0025317408,0.02132272,0.020794474,-0.23359983,-0.27031398,0.063678704,-0.12049562,0.11416348,0.1201084,-0.50725204,-0.12501402,0.10821733,-0.29167867,-0.30505705,-0.010911938,0.19437976,0.033250388,-0.32886365,0.19363682,0.15614629,0.15364125,-0.24983716,-0.6647159,0.049899206,-0.24358462,-0.10186332,-0.04179027,-0.0035618516,-0.053666115,-0.123896845,0.30996466,0.22184885,0.11606236,-0.02823276,-0.2258797,0.36000818,-0.024797266,0.104448974,-0.045259103,0.51703763,0.06343061,-0.1067277,0.26271537,-0.09602125,0.24390507,-0.49151808,-0.33293146,0.29814422,0.1351871,-0.010016862,0.28715327,0.35748053,-0.26498032,-0.09509915,0.9215968,0.01325269,-0.20543948,-0.09369771,-0.27329046,-0.08769822,0.39146227,0.032683745,-0.11786801,-0.6426583,-0.13873352,0.20505232,0.3724798,-0.24322519,-0.026937854,0.109446034,-0.30277666,0.0278237,-0.39005575,0.30450243,0.06385764,-0.12653247,-0.08677193,0.3088703,-0.13290119,0.09633632,-0.43072867,-0.33834973,0.46312445,-0.23205873,0.34160227,0.29804954,0.5562962,-0.42456654,-0.063401595,0.0574368,0.15504465,-0.2736218,-0.3095977,-0.00882937,0.048091,0.23576841,0.20464844,-0.24385124,-0.21785891,0.059472293,-0.41121396,-0.06999082,0.25254387,-0.29433915,-0.11581841,-0.3590957,-0.7314787,-0.33460107,0.41873586,-0.12684312,-0.13565126,0.42879623,-0.05430875,0.37308314,0.24668264,-0.10455848,-0.09640769,0.08973343,0.2816648,0.24832052,-0.074012175,-0.13802934,-0.27995324,0.30217177,-0.22864354,0.009289473,-0.15643156,-0.079240724,0.09275977,-0.2787609,-0.24651399,0.6134274,0.7558849,-0.21619526,-0.040101893,-0.4762028,0.070467666,-0.12190736,0.18289985,0.060537383,0.056784756,0.07145293,-0.16493648,-0.21636061,-0.12984014,0.0010571405,-0.07163363,0.30615908,-0.090940006,-0.1007503,0.03233169,-0.10256143,-0.47332698,0.2644731,0.3171179,0.054826025,-0.011833228,0.24047938,0.49713352,-0.06913368,0.1271373,-0.23990463,0.055636413,-0.17945582,0.3335942,-0.1514521,0.2691607,0.09504439,-0.05383581,0.052155085,0.38402894,-0.38036138,-0.3122993,-0.104531005,0.06525932,0.41529065,-0.32811403,-0.43176028,0.4493897,0.16412899,-0.34869626,0.119484276,0.14224564,-0.4256255,0.19098943,-0.47137955,0.42316365,0.29157165,-0.16156387,0.1186299,0.020483725,-0.20860122,-0.01819583,0.28853512,0.6084848,0.3431259,0.30926833,0.021905005,0.010853436,-0.20090769,0.3512826,-0.022071406,0.0139678195,0.21358001,0.10841611,0.23212165,0.34869435,-0.37198824,0.108779386,-0.44102293,0.47496668,-0.17347714,0.34313262,-0.07602556,-0.04830666,-0.20810708,0.11733021,-0.12758046,0.265696,-0.017073883,0.20959216,-0.20151019,-0.005361542,0.29871988,-0.33519676,0.07271533,0.24438375,0.10248058,0.04668867,0.18785298,0.06990686,0.21959049,-0.28104562,0.028630923,-0.16705263,0.2214504,-0.12077413,-0.14228386,-0.28781262,0.7020871,0.32819206,-0.12879653,-0.45207804,0.1214294,-0.056220297,0.032508746,0.07260056,-0.116354145,-0.0040730163,-0.15211019,-0.42274198,-0.30176556,-0.41135597,-0.19885829,-0.14353448,-0.110265866,-0.0054400265,-0.2644177,-0.1911163,-0.3991143,0.12895024,-0.28139856,-0.09250543,0.46485817,0.038005225,-0.6478085,-0.016381212,-0.59190494,-0.20669672,-0.19751807,-0.17280549,0.10794647,-0.15742016,0.2943361,-0.27362132,0.15734583,-0.13603586,0.084681064,-0.14059503,0.03203135,0.18252805,-0.110364795,-0.19232705,-0.27684706,-0.29302835,0.17417969,0.16946317,-0.4808247,0.03541182,0.2577887,-0.010480508,0.16941962,-0.33436012,0.124570265,-0.1741787,-0.35607165,-0.30765617,0.07121076,-0.4633474,0.1122733,-0.27240044,-0.2086752,0.081187725,0.5565216,0.2754547,-0.19811347,0.21172856,0.5494347,0.44409877,-0.2510727,0.36393002,0.18668488,0.07308878,-0.39422208,0.22523333,0.16494083,-0.21812147,-0.14891613,-0.13805878,0.08822958,0.09931655,-0.016948894,-0.016389858,-0.0014525503,0.11378868,-0.29115027,-0.68054104,0.7293116,-0.39561033,-0.1562584,0.16374111,0.24793151,-0.29418,0.028466117,0.2435059,0.034116037,0.29753524,-0.092105724,0.15148635,-0.46785542,0.051062368,-0.195943,0.19126749,-0.26413113,-0.046627462,0.3504575,0.22957051,0.1922908,0.25951976,0.25408956,-0.2999965,-0.36708525,0.32463714,-0.473462,0.09140918,-0.2978415,0.1532715,-0.16491714,-0.14611518,0.35496587,0.19003713,0.7152607,0.24019477,0.07333054,0.35168287,-0.5381475,0.0820666,0.31914324,0.062165488,-0.09840027,-0.24646303,0.30957878,0.26634514,0.065100595,0.33206743,0.06293263,-0.12757504,0.1817328,0.7138954,-0.1917597,-0.121975824,-0.078011654,-0.2700624,-0.07940952,-0.009184878,-0.012624573,-0.019494407,0.19909835,0.1212451,0.2961642,-0.06278355,-0.17703599,0.22601667,-0.19474205,0.044086136,0.07512417,-0.33670053,0.162339,-0.5036926,0.065585256,-0.38759467,-0.24449545,-0.2093968,-0.43613303,0.04158111,-0.14504877,0.23776755,-0.03634274,0.09473579,-0.47180536,0.14492139,0.09440275,0.048399787,-0.29845664,-0.1034244,-0.18487117,0.14265609,0.304196,-0.09705906,0.22182423,-0.09893157
C6,-0.028621435,-0.22751908,-0.39944512,-0.0935364,0.18866637,-0.083571866,0.046695806,0.12255882,-0.5385105,0.34590444,0.058817733,0.27371618,-0.3778117,0.12569532,-0.22085235,-0.3791651,0.0008926317,-0.16271996,0.6043866,0.55448353,0.19841294,0.2373328,0.22363806,0.15145724,0.30922246,-0.31875286,-0.029475557,0.41063127,0.18563256,-0.16244906,0.06884905,0.34106174,-0.17592748,-0.22628616,0.12091584,0.1551294,-0.057252884,0.24555069,0.45090073,0.012242533,0.05344899,-0.17811804,0.13620526,0.4048416,-0.08291093,-0.28168464,-0.31122497,-0.4774006,0.24855146,-0.43445396,0.12496844,-0.23338038,0.03243219,0.260081,0.20563594,0.07864786,0.019678228,-0.17415825,-0.038640745,-0.008860614,-0.24945307,0.25902742,0.19715862,0.16524595,0.426923,0.12972179,-0.19816762,0.4608871,-0.24721266,-0.18411815,0.46671054,0.34285295,-0.30974716,0.29438624,-0.044806488,0.41720858,0.13971192,0.08759807,-0.31847784,-0.21310906,0.3048126,-0.066752136,0.24011126,0.4149735,-0.2977791,-0.00032222085,-0.22637138,0.24121684,0.14162576,-0.42299747,-0.26198244,-0.5071024,0.6420871,0.4108533,0.3505452,-0.0028323233,-0.5588639,0.2634091,0.21547279,-0.123435326,-0.21642078,-0.2576811,-0.114779815,-0.15724942,0.4251663,0.30214006,-0.23081023,0.20112035,-0.07795299,-0.10735231,0.12105063,0.008799024,0.5571877,-0.08534958,0.18923385,-0.029952932,0.4080687,0.40491614,0.06208067,-0.027819717,-0.060662717,0.21638238,0.4712743,0.16427661,0.2805686,-0.4767974,-0.38775322,0.020057257,0.062087826,0.17910036,-0.105427064,0.2897439,-0.35564297,-0.30260867,0.24198717,-0.22012791,0.010170832,0.41605723,0.113564804,0.32018995,-0.18993637,-0.051208615,0.38852608,-0.115014195,-0.19374445,0.6687995,0.1421327,-0.43248123,0.15330891,0.43503433,0.06694122,-0.016042516,-0.073850386,0.3030861,-0.1307695,-0.23819672,0.36026174,0.18092117,0.16964436,0.006344773,-0.2561751,0.3195118,0.15599649,-0.325863,-0.27228463,-0.0062886924,0.31936902,0.5232708,0.19228116,-0.38834104,-0.18175349,0.094222836,-0.13579321,-0.15493649,0.24720338,0.09538212,-0.20836818,0.38879424,-0.10956184,0.08059752,0.05127185,0.19161275,0.024562549,0.01872313,0.31242087,-0.16320482,-0.1481578,-0.13959694,0.4381461,0.1099936,0.16724549,0.17840621,-0.34804162,0.06737026,0.36952594,0.24250352,-0.06794517,-0.07894114,-0.34664825,-0.11137398,0.21366395,0.30982253,-0.042462982,0.51409054,0.17505273,-0.4892632,-0.018644925,0.3465349,-0.15351698,-0.50249237,-0.0329575,-0.41671303,-0.046025917,0.39951372,0.051688977,0.19957235,-0.46041268,-0.12814459,-0.263826,-0.41809243,0.14636144,0.063732274,-0.3813216,-0.030124834,-0.24654393,-0.21364486,-0.27617413,-0.1431635,-0.18208402,-0.20029318,-0.104407996,-0.2518302,-0.065049246,0.1141232,-0.2358028,0.0539067,0.2533222,-0.2958899,0.17389762,-0.09590494,-0.41620836,-0.09412571,0.0032162461,-0.30670622,-0.2645586,-0.09030047,-0.10711813,0.20765105,0.23773912,0.17613193,-0.3274212,0.37273932,-0.21377032,0.274619,-0.11330871,0.015922885,0.38505375,0.18272579,-0.28275403,-0.37899908,-0.07269273,0.2668255,-0.091704346,-0.06544838,-0.24590239,-0.32843906,0.22274317,-0.18772963,0.0731805,0.05127175,-0.39286917,0.35906002,0.17183292,-0.07429492,0.30478975,-0.35849375,-0.14314908,0.01814767,0.1947868,0.1144284,0.035495255,-0.23621565,0.29907712,0.11471799,0.059110075,0.20167941,-0.31737056,0.5554612,-0.18856579,-0.61430615,-0.2810099,-0.03726895,0.17981522,-0.53946763,0.7025991,-0.105956055,0.19119176,-0.095572725,-0.20460084,-0.11866237,-0.08659397,0.18219429,-0.5144527,-0.32215506,-0.07401851,-0.24963221,-0.3930417,0.08334851,-0.22211653,0.058416415,-0.098354064,-0.24748698,0.20734963,0.01386819,0.21076754,-0.08372437,0.22039704,0.027912766,-0.17366375,0.10801783,-0.3266388,-0.19217971,-0.40877068,-0.017930258,0.35428807,-0.32853818,-0.31941497,0.1728704,0.01798185,0.25836015,-0.47251645,-0.4384938,-0.091187686,0.08878615,-0.4008283,-0.1924819,-0.097897746,0.10531472,-0.42454544,0.048132546,-0.13804887,-0.1288976,-0.0064377002,-0.19924995,-0.0060519055,0.19041558,-0.62762785,-0.25742716,0.16205421,0.5944348,-0.38590187,0.25921872,-0.038499914,-0.109647214,-0.1126769,-0.060413007,0.13274607,-0.51479524,-0.16598696,0.09070116,0.30201897,-0.116039835,0.20934074,-0.089140885,0.016861685,0.38947862,-0.5883094,0.13584298,-0.055400684,0.5328337,-0.20791455,-0.53517556,0.17066233,0.19045895,0.23087502,0.20730829,0.19121854,0.10868518,-0.581662,-0.313657,-0.13209072,0.45361307,-0.5617691,0.10394078,0.023817066,0.5300255,-0.15440762,-0.21604976,-0.24315476,0.024507318,-0.35186216,-0.2364071,-0.27008247,-0.24378625,-0.31806868,0.2213079,0.051078886,-0.30904633,-0.14501324,0.113568515,0.08653176,-0.24011037,-0.0760882,-0.09695245,0.16934048,0.14550893,-0.2802704,-0.007265106,-0.0093825385,-0.3104361,-0.27804345,0.014735315,-0.32793272,-0.1832979,-0.18260029,-0.06519192,0.008592188,-0.69247097,0.17948198,0.12468552,-0.6596742,-0.54531336,0.30834377,0.3007656,-0.53446686,0.3969942,0.13705568,-0.29197934,0.13055614,0.13765475,-0.3561643,-0.08372386,0.10058252,0.04063481,0.010099508,-0.1797679,-0.5012109,0.1135987,-0.08012743,-0.0102121495,-0.11792295,-0.15306066,0.06683065,0.055139273,-0.36783135,-0.4744683,-0.18611762,0.016560256,-0.15583465,0.29624593,0.38286236,-0.43513831,-0.13162196,-0.111499764,-0.16169961,0.014650552,-0.4714688,-0.3734141,-0.28117436,-0.17814922,-0.21654528,0.23219225,0.17351222,-0.33700514,0.075191915,0.5400226,-0.380681,0.12210112,0.24928528,0.57517105,0.44627813,0.15033442,-0.014242351,-0.10269834,-0.12780982,0.18526712,0.006632298,-0.2552303,0.24275261,0.027370296,0.2330623,0.10818677,-0.18559697,0.02641606,0.24260396,0.48042363,-0.5757723,0.2670659,-0.41535836,0.07824545,-0.19001506,0.21008833,0.015494183,0.18741195,0.22368273,0.0764192,0.13000485,0.37991914,0.062222846,0.44219095,0.40249023,0.3451433,0.11137282,0.28078574,-0.18556607,-0.27302542,0.16429119,0.50291085,0.26000276,0.062056344,-0.03690931,-0.16750993
