GeneID,feature_1,feature_2,feature_3,feature_4,feature_5,feature_6,feature_7,feature_8,feature_9,feature_10,feature_11,feature_12,feature_13,feature_14,feature_15,feature_16,feature_17,feature_18,feature_19,feature_20,feature_21,feature_22,feature_23,feature_24,feature_25,feature_26,feature_27,feature_28,feature_29,feature_30,feature_31,feature_32,feature_33,feature_34,feature_35,feature_36,feature_37,feature_38,feature_39,feature_40,feature_41,feature_42,feature_43,feature_44,feature_45,feature_46,feature_47,feature_48,feature_49,feature_50,feature_51,feature_52,feature_53,feature_54,feature_55,feature_56,feature_57,feature_58,feature_59,feature_60,feature_61,feature_62,feature_63,feature_64,feature_65,feature_66,feature_67,feature_68,feature_69,feature_70,feature_71,feature_72,feature_73,feature_74,feature_75,feature_76,feature_77,feature_78,feature_79,feature_80,feature_81,feature_82,feature_83,feature_84,feature_85,feature_86,feature_87,feature_88,feature_89,feature_90,feature_91,feature_92,feature_93,feature_94,feature_95,feature_96,feature_97,feature_98,feature_99,feature_100,feature_101,feature_102,feature_103,feature_104,feature_105,feature_106,feature_107,feature_108,feature_109,feature_110,feature_111,feature_112,feature_113,feature_114,feature_115,feature_116,feature_117,feature_118,feature_119,feature_120,feature_121,feature_122,feature_123,feature_124,feature_125,feature_126,feature_127,feature_128,feature_129,feature_130,feature_131,feature_132,feature_133,feature_134,feature_135,feature_136,feature_137,feature_138,feature_139,feature_140,feature_141,feature_142,feature_143,feature_144,feature_145,feature_146,feature_147,feature_148,feature_149,feature_150,feature_151,feature_152,feature_153,feature_154,feature_155,feature_156,feature_157,feature_158,feature_159,feature_160,feature_161,feature_162,feature_163,feature_164,feature_165,feature_166,feature_167,feature_168,feature_169,feature_170,feature_171,feature_172,feature_173,feature_174,feature_175,feature_176,feature_177,feature_178,feature_179,feature_180,feature_181,feature_182,feature_183,feature_184,feature_185,feature_186,feature_187,feature_188,feature_189,feature_190,feature_191,feature_192,feature_193,feature_194,feature_195,feature_196,feature_197,feature_198,feature_199,feature_200,feature_201,feature_202,feature_203,feature_204,feature_205,feature_206,feature_207,feature_208,feature_209,feature_210,feature_211,feature_212,feature_213,feature_214,feature_215,feature_216,feature_217,feature_218,feature_219,feature_220,feature_221,feature_222,feature_223,feature_224,feature_225,feature_226,feature_227,feature_228,feature_229,feature_230,feature_231,feature_232,feature_233,feature_234,feature_235,feature_236,feature_237,feature_238,feature_239,feature_240,feature_241,feature_242,feature_243,feature_244,feature_245,feature_246,feature_247,feature_248,feature_249,feature_250,feature_251,feature_252,feature_253,feature_254,feature_255,feature_256,feature_257,feature_258,feature_259,feature_260,feature_261,feature_262,feature_263,feature_264,feature_265,feature_266,feature_267,feature_268,feature_269,feature_270,feature_271,feature_272,feature_273,feature_274,feature_275,feature_276,feature_277,feature_278,feature_279,feature_280,feature_281,feature_282,feature_283,feature_284,feature_285,feature_286,feature_287,feature_288,feature_289,feature_290,feature_291,feature_292,feature_293,feature_294,feature_295,feature_296,feature_297,feature_298,feature_299,feature_300,feature_301,feature_302,feature_303,feature_304,feature_305,feature_306,feature_307,feature_308,feature_309,feature_310,feature_311,feature_312,feature_313,feature_314,feature_315,feature_316,feature_317,feature_318,feature_319,feature_320,feature_321,feature_322,feature_323,feature_324,feature_325,feature_326,feature_327,feature_328,feature_329,feature_330,feature_331,feature_332,feature_333,feature_334,feature_335,feature_336,feature_337,feature_338,feature_339,feature_340,feature_341,feature_342,feature_343,feature_344,feature_345,feature_346,feature_347,feature_348,feature_349,feature_350,feature_351,feature_352,feature_353,feature_354,feature_355,feature_356,feature_357,feature_358,feature_359,feature_360,feature_361,feature_362,feature_363,feature_364,feature_365,feature_366,feature_367,feature_368,feature_369,feature_370,feature_371,feature_372,feature_373,feature_374,feature_375,feature_376,feature_377,feature_378,feature_379,feature_380,feature_381,feature_382,feature_383,feature_384,feature_385,feature_386,feature_387,feature_388,feature_389,feature_390,feature_391,feature_392,feature_393,feature_394,feature_395,feature_396,feature_397,feature_398,feature_399,feature_400,feature_401,feature_402,feature_403,feature_404,feature_405,feature_406,feature_407,feature_408,feature_409,feature_410,feature_411,feature_412,feature_413,feature_414,feature_415,feature_416,feature_417,feature_418,feature_419,feature_420,feature_421,feature_422,feature_423,feature_424,feature_425,feature_426,feature_427,feature_428,feature_429,feature_430,feature_431,feature_432,feature_433,feature_434,feature_435,feature_436,feature_437,feature_438,feature_439,feature_440,feature_441,feature_442,feature_443,feature_444,feature_445,feature_446,feature_447,feature_448,feature_449,feature_450,feature_451,feature_452,feature_453,feature_454,feature_455,feature_456,feature_457,feature_458,feature_459,feature_460,feature_461,feature_462,feature_463,feature_464,feature_465,feature_466,feature_467,feature_468,feature_469,feature_470,feature_471,feature_472,feature_473,feature_474,feature_475,feature_476,feature_477,feature_478,feature_479,feature_480,feature_481,feature_482,feature_483,feature_484,feature_485,feature_486,feature_487,feature_488,feature_489,feature_490,feature_491,feature_492,feature_493,feature_494,feature_495,feature_496,feature_497,feature_498,feature_499,feature_500,feature_501,feature_502,feature_503,feature_504,feature_505,feature_506,feature_507,feature_508,feature_509,feature_510,feature_511,feature_512
a,-0.04278634,-0.5118835,0.20407704,0.6305647,0.09526758,0.49542227,0.0069426205,0.24430186,0.09753671,0.009278305,0.2527952,0.5144062,0.17172047,-0.05775643,-0.30249628,0.47525167,0.24120992,-0.107422784,0.13412464,0.057514887,0.005307704,0.21707556,0.040541843,-0.028175183,0.28396142,0.29249722,-0.060883842,-0.05983568,0.30700332,-0.08795885,-0.23236175,0.02949518,-0.33150735,-0.40359718,-0.07980842,0.084468566,-0.1494021,0.05600734,-0.35347015,-0.10766371,0.19189176,-0.0694132,-0.0938194,0.40713266,-0.23319769,-0.042427827,0.22137237,0.22226626,-0.19600911,-0.52471274,-0.20299844,-0.40752834,-0.078950696,0.22040811,0.086786866,0.028109763,-0.0027900264,0.10567143,0.36141792,-0.06033972,-0.17071447,0.13490146,-0.12740067,0.20302325,-0.27128258,0.4613974,0.11753968,0.25125688,0.29429775,0.034625225,-0.29793453,0.19117877,0.017122343,-0.1237723,-0.0076159015,0.13093376,0.36976066,-0.07427489,-0.08140992,0.3924389,0.19933343,-0.2666716,-0.10988705,0.5988326,0.22848678,-0.013349853,0.36273706,-0.2889025,0.14117774,0.16218281,-0.3791541,-0.12998867,0.033748757,-0.25957918,0.20612505,-0.08613945,-0.066006996,-0.022770956,0.15591428,-0.16001639,0.37965977,0.15268683,-0.21101803,0.1426615,-0.19412503,0.036988027,-0.05486533,-0.15029025,0.34437326,-0.110441774,-0.0019522756,0.21827455,-0.32860756,-0.18566798,0.37311578,0.23146607,0.11211629,0.24389958,0.41790113,-0.036090318,-0.25341335,-0.21545854,-0.19344151,-0.013425015,-0.22371525,0.18299073,0.7768375,-0.060260776,-0.017938495,-0.12731522,-0.030760564,-0.042456616,0.38255653,0.07719659,-0.109944046,-0.2520889,-0.06835343,0.04858101,0.18613227,0.09246491,-0.027355615,-0.2784937,-0.20756352,-0.15348999,0.08385894,-0.28343314,0.16073108,-0.020881426,-0.05547064,-0.19704753,0.11807375,-0.28935432,-0.32281607,-0.3495579,0.22139627,0.32046324,0.10877442,-0.07680908,0.2340343,0.015454698,0.2286208,-0.0032344032,0.20940404,-0.25533086,0.20579806,-0.27248025,0.041707672,-0.5149639,0.00052684546,-0.0017505437,-0.02462465,-0.33337432,0.06220068,-0.36356342,0.26590312,-0.086890414,-0.20565239,-0.5868102,-0.19343331,-0.078282535,0.09926429,-0.28900355,-0.11715691,0.10222301,0.36955592,0.10686313,-0.21154416,-0.09168213,0.41500172,0.0078430325,-0.05193507,-0.12470513,0.22029206,0.0422856,-0.39176542,-0.28553122,0.17121553,-0.25639722,0.2528996,0.1509757,0.012921404,0.13399836,0.21580833,-0.50840443,-0.039927565,-0.04651328,-0.066986375,-0.18732437,0.28043857,-0.42840993,-0.05371984,-0.16441871,-0.37663645,0.13856068,-0.19698304,0.03492496,0.07552488,-0.0989194,-0.2410701,0.12826185,0.091726124,0.07391176,0.26182884,0.018461168,0.08105695,0.20001608,-0.1115043,0.16745678,-0.2257213,0.110909656,0.06516436,-0.117544055,-0.31972948,0.09854138,0.10132716,-0.39672387,-0.646381,-0.4847532,0.046029825,-0.12929878,0.11540597,-0.051690213,0.33882248,0.10644469,-0.072477095,0.38438144,0.005027145,0.21643612,0.23805141,-0.05817195,-0.24888116,-0.050898794,-0.2434484,0.13542418,-0.23192313,-0.0024064928,-0.36952484,-0.07816702,-0.14561754,-0.034363106,-0.16167095,0.20984945,-0.19710079,-0.21065411,-0.21526986,0.07517808,-0.07741131,0.027098224,-0.12487593,0.5024268,0.10754612,-0.100622065,0.08965128,0.15433162,0.511029,0.09776019,-0.07117032,-0.28907534,-0.085384354,0.12670738,0.17886901,-0.07241052,-0.15402375,-0.25540888,-0.046544384,-0.21651903,-0.058717694,-0.12240661,-0.15577437,0.03917491,0.21552396,0.10100314,-0.009456947,0.017641507,-0.26096964,0.24781957,0.056819797,-0.1264021,0.24453124,-0.0666414,-0.73539406,0.21119618,0.1640861,0.031680442,-0.006400138,-0.13302241,0.4463212,0.053473003,0.41640663,0.36138883,-0.1954146,-0.17524761,0.85224795,-0.021762844,0.21228385,0.07165268,-0.3881225,-0.2010361,-0.18756881,0.07010898,-0.4303427,-0.016836345,-0.13918838,0.08550082,0.27178687,0.30125475,-0.22798002,0.22915837,-0.09182035,0.08736566,-0.45582244,-0.14226964,0.034776017,0.09472196,0.031689525,0.28785035,0.28275606,0.30782214,0.15308669,-0.053440988,-0.19374847,0.3560181,0.10402843,0.23820499,0.2346804,0.43029618,0.2962977,0.09966981,0.008681927,0.31025982,0.030737102,-0.046554677,0.007963099,-0.050904088,0.12981492,0.012236103,0.14752424,0.102205835,0.029044453,0.0040875264,-0.0020610392,0.40882027,-0.20694624,-0.09107972,0.13698764,0.33680332,0.1068639,0.23085627,-0.0005544834,-0.2631428,0.27657348,-0.00055527315,0.012498885,0.34105414,-0.2447337,-0.07828906,0.13863936,0.13365352,-0.25995484,-0.18543944,-0.6507173,-0.09951937,-0.29646373,0.13554549,-0.22506577,-0.021120466,-0.0758186,0.2061952,-0.08614053,-0.27121085,-0.19286257,0.1422635,0.04258617,0.16575515,-0.012290709,-0.5411494,0.2373715,-0.10524272,0.02497062,-0.02164834,-0.24737763,-0.08787589,-0.24358386,0.26672298,0.39887488,0.020979453,0.056398228,-0.017870277,0.12426601,0.3329249,-0.06355204,0.16870242,0.24674463,0.00084000826,0.18803056,0.008316817,0.20402113,0.070837505,0.27616948,0.14576453,0.031683408,-0.22314286,0.12229778,0.5477683,0.44490132,-0.088074654,-0.295764,-0.09090824,-0.21382672,0.053788666,0.17752574,-0.2013602,0.051117226,-0.08866929,0.13359565,-0.05535031,0.14626512,-0.17289391,-0.18609577,0.18756053,-0.13153186,0.33583486,0.33831427,0.047355805,0.64444757,-0.20185494,0.48534265,-0.25678438,-0.49954417,-0.04205375,0.33543795,0.12443076,0.18838948,0.2712198,-0.6475534,0.010623012,0.31277746,-0.7294908,0.40051425,-0.43770623,-0.273068,0.042411767,0.00615751,0.25133607,-0.051088512,0.022124292,0.07874445,0.5676918,-0.42128164,-0.25266486,0.004169591,-0.3413483,0.33026704,-0.020549953,0.08502398,-0.33988342,0.16390418,0.3165639,0.14217353,0.3791681,-0.19236875,0.32308593,0.07693389,-0.31139985,-0.31274238,-0.019528843,-0.19656208,0.0015924573,0.21699938,-0.12724864,-0.011532746,-0.10866078,-0.1859242,0.43658143,-0.20004585,-0.23620945,-0.3885178,-0.0755886,0.13385957,-0.1197151,0.12402471,0.13103251,-0.2657137,0.28425568,-0.18422076,0.28642327,-0.43612134,0.013136603,-0.034889564,0.12117118,0.09401312,-0.2315252
b,-0.22111681,0.04734788,0.0006549526,0.08188696,0.18208203,0.38620302,-0.4688059,0.22078729,0.2873957,-0.2622189,0.2270655,0.09934839,0.26590464,-0.10230907,-0.30853808,-0.11732737,0.23113665,-0.35041475,-0.0339853,-0.2719795,0.3978053,-0.19128877,0.1945307,-0.5522332,-0.21555969,-0.18486556,0.11322046,0.014468925,0.25664404,0.08436748,-0.008227389,-0.53506005,-0.13973512,-0.23277633,0.04400786,-0.3086875,0.15752059,-0.05394349,-0.020537343,-0.3786671,0.49666044,-0.29849896,0.21732432,-0.055812746,-0.034658574,0.14238985,0.56396896,-0.2047056,-0.34382445,-0.44794744,-0.16533999,-0.19053887,0.053925373,0.14387912,-0.15571606,-0.18712074,-0.47798172,0.09572333,0.53509045,0.163543,0.20372637,0.47555307,-0.13911992,0.17116392,-0.109559335,0.21418455,-0.33625126,-0.1932176,0.4178495,-0.34733948,-0.13476314,-0.27011576,-0.08153923,-0.13082886,-0.29635212,0.13259047,0.098369874,-0.37719327,0.057237327,0.30215493,-0.018194808,-0.105939575,-0.08869033,-0.15980673,0.48229697,0.09678993,0.08625193,0.1998967,0.46245325,0.07720332,-0.41107157,-0.015880503,0.3162712,-0.12705815,0.11606042,0.21754748,0.09006052,-0.24384886,0.1872186,0.22934772,0.8928504,-0.15257871,0.2807773,-0.091334045,-0.47792456,0.026300333,0.0414814,-0.66451573,0.4066291,-0.46163815,-0.38626373,-0.06998414,-0.15395099,0.05977595,0.48759162,-0.5316868,-0.12708482,0.62487054,0.73003143,0.11876994,0.018848293,0.2732971,0.25941795,0.08941464,0.13406254,0.08874357,0.23759314,-0.07918303,0.069345266,-0.56236905,0.02667788,0.014595386,0.21355242,-0.00567637,-0.2567864,0.119531155,0.100039095,0.38688588,0.44438273,0.1004043,0.21591438,0.09829493,-0.2966171,-0.09982057,-0.0695312,0.6779895,0.48846564,-0.013214443,0.05784794,-0.14756814,0.3442713,-0.2446437,-0.027124755,-0.4614653,0.008284435,0.28723076,0.054705158,-0.16702783,0.23191571,0.09036929,-0.056673206,0.38752374,0.5217073,0.06608332,-0.059141785,0.1683223,-0.13995606,-0.39629596,0.2635871,-0.24503998,-0.43854806,-0.31222278,0.34043944,0.030706998,-0.2610816,-0.23883715,-0.4468222,0.005180225,-0.41183975,0.3716819,-0.007728193,0.22974199,0.02706965,0.080487736,0.07781545,-0.058041476,0.06953738,-0.18571973,0.22330147,0.3429022,0.18403749,-0.6810068,-0.22965372,-0.5220568,0.035393223,0.16011217,0.14421827,-0.185842,0.25793052,-0.2618274,-0.41734493,0.092436515,-0.152673,0.0053617507,-0.04022053,-0.09150139,0.43312556,-0.07499017,-0.18767527,-0.24064103,-0.21343774,-0.3969287,-0.30408394,0.05699622,-0.5426032,-0.134369,0.2790445,-0.18058151,-0.38180402,0.053169105,0.099283025,-0.10435428,-0.015402686,0.0551348,0.23009416,-0.21767905,-0.17964311,0.46602976,-0.1547313,0.097974986,-0.22160259,-0.10562661,-0.56365776,-0.110934734,0.12790738,-0.09305385,-0.007334007,-0.24435753,-0.25785726,-0.052736335,0.094205536,-0.30491972,-0.008883238,0.07368646,-0.109525226,0.31667638,0.45944223,-0.36362797,0.28809866,-0.40600574,-0.064692676,0.18980855,-0.1324405,0.55277616,-0.2969271,-0.14676791,0.020501453,-0.24542338,0.04851177,-0.218372,-0.3195438,0.788301,0.16124003,0.07531418,0.19101179,0.09259842,-0.08370446,-0.15903644,0.53057927,0.25606075,-0.084558725,-0.1118129,-0.541619,0.103060514,-0.4684499,-0.039970547,0.088267416,0.41374612,0.06071606,0.1281808,0.23318896,-0.06541918,-0.13058388,0.059677012,0.19886294,-0.38560387,0.22211592,0.023647167,0.2655375,0.27371714,0.64133906,0.05190386,-0.35455307,-0.26938424,-0.08340609,-0.34393376,-0.38009617,-0.10816135,-0.0151180625,0.49682197,-0.2292223,0.054866686,0.162815,-0.1354425,0.45695412,0.10580669,-0.12254239,0.018222004,-0.4702146,0.07154842,-0.28437793,-0.4116379,0.6109508,0.049922913,-0.2401317,0.12589872,-0.010509372,-0.124264956,-0.03889773,0.3909197,-0.108095616,0.12911052,-0.19537087,0.20805104,0.38765767,0.07097708,-0.22502354,0.245395,-0.1941903,0.07110813,-0.06955337,0.36074015,0.08878778,-0.021594342,-0.028437419,0.15393579,0.3216393,-0.1312997,0.19580436,0.17888595,-0.34097224,0.14460108,-0.1257425,0.7901619,-0.06686364,0.102105394,-0.048122786,-0.28280187,-0.07116959,0.36899683,0.35756814,-0.03727661,0.35347167,-0.07093201,-0.17803708,-0.17059565,-0.010473266,0.0066402853,0.22820653,-0.29331297,0.32410938,0.4677748,0.14757393,-0.058274694,-0.09695136,-0.015002288,-0.32836902,0.10347563,0.17643803,-0.10808734,-0.13688843,-0.23113617,-0.4697451,0.36217538,-0.124754876,0.16915242,-0.3557159,0.16092706,-0.06592565,-0.39668974,-0.45166522,0.32000798,-0.045816,0.36098605,0.48527828,0.05904031,-0.025290087,0.18838769,-0.25262493,0.048271537,-0.38877234,0.15675312,-0.108307816,-0.026403222,0.14548472,-0.36037353,0.17814681,0.3119462,0.2679105,0.00086245686,0.013865355,0.1867954,-0.052153673,0.21171753,0.034957312,-0.31410265,-0.068682835,0.102852985,-0.07923962,0.27142602,-0.25729907,-0.059127048,-0.018282633,-0.4521023,-0.09344175,-0.10499107,-0.40462252,0.3051814,-0.23331562,-0.37474406,0.576411,-0.11549122,-0.2697637,0.4422021,0.22895417,-0.31689242,-0.1502407,0.05506798,-0.16492668,-0.015580244,0.03756903,0.27215427,-0.3885538,-0.14052194,-0.1290254,-0.23768789,-0.27568802,-0.20150469,-0.36194235,0.08622317,-0.18825904,-0.10137018,-0.21703324,-0.19953492,0.15361673,-0.32233498,0.25172475,-0.4321235,-0.3236947,0.09405902,0.0066183805,-0.09060447,0.6263671,-0.06619461,-0.08647637,0.006877482,0.06749033,0.09447377,0.39230162,-0.18542054,0.47398293,0.2718543,0.20906988,0.06316182,0.6234559,0.26574966,-0.37053666,0.15684232,0.30427557,0.054804586,0.28654692,-0.10087908,0.024717573,-0.0053399615,0.33256596,-0.33113897,0.22208148,0.21761791,0.4869303,0.029102862,-0.39417714,0.31295523,0.06975948,-0.090759136,0.23359784,0.2215761,-0.45565748,0.39309955,0.13412122,-0.085957296,-0.18232599,0.32102466,0.373222,0.53168786,-0.31434822,-0.044690013,-0.059990793,-0.18273947,0.031000588,-0.3051582,-0.22798118,-0.24262793,-0.17242374,-0.050175644,-0.43736148,0.13014758,-0.36543906,0.17979696,-0.26256257,0.46866554,-0.24253854,-0.09042692
c,-0.010456003,-0.17824945,0.54097694,0.36410582,0.049600415,-0.057527862,0.18583167,0.27120632,0.080121614,0.21409583,-0.2577855,-0.25688845,0.2886194,0.30946726,0.44499007,0.006705053,0.47270882,-0.19256923,0.12013897,0.35209864,-0.39404416,0.5273741,0.19036087,0.20407599,-0.27559,-0.28795975,-0.24200305,-0.1310626,-0.030856797,0.22971886,0.0022346452,0.17904045,-0.66230035,0.28254068,-0.032787636,0.020904895,-0.26276243,-0.1094836,-0.4583239,0.0055758655,-0.11340053,-0.4151818,-0.37388864,0.370471,0.10044512,0.3117243,-0.26265553,0.19939116,0.2984268,-0.5192508,-0.29712254,-0.31956428,-0.25091535,0.3961308,0.27870077,0.22821224,0.25328216,0.035410173,0.19537264,0.38741875,-0.010360718,0.5039487,0.07453739,-0.007888012,-0.3525568,0.22640002,-0.17879874,-0.18462035,0.39842778,-0.23364252,0.093560085,-0.02570267,-0.17834598,-0.52694076,-0.13320506,-0.1812185,0.14425811,0.28929284,-0.0556315,-0.41415676,-0.28927335,-0.28383207,0.37349796,-0.09387242,-0.15633395,-0.10442191,0.255014,0.1843822,-0.07577118,0.17716736,0.07930776,-0.2314032,-0.46191555,-0.09034077,-0.15041235,-0.3058536,0.028947264,-0.23008582,0.2111023,-0.4003628,0.25103232,0.21302634,-0.24397886,-0.5313587,0.11343225,-0.27178305,0.033995144,0.014517281,-0.003020944,0.00080083683,-0.23516887,-0.25945997,0.41648,0.19870704,0.4373057,0.4183495,0.0601898,-0.20951286,-0.16858518,0.12906435,0.1754824,0.12308212,-0.64281034,-0.031289138,-0.16408578,-0.1449813,-0.22815114,0.318813,-0.047211453,-0.19325933,0.07206835,-0.066681966,-0.5445604,-0.12590598,0.27662355,-0.12320501,-0.07783201,-0.22630168,-0.49667197,-0.23809597,0.19626284,-0.09977858,-0.1291757,-0.12762007,-0.1482141,-0.38810378,0.30880275,0.39983612,0.11600088,0.0032816455,-0.1444774,0.160106,-0.45622373,-0.3367733,0.09859044,-0.054128103,0.2743537,0.17910501,0.31612158,0.005838208,-0.08624596,-0.34175327,0.031127103,-0.027543593,-0.15271515,0.22203434,-0.031132419,0.17366454,0.0016813502,0.16218327,-0.24113132,0.31347746,-0.40322796,0.51500016,-0.4440164,0.25961804,0.34022114,-0.21916957,0.27220622,-0.13831612,0.021440223,0.115314096,-0.045735665,0.05097396,0.10430117,0.101149775,0.28853613,-0.08780577,-0.25224602,0.10555317,-0.29951566,0.08324766,0.4298609,0.2336339,-0.41059482,-0.11519811,-0.07681861,0.41696775,0.006085623,-0.30851582,-0.18997557,0.026189433,-0.45833075,0.023920245,0.05741492,-0.22410168,0.031087134,0.084196664,0.073089026,-0.44482458,0.29556808,0.47762597,-0.14763692,-0.07554154,-0.33123386,-0.56346136,0.61242086,0.14260197,-0.43727195,-0.015207849,0.33281705,-0.02094193,0.39338648,0.047898225,0.25530085,-0.22149336,-0.5543212,0.13073179,-0.21481964,-0.58499455,-0.18874732,-0.32734612,0.13682939,-0.14502302,0.054165646,-0.47145122,-0.19998407,0.16110939,0.51612943,-0.29531714,-0.38945377,0.1106053,-0.1341675,0.069170095,-0.27558762,0.19848067,0.045243748,0.348878,0.5934294,0.4153561,0.13580516,-0.33012393,-0.25935248,0.18946509,-0.16559085,0.10828075,-0.18039685,-0.24956873,0.14645225,0.53768295,0.021251671,-0.021140281,0.11034168,0.0112020895,0.08005983,0.14357218,0.21299097,0.38259125,-0.1840381,0.17610984,0.14302838,-0.04132203,0.109453075,0.15315183,0.22977191,-0.002104327,-0.19941327,-0.17692602,0.13103881,-0.016621176,0.18065935,0.27326676,-0.24626361,-0.28893143,0.1426785,-0.16976133,-0.15239209,-0.257643,-0.03389167,-0.21385762,0.44710824,0.17862073,0.17555037,0.04286086,-0.16630772,0.20672213,-0.008004885,-0.03912736,-0.3941851,0.05251882,0.28345177,-0.044989057,-0.10782301,-0.22024494,-0.42478514,-0.21674205,0.41136175,0.32990378,0.08178299,0.13974369,-0.25198627,0.56194407,-0.35399377,0.13311315,-0.09580445,0.16538751,0.6288161,0.15549009,0.081689894,-0.001471445,0.21697703,0.022496862,0.4070414,-0.006485518,-0.33290625,0.13570698,-0.23614791,0.4069818,-0.08268989,0.005057525,-0.37991372,0.1520886,0.07167935,-0.019569697,0.020366222,-0.26470676,0.34847552,-0.41274405,-0.17316726,-0.22077793,-0.20514843,-0.23687354,-0.33824912,0.074003614,-0.12763016,0.0065869614,-0.41203827,0.2997274,-0.20538549,-0.031076461,-0.2572279,-0.21107274,0.35896507,-0.32461178,-0.4675559,0.057438456,-0.20178124,0.3455551,0.3119416,-0.11000428,-0.18982562,0.07264606,-0.22563978,0.12558869,-0.5323796,0.2008631,0.0077626705,-0.18962035,-0.20185179,0.04275297,-0.10472183,0.102992915,0.41282195,-0.51298916,-0.21086092,0.3118715,0.17331606,0.08388726,-0.024859805,0.144595,-0.020163499,-0.08817801,-0.3287095,-0.2830181,0.15576103,0.10228188,0.18321213,0.20969415,0.36961576,-0.7621673,-0.109073594,-0.24473378,0.20271954,0.10384633,0.19120461,-0.3799006,-0.0944781,-0.0051244535,-0.86849487,-0.18319073,-0.16408625,-0.13269936,0.37530935,0.4506101,0.25951442,-0.023505114,0.23792969,-0.33695567,0.013942722,0.30511,-0.38513464,0.4238621,0.11915999,0.033235043,0.20800674,-0.008083776,-0.21739462,-0.63518995,0.08597663,-0.2292192,0.22858977,0.12671898,0.38679317,0.31075308,-0.1575191,-0.2869524,-0.61649865,0.42542708,-0.17343417,0.25561026,0.09029022,0.15015215,0.12414375,-0.30504754,0.14948219,-0.15085088,-0.049228076,0.15268224,-0.39088672,-0.41438234,0.25513858,-0.4094216,0.2853057,0.10605043,-0.39652333,-0.28250867,-0.011885203,-0.15604357,-0.14133732,0.5443573,0.38754264,-0.40153748,-0.06288853,-0.37516722,-0.27761227,-0.0031832755,-0.23070592,-0.43648243,-0.31954694,0.3981555,-0.0047617927,-0.33084908,-0.3767486,-0.12327788,-0.11311278,0.21451733,0.3633879,0.10043148,-0.033716347,-0.014279753,-0.37846574,0.1873149,0.0788662,-0.0042869747,-0.04126345,0.16165446,0.012990408,0.09546538,0.13467023,0.09283292,0.18543617,0.027991213,0.030765586,0.3563508,0.08321134,0.25215763,0.08668669,-0.008486398,0.19300617,-0.16439709,0.45812628,0.1899707,0.1886529,0.32912165,0.00761918,-0.3492448,-0.04739038,0.47618115,0.100231014,0.039958,0.0481839,0.258547,0.16759294,0.5778916,0.007504262,0.17519987,0.17408699,0.11001653,-0.105041735,0.19646445,0.013010405,0.50957346
d,-0.18831421,-0.3922502,0.06582768,0.07243462,-0.25893795,-0.433477,-0.003125945,0.31006318,-0.0810462,-0.25063124,0.032196414,0.27317443,0.077923395,0.065287456,-0.41689196,-0.14167204,0.112957135,0.21475556,-0.06555355,-0.37925935,-0.29796118,0.51064456,0.115940034,0.25021166,0.052699003,-0.06792825,0.10305346,0.5044925,0.098809935,0.32867652,0.13460012,0.4941933,-0.3989716,-0.025425304,-0.13647988,0.0805253,0.45288488,-0.019850979,-0.0875493,0.047204137,-0.26356173,-0.13115801,0.13901636,0.34590253,-0.23676944,0.20248896,0.37895095,0.3737424,-0.19463128,-0.16449718,-0.41208488,-0.43970215,-0.1514017,0.472111,-0.16964844,0.33191317,0.06585548,-0.7021976,-0.06146823,-0.02937876,0.26523364,-0.13795775,0.3237587,-0.41656876,0.113479204,-0.26971856,-0.04219643,-0.53224313,0.28177294,0.111684166,-0.17680658,0.060267508,0.5318874,-0.028152533,-0.006554246,-0.20340139,-0.10123455,0.3837024,0.17350161,-0.30808592,-0.5859622,-0.3086933,-0.61181134,-0.34764984,0.09203718,0.48314553,-0.1488429,0.07807339,-0.009539861,-0.14842336,0.046377018,0.0752319,-0.20104885,-0.12591204,0.024189454,-0.19801155,-0.14028183,-0.2490747,0.03891007,-0.26308814,0.19460347,0.20439276,0.25556698,-0.04578673,0.090303615,-0.42542452,0.07797912,-0.21654545,-0.129967,0.13024567,-0.18919092,0.26867235,0.32257828,0.061286993,0.29995477,0.084078655,-0.2210306,0.25685498,-0.109721854,0.34968567,-0.07856425,0.42142722,-0.17516334,-0.16881186,-0.15586188,0.03374273,-0.28003368,0.1194355,-0.32868123,-0.41153345,0.0646038,-0.18261234,-0.1972852,-0.44608995,0.22322898,0.1803106,0.08282985,0.08391559,-0.2336621,-0.19906965,0.05858639,-0.49744064,-0.2060894,-0.23129591,0.32121187,-0.12102652,0.14730373,-0.010904834,-0.050082073,-0.15154997,0.03909571,0.04200591,-0.3170579,-0.21755332,0.07747298,0.36418274,-0.1475184,0.13762966,-0.08237671,-0.1712025,0.21600062,0.032860648,0.05748215,-0.029762812,-0.3159738,0.352879,0.021432437,0.24528235,-0.2984339,-0.08984022,-0.19034998,0.46990445,-0.11855838,0.6308362,0.06716366,-0.0012775473,0.047959764,0.034807056,0.43997335,-0.084235735,-0.03864684,0.4658335,-0.34337234,0.09445263,-0.14243972,0.14594167,-0.17769584,-0.5050767,-0.07926367,0.04318723,0.09240212,0.22516778,-0.115166284,0.025231993,-0.27608168,-0.12931123,-0.056622542,0.14358887,0.025895312,-0.15093035,-0.09437759,0.2656845,0.09025007,0.39988273,0.14305472,-0.17454186,-0.086121224,0.14686957,-0.291883,-0.14811958,-0.49878702,0.067432724,0.07703744,-0.1395024,0.19564533,-0.20760724,0.0058481432,-0.050526664,0.3575442,-0.13993634,0.17652816,0.001180727,0.015469223,-0.2006652,0.18934187,-0.5473454,-0.27689248,0.090901114,-0.042781666,0.0151335485,-0.08007973,-0.087000936,0.072368115,0.1832003,0.13948973,-0.045768984,-0.08150035,-0.040497344,0.117012545,-0.17678359,-0.38956597,0.316171,-0.30814764,-0.10640115,-0.19061993,0.1422871,-0.14100274,-0.08268337,0.062124997,0.31873733,-0.20317423,-0.24276596,-0.15992525,0.24381953,-0.08043062,-0.32547775,0.048174128,-0.3253316,-0.082504846,0.08631943,0.14453205,0.20622572,-0.042173855,0.04455527,0.042298876,-0.19559121,-0.2533566,-0.02281193,0.1811909,0.45842186,-0.25447172,0.22516751,0.22824538,0.31499732,0.2926092,-0.31428462,-0.19911626,-0.057335116,0.10104251,-0.33048865,-0.23027441,0.2838291,0.19240266,-0.21625069,0.16231573,0.47688457,-0.3241704,0.067744575,0.2129601,0.41052955,0.33098152,0.004568156,0.21453655,0.1232671,0.20760995,-0.13945052,0.008564524,-0.35743806,0.04812116,0.31919113,0.06329271,-0.07485797,-0.25380093,-0.20318416,0.23823212,-0.35526425,-0.11100828,0.49236876,0.42953563,0.2689145,-0.24040976,0.2715964,0.0771467,-0.39058506,-0.09985301,0.07980861,0.38813573,-0.23698747,-0.140977,0.35789508,-0.19622412,0.1148263,-0.23564793,-0.26244515,0.20208788,0.1739833,0.0905913,0.25135824,0.22172813,-0.21967153,0.1401973,0.5092375,0.09808579,0.022261497,-0.2562914,0.30997902,0.5084309,-0.17762762,-0.094742306,-0.364796,-0.22411188,0.23243004,-0.25091332,0.06034143,0.07177043,-0.18711483,-0.5463708,-0.04726693,-0.1004678,0.2514249,0.148622,-0.029704168,-0.055644773,-0.40165555,-0.22294365,-0.100207806,0.10901047,0.26914138,-0.22840267,-0.33306623,-0.14085868,0.10639929,0.0031044856,-0.13477606,0.19047232,-0.11479186,-0.0007707104,-0.40505677,-0.3911039,0.009580335,-0.3171218,0.4275754,0.34179327,-0.11143827,-0.53649545,0.4609023,-0.27858752,-0.20690107,0.31727052,0.09504836,0.27190098,0.41132596,0.096421294,0.26153156,0.067771345,-0.04552682,0.49746493,0.023576878,0.30162618,-0.40957415,-0.15402883,-0.06893845,0.21153542,0.37508446,0.18424311,0.092988536,0.014206961,0.0038559427,-0.11535903,0.12218032,-0.021968521,0.16067398,0.032666944,0.12486,-0.02034206,0.4028461,0.21683778,-0.2700624,-0.5119847,0.063494794,0.29818726,0.20791368,-0.04257779,-0.08839491,0.51348794,0.0030425973,-0.67410016,-0.2902504,0.5754242,-0.013420954,-0.068654135,0.52339387,-0.026341856,-0.11350679,0.21026938,0.07339144,-0.19375679,0.038739868,0.15156628,0.5234101,0.15602268,0.25544086,0.34443027,-0.26585883,0.062400587,-0.39650753,-0.1451037,0.18018502,-0.49718374,0.1531503,0.18858069,0.08163005,0.2907431,-0.032404862,-0.010322213,-0.3928041,0.3460503,-0.03935861,-0.18595979,-0.11232609,0.3138963,0.07568879,-0.28673208,-0.1973818,0.033877805,0.059404008,0.07308086,0.15222958,-0.3539889,-0.16590846,0.43097028,-0.4855483,-0.34177762,-0.36102873,-0.19696401,0.17373377,0.18867174,-0.056615062,0.08842623,-0.04748351,0.061296917,-0.27082703,-0.10073948,0.20752752,-0.05359186,0.015792236,-0.15028176,-0.13096875,0.16423947,-0.29194534,-0.1534797,0.10527308,0.14862762,0.04196603,0.33538678,-0.100191124,0.05512125,0.12245978,0.18417574,0.09255304,-0.081954665,0.06253491,0.3961407,-0.016825449,-0.18612468,0.39585122,-0.09362673,0.06696282,-0.15062508,0.06384509,0.10544136,-0.18495503,0.07094496,0.05438523,-0.16899464,0.32838476,0.23741998,0.37424418,0.0046125576,0.07214253,0.19883436,0.059436977
e,-0.2088339,0.30561176,0.09461535,0.5215362,0.3714397,-0.32809845,-0.10504868,-0.112321265,0.13797101,-0.07032963,0.22423857,-0.14334159,0.10906792,-0.16027713,-0.20805028,-0.029986687,0.58968604,-0.26726842,0.19756696,0.285716,-0.054208606,-0.061690986,-0.19626197,0.26717302,-0.03498164,-0.35721985,0.04580106,0.17083135,0.21798024,-0.041488424,-0.10857876,-0.11243882,0.026446626,0.47720796,0.06592373,0.2536121,-0.0032412894,0.05202747,0.26099086,0.5346361,-0.052738853,0.016451582,-0.032566555,-0.013051007,-0.00046993792,-0.10723515,-0.18023303,-0.082948215,-0.367742,0.14222308,0.15538135,-0.07371046,0.0805062,0.23318437,0.15089028,0.12648427,0.07298819,-0.06303176,0.12887868,-0.1294694,0.072565034,0.20717612,0.08646904,-0.01566939,0.2495946,0.14078042,-0.1466046,-0.104073845,-0.22916874,0.040550523,0.06529558,0.0685515,-0.25217843,-0.0539077,-0.22453636,0.14763978,0.39028734,-0.43366915,0.1254822,-0.38185152,-0.43919972,-0.25290585,0.20533596,-0.19918266,-0.06775718,0.1745095,0.3699414,-0.19397244,0.067910776,-0.09917414,0.36880657,-0.034828685,0.22033754,0.25156194,0.30330473,0.25514847,0.6413911,0.19377764,0.14816165,-0.40386146,0.82527757,0.20168418,0.05293343,-0.12034175,0.32766572,0.028970819,-0.23490253,-0.32300904,0.04349136,0.29244658,-0.08604246,-0.24413733,-0.03910522,-0.39144135,0.31034112,-0.08582737,-0.25746965,0.122729674,-0.49153316,-0.012156829,-0.5652828,0.062313743,-0.15285367,0.08333364,-0.20991361,0.25128138,0.35706663,-0.10561984,0.18081124,-0.3779353,0.06979938,0.12319569,0.36216128,-0.03686556,-0.27897277,0.08903274,-0.53451174,0.07227731,-0.198668,0.21584673,0.2065073,-0.098835275,0.38432676,0.51170284,-0.03995898,-0.23223287,0.17898571,-0.5557329,0.14188737,0.027192123,-0.46896034,-0.0952463,-0.13584104,0.0005804524,-0.105230905,-0.3335718,-0.13801807,0.036593117,-0.07372526,0.5529748,0.37580213,-0.27436978,-0.07588337,-0.062019378,-0.20189583,0.25766432,-0.3178262,-0.20331797,0.10342874,-0.48887503,-0.15223093,-2.2880733e-05,0.41752982,-0.3512751,-0.07391523,0.17987195,0.6837864,-0.2763211,0.08004425,0.14342025,0.085027695,0.10334119,-0.040518507,0.10315226,-0.1712367,0.3958999,-0.054818872,0.095070906,0.30421066,0.23435153,-0.07990304,0.20349252,-0.048993707,-0.38832214,-0.15833056,0.042052533,-0.2941748,0.028553054,-0.10833239,-0.010345288,0.09135385,0.30492917,-0.09211919,0.36254603,-0.4570701,0.0813818,0.27029845,-0.13071916,-0.4686587,-0.029498316,-0.082711816,-0.21771425,-0.05679553,0.12085712,0.45546588,0.37923154,0.043095097,0.2702953,0.22057542,-0.0063829534,-0.08476453,-0.24860312,0.003177464,0.0062115295,-0.24597976,-0.053447187,0.0011438485,0.40547165,0.071638666,-0.48999667,0.21298693,0.14163831,0.04034619,0.10975562,0.22219267,-0.37559277,0.24722305,0.34252954,0.39556828,-0.6108902,0.02037014,-0.42866856,0.43605015,0.012960166,-0.19291301,0.342044,0.5056758,-0.64754933,-0.08319043,0.019687943,-0.087055765,-0.21573707,0.09642466,0.25252223,-0.14910659,-0.27396673,-0.0013694093,-0.37195414,0.25685585,0.49401736,0.16744885,-0.22620165,-0.30800527,0.37095612,0.19748269,-0.07677489,-0.042301506,-0.4227541,0.014704745,-0.018824793,0.272818,-0.03168224,-0.04663164,-0.13638434,-0.23213395,0.20649163,-0.26831886,-0.08136023,-0.14310625,0.27612212,0.27341396,-0.039616898,-0.09216002,-0.18111512,0.109664,0.01108291,-0.354141,0.18270704,-0.32016492,-0.06642247,-0.3458809,-0.088531666,0.08069887,-0.16821559,-0.01243197,-0.01594444,0.27107114,-0.13982037,0.057480298,0.031077411,0.46544087,0.36804095,0.21755192,-0.27530414,0.15935703,-0.29878703,-0.05742246,-0.54895324,0.38669413,-0.0004946366,0.06819751,-0.062713884,-0.31677124,-0.097617865,-0.029051334,0.112150975,0.2803008,-0.047519878,0.16487023,0.05250509,-0.37587598,0.16566879,-0.3423973,0.16686092,-0.14505082,0.33415744,0.13437238,-0.35909763,-0.11652602,-0.18022805,0.3607305,0.03384924,-0.3269621,-0.051616058,0.07706478,0.056041285,-0.72429955,0.07113512,0.09116122,0.10870684,-0.45287436,0.50602823,0.29669905,-0.07740069,-0.08340403,0.1650538,-0.0040315576,0.17833078,-0.5678616,-0.30700278,-0.22004856,-0.23382065,0.12969793,0.23083794,0.21075734,-0.25658298,-0.21133599,0.036625177,-0.37535158,0.30251056,0.25012624,0.1540499,0.49410218,-0.4270878,0.089361295,-0.10290424,-0.03752877,-0.104250856,0.31907994,-0.25333726,-0.5820419,0.2284991,-0.2107315,0.10127782,-0.15879776,-0.040960085,-0.23719394,0.32737923,0.2956905,-0.21623136,-0.011328317,-0.06022527,-0.098254554,0.18768364,0.42825145,0.10124752,0.19850859,-0.29045287,-0.088692755,-0.48697,-0.11271112,0.08041221,0.26830134,0.25292102,0.50300294,-0.558164,-0.36809173,0.19502443,0.34757784,0.06143584,0.2512803,-0.3511553,-0.10410571,-0.2567222,0.05202878,-0.34986436,-0.10756746,-0.07898057,0.22781043,0.023152728,0.16685005,-0.12176415,-0.06693605,0.11963241,0.16229346,-0.22182149,0.394149,0.53699005,0.09470725,-0.14105001,0.60036856,-0.096440025,-0.05539763,0.21820098,-0.122978985,-0.4658699,0.17886373,0.069838524,-0.13518749,-0.32426932,-0.20843247,0.44079775,0.33400983,0.21716493,0.6529457,-0.33857775,-0.74979424,-0.05421564,-0.28818524,0.25270557,-0.08945175,-0.01584088,0.54767066,0.10023892,0.2663984,-0.15257406,0.017039906,0.38531363,-0.49061912,-0.14845908,0.12719695,0.027120646,0.20501477,-0.12924632,0.48296323,0.030729603,-0.05244723,0.005518906,0.011351138,-0.36411357,0.13470381,-0.19161417,0.09550364,-0.23303106,0.50358593,0.46284834,0.4863536,-0.25910872,0.039589226,0.40840673,0.37347698,-0.021591403,0.23085718,0.14589515,-0.14018151,-0.3135173,0.3467937,0.112203,-0.4267386,0.14124113,0.2288859,-0.04967256,-0.4773684,-0.18830475,-0.26803288,-0.013373151,-0.030492306,0.51546437,-0.087170646,0.24299338,-0.035472624,0.25233716,-0.13281706,-0.23923782,0.41181362,-0.048477277,-0.020929612,-0.045634516,0.11977988,-0.24187645,-0.7246137,-0.093005,-0.42926455,0.2059989,0.14423391,0.025451861,0.13703397,0.26339272,0.61778724,0.0011655688,0.025731944,-0.32615736
f,-0.025125958,-0.23176584,-0.3415627,0.15398902,0.5403198,-0.38259253,0.3463949,0.11500823,0.16318783,0.05327961,-0.5279951,-0.31603432,-0.00405737,-0.03595666,0.6897143,0.38159174,-0.524665,0.2246134,0.3032928,0.23336187,0.10720693,-0.17844875,-0.060576014,0.32644218,0.42336997,0.019456234,0.12661634,0.2915881,0.051205747,0.007947162,-0.5274106,-0.050557807,0.09822594,-0.26832706,0.16244932,0.04685135,-0.014413368,0.30566108,-0.09205395,0.05922425,-0.3115296,-0.113661975,-0.15207392,0.13529345,0.28808472,0.1245579,0.24058586,0.20088395,-0.11414163,-0.33438647,0.35497946,-0.05150631,-0.0023779348,0.07281375,-0.16946591,-0.3929754,-0.108756706,-0.12019986,-0.30276883,-0.08537881,-0.12031691,0.25978968,-0.04534825,0.5375874,-0.27792808,-0.12570685,0.27412716,-0.34704712,-0.11507868,-0.4204989,-0.20994204,0.39797926,-0.021547768,0.27398655,0.3439222,-0.12595302,0.19151768,0.22460018,-0.8278121,0.21371138,-0.027256198,0.10854247,-0.19071417,0.2449821,0.020903181,-0.00046133995,-0.2554663,0.035793297,-0.0060083754,0.1960497,0.0048400536,-0.060315482,-0.6522596,0.21470836,0.40769985,0.3410205,-0.045998424,-0.05380764,0.088512845,-0.2181108,0.15124315,0.24766463,0.0081178695,0.23266906,-0.05827657,0.4076445,-0.18419474,-0.032063607,0.42628914,0.27064726,0.32887203,0.18951122,-0.25556904,-0.022292148,0.021815944,0.41404897,0.15499175,0.33184943,0.27171388,0.07599464,-0.35911384,-0.29164946,-0.38737106,-0.00883612,-0.19451824,-0.17370719,0.30904022,0.005501829,-0.24070589,0.19170578,-0.16611502,-0.3493695,0.27791038,-0.22125745,-0.35888284,0.19196497,0.48523405,0.42868948,-0.26998043,-0.10232946,-0.1045205,0.18218857,-0.37018305,-0.19609348,-0.020077502,0.15770787,0.4519182,0.039902814,-0.61552787,-0.02636037,-0.3694308,0.31961983,-0.3035919,-0.35717323,-0.16041258,0.12261286,0.34605116,0.7816918,0.23088476,0.26077056,0.33274996,-0.5050708,-0.42276204,-0.31071603,0.09546444,0.18256506,0.24897727,0.00019086152,-0.17218825,0.4814905,0.24220034,-0.12310577,-0.16606404,0.22486573,-0.07304476,-0.19002832,-0.024649404,-0.58898425,0.16183767,-0.2910364,0.2694432,0.0068951473,-0.11169745,0.24358472,0.33421054,0.074319564,0.37486583,0.71758735,0.0763746,-0.062042736,-0.32873064,0.23292002,-0.12916037,0.5441751,-0.12391739,0.23151073,0.27078632,-0.20968029,-0.20273343,-0.32858497,0.28783423,0.0180443,-0.08725434,0.1748558,0.037695743,0.08573164,0.03118134,-0.11787331,-0.51116085,0.23434258,-0.14975023,0.19587964,0.0756391,-0.08710856,-0.17717129,-0.0018277206,-0.06624349,0.04631184,0.10263741,0.062389206,-0.13153046,-0.26108912,-0.05179567,-0.26061106,0.29304752,0.14673367,-0.24981913,0.49149382,0.0128906015,-0.29073665,0.24401644,-0.023959752,0.18279076,-0.09492998,-0.123448834,-0.24031289,0.009648465,-0.03972346,-0.33716983,-0.12723187,0.10217648,-0.03214734,0.3991669,0.013188016,0.33758202,-0.027125776,0.31634274,0.1269128,-0.13117829,0.3625913,0.116081946,0.5463999,0.050531514,-0.17015177,0.26578432,-0.65476453,0.07646391,0.3099355,0.40435934,-0.084380604,0.37935552,0.14661132,-0.11258656,0.07477203,0.30565277,-0.10916509,0.14264409,-0.42689466,0.37333176,-0.027402066,-0.14706548,-0.336616,0.0019978061,-0.2369638,0.5731859,-0.4451121,-0.03648281,-0.09059325,-0.34938952,0.13057476,0.1684297,-0.09632665,-0.08145492,-0.6173558,-0.16509092,0.18172663,-0.4868822,0.018775923,0.062755235,0.2625836,-0.2350975,0.25658363,-0.075100355,0.0047862083,0.49360088,-0.10114604,-0.21634111,-0.31244063,-0.18088835,-0.12649703,0.027570903,-0.025197495,0.035760857,0.001787968,-0.021053141,0.24677883,-0.010654122,0.17186685,0.06173601,-0.14563107,0.27361807,-0.31818727,0.08703539,0.11229449,-0.09077333,0.14443123,0.4725771,0.014725801,0.39495835,-0.2719013,-0.3023683,0.17172298,-0.252801,0.1443466,0.047339924,0.059237182,0.3596523,0.14001827,0.012386981,0.6134001,-0.032079887,0.2930408,-0.23609535,-0.62906283,0.58838797,0.13234478,-0.14903915,-0.14558193,-0.12869126,-0.11398974,0.13903785,-0.25594687,0.08102813,-0.08877412,0.26939207,0.24531358,0.08821178,0.085827775,-0.15927261,-0.042797968,-0.24873255,-0.3549792,0.35556197,-0.38187057,0.19007215,-0.16033581,0.072933145,0.23055065,-0.19233908,-0.16728383,0.1968533,0.45585334,-0.22681583,-0.07363161,-0.31225783,0.21091355,-0.0757674,-0.1155935,-0.2506262,0.10487765,-0.12282294,0.32566416,0.059919544,0.334131,-0.31428587,0.5972249,0.031800434,-0.14845124,-0.14450613,0.016824082,-0.008239888,-0.08192026,-0.2459167,0.39863193,0.06269596,0.076846585,0.0444149,0.46713474,-0.27948332,-0.50908315,0.22060083,-0.18675548,0.2306698,0.21070954,0.17077371,0.008639395,0.25609645,0.574854,0.06496159,0.20779744,-0.23204398,-0.31452963,0.15577655,0.7576968,0.41032833,0.39312142,0.2898069,-0.37701082,0.057791468,-0.046801068,-0.29299963,0.3950268,-0.16922426,-0.34722137,0.020335205,-0.1370966,-0.19315878,-0.12448562,0.23140076,0.12036473,0.17188711,-0.084787644,0.16846728,0.20466879,-0.17924768,0.26068157,-0.24787852,-0.14730158,0.09394306,-0.26602578,-0.09498934,0.36061516,0.43433923,0.28192317,-0.03150236,-0.47263783,0.010461129,0.018606529,-0.14574431,0.109352306,-0.3140311,0.4585589,0.29773143,0.41880092,0.49893785,0.061877355,-0.1333119,0.28448087,-0.45866123,-0.20308182,0.32728755,-0.09241614,-0.046879783,-0.0131926425,-0.23955894,0.26463693,-0.05565665,-0.039728176,-0.1992541,-0.22370362,0.06505345,0.082420334,-0.046512082,0.5684086,0.38517305,0.13988468,-0.16421145,-0.32710436,-0.5422206,0.06477964,-0.20068672,-0.19306937,-0.36088407,0.2892894,-0.25157088,-0.118754864,0.605463,0.09184381,-0.29320398,0.60705215,-0.14790678,0.265066,0.2272717,-0.196659,-0.29007453,-0.006127283,0.26743305,-0.20917124,-0.10604156,-0.067048855,0.02851466,0.30844146,0.26971936,0.1980399,-0.058427453,-0.24980158,-0.049256302,0.1002752,0.32824114,0.37409243,0.4036112,-0.117768794,0.2532641,-0.15791228,0.09539942,0.18830812,-0.063961476,-0.37528908,-0.31175435,-0.12626028,0.23365992,-0.21061361
g,0.21131139,-0.6073431,0.43109187,-0.14752701,-0.012663014,0.057627697,0.10032044,0.1625162,0.13941774,0.35529888,-0.29547298,-0.23055044,-0.06363813,0.17397988,-0.2706487,-0.01929833,-0.16232497,-0.39906967,-0.08081923,0.009758301,0.007050842,0.34677,-0.19255775,0.2985204,-0.23506635,-0.10125369,-0.1887841,-0.232638,-0.13670802,0.15863979,0.36814135,0.45382938,-0.00030831248,0.23596004,-0.22422853,0.3603437,-0.029315194,-0.43985537,-0.274291,-0.19440445,0.2591069,-0.3174998,0.00084540993,-0.044257488,0.42214337,0.2776711,0.35739213,0.1422005,-0.23258904,-0.0071211904,0.2909385,-0.14490518,-0.2969814,0.46145386,0.3548649,-0.25549755,0.0791276,0.27397627,0.08692252,-0.39520907,-0.6064356,-0.08204467,-0.33269173,-0.6713027,-0.10926568,0.21875694,0.0024506897,0.42922884,0.22192222,-0.6219823,-0.09890774,0.49936184,-0.11968221,0.22167322,0.33700424,0.25841692,-0.27146712,0.12455838,0.018524213,-0.2577056,0.06036608,-0.75015354,-0.023491686,-0.14815885,-0.27384034,-0.110340424,-0.2270442,0.042811856,-0.118586145,0.3924758,0.113895826,0.10853943,0.087536365,0.22242874,-0.28758696,0.18471646,0.01166134,0.13438852,-0.43094054,-0.1835144,0.04611727,0.012634173,-0.15904364,0.40352502,-0.13989422,0.3475729,0.1835998,-0.22280024,0.19001111,-0.08118278,-0.2454859,-0.16013974,0.07923539,-0.14226237,-0.10220073,0.2949497,0.4242392,-0.17829266,-0.08529717,0.23450613,0.09985747,0.08851471,0.18411955,0.43529493,-0.6255992,-0.0235793,0.36781713,0.34532654,0.14208643,0.19589363,0.36041886,0.2683603,0.25594836,-0.1335844,-0.114105225,-0.12237119,-0.18659982,-0.1319721,0.19704114,-0.25669947,-0.37268856,-0.2408228,0.65644836,-0.016772343,0.4855147,-0.14168158,0.13230586,-0.27454686,0.3048036,-0.22993565,0.071144626,-0.14086853,0.01845514,0.35889584,0.17338556,-0.19952157,0.36020875,-0.193762,0.31371355,0.03100767,0.23780343,0.19138122,0.2914868,0.04439622,0.39033327,0.025891405,0.28701055,-0.4867873,0.3841787,0.124274865,-0.014875736,-0.0063200146,-0.40985847,0.05693151,-0.030214727,-0.20794897,-0.37308207,-0.081607744,0.24247816,-0.16605297,0.21810673,-0.42052647,0.16373883,-0.12667048,-0.011382196,0.015893258,-0.13728401,-0.101176225,-0.110880755,0.027713716,-0.14307356,0.32448533,-0.06994478,0.22413635,-0.08052031,-0.019458387,-0.18070652,-0.009356983,0.2724232,0.12225788,0.21781312,0.24809366,0.14065492,0.11956718,0.041590378,-0.31021369,-0.50068855,0.06459817,-0.04480645,-0.32456264,0.005788304,-0.1347974,0.21234177,-0.16555753,0.120964296,-0.14216739,0.2750484,0.3624771,-0.12303536,-0.34506443,0.07038544,0.086538374,-0.19906631,-0.36732364,0.53459215,0.024701275,-0.014091842,0.17490172,-0.28915465,-0.0010027476,0.26953977,-0.0048382804,0.31931192,0.22397526,0.23453373,-0.14954661,-0.42701337,-0.12877794,0.34823602,-0.45393297,-0.38468358,0.32395285,0.25913647,-0.20087802,-0.33686113,-0.0853527,-0.08413407,0.3436879,-0.21467447,0.006016627,0.31690207,0.025669761,-0.1493131,0.0076050386,-0.036462985,0.09102567,0.4634072,-0.10180065,-0.075397186,0.15313461,-0.15066957,-0.027791418,-0.42458975,-0.28037047,0.29165497,0.19701765,0.15334368,0.01565267,0.23112325,0.23410082,-0.27411455,-0.2811999,-0.21355057,0.008090228,0.2619692,-0.16610013,-0.052626878,0.14307567,-0.057206366,0.17425716,0.47199062,0.07396301,-0.093439475,-0.3615609,-0.061336022,0.23609754,-0.24557906,0.40781403,-0.027989041,-0.22674453,0.3945632,0.30481064,0.08067111,-0.1812788,0.2919847,0.5235695,-0.22645059,-0.084367685,0.32097745,-0.49702826,-0.5563414,-0.032900207,0.017038371,-0.09423228,0.03568513,-0.20802057,0.5525025,0.074371874,0.5289326,0.07645535,-0.33782354,0.2779952,0.11896069,0.23899014,0.4118613,-0.07417525,-0.058190167,0.0647559,-0.2386054,0.07522048,-0.14158744,0.5499232,-0.50841385,-0.23443219,-0.0035306588,0.00027292222,-0.24094608,0.31725734,0.0083916895,-0.13360427,-0.016146272,-0.08650696,-0.47616726,-0.09875345,0.3450078,0.14154276,0.077238835,0.14733833,0.077643365,0.096916325,0.025263283,0.102315396,-0.0081679635,0.05645188,-0.16703257,0.5063666,0.23115626,-0.14503998,0.03252143,0.12405948,-0.10582406,0.18637086,-0.23123127,-0.39602062,0.04663855,-0.19260943,-0.034279138,0.23136702,0.22714461,-0.131831,-0.2947392,0.047158234,-0.48325694,0.3811748,0.121880546,0.12922995,0.048078522,-0.31451318,-0.17811361,0.10762373,-0.11405833,-0.268332,0.26284778,0.013953954,0.05694808,-0.35428438,-0.18280602,-0.61270404,0.2368058,-0.10052483,-0.07923277,0.1110512,-0.21234608,-0.33849496,-0.0041503124,0.08550653,-0.29653686,0.10826144,-0.13268167,0.084693834,0.07704128,0.27213794,0.41810298,0.014337026,-0.18109739,-0.25165954,0.07350437,-0.2794231,-0.43672985,-0.123253934,0.034808066,0.47669977,-0.083118126,0.008003332,0.0063788146,0.46776164,0.0398401,0.11365433,-0.29371166,0.34826577,-0.46376517,-0.1613975,0.4904975,-0.16042773,0.4850786,-0.11294731,0.40204304,0.21554458,-0.028122954,-0.03785422,0.17025492,0.14882356,0.010569125,0.26657432,-0.6209686,-0.44200405,0.31453845,-0.37694004,-0.108695626,0.18843022,0.36988938,-0.19791758,-0.36498684,0.08822193,-0.11553388,-0.102232546,-0.15152594,0.25056708,0.31142783,-0.299659,-0.32862458,0.13302651,-0.4288413,0.2233654,-0.16900009,-0.07386084,0.10529519,0.015020642,-0.09954184,0.1998106,0.19597167,-0.23000675,-0.08389676,-0.26798552,-0.23616546,0.29877633,0.007953055,-0.1930244,-0.34515047,-0.44626838,0.2891571,0.049053982,-0.52887744,0.0028184429,0.03778744,-0.14372477,0.17669076,0.30207753,-0.8388785,0.5048213,0.17132404,0.1569258,-0.22856162,-0.26547778,0.31065518,-0.17368698,0.08759955,-0.05492369,0.1747599,0.05075965,0.25235885,0.07871278,0.050522313,-0.13929722,0.3960266,0.066867135,-0.2142905,0.3427665,-0.013383411,0.29621753,-0.05199424,-0.048759706,-0.48951977,-0.15699163,-0.025918785,-0.1469366,0.5330592,-0.09511901,0.5597432,-0.18604112,0.25070304,-0.007724099,-0.19176348,-0.044383682,-0.101242796,0.09945679,-0.005623363,-0.3376074,-0.20258474,0.06471727,0.35961097,-0.1452354
h,-0.16334356,0.17935285,0.041308273,-0.018948637,0.2826097,-0.40210202,0.064094484,-0.121764235,0.00221657,0.029198103,-0.0877447,-0.18236594,0.4496484,0.3254875,0.3683313,0.08982681,-0.14305112,-0.20656578,0.4118669,0.024316046,-0.056041155,-0.48362392,0.13491262,0.16936713,0.019798338,0.34414586,-0.061734088,-0.07706947,-0.17168814,-0.12912574,-0.09189029,-0.13171902,-0.07231188,0.32091665,-0.007711768,-0.05042293,-0.29739767,0.023613647,0.054201834,0.07131102,0.11571334,-0.042821623,-0.23346826,-0.35937464,-0.0049843863,0.42427742,-0.069345556,-0.22545257,-0.21010289,-0.67494774,0.20408814,-0.0535265,0.16374871,-0.12656948,0.0051905625,-0.4483925,-0.25062743,-0.042541064,0.38697085,-0.09561774,-0.14033061,-0.05581107,-0.044893377,0.083509445,0.013027053,-0.060126074,0.44948512,-0.020784944,0.0033359304,-0.021989293,0.16065729,0.13180527,-0.1912631,0.2895408,-0.16996491,0.5591914,0.027593601,-0.06406774,-0.41016948,0.07540176,0.28726652,0.0052552,0.033008248,-0.09178951,0.1697837,-0.32798728,0.21414256,-0.11768098,-0.17633954,0.104169935,0.017469727,0.21493313,-0.04672364,-0.24208587,-0.046329036,-0.11389268,0.21103962,0.14006849,-0.5589438,-0.45226273,0.30258963,0.081716806,0.76054597,-0.38396794,-0.069847025,0.24174407,0.2184861,0.16188006,-0.14374787,0.09905119,-0.00064907223,-0.36075038,0.2689498,-0.17600076,-0.1543747,-0.28491133,0.03643442,0.11121196,-0.15562993,-0.32703492,0.1541354,-0.14438263,-0.027780488,-0.12305818,0.17807254,-0.023498088,0.1319753,0.2960112,-0.22651897,-0.029806796,0.067133345,0.24025759,0.29131132,-0.09931643,-0.2325884,0.060232714,-0.12827396,0.06295028,-0.00605008,-0.11294657,-0.086755104,0.010798205,0.18626723,0.39120293,0.17068948,0.102555476,-0.22323573,-0.1505256,0.05815544,0.24665052,0.2082115,0.28659195,-0.2371017,0.18012783,-0.2956849,0.012714572,0.17727563,0.2649997,0.30907622,0.1481132,0.15272593,-0.12364559,-0.2145018,0.14581987,0.13930997,0.07467177,-0.10442383,0.07742184,0.1267879,0.05410158,-0.064856276,0.2513854,0.05694931,-0.1925089,-0.43008205,0.21576957,-0.18731022,0.029395282,-0.1209897,0.25957114,0.17518048,0.27100477,0.25125092,0.20883888,-0.016173352,-0.04770322,0.05830227,0.383089,-0.04708492,-0.29103118,0.23054323,-0.05566919,-0.22286105,0.0436482,0.04422714,0.26850975,0.035435136,0.04236576,-0.3715039,-0.21624017,-0.1097091,-0.17146164,0.23938382,-0.06884952,-0.2687785,-0.14823803,-0.077140175,0.1169362,0.1434662,0.029297069,-0.1381306,-0.26558107,-0.04719462,-0.16512483,0.108846135,-0.016124006,0.2935597,0.13330114,-0.014617348,0.18684095,-0.39743322,0.037369486,-0.19059564,0.24683027,-0.27437398,0.19725305,0.14429286,0.029378485,0.23027712,-0.360964,-0.2680042,0.16522695,0.27519777,-0.43973473,0.017939262,0.09873055,0.5120896,0.16978958,0.047468737,0.23222154,-0.062323608,-0.09466348,-0.00662075,-0.00036254898,0.11645585,-0.1979683,0.17576873,0.014795847,0.34048754,0.2665742,-0.12793475,0.066961035,0.13888958,-0.005911745,0.531939,-0.13255815,-0.08689717,0.23234585,0.19127396,0.14254206,0.2286993,0.35002062,-0.10606296,-0.13082975,-0.25670993,-0.20824777,-0.034012906,0.30693948,-0.17375594,-0.09713928,-0.2089103,-0.08258257,-0.12273612,-0.5540215,0.15132317,0.31992775,-0.13987824,-0.123572074,-0.4752319,0.19242531,-0.03391474,-0.403574,-0.015254345,-0.05344569,0.03522096,-0.079801105,-0.3006323,0.35293514,0.20305564,0.0057427883,0.17987046,0.12554649,0.15172085,-0.31854352,-0.16587472,-0.036369286,-0.1609727,-0.3576283,0.3109904,0.21602932,-0.03504902,0.099861495,0.13972472,-0.093592755,0.15602691,0.26642594,0.06448529,-0.5616347,-0.36641508,-0.028023742,-0.28837502,-0.48301926,-0.40142226,-0.02770593,-0.2811903,0.44223824,0.033741783,0.028012002,-0.0032915287,-0.2759074,-0.33483395,-0.417546,-0.25745216,0.21536617,0.24472126,-0.42995542,0.13115397,-0.1710636,-0.47091228,0.25659937,0.059745006,0.07330944,-0.10513685,0.25677556,0.083216,-0.06945382,-0.40790555,-0.04394009,0.0071617495,0.08482242,0.05463475,-0.28847778,0.36129132,-0.5390397,0.04017334,0.21834004,0.2864382,-0.2084865,0.05514065,-0.29828456,-0.21998543,-0.1707578,0.088267796,0.062950745,0.20071435,-0.0019108057,0.012105107,-0.17845175,-0.03530108,0.27586615,0.19987036,0.2731155,-0.16255872,-0.15594772,0.10703714,-0.09914975,-0.07609425,0.0055759205,0.45523587,-0.17217466,-0.71072996,-0.15798303,-0.17257598,0.19482064,0.17958996,0.083783716,-0.057814777,0.19017929,-0.4548274,-0.45833603,-0.0073059723,0.015889216,0.0026421472,-0.038672112,-0.17554754,0.008664552,-0.12831399,0.24486366,-0.41318116,-0.036351264,0.4592047,-0.2770866,0.2811042,-0.33287936,0.23947805,0.12876222,0.129264,0.02351477,0.06437859,0.047065623,0.28228548,-0.33063713,-0.1551549,-0.077517,-0.007293649,0.092240825,0.37431264,-0.6152344,-0.099937245,0.02200266,-0.13135776,0.03186784,-0.4948221,-0.20473896,-0.012839697,0.11923018,0.23669988,-0.005067654,0.16952771,-0.24619117,0.39891145,0.18648823,-0.13332334,-0.09919689,-0.1533168,0.34835604,0.4836524,-0.17233318,0.0746544,-0.3038396,-0.1450553,0.40844467,0.060500786,-0.06365039,-0.10115751,-0.19133802,-0.16991685,-0.30411947,-0.5284439,-0.17229117,0.041819267,0.08527142,0.174238,0.26608106,0.32679552,0.2954665,0.19440201,0.25475225,-0.12897862,-0.04808536,-0.41921276,0.28859866,0.3887733,-0.20749885,0.15151206,-0.10919705,-0.20267685,-0.021117255,0.43392932,-0.05002688,-0.46750438,0.03160553,0.36455527,0.10489217,-0.27376294,0.18374279,0.036776893,-0.22503349,0.045398727,0.44265386,0.06271996,0.3049273,0.05149934,0.042516798,-0.02113638,-0.6096688,0.0701551,-0.15299498,-0.38503465,0.0028402433,-0.16476104,-0.031724073,-0.062233366,-0.46540797,-0.123576775,-0.031155705,-0.5493829,0.019708939,-0.08841023,0.41387612,0.23387316,0.06057868,0.07685073,-0.57234657,0.8636595,-0.25594598,0.4814399,-0.4299885,0.38105413,0.41903827,-0.024113424,-0.30870444,0.021523856,0.12174119,-0.022543445,0.26912367,0.037211306,-0.27245975,0.09996537,0.08358373,0.23114637,0.25874057
