DiseaseID,feature_1,feature_2,feature_3,feature_4,feature_5,feature_6,feature_7,feature_8,feature_9,feature_10,feature_11,feature_12,feature_13,feature_14,feature_15,feature_16,feature_17,feature_18,feature_19,feature_20,feature_21,feature_22,feature_23,feature_24,feature_25,feature_26,feature_27,feature_28,feature_29,feature_30,feature_31,feature_32,feature_33,feature_34,feature_35,feature_36,feature_37,feature_38,feature_39,feature_40,feature_41,feature_42,feature_43,feature_44,feature_45,feature_46,feature_47,feature_48,feature_49,feature_50,feature_51,feature_52,feature_53,feature_54,feature_55,feature_56,feature_57,feature_58,feature_59,feature_60,feature_61,feature_62,feature_63,feature_64,feature_65,feature_66,feature_67,feature_68,feature_69,feature_70,feature_71,feature_72,feature_73,feature_74,feature_75,feature_76,feature_77,feature_78,feature_79,feature_80,feature_81,feature_82,feature_83,feature_84,feature_85,feature_86,feature_87,feature_88,feature_89,feature_90,feature_91,feature_92,feature_93,feature_94,feature_95,feature_96,feature_97,feature_98,feature_99,feature_100,feature_101,feature_102,feature_103,feature_104,feature_105,feature_106,feature_107,feature_108,feature_109,feature_110,feature_111,feature_112,feature_113,feature_114,feature_115,feature_116,feature_117,feature_118,feature_119,feature_120,feature_121,feature_122,feature_123,feature_124,feature_125,feature_126,feature_127,feature_128,feature_129,feature_130,feature_131,feature_132,feature_133,feature_134,feature_135,feature_136,feature_137,feature_138,feature_139,feature_140,feature_141,feature_142,feature_143,feature_144,feature_145,feature_146,feature_147,feature_148,feature_149,feature_150,feature_151,feature_152,feature_153,feature_154,feature_155,feature_156,feature_157,feature_158,feature_159,feature_160,feature_161,feature_162,feature_163,feature_164,feature_165,feature_166,feature_167,feature_168,feature_169,feature_170,feature_171,feature_172,feature_173,feature_174,feature_175,feature_176,feature_177,feature_178,feature_179,feature_180,feature_181,feature_182,feature_183,feature_184,feature_185,feature_186,feature_187,feature_188,feature_189,feature_190,feature_191,feature_192,feature_193,feature_194,feature_195,feature_196,feature_197,feature_198,feature_199,feature_200,feature_201,feature_202,feature_203,feature_204,feature_205,feature_206,feature_207,feature_208,feature_209,feature_210,feature_211,feature_212,feature_213,feature_214,feature_215,feature_216,feature_217,feature_218,feature_219,feature_220,feature_221,feature_222,feature_223,feature_224,feature_225,feature_226,feature_227,feature_228,feature_229,feature_230,feature_231,feature_232,feature_233,feature_234,feature_235,feature_236,feature_237,feature_238,feature_239,feature_240,feature_241,feature_242,feature_243,feature_244,feature_245,feature_246,feature_247,feature_248,feature_249,feature_250,feature_251,feature_252,feature_253,feature_254,feature_255,feature_256,feature_257,feature_258,feature_259,feature_260,feature_261,feature_262,feature_263,feature_264,feature_265,feature_266,feature_267,feature_268,feature_269,feature_270,feature_271,feature_272,feature_273,feature_274,feature_275,feature_276,feature_277,feature_278,feature_279,feature_280,feature_281,feature_282,feature_283,feature_284,feature_285,feature_286,feature_287,feature_288,feature_289,feature_290,feature_291,feature_292,feature_293,feature_294,feature_295,feature_296,feature_297,feature_298,feature_299,feature_300,feature_301,feature_302,feature_303,feature_304,feature_305,feature_306,feature_307,feature_308,feature_309,feature_310,feature_311,feature_312,feature_313,feature_314,feature_315,feature_316,feature_317,feature_318,feature_319,feature_320,feature_321,feature_322,feature_323,feature_324,feature_325,feature_326,feature_327,feature_328,feature_329,feature_330,feature_331,feature_332,feature_333,feature_334,feature_335,feature_336,feature_337,feature_338,feature_339,feature_340,feature_341,feature_342,feature_343,feature_344,feature_345,feature_346,feature_347,feature_348,feature_349,feature_350,feature_351,feature_352,feature_353,feature_354,feature_355,feature_356,feature_357,feature_358,feature_359,feature_360,feature_361,feature_362,feature_363,feature_364,feature_365,feature_366,feature_367,feature_368,feature_369,feature_370,feature_371,feature_372,feature_373,feature_374,feature_375,feature_376,feature_377,feature_378,feature_379,feature_380,feature_381,feature_382,feature_383,feature_384,feature_385,feature_386,feature_387,feature_388,feature_389,feature_390,feature_391,feature_392,feature_393,feature_394,feature_395,feature_396,feature_397,feature_398,feature_399,feature_400,feature_401,feature_402,feature_403,feature_404,feature_405,feature_406,feature_407,feature_408,feature_409,feature_410,feature_411,feature_412,feature_413,feature_414,feature_415,feature_416,feature_417,feature_418,feature_419,feature_420,feature_421,feature_422,feature_423,feature_424,feature_425,feature_426,feature_427,feature_428,feature_429,feature_430,feature_431,feature_432,feature_433,feature_434,feature_435,feature_436,feature_437,feature_438,feature_439,feature_440,feature_441,feature_442,feature_443,feature_444,feature_445,feature_446,feature_447,feature_448,feature_449,feature_450,feature_451,feature_452,feature_453,feature_454,feature_455,feature_456,feature_457,feature_458,feature_459,feature_460,feature_461,feature_462,feature_463,feature_464,feature_465,feature_466,feature_467,feature_468,feature_469,feature_470,feature_471,feature_472,feature_473,feature_474,feature_475,feature_476,feature_477,feature_478,feature_479,feature_480,feature_481,feature_482,feature_483,feature_484,feature_485,feature_486,feature_487,feature_488,feature_489,feature_490,feature_491,feature_492,feature_493,feature_494,feature_495,feature_496,feature_497,feature_498,feature_499,feature_500,feature_501,feature_502,feature_503,feature_504,feature_505,feature_506,feature_507,feature_508,feature_509,feature_510,feature_511,feature_512
C1,0.47193846,-0.036698204,-0.21244463,-0.17120749,0.29415476,0.04545059,-0.08013461,-0.45660257,-0.12440254,-0.013205051,-0.18225472,-0.17145629,0.19750187,0.15163776,0.027696576,0.16206151,0.12781668,-0.23622367,-0.16014084,-0.3144902,-0.15833034,0.010214936,0.19307703,-0.24825624,0.14634429,0.5552016,-0.0202659,0.099840604,0.08200632,-0.5319785,0.21701035,-0.55341303,0.01343208,-0.2852552,-0.025572617,-0.20527203,-0.1448178,-0.048368454,-0.42668167,-0.055322222,-0.080300085,-0.037494503,0.360187,-0.2312563,0.23896587,-0.04044459,-0.01946929,0.109372355,0.1065604,-0.06628377,-0.19170694,0.13260505,0.2374062,-0.01471138,-0.2819556,0.09486693,-0.12349663,0.2721439,-0.14129436,-0.09150091,0.3343366,-0.43704286,0.26442465,-0.31230506,-0.0560665,-0.10688793,0.21112412,0.16983533,-0.24880596,0.11204146,0.15556546,-0.2461552,-0.1586073,0.19605519,0.1172664,-0.34716573,-0.1403049,0.16419193,-0.2948894,-0.12887637,0.03025642,0.49223953,0.022860453,0.10817858,-0.23472345,-0.12816654,0.24045703,-0.15998709,0.26525924,0.07529738,-0.11623664,-0.6971479,0.32591474,0.11208926,0.0064035207,0.33617672,0.49844262,-0.019986425,0.036789812,0.36561126,-0.0050023645,-0.17279908,-0.11996249,0.089361705,-0.03988201,-0.07201748,-0.021086361,0.020536974,-0.18378532,-0.27623066,-0.26882175,0.29143494,-0.060376555,-0.062930934,0.54759353,0.21683127,-0.04122521,-0.23651677,-0.081298895,-0.12940466,0.31812334,0.21729064,0.10818353,-0.029135458,0.04356116,0.5042049,0.1356633,-0.27846038,-0.3103279,0.14688978,-0.42103893,-0.09372967,-0.30560735,-0.15620086,-0.22894397,0.09944378,0.08940031,-0.1283911,-0.1693623,-0.0732404,0.16308445,-0.38687208,-0.021197636,-0.08307349,-0.10385314,0.13828045,0.01276204,0.2153846,-0.1752516,0.0013372377,-0.1341426,-0.19830096,0.15114567,0.0989154,-0.29402956,-0.20612219,0.094349764,0.1340507,-0.012972306,0.21352261,-0.104201116,-0.121415414,0.23144892,-0.06219505,0.04252629,-0.16193992,-0.053632334,0.026413187,-0.07591808,0.12498601,0.026687685,0.14538687,-0.050921746,-0.04908423,0.28842193,0.12849644,0.31578034,0.011169001,-0.12423918,-0.23658587,0.2961402,-0.13312542,-0.13858566,0.16080289,0.12285089,0.41473937,0.3992334,-0.41583425,0.46612924,0.00792234,0.057223946,-0.14978147,0.11743443,0.032181963,-0.08386467,0.3284692,-0.122407615,0.1295882,0.23053181,0.017332941,-0.0064992607,-0.03227132,-0.13182092,0.006206624,-0.16647159,0.09515339,-0.036155283,0.51339245,-0.051028624,0.06024733,0.20880023,-0.23310998,-0.28367326,0.2318401,-0.12986091,0.17867358,0.1579248,-0.15164813,0.07161453,0.19116375,-0.20224467,-0.34124362,0.2887892,-0.2692493,0.21532774,-0.36325315,-0.111174285,-0.17876971,0.12680373,0.17778003,-0.024742115,-0.15794891,0.46050364,-0.2861037,0.08371985,-0.024953999,-0.45141554,0.08232636,-0.3527913,-0.44845536,0.11736597,0.06767858,0.009024497,0.026518997,-0.033753652,-0.22216596,-0.42058632,-0.072921,0.3431247,0.1947589,0.0036590993,-0.11644549,-0.2827808,-0.48811033,0.11486852,0.623589,0.15156665,-0.09556459,0.09484196,0.121284194,0.3876616,0.25647306,-0.19021882,0.2123003,0.12710866,0.20620215,-0.28593418,0.052887853,0.18376851,-0.47029257,0.44299927,-0.060689494,0.004022848,0.5976515,0.015339933,0.18614349,0.24022245,-0.32340378,0.017666876,0.20022917,-0.1796169,0.32287773,-0.14503068,0.05556708,0.09076525,-0.113534644,-0.0055915117,0.12056815,-0.27261326,0.023750067,-0.117425896,0.35667908,-0.2756593,-0.07186675,0.057293884,-0.104210466,-0.053320162,-0.44863635,-0.25330085,0.05177924,-0.03584822,-0.09738609,-0.13955,-0.2636134,-0.20855363,-0.2265464,-0.097290926,0.012565926,-2.573058e-05,0.2793709,-0.1289235,0.5167951,-0.27275988,-0.1896649,-0.43131632,0.08800198,0.29695877,-0.13429499,0.08114543,-0.21826479,0.190788,0.41762656,-0.2964403,-0.26587352,0.1538612,0.05996173,-0.3645154,0.00089612603,-0.15024161,-0.072363,-0.039730914,0.13503851,-0.23798138,0.36722928,-0.089790486,-0.07728184,0.27247047,-0.18921056,-0.12707883,-0.42071378,-0.23083742,-0.045828585,0.41201591,0.096745245,0.27061155,0.11217856,0.05604235,0.41596913,0.13671634,0.15918383,0.38908347,0.21310315,0.3147578,-0.1149154,0.5308606,-0.15125024,0.105003625,0.27204993,0.18943024,-0.3099852,0.20548946,-0.022037178,-0.17823571,0.029583815,-0.21437031,-0.020239562,0.09256233,-0.103795186,-0.41249442,0.04468242,0.1992675,0.12011919,-0.2356844,-0.3510527,0.08355887,0.41647407,-0.16296795,0.23082772,-0.02231358,0.024354309,-0.13872194,-0.28131083,-0.11778532,-0.12600282,-0.07111071,0.089844756,0.15746199,0.38239604,0.595864,0.19588363,-0.042111356,-0.16560176,-0.5533885,-0.26096052,-0.027530387,-0.12505835,0.18833876,0.28212932,0.3513557,0.10307932,-0.046100102,0.26590472,0.41160503,-0.031153113,-0.12428707,0.40407413,0.34645206,0.027738068,-0.3541903,0.37494272,0.066432066,-0.023202732,-0.092965476,0.34943345,-0.20587066,-0.30024126,0.18314397,0.022617783,0.29767245,-0.17274109,-0.13437383,0.27773038,0.23813272,-0.47088218,0.31751525,-0.2408641,-0.05265657,-0.016661532,0.028208084,-0.16641985,0.070060775,-0.06367358,0.14263462,0.29882506,0.07644643,0.044780247,-0.10035698,-0.18784013,-0.0666036,0.057174955,-0.11144272,0.18860099,-0.17692949,0.012453727,0.3082175,-0.023268025,-0.14761715,0.06591247,-0.24687481,-0.028125523,0.04533638,-0.11963986,0.03716378,0.0785484,0.1151599,-0.4294555,-0.26791635,-0.26830715,0.28927833,-0.02801033,-0.21557638,0.21858175,-0.05441971,-0.26495227,-0.7134677,0.06711888,0.10294024,-0.053143322,0.23561992,-0.09002158,0.08839664,0.12779722,-0.30477187,-0.07729539,-0.061676152,0.1525126,-0.06653719,0.03125168,0.3382416,0.3029017,-0.10838848,0.19451761,0.09173816,-0.3684038,0.047861367,-0.24992523,0.213496,-0.13607806,0.07425831,0.14331567,-0.026343435,-0.09923394,-0.08255707,0.24389714,0.3854126,0.2868521,0.23773569,-0.0871646,0.1104527,-0.038414866,-0.0052436516,0.18899265,0.221302,0.3242674,-0.011570759,0.15995151,-0.034837134,-0.11368341,-0.12489404,-0.0021117143,-0.34660786,0.08798244
C2,0.0010485128,0.14497405,-0.09746588,-0.12510937,-0.13996878,-0.06304404,0.31287685,0.3731397,0.07502524,0.3224664,-0.3407314,-0.25479272,0.21694168,-0.41115806,0.06885551,0.044268753,0.0007046871,0.23658964,0.14483932,0.14268169,0.20047443,-0.098961286,-0.117376976,0.16188283,-0.20092928,-0.2513129,-0.3048948,0.056083582,-0.0952686,-0.43317887,0.3859709,0.051445708,-0.027943663,-0.058433104,0.30146122,0.08533414,0.053992882,0.053808104,0.43230245,0.08039306,-0.04675641,-0.3609584,-0.11824893,-0.29361773,0.1714263,-0.01759737,0.013976224,-0.017588537,-0.12127282,0.09925239,0.31315923,0.20390335,0.25100392,0.10001621,0.0156085715,-0.252368,-0.045102127,-0.28269538,-0.07027385,0.0633445,-0.1357409,0.10637974,0.23470247,-0.472594,-0.22727525,0.053759098,0.056881785,0.063752234,-0.28903762,0.061887134,-0.014142105,0.09493074,-0.35727203,0.18467547,-0.12248887,-0.37207553,-0.28972697,-0.11878099,0.33954686,0.16111487,-0.0016617626,0.3194505,0.4053824,-0.033395253,-0.25221536,-0.21727383,0.15267831,0.15414602,0.07232891,-0.17095065,-0.43567425,0.42619798,0.06637341,0.0010316111,-0.29356265,-0.31051904,-0.13103098,0.30298638,0.011161402,-0.09582991,-0.5841886,0.060513094,0.17733821,0.2732333,-0.14319994,0.14517713,0.04880698,0.27482533,0.3308661,-0.17160144,0.23233235,-0.12656292,-0.42363024,-0.5199876,-0.12113675,0.006669609,0.2220779,0.16734366,0.26360562,-0.05379121,0.018471472,-0.24861127,0.15502825,0.5157098,-0.119182795,-0.00010738522,0.033232808,0.23218748,-0.3934304,-0.3354719,0.069238275,-0.17678976,-0.052199468,0.21509019,-0.0032009408,-0.33408117,-0.17213729,-0.034961805,0.3772432,0.15418541,0.010338582,-0.18664828,0.19622166,-0.1346076,0.06569812,0.3210451,-0.17960748,-0.10006402,0.45843002,-0.2760236,0.09960256,0.33423325,0.26814824,-0.37870568,0.20981473,-0.00045796484,0.2588092,0.16719234,0.32220927,-0.026544932,0.6147176,-0.34991235,0.24092677,0.09228292,-0.3164929,0.018605493,0.22313744,-0.007055007,-0.09857436,0.10254711,-0.017843973,0.39305583,0.21884337,0.06988924,-0.3165292,-0.055626564,-0.5655591,0.08956843,0.12727489,0.53571266,-0.3396128,0.30259708,0.20037001,-0.1494521,-0.17796345,-0.22899076,0.38662577,0.31521994,-0.18564826,-0.03943475,-0.037862852,0.100876756,-0.11850839,-0.36940175,-0.17067721,0.024964355,-0.03278384,0.031198144,0.0015356019,-0.1011666,0.38387775,0.24448253,0.018049087,0.16325,-0.14508566,-0.024115592,0.005526647,-0.29328048,-0.037045196,-0.07432489,0.48618758,-0.28274533,0.19291931,0.079054564,0.21504056,-0.084917374,0.13377257,0.0946954,-0.27828968,0.2239945,-0.47574508,-0.28994152,0.23243997,0.2474269,-0.022355542,-0.05448001,-0.15343465,-0.102377556,0.31727567,0.3401843,-0.13555768,-0.2521151,0.05545095,0.29293242,-0.07692848,-0.140116,0.17637403,0.024661526,-0.31363958,-0.05798573,0.036316097,0.09580834,-0.21434656,0.01991228,-0.31086904,0.24305494,-0.3369732,-0.44836342,0.17173618,0.32069814,0.26120844,-0.08256333,0.38809755,0.0464924,-0.37353277,-0.09017914,-0.0071742907,-0.32021025,0.4124212,0.1342622,-0.07952113,0.24306455,-0.26355195,-0.12296299,0.26332888,-0.27777633,-0.17109483,-0.2881403,-0.21983728,0.043550253,-0.32956398,0.41138744,0.005625464,0.31030697,-0.17756552,0.07537112,-0.26910543,0.49666467,-0.026240058,0.118653625,0.13784695,0.19583017,0.057516873,0.011446007,-0.14568487,-0.1707852,0.17709294,0.05106213,-0.07268309,-0.13887995,0.23359656,-0.4565138,-0.61879313,0.047946792,-0.14454481,0.38045904,-0.16074674,0.25648338,0.16812775,-0.05754883,-0.012484662,-0.26160932,-0.006577648,-0.47742784,0.47820994,-0.2103512,0.0044484586,0.2124187,-0.14445719,0.038270388,0.013436936,0.18623883,0.21020219,0.053867195,0.5350665,0.09146762,0.24372867,-0.005318869,0.36811385,0.34528792,0.17310224,-0.26437634,-0.2805181,0.69965667,-0.10958765,0.4673295,0.120300986,-0.20186144,0.25956964,0.040633217,0.156034,0.094125144,0.06412204,-0.07038953,0.15753141,-0.08388897,-0.13372512,0.08884047,-0.042827226,-0.021579687,0.76642495,0.18680343,0.14662132,0.029504858,-0.124271765,-0.11210319,0.030451583,-0.56584084,0.020165239,-0.023496155,-0.3656709,0.10595557,-0.19901848,0.2885017,-0.259824,0.22232333,0.1633539,-0.04870837,-0.29166943,0.04852809,-0.2524423,0.24618372,-0.22714779,0.20417248,-0.018378899,-0.11982477,-0.11241314,-0.03652887,0.48683193,0.2353994,-0.2762832,-0.22909239,0.14630967,-0.2938655,-0.5537513,-0.18428048,-0.29252928,0.1973409,-0.45066962,0.17406666,-0.20960715,0.07037604,0.011961915,0.21021137,0.21118397,0.1625869,0.008133844,-0.052675836,-0.010117887,0.41118765,-0.56624424,-0.12507713,0.3585842,-0.16115692,0.031647153,-0.19345802,-0.1858468,-0.20131186,-0.114612006,0.10181254,-0.16404149,0.25924903,-0.18843642,0.014364958,0.16263561,-0.016473725,-0.35078007,-0.20835513,0.113129824,0.15886739,-0.06437166,0.23337692,0.26707384,-0.015823312,0.09723534,-0.045096926,-0.19300988,0.21287262,0.22513075,-0.09967225,0.08018893,0.14645484,-0.14580311,0.3976189,-0.15805206,-0.23906532,0.16308528,0.005385263,-0.29374757,-0.43200862,0.13038301,0.065245666,0.40716314,-0.22995096,-0.23632342,0.05859611,0.07045027,-0.23597899,0.0345916,0.22059512,0.22476158,-0.55352074,0.025914453,0.01459264,-0.17032853,-0.0794891,0.2502051,0.31861344,0.092486836,0.088881165,0.05369603,-0.2591,0.17367738,-0.10840647,0.0008351542,0.024503915,0.074600264,0.5372263,-0.46894613,0.1418443,-0.21872179,-0.5765253,-0.23043907,-0.0038075522,0.3644493,0.18779556,-0.33243972,-0.34413832,0.28102893,0.02504094,-0.18980709,0.17254335,0.201381,0.03937038,-0.53999287,-0.28778443,-0.15223834,0.07595441,0.012683019,0.16255136,0.3664114,0.35419396,0.16317496,-0.16695362,-0.053548932,0.23278645,0.02177953,0.087680824,-0.120396025,-0.01786219,0.071265325,-0.30877608,0.111704625,-0.13351136,0.124829486,-0.14815465,-0.16371906,0.38620543,-0.17938319,-0.22846231,-0.026884608,0.16652265,-0.2263314,-0.07586373,-0.10295365,0.19090542,-0.041215397,0.027560815,-0.32929045,-0.18348959,0.061899647,0.09450564
C3,0.14491418,0.34718424,0.12710392,0.12755737,-0.1865252,-0.19953696,0.36848384,-0.2838099,0.4284234,0.32651183,0.35296708,0.1895544,-0.18417892,-0.09235973,-0.25775158,0.44289044,0.011873741,0.2457861,0.49196285,0.076153204,0.2669286,-0.18298975,-0.024645321,0.01801207,0.066767,0.14275979,0.64211947,-0.10623332,-0.16016778,-0.17930108,0.052017488,-0.48740232,0.075474046,-0.13534702,0.19286895,0.033785127,-0.42512944,-0.20150945,-0.029535895,0.30218828,-0.027615579,-0.12287483,-0.03462372,-0.15659317,0.11446886,0.34957108,-0.06565593,0.7423719,-0.2634222,-0.14641196,-0.21726511,-0.08163914,0.037176277,-0.028157262,-0.047249638,0.11011091,0.014704589,-0.030409992,0.38039118,-0.21991935,-0.20257321,0.31446433,0.09451712,-0.35391033,-0.08043372,0.20977803,-0.56967914,0.45237595,-0.4071324,0.15089607,0.41630107,-0.021107193,0.041095205,0.45072454,-0.24237274,-0.30323303,-0.0015740674,-0.3514007,0.42945442,-0.030233722,0.0008729324,0.06067694,0.32322752,-0.03762365,-0.4451508,0.0659754,-0.17159718,-0.29670674,-0.027993547,-0.19560733,-0.006928608,-0.18761152,0.49065185,0.18918784,-0.48191512,0.33679587,0.12620038,-0.4405114,0.28547442,0.07954177,0.10159014,-0.35011366,0.5308658,0.53773206,-0.33572853,-0.18001898,0.24255264,0.5212885,-0.15421838,0.30023423,0.5232528,0.32382366,-0.27782753,-0.21310295,-0.49492112,0.015187511,0.45798478,-0.088224106,-0.03567326,-0.0073936507,0.047215678,-0.109591834,0.20996967,0.26761326,0.31046534,-0.052816734,0.24842855,-0.02408553,0.23538552,-0.52865684,0.16279545,-0.71833783,0.034233805,0.10357065,-0.24997565,-0.1646223,-0.20855239,0.14737476,-0.15271524,0.4564004,0.06836381,-0.0896348,0.1441354,0.016285554,-0.088826835,-0.44803888,-0.18568817,-0.30066982,0.24108908,-0.51747763,0.0540678,0.03321603,0.3234753,-0.022495113,-0.06022631,0.28776762,0.48429537,0.097118266,0.046460103,-0.23140201,0.66829956,-0.015309561,-0.40153003,0.48198006,-0.112877116,0.2660564,0.19648649,0.19730446,-0.12128347,-0.46028304,0.010351848,-0.20350108,0.108397126,0.12816554,0.19368395,-0.14105597,-0.2679507,-0.26142156,-0.07953944,-0.2070203,-0.085774206,-0.12525648,0.062759876,-0.10181188,0.028118804,-0.17147672,-0.17319798,0.059194207,-0.25160348,0.08001083,-0.020972729,0.029380798,0.32414186,0.052067086,-0.21294661,0.012390915,-0.56620646,0.015869886,0.18711275,0.05782128,0.04348863,0.24554987,0.06956364,0.024780143,0.07476799,-0.3553481,-0.49635017,-0.29105246,-0.08754821,0.14629835,-0.16973335,-0.40250796,0.008523114,-0.2306793,-0.047057245,0.006340023,-0.013645731,0.69821674,0.29544082,0.24305287,-0.6559082,0.11815127,0.3553653,-0.019630134,-0.14979863,-0.45035324,0.4980601,0.47319257,0.36674893,0.23910053,0.13320664,-0.30399412,0.09016563,0.11064215,0.07851794,-0.20222092,0.009413317,-0.052086167,-0.49913812,0.22533783,0.22030333,0.23680252,-0.76222503,0.11313157,0.16530292,0.124142125,0.040290244,-0.12449691,0.21457034,0.0377497,0.6249204,0.26153463,0.059970506,0.056746416,-0.08872854,-0.22164193,0.20782572,0.027558986,0.32165664,0.2774925,0.042599887,0.3335232,0.014051147,-0.20388064,-0.054783925,-0.36277154,-0.509669,-0.019811187,0.09788174,0.44049597,-0.16100323,-0.039545488,-0.3809662,0.19981839,-0.74835974,-0.112983815,-0.38831052,0.22566183,-0.20084798,-0.14331385,0.14509973,-0.07463392,-0.30446503,-0.19751453,0.15342084,0.37863863,-0.19987065,0.38086134,-0.16940767,0.5030798,-0.2106621,0.14288224,-0.10495438,-0.2241928,0.07113025,-0.36245486,0.10736674,0.17602056,-0.4026335,0.09134945,0.29735434,0.043136925,-0.26598048,-0.23117705,0.14830628,0.045014255,-0.001290381,0.2071496,-0.2041946,-0.34391546,0.2522003,0.12045823,-0.16554299,0.21730128,0.19705683,-0.2963073,0.14289412,-0.021276757,-0.031803384,0.2164855,-0.033911645,-0.43008536,-0.20301184,0.07790527,0.14209571,0.42776638,-0.45776963,-0.0010458454,-0.022330057,-0.07317703,0.01085365,0.30449927,0.0061814934,-0.24646047,0.601873,-0.07058243,0.4793979,0.24454184,0.09365213,-0.055887938,0.3707588,0.13841838,0.08975446,-0.43455216,-0.25761676,-0.51152515,0.28254515,-0.5439691,0.24649128,0.056061592,-0.2919319,0.025026284,-0.57550657,0.52915055,-0.1313405,0.08413173,0.044292275,-0.29471624,0.37992343,-0.33600774,0.10846749,0.46862194,-0.33201256,0.19734459,-0.34289527,0.0023997575,0.0032129884,0.020070858,0.3812502,-0.38799623,-0.39664176,-0.07503642,0.3369456,-0.1766227,-0.23315479,-0.15062836,-0.048294857,0.26392657,-0.4987169,0.14573362,-0.4353456,0.30585033,0.10024721,0.0347618,0.3234101,0.8271707,-0.51892495,-0.009725835,-0.14791143,0.12110351,0.13799906,-0.13864934,-0.04159701,-0.09552225,0.06660831,0.20103283,-0.100934684,-0.28364164,-0.02786947,-0.33564714,0.43644613,0.045306098,0.0908775,-0.28235412,-0.17842706,0.09466142,-0.022199549,0.053663373,0.06590536,0.056344982,-0.013577741,-0.14050463,0.051410757,0.12357534,0.41498095,-0.04284975,-0.20039043,0.32026997,0.13313058,-0.19376361,-0.35184422,-0.06897027,-0.63940006,-0.02654837,-0.05714628,0.044026032,0.31771636,0.36160523,-0.47387502,0.26903278,0.08776285,-0.13864392,-0.137014,-0.28653356,-0.41263682,-0.19943789,-0.18827629,0.105545916,0.22127569,-0.2248522,-0.1870169,0.42628083,0.08756445,0.029728837,-0.1547063,0.023063492,-0.028964646,0.13578528,0.30739644,0.031784605,-0.5173394,0.3153359,0.23244447,-0.46829695,0.2237527,-0.03381551,-0.30800435,0.5102515,-0.20415273,-0.10011258,-0.28425032,-0.30379814,-0.048193745,-0.44298512,0.1879704,0.44061226,-0.03711485,-0.10272066,0.2508893,-0.13686189,-0.3875685,0.050572976,-0.14973125,-0.16827844,-0.3590743,0.13377386,0.1398784,0.0941681,0.63288814,0.19408317,-0.097772025,0.016898118,0.49295694,-0.54650867,-0.10996923,0.25445595,-0.3811277,-0.23117316,-0.07238756,-0.4251189,-0.20865256,-0.06572808,0.05235315,-0.2780597,0.19732465,0.13356581,-0.36026984,0.30172783,-0.744314,-0.45294607,-0.10417488,0.10376362,-0.47051898,-0.3176845,0.27692223,0.36289242,0.29415974,-0.05716825,-0.4048189,-0.25665313,0.3343953,0.21428949
C4,0.36388913,0.15552928,-0.27195624,-0.06275342,-0.25912592,0.467157,-0.0023605116,-0.15283757,-0.20145014,-0.1681828,-0.0125608295,0.41129634,0.38599554,0.15298289,0.24354044,0.615615,0.1358377,-0.34794495,0.16534045,0.24755907,-0.43789142,0.02766918,0.15477458,-0.037319638,-0.07378512,-0.17803809,-0.020018995,0.14991602,0.256431,0.14104556,-0.2759218,0.06273098,-0.10168239,0.26903766,-0.072965294,-0.28000525,0.11507421,-0.12966959,0.26415232,0.16311514,-0.023869662,0.23000614,0.09552549,0.15721712,-0.10708163,-0.22194603,-0.061995417,-0.1734192,0.059016116,0.31359303,0.0117469765,0.23476917,0.08098587,0.2598121,0.2780194,-0.20971492,0.13939524,0.1207019,-0.2529692,0.3631803,-0.14861307,-0.08965146,0.06929093,-0.033399995,-0.43728098,0.42832494,-0.14023691,-0.02693969,0.04367254,-0.0014064647,-0.123033166,-0.46658555,-0.23085195,-0.1816284,0.07431005,-0.19380653,0.05097717,0.2720629,-0.2213243,0.14127429,-0.07101813,-0.047235064,-0.32235685,-0.075990915,0.2510331,0.15179189,-0.04297281,-0.1522508,0.016402856,-0.12732944,0.2865107,0.2600749,0.3705874,-0.16897371,-0.21858719,-0.057068624,-0.025563441,0.0022615548,0.033886567,0.12220867,-0.071359225,0.66952217,0.04437683,-0.07027687,0.021315195,-0.27956504,-0.48331112,-0.25227153,-0.20432863,-0.046819046,-0.062450416,0.14169663,0.25621605,0.22037989,0.5548385,0.033257656,0.024557985,0.19793895,0.17689648,-0.030366436,0.1932056,-0.04005478,0.2809315,0.6798213,0.10440314,-0.01405219,0.32875726,0.2870517,0.05376554,0.28669527,0.111699164,-0.43669683,0.09096678,-0.040378474,-0.28803062,0.020365864,0.43273723,0.0017047115,0.1549334,-0.07577332,0.08631132,0.102864735,0.25312144,-0.27143118,0.06631726,-0.2552098,0.2787142,-0.12606677,-0.16490114,-0.008805186,-0.08797465,-0.2829752,0.016525146,0.117581226,-0.22956464,-0.14491934,0.14530933,0.0970169,-0.22543469,0.30181924,0.07041722,0.13896737,0.1978519,-0.21495926,0.0025375746,-0.13905889,-0.24454018,-0.0667741,-0.062909134,0.2762123,-0.39830142,-0.16352591,0.35379538,-0.2903527,0.15827519,-0.17960358,-0.11854723,0.21692207,-0.08881223,0.29463503,0.032991976,-0.046564557,0.28847387,-0.052922472,-0.086542524,-0.3182705,-0.5363095,-0.039419547,-0.16136762,-0.43905386,-0.24965966,0.30349806,-0.020813242,0.010955475,0.1993683,0.062013775,0.46623415,-0.6330012,-0.5683449,0.25615886,0.18108007,-0.42637217,-0.30098987,0.46628854,0.09848857,-0.072371915,0.37144005,-0.16289794,-0.24419531,0.018733844,0.21879056,-0.14468056,-0.30167156,-0.13672361,-0.17826304,-0.26779205,0.086276636,-0.4225157,0.11225471,0.08553347,0.5157058,-0.36997816,0.043702148,-0.48920164,0.18258278,0.18339618,-0.20657292,-0.07481823,-0.031437375,-0.13160986,0.25316715,0.2520248,0.19551226,0.076174304,0.14999986,0.1477049,-0.15712088,-0.14010426,0.15226609,-0.24429885,-0.08590656,0.008630667,0.07860931,-0.065024815,-0.20820022,-0.06133485,0.1672084,-0.19871828,-0.083763875,-0.25884438,0.060402803,-0.12965587,-0.1073215,0.08039849,-0.33919892,0.25231552,0.17175123,-0.027042523,-0.08763479,0.21817222,-0.0847123,-0.20486996,-0.21457441,-0.28303245,0.17033619,0.2122752,0.11160258,-0.16293935,-0.12138141,-0.03705075,-0.01508918,0.45266575,-0.054492082,0.018425439,0.035173226,-0.117932625,0.06163873,-0.09155041,-0.039704308,0.034995645,-0.35458568,-0.37172222,-0.19941369,0.21469441,-0.19162509,-0.25490457,-0.16832666,-0.12277678,0.29491496,0.2794446,-0.2887443,0.16239096,-0.22233589,-0.20532781,-0.06381962,0.105553046,0.20089136,-0.17014986,-0.2851286,0.12360592,-0.45948148,0.31385705,0.054111294,0.03743049,-0.08893345,0.032349724,0.38337946,-0.21568486,0.16532543,-0.10708088,-0.21796924,-0.19950709,-0.026987653,0.17885527,-0.014944218,0.20613194,0.30087006,0.11119332,0.10541152,0.19127668,0.272248,0.039718498,-0.045980673,-0.08596064,0.16081871,-0.31459332,-0.06675443,-0.013663389,0.3049244,0.20850587,0.22298944,-0.21375361,-0.18835136,0.19118726,0.22697067,0.15531495,0.16350664,-0.4282773,0.027462747,-0.057302654,-0.37424427,-0.15570273,-0.20725504,-0.028627887,-0.030482225,0.09471235,0.115788676,0.106249504,-0.37644523,-0.48273683,-0.04343366,-0.07834679,0.36750856,-0.53683376,-0.011495933,0.037533876,-0.15712368,-0.1994651,-0.09168885,0.43689543,0.16009289,-0.56906414,-0.51053464,-0.33472824,-0.51015526,-0.20277289,0.6439799,-0.24140666,-0.23421887,0.21678615,0.3025085,0.15476367,0.37614694,-0.10940187,0.0003257133,0.3663499,-0.10468671,0.038329154,-0.07998894,-0.23896188,0.03904701,0.1649695,-0.1465993,-0.11889592,0.50881416,-0.22654817,0.3489683,-0.13696131,0.12197048,-0.26730508,0.41215488,0.25457975,0.29275072,0.17056793,0.30968133,0.029915407,-0.2014899,0.2651174,-0.16206244,-0.3276955,-0.20235515,0.19332042,0.2114723,0.44265813,-0.056743026,-0.09639626,-0.29318237,0.16934358,-0.1584252,0.03199485,-0.32313815,0.08796172,0.30034247,0.018393096,0.024994526,0.20493177,0.22565123,0.4095901,-0.23363622,0.21800983,-0.32720476,0.19425118,0.27644727,0.39616972,-0.19342554,-0.11842587,0.17429754,-0.1533798,0.13895693,-0.19285884,0.22182977,-0.03325426,0.021502376,0.24621373,0.21853761,-0.1301414,-0.12526837,0.1328344,0.064842686,-0.19721416,-0.30771783,-0.17653811,-0.5604434,0.27715847,0.41480476,-0.1460921,-0.02246942,-0.116289005,0.23887476,-0.20941131,0.4646214,-0.48606753,0.120381415,-0.23572184,0.086358756,0.427166,0.103996724,0.4086916,0.092250586,-0.06834312,0.14161548,-0.12258859,-0.12000463,0.025961742,-0.007791035,-0.3526988,-0.14926434,0.08048594,-0.14812502,-0.54633754,0.14531049,-0.04102795,-0.1799244,0.23791066,0.37100387,0.0261839,-0.41080803,-0.31173173,-0.12665996,0.23855713,-0.71970004,-0.16305077,-0.04411902,0.0476238,0.1253506,0.33423096,-0.39799815,0.015222192,0.39522567,-0.04547505,0.304141,-0.09909423,-0.0027367696,-0.23582572,-0.017187677,0.08398873,-0.03419724,-0.38062525,0.11371899,-0.1184639,0.45855707,0.38668466,0.47231495,-0.19267823,-0.016972126,0.09533716,0.055053104,-0.2045097,0.26507467,0.12138822,-0.21237288,0.11094776
C5,0.2389819,0.20305283,0.29777694,-0.28582895,0.023963824,0.086070105,0.14069015,-0.07919905,0.08209365,-0.01779487,0.3696643,0.16086844,-0.18356216,0.14405915,0.11796679,0.10006963,0.05985179,0.63025856,-0.17880131,0.020944178,-0.08257035,0.22656614,0.34328893,0.5196466,-0.017093401,-0.061847217,0.18270051,-0.12278948,0.108414,0.48143116,0.016530417,-0.04862295,0.17180538,0.14836092,-0.5926906,0.22779466,0.5036506,0.0934249,0.44566438,0.09602198,-0.0015780292,-0.45193654,0.04056555,0.51065266,-0.4427618,-0.14149539,-0.43696594,0.62498415,-0.15262127,0.2831502,-0.3313609,0.47056106,0.35978022,0.5027839,-0.21676973,-0.112647586,-0.02988384,-0.019355394,0.19727398,-0.21348023,-0.15266904,0.116799705,0.060667112,0.09662847,-0.22638363,0.4542638,-0.11531217,-0.045889035,0.10927948,-0.053337585,0.1896132,-0.23182492,-0.15100291,0.24583736,-0.28090796,-0.089377545,-0.24732739,-0.061315216,-0.24660173,0.41779914,-0.27089423,-0.24335283,0.05070196,0.5822461,0.21755634,0.06454778,0.02689219,-0.19039908,0.14351696,0.036795378,-0.4441159,0.51961285,-0.25628972,-0.03857475,0.29045224,0.34015518,-0.20032173,0.25382277,0.18649372,-0.20132867,-0.1107685,0.2408798,-0.16890392,-0.18722063,0.11831991,-0.041320257,0.1731554,0.11419735,0.37140298,0.3212703,0.35631514,-0.19514132,-0.049884804,0.08413746,0.041337,-0.4542151,-0.37349746,0.41220734,0.087898046,0.1954984,-0.08992943,-0.25682393,-0.2640738,-0.032504372,0.14708965,0.15920907,-0.32880127,-0.068589546,0.3510716,0.06806821,-0.08000916,-0.045134895,-0.6794206,-0.60728425,0.07330907,-0.25477618,-0.12502983,-0.23388003,-0.16270596,0.5895281,0.15191984,0.16216183,-0.3186517,-0.37492165,0.2300568,-0.41086197,0.42872652,-0.3661426,-0.019431137,0.28977266,0.25156778,0.044396594,0.16078311,-0.51066625,-0.23662576,0.2700859,0.21657237,-0.10370352,-0.47636905,-0.33901784,0.44535267,0.06719511,-0.34432563,-0.33671656,0.10380814,0.09270149,0.08585514,-0.10703278,0.04465932,-0.11877907,-0.18265177,0.22830471,-0.23375769,-0.22975054,-0.09794293,0.19613767,-0.43939292,0.08992198,-0.22013661,-0.18150581,0.24453992,-0.31620166,-0.17500675,0.24640895,0.059846677,-0.010291621,-0.13031778,-0.03423412,0.05592981,-0.16365062,0.28368813,-0.11965343,0.15931916,0.007813923,0.38287336,0.23909998,0.19245616,-0.20243306,0.059331268,0.27317423,0.44481575,-0.13452838,0.3144554,0.4942234,-0.005021736,-0.42348525,0.5268944,-0.45168322,0.16732165,0.2266705,-0.15747645,0.113590986,0.13019785,-0.35582212,-0.111534856,0.031234555,-0.28092346,-0.35728875,0.11673009,0.255846,0.3085047,0.32119423,-0.38229904,-0.15662824,-0.1367321,-0.34927568,0.3384891,0.5112545,0.57683825,-0.28514677,0.48330742,-0.095698535,-0.20332494,0.11748525,-0.5389663,-0.0113061145,-0.42766672,0.017839132,0.23400627,0.14258951,0.03144581,-0.41685763,-0.020341728,-0.04835073,-0.13173741,0.12777627,-0.22809866,0.25581425,-0.0794849,-0.15325429,-0.12377118,-0.4971342,-0.033440627,-0.115918554,0.20484939,-0.17612734,-0.28028375,-0.20558488,-0.30944592,0.13290285,-0.65537626,-0.10296532,0.18022971,-0.24394542,0.037867673,-0.14593011,0.18424654,-0.18594916,-0.048666902,0.17381805,-0.14419734,-0.40520725,0.13525802,-0.6790462,-0.30617547,-0.05434396,-0.34647235,0.07690127,-0.25471553,-0.18094927,-0.20192222,-0.20021012,0.10015273,0.375153,-0.13030514,-0.42799932,-0.13211834,-0.1937073,-0.3549868,0.6459032,-0.22929358,-0.18398702,0.23856698,-0.30249932,0.33191228,0.5375334,-0.3551188,-0.09671313,-0.14403102,0.21694157,-0.03663253,0.1820247,-0.22070783,0.05581467,0.09759571,0.034569606,0.36135244,-0.1294164,0.0064252466,-0.27634972,0.35906962,-0.29436165,-0.17689463,0.10984351,0.47432497,-0.4355974,0.05276525,-0.25516617,0.027415907,0.3446085,-0.017139703,0.02502596,-0.08013405,-0.0320957,0.56731087,0.2987678,-0.18011987,0.09254495,0.11785963,-0.22307935,0.2068069,0.18614808,-0.10321707,-0.02064953,0.24289104,0.15859395,0.25124013,-0.27279067,-0.016060583,0.23584825,0.42078635,-0.122908585,-0.21001178,0.44822904,0.047948048,0.34151316,-0.10944231,-0.3629501,0.4974791,-0.39593655,-0.086766854,-0.31866965,-0.45321777,-0.05990816,-0.24647327,-0.28215384,0.15038249,0.14238688,0.06479958,0.54222924,0.05078894,0.20294335,-0.23208034,-0.35232648,0.26288444,-0.5415429,0.18776828,0.6132248,0.58529085,-0.020873208,-0.018538676,0.02191623,0.17925957,0.18714517,-0.1371335,-0.34487423,-0.23887345,-0.2436835,-0.21255165,-0.21844366,0.16287014,0.40824232,-0.404117,-0.1280879,0.6358332,-0.27086353,-0.24569768,-0.3655236,0.062396012,0.18232316,0.28789437,0.28651777,0.13991028,0.41421047,-0.5137559,-0.43718147,0.37447494,-0.25223646,0.14310041,-0.016883615,-0.055015318,-0.32091025,0.43742287,-0.27986437,-0.26330322,0.06829476,-0.12836584,0.030472394,0.02332808,0.121313974,0.05496402,0.028144965,0.47208023,0.031623706,-0.21602401,0.117367,-0.47233272,0.5871776,-0.13068518,0.44647995,-0.22246894,0.047214754,0.12402439,0.23959754,-0.12900606,0.15735587,0.17403924,0.47258312,-0.056380123,0.44972056,0.3025191,0.07749632,-0.32081217,0.0096031055,-0.110046595,0.18705308,0.16156614,0.17387259,0.016181067,0.15042008,0.12025844,0.31970447,-0.21406874,0.32747078,0.15821567,0.49302799,-0.112633735,-0.016629234,-0.20384789,-0.6847978,-0.21829206,-0.036748987,0.18365023,-0.15228043,-0.11166867,0.47359303,0.021787342,-0.05346691,-0.1885516,0.0067098103,0.24018563,0.0051145144,0.298474,0.019923002,0.35998136,0.021912485,0.12509155,-0.29718673,-0.1126499,0.3113424,-0.039984643,0.42073143,-0.06516289,-0.032783978,-0.4483292,-0.39088085,-0.13051662,-0.10024504,0.13000259,-0.24860731,-0.23100606,0.22741547,0.42117566,0.07927753,-0.18260895,-0.1160612,-0.69777757,0.09329996,0.15770167,-0.032407686,-0.06307171,-0.53087515,-0.43637663,0.32738933,0.059124876,-0.13853896,0.13338575,-0.4361533,-0.6244849,-0.2859385,0.69862676,0.5724552,-0.2644003,0.26539505,0.1302238,-0.07655268,0.52522314,0.29793462,0.58084947,-0.012109235,-0.023041453,-0.20585921
C6,-0.14347917,-0.14059778,-0.31986296,0.36730352,0.33592495,0.07152256,0.015575655,0.20615903,-0.42212215,0.23028824,-0.6249434,0.059888985,-0.0323277,-0.14851825,0.2112892,-0.30533212,-0.1989461,-0.55066204,-0.34024262,0.0070366412,-0.10686944,0.06329113,0.16252753,-0.39484262,0.28106797,-0.31069276,0.24047887,-0.01064346,-0.071983926,-0.08606419,0.04261656,0.16385257,-0.059943654,-0.14345032,0.11546755,-0.2517134,0.2496601,-0.23256545,-0.16018693,-0.2896946,-0.14884765,-0.05515294,0.41826195,0.10882284,0.34909987,-0.36272585,-0.049121305,-0.1116711,-0.045846336,0.09715842,-0.12721053,-0.08691572,-0.035782196,-0.41981697,-0.14446603,0.48973903,0.06797572,0.15579224,-0.12854916,-0.15301296,-0.11728241,0.10062959,0.015724793,0.042015947,0.07860293,-0.26904488,-0.15949357,0.062628984,-0.038408007,-0.16068396,0.23738661,-0.0155590065,-0.26969343,-0.011626255,-0.5345481,-0.07218612,-0.112943,-0.068031244,-0.3688021,-0.056239787,0.19938955,0.0531783,-0.023300916,0.06704464,0.33145577,0.06300464,0.13647377,-0.02163215,-0.15411961,-0.01681155,0.1741266,-0.007699523,0.08438707,-0.002439078,-0.10563493,-0.017763555,-0.3383077,-0.052983224,-0.07418518,0.053771727,-0.3447631,-0.19465704,-0.39344594,-0.13382044,0.06335726,0.006331362,-0.1652838,0.20258686,-0.17403874,0.14557096,-0.009728856,-0.20588437,0.16921124,-0.18382269,-0.30365372,0.11319165,0.15773103,-0.17847961,-0.28555593,0.07371122,-0.48606285,-0.37223172,0.023205936,0.04625102,-0.17979205,0.4592105,0.39543837,-0.14859715,0.08720447,0.63507956,-0.4000317,0.07087591,-0.14577729,-0.05303472,-0.28164738,-0.14701274,0.07899271,-0.39790446,0.094478816,-0.20749858,0.06577064,-0.100804634,-0.08409402,-0.23446077,0.29919767,0.1998597,-0.28665632,-0.13485357,-0.3270915,-0.24583718,-0.39808738,0.06528287,-0.0074562803,0.41487888,0.22156999,-0.099167146,-0.10306593,0.37299412,-0.3883075,-0.23162559,-0.4582284,0.14948475,0.072787896,0.116543576,0.057995796,0.05557681,-0.005533986,0.1621739,-0.40258768,0.055885304,0.036563184,0.37121856,-0.13434675,-0.22488964,-0.13694099,-0.09343922,-0.13410977,0.032460257,-0.27238157,0.11934368,-0.31325248,-0.13284738,0.028199099,0.02346399,-0.091494404,-0.08582194,0.06764621,0.0046689473,0.06631933,-0.20444107,-0.4694068,-0.0520602,0.11988792,-0.9034457,-0.23860355,0.2756201,0.564025,-0.012190543,0.22782353,-0.28400037,-0.056265414,0.11672488,-0.06304015,-0.00992275,0.6969472,0.067440376,-0.103995085,-0.030049324,-0.2647015,-0.21354115,0.23015478,-0.0009962805,0.051468708,0.3194189,-0.24538264,0.28906792,-0.1959033,0.007980607,-0.14706093,0.49796054,0.20624247,0.26125717,0.10713238,0.24382436,0.07415994,0.18701771,0.049663235,-0.3774185,-0.20162201,-0.19905889,0.011605255,0.3279586,0.2799276,-0.07731352,-0.11307965,-0.025175586,-0.17334735,0.2070968,0.44357574,0.10399484,-0.35426733,0.38173935,0.1465323,0.07170589,-0.044904325,0.108645365,-0.07530023,-0.04692956,0.0067980024,0.19226211,0.28873265,0.029235706,0.21890688,0.3557875,0.13334852,-0.08176082,0.085752346,0.3342457,0.23592058,-0.045987852,-0.17921007,0.14301232,-0.2772023,0.019933656,0.11309453,0.5167944,0.04368671,-0.14586456,-0.08062867,0.124042556,-0.426183,0.18703264,-0.2281239,0.28985152,0.11092801,0.20329562,0.094522715,0.22142984,-0.23820546,0.22443545,0.3482984,0.5402831,-0.091190666,0.059366222,0.51597613,0.08736823,0.39204186,0.17555076,0.27969414,-0.26724157,0.5090321,-0.10387994,-0.21273886,-0.13146509,-0.39622056,-0.35875216,-0.11962035,0.011847049,0.12203336,-0.24881257,-0.39599264,0.25641614,-0.45983228,-0.39604294,0.1529106,-0.26928726,-0.0033229813,-0.1981864,0.3909592,0.24250618,0.035564635,0.10569782,-0.14179641,0.14992294,-0.36282432,-0.17211863,-0.36739576,-0.22948727,0.20264548,0.02795931,-0.6621041,-0.43495587,-0.54871583,-0.024377253,-0.03113351,0.3573842,-0.013866894,-0.26956642,-0.42967117,-0.10798042,0.12242093,0.1897885,-0.09876719,0.09863717,-0.26840034,0.19594008,-0.30011868,-0.17735331,0.01988794,-0.27541712,-0.26817477,0.13007563,0.099489175,-0.20516539,-0.046491288,0.03698303,-0.08029402,0.25104478,-0.25517434,-0.076336026,0.095428705,-0.5267256,-0.14127752,-0.046617337,-0.1802632,-0.04480201,0.03239341,0.33158737,-0.052016683,0.14738816,-0.054486983,-0.15036818,-0.01540634,-0.40864822,-0.1832765,-0.18488084,-0.5337557,0.25498414,-0.012571882,0.30233753,-0.1293053,0.21778995,-0.5132288,-0.2994486,-0.15492333,-0.098420046,-0.37353426,0.22391894,-0.34009558,-0.06275789,-0.544665,-0.020948395,-0.16307488,-0.014630213,0.08377587,-0.48667488,0.36127684,0.3632712,0.046162196,-0.043781422,0.027891483,-0.041229013,-0.0062524527,-0.2623437,-0.046785064,-0.3144769,-0.016396336,-0.2620666,-0.04093758,0.10318762,-0.1079978,0.2575913,-0.10441024,0.055920973,-0.18771625,0.13311249,0.4010383,-0.2082029,-0.46462664,-0.4711413,0.23225608,0.03589443,0.05730959,0.41959372,-0.11745578,0.24149087,0.5232227,-0.09403818,0.030462496,-0.24426746,-0.33743933,-0.027378514,0.15886593,0.3076657,0.14805156,0.34711578,-0.05625742,-0.44066107,0.35187373,-0.12069309,-0.060442246,0.1957969,0.20578745,-0.3261426,0.027505629,-0.2801225,0.044450074,0.27939898,0.030128062,-0.015830755,0.5151784,-0.027828969,-0.27254936,0.2733612,0.2438555,-0.37980965,-0.5976329,0.10966088,-0.5079042,0.26076666,0.3971456,-0.26223803,0.11334956,0.11514898,0.010625364,-0.021076959,-0.36256686,-0.08230809,0.16729593,-0.1489029,-0.04937315,-0.068749234,-0.29007074,0.26338002,0.047927447,0.0010452941,-0.12272967,0.015493959,0.021365408,-0.11735524,-0.075962685,-0.017789587,0.33528432,-0.037006643,-0.15647087,-0.027967693,0.10045773,0.26898187,0.16408017,0.12496708,0.25517344,0.24061543,-0.02025365,0.31837413,0.46844396,0.0016947016,0.123081006,-0.009440698,0.077061504,0.068914376,0.26853067,-0.0688592,0.09165368,0.41417336,-0.23224004,0.2420297,-0.22486374,0.33044833,-0.46379447,0.35711834,-0.3503459,-0.26928484,0.25342625,0.118655555,-0.08029789,-0.2942253,0.082204886,0.05356105,0.20477237,0.11569338,0.23231448,-0.3194658
