DiseaseID,feature_1,feature_2,feature_3,feature_4,feature_5,feature_6,feature_7,feature_8,feature_9,feature_10,feature_11,feature_12,feature_13,feature_14,feature_15,feature_16,feature_17,feature_18,feature_19,feature_20,feature_21,feature_22,feature_23,feature_24,feature_25,feature_26,feature_27,feature_28,feature_29,feature_30,feature_31,feature_32,feature_33,feature_34,feature_35,feature_36,feature_37,feature_38,feature_39,feature_40,feature_41,feature_42,feature_43,feature_44,feature_45,feature_46,feature_47,feature_48,feature_49,feature_50,feature_51,feature_52,feature_53,feature_54,feature_55,feature_56,feature_57,feature_58,feature_59,feature_60,feature_61,feature_62,feature_63,feature_64,feature_65,feature_66,feature_67,feature_68,feature_69,feature_70,feature_71,feature_72,feature_73,feature_74,feature_75,feature_76,feature_77,feature_78,feature_79,feature_80,feature_81,feature_82,feature_83,feature_84,feature_85,feature_86,feature_87,feature_88,feature_89,feature_90,feature_91,feature_92,feature_93,feature_94,feature_95,feature_96,feature_97,feature_98,feature_99,feature_100,feature_101,feature_102,feature_103,feature_104,feature_105,feature_106,feature_107,feature_108,feature_109,feature_110,feature_111,feature_112,feature_113,feature_114,feature_115,feature_116,feature_117,feature_118,feature_119,feature_120,feature_121,feature_122,feature_123,feature_124,feature_125,feature_126,feature_127,feature_128,feature_129,feature_130,feature_131,feature_132,feature_133,feature_134,feature_135,feature_136,feature_137,feature_138,feature_139,feature_140,feature_141,feature_142,feature_143,feature_144,feature_145,feature_146,feature_147,feature_148,feature_149,feature_150,feature_151,feature_152,feature_153,feature_154,feature_155,feature_156,feature_157,feature_158,feature_159,feature_160,feature_161,feature_162,feature_163,feature_164,feature_165,feature_166,feature_167,feature_168,feature_169,feature_170,feature_171,feature_172,feature_173,feature_174,feature_175,feature_176,feature_177,feature_178,feature_179,feature_180,feature_181,feature_182,feature_183,feature_184,feature_185,feature_186,feature_187,feature_188,feature_189,feature_190,feature_191,feature_192,feature_193,feature_194,feature_195,feature_196,feature_197,feature_198,feature_199,feature_200,feature_201,feature_202,feature_203,feature_204,feature_205,feature_206,feature_207,feature_208,feature_209,feature_210,feature_211,feature_212,feature_213,feature_214,feature_215,feature_216,feature_217,feature_218,feature_219,feature_220,feature_221,feature_222,feature_223,feature_224,feature_225,feature_226,feature_227,feature_228,feature_229,feature_230,feature_231,feature_232,feature_233,feature_234,feature_235,feature_236,feature_237,feature_238,feature_239,feature_240,feature_241,feature_242,feature_243,feature_244,feature_245,feature_246,feature_247,feature_248,feature_249,feature_250,feature_251,feature_252,feature_253,feature_254,feature_255,feature_256,feature_257,feature_258,feature_259,feature_260,feature_261,feature_262,feature_263,feature_264,feature_265,feature_266,feature_267,feature_268,feature_269,feature_270,feature_271,feature_272,feature_273,feature_274,feature_275,feature_276,feature_277,feature_278,feature_279,feature_280,feature_281,feature_282,feature_283,feature_284,feature_285,feature_286,feature_287,feature_288,feature_289,feature_290,feature_291,feature_292,feature_293,feature_294,feature_295,feature_296,feature_297,feature_298,feature_299,feature_300,feature_301,feature_302,feature_303,feature_304,feature_305,feature_306,feature_307,feature_308,feature_309,feature_310,feature_311,feature_312,feature_313,feature_314,feature_315,feature_316,feature_317,feature_318,feature_319,feature_320,feature_321,feature_322,feature_323,feature_324,feature_325,feature_326,feature_327,feature_328,feature_329,feature_330,feature_331,feature_332,feature_333,feature_334,feature_335,feature_336,feature_337,feature_338,feature_339,feature_340,feature_341,feature_342,feature_343,feature_344,feature_345,feature_346,feature_347,feature_348,feature_349,feature_350,feature_351,feature_352,feature_353,feature_354,feature_355,feature_356,feature_357,feature_358,feature_359,feature_360,feature_361,feature_362,feature_363,feature_364,feature_365,feature_366,feature_367,feature_368,feature_369,feature_370,feature_371,feature_372,feature_373,feature_374,feature_375,feature_376,feature_377,feature_378,feature_379,feature_380,feature_381,feature_382,feature_383,feature_384,feature_385,feature_386,feature_387,feature_388,feature_389,feature_390,feature_391,feature_392,feature_393,feature_394,feature_395,feature_396,feature_397,feature_398,feature_399,feature_400,feature_401,feature_402,feature_403,feature_404,feature_405,feature_406,feature_407,feature_408,feature_409,feature_410,feature_411,feature_412,feature_413,feature_414,feature_415,feature_416,feature_417,feature_418,feature_419,feature_420,feature_421,feature_422,feature_423,feature_424,feature_425,feature_426,feature_427,feature_428,feature_429,feature_430,feature_431,feature_432,feature_433,feature_434,feature_435,feature_436,feature_437,feature_438,feature_439,feature_440,feature_441,feature_442,feature_443,feature_444,feature_445,feature_446,feature_447,feature_448,feature_449,feature_450,feature_451,feature_452,feature_453,feature_454,feature_455,feature_456,feature_457,feature_458,feature_459,feature_460,feature_461,feature_462,feature_463,feature_464,feature_465,feature_466,feature_467,feature_468,feature_469,feature_470,feature_471,feature_472,feature_473,feature_474,feature_475,feature_476,feature_477,feature_478,feature_479,feature_480,feature_481,feature_482,feature_483,feature_484,feature_485,feature_486,feature_487,feature_488,feature_489,feature_490,feature_491,feature_492,feature_493,feature_494,feature_495,feature_496,feature_497,feature_498,feature_499,feature_500,feature_501,feature_502,feature_503,feature_504,feature_505,feature_506,feature_507,feature_508,feature_509,feature_510,feature_511,feature_512
C1,-0.12118226,0.29997155,0.094816804,-0.17194887,0.23247096,-0.11895302,0.3346069,0.08132734,-0.2567898,0.20013294,-0.14745599,0.4675597,-0.243161,-0.005130753,-0.1433492,-0.450845,-0.29964033,-0.0780761,0.0006886367,-0.21959756,-0.32545635,0.15041754,-0.5321019,0.0152202435,-0.057885487,0.061473824,0.20231253,0.17447507,-0.53189594,-0.09785453,-0.037594154,0.10536162,-0.36555448,0.0759307,-0.48408192,-0.3362667,0.12719011,0.1431568,-0.07237652,0.32613042,-0.11914214,0.050990913,0.27689034,-0.022199497,-0.23612985,-0.032706626,-0.05822585,-0.25455752,-0.28918225,0.26224372,0.08037842,-0.16483563,0.42757398,-0.13660213,0.5371218,-0.17632964,0.1415039,-0.24761486,0.26800802,-0.56787753,-0.3495604,-0.21623573,0.14671156,-0.26693594,0.16431664,-0.19386938,0.002763696,0.099481955,-0.2803439,0.29380324,0.2953934,0.057995837,0.22835624,-0.10971236,-0.049208038,0.4108626,0.043806415,0.0656976,-0.115978934,-0.10747707,0.15626909,0.16747725,-0.049620505,0.3372164,-0.23738924,0.52827764,0.3317012,0.0033193901,0.3556027,-0.342142,0.31614995,0.48150048,-0.40251282,0.3603112,0.010413595,-0.32867375,0.15746324,-0.051561587,-0.049409524,-0.11833397,0.06079557,0.1427955,0.40727523,0.03690903,-0.20707253,0.37438706,0.18895823,-0.1800214,-0.008175902,-0.15946466,-0.105263986,-0.40850237,-6.185472e-05,0.032709584,0.057876796,-0.22569919,-0.2220293,-0.14166293,-0.13160068,0.16122064,0.14247563,-0.051335942,0.39889184,0.2305409,0.037510283,-0.37513852,0.4838914,0.017948933,0.08179045,0.20612732,-0.18240315,-0.31253242,-0.23437747,0.087732196,-0.15476139,-0.085574396,0.2600911,-0.23645273,0.3113859,-0.01587322,-0.023510918,-0.046789654,-0.3262356,0.027050734,-0.06921977,-0.23615667,0.090701066,-0.005574584,0.079235636,0.26235518,0.05034344,-0.32563776,0.2615364,0.23149362,-0.07149892,-0.06400055,-0.12280605,0.48760068,-0.11199802,0.19441007,-0.036538333,0.27815706,-0.23180297,-0.11865658,0.14497058,0.12980771,0.28812206,0.22114849,0.37467974,0.08987632,-0.046096034,-0.069057286,-0.036212564,0.018820383,-0.29450098,-0.11843983,0.09613461,-0.15104708,0.20096487,-0.10681183,0.25672874,-0.21587566,0.046399094,0.42050394,-0.007997584,0.0019584373,-0.22002065,0.075188905,0.17528418,-0.46727413,0.06121915,-0.16105443,0.09946503,-0.07419563,-0.18766114,-0.33469862,-0.06933749,-0.0023901537,0.18339372,-0.07761655,-0.013718426,0.25173852,0.13130748,0.10834308,0.05699277,0.33159488,-0.41294718,-0.19720986,-0.086621456,-0.38314107,0.17021513,-0.040414028,-0.36500174,0.3183847,0.11694347,0.32940048,0.012799375,-0.40888336,0.11495778,0.09197003,0.16468838,-0.40103257,0.14889178,-0.009889148,-0.051630184,0.27734247,0.010679785,-0.00030210614,0.31168926,-0.08033011,-0.49288934,-0.27030087,0.32421213,-0.0148669705,0.111690365,0.06335771,0.28652415,-0.059510954,0.27766752,0.65308493,0.0002966188,0.5007851,0.078018025,-0.1231413,0.7083379,0.28758386,0.049894795,0.13365516,0.033109218,0.06267187,0.15463758,0.07810128,-0.2513854,0.100561626,0.0894275,-0.059942447,0.099002495,0.7313144,-0.05782774,0.18413872,0.07013962,0.25546795,0.15218954,-0.17395046,0.00073072687,0.19494328,0.12764817,0.16374707,0.17900454,-0.30313677,-0.23556685,0.12991536,-0.018157043,0.5867292,0.060944196,0.12723374,0.055288382,-0.09651573,-0.27080345,0.79369736,0.07558949,0.103418544,0.31207457,-0.03459687,-0.40845048,0.1857819,0.15710884,-0.086084336,-0.16569969,-0.13498244,0.2655049,0.39026165,0.034910925,0.19672832,0.17929436,-0.16316818,-0.18534015,-0.16145748,-0.06647051,-0.26923835,0.2369782,0.07318622,0.3228767,0.31017825,0.08615975,0.042048596,-0.11674887,0.21241528,-0.17866975,0.5890366,-0.13694091,-0.034169193,-0.06596217,0.17985316,-0.20958205,0.15344892,-0.19837445,-0.083198324,-0.16249427,0.1616976,0.15772164,-0.24990861,-0.06605574,-0.24690235,-0.26235935,-0.04456693,0.10317604,0.44950324,0.27290627,0.265186,0.019757308,0.0105936825,0.071785286,-0.32836306,0.050645847,0.0004253462,-0.17584938,0.35644904,0.20773199,-0.080341846,-0.5279931,0.19284123,-0.16159624,0.21444575,0.13398907,-0.2651164,-0.018676363,-0.1978853,0.14786352,0.054202653,0.017742325,-0.0508792,0.18952635,0.20925793,-0.48660994,0.32242993,0.38863257,-0.00891611,0.27931154,-0.11577621,0.49514332,0.7254009,-0.032195874,-0.32664257,0.08512284,-0.03211569,-0.122515425,-0.06287981,-0.023309141,0.2198229,0.21564807,-0.021420278,0.0030247457,0.008460578,0.35991845,0.100554794,0.45852968,0.26729617,-0.07924708,0.0002497211,0.32243952,0.046023555,0.08992591,-0.2314533,0.0780488,-0.073701106,-0.14287984,-0.08468971,-0.023799244,-0.24113555,-0.12682566,-0.103328094,0.42952612,-0.24743892,-0.32347885,-0.03653951,-0.058325827,0.19644178,-0.20437235,-0.3321182,0.41191697,0.0030174144,-0.10468729,0.37017965,0.07050107,-0.3537525,0.013884768,-0.20255342,0.0016391575,0.39651275,0.35848445,0.20650312,-0.29820055,0.1366207,-0.3281779,0.2164562,-0.34938323,-0.08874082,-0.103198305,-0.3704614,-0.29924121,0.14045888,0.17042816,-0.03720274,-0.19150428,0.24555948,-0.38863924,-0.108041205,0.04337764,0.32632652,-0.052085496,0.39516953,0.087749675,0.005554341,-0.02855327,-0.32316938,0.22185397,0.10891373,-0.08177527,0.043215007,-0.53332317,0.14716952,-0.01630655,-0.21721533,0.2745085,0.098631665,-0.27745205,-0.47923702,0.10866305,-0.46158972,0.04784862,-0.1361011,-0.37091696,-0.20690379,-0.20375487,-0.035077333,-0.12120605,-0.089534335,-0.19880733,0.15839624,0.014777869,0.15514985,0.2254266,-0.0073930398,0.23056078,-0.29650724,0.37985718,0.1625447,0.032429166,0.70377225,-0.18970662,0.36689585,0.26989958,0.043285012,-0.00027683377,-0.24965036,-0.07622316,-0.1599223,0.1428178,-0.15510559,0.19970992,0.11098894,-0.111270405,-0.30401444,-0.07454503,0.056250833,-0.06879352,-0.08782531,-0.384488,0.14846066,-0.25062907,0.237277,-0.37037867,-0.20301971,-0.00052873045,0.023662496,0.045692295,0.13944817,-0.038963553,0.36590675,-0.07768314,-0.11402514,0.2365154,0.3310851,-0.018893726,0.09150262,-0.77652675,0.32809553,0.35012904,0.25729498,-0.14292076,0.3412766
C2,-0.29549557,-0.228915,0.04378538,0.17605156,-0.1977191,-0.22619821,0.25235996,0.14407516,0.009645365,0.045081683,0.20918784,-0.18632525,0.009474207,0.5647985,-0.23669028,0.08766959,0.11492234,0.24930471,0.056234334,-0.010753613,-0.118502,0.031745896,0.41249987,0.046759132,0.09550546,-0.1725123,-0.19608167,0.08164898,-0.5100103,-0.16941324,-0.21735533,0.17796901,-0.31033036,-0.45274174,0.4862243,-0.065826505,-0.25221297,-0.11677442,-0.057999153,-0.1131266,0.16586396,-0.045885097,-0.09229038,0.183792,-0.0065163374,0.15806004,0.15731303,-0.010407753,0.41098475,-0.08487762,-0.37586105,-0.23122159,0.21106854,0.25550005,0.059561793,-0.18441531,0.19273454,0.16819924,0.2372781,0.27111447,-0.030825377,-0.034063563,0.15702665,0.37664956,-0.16480617,-0.11295394,-0.013340753,-0.096240275,0.043697707,0.101526625,-0.09455122,0.64762056,-0.322671,0.030454624,-0.27307093,-0.06470234,-0.70016617,0.11827276,-0.31865618,0.08844574,0.16718496,0.02485653,0.20632532,0.10386688,-0.28794035,-0.2835591,0.14574434,0.49872506,0.11413764,0.12751475,0.043430276,-0.398526,0.039163828,0.27322724,-0.3509503,-0.09389148,-0.25548866,-0.09985065,-0.10637113,0.5415745,0.29206973,-0.035789177,0.15515527,0.15581578,-0.13413197,0.07148314,-0.012501724,0.1918455,-0.2473809,0.07584038,-0.084035695,-0.0113742575,0.21784711,0.048656043,0.09793885,-0.15670091,-0.030629873,0.35483822,-0.012325563,-0.15152077,0.12751397,-0.009896316,-0.19760987,0.20030528,-0.1232848,-0.31491816,0.21837376,0.36417747,-0.13584642,-0.30951366,0.05787018,-0.2314355,0.0399274,0.30521646,-0.16605902,0.12092166,-0.4858875,-0.08203027,0.009490164,-0.28613627,0.110619344,0.30868798,0.02478607,0.31666556,0.068167254,-0.3505272,0.07356976,-0.045168854,-0.23123619,-0.567273,0.045640357,-0.07408221,-0.043867573,-0.13623154,0.029654652,-0.08366582,-0.010065623,0.023799025,-0.029257145,0.047294397,0.025669672,0.12704569,-0.13480201,-0.21363074,0.4465551,0.06853271,0.42633772,-0.4421626,-0.19931538,-0.13499802,0.25853062,-0.41374633,0.23523957,0.36163425,0.14543451,0.1365985,0.037133552,0.2837195,-0.04628829,0.07119502,-0.27544892,0.4635189,0.109526284,0.06772065,0.18788761,0.12185106,0.01209604,0.14125785,0.11880483,-0.24669696,-0.3015026,0.13432199,-0.14362048,-0.20185587,-0.053651653,0.10033213,0.42958117,-0.19222826,-0.059982628,-0.089443095,0.29425344,-0.39209023,-0.08439741,-0.17883703,-0.009663418,-0.1777999,0.30046993,0.18936217,0.31790903,-0.08496256,-0.07227084,-0.06947848,0.29245868,0.28977215,-0.053411886,-0.05597668,0.35306215,-0.15991923,0.062061932,0.4496427,0.0046414807,0.10178701,0.3603889,-0.04164163,-0.042930968,0.048388384,-0.10218533,0.0062153116,-0.3620643,0.13069385,-0.14296518,0.010392539,0.17268248,0.020424113,-0.36802992,0.44475734,0.14484462,0.53857195,0.24328911,-0.04044626,-0.058065213,-0.42316747,-0.15335657,0.069378205,0.1786811,0.17504531,0.12671146,-0.0022484064,0.23468667,-0.19597574,-0.15693168,0.18689784,0.3093931,0.021267302,0.10695344,0.23725206,0.103203006,-0.029845014,0.087415665,-0.11699425,0.1842827,0.1450408,-0.12787926,0.15212779,-0.085661724,0.038047396,-0.0022250935,0.19236529,0.120397456,-0.14552355,0.81726027,0.25820586,0.7061575,-0.2263535,0.0331367,-0.06817636,-0.28088105,-0.48252618,0.42753223,-0.35151705,0.13473207,-0.2208898,0.13500077,-0.16055366,-0.23164883,-0.34558445,-0.1637173,0.4710306,0.010952182,0.13102338,-0.284409,-0.699949,0.07604833,0.17611662,0.35418573,0.52197033,0.01925854,0.10513969,0.02638714,0.46772215,0.069914795,-0.3946962,0.5320223,0.2906202,0.091744065,-0.054486424,-0.51014006,-0.100460745,-0.38635176,-0.30721027,0.34143162,0.026512414,-0.44620356,0.31379753,-0.46338028,0.19938906,-0.14047796,0.25318927,0.105335504,-0.087053984,-0.107024364,-0.3060239,-0.43813884,0.22874361,0.18792985,-0.0571923,-0.5169783,0.39800084,0.022644304,0.0011643507,0.2090404,0.4890181,0.35585934,0.10978859,0.020522851,-0.1574445,-0.21234858,-0.15497075,-0.35782695,0.116155356,0.101448625,-0.29740804,-0.16540459,-0.17155866,0.27934858,0.04635113,0.15814841,-0.04518846,-0.41252366,0.04850785,-0.091036774,0.07990123,0.1382519,0.05993741,0.063997135,0.17052189,-0.4602605,-0.14870423,-0.039646894,-0.011042185,-0.006631121,0.015719384,-0.18420961,0.29045397,0.017190441,-0.15553677,0.123312406,0.028090283,0.3274799,0.13652512,0.12384187,0.15086704,0.020095736,-0.40122023,-0.10637838,0.24888936,0.24351478,-0.4718238,-0.15087062,0.0010358319,0.13259113,-0.34850618,0.24250513,0.10870308,0.48809648,0.28854308,-0.17419353,-0.20057529,0.114761055,0.32282835,-0.021373637,-0.32703713,0.0020761266,-0.3776151,0.40752286,-0.0076866075,0.13121343,0.07264267,-0.5051913,0.23870145,-0.34973112,0.15432322,-0.35522968,0.28057846,-0.0028679445,-0.15130854,-0.28007144,0.19137567,0.21161416,-0.22731951,0.22722062,-0.0012774579,-0.29849914,-0.27540463,-0.17497805,0.12632462,0.021575987,-0.058140077,0.0789012,-0.008207837,-0.32816303,-0.110080324,-0.32706022,-0.2961967,0.0103636645,0.09938631,-0.08467434,0.5488011,0.21916103,0.27426133,-0.16909441,0.034352716,0.15785402,0.23505333,-0.30667293,-0.14895365,0.26072153,-0.33768594,-0.20404416,-0.03317008,-0.34717694,-0.34677672,-0.36904296,-0.10836522,0.090598315,0.08428869,0.060063966,-0.29861107,0.24881235,0.18513048,-0.15986109,-0.2565441,0.1449216,-0.15205705,-0.30948982,-0.47305286,0.24239904,-0.116530515,-0.2202256,-0.16477841,0.045756713,-0.21122468,-0.48256087,-0.26014912,0.21344921,0.0605945,0.109262414,0.31564498,0.06810806,-0.14899689,-0.21301961,-0.16134727,-0.21141165,-0.15982673,0.18537325,-0.23825327,0.46426195,-0.28300095,0.37209445,0.17163233,0.07213947,0.098376095,0.26741788,-0.011412548,0.70943236,-0.289091,0.078709364,-0.28954262,-0.06568129,0.12686905,0.2952688,0.04201077,-0.48839128,-0.022293992,0.08395993,-0.15235093,0.3034478,0.21723437,0.047962435,0.09343381,0.24625048,0.074122325,-0.17948526,0.13188657,0.06907969,0.40932292,-0.18301475,0.041936614,-0.29879224,0.25588834,0.3524458,-0.115086325
C3,-0.13258097,-0.029934596,0.029339306,-0.11000879,-0.03560353,-0.501671,0.2975069,0.16315883,-0.07585738,-0.48366502,0.0975652,0.12792704,0.05069352,-0.16075459,0.38000798,-0.29316187,0.17751956,0.4893648,0.30895212,-0.14226088,0.024130352,0.4216482,0.10350145,-0.5567726,0.16273412,0.018058911,-0.17623785,-0.016035251,0.45783088,0.24893776,0.29643136,0.2694312,-0.07195786,-0.3070017,0.41513115,-0.6855872,0.1968762,0.17124274,0.29367954,0.252839,0.1621302,0.21301015,-0.22676364,-0.245141,0.19985566,-0.109632395,-0.0036970638,0.02079112,-0.0059424527,0.20824847,0.10213391,0.12344489,0.48194474,0.009573739,-0.5262329,0.21101773,-0.15801388,0.097065195,0.005440887,0.32931137,0.015115246,0.043186016,-0.0040709004,0.10743691,0.13220876,0.033845685,0.21145126,-0.04575526,-0.60976857,0.06368712,0.044402394,0.106697835,0.25579855,-0.25405496,0.12438666,0.3145111,0.069748454,0.2684058,0.45354983,0.16335888,0.34171134,0.36858356,0.032404635,-0.25276265,0.42071012,0.11687247,0.14939643,0.079206355,-0.010523431,-0.48931727,0.31135407,-0.20898941,-0.11490011,-0.004853122,-0.15744048,0.7050265,-0.010758862,0.029366333,-0.49074042,0.2040487,-0.19035646,0.43666816,0.21097934,-0.26606348,-0.00693791,0.19556874,-0.05926571,0.08543376,0.07136327,0.23368618,-0.1220522,0.30143672,0.14161207,-0.016502198,-0.37678236,-0.21785617,0.18923607,-0.13671732,0.0004682839,0.007358372,0.19389075,0.04270874,-0.21684346,0.12287868,-0.05595967,0.18446651,-0.24608725,0.09875979,0.0076243356,0.2820198,0.14300486,0.19306089,0.009434219,-0.22640267,-0.10616736,-0.12385828,0.080867805,0.14011118,-0.062218376,0.012778059,0.024456147,0.128467,-0.07779869,0.3639646,-0.25923067,-0.2914403,0.30151093,0.38592577,0.094305284,0.060953535,-0.011155054,0.29831755,0.2842786,0.28540662,-0.3340877,0.025956323,0.4051792,0.0116138905,0.5096081,0.2959794,-0.7138849,0.077943966,0.08960594,-0.29164344,0.23215589,0.3244536,0.12648675,-0.6844649,0.079552606,-0.23991412,-0.15905067,-0.17193468,0.38630784,0.16226873,0.071814656,-0.0018955693,0.118855156,0.34993356,-0.23067111,0.1280208,0.08015526,-0.19618407,-0.71060014,-0.49093524,0.03996053,-0.14414081,-0.0039057508,0.23551771,0.042850155,-0.046982333,-0.112687446,-0.29098126,-0.2511634,0.07519141,-0.05238866,0.25543922,0.24509627,0.13923356,0.09392856,0.0032439716,0.040967822,-0.465548,0.41622323,0.19639254,-0.011376075,-0.04021738,0.23892342,-0.24551523,-0.27939004,-0.23237726,0.17195092,-0.237104,0.07290537,-0.3284086,0.080339454,0.0657464,-0.22116616,-0.31940728,0.2700263,0.5193411,-0.13416806,0.21200454,0.091381654,-0.034767017,-0.38985515,0.18312985,-0.39302644,0.1750226,0.3558389,0.06752906,-0.3676752,0.34030616,-0.2485924,-0.11007805,-0.56735194,0.13550082,0.3341926,0.068141535,0.17687488,-0.12271262,-0.19165629,0.1071962,0.057046026,0.03424373,-0.33842447,-0.23233399,0.42764685,0.40426576,-0.011340197,-0.34556645,-0.047496665,0.27597168,0.058959585,0.050429896,-0.058044948,0.48981482,-0.13088015,0.07828651,-0.10627367,0.6372421,-0.37055135,0.22253256,0.09129219,-0.4034648,-0.33877754,-0.010571368,-0.08260396,-0.24608707,0.1594386,-0.5454585,0.29240656,0.032902643,0.14775491,-0.42440432,-0.33887222,0.4627994,0.103049256,-0.11132471,0.3078904,0.20797142,0.12444022,0.3304174,0.35954094,-0.3414925,-0.27471927,0.15250877,0.17650986,0.3383689,0.13861743,-0.22170407,0.21189794,0.039119832,-0.26507944,0.4788943,-0.0912913,0.086037375,-0.20435709,0.22737743,0.36773098,-0.14575082,0.01805995,-0.12301992,-0.16972068,-0.013383172,-0.18336815,-0.7614034,-0.3030178,-0.49490735,0.032650344,0.07877649,0.17287473,0.138345,-0.39274982,0.09869088,-0.38273287,0.11182077,0.57944345,0.26784503,-0.04907553,-0.26723725,0.09862139,-0.49317122,0.05747193,0.042935528,-0.02426608,-0.4468046,-0.037211433,0.049536437,-0.14843664,-0.20060974,-0.5100026,0.06436071,0.47916657,-0.304236,-0.09925611,0.5014351,-0.16491678,0.18160093,-0.18666583,-0.35349563,-0.15655802,-0.41962132,-0.0091667585,0.14860319,-0.051908635,-0.31882566,-0.1499131,-0.09194144,0.15494357,0.02316708,0.3376633,0.471476,0.22332808,-0.48245004,0.012666114,0.02720613,-0.33450985,-0.03167058,-0.011345327,-0.34294146,-0.12077575,0.3312553,-0.3519916,0.16579206,-0.09810335,0.05484008,0.004869871,-0.006940715,-0.016672798,-0.011361908,0.080657944,0.55252475,0.16798173,-0.30165508,0.16725725,0.049128123,-0.032272868,0.2725922,-0.0065434985,0.014969654,-0.03901588,0.05881284,-0.19225365,0.47808492,0.37354738,0.14734122,0.08934001,-0.004891495,-0.1121676,-0.278562,0.08556147,-0.31325382,0.27239442,0.33830118,-0.28450367,0.21817431,-0.02215086,0.17925741,-0.85461843,-0.38217807,-0.5520165,-0.20259894,-0.66739076,-0.07683889,0.22487584,0.47025704,0.2582484,0.25541967,-0.058966547,-0.108202025,-0.19039285,0.13760187,-0.2025176,-0.20544904,0.38036883,0.52087605,0.27976555,-0.15928948,0.21209681,-0.5101924,0.172865,-0.08295646,-0.10533535,-0.43775856,-0.012511518,-0.1520164,-0.21078952,0.16168824,-0.38105702,0.6964598,0.10606777,0.37922972,-0.17589158,0.25912213,-0.2424779,-0.12898725,0.019875202,-0.26098692,-0.08505156,-0.045010634,-0.16002391,-0.09023097,0.05730384,-0.540353,0.11778222,-0.0041317716,-0.073421754,0.078821644,0.11356908,0.15633363,-0.26620275,-0.15299302,-0.09434174,0.062907144,0.3723781,-0.16294843,0.351319,-0.06227465,-0.037859634,-0.4160971,0.47180682,0.036097214,0.099463224,0.4191336,0.53447545,0.076158345,0.33929104,0.20850039,-0.4680112,-0.05835987,0.20707151,0.30851772,-0.33175105,0.05726272,0.58679533,-0.37888914,0.3635949,0.09962562,0.06646563,-0.30255896,0.3298974,-0.17560199,0.30455264,-0.1693331,0.19257304,-0.011165433,-0.32274252,0.042404793,-0.4395991,0.39796627,0.017414045,0.03788062,-0.037455536,0.3018479,-0.111055575,0.036409717,-0.44062352,-0.506223,0.02968853,0.29734504,0.3723236,0.001346454,-0.03932838,-0.2253198,0.5484352,0.0033679307,-0.083472736,-0.26387164,0.04315778,0.1858069,0.12668791,-0.05003515
C4,-0.1803383,0.22028105,-0.09970703,0.0010001771,-0.6523255,0.12925069,0.31340936,0.029269706,0.12320129,0.19029297,0.31010833,0.027195316,0.20428678,-0.32822788,-0.11729105,-0.29965058,0.08475473,-0.41155413,-0.2926051,-0.35238582,-0.028202686,-0.35652685,0.14356142,-0.06998425,0.27372843,0.21245855,0.32925382,0.24580148,-0.09780987,0.1421937,0.053835712,-0.10002848,-0.33902454,-0.4464008,0.39956188,0.22402537,-0.1710243,-0.6796315,-0.2788898,0.24293035,-0.20609325,-0.4182867,-0.31136382,-0.12727991,0.2919974,0.48297355,-0.025790289,-0.155227,-0.595985,0.22225818,0.0675468,0.14080825,0.21383807,-0.15255249,0.3400527,0.027132124,-0.048918538,0.09331995,-0.105643086,0.18366408,0.08001679,0.1887899,-0.15992466,0.10994904,0.19501556,-0.22036648,0.3143341,0.19291914,-0.17102152,-0.1351318,0.19545567,0.22075379,-0.09195263,0.09807162,-0.40993074,-0.20568165,-0.09787577,0.19575703,0.010866433,0.7285309,0.06372829,-0.10938942,-0.14951389,-0.02513855,-0.059278034,0.30672136,0.34145728,0.18892547,-0.38737714,0.08722924,-0.33395642,0.050013587,0.22534809,-0.102319054,-0.26839995,-0.11368889,0.49319822,0.066214316,-0.013989896,0.21028405,-0.42268315,0.009625517,0.06845185,0.056987997,-0.22985697,0.43592823,0.03752596,0.18070078,0.18730962,-0.117267,-0.17121884,0.3213156,0.18733026,-0.3209673,0.26261163,-0.12674958,0.12548369,-0.21423462,0.27751347,-0.034250237,-0.36247835,-0.42635402,-0.25384343,0.33559334,-0.21420631,-0.09142829,0.2305098,-0.3068132,0.14527288,-0.37333727,0.07288903,0.12281042,0.26347783,0.08216242,-0.36973715,0.35346833,0.17400661,0.43887955,-0.038456574,-0.19111648,0.23826292,-0.07712204,-0.28446707,-0.017439403,0.0064475723,-0.057689935,0.14026389,-0.009350058,0.04883658,0.21665335,0.027971737,-0.32486707,-0.03612431,0.31516376,-0.0336378,0.31788343,-0.3777541,0.125292,0.4407797,-0.038046576,-0.5677528,-0.032109514,0.111458324,0.48906994,-0.33687523,0.04676374,0.018039815,0.20522225,-0.29011002,0.20856118,-0.2667203,-0.4127572,0.2509954,0.089068785,-0.34365228,0.14321437,-0.21712604,-0.07534429,0.004321754,-0.045873813,-0.18361706,-0.32292187,0.2256321,-0.28284588,0.28586036,-0.4529035,0.39343357,0.09187589,0.14762145,-0.2992717,-0.5842315,0.11158141,0.1824893,-0.113463074,-0.13094798,-0.05371383,-0.28631335,0.25901076,0.10769437,0.5576395,0.20138912,-0.18721566,-0.11051967,0.6131321,-0.06418652,-0.3215939,0.58754313,-0.20614582,0.3714375,-0.69678074,0.22083321,-0.14829093,0.038595535,0.49058437,-0.20094591,0.5763421,0.67626625,-0.31839204,-0.281619,0.35231736,-0.059709102,0.007589776,0.22275844,0.29441774,0.2394307,-0.1762749,0.5128,0.03088782,-0.017682746,-0.115503244,-0.14196756,0.14352022,-0.036692433,-0.2605093,0.4636196,0.26185495,-0.011129089,0.72252625,-0.18371323,0.24320695,0.18981409,0.19790682,-0.28815097,0.29014838,0.010377578,0.5437785,-0.27443215,-0.21850649,0.39722195,0.26341325,-0.686737,0.17310818,-0.11855623,0.14726837,-0.15713125,0.22341338,0.10860455,0.52088934,0.120817974,-0.04261583,-0.2849812,0.27606234,0.73157996,-0.17638305,0.04035774,-0.20925507,-0.35124314,0.26391843,-0.38187715,-0.49699986,-0.020425018,-0.73225695,0.33155727,-0.08188006,0.0051577166,-0.43190828,0.30700767,0.064787924,-0.36600125,0.52006763,0.20834154,-0.2212458,0.07791392,-0.18902977,-0.099231645,-0.2514693,0.08375412,0.06478281,-0.084134124,-0.4883667,-0.0512139,-0.1618132,0.19587554,-0.11648844,-0.032676533,-0.19109419,-0.39125398,-0.1846973,-0.635437,-0.101679735,-0.3240217,-0.33402666,-0.20385024,0.13138571,0.36848775,0.042448364,-0.15271738,0.43689352,-0.11328374,-0.0006267354,0.5027047,0.15373683,0.19415563,0.022311002,-0.38823718,0.18221135,0.22159514,0.048188414,-0.08396926,0.082868904,-0.57000715,0.5401612,-0.07166523,-0.2719302,-0.11433351,-0.06304304,-0.17705409,0.2909444,0.1345921,-0.15145671,0.29861492,-0.023281943,-0.22987601,0.033786602,-0.19379595,0.22190827,0.16215774,-0.06923194,-0.43033743,-0.08143838,-0.06932534,-0.21414381,0.03590425,0.16035308,0.35196185,-0.4153648,-0.13753462,-0.16656922,-0.30278152,0.19500151,-0.22821577,-0.02592871,0.49454448,0.4608719,-0.17548114,-0.25527054,-0.20373857,-0.10571208,0.021674305,0.50777435,0.108621575,-0.21429715,0.012226492,-0.09950328,0.13343453,0.7054601,0.049376182,-0.23606342,0.2090989,0.1123773,-0.13270496,0.24789104,0.36441895,-0.10451771,0.20120382,0.390172,-0.49193388,0.013826422,-0.14794403,-0.45535344,0.70932287,-0.30895835,-0.19111592,-0.081077814,0.09366806,-0.029075377,-0.37079182,0.12296316,0.17016993,-0.041863326,0.17012033,-0.26795495,0.5582399,0.07981038,0.43333825,-0.17700356,-0.57548386,-0.48017353,-0.25830844,-0.29165655,0.40226588,0.024159,-0.07856198,0.3115886,-0.048266478,-0.15144017,-0.3662215,0.17437279,0.153085,0.044320256,0.29345557,-0.5742675,-0.0312753,0.0028560758,0.010496661,0.11422046,-0.18087462,-0.015877493,-0.08940374,-0.18511577,-0.4280074,-0.18312782,-0.40784612,-0.30267912,-0.39949057,0.048832737,-0.19489203,-0.108654834,0.39269564,-0.30235747,0.32577953,-0.074137695,0.077093534,-0.14025873,-0.0021683797,0.114727356,0.27737245,-0.42769632,-0.12188532,-0.23231626,-0.37855607,-0.20681514,-0.1395416,-0.32780808,0.08248948,0.3193463,0.042104557,0.031180605,0.12120825,0.023500584,-0.004584156,-0.2495711,0.016939007,-0.59797114,0.025940731,-0.57991886,-0.084984936,-0.105061166,-0.17615476,0.4048119,-0.26726156,-0.04313807,-0.10157646,0.33652222,0.57690823,-0.18687372,0.29897475,0.15256153,-0.3162648,-0.09376817,-0.05863577,0.22553337,-0.16969436,-0.36701596,0.23511204,0.16745576,0.0049356967,-0.07026942,0.06423845,-0.41388887,-0.2054781,0.15824497,0.4736963,-0.18719701,-0.35024074,-0.30326208,-0.5181197,0.35541025,-0.2118817,-0.42703703,0.16383883,0.16781846,0.23548074,0.2010613,-0.1305576,-0.13043061,0.19438455,-0.28653947,0.31068665,-0.016165055,0.51755315,0.4371027,0.19165176,0.17620602,0.3334077,0.2742588,-0.17964414,0.26075032,0.5704951,0.08954657,-0.35185295,-0.33332324
C5,0.10587583,0.06570516,0.03406093,0.5733409,-0.3717857,-0.42976815,-0.4694358,-0.2169343,-0.3596316,0.2149857,0.18557692,0.0097522065,0.041033763,-0.11657387,0.003598608,-0.5476967,-0.030156177,0.017389853,0.06805774,-0.17331894,0.034630604,0.12121866,-0.47898024,-0.05627486,0.030329432,-0.11348699,0.12269006,0.027379394,0.10647645,0.105647765,0.32322377,0.049287356,-0.0066113546,-0.049181394,0.13449346,0.15928227,-0.08542057,0.06304796,-0.07826532,0.22431502,-0.19914538,-0.14337973,-0.29195482,0.2612369,5.6654215e-05,0.08624948,-0.37477592,0.12503186,-0.2923355,0.4177737,-0.09080798,0.05354954,0.080248155,0.25997722,0.07597247,-0.4972183,0.05182288,0.040935423,0.12250476,-0.056458056,-0.13107881,-0.14028905,0.14701349,0.19360638,-0.33032483,-0.050363965,-0.42588097,0.005997427,-0.10565219,-0.21078807,0.16562307,0.13532771,0.09726116,0.093106836,0.14580888,0.16132891,0.0849875,0.12538028,-0.12279067,0.12903108,-0.17770943,0.25120574,0.34178776,0.26509356,0.022208303,0.2568347,0.025460906,0.21829113,-0.048111156,-0.18741813,-0.05741854,0.22472334,-0.15330307,-0.2817023,-0.08555946,0.25661203,0.10464807,-0.20891264,-0.21115938,-0.33203134,0.0389726,0.022728682,0.10025018,0.25880924,0.121670164,0.41064677,-0.109051146,-0.11326366,-0.3093088,-0.076203436,-0.009482415,-0.009306394,-0.14834079,-0.3336891,-0.1426773,0.007827313,-0.0075912625,-0.11675774,0.03799826,-0.55994624,0.4186636,-0.33627042,0.17064187,0.045432165,-0.21982406,0.029073995,-0.3480198,-0.31286502,0.2530824,0.28957608,-0.14075646,-0.3673675,0.18734989,-0.008348666,0.10068336,0.12676695,-0.19532675,0.23713967,-0.076279186,-0.22367245,-0.003675107,-0.3091332,-0.031941026,0.10695739,0.04281148,0.099623665,0.03976655,-0.05161477,-0.15030651,-0.2321099,0.03635254,-0.20382343,0.21303636,-0.10308009,-0.2522146,0.04528473,-0.36370358,0.13258576,0.36974525,0.065940574,-0.026119635,-0.22810617,0.20174736,0.07412232,-0.19576932,0.4995553,0.048453394,-0.16097169,-0.09130581,-0.07622433,0.024604302,0.06877266,0.19777793,-0.16574326,-0.013666436,0.13906486,0.1903666,0.45483333,-0.00011006743,0.46148005,-0.3872739,-0.2304644,-0.054385103,0.042499524,0.16846406,0.00016049296,0.11124562,-0.15586361,-0.07147098,-0.055949517,0.2048403,-0.18566659,-0.4180465,-0.09778665,0.14071433,0.12298135,-0.12959471,0.17065066,0.0653709,0.59913385,-0.2275759,-0.059737146,0.37156004,0.45388922,-0.080543645,0.092946544,-0.3563773,0.13377634,-0.0010116994,-0.32063195,-0.16054778,0.48858452,-0.14268073,0.16972916,-0.13845506,-0.116201974,0.06904722,-0.5467117,-0.013238661,0.12985578,-0.11266952,0.1111746,-0.27940422,0.039067153,0.29274896,-0.085742794,-0.03849525,-0.09229907,-0.24790722,-0.06337527,0.59817797,-0.08137421,0.3265904,-0.37174135,-0.13052204,-0.27037585,-0.21906579,0.07542686,-0.016080651,0.01856817,0.19728407,0.0015442241,-0.15538509,0.19662246,0.13096002,-0.06504115,0.06393321,0.46861857,-0.11520241,-0.10552023,0.23300037,-0.07844075,-0.29652143,-0.28194466,0.5934893,0.33102444,0.06914507,0.12695529,0.32370007,-0.29506558,0.15908049,0.15650721,0.16764764,0.05140944,0.29280552,-0.34324446,-0.3915453,0.0929871,-0.22408846,-0.33222175,-0.28571832,0.411645,0.3098554,-0.44239068,-0.26148042,-0.11477924,0.25267074,-0.02364827,0.12250175,0.28349403,0.15518062,0.14026026,0.24901977,-0.15351185,-0.30593562,0.021813193,0.08171131,-0.6077594,0.052196372,0.1330275,-0.0981003,-0.22705638,-0.16903548,0.24952537,-0.037006408,-0.3430913,-0.10069629,-0.009701826,-0.27382243,0.46522975,-0.015464567,-0.12244749,-0.2516501,0.20136887,0.31269133,-0.1961178,-0.26331958,0.055304356,-0.36461452,-0.12469902,-0.14684023,0.17654583,-0.055567287,-0.02045165,0.376817,0.099524856,-0.12247766,-0.039636977,0.26495305,-0.20642218,-0.12704152,-0.6702796,-0.2615427,-0.21040829,-0.023344506,-0.15899378,0.14665006,0.7928704,0.359953,0.037196938,-0.28192517,-0.5874677,-0.19918165,-0.09933043,-0.08516674,-0.27474314,0.34713522,0.29017878,-0.04608412,-0.42835426,0.22682647,0.1619899,0.30708185,0.28410834,-0.11579389,-0.21036215,-0.36932236,-0.17272678,-0.38874456,-0.19198778,-0.26593536,0.15865286,0.48160347,0.3574658,-0.32910737,0.32315794,0.08731402,-0.02322451,-0.50622296,-0.20373037,0.1870248,-0.1472928,0.21471871,-0.25594604,-0.29431412,-0.11925826,0.02652771,0.0067873076,-0.22601873,0.12362485,0.2967521,-0.13177446,0.15862688,-0.15532477,-0.15561223,0.16042784,0.17984557,0.0062956586,-0.29871136,0.06670549,-0.2984364,-0.12460693,0.06879088,0.12824559,0.006851919,-0.42286494,0.24093172,-0.0912676,-0.13260442,-0.31076372,0.11936746,0.14707305,-0.11977539,-0.33905557,-0.08057255,0.33565927,-0.0063736625,-0.41542125,-0.27970368,-0.013548598,0.3586751,0.18800145,0.2556187,-0.23419026,0.18358561,0.23956668,-0.29716372,-0.015455889,0.16245647,-0.034576345,0.6103861,-0.22708577,-0.02589653,0.09078551,0.104682304,0.4413587,0.06982382,-0.021660365,0.19954953,0.15071495,-0.4594959,0.043962322,0.27989534,0.15322709,-0.008709375,-0.005833607,-0.69886965,0.14628997,-0.14569888,0.1508036,0.10138623,-0.036268644,0.37791613,-0.18824166,-0.11273823,-0.0817506,0.2737874,0.05073917,0.20225924,-0.33028877,-0.076197684,0.19844107,0.05148103,-0.04734408,0.45233575,0.0068275034,0.051318854,-0.06691589,0.22387634,-0.017355997,0.14566347,-0.035324767,-0.037410747,-0.2055772,0.28507963,-0.04739454,0.19445428,0.22782394,-0.47057268,0.06753748,0.031179443,0.024082799,-0.29546982,0.40851358,0.20659909,-0.35190606,-0.122158326,0.5021511,-0.13460827,0.059538536,-0.0122723505,0.19384354,0.32507378,-0.20632306,0.39781114,-0.08724567,-0.11134253,-0.16698962,0.11732463,0.0011526942,-0.2897247,0.24581993,0.09874632,-0.12885316,-0.4341999,-0.428469,0.004443489,-0.14963381,-0.3768498,0.49336463,0.5820086,0.090256274,-0.18555778,0.18490191,-0.42938626,0.016514208,-0.0021715015,0.18448251,-0.055661872,-0.038850307,0.29169112,0.12728238,0.096942164,0.21511206,0.028336085,-0.14358856,-0.3781742,0.2740107,0.12482043,0.16839617,-0.22416997,-0.0973506
C6,-0.32499728,0.06786288,0.07146577,0.013517369,-0.07431039,0.31972653,-0.07127516,0.050816335,0.41974652,0.19328927,-0.29521275,0.008985139,-0.22017562,0.1503869,-0.52866775,-0.52261496,-0.2916085,-0.16846016,0.21273825,-0.1330714,-0.034874454,-0.09666277,-0.27562207,0.38008472,-0.52143997,-0.24170414,0.060781673,0.42163792,-0.61400336,0.06169959,-0.60749483,0.34015802,0.0075500607,-0.34475827,-0.031466767,0.04537673,0.059989,0.012813702,0.104217246,-0.043064676,0.081440836,-0.21376161,-0.3432662,0.13504502,-0.22139326,0.3931973,-0.22712491,0.07512529,0.37615114,0.07803196,-0.18131715,0.06755369,0.45499998,-0.17973813,0.19168532,0.008122414,0.16038431,-0.3412922,0.28157836,-0.24518861,0.05607143,0.06824762,0.33512205,0.07036797,0.058058016,0.05956814,-0.15338212,-0.0416049,-0.506442,-0.18415788,-0.06760726,0.11025143,0.1079353,0.09263846,0.12347915,0.30274874,-0.31929734,0.017159872,-0.053514227,-0.06948131,-0.3307135,0.28015324,0.13322733,0.51294273,-0.013003908,-0.029439759,-0.111149795,-0.15244392,0.07071766,-0.04943554,0.12116701,-0.069946215,-0.06504003,0.055438224,0.034612432,0.27896708,-0.2309757,0.43703735,0.24451229,-0.040005423,0.1467255,-0.11611103,-0.15656391,-0.1434862,0.13874194,0.25678724,0.21846426,0.05989539,0.052800477,0.49844968,-0.33274615,-0.19575137,-0.2814541,0.37779573,0.009574495,-0.18130541,-0.03295791,0.21502665,-0.20834845,-0.095072255,0.21354705,0.12549111,-0.18362346,0.22574612,0.22316189,-0.51592356,0.45422897,0.2401466,0.07563034,0.18435824,-0.08400793,-0.28828293,0.04599476,0.11386232,0.056531016,0.1149869,0.03936156,0.31326804,0.19465363,-0.13611126,-0.1948238,0.06187924,-0.12476622,-0.05645632,0.081856444,-0.14095068,0.021705821,-0.15801749,0.110029705,0.2961015,-0.3935217,-0.10580329,0.2471925,0.596366,-0.32402876,-0.1365692,-0.09597198,-0.027906623,-0.23411077,0.101862684,-0.1772381,-0.033914275,-0.17545772,0.12821431,0.17296427,-0.5473567,0.096497014,-0.31308383,-0.0034865923,-0.2059144,0.16803303,-0.07459213,-0.17353612,-0.4373492,-0.6135544,0.22459546,0.17673954,-0.09519672,0.44363016,0.029562656,0.3385703,-0.06973959,0.21624127,-0.08134742,0.18898857,-0.24393591,0.3587612,-0.062194504,-0.41327327,-0.35571837,0.1941424,-0.061293997,-0.09234128,0.078734785,0.14048848,0.0009524543,0.36349988,0.020279951,-0.02361558,0.5575086,-0.28686744,0.2140514,0.69454914,-0.014767155,0.060618088,-0.35237268,-0.005442824,-0.29256478,-0.10731835,0.0073197,-0.031064194,-0.33057454,0.3140102,0.3495139,-0.08827886,0.07576179,0.29762185,-0.5604435,-0.24398229,-0.4684603,-0.14474759,0.4365329,-0.09423452,0.31263906,0.009433694,0.060275733,0.08674045,0.08389997,0.17491221,0.10090782,-0.34519273,-0.35030472,0.07195707,-0.19794343,-0.663628,0.37733364,0.46598214,0.3752932,0.42205,0.54421914,-0.39295003,0.04209892,0.3977893,0.06736319,0.12965709,-0.3663,-0.41563088,0.17174399,0.13916498,-0.12524234,-0.083692476,-0.08367141,-0.12584172,0.09997664,-0.08282329,0.1980524,-0.10168298,0.5532759,-0.18334873,-0.13839656,0.41211325,-0.37363878,0.08016254,-0.36323026,-0.23601192,0.13949877,0.19418317,0.20368886,-0.08050583,-0.26307026,0.7191074,0.12576559,0.6181423,-0.16611874,0.14660096,0.010995835,-0.20559292,-0.34871268,-0.11538286,0.2771864,0.50881433,-0.13322684,0.07639207,-0.28751197,-0.67054546,0.41676852,0.2056165,-0.042816907,-0.29560825,-0.21214393,0.009781025,-0.13084894,0.079796106,0.04627284,-0.39974314,-0.011957645,0.20319669,-0.021270644,0.22064084,-0.12088277,0.20244981,-0.15502365,-0.07202643,0.44859695,0.0060449988,-0.36755627,-0.12140936,-0.102865614,0.07041795,-0.07422335,0.0011973307,-0.176166,0.36402825,0.6388283,0.09844273,-0.14093064,-0.38497633,0.20599112,0.25392306,-0.047232293,0.37531835,-0.3166153,-0.32048434,-0.064061,-0.20139837,0.345579,0.19722372,-0.31402075,0.16936727,0.30119777,0.033573475,0.075075045,-0.061582703,-0.028241143,0.183455,0.06075407,0.35634378,-0.038146153,0.014348377,0.22612521,-0.044446193,-0.41899323,0.15414992,0.22445352,0.38382939,0.17646894,0.034783773,-0.18456984,0.28117192,0.33739313,-0.08205657,-0.35100722,-0.23434219,0.15474209,0.08520073,-0.0050687566,0.2406632,-0.2761667,-0.40463543,-0.036640547,-0.38539606,0.24891362,-0.067467764,-0.32614863,-0.62543464,-0.2549758,0.3031735,-0.08270433,0.13180381,0.08558382,-0.16953635,-0.39107516,0.08499788,-0.23347266,-0.1573045,0.40843388,0.31062445,0.0054926723,-0.14061517,0.2690285,0.21575984,0.0030659437,-0.24835813,-0.07571232,0.41635075,-0.25997308,0.17937344,-0.1033818,0.011559695,0.049063638,0.076981574,-0.31402606,-0.09056609,-0.29035717,0.04652996,0.36862025,-0.060823984,0.4012366,-0.09334599,0.29473034,-0.2584322,-0.27843696,-0.102958605,-0.22888118,-0.019892879,-0.27302733,-0.3571754,-0.08660481,0.5920266,-0.018897124,-0.1437217,0.38135707,-0.08693314,-0.12281419,-0.09916094,-0.05078482,-0.0066210255,-0.36001745,0.29254264,-0.14274561,-0.19496529,0.3312591,-0.0258803,0.14770864,0.044972915,-0.0581386,0.1707788,0.035699345,0.7602934,0.43139362,0.44067416,0.24735379,0.16505781,-0.29463768,-0.17920685,-0.15868413,0.13948022,-0.06476378,0.27460703,0.4054692,0.24062017,-0.064114936,-0.24555275,-0.4152696,0.11856349,-0.01004947,-0.00614712,0.0024849027,0.11738782,-0.27248612,0.27434394,0.19921231,-0.060801182,-0.3424076,-0.12699305,-0.21250926,0.2017565,-0.35647127,0.14592946,-0.32796434,-0.107096836,-0.18701895,-0.26560348,-0.42217004,0.02050551,-0.26957953,0.14368862,-0.35737818,0.2265374,0.12946874,-0.1956703,-0.17895749,0.07043408,-0.021414086,0.11836204,-0.20342246,0.17812882,-0.09722768,0.118805796,-0.5336047,-0.4045746,0.001455918,0.14974076,0.09935512,0.2098492,0.35665408,-0.088158675,-0.3182833,-0.197483,0.25918797,0.67655057,-0.30883858,-0.07165801,-0.084547184,-0.09585379,-0.08357349,-0.017162435,-0.021136388,0.15130916,0.33777308,0.14069384,-0.2747222,-0.08086646,0.009906277,-0.13267356,0.31133816,-0.01528706,0.07100337,-0.37360334,-0.14988515,-0.4380921,0.021176696
