DiseaseID,feature_1,feature_2,feature_3,feature_4,feature_5,feature_6,feature_7,feature_8,feature_9,feature_10,feature_11,feature_12,feature_13,feature_14,feature_15,feature_16,feature_17,feature_18,feature_19,feature_20,feature_21,feature_22,feature_23,feature_24,feature_25,feature_26,feature_27,feature_28,feature_29,feature_30,feature_31,feature_32,feature_33,feature_34,feature_35,feature_36,feature_37,feature_38,feature_39,feature_40,feature_41,feature_42,feature_43,feature_44,feature_45,feature_46,feature_47,feature_48,feature_49,feature_50,feature_51,feature_52,feature_53,feature_54,feature_55,feature_56,feature_57,feature_58,feature_59,feature_60,feature_61,feature_62,feature_63,feature_64,feature_65,feature_66,feature_67,feature_68,feature_69,feature_70,feature_71,feature_72,feature_73,feature_74,feature_75,feature_76,feature_77,feature_78,feature_79,feature_80,feature_81,feature_82,feature_83,feature_84,feature_85,feature_86,feature_87,feature_88,feature_89,feature_90,feature_91,feature_92,feature_93,feature_94,feature_95,feature_96,feature_97,feature_98,feature_99,feature_100,feature_101,feature_102,feature_103,feature_104,feature_105,feature_106,feature_107,feature_108,feature_109,feature_110,feature_111,feature_112,feature_113,feature_114,feature_115,feature_116,feature_117,feature_118,feature_119,feature_120,feature_121,feature_122,feature_123,feature_124,feature_125,feature_126,feature_127,feature_128,feature_129,feature_130,feature_131,feature_132,feature_133,feature_134,feature_135,feature_136,feature_137,feature_138,feature_139,feature_140,feature_141,feature_142,feature_143,feature_144,feature_145,feature_146,feature_147,feature_148,feature_149,feature_150,feature_151,feature_152,feature_153,feature_154,feature_155,feature_156,feature_157,feature_158,feature_159,feature_160,feature_161,feature_162,feature_163,feature_164,feature_165,feature_166,feature_167,feature_168,feature_169,feature_170,feature_171,feature_172,feature_173,feature_174,feature_175,feature_176,feature_177,feature_178,feature_179,feature_180,feature_181,feature_182,feature_183,feature_184,feature_185,feature_186,feature_187,feature_188,feature_189,feature_190,feature_191,feature_192,feature_193,feature_194,feature_195,feature_196,feature_197,feature_198,feature_199,feature_200,feature_201,feature_202,feature_203,feature_204,feature_205,feature_206,feature_207,feature_208,feature_209,feature_210,feature_211,feature_212,feature_213,feature_214,feature_215,feature_216,feature_217,feature_218,feature_219,feature_220,feature_221,feature_222,feature_223,feature_224,feature_225,feature_226,feature_227,feature_228,feature_229,feature_230,feature_231,feature_232,feature_233,feature_234,feature_235,feature_236,feature_237,feature_238,feature_239,feature_240,feature_241,feature_242,feature_243,feature_244,feature_245,feature_246,feature_247,feature_248,feature_249,feature_250,feature_251,feature_252,feature_253,feature_254,feature_255,feature_256,feature_257,feature_258,feature_259,feature_260,feature_261,feature_262,feature_263,feature_264,feature_265,feature_266,feature_267,feature_268,feature_269,feature_270,feature_271,feature_272,feature_273,feature_274,feature_275,feature_276,feature_277,feature_278,feature_279,feature_280,feature_281,feature_282,feature_283,feature_284,feature_285,feature_286,feature_287,feature_288,feature_289,feature_290,feature_291,feature_292,feature_293,feature_294,feature_295,feature_296,feature_297,feature_298,feature_299,feature_300,feature_301,feature_302,feature_303,feature_304,feature_305,feature_306,feature_307,feature_308,feature_309,feature_310,feature_311,feature_312,feature_313,feature_314,feature_315,feature_316,feature_317,feature_318,feature_319,feature_320,feature_321,feature_322,feature_323,feature_324,feature_325,feature_326,feature_327,feature_328,feature_329,feature_330,feature_331,feature_332,feature_333,feature_334,feature_335,feature_336,feature_337,feature_338,feature_339,feature_340,feature_341,feature_342,feature_343,feature_344,feature_345,feature_346,feature_347,feature_348,feature_349,feature_350,feature_351,feature_352,feature_353,feature_354,feature_355,feature_356,feature_357,feature_358,feature_359,feature_360,feature_361,feature_362,feature_363,feature_364,feature_365,feature_366,feature_367,feature_368,feature_369,feature_370,feature_371,feature_372,feature_373,feature_374,feature_375,feature_376,feature_377,feature_378,feature_379,feature_380,feature_381,feature_382,feature_383,feature_384,feature_385,feature_386,feature_387,feature_388,feature_389,feature_390,feature_391,feature_392,feature_393,feature_394,feature_395,feature_396,feature_397,feature_398,feature_399,feature_400,feature_401,feature_402,feature_403,feature_404,feature_405,feature_406,feature_407,feature_408,feature_409,feature_410,feature_411,feature_412,feature_413,feature_414,feature_415,feature_416,feature_417,feature_418,feature_419,feature_420,feature_421,feature_422,feature_423,feature_424,feature_425,feature_426,feature_427,feature_428,feature_429,feature_430,feature_431,feature_432,feature_433,feature_434,feature_435,feature_436,feature_437,feature_438,feature_439,feature_440,feature_441,feature_442,feature_443,feature_444,feature_445,feature_446,feature_447,feature_448,feature_449,feature_450,feature_451,feature_452,feature_453,feature_454,feature_455,feature_456,feature_457,feature_458,feature_459,feature_460,feature_461,feature_462,feature_463,feature_464,feature_465,feature_466,feature_467,feature_468,feature_469,feature_470,feature_471,feature_472,feature_473,feature_474,feature_475,feature_476,feature_477,feature_478,feature_479,feature_480,feature_481,feature_482,feature_483,feature_484,feature_485,feature_486,feature_487,feature_488,feature_489,feature_490,feature_491,feature_492,feature_493,feature_494,feature_495,feature_496,feature_497,feature_498,feature_499,feature_500,feature_501,feature_502,feature_503,feature_504,feature_505,feature_506,feature_507,feature_508,feature_509,feature_510,feature_511,feature_512
C1,0.63007003,-0.41969606,0.20112304,0.60409,-0.33357504,0.4759536,0.08557473,0.076366715,0.1974856,-0.14474231,-0.11601268,0.028913323,0.20606117,-0.22612432,-0.020469021,0.08815634,0.00763594,-0.20327562,-0.08405996,-0.15397882,-0.45280477,-0.21704602,-0.058726095,0.07965687,-0.15839204,0.5481555,-0.36769283,0.28022397,0.23386502,-0.004322529,0.084824555,-0.40148836,0.12616831,-0.38857275,-0.17949429,-0.06704762,0.13965662,-0.39246947,0.37855765,-0.14117384,-0.07574045,-0.34743297,0.1907995,-0.5520241,-0.09196662,-0.22994912,0.31075105,0.18597603,0.05261401,0.062473636,0.1043203,-0.050445728,0.2830663,0.1536358,-0.28093886,-0.017278647,-0.55594134,0.007433921,-0.043013025,0.19424132,-0.24197488,-0.25286302,0.20397654,-0.1929022,-0.6834066,-0.27197453,-0.28875586,0.20303535,-0.053554654,0.33310235,-0.13432929,-0.3021645,-0.3052792,0.3711309,-0.1804736,0.020828314,-0.23551151,-0.18284419,0.37713295,0.35291284,-0.016645802,0.168143,-0.12874529,0.15987003,0.33553895,-0.00051526725,-0.4185611,0.036962565,0.017690532,-0.30263683,-0.18489806,0.30258644,0.31596464,0.0067303926,0.55602765,-0.12447515,0.22891778,-0.2349667,-0.22784242,-0.010847639,0.24273717,-0.41865492,0.25294763,0.1671049,0.37307072,0.01639814,-0.083304115,-0.036207795,0.16408359,-0.15976666,-0.6372534,-0.39884713,0.094039805,0.1442326,-0.24734032,0.18135974,0.0024936423,0.5328643,0.44939142,0.10765991,0.040221762,-0.082138374,-0.03619496,-0.2917341,-0.042037673,-0.47147894,-0.32205427,-0.12716505,0.3959293,0.04517264,-0.011019029,0.36781326,0.15704185,-0.48309198,-0.12478429,0.17148103,0.19760662,0.03799022,-0.08517797,-0.25286984,0.14491129,0.28988504,0.021561265,-0.08929288,0.17695522,0.32384017,-0.043300156,0.4168439,-0.22622788,0.231316,0.17894226,-0.32165608,-0.101072036,0.05384125,0.08768718,0.45408815,0.26761198,0.1404476,0.48067117,0.15730146,-0.35336113,-0.08391095,0.09221557,-0.027034465,-0.58510906,0.38425142,-0.27572703,0.1606272,0.11663972,-0.026803061,0.33907285,0.4757344,-0.005376175,-0.14746603,0.06306605,0.24735078,-0.113052964,-0.14357017,-0.32357186,-0.28147402,-0.292273,0.4621427,-0.059525665,0.24060263,0.12863319,-0.03929817,0.22553158,0.46006158,-0.02774708,-0.18031892,-0.24855621,-0.64169264,0.22178465,-0.43341005,-0.09533472,-0.0419823,0.5297115,-0.3129599,0.3152277,-0.12645724,0.373464,0.5181333,0.109565705,0.48366147,0.73255384,-0.037683845,0.10711328,-0.251679,-0.22433048,-0.046364777,-0.27337548,-0.15247981,0.26251936,-0.08782419,-0.0095006395,0.031791355,0.16894114,-0.10399234,0.3355543,-0.021242645,-0.015058894,0.2586301,-0.24108507,-0.35527372,-0.07264615,-0.47566542,-0.15563038,-0.605918,-0.01012313,-0.23290633,0.4411447,0.19816178,0.122040376,-0.21046507,-0.13911797,-0.12819752,-0.030812915,-0.083198726,-0.24711409,0.19198236,0.08491016,-0.37825572,-0.372141,-0.35209745,0.17122212,-0.29804686,-0.16811264,-0.60473645,-0.7191307,-0.109022185,0.43211746,0.035995595,0.21920007,-0.024213355,-0.6024776,0.27853775,-0.20529568,0.47679052,-0.27140233,-0.3456089,0.26331747,-0.35550883,-0.026741892,0.027152948,0.17449419,-0.04193295,0.22118393,-0.092084594,-0.21225932,0.0734559,0.08097472,0.23271781,0.38896006,-0.17627347,0.33058512,-0.2780083,-0.3081385,0.29691783,-0.37354243,0.005013883,-0.32030925,-0.02572988,0.04612183,-0.48809487,0.06195605,-0.091141984,-0.035836756,0.3263146,-0.3883665,-0.33833224,0.31715047,-0.09886433,0.1322342,0.77669936,-0.21637118,0.105788514,0.25392008,-0.10851922,0.088608354,-0.18630952,-0.5588326,-0.032350764,-0.17284936,-0.09918916,-0.07647655,0.6074071,-0.42368513,0.24636014,0.39805725,-0.05837757,-0.06939879,-0.35528168,-0.39570177,0.16500515,0.2637882,0.08537714,0.14984268,0.12997675,-0.46622446,0.039264515,-0.061677776,0.22463651,-0.2082543,0.2399252,0.18262178,0.042988658,0.047848016,-0.28218055,-0.20184316,0.09154577,-0.13167989,-0.15034115,-0.32640713,0.45361802,0.4833237,-0.23936301,-0.06976454,-0.025291774,-0.13022184,-0.24658245,-0.008968636,0.35679096,-0.26872465,-0.083190165,-0.23414391,0.45342407,-0.34871563,0.6470986,-0.1239119,-0.024781883,-0.20624366,0.4462333,0.13121283,-0.25222856,0.0047858953,-0.064602755,-0.25708905,0.18940198,-0.1844979,-0.16489598,0.20941499,0.014908019,0.3009065,0.34255227,-0.25931355,0.1300843,0.49273956,-0.1568762,-0.2684341,-0.19031861,0.04729079,0.28543615,0.1256291,0.12559319,-0.1992193,0.0026642177,-0.19114083,-0.6972425,0.00041597337,0.23636019,0.51515454,-0.13294876,-0.10658375,-0.084514596,-0.063515894,0.35657126,-0.10024901,-0.2029843,0.30197608,-0.43430907,0.077045634,0.24620661,-0.40030497,0.017796036,-0.28834525,-0.27932352,-0.03336882,0.5330241,-0.5390299,-0.1789872,0.10986717,-0.36561882,-0.49487785,-0.052990913,0.29318938,0.043618627,0.44937614,0.18551138,-0.23990023,0.12671041,0.047253378,0.051806025,0.33695766,0.0715904,0.14657602,-0.08683213,-0.1252571,-0.16862437,0.28417322,0.33018583,0.2713855,-0.23144683,-0.1209025,0.4103891,-0.17121336,-0.2994463,-0.46373212,0.036781404,0.18022273,-0.186254,0.031464722,-0.047321342,-0.42268738,-0.45270503,-0.56537724,-0.23563603,-0.28160003,-0.03255529,-0.034923844,-0.09578351,-0.11777874,0.103724085,0.5325258,-0.16353756,0.13429579,0.27635074,0.05592027,-0.46154928,0.50915337,-0.26889262,0.049023867,0.43525738,-0.21437219,-0.111449264,-0.030141324,-0.18840289,0.09195663,-0.33642894,0.4925707,-0.20343742,-0.20374492,-0.2989211,0.018609041,-0.3166321,0.65109795,-0.05471418,-0.4705301,0.13901004,0.07656209,0.3021842,0.53535557,-0.27052945,0.22693957,-0.15312144,0.48955762,0.099438764,-0.44458762,-0.27881017,-0.26242235,0.24145886,0.060651407,0.11028078,0.11106556,-0.39874342,-0.111124076,0.12949607,-0.020773858,-0.702606,0.1108866,-0.24839076,-0.08511383,-0.023516566,0.18113223,-0.29315162,-0.36297333,0.2807985,0.0028878748,-0.21167849,0.2761044,-0.45209223,0.020608641,-0.7628364,-0.33981425,0.3984281,-0.556026,-0.33860376,0.14864622,-0.41138285,-0.0355299,-0.024280973,0.32743,-0.21511993
C2,-0.2541571,0.5372526,0.058167808,-0.37793073,-0.11927773,0.0052256957,0.056775093,-0.26730907,0.031806715,-0.12304606,0.11530098,0.16126457,0.09142325,-0.31289932,-0.3554407,-0.122980446,0.2554985,0.32128116,-0.24603996,0.23434898,-0.33971968,-0.25906086,0.091300905,0.35194135,0.092018954,-0.10017592,0.26205033,-0.02430594,-0.27894744,-0.31959,0.45830953,-0.05158305,0.065268435,0.17418736,-0.14452037,0.22879013,-0.016352877,0.29883477,0.81609505,-0.02358552,0.024282377,0.13620853,0.091923565,0.07274024,0.3365058,-0.013732877,0.12874886,-0.5291179,-0.3840583,0.119258255,0.06674074,-0.06115917,0.298297,0.05207316,-0.08917912,-0.48822397,0.45272982,-0.21338177,0.1371761,0.3288973,-0.066990465,-0.18634242,0.021737404,-0.22380838,0.045337424,0.19085318,0.014691979,0.2735557,0.07984526,-0.22456932,-0.04836555,0.3363839,0.11308201,0.3161971,0.06601263,-0.23610221,0.14114526,0.22299296,-0.26289576,0.51599556,-0.12461884,-0.24758625,-0.09834523,0.35649526,0.57658607,-0.08144549,-0.18678968,0.04078075,0.4239159,-0.06936082,0.33915377,-0.09786509,0.121547244,-0.050032087,-0.34107143,0.03825078,-0.27366364,-0.14816946,-0.22218826,-0.4015199,0.1320458,-0.48151094,-0.14184777,-0.08611432,-0.019518573,0.058036283,-0.23971066,-0.014336497,-0.27012563,0.32275873,-0.41099295,0.22313015,0.09760878,0.35206696,-0.10582199,0.19591203,-0.051715657,0.2237291,-0.06759144,0.021369271,-0.30610374,-0.26314107,0.33843803,-0.076948345,0.10946694,0.03528591,0.33542344,-0.08816849,-0.12965432,0.14660256,-0.024499703,0.17414466,0.7159598,0.052661575,-0.53967583,-0.17944303,0.16809866,0.15247428,-0.1524132,-0.04021915,-0.1148402,-0.05385369,-0.16653776,-0.20420587,0.38379964,-0.21962449,-0.0049992986,0.19711566,-0.09239253,-0.044403285,-0.058355413,-0.36067298,0.32591647,0.06601147,-0.38780266,-0.13830899,-0.07053385,-0.21270381,-0.3338895,0.06473517,-0.633641,0.18862668,-0.1708762,-0.31122556,-0.21329468,0.33303443,0.017291367,0.09679715,0.0739806,0.13707662,-0.008672841,-0.13974518,-0.36000383,0.1700039,-0.033156894,-0.012549341,-0.14944392,0.07673381,-0.44897848,-0.28452396,0.01994012,0.44959247,0.26957977,-0.29708853,0.49124008,0.30386922,0.053843923,-0.025143243,-0.16229337,-0.17106569,0.39606997,-0.051050518,-0.43829018,-0.09277047,0.077917345,-0.018733587,0.061642457,-0.18597758,0.59988743,0.15221128,-0.1322076,-0.1400125,0.17325592,-0.37009668,-0.3025448,-0.23379539,-0.049649574,0.119215675,0.18062514,-0.9690018,0.0900278,0.35501006,-0.11079663,-0.079495706,0.19729874,-0.31308144,0.88747346,-0.10693023,-0.18725577,-0.2825689,-0.19951698,0.11180103,0.09399966,0.30492586,-0.36925048,0.24291047,-0.6364162,-0.040809564,-0.3026283,0.10651381,0.007832544,0.2403791,0.010993194,-0.30558246,-0.15147777,0.1797848,-0.010380898,0.08201383,-0.22168808,-0.12203195,0.14344722,0.46419623,-0.20295036,-0.084635995,-0.1429537,-0.35467526,-0.11716785,-0.07581999,0.0016999729,-0.38363966,0.00028487295,-0.3309843,-0.21323454,0.17996694,-0.048394967,0.08317456,-0.2953862,0.0056388862,-0.06094259,0.19025677,0.054118685,-0.26435435,0.00069339946,0.031664457,0.12315902,-0.044777904,-0.07226158,0.13483477,0.09053959,0.5024779,0.101493,0.20757543,0.24300787,0.33287057,-0.18939218,-0.08664662,0.046466947,0.16101806,0.05176472,0.18956694,-0.42037252,0.13404438,0.061370343,0.2858703,0.18521214,0.20229524,-0.0026559196,-0.21621078,0.04482352,-0.014863953,0.17510805,-0.08687964,-0.06412478,-0.31784487,-0.49500677,0.012875617,-0.2282193,-0.33048072,-0.3511517,0.5392883,-0.09269051,0.4599921,-0.21243683,-0.06872322,0.031618826,0.39953923,-0.3973746,0.12668027,-0.42752916,0.34275982,0.22853112,0.17681554,-0.18075666,-0.26669708,-0.15450731,-0.28642938,-0.26132068,0.30683103,0.1725907,0.30356118,-0.0073003955,0.12335898,0.2571108,-0.22309977,0.24990192,0.36945003,0.1562398,-0.16438228,0.22693114,-0.058063634,-0.47890767,0.11742266,-0.26148045,0.35709056,0.19635741,-0.44724193,-0.43447614,-0.16411309,-0.21211219,0.27728102,0.1692945,-0.0058683627,0.434195,0.049533747,0.027547866,0.20067933,-0.13263577,0.104581326,-0.47958514,0.010332659,0.33426225,0.28803807,0.18675515,0.21757337,0.28498223,0.34905654,0.24439955,0.48837802,0.15840828,0.3662582,-0.16250888,0.33423403,0.33451915,0.14073536,0.3732154,-0.3886276,0.0269305,-0.27636978,0.09214353,0.2838925,-0.5554519,-0.2746476,-0.29631677,0.3722992,0.07495959,-0.056023464,0.025470931,-0.7668716,0.16249293,-0.6846129,0.29233506,0.10445748,0.21006384,0.066042304,-0.47109887,-0.41731912,-0.36054856,0.025572985,0.33951297,-0.6054547,-0.009001497,0.24231315,0.18252498,0.1539999,-0.4498013,0.18554893,0.011956247,0.29105842,0.09571114,-0.041267328,-0.047362976,-0.3248539,0.27019143,-0.28630793,0.084646754,-0.008777734,0.12985648,0.06583598,0.0018729009,-0.020091452,0.04356167,-0.11466389,-0.061125793,0.22959116,0.05527559,-0.26459596,0.028567448,0.37326294,0.44266883,-0.5132544,0.123409964,0.20263249,0.073503226,-0.074616864,-0.38085875,0.44605333,-0.1173999,-0.25683382,-0.44427902,-0.282502,0.050618954,-0.374798,0.5584373,-0.11951304,-0.1540052,0.053856682,-0.11514171,-0.08908867,0.47596875,0.10493226,0.5660879,0.29708752,0.334038,0.027552955,0.041761406,0.40681732,-0.14279261,-0.01732213,0.36810967,-0.37637383,0.12154499,-0.12087854,-0.10755844,-0.9516365,-0.2228091,0.25182313,0.25895166,0.08871533,0.23793527,-0.057826277,-0.16287819,-0.26275942,0.03089276,-0.10651314,-0.16619706,0.08110529,-0.118082,0.26023382,0.40748373,0.4765751,-0.4442161,-0.10540276,-0.27522147,0.34377706,-0.30956143,0.039768405,0.65659755,-0.119633205,-0.44011515,0.20742854,-0.050437085,-0.011624847,0.2196427,0.048702426,-0.20866704,-0.12464493,0.39225632,0.012480509,-0.58722925,-0.27768162,-0.03369721,0.19671226,-0.40033987,-0.17433336,-0.23862448,0.38774928,0.12650666,-0.13118312,-0.16019033,-0.1080123,-0.37741348,0.060021706,0.035931285,0.022367839,0.2849131,-0.0059489347,-0.029936172,-0.57234204,0.16176508,0.24207434,0.21156123,-0.34238917
C3,0.0821508,-0.24497668,0.105589405,0.35898426,-0.3293431,-0.0012141094,0.19913134,0.52941215,0.29691234,-0.16442183,0.18716681,0.40064007,0.31643915,-0.118415155,-0.09881735,0.20680328,-0.47367704,-0.3649426,-0.06108409,0.1738826,0.24995056,0.10820833,0.15545598,-0.054851532,0.1053342,0.51016694,-0.17509408,0.35845885,-0.3938224,0.22551301,0.041419595,-0.14071882,-0.26841587,0.18890536,0.30161968,0.3447793,-0.024450004,-0.4016096,-0.3030648,-0.1205842,0.23910531,-0.46051735,0.15103425,-0.22028224,0.019258857,-0.07243848,-0.33353698,0.2445193,0.19378904,-0.2630254,-0.16099179,0.4581681,-0.07639145,-0.3323898,0.06984856,0.06634982,-0.30403957,-0.2973947,0.0868423,-0.07018125,0.016137097,-0.23836663,0.33626005,0.010870978,-0.22582224,-0.02982863,0.16152461,-0.17272994,-0.1761576,0.06386416,-0.18859604,-0.0036074556,0.15651776,0.1240164,-0.28610232,-0.10831043,-0.2231443,0.015823847,-0.3420015,-0.086463176,0.20893215,0.05820121,0.062253743,0.049795132,-0.24944589,0.05416982,0.052904855,-0.27840352,0.17968076,-0.5615062,-0.2630782,-0.12367871,0.24069941,0.10630002,0.23489618,0.11141822,-0.06284782,-0.037160255,0.17275654,0.19213323,-0.352814,-0.18698172,0.5459363,-0.014341492,0.0077556167,0.2619776,0.4466918,-0.25919208,0.2325892,0.03779095,0.26908955,0.072170205,0.16222435,0.07806319,-0.039200477,-0.10096126,0.032051668,-0.057834096,-0.004854787,-0.45570096,0.37086752,0.20949024,-0.09399341,0.082773425,-0.16808498,-0.27646065,-0.19776855,-0.13748656,0.2860713,-0.073082685,-0.36449248,0.30930364,0.06532723,0.048626814,-0.26942614,0.28263742,0.17242882,-0.07104801,0.07868159,0.26720124,0.15194133,-0.12994549,-0.14005554,-0.3683509,-0.22898826,0.61873585,-0.057564147,0.39656362,0.019332677,0.17125788,0.11846566,0.083937824,-0.09335116,-0.20021269,0.00661505,0.07424315,-0.21352038,-0.054017458,0.10852059,-0.076047175,-0.027744189,-0.112608,-0.11046999,0.23977183,-0.41322377,-0.20202367,0.09885661,0.1165555,-0.23164363,-0.0041308403,0.2650098,0.78793526,-0.09122051,-0.2025102,-0.47166345,0.24132046,0.35869563,0.038042247,0.245698,0.2194441,0.5831416,-0.1045251,-0.27037606,-0.013777835,-0.26866573,0.25814775,0.3015347,0.19377759,-0.23324049,0.1868885,-0.16435872,-0.2622699,0.14251144,-0.05538671,-0.31624788,-0.21132383,-0.045075767,0.12424624,-0.270343,-0.45427603,0.4634052,0.29882702,-0.27808517,0.39344314,0.03984512,-0.04106334,0.029792868,-0.1976872,-0.21732613,-0.29563344,-0.20925091,-0.10522017,-0.056496516,-0.28641808,-0.45850915,-0.4031984,0.21617281,-0.3236637,-0.22073531,-0.042730406,-0.085895315,0.35099816,-0.065724105,0.07533544,0.08040096,-0.25236258,-0.14831647,0.18837985,0.28177652,-0.5537886,0.35986117,-0.2841129,-0.2887539,-0.28637654,0.24663596,0.26131055,-0.44504467,-0.07653596,-0.21632099,-0.14813271,-0.35966003,-0.35852146,-0.20389831,-0.15635964,-0.25726074,0.025810417,0.21651095,-0.041230068,0.03874476,-0.1726604,0.0910277,0.29388568,-0.23934129,-0.4224577,-0.19470176,-0.1519324,0.10795154,0.19327998,0.30504268,0.0041795913,-0.15492295,0.03381715,-0.37208602,-0.15287212,-0.07746601,-0.36386013,0.14167038,-0.07196922,-0.092310175,-0.116487205,-0.11859847,0.0132579,-0.1331934,-0.33516735,0.3672499,-0.30949563,0.38264847,0.10025647,-0.24136615,0.09804431,-0.45821324,0.36266294,-0.37924987,-0.3104266,0.16443226,-0.099095605,0.16341752,-0.062366746,-0.35733712,-0.32567292,0.057193123,-0.060754642,-0.26317653,0.0085961595,-0.30413565,-0.021028057,0.014647638,-0.13557029,-0.03758187,0.12642542,0.035493564,-0.6404785,0.32209647,-0.39801958,-0.24356422,0.35819,-0.014103934,0.24487652,0.14937043,-0.11042764,-0.15649945,-0.06703827,0.36066794,0.38894933,0.47276652,0.053183928,-0.29585543,0.6162166,-0.46991864,-0.043543577,-0.2214307,-0.1105293,0.35302326,-0.10959599,0.076255225,0.015559651,0.41768086,-0.01973639,-0.00646694,0.5332602,0.026624821,-0.4249615,0.14410491,0.09848173,0.5332996,0.13798833,-0.06751718,0.3682944,0.27060997,0.03498798,0.17291808,-0.3477097,-0.17535892,0.28362858,-0.22999424,-0.03186687,0.13794538,-0.022674635,-0.2239045,0.2189588,-0.33281472,0.077788405,-0.23072341,0.048069682,-0.07069475,-0.015385866,0.12432329,0.13687056,0.07998678,0.10441858,-0.04073507,-0.23032615,0.28071675,0.59447986,0.11821815,-0.13264032,0.19654365,-0.22456056,0.010047477,0.062782384,0.27250123,-0.15313852,-0.16572005,0.19202794,-0.0049797073,-0.06532441,0.1255247,-0.32174265,-0.012467913,0.066317916,-0.34529632,-0.071198165,-0.34676713,-0.51822466,-0.08181414,-0.11091762,-0.23014668,0.007831477,0.176833,0.20663875,0.41991028,0.14877646,0.3289135,0.07902087,-0.34199184,0.06789139,0.21866709,0.3528576,-0.45408255,0.28971332,0.1600706,0.09693428,-0.36266562,-0.4886381,0.20716807,-0.026790466,0.30399436,0.3565544,0.21043211,-0.14362666,-0.32986274,0.038141504,0.16804957,-0.071678594,0.09862959,0.23824075,-0.13421486,-0.4442918,-0.023432657,-0.18205155,0.045590594,0.009906873,0.12245164,0.16232634,0.20803663,-0.14168957,-0.1496109,0.0043928437,0.48029578,-0.05259466,-0.25974992,-0.13668117,0.26732886,0.34110308,-0.25891843,-0.47329602,-0.06561809,-0.20709193,0.2429834,0.08361025,-0.1828728,-0.09509209,0.11822556,0.020791762,-0.27231494,0.59343654,-0.09742522,-0.3613897,-0.29008234,0.33243364,-0.1945934,-0.08224008,-0.48456517,0.015118085,-0.52150065,-0.060271554,-0.007447552,-0.2243228,-0.036593527,0.0019931272,-0.25009984,-0.35989213,0.14210705,-0.17861746,0.20753476,-0.51638424,-0.22969548,0.3063456,0.5150894,0.06969425,-0.08975301,-0.60697216,-0.15043218,0.16842732,-0.052406408,-0.14007783,0.11466397,-0.4285098,0.3096123,-0.7010725,0.20320532,0.21557575,0.080030054,0.1898441,-0.15085536,0.3630789,0.15249297,-0.38058645,0.19695854,-0.19418228,0.3512261,0.47831315,-0.124238715,0.26066738,-0.04998576,-0.013231739,-0.11689235,0.09875822,0.26548234,-0.052161124,-0.08527833,-0.1968686,0.22604445,-0.19312707,-0.036486536,0.031510524,0.11893123,-0.20730025,-0.07651428,0.13433054,0.3184599,0.3918869
C4,-0.09272892,-0.49392778,0.30381483,0.22008543,-0.2281835,-0.03299097,-0.12634163,-0.06510083,-0.10829553,-0.15463328,0.19039811,-0.18723452,0.19872276,0.15747565,-0.021393549,-0.12521479,-0.41590777,-0.21927483,-0.45976785,0.127639,-0.13513336,0.04554792,-0.10246394,-0.4412739,-0.18589422,-0.40136647,-0.13706383,0.06871015,0.17152625,-0.036761265,0.12913777,0.14264008,0.01979933,-0.036867812,0.36136726,0.13907489,-0.26499453,0.17439541,-0.14095978,0.28772983,-0.37709492,-0.06020201,0.024550706,-0.26022154,-0.30149612,-0.2996409,-0.09703237,0.54594624,0.015669545,-0.36072066,-0.18368939,0.14502153,0.20219795,-0.09073692,0.06643724,-0.18849312,0.105018206,-0.06341953,-0.3618915,0.035066158,-0.06885156,-0.12988445,0.2618484,0.19320714,-0.08369961,0.2552982,0.04330107,-0.15677525,-0.12185219,0.12839416,0.2601859,0.09182785,0.10357455,0.25993025,-0.024249464,-0.44874594,-0.19685292,0.072444335,-0.12765227,-0.23609129,-0.28583843,0.46579418,-0.064953655,-0.23511827,-0.20230529,0.17004842,-0.16577786,-0.23717265,0.51921004,-0.503792,0.4458269,0.037020616,0.6028629,-0.17507863,-0.10698366,-0.2752886,-0.15376931,0.10078543,0.23911256,-0.100866325,0.08232189,0.04043623,0.040271632,0.09475288,-0.055032693,0.23410177,0.23098692,0.16715777,-0.015783738,-0.071745604,0.022905324,0.093247965,-0.07954363,0.11612385,0.03935927,0.23331302,0.5219165,0.13162433,0.15164797,0.012246728,0.08236244,0.29666898,0.04713278,0.040990002,-0.02220171,-0.087394536,-0.06527594,-0.11057638,0.063255414,-0.2334365,-0.45383167,0.4046498,0.16614065,0.069321476,0.40271083,0.017787948,0.15419307,-0.2618211,-0.03386113,0.006387964,0.1566521,-0.48160094,0.27838698,-0.2106925,0.03832474,0.23253822,0.20716053,0.100682884,-0.030236483,-0.2113404,0.1711258,0.14890602,0.021988977,0.23006088,0.053663034,0.1793301,0.09478791,0.066743754,-0.15322885,0.19381246,0.022322346,-0.1550344,0.101420194,-0.48140293,0.041005157,0.1201583,0.29289752,0.092397854,-0.47732273,-0.07950097,-0.37801924,0.10145084,0.076439194,0.05063904,-0.112502284,0.39330927,0.11139532,-0.03882374,-0.20949045,-0.14224431,0.47875196,0.24448827,0.07191234,-0.08359456,0.15474749,0.027939312,-0.15635163,0.52143615,0.008234292,0.19441848,0.4062002,0.016636383,-0.025057241,0.15928735,-0.15572757,-0.447494,-0.11702127,-0.28681672,-0.07672571,0.010699607,-0.01831251,-0.25410947,-0.032836024,-0.3940244,0.04281479,0.12580977,0.18746008,0.1420171,0.18971783,0.40785718,0.09866271,-0.33823517,0.07128556,0.21095383,-0.16779138,-0.008083288,0.22923002,0.23446326,0.2871293,0.22837164,0.318279,0.10724477,0.11973031,-0.13650015,0.28810042,0.06967667,0.32360274,0.32489848,0.24433795,-0.012035973,0.39333487,0.25530455,-0.20329246,-0.47669724,-0.18730696,0.10294861,-0.004675593,-0.047681138,0.1939223,0.20322105,-0.2717654,0.17836249,-0.21318907,-0.08979938,-0.08900026,0.14939633,-0.32809627,-0.068026714,0.24859554,0.12623538,-0.013386317,-0.3108806,0.21761918,0.19755705,0.382328,0.10910431,0.2878282,0.046454974,0.47238034,-0.3599091,-0.33902478,-0.27299812,-0.22476207,0.26795772,0.10058553,0.1477888,0.116829716,0.43519774,0.16069576,-0.19543499,-0.19515258,-0.16103928,0.046633266,-0.31631634,0.011387423,0.2466918,-0.11305313,0.053256437,-0.0919599,-0.17334363,0.14496501,0.21416461,-0.064105526,-0.07609558,0.057364263,0.1265943,-0.17716134,0.11145248,0.31694356,-0.5271179,-0.1922366,-0.17551816,-0.0034580417,-0.10885611,-0.28710854,0.20712095,-0.34175548,0.04043773,-0.20633619,0.07766696,-0.102127105,0.19722801,-0.29278183,-0.040212564,0.11838014,0.50866175,-0.26086712,0.039879713,-0.15709418,0.090532586,-0.09884291,-0.06754355,-0.04128693,0.08697213,0.123699896,-0.12021516,0.13704935,0.1551533,0.08961999,0.12110273,-0.109458864,-0.11595255,-0.24248782,0.42841315,-0.13841027,0.121426545,-0.0008939579,0.083756015,-0.2581651,-0.051915042,0.0455691,-0.08607048,-0.31810504,-0.21165374,0.13255565,-0.06887775,0.039248295,-0.064058,-0.12230408,-0.1130748,-0.07027861,0.15343568,0.4881722,-0.009608269,0.093354836,-0.023867898,0.047372393,0.2282797,-0.44677225,-0.03457527,-0.3846399,-0.5856068,-0.12932786,-0.28197446,-0.054914095,0.16160601,0.118572205,-0.09075938,0.50102633,-0.22326949,-0.14326113,0.0041706264,0.1476071,0.07566953,-0.29948378,-0.21857691,-0.13328156,0.18274456,0.39889327,-0.009758268,0.2791938,0.23264958,0.3607483,-0.25347662,0.039759412,0.06015688,0.26411816,-0.08221296,0.42383978,0.27581704,-0.07218473,0.06309855,0.06981048,0.4761189,-0.14419761,0.114717185,-0.11881144,0.10980113,0.1487509,-0.21549138,0.70853734,0.192267,-0.42589006,0.2215583,0.4329406,0.19802642,-0.23000771,-0.06607392,-0.010586359,-0.23984031,0.30995604,0.3049274,-0.065773875,-0.10008061,0.2666708,-0.07673813,-0.2851511,0.025079053,0.16958949,-0.51269,0.08576271,-0.10120643,-0.18440878,-0.13928884,0.017381387,0.42478576,-0.007846907,0.04259562,-0.37835923,-0.2559206,0.13829654,-0.2284761,-0.02579756,-0.04179935,0.06988235,0.024354657,-0.41641328,-0.25280738,-0.33694494,0.42311049,0.21462508,-0.09565248,-0.22738129,0.3394369,-0.04704667,-0.22695737,0.010735817,0.07110671,0.026686322,0.18670173,0.0923415,-0.4338513,0.50000083,-0.31825826,-0.015239,-0.011906795,-0.14391086,-0.03855022,-0.14601251,0.04509072,0.28582436,0.3479275,-0.017744377,0.042701952,0.06029225,-0.000411205,-0.08304299,0.61063004,-0.08764714,-0.11233406,0.046432305,-0.15624543,0.014914185,0.028244667,0.44471383,-0.006720215,-0.47166237,-0.26719454,-0.03746309,-0.032049894,0.13819188,-0.2418226,0.088848665,-0.4003687,0.36914933,-0.057391882,-0.10618785,0.13636309,0.07723237,-0.078859754,0.30588597,0.009185117,0.001119703,0.25816163,0.43164867,0.16924018,0.08046422,0.19179863,0.28628987,-0.2655928,0.009218179,0.15038058,0.033480994,-0.039437197,0.0020708963,-0.27858764,0.44258776,-0.2518536,-0.31699157,-0.07442025,-0.10751578,0.038374934,-0.049502242,0.058400504,-0.18272486,-0.03699308,-0.23430178,-0.1362974,0.20506617,0.2733245,-0.023216851,-0.22025096
C5,0.4494483,-0.35071954,0.15951969,-0.018717596,0.21641137,0.15368044,-0.15357009,0.46653476,0.335393,-0.56000865,0.092259556,0.20538628,0.22303888,-0.044212677,0.03052273,0.03422933,-0.26680905,0.11987525,-0.5095912,-0.12614483,-0.16511613,-0.48253864,-0.031959437,0.12146646,0.37966317,0.19436388,-0.3599605,0.4037245,0.19955632,-0.52446723,-0.13608934,-0.38686728,-0.040943913,0.23738417,-0.2502912,-0.35244152,-0.0099157505,-0.56800437,-0.16255699,0.4835302,0.09696062,-0.17293125,0.33310047,-0.6247321,0.0034060404,0.08273211,0.3153234,0.34864053,-0.04669162,-0.22658598,0.026096176,0.54294413,-0.1006822,0.13751867,-0.56586736,0.16786183,-0.31548092,-0.06974151,0.16205923,0.24396425,-0.1360098,-0.2713493,-0.09298805,-0.3153042,-0.21876287,-0.18532541,-0.046013497,-0.29176438,0.12959792,-0.06417981,0.13541198,-0.19873744,-0.09099102,-0.04421643,-0.72982097,-0.052791506,-0.072664924,0.1560868,0.07525791,0.16528916,-0.3432053,0.30507255,-0.4432909,0.062066082,0.08388921,0.106660105,-0.1419789,0.46440068,0.33157733,0.09434573,0.45241445,-0.36939162,0.6714519,-0.33652815,-0.07235997,-0.028199155,-0.28119045,-0.101459295,-0.043726064,0.2720232,-0.0023335572,-0.13797869,0.40244585,0.15043277,-0.26220262,0.06148212,0.242969,-0.3442909,0.071193874,0.22506906,-0.02256202,-0.1473345,-0.29184023,-0.13259599,0.056340225,-0.18010393,0.75997376,0.2530514,-0.15322542,-0.15752909,0.1249218,0.0804499,0.13694195,0.061206743,-0.35511997,-0.12556426,-0.011737265,-0.25502136,0.12437653,-0.13873082,0.29981005,0.20326275,-0.020225942,-0.040900744,-0.027983883,0.33692735,0.14031675,-0.16629365,-0.13434306,0.021609187,0.2002872,0.124917984,-0.1769917,-0.056817427,0.0340041,0.40794325,0.0045994446,0.20374426,-0.1860905,-0.011870068,0.020714678,-0.058323015,-0.06543459,0.2914338,0.46162075,0.16878068,0.10395005,-0.09030596,0.04399194,0.11375367,0.08481893,-0.12970665,-0.17352673,0.23220806,-1.169579,-0.2449345,0.03777942,-0.08596815,-0.067079484,0.16278723,0.048756946,-0.17736065,0.35612762,-0.09763461,0.0028089136,0.067445956,-0.02259241,-0.08554499,-0.17686868,-0.22941932,0.23272887,0.29775956,-0.3708263,0.16440873,0.1275427,-0.29077104,0.0013736114,-0.018979944,0.046151645,-0.18915038,0.2406726,-0.17156553,0.081583485,-0.05381107,-0.11179364,0.051433604,-0.019688584,-0.024387766,-0.1800422,-0.57955265,0.13539112,0.45191443,0.17305991,0.17017743,0.5191858,-0.19427995,0.21446717,0.042684585,-0.14830089,-0.009870887,-0.616462,0.006984206,0.3497608,-0.14452669,-0.046544343,0.056318764,0.5830708,-0.005298443,-0.045059174,0.14246364,0.16652131,0.2069672,-0.15600006,0.33569682,-0.17850551,-0.0054388195,-0.33483303,0.12029422,0.51997286,-0.63097113,0.008852765,0.30231002,-0.32283208,-0.47295198,0.062411718,-0.29543865,-0.0990235,0.14072469,-0.012778003,0.011545103,-0.05109796,-0.077185474,-0.35463268,-0.21853441,-0.13266861,-0.20771813,-0.024984062,-0.30453032,0.06574534,0.021606542,0.49818644,0.19867301,-0.042169243,0.021173142,-0.07614576,-0.2118102,-0.20665604,0.532692,0.24839354,-0.19237757,-0.45635128,-0.13953575,0.03937946,-0.05983071,0.114310145,-0.23090118,-0.10934665,0.20725405,0.008927684,-0.21039274,-0.08032995,-0.11959403,0.05602023,0.008214973,-0.28596604,0.1658616,0.029133916,0.13916907,-0.23588353,-0.03284459,0.41027486,0.6159439,-0.04895106,-0.44194221,0.1088642,0.2906109,0.0494209,0.24665517,-0.00082371384,-0.4169734,0.08485264,-0.104638696,-0.048766036,0.39316913,-0.22507825,0.0787888,0.2352126,0.035510115,0.12892982,0.11708732,0.14319523,0.17057946,0.2242553,-0.12405781,0.10714159,0.15507439,-0.025933929,0.41129908,0.04824593,0.21594825,-0.22595504,-0.15724361,-0.031650152,0.15295586,-0.10140135,0.092709884,0.031573564,0.19151902,-0.39509887,-0.27901897,0.24314798,-0.006008409,0.099615455,0.322981,-0.14432901,0.02164603,0.13306952,-0.39274198,-0.30440044,-0.22153746,-0.023790725,-0.5820432,-0.25712582,0.3016485,-0.18725237,0.005562715,-0.19048685,-0.0550928,0.11110775,-0.31247908,0.071751684,0.741041,0.012127919,-0.13378957,0.030606985,0.23372117,-0.2772323,-0.043975864,-0.1001531,0.061587334,0.15598232,-0.09009785,-0.35447168,0.04227248,0.11292653,0.12405296,-0.10532707,0.19670877,-0.08634486,-0.43457225,-0.098679386,-0.21506435,0.23232831,-0.09524539,0.047637235,-0.011316352,0.3002919,-0.15330392,0.441317,-0.17002752,0.07333241,0.34509212,-0.32209635,0.33342683,-0.24769957,-0.044718195,0.03975809,-0.0060296208,0.3360423,0.15710223,0.064722724,-0.17247295,-0.1766485,0.056545332,0.23896605,-0.13976234,-0.28834122,0.29080236,0.097970895,0.0032181442,0.6850089,0.035283994,-0.21592447,0.3304421,-0.0864757,0.40252635,0.1572262,0.28910488,-0.41742182,-0.29482055,0.0013889968,-0.12248195,-0.32339564,-0.2232317,0.0802974,-0.15279931,0.6012677,-0.440346,-0.3888523,-0.20540753,-0.18368462,0.049183786,0.20459157,-0.58649683,-0.040013537,-0.032674894,-0.020026218,0.30394205,-0.20636633,-0.19723985,-0.3179501,-0.35892284,-0.30251896,-0.15397742,0.037901502,0.24924141,-0.3334384,-0.043393724,0.042374402,-0.37043038,-0.67372835,0.09660043,-0.20045123,-0.14085484,-0.7015625,-0.6648996,-0.37550828,-0.2282956,-0.13943756,-0.25077745,-0.21554175,-0.12701163,0.58117586,-0.5552743,-0.18905944,-0.028262943,-0.046175033,-0.38226357,-0.13910228,-0.21541952,0.045811817,0.37885076,0.3268467,0.27491623,-0.11451288,0.094953604,0.077748,0.36215788,0.35220486,-0.008684605,-0.030405533,-0.26174966,0.22457616,-0.23386826,0.07307784,-0.09573665,-0.34805468,0.15854196,-0.3305099,0.06953251,0.14565733,-0.3280306,0.22009271,0.22925976,0.24080577,-0.43680304,-0.2734579,-0.18139258,-0.047547974,0.0049677864,0.36210388,0.12282579,0.41527462,0.027314324,-0.02438251,0.08963814,0.49343783,-0.43761978,0.50372386,0.044648305,0.064996466,0.052776635,-0.5080996,0.36858428,0.06343013,0.013815828,0.29540008,-0.2607903,0.14189014,0.22289234,-0.14716199,0.19517627,0.18355721,-0.15586922,0.03728867,-0.53896874,-0.016643777,-0.5311437,0.11695191,-0.22329783,0.3374502,0.05217325
C6,0.008183319,0.34392038,-0.20353082,-0.21452013,0.018825658,0.11877549,0.17639884,0.17679009,-0.004345292,-0.33334026,0.013495168,0.3679236,0.34762344,-0.0024245642,-0.44336683,0.13200441,-0.2529486,0.19790214,0.04227347,0.44347706,0.022393033,-0.3070794,-0.02272594,-0.21374321,0.17642127,-0.12942758,-0.00079621375,0.09506285,0.13720499,-0.104494154,-0.39401776,-0.4646142,0.076340534,-0.20905927,-0.08610173,-0.22014344,-0.087361336,-0.3333309,-0.026844515,-0.14625475,-0.02371353,0.1019383,0.10997175,0.07614978,0.34149358,-0.22240749,0.18554616,0.10469841,-0.08357132,-0.10094553,0.3210176,0.32277325,-0.32281983,-0.29768813,-0.31914166,-0.14678586,0.11636859,0.18342221,-0.068822876,-0.24633527,0.13430181,-0.39253888,0.07853199,0.14299324,-0.07892994,0.22153047,0.20234092,-0.18734908,-0.13416272,-0.049946878,-0.061279356,-0.2621773,0.32743508,0.1269109,-0.06434057,-0.2757523,-0.003276281,0.42066196,0.045112465,0.6171879,-0.2510382,-0.10447258,-0.20680186,-0.07036695,-0.045175187,0.36629772,-0.038917094,-0.28490174,0.2891754,-0.5087991,0.43485945,0.04989635,0.24367297,-0.06555249,0.032614604,-0.34227565,-0.14589989,-0.15583068,-0.14188677,-0.42724532,-0.0022537392,0.06856663,-0.1285235,0.31105623,0.05542121,0.07945056,-0.01254724,-0.1721698,0.18624867,-0.35334575,0.24111357,0.20349443,-0.16169825,-0.02750878,-0.18745208,0.06858094,0.3633076,0.50868315,0.38514972,0.34257278,-0.47464532,-0.3271899,0.21816261,-0.33919394,-0.14637306,-0.10414553,-0.07776837,-0.051104438,-0.2839616,-0.38944635,-0.50513244,0.33228543,0.44240856,0.073514715,-0.2164829,-0.29466027,-0.3270545,0.24338824,0.37127572,-0.39125934,0.5269749,-0.43381742,-0.11934348,-0.3345346,0.066944614,0.12214124,-0.40298972,0.231406,0.15781063,0.4973741,0.010087177,-0.048638392,-0.18515915,0.34578207,0.48435417,0.16051485,0.030924857,-0.080834,0.028702777,-0.36843508,-0.27178663,-0.11371177,-0.11917938,-0.18428358,-0.27476466,-0.5776093,0.30779782,-0.004231386,0.029284377,-0.22798666,0.18540719,-0.24892223,-0.06626508,-0.28047445,0.1280566,0.39860967,-0.0036485605,-0.10612841,-0.2577467,-0.27851263,0.015825469,0.3036421,-0.030585174,-0.043861408,-0.12634218,0.5226319,0.061671827,-0.38170975,0.025298297,-0.028435059,0.23607029,-0.12031233,0.30740157,-0.012800209,-0.002328096,-0.36914152,0.21258527,-0.6408574,0.40890497,0.41353518,0.061067693,-0.10937623,0.009956118,-0.12412128,0.11299597,-0.16497825,0.01830693,-0.0012682527,-0.279511,0.104986,0.09124542,-0.75094795,-0.66132486,0.45791692,0.10590047,-0.06516548,0.14284354,-0.45268255,0.60358346,0.22244374,0.23202392,0.124817334,0.05126825,0.06781459,-0.1782543,0.0050275847,-0.4185763,0.08039535,-0.20104082,-0.5782068,-0.079548456,-0.31844953,-0.45663497,-0.013362827,-0.33014816,-0.53327966,0.1258881,0.030868426,0.21952192,0.27248257,0.07851628,0.20778468,-0.11787207,0.33022007,0.12907688,0.13534048,-0.41874498,-0.077621624,-0.46082652,0.12545657,-0.11774983,-0.3939451,0.18192005,-0.3265106,0.0903622,-0.12570108,-0.048856147,-0.50211364,0.039509416,-0.23163077,-0.02205788,0.20006296,0.22986801,-0.18945035,-0.07598437,-0.1954066,0.1894382,-0.24491233,0.19032964,0.23113982,-0.39176318,-0.2578311,-0.24330351,0.10007961,-0.85798705,-0.40454462,-0.12882182,-0.051921524,-0.18429515,0.08479225,0.029549707,-0.071900144,-0.08356728,-0.10975966,-0.41561532,0.0035808235,0.23305464,0.032084182,0.41344532,-0.23843665,-0.07228951,0.39440453,0.6664894,-0.13697675,-0.0642523,0.32644367,0.4688721,-0.020045966,-0.0037723258,-0.28166288,-0.05870183,0.06132146,-0.12195921,0.0726198,-0.14650479,-0.18318008,-0.22910374,0.17164549,-0.038069744,-0.061084084,-0.0034415834,0.25918037,-0.057064474,-0.02903198,0.64493823,-0.17982176,0.24018726,0.18619385,-0.1697078,-0.18922403,0.12639894,-0.14008337,0.40513596,-0.19563714,0.060530502,0.0070201457,0.16831224,0.2597509,0.08659336,-0.5465291,-0.0691915,-0.94346386,-0.8523702,0.50289685,-0.36741382,-0.064385325,-0.66980666,-0.47375315,-0.3329511,-0.24675062,0.06986761,0.03645418,0.20833436,-0.31250566,-0.39897695,0.40015668,0.20906678,0.58826154,-0.17842214,-0.18624869,0.14393789,0.10657068,0.34767604,-0.59554076,0.3684757,0.124660544,0.033167265,0.016298331,0.3098968,0.106056996,-0.5440413,0.29046816,-0.13498542,0.08776918,0.11828395,-0.33449328,0.06831768,0.12126849,-0.5782792,0.3291129,-0.18885845,0.85708725,0.19060123,0.2498549,0.05051014,0.11614644,0.010615218,0.027795807,0.15638731,0.1982631,-0.20834032,0.15342453,0.080796055,0.13180757,-0.5442369,-0.068901055,0.122766554,0.45338824,0.2442452,-0.42575562,-0.045931533,-0.017735124,-0.56483024,0.21600485,-0.33001906,0.09966996,0.115901254,0.25273418,-0.26174623,-0.122147664,0.37333238,-0.6086146,-0.30297968,-0.24594212,0.17514637,-0.15133253,0.07615785,-0.3113744,-0.022569828,-0.22507365,-0.43865266,0.13805921,-0.1397984,-0.07234724,-0.17307726,-0.35630447,-0.49013036,-0.36054948,0.28886297,-0.4837202,0.036910426,-0.05231496,0.4983623,-0.38163182,-0.26193386,0.1443483,0.022956274,-0.12509185,0.16040927,0.23816678,0.34438014,0.021102965,-0.02512645,-0.3250841,0.14682052,0.2428514,-0.2778804,0.011705235,-0.26016137,-0.080349356,0.035772063,0.17758629,0.108141094,0.3417443,0.20131606,-0.1298829,0.056260522,0.015627265,0.4398839,-0.11265996,-0.21465477,0.43745756,-0.12226976,-0.19517182,-0.2946691,0.06780994,-0.2373575,-0.25393805,-0.058316085,-0.3055371,-0.37201223,0.066656515,0.039763007,0.20578608,0.0074758977,0.065603144,0.024816543,-0.13508049,0.08983687,-0.3136357,0.21052021,-0.06328453,-0.47693813,-0.11475811,0.29214042,-0.22644547,0.1986221,-0.16682637,0.028059848,0.12377438,-0.15889628,-0.0959875,0.07823636,-0.14507234,0.28796786,-0.21015397,0.09874301,0.4833639,-0.35132325,-0.21427986,0.19973895,0.40973264,-0.073674016,0.30848834,-0.23022878,0.4794853,-0.2858827,-0.047564052,0.2109017,-0.67204916,-0.13863432,-0.2701847,-0.20333458,-0.042757593,-0.33877158,-0.23011124,-0.16073912,-0.13776153,0.052901186,0.4191342,-0.11736641,-0.2906703
