DiseaseID,feature_1,feature_2,feature_3,feature_4,feature_5,feature_6,feature_7,feature_8,feature_9,feature_10,feature_11,feature_12,feature_13,feature_14,feature_15,feature_16,feature_17,feature_18,feature_19,feature_20,feature_21,feature_22,feature_23,feature_24,feature_25,feature_26,feature_27,feature_28,feature_29,feature_30,feature_31,feature_32,feature_33,feature_34,feature_35,feature_36,feature_37,feature_38,feature_39,feature_40,feature_41,feature_42,feature_43,feature_44,feature_45,feature_46,feature_47,feature_48,feature_49,feature_50,feature_51,feature_52,feature_53,feature_54,feature_55,feature_56,feature_57,feature_58,feature_59,feature_60,feature_61,feature_62,feature_63,feature_64,feature_65,feature_66,feature_67,feature_68,feature_69,feature_70,feature_71,feature_72,feature_73,feature_74,feature_75,feature_76,feature_77,feature_78,feature_79,feature_80,feature_81,feature_82,feature_83,feature_84,feature_85,feature_86,feature_87,feature_88,feature_89,feature_90,feature_91,feature_92,feature_93,feature_94,feature_95,feature_96,feature_97,feature_98,feature_99,feature_100,feature_101,feature_102,feature_103,feature_104,feature_105,feature_106,feature_107,feature_108,feature_109,feature_110,feature_111,feature_112,feature_113,feature_114,feature_115,feature_116,feature_117,feature_118,feature_119,feature_120,feature_121,feature_122,feature_123,feature_124,feature_125,feature_126,feature_127,feature_128,feature_129,feature_130,feature_131,feature_132,feature_133,feature_134,feature_135,feature_136,feature_137,feature_138,feature_139,feature_140,feature_141,feature_142,feature_143,feature_144,feature_145,feature_146,feature_147,feature_148,feature_149,feature_150,feature_151,feature_152,feature_153,feature_154,feature_155,feature_156,feature_157,feature_158,feature_159,feature_160,feature_161,feature_162,feature_163,feature_164,feature_165,feature_166,feature_167,feature_168,feature_169,feature_170,feature_171,feature_172,feature_173,feature_174,feature_175,feature_176,feature_177,feature_178,feature_179,feature_180,feature_181,feature_182,feature_183,feature_184,feature_185,feature_186,feature_187,feature_188,feature_189,feature_190,feature_191,feature_192,feature_193,feature_194,feature_195,feature_196,feature_197,feature_198,feature_199,feature_200,feature_201,feature_202,feature_203,feature_204,feature_205,feature_206,feature_207,feature_208,feature_209,feature_210,feature_211,feature_212,feature_213,feature_214,feature_215,feature_216,feature_217,feature_218,feature_219,feature_220,feature_221,feature_222,feature_223,feature_224,feature_225,feature_226,feature_227,feature_228,feature_229,feature_230,feature_231,feature_232,feature_233,feature_234,feature_235,feature_236,feature_237,feature_238,feature_239,feature_240,feature_241,feature_242,feature_243,feature_244,feature_245,feature_246,feature_247,feature_248,feature_249,feature_250,feature_251,feature_252,feature_253,feature_254,feature_255,feature_256,feature_257,feature_258,feature_259,feature_260,feature_261,feature_262,feature_263,feature_264,feature_265,feature_266,feature_267,feature_268,feature_269,feature_270,feature_271,feature_272,feature_273,feature_274,feature_275,feature_276,feature_277,feature_278,feature_279,feature_280,feature_281,feature_282,feature_283,feature_284,feature_285,feature_286,feature_287,feature_288,feature_289,feature_290,feature_291,feature_292,feature_293,feature_294,feature_295,feature_296,feature_297,feature_298,feature_299,feature_300,feature_301,feature_302,feature_303,feature_304,feature_305,feature_306,feature_307,feature_308,feature_309,feature_310,feature_311,feature_312,feature_313,feature_314,feature_315,feature_316,feature_317,feature_318,feature_319,feature_320,feature_321,feature_322,feature_323,feature_324,feature_325,feature_326,feature_327,feature_328,feature_329,feature_330,feature_331,feature_332,feature_333,feature_334,feature_335,feature_336,feature_337,feature_338,feature_339,feature_340,feature_341,feature_342,feature_343,feature_344,feature_345,feature_346,feature_347,feature_348,feature_349,feature_350,feature_351,feature_352,feature_353,feature_354,feature_355,feature_356,feature_357,feature_358,feature_359,feature_360,feature_361,feature_362,feature_363,feature_364,feature_365,feature_366,feature_367,feature_368,feature_369,feature_370,feature_371,feature_372,feature_373,feature_374,feature_375,feature_376,feature_377,feature_378,feature_379,feature_380,feature_381,feature_382,feature_383,feature_384,feature_385,feature_386,feature_387,feature_388,feature_389,feature_390,feature_391,feature_392,feature_393,feature_394,feature_395,feature_396,feature_397,feature_398,feature_399,feature_400,feature_401,feature_402,feature_403,feature_404,feature_405,feature_406,feature_407,feature_408,feature_409,feature_410,feature_411,feature_412,feature_413,feature_414,feature_415,feature_416,feature_417,feature_418,feature_419,feature_420,feature_421,feature_422,feature_423,feature_424,feature_425,feature_426,feature_427,feature_428,feature_429,feature_430,feature_431,feature_432,feature_433,feature_434,feature_435,feature_436,feature_437,feature_438,feature_439,feature_440,feature_441,feature_442,feature_443,feature_444,feature_445,feature_446,feature_447,feature_448,feature_449,feature_450,feature_451,feature_452,feature_453,feature_454,feature_455,feature_456,feature_457,feature_458,feature_459,feature_460,feature_461,feature_462,feature_463,feature_464,feature_465,feature_466,feature_467,feature_468,feature_469,feature_470,feature_471,feature_472,feature_473,feature_474,feature_475,feature_476,feature_477,feature_478,feature_479,feature_480,feature_481,feature_482,feature_483,feature_484,feature_485,feature_486,feature_487,feature_488,feature_489,feature_490,feature_491,feature_492,feature_493,feature_494,feature_495,feature_496,feature_497,feature_498,feature_499,feature_500,feature_501,feature_502,feature_503,feature_504,feature_505,feature_506,feature_507,feature_508,feature_509,feature_510,feature_511,feature_512
C1,-0.40623102,0.013711005,-0.2471962,0.11725228,0.0867252,-0.35395074,0.27668154,0.39013478,0.027225956,-0.35588068,-0.21889742,0.2302936,0.201914,-0.14975995,0.6629211,0.2845122,0.17507236,-0.15819862,-0.013795003,-0.038661435,-0.09072224,0.17771047,0.13013239,0.114833236,0.030126475,-0.29024965,-0.26829055,0.15406242,0.02526027,-0.5128796,-0.26460662,0.094217524,-0.38522917,0.041075323,-0.10825039,0.44317874,-0.010900766,0.020849187,-0.20382816,0.041387573,0.15991277,0.055785444,0.4241773,-0.009981029,0.39444664,0.12539169,0.56960005,0.16609937,-0.023872003,-0.10202505,0.024064146,-0.11587582,0.123451255,-0.12841088,0.1354531,-0.32843402,0.1546284,0.25350994,-0.0068672597,-0.16596437,0.45330295,0.24796686,-0.26513305,-0.20617479,-0.026634268,-0.029322954,0.22067118,-0.28882068,0.070163384,0.34436935,-0.29680112,-0.032929383,-0.35341555,0.20893809,-0.087335326,-0.09076306,-0.5305624,-0.09676655,-0.2922332,-0.00059856474,0.22535819,-0.051189177,-0.21524656,-0.537058,-0.24199948,-0.20164357,0.20187029,0.5568597,-0.0943962,0.024584398,-0.0108021945,0.14821899,-0.05273069,0.10284275,0.2206213,0.090742275,0.18412727,0.25841352,-0.25100985,-0.23012295,0.45734954,0.31220013,0.2515377,0.5089334,0.15063964,0.20392728,-0.19320752,-0.13359731,-0.21264312,-0.116241805,0.33429828,0.1926242,0.31647202,0.17618534,-0.03919208,0.06303574,0.3998071,-0.3149264,-0.049613692,0.22827867,-0.018749088,-0.18245807,-0.17182991,0.082494795,-0.29553342,0.281129,0.44649562,-0.24409464,-0.08029949,0.17021582,-0.18534201,-0.17217268,-0.4044282,0.08288406,-0.076924704,0.27117878,0.22733459,0.17792374,-0.4581774,0.15673164,-0.35489127,-0.07445948,-0.027414382,0.26482767,0.14857745,-0.35984504,-0.16773084,-0.07288702,-0.14828408,-0.06937864,-0.06076736,-0.269162,0.016533187,0.2650698,-0.021897644,-0.25127208,-0.16953737,-0.2693265,-0.45885703,-0.019904703,0.0063425973,0.09108987,0.49888754,0.25735432,0.32592955,0.006880395,0.0021903813,-0.37298796,0.19800466,-0.21623042,-0.10979034,0.21338692,-0.28177094,-0.11529515,0.011181809,-0.26498216,0.32068235,-0.10041792,0.07213556,-0.19486026,0.284507,0.19605684,0.03864515,-0.10068678,0.017967746,-0.35617748,0.104364924,-0.27275214,0.25958097,-0.15719205,-0.19732821,0.17654869,0.059460722,0.03601839,0.19161376,-0.2929482,-0.077887796,-0.19071758,-0.03867667,-0.30618906,0.11041765,0.059254177,0.10603885,0.26612207,-0.06003139,0.2627045,-0.41948298,-0.2535628,-0.41259444,0.033588946,0.110063575,-0.13667852,-0.15085508,-0.27276227,0.21927482,0.0784759,0.24578588,0.20347184,0.107822016,-0.21048975,-0.006542243,-0.42108294,-0.4618262,-0.1887184,-0.68387735,0.41194773,0.04777415,-0.04204344,-0.02097109,-0.39260733,-0.08181803,-0.11336323,-0.04154408,-0.06912572,0.08095748,-0.06072691,-0.20474821,0.0116157085,-0.103358574,-0.003373593,0.07315685,-0.013984904,0.043273196,-0.057390608,0.5659989,-0.08192098,0.071321465,-0.07824179,-0.28488272,-0.069699444,-0.4270588,-0.2922026,-0.51974785,0.16382557,-0.18519181,0.009061325,0.12909344,-0.7249043,0.24632461,0.46333614,-0.13395905,-0.30468932,0.30159348,0.06334782,0.026103526,-0.18339531,0.095831275,0.49289596,-0.075459406,0.11981444,0.024437346,0.31778982,0.00090546906,0.07326174,-0.039588273,0.05302938,0.16531041,0.053202372,-0.52075076,0.0032807887,-0.05923945,0.24548614,0.057646904,0.014424488,-0.4374231,0.29339427,0.023940388,-0.01498583,0.066755705,0.12019858,0.29661894,-0.48166144,-0.4061861,0.5301132,-0.16635877,-0.23608503,0.056304716,-0.14391926,0.34676132,0.37481704,0.21760689,0.035311103,-0.073721185,0.045992136,0.01654606,0.1407403,0.42908043,0.08675058,-0.044174038,-0.07610561,-0.24205683,-0.43481556,-0.1212706,0.19097552,-0.05448538,0.20483744,-0.1281637,-0.1923631,-0.040369432,0.009551212,-0.01395268,0.09563111,0.44505265,-0.28916764,0.2009078,0.23005682,-0.16620032,-0.30746832,0.5371514,-0.46631253,0.37339485,-0.18106973,-0.14655769,0.041241713,0.34564564,-0.37794757,0.2479617,-0.05541417,-0.4762582,-0.28418195,-0.062305797,-0.23757628,0.011875857,0.38039875,-0.06597113,-0.29544234,0.2702338,-0.22044963,0.37545204,0.09713874,0.649185,-0.07070316,-0.40013206,-0.342299,-0.4006375,0.72022396,0.22698304,0.029022917,0.27977207,0.25332427,-0.08904506,0.24927953,0.42978692,0.15711835,-0.24947004,-0.2130099,0.25417593,-0.023628883,-0.13516903,-0.118283674,0.28763855,0.48433948,-0.19094066,-0.1802772,0.083837464,0.0036456436,-0.1852865,-0.19706294,0.044942275,-0.421894,0.11432459,0.054719836,0.20511723,-0.3201412,0.08694357,-0.11547489,-0.1522165,-0.11702006,0.05290604,-0.04240206,0.24974379,-0.24401093,-0.14599335,-0.19016099,-0.26084918,-0.25763127,-0.02775854,0.12161872,-0.15608025,-0.25175712,0.11051454,-0.20635486,-0.25254667,-0.073413976,-0.085839555,0.0031318367,0.42782062,0.32272232,-0.46908748,0.17838718,-0.53659445,0.27353546,0.49375755,-0.26722783,-0.06316361,-0.30740115,0.11693093,0.038392324,0.45451668,-0.022374649,-0.08997841,-0.041041955,-0.22831544,-0.16984496,0.10424174,-0.47741416,0.12381111,0.35831603,-0.16879779,-0.2554065,-0.07367167,-0.284165,0.3700629,0.1862334,0.22646996,-0.54918414,-0.20693418,-0.3364481,-0.029491924,0.052690707,0.23354241,0.09529844,-0.15620118,-0.09567537,-0.000288561,0.15089776,-0.033944465,0.009829618,0.16473985,0.56621444,-0.31142846,0.18209147,0.1658456,-0.30529284,0.25058782,-0.06939383,-0.30748734,0.116163276,-0.0678035,-0.07701911,0.021730095,0.037565008,-0.13500848,-0.05553464,-0.024631687,-0.111407794,0.27837503,-0.17922384,0.28970727,0.7150666,0.16079375,0.20425256,0.24489403,0.14216207,-0.0565949,-0.5931877,-0.16441192,-0.10253591,-0.049206518,-0.34002113,0.060925297,0.08355015,-0.3129294,0.06539764,-0.4554251,0.19781977,-0.16263461,-0.040685035,-0.10476161,-0.1320331,-0.2675799,0.04932183,-0.24014148,-0.3975019,-0.032464467,0.19815744,0.109971605,-0.31861922,-0.05120688,-0.22648636,-0.27925834,0.1315678,-0.1798318,0.41778374,0.24836695,0.025496624,-0.13472159,-0.4233997,0.14152113,0.37101763,-0.1262632,-0.23768157
C2,-0.4661797,0.13041417,0.03503842,0.22358245,-0.15709326,0.26615506,-0.083041765,-0.14240173,0.5847047,-0.28647515,0.034801252,-0.004002087,-0.18859087,-0.08818787,0.25230458,-0.56992644,0.033519153,0.115939155,0.04302121,0.29270074,0.29621172,0.10469717,0.42443535,0.39415392,-0.09535203,-0.23083848,-0.49893898,0.0675764,-0.16765249,-0.37837663,-0.23126632,0.34752572,-0.06256525,0.47761184,0.10113492,0.24660659,-0.26090515,0.32072166,-0.057284735,0.13261378,0.028530803,-0.18481049,-0.22834969,-0.46492267,-0.14417857,0.36366653,-0.1730882,0.13706818,-0.63079387,0.12026127,-0.41233295,-0.26796934,-0.06610216,0.26597765,0.16989082,-0.29609835,0.08247222,-0.054559328,-0.10660867,0.16855787,-0.04135891,0.07502863,0.070201024,-0.07280051,0.023759667,-0.111679025,-0.116136596,-0.5165528,0.010633551,-0.14258173,0.05084386,0.12674437,-0.5326323,-0.37326092,0.070941076,-0.2252214,-0.38783222,-0.085761786,-0.1571008,-0.24924324,-0.47771496,-0.5818845,0.20266566,-0.25473976,-0.45877373,-0.14584994,-0.21958321,-0.3226346,-0.14744791,0.16616778,0.18087626,0.13396215,-0.25524417,-0.03865026,-0.49964768,-0.22077468,-0.04750319,0.14058328,0.47293153,-0.31609076,-0.051492568,0.22454634,-0.56538403,0.37760377,-0.3566779,-0.08404095,0.39923042,-0.22442062,0.11429648,-0.3647949,-0.017836928,0.078776814,-0.23437776,-0.03645269,0.21307014,-0.09648055,0.21155265,-0.11966451,0.32080612,-0.25170064,0.018725894,-0.14670491,0.070716165,0.0028893389,0.36562294,0.27767837,0.14779066,-0.00846589,0.14911053,0.25215477,-0.1612482,0.31139076,-0.33053142,0.23812765,-0.007863507,-0.32617572,0.047741596,0.066858925,-0.23061655,-0.0011005774,-0.24666083,0.09940802,0.3689058,-0.13901956,-0.010598227,0.25152496,-0.12408335,-0.08643384,0.07101315,-0.29933584,-0.023330413,-0.15616855,-0.06051696,-0.13098118,-0.22067063,-0.13559827,0.24925381,-0.076915964,-0.40664324,-0.35632005,0.43684718,-0.052579552,0.6125454,0.48305112,-0.34892967,0.11979219,-0.09756864,0.034655176,0.025408804,0.2060419,-0.49163988,-0.25811428,-0.030606173,-0.10458615,-0.29670966,-0.26277268,0.19610035,0.38453257,-0.07494603,-0.5004505,-0.23072428,-0.47620675,0.14987029,0.17324069,0.29309115,0.22081542,-0.101231374,0.45438737,0.30703524,0.05331769,0.17698339,-0.32939598,0.07293563,-0.15494537,0.059654508,-0.27138594,-0.14233394,-0.5685683,0.16229063,0.177098,-0.0019031689,0.17543432,0.12713933,0.059057742,0.11440661,0.20928131,0.03346324,0.3540518,-0.29811594,-0.07691738,0.11217716,0.39996532,0.047770847,-0.34685925,-0.005042203,0.2622339,-0.07311014,0.37382972,-0.79551595,-0.13921954,-0.23593175,0.2188081,-0.3240189,-0.26042834,0.15532903,0.4341073,0.12669775,0.31591216,-0.3522253,0.27073768,-0.1012616,0.13857538,0.3762596,-0.16629422,0.027830645,-0.24313197,0.17901336,0.33024004,-0.07900778,-0.52784634,-0.4886301,-0.123117566,0.4075476,-0.06172216,0.28118142,0.0987458,-0.17139597,0.23361748,-0.16436687,0.11418237,-0.105239786,-0.18452859,-0.12039209,0.12860698,0.033510834,0.13366309,0.1932801,-0.71770924,-0.12728502,0.5231735,0.10304328,-0.25244877,-0.36852327,0.0033762008,0.22813007,0.24226585,0.29539967,-0.1398348,0.09059707,0.2998185,-0.44719842,-0.24420166,0.22078167,0.30329373,-0.25195825,0.07370161,0.082231194,0.42320672,0.018789493,-0.12404734,0.7082325,0.01760653,0.30832228,-0.3327411,0.1772578,0.042502254,0.11147594,-0.4377619,-0.10537823,0.049174007,-0.3056183,0.29124254,-0.02460033,0.32676712,0.023106597,-0.1833117,-0.26761466,0.18079206,-0.3397478,0.70679307,0.20991422,0.344759,-0.21664828,0.24546258,-0.5539474,-0.4055815,-0.15704092,0.12653759,-0.3893562,0.3609689,-0.41793138,0.21995288,0.027397893,-0.34817255,-0.14910175,0.42442545,0.0133533515,0.114357874,0.039528027,-0.09309799,0.12800458,0.048860997,0.2507436,0.6209467,0.2427991,-0.54150206,0.1215773,0.18028444,0.45822632,-0.20994994,-0.049357824,-0.4260196,-0.44363964,0.34574735,0.13233826,-0.4565033,0.10184531,0.31358135,0.058117952,0.09299999,-0.43695444,-0.32122496,-0.036073662,-0.18379986,0.0049863234,0.2935964,-0.54558015,-0.07476955,-0.06776614,0.009947907,0.114962764,-0.29483053,-0.2293767,0.17536163,0.14474726,0.31098425,-0.021447323,0.16447823,-0.36647356,-0.16702679,-0.28207704,-0.30778053,-0.05367101,-0.10449565,-0.10761535,-0.17227814,0.32481438,-0.025268659,0.6073377,-0.18503164,-0.3612498,-0.47514218,-0.14250082,-0.15411007,0.23446667,0.06862472,-0.05071776,0.11294378,0.1696319,-0.06434657,-0.1952874,0.4961281,0.25687203,0.15887535,0.04414007,-0.3046459,-0.021655016,-0.3335555,-0.05714277,-0.08524482,0.097930424,-0.23153555,-0.23508108,0.035704665,-0.2744062,0.35393232,0.07459561,-0.48556757,-0.12015819,0.3865601,0.29580215,0.24965465,-0.327981,0.04150264,-0.034953002,0.12254533,-0.34856787,-0.0704844,0.018464692,-0.44523552,-0.12584406,-0.10815936,0.69944876,0.14593738,-0.24557534,0.079904094,-0.1971898,-0.31766328,0.12674697,0.14269209,-0.5919151,-0.24762702,-0.45286903,-0.2162663,0.112215236,0.14865346,0.08477793,-0.19763675,-0.11664357,-0.24193393,-0.50305295,-0.07290281,0.025314726,-0.38742575,-0.8525036,-0.013979197,0.31528,0.15731552,0.29046223,0.56851476,0.39982116,-0.11015554,-0.19599983,-0.12488289,-0.0840189,0.2218245,-0.29403886,0.27797717,-0.15707284,0.553,-0.42644018,-0.11990825,0.28183547,0.41655552,0.115504816,-0.082589634,-0.20872837,-0.15545821,-0.5220402,-0.27492625,-0.005491499,-0.13845447,-0.17976317,0.18682826,0.30554286,-0.08967657,0.39691427,-0.051683694,0.27890694,0.40232083,0.28786358,0.12596188,0.06666082,0.009886544,0.01328595,0.37590218,0.09930542,-0.18923873,-0.0026088618,-0.16243611,0.08045422,0.26551044,-0.12605828,-0.31806064,-0.2990751,0.2932692,-0.034847163,-0.13538228,0.37996945,-0.47771242,-0.24283153,-0.12559232,-0.040574484,0.45769244,-0.3491039,0.32228565,-0.108808726,0.24055222,-0.28957888,0.08916566,-0.10833893,0.011840254,0.16509312,0.30981022,-0.6236295,-0.014588095,0.22328632,-0.7156802,0.28763777,-0.17241597,0.5701264,0.3417449
C3,0.18615365,-0.24992524,-0.38852307,0.3562771,-0.060796164,-0.22350623,0.4689554,0.5874886,0.26587248,-0.1509045,-0.4809193,-0.032741852,-0.16075535,0.010977492,0.16680382,0.10967234,-0.12021403,0.24367583,-0.14821318,0.3895537,-0.15876648,0.26585513,-0.111998014,0.50971454,0.024236634,-0.06632097,0.22840661,0.19759196,-0.17230833,-0.25676084,0.040435947,0.44017476,-0.033454474,-0.034599837,-0.081310414,-0.36785725,-0.0340313,0.07717987,-0.13977519,0.24407227,0.37431926,-0.39432278,0.4160385,0.22079492,0.16992201,0.08991905,-0.13132438,-0.011483386,-0.09989957,-0.59269226,0.13826488,0.13860056,-0.5385208,-0.19630872,0.073993534,0.019556563,0.07926752,0.11513266,-0.07094259,0.023666415,-0.29705554,0.6114083,-0.48277345,0.17807338,0.26363435,-0.027504668,-0.17807627,-0.128535,0.4134897,-0.1985498,0.52527285,-0.3882706,0.0051719397,0.04229472,0.24998002,0.14797875,-0.06097736,0.324001,0.18317361,-0.12917924,-0.082388744,0.09838997,0.32618028,0.006458968,0.12586412,-0.23336814,0.022491448,-0.07373006,0.14810023,-0.12240592,0.17086422,-0.5295786,-0.014971983,-0.28278366,0.07154153,-0.47652084,-0.07111989,0.11993539,0.16827282,-0.47099516,-0.030525085,0.26030558,0.022527143,0.13900346,-0.10298408,-0.07164116,-0.16155432,-0.22271653,0.3094988,0.02281215,0.23673937,0.10069083,0.120856896,0.0153461695,0.2735501,0.20427367,-0.1302017,0.13015895,0.07069501,-0.05512003,0.2349276,-0.36581096,-0.361777,-0.2940514,0.24081762,-0.1280044,-0.6532817,-0.13621399,0.6071872,0.09480525,-0.12198831,0.7168996,-0.051301084,-0.3709024,-0.003235992,0.26879364,0.17143625,0.24996957,0.15315814,0.28531238,-0.06901564,0.12963325,0.019301303,0.022556048,0.015117133,-0.396157,0.27826205,-0.1349668,-0.29807234,0.28740573,0.046965767,0.010508699,-0.18322068,0.09839145,0.31663656,-0.24300598,-0.23035416,-0.060202554,-0.1404783,-0.4033162,0.010296386,-0.13483427,-0.05720205,0.29449904,-0.17361245,-0.09430239,0.25670102,-0.2431272,-0.37754318,-0.1392194,-0.2994125,0.24120441,-0.11395943,0.09310397,-0.15315598,0.644318,-0.28174818,0.58546233,-0.27204177,0.09311487,-0.24482402,0.16979426,0.47743106,0.32732525,0.8341971,0.13303447,0.43205076,0.3142044,-0.07574069,-0.222334,-0.080698326,0.13145372,-0.115016,-0.11248777,-0.12804121,0.38914016,0.31547737,0.0833028,-0.23420894,0.0862617,-0.01701115,-0.1902813,-0.1764214,0.06019907,-0.13453314,-0.16733584,-0.12124383,0.44909015,0.016231574,-0.594025,-0.061064772,0.008016631,0.063092366,0.039659094,-0.081645705,0.28799602,0.023212582,0.19159865,0.2080336,-0.49894875,0.80577004,0.3965117,-0.53874195,0.12750126,0.13694543,-0.07840408,0.18376394,-0.038365714,0.22250691,-0.029109512,0.56332296,0.12217408,-0.102452956,-0.24829513,0.2448774,0.0059414133,0.4570903,-0.39610234,0.09009301,-0.17153713,-0.19595478,0.21258315,0.20969619,-0.15434554,0.19482456,0.116440795,0.019254114,0.2106947,-0.0728753,0.2122837,-0.40215793,0.3174935,0.08914766,-0.4676356,0.11991563,0.2130245,-0.03855122,-0.11369718,-0.24146049,0.03336254,0.46889096,0.31399372,-0.3709875,0.11862166,-0.2110858,-0.20660114,0.13092108,-0.064171396,0.25541976,-0.4246801,-0.17862251,0.5039473,-0.25258946,0.31814718,0.1043811,0.33964005,0.04911669,-0.14100543,0.39233443,0.05282408,-0.08069484,-0.19512653,0.41970542,0.42052677,0.35337856,-0.05730561,-0.079542406,-0.15532088,0.06839568,0.49086046,-0.14987783,-0.28289288,0.20634463,0.23621204,0.24150535,0.38719174,-0.31027603,-0.13467309,0.15082547,0.1447631,-0.107232496,-0.3222797,-0.27285656,-0.16700603,-0.11162563,-0.19558167,0.081429936,0.12453807,-0.7472502,0.06279766,-0.4148646,0.014979705,0.51331264,0.20320204,0.12168637,0.15872149,0.27158552,0.47834954,-0.16470325,0.4692898,-0.4005359,-0.023669466,-0.08465196,-0.34759653,0.58935153,0.010169648,-0.2124448,0.017153703,-0.06194464,-0.087073006,-0.2165483,0.15438439,-0.24204077,-0.30184886,0.045088716,-0.23866345,-0.3245938,0.2709816,0.27856353,-0.17284173,-0.20095243,-0.21737295,-0.38818595,0.7241686,0.07856101,0.04853324,0.053016536,-0.37995023,0.5434262,-0.24340963,-0.3343078,-0.29409805,-0.19107139,-0.46214265,-0.2449127,0.18391564,-0.15846008,-0.07124516,0.235372,0.07434291,-0.40917644,-0.052922223,0.21641687,-0.44958383,-0.24201903,-0.20915881,0.10048404,-0.0453969,0.09309695,-0.2515405,0.19931653,0.18621512,0.16831988,-0.058086682,0.13587871,-0.15090552,0.035034608,0.1976683,0.0784031,-0.25355667,-0.32099962,-0.1106609,-0.40361476,0.4765514,0.5397119,-0.051595557,0.5037563,0.3544123,-0.6017731,-0.049603652,-0.10683756,-0.08344255,0.069716945,0.22041827,0.0071704537,0.4453867,-0.5295884,-0.31545693,0.09031192,0.13502228,-0.20755693,0.27850094,-0.09123357,0.12722854,0.10469885,-0.11133847,0.15947075,-0.13032001,0.43033627,0.0641402,-0.34299898,-0.21117204,0.06975593,0.679466,0.50631976,-0.646538,-0.06775189,0.16437992,-0.03778208,-0.2994092,-0.24997166,-0.09026818,0.023232123,-0.061540194,-0.10182729,-0.13995892,0.20654689,0.09462233,-0.10216088,-0.2826848,-0.19066805,0.30816483,0.2162815,-0.1367602,-0.36693698,0.06254208,-0.22554335,0.0041885152,0.03803505,0.2322543,-0.22331631,0.191435,-0.110618435,0.18670093,0.28859335,0.039158285,0.31724435,-0.3911902,0.14779082,-0.17769882,0.34308445,-0.094943576,-0.3079348,-0.3274191,-0.41010278,-0.18299335,-0.094888344,-0.13221163,0.23588239,0.746957,-0.55248946,-0.22559234,-0.3531813,0.2778116,-0.10132614,-0.4430429,0.20000422,-0.25547487,-0.14503711,0.34418055,-0.06340329,-0.22265917,-0.39783207,0.11532307,0.06033148,-0.07424901,-0.72446835,0.3030779,-0.5913145,0.04584644,-0.32877865,0.36518478,-0.34981287,-0.38021487,0.14859313,0.42538628,0.10028254,-0.4987225,-0.5516042,0.019667327,0.29613337,0.22426283,-0.108219884,-0.113507226,0.38076854,-0.4789148,-0.20151591,-0.115818396,-0.26586673,0.23467705,-0.0881659,0.4632227,-0.15888542,0.27693567,-0.077937104,0.10095998,-0.25725377,0.41140068,0.12497337,-0.13634849,0.004390396,-0.12670535
C4,-0.25153986,0.057371497,0.024457473,0.111997746,-0.19826889,-0.33613688,0.33305687,0.33488482,-0.1928266,0.0041747913,-0.3954144,0.036421992,-0.37441462,-0.05942874,0.08059255,0.014964607,0.17780241,-0.04769353,-0.10863613,0.3575429,-0.04236204,-0.3743502,-0.27238587,0.38830748,0.35883552,-0.23945525,0.19562341,0.34828684,-0.31713033,0.37383747,0.15179005,0.5703464,0.17272559,0.17433749,-0.066896625,-0.21949819,0.15918879,0.12098111,-0.2680567,-0.30487347,0.06766315,-0.0761634,0.39606148,-0.02117274,0.3312135,-0.14838123,0.037356596,0.04574866,0.28014383,-0.1326838,-0.1415365,-0.3408252,0.18021537,-0.6042249,0.181627,0.18879843,0.24849176,0.14229766,0.059448905,0.2619059,0.06613453,0.13502753,-0.2873881,0.10196597,0.058188863,-0.25382358,0.26307413,-0.46650684,0.13806789,-0.29307023,0.41483238,0.15136322,-0.4674201,-0.10346738,0.029288203,-0.14890237,-0.30302882,0.12769423,-0.3527742,0.15889199,-0.06720553,0.07447823,-0.16370782,0.19804506,0.17997077,-0.2500417,-0.33245683,-0.04527308,-0.13506088,0.3095114,-0.2781311,0.16027328,0.1311763,0.39635107,0.06024542,0.11800978,-0.46445736,0.16946742,0.062070128,-0.088142686,-0.0068161637,-0.045123328,0.0110951625,-0.1590602,0.07037604,-0.2557541,0.026216833,-0.31833398,0.1071319,0.17441149,-0.023266315,0.25794217,0.07891889,-0.1987505,-0.027987015,0.08471294,0.12939347,0.28462607,-0.07973658,0.2638889,0.33072478,-0.106517896,-0.26151556,-0.3582485,0.19017911,-0.38185418,-0.1074159,0.07623139,0.072425365,0.13889259,-0.42875224,0.25010973,-0.13462862,-0.34573746,-0.090497844,0.10268967,-0.32588744,-0.5084555,-0.15648577,0.3783912,-0.049384072,0.39948615,-0.080202796,-0.3064078,-0.024356611,0.26387537,-0.07167747,-0.042099193,0.093682,-0.16081701,-0.046720907,-0.03781159,-0.33730584,0.15833232,0.13381702,-0.3043632,0.20214778,-0.058569074,0.4375718,-0.008944023,0.13724467,-0.3663446,-0.08166092,0.17437246,0.147567,0.17718975,0.42959037,-0.006255284,-0.14295146,-0.09231473,-0.25964925,0.12776947,-0.427295,-0.4143976,-0.24006423,0.3672009,0.07851694,0.09622628,0.0631155,0.105428085,-0.20000505,0.40120524,0.15100163,0.29539728,-0.08784924,0.32738996,-0.008410826,-0.21318989,-0.23487389,-0.25206605,-0.1260441,0.08649616,-0.17376804,0.15336815,-0.38459763,0.3234639,-0.069706425,-0.08827721,0.19168133,-0.44296432,-0.37689632,0.098176196,0.17366868,-0.091211624,0.14690942,-0.3962931,0.14732137,-0.029483907,-0.10753568,0.037680276,0.09053017,0.036288433,-0.24630255,-0.24413836,0.01955923,-0.09608163,0.17340337,-0.22859645,-0.16100124,0.013805434,0.22883272,-0.4326392,-0.12803143,0.33915085,0.080160126,-0.085588925,0.18037684,-0.269291,0.16769658,-0.19314457,0.09970857,-0.0006514713,0.05221444,-0.19509542,-0.09218569,-0.18502098,-0.20779958,0.084846236,-0.44885182,-0.3042189,-0.5547927,-0.21469548,-0.052747536,0.21961957,-0.18784292,0.11915476,-0.04262908,0.17846525,0.15234578,0.029559858,-0.24667579,-0.15287846,-0.36360863,-0.1202334,0.43219864,-0.04865136,-0.07759223,0.155357,-0.060015492,-0.06551032,0.3687096,-0.11755209,-0.03312268,0.011359094,-0.06709992,-0.1118325,-0.19192423,0.50089926,-0.37713397,0.27517405,-0.06310441,-0.1350964,-0.14417323,0.2558511,0.019801151,0.30235603,-0.1966874,0.3488164,0.2028051,-0.040374286,-0.1057093,0.07417664,0.04147808,0.10473354,-0.5928731,0.2609427,0.118814945,0.24368757,-0.28320783,0.26731643,0.5449676,-0.5960548,-0.0618308,0.28107038,0.025425613,0.035184674,-0.21682185,-0.38200963,-0.089200996,-0.29287773,0.011109874,0.19304857,-0.06859958,0.09838177,-0.14612181,-0.015581969,0.24544087,0.1153286,-0.20239258,0.08562255,-0.42997193,0.010054447,-0.043079622,0.024556186,-0.23663706,0.046454106,-0.1948816,-0.033146948,-0.24221498,0.078661196,-0.35577664,0.05184606,-0.18877469,-0.1335718,0.17392024,0.1851955,0.26713744,-0.15584895,-0.23546252,-0.15097639,-0.07786757,-0.1509412,-0.34169734,-0.047533754,-0.1668545,0.08878498,-0.08386793,-0.07051034,0.366155,0.1022313,-0.10602678,-0.0911307,-0.08271173,0.16224478,0.052158438,0.0063379705,-0.377245,-0.2690454,-0.035804994,0.34321728,-0.1304991,0.035990722,0.02451554,0.17448327,-0.08172305,-0.22601356,0.11425166,-0.17952976,0.16414735,-0.4600164,-0.30492973,-0.07536211,-0.31051177,0.119380884,0.18273954,-0.2725408,0.23269075,0.19684455,-0.2831044,0.40573317,0.23187912,0.054698803,-0.0741981,0.104035765,0.30055517,0.2935159,0.08234516,-0.20779657,0.09577825,-0.15652332,0.016966028,0.07891601,-0.040531375,-0.14911065,0.154035,-0.008265488,-0.1471385,0.094388485,0.21133226,0.30935574,0.27459553,-0.4058817,-0.19019678,0.10740238,-0.09589723,0.25769502,-0.17511666,-0.04591856,-0.09294868,0.25503436,-0.32773286,-0.21120912,-0.10169518,-0.025785295,0.06437918,-0.1418455,-0.14203417,-0.13293839,0.21551439,0.2863162,-0.10951663,-0.1634172,0.3502445,-0.11235623,0.4147612,-0.23275267,0.38544196,0.18076023,0.34310424,-0.41766885,-0.48102644,-0.32975686,-0.07353121,0.16870809,-0.30314475,-0.049801655,0.10549466,-0.011803977,0.29464826,-0.04577922,-0.31250203,-0.14088891,0.17416042,-0.39692664,-0.24497986,-0.23498428,-0.16459039,-0.002277188,-0.084580705,-0.07053084,0.21837047,-0.58907074,-0.088381715,-0.2648288,-0.23357771,0.07457901,-0.061528407,-0.16842085,-0.32164994,0.2815402,0.054025337,0.38224107,0.40624648,0.14248314,-0.06795047,0.2957914,-0.2972926,0.21222779,0.0020884713,-0.40628216,-0.39078987,0.114672266,-0.3475776,-0.01630748,-0.27474087,-0.1893554,0.07775658,-0.35186276,-0.30803594,0.36449444,0.33790055,-0.10541581,-0.010575347,-0.048628327,-0.0021276101,-0.18301317,0.010404941,-0.36852327,-0.03533136,0.15082185,0.20815311,-0.15292957,-0.22902267,0.51899654,-0.14008307,0.1602672,-0.01781401,-0.06335151,-0.17425862,0.06795135,0.41404486,-0.065044634,-0.06427049,0.20657052,0.23492852,-0.23339765,-0.41412985,-0.45377794,0.08808264,0.024504656,0.130739,-0.092162415,-0.2773514,0.21939492,-0.39272702,0.24288687,0.03711278,-0.25475016,0.38988683,-0.09386156,0.32859805,-0.16858923
C5,0.40521666,-0.22317402,0.523646,0.13461635,-0.20310634,-0.22060291,-0.1846334,-0.16501683,0.21101746,-0.24396268,-0.11158517,0.13354518,0.03691842,0.11617172,-0.27493694,0.31864682,-0.124220535,0.009195641,0.21624896,0.26540703,0.08303805,-0.26658615,0.40474063,0.2992323,-0.41583037,-0.22590932,-0.010452505,0.37986153,-0.16860852,0.4523237,-0.38879997,0.36992222,0.31725958,0.19690521,0.5284391,0.33207557,0.18704961,0.4276119,0.12177516,-0.10306381,0.14636752,-0.18769534,-0.2688289,-0.07283274,0.2058286,0.22696504,0.15625843,0.01676891,-0.41416916,0.26086128,-0.28939334,-0.019811895,-0.199806,0.20683241,0.18102965,0.60901433,0.0062304884,0.18168792,-0.19162908,0.18928991,0.17524672,0.006903721,0.019519027,0.36902806,-0.061462767,-0.22561893,-0.039206445,0.10632851,-0.14991672,-0.29915756,0.23159009,0.51546794,0.37652874,-0.15896973,-0.01313179,0.14870825,-0.20302851,-0.31395262,0.07626051,0.022717625,-0.07595214,0.33406612,0.05468761,0.14907716,0.119213946,-0.22801283,-0.26594877,0.058016244,0.0564482,0.1269882,0.35204113,-0.0025317408,0.02132272,0.020794474,-0.23359983,-0.27031398,0.063678704,-0.12049562,0.11416348,0.1201084,-0.50725204,-0.12501402,0.10821733,-0.29167867,-0.30505705,-0.010911938,0.19437976,0.033250388,-0.32886365,0.19363682,0.15614629,0.15364125,-0.24983716,-0.6647159,0.049899206,-0.24358462,-0.10186332,-0.04179027,-0.0035618516,-0.053666115,-0.123896845,0.30996466,0.22184885,0.11606236,-0.02823276,-0.2258797,0.36000818,-0.024797266,0.104448974,-0.045259103,0.51703763,0.06343061,-0.1067277,0.26271537,-0.09602125,0.24390507,-0.49151808,-0.33293146,0.29814422,0.1351871,-0.010016862,0.28715327,0.35748053,-0.26498032,-0.09509915,0.9215968,0.01325269,-0.20543948,-0.09369771,-0.27329046,-0.08769822,0.39146227,0.032683745,-0.11786801,-0.6426583,-0.13873352,0.20505232,0.3724798,-0.24322519,-0.026937854,0.109446034,-0.30277666,0.0278237,-0.39005575,0.30450243,0.06385764,-0.12653247,-0.08677193,0.3088703,-0.13290119,0.09633632,-0.43072867,-0.33834973,0.46312445,-0.23205873,0.34160227,0.29804954,0.5562962,-0.42456654,-0.063401595,0.0574368,0.15504465,-0.2736218,-0.3095977,-0.00882937,0.048091,0.23576841,0.20464844,-0.24385124,-0.21785891,0.059472293,-0.41121396,-0.06999082,0.25254387,-0.29433915,-0.11581841,-0.3590957,-0.7314787,-0.33460107,0.41873586,-0.12684312,-0.13565126,0.42879623,-0.05430875,0.37308314,0.24668264,-0.10455848,-0.09640769,0.08973343,0.2816648,0.24832052,-0.074012175,-0.13802934,-0.27995324,0.30217177,-0.22864354,0.009289473,-0.15643156,-0.079240724,0.09275977,-0.2787609,-0.24651399,0.6134274,0.7558849,-0.21619526,-0.040101893,-0.4762028,0.070467666,-0.12190736,0.18289985,0.060537383,0.056784756,0.07145293,-0.16493648,-0.21636061,-0.12984014,0.0010571405,-0.07163363,0.30615908,-0.090940006,-0.1007503,0.03233169,-0.10256143,-0.47332698,0.2644731,0.3171179,0.054826025,-0.011833228,0.24047938,0.49713352,-0.06913368,0.1271373,-0.23990463,0.055636413,-0.17945582,0.3335942,-0.1514521,0.2691607,0.09504439,-0.05383581,0.052155085,0.38402894,-0.38036138,-0.3122993,-0.104531005,0.06525932,0.41529065,-0.32811403,-0.43176028,0.4493897,0.16412899,-0.34869626,0.119484276,0.14224564,-0.4256255,0.19098943,-0.47137955,0.42316365,0.29157165,-0.16156387,0.1186299,0.020483725,-0.20860122,-0.01819583,0.28853512,0.6084848,0.3431259,0.30926833,0.021905005,0.010853436,-0.20090769,0.3512826,-0.022071406,0.0139678195,0.21358001,0.10841611,0.23212165,0.34869435,-0.37198824,0.108779386,-0.44102293,0.47496668,-0.17347714,0.34313262,-0.07602556,-0.04830666,-0.20810708,0.11733021,-0.12758046,0.265696,-0.017073883,0.20959216,-0.20151019,-0.005361542,0.29871988,-0.33519676,0.07271533,0.24438375,0.10248058,0.04668867,0.18785298,0.06990686,0.21959049,-0.28104562,0.028630923,-0.16705263,0.2214504,-0.12077413,-0.14228386,-0.28781262,0.7020871,0.32819206,-0.12879653,-0.45207804,0.1214294,-0.056220297,0.032508746,0.07260056,-0.116354145,-0.0040730163,-0.15211019,-0.42274198,-0.30176556,-0.41135597,-0.19885829,-0.14353448,-0.110265866,-0.0054400265,-0.2644177,-0.1911163,-0.3991143,0.12895024,-0.28139856,-0.09250543,0.46485817,0.038005225,-0.6478085,-0.016381212,-0.59190494,-0.20669672,-0.19751807,-0.17280549,0.10794647,-0.15742016,0.2943361,-0.27362132,0.15734583,-0.13603586,0.084681064,-0.14059503,0.03203135,0.18252805,-0.110364795,-0.19232705,-0.27684706,-0.29302835,0.17417969,0.16946317,-0.4808247,0.03541182,0.2577887,-0.010480508,0.16941962,-0.33436012,0.124570265,-0.1741787,-0.35607165,-0.30765617,0.07121076,-0.4633474,0.1122733,-0.27240044,-0.2086752,0.081187725,0.5565216,0.2754547,-0.19811347,0.21172856,0.5494347,0.44409877,-0.2510727,0.36393002,0.18668488,0.07308878,-0.39422208,0.22523333,0.16494083,-0.21812147,-0.14891613,-0.13805878,0.08822958,0.09931655,-0.016948894,-0.016389858,-0.0014525503,0.11378868,-0.29115027,-0.68054104,0.7293116,-0.39561033,-0.1562584,0.16374111,0.24793151,-0.29418,0.028466117,0.2435059,0.034116037,0.29753524,-0.092105724,0.15148635,-0.46785542,0.051062368,-0.195943,0.19126749,-0.26413113,-0.046627462,0.3504575,0.22957051,0.1922908,0.25951976,0.25408956,-0.2999965,-0.36708525,0.32463714,-0.473462,0.09140918,-0.2978415,0.1532715,-0.16491714,-0.14611518,0.35496587,0.19003713,0.7152607,0.24019477,0.07333054,0.35168287,-0.5381475,0.0820666,0.31914324,0.062165488,-0.09840027,-0.24646303,0.30957878,0.26634514,0.065100595,0.33206743,0.06293263,-0.12757504,0.1817328,0.7138954,-0.1917597,-0.121975824,-0.078011654,-0.2700624,-0.07940952,-0.009184878,-0.012624573,-0.019494407,0.19909835,0.1212451,0.2961642,-0.06278355,-0.17703599,0.22601667,-0.19474205,0.044086136,0.07512417,-0.33670053,0.162339,-0.5036926,0.065585256,-0.38759467,-0.24449545,-0.2093968,-0.43613303,0.04158111,-0.14504877,0.23776755,-0.03634274,0.09473579,-0.47180536,0.14492139,0.09440275,0.048399787,-0.29845664,-0.1034244,-0.18487117,0.14265609,0.304196,-0.09705906,0.22182423,-0.09893157
C6,-0.00033912808,-0.24266271,-0.36281517,-0.100152634,0.17925271,-0.08224886,0.053283304,0.115527675,-0.5199225,0.35060662,0.066372216,0.25387636,-0.39316353,0.12906745,-0.26603958,-0.36256295,-0.020634212,-0.16506878,0.5831906,0.5297343,0.203916,0.23491217,0.24117106,0.15073878,0.3069092,-0.33533144,-0.016369512,0.42890245,0.16699404,-0.13106726,0.054557458,0.32744834,-0.15537822,-0.2368412,0.11084916,0.114642516,-0.035220455,0.24239793,0.47940558,0.00041367114,0.066886924,-0.17070986,0.17154625,0.3891986,-0.10115371,-0.26337197,-0.31148058,-0.47765303,0.24713895,-0.45574725,0.12623149,-0.22746971,0.01040443,0.23745966,0.20694044,0.08765715,0.01191305,-0.17560187,-0.030521885,-0.012705691,-0.25286984,0.2725104,0.21411808,0.18060178,0.4564033,0.115818,-0.20976892,0.46876478,-0.25454712,-0.19406107,0.49613488,0.3286002,-0.2995056,0.302023,-0.051821813,0.41052726,0.15058419,0.091643885,-0.32081342,-0.21313724,0.3352152,-0.07937477,0.25153205,0.42755103,-0.2440213,0.010283116,-0.22040802,0.2548864,0.16752988,-0.43144104,-0.25626874,-0.5298058,0.63634956,0.4112421,0.317696,-0.0099083,-0.55473673,0.25932783,0.1977303,-0.103374116,-0.20497276,-0.27350974,-0.0833517,-0.13696955,0.41124243,0.29368478,-0.24121383,0.21810785,-0.10172392,-0.08985724,0.14401507,0.015485473,0.5354455,-0.058129877,0.19246106,-0.031482406,0.4145729,0.41545588,0.079731494,-0.056011826,-0.04801316,0.25870654,0.46015257,0.16286863,0.29069597,-0.5001051,-0.40322945,0.02808014,0.06945319,0.14717999,-0.087119654,0.30809623,-0.35544088,-0.27576703,0.2664858,-0.22864938,0.024138136,0.4172108,0.13156894,0.29895335,-0.17440163,-0.07379853,0.39376053,-0.122011244,-0.17749768,0.6949331,0.13024032,-0.44978994,0.16436057,0.44473654,0.052363407,-0.008757813,-0.067855634,0.2842272,-0.08785859,-0.23102644,0.3389084,0.19099188,0.16752693,0.008383203,-0.25556925,0.3237956,0.13426605,-0.3158176,-0.28859305,-0.017372742,0.32590225,0.50817525,0.1888726,-0.3873658,-0.21170966,0.11026163,-0.11545924,-0.15933257,0.25534067,0.07817475,-0.23005244,0.3924206,-0.107285425,0.114050925,0.03536191,0.18264541,0.024925571,0.025091648,0.31699833,-0.16243541,-0.14544007,-0.116408326,0.41879562,0.11055673,0.17988622,0.17915848,-0.3694599,0.07810372,0.38174608,0.24511799,-0.032119736,-0.08218755,-0.34058267,-0.12276479,0.22607414,0.33058128,-0.08377402,0.51045835,0.18796268,-0.5121785,-0.030414466,0.31646624,-0.11721697,-0.4874375,-0.031939633,-0.4424536,-0.059694096,0.4080874,0.039255947,0.19287306,-0.4684819,-0.14020199,-0.2708698,-0.43745965,0.13612217,0.06163802,-0.3569519,-0.030896526,-0.26243675,-0.2538497,-0.28190154,-0.146463,-0.18150204,-0.23776156,-0.09933613,-0.24658224,-0.067919016,0.11133205,-0.23151547,0.096516065,0.26100078,-0.2859548,0.17683643,-0.113126986,-0.40912238,-0.062682375,-0.0051697623,-0.32475844,-0.29509753,-0.08382121,-0.11423676,0.20243582,0.24079329,0.17466927,-0.29547647,0.42326355,-0.19764055,0.24388671,-0.09102231,0.019817706,0.3815428,0.19639778,-0.29654807,-0.36277786,-0.058067508,0.27631262,-0.07895807,-0.062215224,-0.27889112,-0.30871975,0.22387497,-0.2149385,0.06451806,0.019143853,-0.38283518,0.35571185,0.18159516,-0.061973237,0.31044847,-0.36958525,-0.13019535,0.012204155,0.2102913,0.10407415,0.040484626,-0.22752914,0.26236606,0.13141659,0.024267077,0.19062597,-0.3391856,0.57381976,-0.17912707,-0.6320431,-0.30472404,-0.027318936,0.18381956,-0.5545689,0.69093907,-0.089327775,0.202272,-0.08114237,-0.15598375,-0.11365337,-0.06560347,0.1668863,-0.5616689,-0.30417687,-0.072746016,-0.24546683,-0.379912,0.06042249,-0.22081897,0.07676109,-0.06601508,-0.25320962,0.20196766,0.017554373,0.18905398,-0.11989357,0.23996007,0.034230098,-0.16823772,0.07783878,-0.33571327,-0.19935846,-0.46370807,-0.03683962,0.35472116,-0.30660748,-0.30830878,0.18206874,0.0005877763,0.27819777,-0.4881909,-0.39503634,-0.101023205,0.09000265,-0.4180595,-0.17088807,-0.09679059,0.13274461,-0.39153883,0.04807069,-0.16438442,-0.12300325,-0.019882444,-0.20218767,-0.002188526,0.23271473,-0.6412384,-0.24527337,0.14499304,0.58189654,-0.38051835,0.25966734,-0.02223885,-0.121680416,-0.11111264,-0.069705285,0.13481939,-0.507458,-0.18421671,0.055526882,0.2990908,-0.117723875,0.19910577,-0.11738176,0.026077632,0.42921817,-0.58033496,0.13044095,-0.043919913,0.5384848,-0.22389114,-0.5304177,0.17464377,0.21898171,0.2212869,0.18161097,0.19843298,0.11054303,-0.58165264,-0.3153143,-0.12523493,0.43483374,-0.5504254,0.11000872,0.0052629933,0.55341774,-0.13479605,-0.21915293,-0.25807613,0.0523378,-0.33365193,-0.26426864,-0.22713175,-0.23323396,-0.3177449,0.20672765,0.06086021,-0.29027176,-0.11184915,0.12325373,0.09964942,-0.25628686,-0.0825178,-0.114543326,0.14978766,0.16636668,-0.24641177,-0.020651042,0.0056863725,-0.31123775,-0.27149254,-0.0139210075,-0.36863944,-0.17191103,-0.17624372,-0.05477581,0.007521242,-0.67812747,0.17558917,0.070440285,-0.63790184,-0.5269783,0.31096494,0.30593815,-0.54037935,0.37586063,0.15058933,-0.27323815,0.11711771,0.14377967,-0.34191683,-0.085645154,0.10348101,0.055047534,-0.004208021,-0.1786879,-0.47611636,0.13822949,-0.06534918,-0.01863236,-0.12427015,-0.12816225,0.058794953,0.06896316,-0.39057732,-0.48473766,-0.1942111,0.013909534,-0.14383009,0.28309125,0.3879261,-0.41956365,-0.13812605,-0.11037284,-0.14833117,0.026317991,-0.47981417,-0.34488872,-0.30566067,-0.1664547,-0.20532513,0.23633927,0.20092434,-0.30783042,0.084348775,0.547278,-0.36655745,0.10843401,0.2367642,0.56524044,0.43093887,0.14006741,-0.01888702,-0.12554187,-0.1249421,0.20103985,0.021139618,-0.28528637,0.2511471,0.013699152,0.24307583,0.092397116,-0.14521159,0.02607447,0.2519841,0.4677753,-0.57808006,0.23814213,-0.4048664,0.071037054,-0.18400681,0.19318129,0.052005738,0.1776595,0.23511247,0.041392744,0.12288604,0.41019338,0.06902953,0.46159542,0.40210834,0.3302306,0.08344466,0.26729482,-0.21384919,-0.27945033,0.17979194,0.5551094,0.26557073,0.05526516,-0.04913411,-0.17843807
