GeneID,feature_1,feature_2,feature_3,feature_4,feature_5,feature_6,feature_7,feature_8,feature_9,feature_10,feature_11,feature_12,feature_13,feature_14,feature_15,feature_16,feature_17,feature_18,feature_19,feature_20,feature_21,feature_22,feature_23,feature_24,feature_25,feature_26,feature_27,feature_28,feature_29,feature_30,feature_31,feature_32,feature_33,feature_34,feature_35,feature_36,feature_37,feature_38,feature_39,feature_40,feature_41,feature_42,feature_43,feature_44,feature_45,feature_46,feature_47,feature_48,feature_49,feature_50,feature_51,feature_52,feature_53,feature_54,feature_55,feature_56,feature_57,feature_58,feature_59,feature_60,feature_61,feature_62,feature_63,feature_64,feature_65,feature_66,feature_67,feature_68,feature_69,feature_70,feature_71,feature_72,feature_73,feature_74,feature_75,feature_76,feature_77,feature_78,feature_79,feature_80,feature_81,feature_82,feature_83,feature_84,feature_85,feature_86,feature_87,feature_88,feature_89,feature_90,feature_91,feature_92,feature_93,feature_94,feature_95,feature_96,feature_97,feature_98,feature_99,feature_100,feature_101,feature_102,feature_103,feature_104,feature_105,feature_106,feature_107,feature_108,feature_109,feature_110,feature_111,feature_112,feature_113,feature_114,feature_115,feature_116,feature_117,feature_118,feature_119,feature_120,feature_121,feature_122,feature_123,feature_124,feature_125,feature_126,feature_127,feature_128,feature_129,feature_130,feature_131,feature_132,feature_133,feature_134,feature_135,feature_136,feature_137,feature_138,feature_139,feature_140,feature_141,feature_142,feature_143,feature_144,feature_145,feature_146,feature_147,feature_148,feature_149,feature_150,feature_151,feature_152,feature_153,feature_154,feature_155,feature_156,feature_157,feature_158,feature_159,feature_160,feature_161,feature_162,feature_163,feature_164,feature_165,feature_166,feature_167,feature_168,feature_169,feature_170,feature_171,feature_172,feature_173,feature_174,feature_175,feature_176,feature_177,feature_178,feature_179,feature_180,feature_181,feature_182,feature_183,feature_184,feature_185,feature_186,feature_187,feature_188,feature_189,feature_190,feature_191,feature_192,feature_193,feature_194,feature_195,feature_196,feature_197,feature_198,feature_199,feature_200,feature_201,feature_202,feature_203,feature_204,feature_205,feature_206,feature_207,feature_208,feature_209,feature_210,feature_211,feature_212,feature_213,feature_214,feature_215,feature_216,feature_217,feature_218,feature_219,feature_220,feature_221,feature_222,feature_223,feature_224,feature_225,feature_226,feature_227,feature_228,feature_229,feature_230,feature_231,feature_232,feature_233,feature_234,feature_235,feature_236,feature_237,feature_238,feature_239,feature_240,feature_241,feature_242,feature_243,feature_244,feature_245,feature_246,feature_247,feature_248,feature_249,feature_250,feature_251,feature_252,feature_253,feature_254,feature_255,feature_256,feature_257,feature_258,feature_259,feature_260,feature_261,feature_262,feature_263,feature_264,feature_265,feature_266,feature_267,feature_268,feature_269,feature_270,feature_271,feature_272,feature_273,feature_274,feature_275,feature_276,feature_277,feature_278,feature_279,feature_280,feature_281,feature_282,feature_283,feature_284,feature_285,feature_286,feature_287,feature_288,feature_289,feature_290,feature_291,feature_292,feature_293,feature_294,feature_295,feature_296,feature_297,feature_298,feature_299,feature_300,feature_301,feature_302,feature_303,feature_304,feature_305,feature_306,feature_307,feature_308,feature_309,feature_310,feature_311,feature_312,feature_313,feature_314,feature_315,feature_316,feature_317,feature_318,feature_319,feature_320,feature_321,feature_322,feature_323,feature_324,feature_325,feature_326,feature_327,feature_328,feature_329,feature_330,feature_331,feature_332,feature_333,feature_334,feature_335,feature_336,feature_337,feature_338,feature_339,feature_340,feature_341,feature_342,feature_343,feature_344,feature_345,feature_346,feature_347,feature_348,feature_349,feature_350,feature_351,feature_352,feature_353,feature_354,feature_355,feature_356,feature_357,feature_358,feature_359,feature_360,feature_361,feature_362,feature_363,feature_364,feature_365,feature_366,feature_367,feature_368,feature_369,feature_370,feature_371,feature_372,feature_373,feature_374,feature_375,feature_376,feature_377,feature_378,feature_379,feature_380,feature_381,feature_382,feature_383,feature_384,feature_385,feature_386,feature_387,feature_388,feature_389,feature_390,feature_391,feature_392,feature_393,feature_394,feature_395,feature_396,feature_397,feature_398,feature_399,feature_400,feature_401,feature_402,feature_403,feature_404,feature_405,feature_406,feature_407,feature_408,feature_409,feature_410,feature_411,feature_412,feature_413,feature_414,feature_415,feature_416,feature_417,feature_418,feature_419,feature_420,feature_421,feature_422,feature_423,feature_424,feature_425,feature_426,feature_427,feature_428,feature_429,feature_430,feature_431,feature_432,feature_433,feature_434,feature_435,feature_436,feature_437,feature_438,feature_439,feature_440,feature_441,feature_442,feature_443,feature_444,feature_445,feature_446,feature_447,feature_448,feature_449,feature_450,feature_451,feature_452,feature_453,feature_454,feature_455,feature_456,feature_457,feature_458,feature_459,feature_460,feature_461,feature_462,feature_463,feature_464,feature_465,feature_466,feature_467,feature_468,feature_469,feature_470,feature_471,feature_472,feature_473,feature_474,feature_475,feature_476,feature_477,feature_478,feature_479,feature_480,feature_481,feature_482,feature_483,feature_484,feature_485,feature_486,feature_487,feature_488,feature_489,feature_490,feature_491,feature_492,feature_493,feature_494,feature_495,feature_496,feature_497,feature_498,feature_499,feature_500,feature_501,feature_502,feature_503,feature_504,feature_505,feature_506,feature_507,feature_508,feature_509,feature_510,feature_511,feature_512
a,0.09918172,0.16366777,-0.81833684,0.019916013,-0.32793427,-0.30323744,-0.43363127,0.16945451,-0.47059882,-0.17878519,-0.06224186,0.1961636,0.025523633,0.16977796,0.30810285,-0.17074877,-0.36541364,-0.40355992,0.19903329,-0.21330947,-0.26984382,-0.09505829,-0.081187196,0.2765434,0.16211882,-0.060460296,-0.02473139,-0.023213126,-0.29389375,0.28744814,0.569407,0.22179249,0.12643759,-0.018002965,0.023174971,0.27152777,-0.22183476,-0.16334891,0.060800336,-0.13582751,-0.13626093,0.11640922,-0.4474512,0.21096814,0.28060102,0.021122783,-0.2255993,-0.12598157,0.14711954,0.03665655,-0.09516802,0.044558458,-0.12923798,0.31442407,0.07445346,-0.13148442,0.064495854,-0.050647616,0.23630142,0.5241505,0.1219545,0.47921357,-0.059628446,-0.28957734,0.14854138,-0.09534926,-0.16516766,-0.3649174,-0.53905773,-0.470867,0.5896556,0.019313991,-0.055055168,0.0337103,0.16602926,-0.45748863,0.48604426,-0.028717749,-0.03774356,-0.28789267,0.059932187,-0.13584422,-0.19240436,0.11182641,-0.102187626,-0.06864349,0.5722143,-0.14940332,-0.27597132,-0.3236715,-0.039888922,-0.4272635,-0.3223151,0.39392492,-0.1478908,-0.19487694,0.24023286,0.45587483,0.21156222,0.053742245,-0.29229409,-0.13076459,0.4531695,-0.39377764,0.22835933,0.18123192,-0.09902918,0.106591694,0.27350935,0.0677781,0.16288671,0.4904794,-0.40130407,0.08957034,0.1355013,-0.6223467,0.18137825,0.5328593,0.4764399,-0.20679353,-0.4769724,-0.20415917,0.11003138,0.35218248,-0.29677093,-0.06334611,0.19307119,-0.13338397,0.29985356,-0.2081454,0.13996434,-0.19945079,-0.76674306,-0.10314478,0.15696111,0.3626247,0.25175002,-0.08830385,0.29303092,-0.088031106,-0.3038987,0.21869327,0.39182663,0.40109286,-0.31817418,-0.27000698,0.13567658,0.34712443,0.58571166,0.0379579,0.31827042,-0.31676903,-0.4586074,0.011267357,-0.33434942,0.03002853,-0.15085155,-0.021823172,0.6169653,-0.37803954,0.32344878,0.039040614,-0.14937274,-0.44873616,0.07191525,0.14935522,-0.52868307,0.3280184,-0.2715307,-0.52090085,-0.3242702,-0.33837053,0.23022318,0.14276384,-0.15766232,-0.44441485,-0.30883488,-0.13267462,-0.20226514,-0.35107166,-0.2294937,0.04327064,-0.31978613,0.4697209,0.2692626,-0.13258237,0.14750576,0.040784985,-0.27633837,-0.041311964,0.16132377,0.2731142,-0.009743273,0.15469679,-0.06454931,-0.32021528,-0.3260309,-0.6017695,0.33490008,0.42890534,-0.768032,-0.033860333,0.6784559,-0.13884698,0.03357865,-0.013154637,-0.13810909,0.29500514,-0.10883483,0.08908337,-0.04256355,0.0457662,-0.26722845,-0.15260589,-0.29388112,-0.3156991,0.29730955,0.41336197,-0.02245579,-0.2930735,-0.16609155,0.3103523,-0.11276419,-0.41744283,-0.084823824,0.10992895,-0.04041522,0.04013981,0.23389795,-0.068505414,0.2037381,0.24163225,0.035875708,-0.23318169,0.13404587,0.24749336,0.4639635,0.03212724,0.6202031,-0.49084452,0.27851447,0.067585655,-0.025449364,0.17727606,-0.028635867,-0.096361674,0.033255704,-0.16940075,-0.43522322,-0.002817709,-0.06563329,0.14199299,-0.07939337,-0.15742195,-0.27256986,-0.008924302,0.07862322,0.3406641,0.21002233,-0.32423216,-0.096565165,-0.2891246,-0.42479596,-0.46268198,-0.05457119,-0.036144424,0.0062232316,-0.23062643,-0.06631211,0.1693083,0.07170046,-0.23904236,0.25114328,-0.037784867,0.06396081,0.15507594,-0.11569393,0.12934601,-0.2101053,0.48498192,-0.1349805,-0.23689345,-0.025103655,0.4432396,-0.5447912,-0.08684097,0.14645632,0.136581,-0.08022996,0.29953647,0.3664823,0.06685828,0.25352588,0.24419746,-0.30880207,0.351571,0.04510907,0.4656249,-0.10626897,-0.19657627,-0.08990144,-0.17136416,0.27293348,0.034604315,0.16498378,-0.33288035,0.17230408,0.4379589,-0.069571115,-0.08950833,-0.053017017,-0.53988516,0.19474557,-0.08693104,0.26402742,-0.09034499,0.31812173,-0.6122662,0.31720078,-0.3141817,-0.1919981,0.33633703,-0.39819327,-0.52096486,0.037778813,0.27588114,0.08382683,-0.087764435,-0.06853397,0.3057384,-0.21207228,0.22726172,-0.28917494,-0.13384095,-0.23879161,0.3775047,0.2367335,-0.27920058,0.22357976,-0.11415818,0.2581531,0.11430561,0.17488368,0.41308808,0.43406382,-0.21518698,0.31241095,-0.085649975,0.40146545,-0.210917,0.25090626,0.24505675,0.0009619817,-0.3669244,0.5495051,0.06870237,0.11880831,-0.40205413,0.5004507,0.24349469,-0.029899575,-0.3532505,-0.13285585,-0.11041191,-0.08804259,0.03903339,-0.40718597,-0.32664067,0.31190765,0.272,-0.037592947,-0.36229274,-0.052835368,-0.3080397,-0.08768088,-0.21258949,0.16054724,0.69311774,-0.74076915,0.1867685,-0.08796272,-0.23659782,-0.2655156,-0.16506933,0.25058514,0.2917828,0.19154888,0.11419095,0.016357884,0.15106475,0.19945237,0.3641683,-0.049099524,-0.08324405,0.21771437,-0.2437945,-0.06433406,-0.39462122,0.5666583,0.29826507,-0.08421305,-0.3770049,-0.0034144558,0.5425302,-0.02003014,0.037557676,0.2507388,-0.037587345,-0.008834198,0.5575222,-0.12937495,-0.17634082,0.03290978,0.06519566,0.30968258,-0.31792375,0.42017245,0.15942016,-0.15343043,-0.18163376,-0.73010254,0.3052195,0.3487623,0.32767755,-0.26629955,0.022542555,0.25375658,0.1144431,-0.15994737,0.2826449,0.053244624,0.13964623,0.45467362,-0.33871183,0.0315611,0.114481166,0.52113104,0.30936486,-0.52208763,-0.1265327,-0.097055644,-0.43936074,0.24105883,-0.099170394,0.12884709,0.24084637,0.069687225,0.12372536,0.4279179,0.09533507,-0.12730798,-0.12093716,0.26162305,0.37961033,0.26828948,0.5229542,0.017876938,-0.29187557,-0.104935646,-0.06366768,0.23083913,-0.19339904,0.18086994,0.25987425,-0.06396244,-0.0731527,-0.7189382,-0.0801101,0.14017402,0.029293321,0.16705684,-0.29340467,-0.15079017,0.45441028,-0.56882036,0.66578263,0.49953514,0.52946156,0.28139603,0.13205871,0.08484216,-0.40112072,-0.49133736,-0.07077301,0.09557861,-0.0018462241,-0.38578063,-0.24780557,0.72433037,0.27447954,0.14348799,0.22433126,-0.06930979,0.44721058,-0.05850877,-0.042416096,-0.37745416,-0.030069571,0.3232707,-0.11395396,0.034018256,-0.0988896,-0.25132096,-0.3174926,-0.17883557,-0.44751635,-0.18258634,0.0032467023,0.88365364,0.21889016,0.051456522,-0.0013237596
b,-0.092333645,0.017720431,-0.11556694,0.25716573,0.13316277,0.16223317,0.011510009,0.13218433,0.15201703,-0.1633791,-0.024835609,-0.09282959,-0.42874074,0.5168922,-0.0393065,0.012636725,-0.1734421,-0.05231145,-0.4791351,0.0005469024,0.0057485625,0.15083274,0.219397,-0.20725283,0.12506063,-0.16853815,-0.0030790828,0.08063176,0.4310317,-0.4530586,-0.12990926,-0.0982413,-0.41437805,0.21654913,-0.16734684,0.33503547,0.39235672,0.23581229,-0.066424794,0.38752612,0.25401413,-0.14567542,0.20181708,-0.40556127,0.20202741,-0.054340705,-0.031689372,0.060257845,-0.116006,-0.17961492,-0.02097851,0.0484229,0.3613571,-0.33050358,-0.15204033,0.116347864,0.152114,-0.16920781,-0.12666258,-0.10589298,0.3779228,-0.15309355,0.12671188,0.23773041,0.077645816,-0.072420575,0.016065199,0.0014758408,-0.27344066,-0.15508601,-0.15838744,0.40804863,-0.15219052,0.17288056,-0.2727856,-0.08024567,0.19227281,-0.24304682,-0.03844828,0.44486228,-0.21704352,0.07069151,0.19997033,0.350264,0.20703152,0.2031964,0.15787974,-0.242154,0.42253518,-0.0131317675,-0.39601532,0.006530475,0.8196043,0.18716183,0.05889167,0.127731,-0.2343429,0.028876927,-0.00864118,-0.2562281,0.21986112,-0.18873417,-0.5373376,0.40527156,-0.027264487,-0.23214212,0.024491474,0.023704149,-0.29850978,-0.1820018,0.4485381,0.008558035,-0.35153216,0.26545343,-0.3905237,0.07738358,-0.18167278,-0.29897463,0.030998696,0.74105406,0.22261307,-0.12786242,-0.265602,-0.18878499,-0.21787466,-0.16377538,-0.16814756,-0.2189964,-0.016843393,0.29099774,0.33904386,-0.182643,0.13961609,-0.14202988,0.010528341,-0.4619046,-0.26107448,0.09314997,0.21385506,-0.35346854,-0.25826156,-0.2790182,-0.3426257,-0.28058863,0.021500401,-0.06136694,-0.32440597,-0.35988608,-0.1268203,-0.105368935,-0.166915,0.09368352,0.21408877,0.06987552,0.11997252,0.22915486,-0.09700878,0.20128661,0.3429564,-0.24315743,0.3376249,-0.06618035,-0.004432887,-0.31387836,0.02480375,-0.07874236,0.19664724,-0.4729878,0.16943336,-0.33760166,0.35066628,-0.252577,-0.11842332,0.10570192,-0.29167622,-0.2588229,0.12254807,-0.48764572,0.23389381,-0.0030159326,0.044260003,0.4265507,0.124181814,-0.037691236,0.008702025,0.17634243,0.20042384,0.4191163,-0.069060996,0.012537487,0.24712932,0.12884308,-0.1278222,0.14086074,-0.04061801,-0.07015909,-0.2168909,0.08466555,-0.037379492,-0.12180046,-0.124827415,0.3127824,0.041853756,-0.093037695,-0.09311532,0.32733822,0.1589871,-0.52626765,-0.14056507,-0.14112398,-0.06178055,0.1590462,-0.17923677,0.3900204,-0.1832251,0.21173286,-0.07858278,0.3397246,-0.44119176,-0.406352,-0.2372015,-0.3951948,0.2250582,-0.12325,0.16564843,-0.12236466,-0.109294616,-0.28968865,0.09804725,0.16118363,0.32154426,0.2246665,-0.1235915,-0.3245152,0.083280824,-0.2200534,-0.0030261688,-0.11903598,-0.20222117,0.0052524954,-0.0353608,0.080366716,0.024755526,-0.033012122,0.511785,0.07838493,-0.32752782,-0.29482922,0.20821607,0.09915508,-0.012233794,0.3288724,0.15055934,0.13164166,-0.12041841,-0.019540757,-0.04298591,-0.017291784,0.050899748,0.24071902,0.25890186,-0.1107129,-0.053492643,-0.12921819,-0.3709883,0.27638584,0.5112493,0.28464139,-0.108975865,-0.1153804,0.06704702,0.1997189,-0.41533548,-0.21014267,-0.037106365,-0.0799775,-0.2521355,0.22175118,0.032796144,-0.12313107,-0.3253458,0.43685472,0.091437295,-0.027791478,-0.006236203,-0.2400557,-0.02947197,0.10743811,-0.070345,0.13148257,0.02129573,0.45043227,-0.08716162,0.12627763,0.19920412,-0.09136331,-0.0398537,0.42642596,0.31416607,-0.27135837,0.0456738,0.4842944,-0.22112386,-0.24797544,0.03879308,0.07423407,-0.2204071,-0.048342545,0.33233383,0.29698685,-0.3290847,0.33110613,0.29615358,0.008054979,0.28527647,-0.21283144,0.29503733,0.093145475,0.1696333,0.07196102,-0.10046789,-0.20117924,0.35302976,0.46002206,0.16580221,0.10190335,0.07427335,-0.09168093,0.2817116,-0.34470332,0.57880294,0.100556865,0.42886448,0.1117399,-0.096362434,0.0323136,0.32495657,0.39895344,0.12684485,0.09258072,0.050461926,0.2199873,0.18768623,-0.2238622,-0.28561613,-0.05689292,-0.30397677,-0.20035252,0.18505205,0.06200251,-0.22916585,0.5006974,0.020950172,-0.20664361,-0.34637156,0.33922797,-0.43522575,0.08845303,-0.16447055,0.041384213,-0.016047902,-0.07218297,-0.051341295,-0.73892236,0.04672583,-0.6847565,0.45294023,-0.4806592,0.09497992,-0.34282124,0.15340325,0.4066758,0.053380214,0.20382151,0.24869408,-0.19333316,0.022497475,-0.17645693,0.16496168,0.3667656,-0.13920808,-0.14214385,-0.21998373,0.008937074,0.18871555,-0.025517553,0.3784522,-0.14330141,-0.12249658,-0.0268526,-0.2444582,0.23799968,-0.039650045,-0.25167036,0.12360454,0.032593835,0.1540786,-0.23672819,0.02853189,0.22483253,-0.0049217716,0.28361738,-0.29261866,-0.03192351,0.25430602,0.18648508,0.29383606,-0.052835822,0.15156417,0.17235668,-0.0012691766,0.060860805,0.48430258,-0.16704321,-0.005406279,-0.23288871,0.23043004,-0.2041322,0.15125257,-0.0054302216,-0.09767926,0.20264882,0.22937748,0.120676875,-0.41708562,0.5161869,0.5177753,0.120135725,-0.11937513,0.15566832,0.114147246,-0.7472568,0.10268587,0.07631261,-0.4018832,-0.13041681,-0.33022356,-0.039628386,0.008609466,-0.19574305,0.17341392,0.18100259,0.22252291,0.16994399,0.26331148,0.054066792,0.30136803,0.51444393,0.11200569,-0.24794927,-0.26691502,0.23914155,0.050700746,0.12672688,0.03202132,0.18830156,-0.5973267,-0.2590204,-0.19275227,0.19571128,-0.12113308,-0.1766944,-0.38596937,-0.085782655,-0.081496045,0.45888403,0.20809935,-0.08329012,0.08187729,0.06300245,-0.2794279,0.15267847,0.099601656,-0.13336338,0.25765622,0.3936653,0.19299811,0.27932894,-0.49895585,-0.34947228,0.21454394,0.07053961,0.041924354,0.24781221,0.06860992,0.035159938,0.02823098,0.40311232,-0.52742285,-0.55088586,0.121802054,-0.05765579,-0.19469419,-0.21635583,-0.17369983,0.31878975,0.10449071,-0.36058798,0.12726533,-0.09791598,0.35454285,0.21463695,0.055764932,-0.1181071,-0.40590167,0.26400346,0.23157084,-0.0045588017,0.23106068,-0.16831891,-0.32794297,-0.29151496
c,-0.25991789,-0.22974786,0.37027895,-0.32938656,0.18136069,-2.6114285e-05,-0.35781026,-0.24039592,-0.44367352,-0.29361635,-0.26440933,0.19712475,0.2376315,-0.040213786,-0.06443032,0.24638405,0.24882215,-0.031208394,-0.67574066,0.25585434,0.051997513,0.1283482,-0.16090967,0.16500074,-0.13016048,-0.3504717,-0.024197645,-0.2415092,0.19506326,-0.29309756,0.348557,-0.017343737,0.264657,0.36009875,-0.12170639,0.04084569,0.30765086,-0.10308713,0.12626344,-0.13225529,-0.073329546,0.32814184,-0.0548001,-0.037487276,0.13571575,-0.17445078,0.17816609,-0.04052186,-0.04883276,-0.3295391,0.14960262,0.1605015,0.38079152,-0.07026931,0.17380302,0.5276475,0.11630797,-0.46860564,0.023742203,-0.30071098,-0.17880797,-0.19560724,0.1907258,0.3245235,0.1751621,-0.07526971,-0.04721429,0.0138760805,-0.28271315,-0.07940512,-0.0787846,0.25357392,-0.43560833,0.28469434,-0.052465588,0.2980314,0.008871123,0.09069988,-0.117894806,-0.047290787,0.043416664,-0.5074515,0.058952697,-0.5024739,-0.019194074,-0.3532525,0.005200904,0.23191258,-0.15894136,0.29103357,0.2871377,0.055193003,0.07568478,-0.14160281,0.15367335,0.3440707,0.24221075,-0.3720967,0.18208447,-0.14230226,-0.028132103,0.7230886,-0.67075264,0.1033716,0.18135507,0.46730164,-0.47841358,0.012781475,0.41742367,0.36396438,0.5178464,0.43024904,-0.38254407,0.4397185,-0.032357067,-0.13471347,0.08534447,0.20064703,-0.45056772,-0.07505434,-0.25713548,-0.071073614,0.10343568,0.019616969,-0.5835443,-0.09780801,0.14261132,-0.21640828,0.094253175,0.22638561,0.63342357,0.09391349,-0.410905,0.07347209,-0.30999902,0.15094845,0.13063014,-0.16551167,0.035902694,-0.02472993,0.16956085,-0.109395325,0.10676878,0.26122525,0.30828327,-0.23479904,-0.038417906,-0.059434883,0.29757538,0.30039012,0.11201311,-0.16760638,-0.23713523,-0.27335042,0.06799416,-0.049406353,-0.46639255,-0.02674108,-0.09351992,0.28303975,0.24292286,-0.014805108,-0.028985608,0.07216703,0.5282412,0.27432954,-0.16032521,0.012287281,0.26600936,-0.20939669,0.08216698,-0.48053703,0.088397585,0.07733428,0.07489626,0.2562255,0.08915904,0.36417904,0.39790383,-0.03216342,0.03359592,0.41255838,-0.22589287,-0.03794442,0.023391552,-0.038151138,0.015846401,-0.15972662,0.24989206,0.31826666,0.32335222,0.50295204,0.17284866,0.44514492,-0.35961124,-0.047501996,0.48901656,0.22613586,0.2734402,0.10911844,-0.073414266,0.43292105,-0.158786,-0.043967433,0.10669437,-0.1568821,0.10341624,0.20450094,0.14434457,-0.01635208,0.07355386,-0.07292163,0.13410425,0.15868086,0.078428015,-0.09795791,-0.25358054,0.49853712,-0.18625313,-0.42367265,-0.0786134,-0.39608982,0.005769331,-0.31855276,-0.11010092,-0.10399143,-0.049334243,-0.05195883,0.118738726,-0.5293383,-0.049685255,0.2340211,0.006666139,-0.038388267,0.4926782,-0.4127151,-0.056038924,0.32925788,-0.07014744,0.2521451,-0.0489233,-0.40948984,0.09721553,-0.20015188,-0.07441794,-0.21240589,-0.07832918,0.4042378,-0.06852947,-0.2061237,-0.092581116,0.047354944,-0.36676458,0.044150636,-0.094232865,-0.29524302,0.14552,0.23055184,0.3920529,0.22494182,-0.37737337,0.34350675,0.32020175,0.015539749,-0.12989125,0.1647144,-0.1267538,0.104402095,-0.03656581,-0.3849181,0.091577716,-0.01152128,0.25292724,-0.20147887,-0.04082051,-0.00050827116,-0.29714462,-0.0942471,0.30276397,-0.0044571273,-0.18715927,0.18465732,-0.04577508,0.31918967,-0.16282725,0.24547182,-0.028977105,0.11749978,-0.09589794,-0.2763487,0.16053608,-0.07024101,0.57308185,0.13529149,0.29028654,-0.13959607,-0.024558552,0.33979627,0.09495891,0.032440364,0.11400223,0.39145905,-0.2121148,-0.6176499,-0.026523843,0.3284897,-0.15011926,-0.1088565,0.022607807,-0.27231833,-0.0053635538,0.17393702,-0.23107147,-0.074864805,0.3832422,0.015118763,0.3994839,-0.030359589,0.14052519,0.2684059,0.3793778,0.103444114,0.33580747,-0.50590163,-0.02397418,0.13113233,0.2925127,-0.1563402,-0.27952024,0.16125733,-0.16505292,-0.021029912,-0.2098155,0.10108194,-0.027832702,0.026304428,-0.094599314,-0.250011,0.44814074,-0.43973875,-0.47019133,0.1530307,0.25966793,-0.3475473,0.13829294,-0.24443993,-0.024161711,0.21037376,-0.026083626,-0.077792935,0.2806508,-0.21258202,0.07674964,0.033390686,-0.23636627,-0.058952402,-0.21517411,0.28483498,0.39816386,0.14775628,0.31477425,-0.24889465,-0.043939084,-0.4928471,-0.032388195,-0.17689513,0.1457938,-0.01876612,-0.09236522,0.17533466,0.17416766,0.08935516,0.306019,-0.2329996,-0.081004456,-0.2424161,-0.12202784,-0.16057983,-0.39705598,-0.084370874,0.40345585,-0.2399027,-0.23670664,0.47179633,0.30596325,-5.8844686e-05,-0.08048749,-0.1385822,-0.25520015,-0.01936049,0.15521187,0.64967024,0.11468438,-0.04637858,-0.10149582,-0.1884704,-0.19754094,-0.19152415,0.11699259,-0.34396884,-0.0925091,0.2232269,0.11937694,0.14290747,-0.002198808,-0.19830588,-0.1806644,-0.34162217,-0.12203033,0.23197067,-0.23955828,-0.035196114,0.23482472,0.0281469,-0.20389596,-0.12042712,-0.47664517,-0.28214803,0.32037085,-0.099834576,-0.34841868,0.073955014,0.20806569,-0.14508232,0.30549622,0.13376549,0.4270575,-0.16277748,0.1701001,0.03585078,-0.49625927,-0.36687392,0.26315388,0.1386556,0.12315835,-0.45580715,0.010773219,-0.24409866,-0.095454894,0.1791473,-0.3472032,-0.21184447,0.28138843,0.07635005,-0.33016104,-0.34827775,-0.12687528,0.00694653,-0.40186387,0.3227079,-0.23138902,0.04274936,0.108612835,0.00040267408,0.08273898,-0.25444666,-0.1809378,-0.53826755,-0.010140436,-0.041750453,-0.41892448,0.009813413,0.065861456,-0.12142495,-0.07185288,0.28763205,-0.0606436,0.30177805,-0.17045818,-0.25059992,0.11680439,-0.42643353,0.11125176,-0.37788275,0.3169805,0.16941908,0.36880153,0.5321689,-0.24808508,-0.24418059,0.013834149,0.022002108,-0.22504866,-0.26053607,0.039394565,-0.0055987835,-0.2570244,0.37646064,0.22399396,0.14695248,-0.0056115724,0.43421233,-0.15216093,-0.036816902,-0.41560715,0.868567,0.14537884,-0.101173475,0.6035863,0.06635063,-0.09998202,0.12088983,-0.17057352,0.39515698,-0.13290137,0.13022667,-0.19217333,0.24473986,0.0060478896,-0.21242025,-0.1544669,-0.4314827
d,-0.20516413,0.22685975,0.03333495,0.03561222,0.22007647,-0.28895372,0.3122191,-0.31726098,-0.052983455,-0.22208256,-0.030472036,0.06525398,0.17590988,0.0038148798,0.25252083,-0.12234628,0.03920847,-0.109893374,-0.34118754,-0.04159856,0.19961801,0.10157581,0.23830216,0.21739104,-0.25411764,-0.16313455,0.22875255,-0.27689964,0.031106152,-0.48167634,-0.049082268,-0.080668665,0.37182906,-0.065853305,-0.18212405,0.19615236,0.16797666,-0.21953154,0.2881916,-0.056921005,0.08998032,-0.3191746,-0.05606097,-0.050832022,0.060686983,0.039474387,-0.3158076,0.12819985,0.110861,-0.36088726,0.13314585,-0.06546637,0.089132644,0.023972534,-0.11148344,0.14665382,0.1620838,0.018912047,0.17216793,0.046713307,0.25694755,0.3680518,0.038725745,0.1789889,0.033592682,-0.18864551,0.026846223,-0.05761385,-0.20365018,0.21368921,0.17197098,0.40403336,-0.30995542,-0.09272105,-0.13143755,-0.23962569,0.22870976,-0.42157823,0.2547187,-0.12926167,-0.094094604,0.07952277,-0.028747447,0.018509738,0.20419937,-0.07773715,-0.0033157952,0.055664435,-0.17836928,0.62341815,-0.2487525,-0.23005645,0.34410408,0.11946619,0.044238456,-0.05856774,0.02871937,-0.31910294,-0.1620287,-0.03264282,-0.041497342,-0.13260438,-0.38468325,-0.22294974,0.67034537,-0.08439175,0.034664214,0.0027784966,0.10786928,0.39685142,0.34333846,-0.0067241527,-0.46235448,0.67450595,0.4036742,-0.25518423,-0.106767304,-0.04817348,-0.022405375,0.35913524,-0.120052546,-0.15227062,-0.35741302,0.034096614,-0.38164127,0.19900933,0.38862914,-0.035277773,-0.098801635,0.3657261,0.460608,0.02412729,0.24709795,-0.14293717,0.10398135,-0.128154,-0.03145891,-0.09894876,-0.37155426,0.13781337,-0.054311775,-0.36522442,0.3697047,-0.16347119,0.18728368,-0.26935592,-0.053168304,-0.34679845,0.44912928,0.50935394,0.4059026,0.794781,0.39825404,-0.19910802,-0.023570083,0.46262804,-0.10461035,0.26414064,0.27127007,0.17151587,0.05118962,0.09733664,-0.25060803,-0.19836998,-0.2049852,0.25985473,-0.086054474,-0.18512374,-0.31119406,-0.27901596,0.28432417,-0.38473684,-0.159116,0.46996927,0.03732343,-0.39164189,-0.12406483,0.19176893,0.34134668,0.0511774,-0.030372575,0.2597164,0.092945404,-0.22570924,0.12689105,0.13146374,-0.13510829,0.39323857,0.24092168,0.21146715,0.08708421,0.29084337,0.18582399,0.48270944,-0.29703847,-0.21561943,-0.21771914,0.16241018,-0.13953522,-0.32229584,-0.3936115,0.42794877,0.15799555,-0.09878395,0.42247477,0.04137553,-0.27499512,-0.47450286,-0.41691667,-0.102456085,-0.41668004,-0.30539125,0.17472929,-0.19809029,0.07553379,-0.025919225,0.040098123,0.3813292,-0.06165384,-0.18947,-0.25338674,-0.19052365,0.36609614,-0.3339488,0.033124268,0.036900047,0.22618547,-0.61785185,0.049694072,-0.08641467,-0.17520261,0.37962076,-0.095495544,-0.3859086,-0.072798215,-0.3884322,0.035094034,-0.2990194,-0.25502667,0.15304413,-0.17677441,0.03980072,0.030879717,-0.39721757,0.37064123,0.017408788,-0.358642,-0.083246596,-0.11605741,0.11652985,-0.18264659,0.23265404,0.22247076,0.32240242,-0.3280496,-0.2874877,0.0035149455,-0.30864578,-0.08131089,0.2468149,-0.30841756,-0.44098473,0.309992,-0.04849697,-0.15970048,0.17351083,0.38497153,0.33880928,0.049033575,0.19757852,0.09860859,0.081430286,0.268573,-0.1682386,0.30985945,0.23743036,-0.005717993,-0.07922208,-0.0274067,-0.07548678,-0.23800525,-0.07731446,-0.11787027,0.0022257231,-0.29307926,0.31805778,0.215171,0.09751149,-0.12009156,-0.21717697,0.36465546,-0.37079751,0.23001313,-0.0015610568,-0.030612513,0.09207037,0.28802997,0.4691017,0.029705942,0.15413432,0.4177137,-0.0038734786,0.25334656,-0.04022464,0.6175034,-0.0683661,-0.10842494,-0.2262237,0.13587873,0.12701574,0.12636673,0.36152944,-0.09038875,0.26241648,0.15311383,0.50706756,0.3858123,-0.1886284,0.6607021,0.4556265,0.20151949,0.13199827,-0.24156666,-0.14742565,-0.28250775,-0.27256903,-0.041796707,-0.048383735,-0.43680212,-0.12175436,0.12789801,0.044683833,0.20947942,-0.084163494,0.092365004,-0.14759651,0.40370083,-0.36967933,0.38577273,0.051157605,-0.13502896,0.10701636,0.3685113,0.33980852,-0.04885868,0.20628315,0.15036741,-0.24198055,0.2990011,0.09092973,0.18494308,-0.12258918,0.24808411,-0.011100329,-0.40014982,-0.30211216,0.056411736,-0.3010107,-0.09924979,0.056167036,0.1576299,-0.24527979,0.03900689,-0.051415455,-0.2316567,-0.12350096,-0.26933354,-0.34092242,-0.12994699,-0.022430453,0.61581296,0.064566515,0.40806788,-0.27866775,-0.072607785,-0.25603244,-0.013721228,0.28006148,-0.30107582,-0.3270782,0.17396814,-0.48012498,0.18253085,0.17281772,0.15199348,0.036752105,0.08426787,-0.13814905,0.27847436,0.051011804,-0.047307633,-0.016836792,-0.21179229,0.05955869,0.18608427,0.20665419,0.1714274,-0.22351141,0.01964863,0.37586343,-0.26687735,-0.17168924,-0.16133219,0.0147289,0.20559913,-0.11425005,0.22128986,-0.3371061,-0.41947067,-0.17751023,0.017930076,-0.30828863,0.18891475,-0.22075205,-0.06671111,-0.123173594,0.42838198,-0.006744016,-0.062238626,0.3065083,0.15527299,0.028884495,0.38477343,0.12870647,0.36993292,0.41808274,-0.07925831,-0.02912788,0.33498526,-0.1726805,-0.010112051,0.01328136,-0.15761095,0.23300025,0.11008999,-0.06943454,0.12687992,-0.2929533,-0.2417059,-0.06417417,-0.05596867,0.2612074,0.015112583,0.514899,0.24317731,-0.026282422,0.2621694,0.16095003,-0.44517097,-0.31192714,-0.36385337,0.15428823,-0.24491021,0.08972448,0.03451374,0.15636596,0.19299169,-0.31847152,-0.21269533,0.18249351,0.15544537,0.1285547,0.17827949,0.04458812,0.06585843,0.33293116,-0.28916562,0.12388338,0.419408,0.04631773,-0.4891526,-0.30742338,-0.2228842,0.073016174,0.043595467,0.17314671,0.015102431,0.13768291,-0.45130545,-0.29337025,0.013558038,-0.2901937,0.08557686,0.16210142,0.12389306,0.064627126,-0.06900339,-0.03647067,-0.062622905,-0.28894854,0.04957292,-0.46473515,-0.37527692,0.20271921,-0.13228437,0.33709267,-0.6356031,-0.26108438,0.3568141,0.18281041,0.12103708,0.09811483,-0.27020824,-0.026453514,-0.19577013,0.033875655,0.016328499,0.05412464,0.41708848,0.120547116,-0.1327984,0.12330463
e,-0.5072434,-0.16142887,-0.1046772,0.09493259,0.638567,0.007257592,0.24695536,0.19971184,0.2913168,-0.048467502,0.30384663,-0.059546016,-0.09737601,-0.124881186,-0.09593909,0.15061404,0.16691852,-0.16197126,0.12770718,-0.25567842,0.17081387,0.117777914,0.22861864,-0.035516962,-0.07194232,-0.53253186,0.47226757,0.38615024,0.27075452,-0.6111362,-0.43801832,-0.08995299,-0.13523176,0.007649131,0.023160819,-0.09378485,0.006040469,0.027740944,0.30398044,0.35207465,0.061077386,-0.31523797,0.043219842,-0.38863552,0.10655818,-0.20426562,0.21795091,-0.123950444,-0.11251517,-0.059795182,0.10006401,-0.0020965487,0.24090737,-0.0418619,-0.46751064,-0.1302186,0.1912593,0.076779164,0.3080539,-0.16090989,0.2850706,-0.11928359,0.009076606,0.09890643,-0.16416234,0.22188622,0.029257534,0.37334573,-0.05894944,0.19036612,-0.4906299,-0.006089352,-0.0243785,-0.0324312,-0.08702367,0.21391732,0.3386545,0.022174954,-0.09297026,0.35625973,-0.02246858,-0.107609615,-0.5357117,0.26363364,0.07109292,-0.093095936,0.34398112,-0.17023289,0.17640755,-0.0075313672,-0.30362108,-0.12861149,-0.11451133,0.20032215,-0.28707662,0.4486211,0.20081642,-0.1134165,-0.20795715,-0.048704922,0.18612696,-0.21744843,-0.2324942,-0.04353679,0.3746525,0.14931309,-0.17588542,0.28140944,-0.34520504,-0.03233234,0.24853244,-0.1357083,-0.12837593,0.106260985,0.039479524,-0.15199792,0.44035724,-0.081953056,0.18228538,-0.106527366,-0.12249431,-0.33329737,-0.49349496,-0.1397201,0.03415267,-0.2988373,-0.020637035,-0.38551652,-0.18099648,0.06591174,0.49432433,-0.28910506,-0.21178319,-0.073821925,-0.095780075,-0.14709823,-0.40573353,-0.11309556,-0.006166201,-0.15619671,0.22052634,0.07920888,-0.4892308,-0.063305624,-0.0069899634,-0.4337092,-0.08802288,0.053109832,0.301196,0.20935191,0.03246653,-0.03825079,-0.067157805,-0.15993096,0.15778191,0.23607826,-0.12541732,-0.13109961,0.044845376,0.02475018,-0.07963113,-0.12307766,0.34769672,-0.036296792,0.0127271265,-0.22453296,0.11791913,-0.086529,0.27166307,-0.0502294,-0.07378051,-0.13537043,-0.012819111,0.2584625,0.041520476,0.31381536,0.22728992,-0.32849386,-0.020356,0.302451,-0.09876483,0.23959444,0.28338033,0.12795474,0.13139205,0.20088539,0.009754539,0.20659053,-0.13406874,-0.29824668,0.3431956,-0.37390932,-0.08299255,0.099970475,-0.17308894,-0.14104927,-0.0034918636,-0.077044785,-0.17441282,-0.009041725,-0.2785693,0.014384177,-0.23019156,0.014956938,0.7308632,0.23568042,0.14391258,0.01166106,0.019769415,0.19520086,0.2715599,0.007491097,0.29001975,0.05413742,0.27735683,-0.09217672,-0.39350852,0.0048839636,-0.05981628,0.4353468,-0.044219866,0.017304938,0.22939822,-0.26337,-0.35815802,0.08573422,0.30600807,0.041530915,0.3016811,-0.2192753,-0.1968722,0.10308628,0.029188283,-0.26134393,-0.22728619,-0.23999768,-0.054516517,-0.030392364,-0.4225558,0.095548205,-0.25916687,-0.018857174,-0.19630243,-0.23627584,-0.2663151,0.20857841,-0.3019225,-0.15736213,0.3232336,0.25110614,-0.09375198,0.15462625,0.35879886,0.026760563,0.40678588,0.4901294,-0.06045427,0.09442112,0.38845158,0.16144875,0.07975064,-0.25073802,0.13267651,-0.32871407,0.17818676,0.020346187,-0.20068815,-0.04796862,-0.024348274,0.37190622,-0.13288,0.22336479,-0.30411762,0.07111812,-0.09542826,-0.47410968,-0.252357,0.2987935,0.06676605,-0.22993611,-0.21029049,-0.29421473,-0.21180816,-0.04413516,0.33503762,0.053384904,0.15854508,-0.12188537,-0.0023439005,-0.14487126,-0.14619428,-0.10500001,0.034849096,-0.04116395,-0.054307513,0.19516453,0.12885329,0.11151007,-0.11990186,-0.015157834,-0.061076775,-0.022717357,0.08011481,0.10516264,-0.073862545,-0.015123259,-0.20687488,-0.022215713,0.2106722,-0.2759376,-0.38240427,-0.17065948,-0.27153057,-0.47641245,0.09072881,-0.030870024,-0.026406605,0.08482121,-0.06695338,-0.17095116,0.13253513,-0.12599918,0.19680914,0.2773205,-0.26327583,0.0927719,0.20755258,-0.0029701144,-0.1500009,-0.012950525,-0.08676485,-0.093699865,0.16616967,-0.18867755,0.036327213,0.10310752,0.093434654,-0.06883882,0.28514415,-0.19781396,0.12430439,0.00588914,0.44754988,0.14536518,0.028740719,-0.1467596,-0.030519068,0.15117744,0.059598908,-0.30004644,0.376569,-0.2305404,-0.08927294,-0.29674444,0.12759161,-0.0772427,0.14765018,-0.05310659,0.25577685,-0.074015036,0.13160127,-0.054792523,0.015889727,0.010912344,-0.2768205,-0.16469912,-0.15027131,-0.22479247,-0.110397495,0.047737435,0.013350457,-0.079591446,0.18992984,0.234602,-0.31899875,-0.10433824,0.24922901,0.004904815,-0.19179717,0.089894004,-0.049496144,-0.08913806,0.058181293,0.21285899,0.14433959,-0.023180805,-0.10129142,0.19380021,-0.055408232,-0.2757222,-0.043537736,0.21398318,-0.17328313,0.085354686,-0.10520237,0.10631417,0.28354385,-0.3211403,-0.13283552,0.41188797,0.09963531,0.016685836,0.03016378,0.04258052,-0.024187356,-0.32379764,-0.021502696,-0.23865731,0.22189541,-0.029013135,-0.01122345,0.029451055,-0.06933231,-0.07273167,-0.22083673,-0.43783805,0.21668875,0.092140615,-0.031728424,-0.16860548,0.036827587,0.09689436,0.32388788,-0.024079379,-0.08963876,-0.20871143,-0.43622556,0.13549326,-0.081595935,0.23486212,-0.32221347,0.29154915,0.016910054,0.13000247,-0.45674157,0.4231662,0.24454033,-0.0015711449,0.06845847,0.44229594,-0.30571076,-0.016180962,-0.05381225,0.009494297,-0.14972289,0.08309455,0.23631784,-0.16106194,0.23091123,-0.08204204,-0.031424023,0.15331729,-0.2284597,-0.07239043,-0.2036062,0.09490089,0.21306895,-0.15479879,-0.032801792,0.24027136,-0.40549564,-0.11230163,0.081598915,-0.18175456,-0.0038139373,0.37936553,0.22058275,0.3742122,0.19540967,0.16047889,-0.22257768,0.13553298,-0.20638867,0.22536471,-0.11763854,0.065786615,-0.37008366,-0.004046969,0.16475591,-0.12111949,-0.041475184,-0.03416672,-0.28087172,0.06262369,0.049159102,-0.079323016,0.21623187,0.45822063,-0.09637714,-0.17720336,-0.058428936,0.05406525,-0.15903287,-0.0037686154,0.43143302,-0.12682737,-0.43152744,-0.17079438,0.2762231,-0.1352272,0.16476803,-0.09807751,-0.24810438,0.13002086,0.16156821,0.5786846,0.11714259,-0.20913616,-0.21270096,-0.3087172,0.12243077,-0.1861234
f,0.1317802,0.08068754,-0.003824152,0.0020420868,0.098767966,-0.024309345,0.13885319,0.013569221,0.14890712,0.07970427,-0.2244907,-0.0026926473,-0.0463844,0.14064005,0.15908289,0.04636049,-0.21022022,0.10690514,-0.1124198,0.19193979,0.18855555,-0.33218548,0.08378555,-0.19174346,-0.37664142,0.010192804,0.27715325,-0.4196288,0.43155897,-0.4181617,-0.47274613,0.15536152,0.06445734,0.2619001,0.26989034,-0.09171837,-0.27623874,-0.5365484,-0.28607556,-0.44614697,0.0042898767,-0.7449412,-0.14426303,-0.07827874,-0.0641815,-0.21377108,-0.51358783,0.23672134,-0.049669616,-0.11046023,-0.057240825,0.37308782,0.35118267,0.23642915,-0.21779053,-0.06847701,0.19640453,-0.0871719,0.16911921,-0.1673298,0.0077302083,-0.06991591,-0.10490541,-0.041117385,0.21743552,-0.25446546,0.10802746,-0.12403353,0.40622172,-0.021330282,0.29596823,0.3232597,-0.18608694,0.010265581,-0.62469864,0.058029443,-0.23633519,-0.45327795,0.23024896,-0.05711938,-0.12499463,0.16967888,0.1623457,0.14048201,0.4384875,0.4109608,0.15799674,0.18601343,0.2576676,0.5424748,-0.36553577,0.28778386,0.6051255,-0.27687508,0.08719225,0.16098094,-0.03593477,-0.058679618,0.34148088,0.037860923,0.20367871,-0.626644,-0.22545987,0.038499303,-0.08474989,-0.007834472,0.22277628,-0.10317647,-0.40091395,0.059665974,-0.26946652,0.11546014,-0.23839642,-0.001879856,0.3822032,-0.3126148,0.12611738,0.1990822,0.19102417,0.30337727,0.087513454,-0.0031329896,-0.14747226,-0.4603538,0.01263126,-0.24712977,-0.2817076,-0.32329434,-0.35228544,0.5574848,-0.06428043,-0.00077877194,0.6004829,-0.64838386,-0.11342258,0.3354196,0.21763608,0.098331764,0.11984554,0.25232753,0.03167773,-0.3356359,-0.09653566,-0.46019605,0.34156346,-0.17571655,-0.20328939,-0.1296666,0.16854917,0.1387712,-0.09720785,0.5243032,0.06560961,0.012929529,-0.04663673,0.24315873,-0.084924005,0.6785453,-0.35771483,0.18292175,0.12838478,-0.11036493,-0.11704913,0.23112291,-0.57996726,-0.20954844,-0.19002151,-0.27536237,-0.185085,-0.87940174,0.1327877,-0.53304106,-0.15135235,0.22596009,-0.064450555,0.22546512,-0.07870281,-0.07027085,0.243218,0.3625725,0.15202408,-0.1354632,0.22691551,-0.24519388,0.020880152,0.2665229,0.10026773,0.74815637,0.1490373,-0.043499455,0.22112915,0.003725022,-0.25254947,0.050084114,-0.5899645,-0.36701718,-0.3414284,0.1892458,-0.049894113,-0.07056599,0.024717458,0.06114386,0.21537453,-0.27053747,0.2218349,-0.3231044,-0.020723373,-0.64801764,-0.51073146,-0.44358972,-0.35111332,0.027177177,0.035077035,0.17162797,-0.20938352,0.19156162,-0.10056963,0.42352644,-0.20590651,0.094284035,0.04120158,-0.045574114,-0.12455513,0.20198682,0.25842184,0.11558181,0.09251094,-0.17700899,-0.11787177,0.074498855,0.26342362,0.16417593,0.2988701,-0.26712686,-0.03962373,-0.24270508,-0.13397124,-0.5017424,-0.6655888,0.09088611,-0.065391816,0.07899445,0.0061862543,-0.11155701,0.061515473,-0.28945726,-0.36266175,-0.1917339,0.40445006,-0.3191373,-0.01924337,0.042027615,0.06770105,0.119348995,-0.03222183,0.05977168,-0.1774658,-0.36990136,-0.18760613,-0.0011002365,-0.041991964,0.010118179,-0.38904577,-0.02462966,-0.1373565,0.15111068,0.039549045,0.089067,0.009896249,0.18810543,0.2843693,0.42258328,-0.31753188,-0.14637233,0.015035462,0.23563075,-0.33250213,-0.018613845,0.25263706,-0.33602425,-0.27025822,0.08203269,-0.34738618,0.16445331,0.6563969,0.040885527,-0.06770022,0.17297588,-0.1876016,0.2969927,0.24437016,0.2440876,0.03452632,-0.22036171,0.6361476,-0.278315,0.051271975,0.42750517,-0.017704654,-0.25080857,0.02544865,0.052563578,-0.02114714,0.004293274,0.015101895,0.14314905,-0.32002208,0.11930843,0.22624424,0.6554642,0.01842495,0.2752893,0.043086424,-0.11552695,0.038866766,-0.20089127,-0.14244843,-0.1043203,0.32243684,0.0875183,-0.15217972,-0.008527454,-0.6267266,0.5573326,-0.27125013,-0.43254986,-0.25372717,0.23389317,-0.47421977,-0.35458136,0.46300507,-0.17531669,0.524955,-0.21353453,0.2787823,-0.48577955,0.12449531,-0.66041034,-0.17352295,-0.3067572,-0.25446314,0.20658249,0.118403345,-0.012053013,-0.024962895,-0.10358627,-0.0954399,0.14135188,-0.0010991916,0.20176801,-0.28559136,0.27252784,-0.030715663,0.011463737,-0.26568252,0.15744002,-0.29755995,-0.21214229,-0.098703824,0.15155077,-0.3823388,-0.19203258,-0.09987963,0.0315793,-0.16762525,-0.42631346,0.07613814,0.13279194,-0.05581477,0.020938054,0.32328704,0.4734091,0.2687043,0.071909145,0.00020505302,-0.28930396,-0.063088976,-0.40556747,-0.64681506,0.099625826,-0.20047444,0.15801464,0.3342792,-0.057165314,0.36598685,0.10034327,-0.34233108,-0.09386701,0.08874463,-0.23246291,-0.03129872,0.07211114,0.36442998,0.30978942,-0.054077297,0.23756856,-0.027284667,-0.14142837,-0.25035766,0.060784556,0.42152447,-0.15956742,0.09591166,-0.39276257,0.14044727,0.19175094,-0.105807915,-0.46008474,-0.55319744,0.023538414,0.17669183,0.06051817,0.10820196,0.1322839,-0.14052862,0.055302437,0.055247426,-0.07575635,-0.15205261,0.61175907,0.087615766,0.36721954,0.14049995,-0.5907799,-0.05387237,0.5012323,-0.1794618,-0.09408251,0.25910845,0.11974501,-0.3022363,0.31287038,-0.14711678,0.18520658,0.0790468,-0.46441823,0.02123193,-0.21182339,-0.2940901,0.04763412,-0.15802327,-0.18501899,-0.22175214,0.4711406,-0.022082817,0.04378409,0.37299255,0.3058041,-0.43048462,-0.012885883,0.09316498,0.24772102,0.14863177,-0.34314537,0.31400475,0.12168054,-0.012857437,0.038344473,-0.24401748,0.18815589,0.20270663,0.42908755,-0.07512609,-0.14366126,-0.22352469,0.34882227,0.07134277,-0.030736186,-0.27867088,0.2209974,-0.2580846,-0.4676138,-0.013268657,0.20712256,-0.010814901,-0.33939126,-0.1817522,0.012650676,-0.52049947,-0.47588417,-0.028031565,-0.14553219,0.33273026,0.78455603,-0.13397133,-0.18400167,-0.02633059,0.06276533,-0.8420935,-0.54476345,0.489876,-0.20440158,-0.2555301,0.089654796,0.044001356,-0.10353203,-0.25811625,-0.2592097,0.06674211,0.24254195,0.4405362,0.089538075,-0.2058337,-0.1578946,-0.24842052,0.040554088,0.013482921,-0.1687607,0.51432365,-0.08246264,0.49834904,0.14225584
g,0.18402207,0.00413578,0.036867667,0.22977614,0.2773476,0.046331234,0.058610536,-0.225567,0.047831494,0.23082414,-0.28634953,0.30640954,0.44250628,0.023570664,-0.14393201,-0.37532505,-0.242699,0.09493516,-0.016038079,0.3057273,0.045084447,0.21210231,0.028911293,0.40867037,-0.46139833,-0.33781937,0.12739733,0.19225562,0.15784433,0.2679105,0.42026752,-0.06348777,0.32109445,0.35733578,-0.012710281,-0.07288449,-0.09436685,0.0721602,-0.062121935,-0.21135676,0.27149624,0.09838403,-0.05772288,-0.4340776,-0.02756052,-0.12279575,-0.17217629,-0.1762012,0.07939434,-0.059034184,0.068785414,0.9244872,-0.42545965,-0.06416758,0.13544971,-0.18215197,-0.69763404,-0.37706226,0.5434395,0.1259832,-0.14354524,-0.21482477,0.055848923,-0.11913198,0.0062634274,-0.09122608,0.25339442,-0.63503706,-0.10828754,-0.032430083,-0.16178428,-0.28615317,-0.41008514,0.11112205,-0.13074183,0.5031253,0.088656254,0.22152527,-0.2712944,-0.12549768,-0.21595427,-0.35461769,-0.15493816,-0.18428418,0.16281915,-0.008470951,-0.058244616,0.2849744,-0.14351663,0.029574335,0.04417685,-0.16347821,-0.33869255,-0.18411234,-0.0047382712,-0.21676174,-0.094851516,-0.2425437,0.102877446,0.15815546,-0.06808104,-0.6481607,-0.12977868,0.10232682,0.34346056,0.03203974,-0.47039104,-0.10146598,0.523491,0.06392168,0.34768504,-0.107332125,-0.58141625,-0.42415297,0.22291943,-0.49142337,-0.037043296,0.59916997,-0.060333375,-0.22166044,-0.41562137,0.19102463,0.07357037,0.17000145,0.124552324,0.1543059,-0.15109715,-0.066805795,0.13603473,-0.13574824,-0.16088802,-0.3193527,0.013032366,0.09288523,-0.05237641,0.46851206,-0.5145889,-0.086993515,-0.12992962,0.02202382,0.2924545,0.21618344,-0.23313779,0.24274752,0.13741228,-0.10055426,0.023608744,-0.29875016,-0.07124081,-0.24274132,-0.05912026,-0.08710955,-0.33426765,-0.04549329,-0.18408175,-0.46567684,0.13332736,-0.14873567,0.09880023,0.3673855,0.028285582,0.42654258,-0.27237922,-0.212719,0.11111373,0.079121925,-0.35143667,0.21632433,-0.17713389,-0.66178447,0.020971332,-0.24555096,-0.024951018,-0.20238376,0.08481885,-0.00568283,0.26331434,0.10477257,0.230905,0.49666,0.28065634,-0.41236335,0.53841084,-0.33044457,-0.28987452,-0.25059703,0.316974,-0.12067179,0.13456205,0.11074359,0.2897149,-0.039534424,0.19978277,0.5388322,-0.41117322,-0.08445482,-0.19633302,-0.011004284,-0.05213763,0.250722,-0.33879232,-0.014294177,0.24993014,0.105759755,0.400926,-0.4843888,0.18517348,0.10302923,0.15299445,0.2487391,0.001367107,-0.10924918,0.13161236,-0.14041945,0.099455565,-0.07348138,0.05566953,-0.4658895,-0.31840676,0.03748977,0.40792292,0.011859614,0.06478403,-0.093141995,0.1775692,0.108314484,0.5828881,0.084506646,-0.05525367,0.39367017,-0.63189894,-0.57149035,0.09230022,-0.017456725,-0.32639012,0.26133552,-0.0037620068,0.3474282,0.25722754,-0.17473704,0.12203809,-0.31092125,-0.116485305,0.09686995,0.17898193,-0.45004132,0.34681484,0.013478771,-0.0886433,-0.2638263,-0.72214186,0.028063245,-0.31429815,-0.13839631,0.46839902,-0.15622313,0.1883221,-0.14908114,0.37945095,-0.21350983,0.1975033,0.19690865,-0.3400277,0.07093851,0.1370746,-0.345455,0.137016,0.06392965,-0.23651192,0.25646177,-0.36456805,-0.1250895,-0.121724814,-0.50793827,0.5226176,-0.043969218,-0.12346814,0.26390734,0.3630725,-0.10013707,0.10048146,0.22254707,-0.11592306,-0.13967259,0.31119272,0.1352188,-0.011346832,0.20439225,0.2139512,-0.008818209,0.24648407,0.51071346,-0.00752569,0.457493,0.23232394,-0.07267727,0.19012102,0.55312514,-0.21391875,-0.19219369,0.08506394,-0.6559682,0.2259962,-0.8241516,-0.22393525,0.49915344,-0.13319579,0.19598426,0.01040387,-0.1198305,0.3706914,0.13477203,-0.44314486,-0.0020279512,-0.043950252,-0.024778802,0.27261737,-0.14532183,0.037326977,0.17782396,0.29950747,-0.11586949,-0.5523884,-0.33984277,0.07913251,0.36264676,0.13175817,-0.22628038,-0.294696,0.2786665,-0.078369975,-0.037926383,-0.14980513,-0.13712317,-0.060458623,-0.079121985,-0.3179099,-0.2078622,0.22421578,-0.5854506,-0.0460082,0.17425036,0.20630759,0.04923989,0.26459488,-0.35847592,-0.25685596,0.14124642,0.09625303,-0.049427755,0.17923005,-0.058356233,0.027979463,0.5775129,-0.09319901,0.29838613,-0.17826563,-0.054533347,0.6085181,-0.23159462,0.2202583,0.13586086,0.5756857,-0.17707127,-0.108786434,0.03279411,0.08422643,0.13494517,-0.121853374,0.47786978,-0.20645025,-0.4235592,0.06775857,-0.23076287,-0.13404678,0.29928392,0.3227102,0.14084408,-0.14203918,0.038533606,-0.13650182,0.22044948,-0.3756507,0.30847973,0.29077625,0.030900963,-0.047013335,0.68609697,-0.5859024,0.24897853,-0.04336403,0.001762867,-0.08659834,0.060239784,-0.39873362,0.19715881,-0.1596235,-0.41193277,-0.20963696,0.20242321,0.32132286,0.17951304,0.28245962,-0.16066465,-0.20259961,-0.27198684,0.16074952,-0.07112822,-0.13585088,-0.046476386,0.3616853,-0.021120794,0.21095714,-0.06791197,0.007933103,-0.040010612,-0.47406572,-0.1705242,0.108228035,-0.034487292,0.00377471,0.40187797,0.028153814,-0.4105956,-0.26332372,0.18644731,-0.22332975,0.10756933,0.06782671,-0.061530225,0.23006606,0.16340104,0.7807628,-0.109001555,-0.060952686,-0.1379058,0.21958435,-0.21239902,0.05464729,-0.032537334,-0.025999524,0.056814082,0.55907214,0.1472069,-0.36444694,0.18696246,0.3789224,0.13516492,-0.36051837,-0.761492,0.09562797,0.20422673,0.4108433,0.11309816,-0.36810482,0.052103557,0.073016465,-0.24706955,-0.16645539,0.12958443,-0.025331087,-0.3511688,0.21508858,0.16574126,-0.087407686,0.28510594,0.164225,-0.17569348,0.006697461,-0.44358692,-0.057085134,-0.35586357,-0.40168035,0.21924004,-0.19917256,-0.2788491,0.05245421,0.52359885,-0.10749247,0.027725315,-0.291009,-0.07251281,-0.033625808,0.2573767,-0.4211063,-0.5781282,-0.06043765,-0.1823295,-0.024659678,0.21830484,0.06611764,0.7041658,0.12130542,0.11209896,-0.0522319,-0.05608756,-0.1707084,-0.26676616,0.15477425,0.033923604,-0.3261951,-0.042464107,-0.2574451,-0.46698606,0.1609165,-0.08786082,0.07762379,0.08620743,0.50360817,-0.57340246,-0.22699517,-0.15694875
h,0.3750031,0.087194756,-0.4026928,-0.0874971,0.2482093,-0.28033394,0.068213694,0.22396627,-0.01508693,-0.22946648,0.3860302,0.042324394,0.14524844,0.62608373,0.047138084,0.1424723,-0.11840646,0.19183916,-0.17628793,-0.13068643,-0.015486051,0.050724022,0.1053153,0.35063156,0.010491405,-0.56129855,0.2047177,0.26409155,0.22191173,0.026111223,0.24356435,-0.17661595,0.028950311,-0.27268857,0.1219944,0.13959323,-0.3672318,0.16451803,0.21929005,0.036889687,0.3300214,0.42556852,0.21159855,-0.4771935,-0.0016676672,0.28642544,-0.16587728,0.13151246,0.07132004,-0.15346363,-0.16840166,0.7104119,0.030084085,-0.3449804,-0.24414738,0.10189403,-0.43263966,-0.4160387,-0.048549566,-0.1494066,-0.57377607,-0.49217308,0.054959666,0.2361441,-0.0045304997,0.048170377,0.57790726,-0.023107402,0.1017336,0.17027095,-0.3628404,0.032144252,-0.21852772,0.19383368,-0.41673493,0.62312365,-0.10546196,-0.113893375,0.0219987,0.43349364,-0.44020513,-0.1370277,-0.3853756,-0.40375528,0.6494772,0.11831919,-0.5300492,-0.40146726,-0.06349158,0.18784548,0.22482933,-0.13025352,-0.24003685,-0.23794019,-0.2479431,-0.35485804,-0.07300816,-0.43007463,0.06547648,-0.17395678,0.11255695,-0.24663782,0.23215443,0.39890507,0.2579523,0.362979,-0.24509992,0.0020797774,-0.117773384,-0.16521055,0.23333704,0.21411441,-0.33897436,-0.24435294,0.13981691,-0.55862504,-0.033347886,0.26493603,-0.32041454,-0.11191434,0.12172604,-0.22948748,-0.051159307,0.5864773,0.14665577,0.008730274,-0.21787477,-0.51659036,-0.20788753,-0.04054308,0.51333207,0.055897407,-0.12437607,-0.24166304,0.4712883,-0.053153485,-0.7635226,-0.28684127,-0.19185372,0.0942716,0.34969246,-0.08677219,-0.14338776,0.03556825,-0.431018,0.119002506,-0.24322769,0.048961647,-0.053620167,0.09827219,-0.04925473,-0.14491358,-0.051280916,-0.2717914,-0.05001703,-0.25770485,-0.3132824,-0.08600744,0.133128,0.2261395,-0.15530382,0.08972211,-0.53096795,-0.029349871,-0.047880277,0.038030114,0.5155521,-0.08186582,-0.25074553,-0.41013873,-0.16525894,-0.2718584,0.1267283,0.023871541,0.096018344,-0.4089248,0.2320087,0.17971233,0.161091,0.023437213,0.2593091,-0.11804421,-0.096238516,0.071283594,0.029799215,-0.014078375,-0.00240805,0.28486457,0.0009198785,-0.1395095,0.357156,0.0072439946,0.54047745,-0.061992176,0.3539989,0.20115274,-0.061744798,-0.20779167,-0.22077918,0.08401067,-0.38055736,0.34219787,0.044814736,0.0089587215,0.09720978,-0.19375606,0.30368146,0.5225819,0.16712913,-0.10704888,-0.44834906,0.246813,0.091751635,0.0099459775,-0.01618798,0.14294295,0.281416,0.06587024,-0.4434721,0.23000783,-0.2356871,-0.33007395,-0.009623505,-0.115418114,-0.09667555,0.21830606,0.4298717,-0.14727132,-0.14964259,-0.033344977,-0.1858688,0.12221769,0.023003288,0.023717321,-0.1702407,0.06802275,0.07937726,0.3224561,-0.05221569,-0.5589272,-0.22401267,-0.22763965,0.07674399,0.47631907,-0.010063283,-0.28198314,0.68262494,0.009001175,0.023278717,0.085105985,-0.08133963,-0.14779547,-0.45569003,0.17146033,0.38609335,-0.4678283,0.04401709,-0.59428614,0.019353725,0.102229945,-0.0028608218,0.104819566,-0.289607,0.109524004,0.04043048,0.4537322,-0.05236639,-0.05987402,-0.22818395,0.23581004,0.02445086,0.11764439,0.18116441,0.05613385,0.13109325,0.086904734,0.092859015,0.41466913,-0.14100984,0.006613523,-0.062626936,0.5243772,-0.48115504,0.122182086,0.22735739,0.40713647,-0.14714354,-0.27645862,-0.25362396,-0.029608391,0.5158648,0.2887753,-0.3776276,0.24059087,0.29997492,-0.37516835,0.09670594,-0.16845258,0.01495773,-0.0065218657,0.110224396,0.13731802,-0.15097043,-0.12108151,0.09414796,-0.16538864,0.14380872,0.123632535,-0.2626415,0.051680356,-0.09740505,0.47746372,-0.004715305,-0.29409686,0.31010365,-0.03659634,0.00980258,-0.21934727,-0.2786508,0.19753397,-0.35540953,0.37398568,0.021436322,-0.36401016,0.21870998,-0.22945526,0.49319643,-0.11962488,0.22810157,-0.1410289,0.032131974,-0.49735177,0.08923077,0.15356432,-0.10736247,0.30309662,-0.15537703,0.08797806,0.16309169,0.071242616,-0.21510264,-0.055574838,0.37327123,0.12965618,-0.3674833,-0.051856108,-0.011189289,-0.5207504,-0.052735694,-0.17060032,0.0014053397,-0.1876894,0.030361943,0.72484493,0.03753136,0.055432077,0.16255495,0.2343052,0.37345752,-0.12369858,0.17226925,0.16524294,-0.3099846,0.010465831,-0.30782297,-0.1447817,-0.15792294,-0.5155361,0.23389052,0.7492649,-0.23321608,0.089763544,-0.015430748,-0.08747769,-0.3530004,-0.15420508,0.47392085,0.17033765,-0.14993328,0.047839686,0.06160285,0.058165237,-0.3873288,0.030094828,0.2159304,0.3558705,0.35025182,0.8300755,-0.424518,-0.1023978,-0.096423045,0.13791984,-0.1743837,0.19496247,-0.3439336,-0.3193191,0.08950132,-0.35637254,-0.26423812,0.12630591,0.17170826,0.03120241,0.03685534,0.19462594,-0.13321427,-0.13798876,0.24872376,-0.12902278,-0.26501286,-0.085487016,-0.12576753,0.03086362,-0.22877595,0.0259219,-0.06978127,-0.20143986,-0.4898455,-0.3420738,-0.22975418,-0.19625181,0.07274055,-0.20294583,0.2019691,0.19779015,-0.3633226,0.15908879,0.038374588,0.34841865,-0.090325244,0.6963425,0.03534935,0.06475038,0.32135534,0.22844204,-0.020128183,-0.22266874,0.42505974,-0.18867593,-0.037438124,0.007836949,-0.04187645,0.021733906,0.24106002,0.3840578,-0.13760172,-0.1813823,0.2710449,0.041083172,0.20725176,-0.12894511,-0.03230697,-0.120266475,0.1951917,0.08147433,-0.030605866,-0.09489497,-0.14166123,0.015365243,-0.09856391,0.04699322,-0.5282277,-0.21792549,-0.02133321,0.3625154,0.14267029,0.30911264,0.03237054,-0.334086,0.2920792,-0.13841388,-0.40990353,-0.1974556,0.18252961,0.060481273,-0.50062907,0.38852838,-0.18190387,0.16199297,-0.19407618,-0.2931132,-0.17768309,0.16926628,0.3522088,-0.20209369,-0.008912452,-0.54270434,-0.06373845,-0.2510146,0.14166647,0.20934182,0.28619888,-0.032788537,0.19954994,-0.18805808,-0.4583372,-0.037723184,-0.31573433,-0.30797094,0.60431534,0.2256738,-0.07794446,0.3470037,-0.9727092,-0.05465348,-0.42127067,0.16083385,0.19684651,-0.1617876,0.050370637,-0.33211732,0.02465707,-0.047008835
